1 1 100 1 1
1 2 100 1 1
1 3 100 1 1
1 4 100 1 1
1 5 100 1 1
1 6 100 1 1
1 7 100 1 1
1 8 100 1 1
1 9 100 1 1
1 12 100 1 1
1 13 100 1 1
1 14 100 1 1
1 15 100 1 1
1 16 100 1 1
1 17 100 1 1
1 18 100 1 1
1 20 100 1 1
1 21 100 1 1
1 22 100 1 1
1 23 100 1 1
1 25 100 1 1
1 26 100 1 1
1 27 100 1 1
1 28 100 1 1
1 29 100 1 1
1 30 100 1 1
1 31 100 1 1
1 32 100 1 1
1 33 100 1 1
1 35 100 1 1
1 36 100 1 1
1 38 100 1 1
1 40 100 1 1
1 41 100 1 1
1 42 100 1 1
1 45 100 1 1
1 46 100 1 1
1 47 100 1 1
1 50 100 1 1
1 52 100 1 1
1 54 100 1 1
1 55 100 1 1
1 56 100 1 1
1 57 100 1 1
1 58 100 1 1
1 63 100 1 1
1 64 100 1 1
1 67 100 1 1
1 68 100 1 1
1 69 100 1 1
1 70 100 1 1
1 74 100 1 1
1 79 100 1 1
1 80 100 1 1
1 83 100 1 1
1 89 100 1 1
1 90 100 1 1
1 91 100 1 1
1 93 100 1 1
1 94 100 1 1
1 97 100 1 1
1 100 100 1 1
1 0 100 2 0.00434466
2 0 100 2 0.995655
1 1 100 2 0.585409
2 1 100 2 0.414591
1 2 100 2 0.507731
2 2 100 2 0.492269
1 3 100 2 0.56089
2 3 100 2 0.43911
1 4 100 2 0.482147
2 4 100 2 0.517853
1 5 100 2 0.519033
2 5 100 2 0.480967
1 6 100 2 0.702912
2 6 100 2 0.297088
1 7 100 2 0.523774
2 7 100 2 0.476226
1 8 100 2 0.480823
2 8 100 2 0.519177
1 9 100 2 0.457489
2 9 100 2 0.542511
1 10 100 2 0.467098
2 10 100 2 0.532902
2 11 100 2 1
1 12 100 2 0.404871
2 12 100 2 0.595129
1 13 100 2 0.561606
2 13 100 2 0.438394
1 14 100 2 0.223549
2 14 100 2 0.776451
1 15 100 2 0.455587
2 15 100 2 0.544413
1 16 100 2 0.489477
2 16 100 2 0.510523
1 17 100 2 0.000653146
2 17 100 2 0.999347
1 18 100 2 0.522662
2 18 100 2 0.477338
1 19 100 2 0.127621
2 19 100 2 0.872379
1 20 100 2 0.570402
2 20 100 2 0.429598
1 21 100 2 0.784071
2 21 100 2 0.215929
1 22 100 2 0.343845
2 22 100 2 0.656155
2 23 100 2 1
1 24 100 2 0.995273
2 24 100 2 0.00472739
1 25 100 2 0.48397
2 25 100 2 0.51603
1 27 100 2 0.996484
2 27 100 2 0.0035163
1 28 100 2 0.672867
2 28 100 2 0.327133
1 29 100 2 0.996062
2 29 100 2 0.00393788
1 30 100 2 2.10171e-05
2 30 100 2 0.999979
2 32 100 2 1
1 33 100 2 0.999605
2 33 100 2 0.000394916
1 34 100 2 0.00207962
2 34 100 2 0.99792
1 35 100 2 0.824281
2 35 100 2 0.175719
1 36 100 2 0.338649
2 36 100 2 0.661351
1 37 100 2 0.999414
2 37 100 2 0.000586449
1 38 100 2 0.49899
2 38 100 2 0.50101
1 39 100 2 0.189717
2 39 100 2 0.810283
1 40 100 2 0.248693
2 40 100 2 0.751307
1 41 100 2 0.997036
2 41 100 2 0.00296392
1 43 100 2 1
1 44 100 2 0.999548
2 44 100 2 0.000451833
1 45 100 2 0.300418
2 45 100 2 0.699582
1 46 100 2 0.973233
2 46 100 2 0.026767
1 47 100 2 0.433533
2 47 100 2 0.566467
1 48 100 2 0.396682
2 48 100 2 0.603318
2 49 100 2 1
1 53 100 2 0.983099
2 53 100 2 0.0169012
2 55 100 2 1
1 56 100 2 0.477155
2 56 100 2 0.522845
1 57 100 2 0.00257069
2 57 100 2 0.997429
1 59 100 2 1
1 63 100 2 0.98969
2 63 100 2 0.0103095
1 65 100 2 0.994794
2 65 100 2 0.0052063
1 68 100 2 0.00246704
2 68 100 2 0.997533
1 70 100 2 0.999734
2 70 100 2 0.000266245
1 76 100 2 0.996569
2 76 100 2 0.00343131
1 79 100 2 0.699749
2 79 100 2 0.300251
1 82 100 2 0.997887
2 82 100 2 0.00211304
1 83 100 2 0.992483
2 83 100 2 0.00751716
1 84 100 2 1
1 87 100 2 0.0441513
2 87 100 2 0.955849
1 92 100 2 0.999852
2 92 100 2 0.000147884
1 0 100 3 0.0100563
2 0 100 3 0.419735
3 0 100 3 0.570209
1 1 100 3 0.373261
2 1 100 3 0.325611
3 1 100 3 0.301128
1 2 100 3 0.384711
2 2 100 3 0.263993
3 2 100 3 0.351296
1 3 100 3 0.356867
2 3 100 3 0.332651
3 3 100 3 0.310481
1 4 100 3 0.921701
3 4 100 3 0.0782993
1 5 100 3 0.361051
2 5 100 3 0.323973
3 5 100 3 0.314976
1 6 100 3 0.332928
2 6 100 3 0.334303
3 6 100 3 0.332768
1 7 100 3 0.348723
2 7 100 3 0.367586
3 7 100 3 0.283691
1 8 100 3 0.380602
2 8 100 3 0.346179
3 8 100 3 0.273218
1 9 100 3 0.336128
2 9 100 3 0.377326
3 9 100 3 0.286546
1 10 100 3 0.242798
2 10 100 3 0.371113
3 10 100 3 0.386089
1 11 100 3 0.397981
2 11 100 3 0.305906
3 11 100 3 0.296113
1 12 100 3 0.325553
2 12 100 3 0.33251
3 12 100 3 0.341937
1 13 100 3 0.158871
2 13 100 3 0.609564
3 13 100 3 0.231565
1 14 100 3 0.386676
2 14 100 3 0.365912
3 14 100 3 0.247412
1 15 100 3 0.456839
2 15 100 3 0.0252002
3 15 100 3 0.517961
1 16 100 3 0.99587
2 16 100 3 0.00341174
3 16 100 3 0.000718699
1 17 100 3 0.404682
2 17 100 3 0.344392
3 17 100 3 0.250926
1 18 100 3 0.663419
2 18 100 3 0.216303
3 18 100 3 0.120278
1 19 100 3 0.307008
2 19 100 3 0.321335
3 19 100 3 0.371657
1 20 100 3 0.982912
2 20 100 3 0.000420602
3 20 100 3 0.0166668
1 21 100 3 0.0356007
2 21 100 3 0.905564
3 21 100 3 0.0588353
1 22 100 3 0.519006
2 22 100 3 0.478162
3 22 100 3 0.00283121
1 23 100 3 0.156013
2 23 100 3 0.381472
3 23 100 3 0.462515
1 24 100 3 0.301765
2 24 100 3 0.364687
3 24 100 3 0.333548
1 25 100 3 0.000686813
2 25 100 3 3.48698e-05
3 25 100 3 0.999278
1 26 100 3 0.25915
2 26 100 3 0.369943
3 26 100 3 0.370908
1 27 100 3 0.993312
2 27 100 3 0.00349099
3 27 100 3 0.00319741
1 28 100 3 0.361187
2 28 100 3 0.308479
3 28 100 3 0.330333
1 29 100 3 0.996393
2 29 100 3 0.00360737
1 30 100 3 0.263109
2 30 100 3 0.364735
3 30 100 3 0.372156
1 31 100 3 0.29113
2 31 100 3 0.334403
3 31 100 3 0.374467
1 32 100 3 0.943219
2 32 100 3 0.00108267
3 32 100 3 0.0556985
1 33 100 3 0.0152287
2 33 100 3 0.8044
3 33 100 3 0.180371
1 34 100 3 0.152604
2 34 100 3 0.346223
3 34 100 3 0.501174
1 35 100 3 0.00136125
2 35 100 3 1.83707e-05
3 35 100 3 0.99862
1 36 100 3 0.108427
2 36 100 3 0.00562729
3 36 100 3 0.885945
1 37 100 3 0.285914
2 37 100 3 0.402113
3 37 100 3 0.311973
1 38 100 3 0.32555
2 38 100 3 0.379037
3 38 100 3 0.295413
1 39 100 3 0.11763
2 39 100 3 0.501475
3 39 100 3 0.380895
1 40 100 3 0.00461685
2 40 100 3 0.00165826
3 40 100 3 0.993725
1 41 100 3 0.00118327
2 41 100 3 0.0351645
3 41 100 3 0.963652
1 42 100 3 0.976285
2 42 100 3 0.020808
3 42 100 3 0.00290741
1 43 100 3 1.68442e-05
2 43 100 3 0.00762517
3 43 100 3 0.992358
1 44 100 3 0.929707
2 44 100 3 0.0679463
3 44 100 3 0.00234681
1 45 100 3 0.222312
2 45 100 3 0.365591
3 45 100 3 0.412096
1 46 100 3 0.0266736
2 46 100 3 3.30489e-05
3 46 100 3 0.973293
1 47 100 3 0.298359
2 47 100 3 0.357031
3 47 100 3 0.34461
1 48 100 3 0.115163
2 48 100 3 0.000297926
3 48 100 3 0.884539
1 49 100 3 0.322736
2 49 100 3 0.266084
3 49 100 3 0.41118
1 50 100 3 0.987617
2 50 100 3 0.000385
3 50 100 3 0.0119975
1 52 100 3 0.0478718
2 52 100 3 0.950945
3 52 100 3 0.00118345
1 53 100 3 0.931416
2 53 100 3 0.0672844
3 53 100 3 0.0013
1 54 100 3 0.94648
2 54 100 3 0.00012151
3 54 100 3 0.0533986
1 55 100 3 0.965882
2 55 100 3 0.0258054
3 55 100 3 0.00831296
1 56 100 3 0.974581
2 56 100 3 0.00027002
3 56 100 3 0.0251484
1 57 100 3 0.397942
2 57 100 3 7.07583e-05
3 57 100 3 0.601987
1 58 100 3 0.0031621
2 58 100 3 0.34154
3 58 100 3 0.655298
1 59 100 3 0.473513
2 59 100 3 0.00521498
3 59 100 3 0.521272
1 60 100 3 0.633599
2 60 100 3 0.00181455
3 60 100 3 0.364587
1 61 100 3 1.04852e-05
2 61 100 3 0.137494
3 61 100 3 0.862495
1 62 100 3 0.00233096
2 62 100 3 0.9969
3 62 100 3 0.000769233
1 63 100 3 0.128811
2 63 100 3 0.571092
3 63 100 3 0.300096
1 64 100 3 0.213441
2 64 100 3 0.000379409
3 64 100 3 0.78618
1 65 100 3 0.844767
2 65 100 3 0.155233
1 66 100 3 0.440857
2 66 100 3 0.555856
3 66 100 3 0.00328729
1 67 100 3 0.967543
2 67 100 3 0.0179393
3 67 100 3 0.0145175
1 68 100 3 0.000671018
2 68 100 3 6.30084e-05
3 68 100 3 0.999266
1 69 100 3 0.803479
2 69 100 3 0.000179879
3 69 100 3 0.196341
1 70 100 3 0.99968
2 70 100 3 3.86716e-05
3 70 100 3 0.000281233
1 71 100 3 7.1496e-05
2 71 100 3 6.96725e-06
3 71 100 3 0.999922
1 72 100 3 0.113806
2 72 100 3 0.662806
3 72 100 3 0.223388
1 74 100 3 0.000298373
2 74 100 3 8.77899e-05
3 74 100 3 0.999614
1 75 100 3 0.999897
2 75 100 3 3.63304e-05
3 75 100 3 6.63747e-05
1 76 100 3 0.991749
2 76 100 3 5.14796e-05
3 76 100 3 0.00819911
1 77 100 3 0.999646
2 77 100 3 0.000210238
3 77 100 3 0.000144071
2 78 100 3 0.00022177
3 78 100 3 0.999778
1 79 100 3 0.00129431
2 79 100 3 0.535674
3 79 100 3 0.463032
2 80 100 3 0.000130852
3 80 100 3 0.999869
1 81 100 3 0.996172
2 81 100 3 4.45578e-05
3 81 100 3 0.00378389
1 82 100 3 0.0856462
2 82 100 3 9.35584e-05
3 82 100 3 0.91426
1 83 100 3 0.804195
2 83 100 3 0.00343259
3 83 100 3 0.192372
1 84 100 3 0.015086
2 84 100 3 4.80784e-05
3 84 100 3 0.984866
1 85 100 3 0.28873
2 85 100 3 0.303049
3 85 100 3 0.408221
1 86 100 3 0.217909
2 86 100 3 0.710341
3 86 100 3 0.0717499
1 87 100 3 0.0188287
2 87 100 3 6.54919e-06
3 87 100 3 0.981165
1 88 100 3 0.31601
2 88 100 3 0.000320508
3 88 100 3 0.683669
1 89 100 3 0.981881
2 89 100 3 0.000338508
3 89 100 3 0.0177803
1 90 100 3 0.00281999
2 90 100 3 3.26683e-05
3 90 100 3 0.997147
1 91 100 3 0.999366
2 91 100 3 4.30386e-05
3 91 100 3 0.000591359
1 92 100 3 0.999728
2 92 100 3 2.74235e-05
3 92 100 3 0.000244711
1 93 100 3 0.243359
2 93 100 3 0.420806
3 93 100 3 0.335835
1 94 100 3 0.989825
2 94 100 3 3.18925e-06
3 94 100 3 0.0101718
1 95 100 3 0.999638
2 95 100 3 0.000190288
3 95 100 3 0.000171491
1 96 100 3 1
1 97 100 3 0.14084
2 97 100 3 0.522485
3 97 100 3 0.336675
1 98 100 3 0.998514
2 98 100 3 1.36767e-05
3 98 100 3 0.00147254
1 99 100 3 0.999302
3 99 100 3 0.000698355
1 100 100 3 0.999269
2 100 100 3 5.91884e-05
3 100 100 3 0.000671763
1 0 100 4 0.0231857
2 0 100 4 0.159521
3 0 100 4 0.320316
4 0 100 4 0.496977
1 1 100 4 0.271637
2 1 100 4 0.240079
3 1 100 4 0.259217
4 1 100 4 0.229066
1 2 100 4 0.361427
2 2 100 4 0.231994
3 2 100 4 0.22433
4 2 100 4 0.182249
1 3 100 4 0.455993
2 3 100 4 0.208562
3 3 100 4 0.191576
4 3 100 4 0.143869
1 4 100 4 0.211277
2 4 100 4 0.264392
3 4 100 4 0.250009
4 4 100 4 0.274322
1 5 100 4 0.205026
2 5 100 4 0.268459
3 5 100 4 0.267929
4 5 100 4 0.258586
1 6 100 4 0.143949
2 6 100 4 0.288901
3 6 100 4 0.284766
4 6 100 4 0.282384
1 7 100 4 0.274651
2 7 100 4 0.244564
3 7 100 4 0.243904
4 7 100 4 0.236881
1 8 100 4 0.360252
2 8 100 4 0.214654
3 8 100 4 0.212606
4 8 100 4 0.212488
1 9 100 4 0.201516
2 9 100 4 0.274323
3 9 100 4 0.263545
4 9 100 4 0.260616
1 10 100 4 0.0679992
2 10 100 4 0.308791
3 10 100 4 0.300158
4 10 100 4 0.323052
2 11 100 4 0.99801
3 11 100 4 0.00191918
4 11 100 4 7.0651e-05
1 12 100 4 0.210525
2 12 100 4 0.249654
3 12 100 4 0.287272
4 12 100 4 0.252549
1 13 100 4 0.212257
2 13 100 4 0.257906
3 13 100 4 0.262841
4 13 100 4 0.266996
1 14 100 4 0.915652
2 14 100 4 0.0818407
3 14 100 4 0.00205128
4 14 100 4 0.00045638
1 15 100 4 0.328449
2 15 100 4 0.241225
3 15 100 4 0.20007
4 15 100 4 0.230256
1 16 100 4 0.903482
2 16 100 4 0.0652732
3 16 100 4 0.0190154
4 16 100 4 0.0122299
1 17 100 4 0.528619
2 17 100 4 0.136218
3 17 100 4 0.00556186
4 17 100 4 0.329601
1 18 100 4 0.996202
2 18 100 4 0.00204022
3 18 100 4 0.00155528
4 18 100 4 0.000202232
1 19 100 4 0.00191738
2 19 100 4 0.312239
3 19 100 4 0.343535
4 19 100 4 0.342309
1 20 100 4 0.320524
2 20 100 4 0.224638
3 20 100 4 0.349395
4 20 100 4 0.105443
1 21 100 4 0.163688
2 21 100 4 0.000236841
3 21 100 4 0.0039547
4 21 100 4 0.832121
1 22 100 4 0.984593
2 22 100 4 0.0105744
3 22 100 4 0.00461535
4 22 100 4 0.000217199
1 23 100 4 0.000256467
2 23 100 4 0.000109777
3 23 100 4 0.0180429
4 23 100 4 0.981591
1 24 100 4 0.996046
2 24 100 4 2.83449e-06
3 24 100 4 2.89443e-06
4 24 100 4 0.00394795
1 25 100 4 0.00167149
2 25 100 4 0.952349
3 25 100 4 0.00308469
4 25 100 4 0.0428944
1 26 100 4 0.000657429
2 26 100 4 0.0149216
3 26 100 4 3.48609e-05
4 26 100 4 0.984386
1 27 100 4 0.87932
2 27 100 4 0.119025
3 27 100 4 9.90568e-05
4 27 100 4 0.00155577
1 28 100 4 0.459919
2 28 100 4 0.531325
3 28 100 4 0.00682199
4 28 100 4 0.00193354
1 29 100 4 0.459508
2 29 100 4 0.311063
3 29 100 4 0.00189285
4 29 100 4 0.227536
1 30 100 4 0.22898
2 30 100 4 0.247564
3 30 100 4 0.249037
4 30 100 4 0.27442
1 31 100 4 0.863474
2 31 100 4 0.135388
3 31 100 4 0.000572533
4 31 100 4 0.000565336
1 32 100 4 1.3859e-05
2 32 100 4 0.999931
3 32 100 4 5.53192e-05
1 33 100 4 0.127306
2 33 100 4 0.289604
3 33 100 4 0.289092
4 33 100 4 0.293998
1 34 100 4 0.00889745
2 34 100 4 0.177553
3 34 100 4 0.793342
4 34 100 4 0.0202075
1 35 100 4 0.000507786
2 35 100 4 1.0604e-05
3 35 100 4 6.41722e-05
4 35 100 4 0.999417
1 36 100 4 0.121178
2 36 100 4 0.838425
3 36 100 4 0.0403569
4 36 100 4 3.93755e-05
1 37 100 4 0.204635
2 37 100 4 0.337428
3 37 100 4 0.34421
4 37 100 4 0.113727
3 38 100 4 1
2 39 100 4 0.086695
3 39 100 4 0.00518601
4 39 100 4 0.908119
1 40 100 4 0.999242
2 40 100 4 4.60519e-05
4 40 100 4 0.00071176
1 41 100 4 0.961197
2 41 100 4 0.0377493
3 41 100 4 0.00105328
1 42 100 4 0.98812
2 42 100 4 0.0116926
3 42 100 4 1.31745e-05
4 42 100 4 0.000174038
1 43 100 4 0.000664801
2 43 100 4 0.191552
3 43 100 4 0.00218178
4 43 100 4 0.805601
1 44 100 4 0.284938
2 44 100 4 0.0122122
4 44 100 4 0.70285
1 45 100 4 0.996079
2 45 100 4 0.00269804
3 45 100 4 0.00110836
4 45 100 4 0.00011474
1 46 100 4 0.990641
2 46 100 4 0.00788803
3 46 100 4 0.000749686
4 46 100 4 0.000721832
1 47 100 4 0.29782
2 47 100 4 0.116823
3 47 100 4 0.292284
4 47 100 4 0.293073
1 48 100 4 0.152337
2 48 100 4 0.255962
3 48 100 4 0.319452
4 48 100 4 0.272249
1 49 100 4 0.106244
2 49 100 4 0.374004
3 49 100 4 0.376393
4 49 100 4 0.143359
2 50 100 4 0.754093
3 50 100 4 0.0507624
4 50 100 4 0.195145
1 52 100 4 0.219278
2 52 100 4 0.0691997
3 52 100 4 0.710876
4 52 100 4 0.000645889
1 53 100 4 0.999988
2 53 100 4 7.06536e-06
3 53 100 4 5.34977e-06
3 54 100 4 0.920498
4 54 100 4 0.0795017
1 55 100 4 0.980332
2 55 100 4 2.25538e-05
3 55 100 4 0.000303524
4 55 100 4 0.0193416
1 56 100 4 0.961858
2 56 100 4 0.000186695
3 56 100 4 0.000425716
4 56 100 4 0.0375293
1 57 100 4 0.999841
2 57 100 4 3.65566e-05
3 57 100 4 4.3257e-05
4 57 100 4 7.93416e-05
1 58 100 4 0.000294977
2 58 100 4 0.0652906
3 58 100 4 0.280693
4 58 100 4 0.653721
1 59 100 4 0.979558
2 59 100 4 1.98871e-05
3 59 100 4 5.77015e-05
4 59 100 4 0.0203643
1 60 100 4 0.16326
2 60 100 4 0.295753
3 60 100 4 0.321622
4 60 100 4 0.219365
2 61 100 4 0.000732222
3 61 100 4 0.999268
2 62 100 4 0.759169
3 62 100 4 0.240831
1 63 100 4 0.04813
2 63 100 4 0.319227
3 63 100 4 0.317212
4 63 100 4 0.315431
1 64 100 4 0.0235693
3 64 100 4 0.298318
4 64 100 4 0.678113
3 65 100 4 0.695059
4 65 100 4 0.304941
1 66 100 4 0.986297
2 66 100 4 0.000469065
3 66 100 4 0.00519598
4 66 100 4 0.00803828
4 67 100 4 1
2 68 100 4 0.00307127
3 68 100 4 0.965833
4 68 100 4 0.031096
1 69 100 4 0.160833
2 69 100 4 0.00364554
3 69 100 4 0.780481
4 69 100 4 0.0550409
1 70 100 4 0.999654
2 70 100 4 7.89014e-06
3 70 100 4 3.90266e-05
4 70 100 4 0.000298671
2 71 100 4 0.0597958
3 71 100 4 0.896265
4 71 100 4 0.0439391
1 72 100 4 0.106967
2 72 100 4 0.384896
3 72 100 4 0.202672
4 72 100 4 0.305465
2 73 100 4 0.165432
3 73 100 4 0.834568
1 74 100 4 0.853539
2 74 100 4 0.000656105
3 74 100 4 2.53187e-05
4 74 100 4 0.14578
3 75 100 4 0.833573
4 75 100 4 0.166427
1 76 100 4 0.983895
3 76 100 4 0.00742529
4 76 100 4 0.00867923
1 77 100 4 0.999507
2 77 100 4 0.000492971
2 78 100 4 0.000816894
3 78 100 4 0.0025132
4 78 100 4 0.99667
3 80 100 4 0.0313102
4 80 100 4 0.96869
1 81 100 4 0.995533
2 81 100 4 0.000508554
3 81 100 4 0.00183601
4 81 100 4 0.00212205
2 82 100 4 0.909359
4 82 100 4 0.0906407
1 83 100 4 0.93629
2 83 100 4 2.39518e-05
3 83 100 4 0.00533143
4 83 100 4 0.0583549
2 84 100 4 0.0713677
4 84 100 4 0.928632
3 85 100 4 1
1 86 100 4 0.955353
2 86 100 4 0.000152236
3 86 100 4 0.00849869
4 86 100 4 0.0359959
3 87 100 4 0.0139976
4 87 100 4 0.986002
1 88 100 4 0.991228
2 88 100 4 4.29184e-05
3 88 100 4 0.00674808
4 88 100 4 0.00198125
3 89 100 4 1
1 90 100 4 0.00066284
2 90 100 4 0.000381447
3 90 100 4 0.00018705
4 90 100 4 0.998769
3 91 100 4 0.891935
4 91 100 4 0.108065
3 92 100 4 1
1 93 100 4 0.128983
2 93 100 4 0.428289
3 93 100 4 0.00410555
4 93 100 4 0.438623
3 94 100 4 1
3 95 100 4 1
3 96 100 4 0.901369
4 96 100 4 0.0986306
3 97 100 4 1
1 98 100 4 0.958488
2 98 100 4 0.000878602
3 98 100 4 0.000156926
4 98 100 4 0.0404767
1 99 100 4 0.966732
2 99 100 4 5.59416e-05
3 99 100 4 0.000290323
4 99 100 4 0.0329212
1 100 100 4 0.872823
2 100 100 4 4.69222e-05
3 100 100 4 0.127065
4 100 100 4 6.44446e-05
1 0 100 5 0.0238812
2 0 100 5 0.174899
3 0 100 5 0.319059
4 0 100 5 0.225087
5 0 100 5 0.257074
1 1 100 5 0.223281
2 1 100 5 0.211839
3 1 100 5 0.202511
4 1 100 5 0.201287
5 1 100 5 0.161082
1 2 100 5 0.232462
2 2 100 5 0.166867
3 2 100 5 0.199455
4 2 100 5 0.196373
5 2 100 5 0.204843
1 3 100 5 0.313432
2 3 100 5 0.195116
3 3 100 5 0.187762
4 3 100 5 0.170482
5 3 100 5 0.133209
1 4 100 5 0.200346
2 4 100 5 0.190567
3 4 100 5 0.20139
4 4 100 5 0.189451
5 4 100 5 0.218246
1 5 100 5 0.197828
2 5 100 5 0.197019
3 5 100 5 0.195917
4 5 100 5 0.191166
5 5 100 5 0.21807
1 6 100 5 0.222392
2 6 100 5 0.179679
3 6 100 5 0.182486
4 6 100 5 0.182306
5 6 100 5 0.233137
1 7 100 5 0.204571
2 7 100 5 0.206479
3 7 100 5 0.169286
4 7 100 5 0.20585
5 7 100 5 0.213813
1 8 100 5 0.198786
2 8 100 5 0.214949
3 8 100 5 0.215642
4 8 100 5 0.216294
5 8 100 5 0.154328
1 9 100 5 0.19368
2 9 100 5 0.216392
3 9 100 5 0.201913
4 9 100 5 0.200304
5 9 100 5 0.187711
1 10 100 5 0.167028
2 10 100 5 0.216983
3 10 100 5 0.220697
4 10 100 5 0.175432
5 10 100 5 0.21986
1 11 100 5 0.000294214
2 11 100 5 0.13589
3 11 100 5 0.735442
4 11 100 5 0.10467
5 11 100 5 0.0237043
1 12 100 5 0.0673277
2 12 100 5 0.000615956
3 12 100 5 0.920523
4 12 100 5 0.00042941
5 12 100 5 0.0111035
1 13 100 5 0.00373073
2 13 100 5 0.000418026
3 13 100 5 0.000725856
4 13 100 5 0.00155257
5 13 100 5 0.993573
1 14 100 5 0.0260071
2 14 100 5 0.00543128
3 14 100 5 0.433223
4 14 100 5 0.0271084
5 14 100 5 0.508231
1 15 100 5 0.250519
2 15 100 5 0.242886
3 15 100 5 0.00938555
4 15 100 5 0.239798
5 15 100 5 0.257412
1 16 100 5 0.000229515
2 16 100 5 0.0705158
3 16 100 5 0.80642
4 16 100 5 0.00326503
5 16 100 5 0.11957
1 17 100 5 0.228838
2 17 100 5 0.186451
3 17 100 5 0.18692
4 17 100 5 0.186604
5 17 100 5 0.211186
1 18 100 5 0.967864
2 18 100 5 0.00801755
3 18 100 5 0.000670178
4 18 100 5 0.00026992
5 18 100 5 0.0231787
1 19 100 5 0.220446
2 19 100 5 0.221424
3 19 100 5 0.218937
4 19 100 5 0.199097
5 19 100 5 0.140095
1 20 100 5 0.0193715
2 20 100 5 0.000150548
3 20 100 5 6.48303e-05
4 20 100 5 0.000113388
5 20 100 5 0.9803
1 21 100 5 0.978977
2 21 100 5 0.00386126
3 21 100 5 0.00279115
4 21 100 5 0.000694969
5 21 100 5 0.0136759
1 22 100 5 0.24304
2 22 100 5 0.191538
3 22 100 5 0.194758
4 22 100 5 0.196775
5 22 100 5 0.173889
1 23 100 5 0.0685987
2 23 100 5 0.226888
3 23 100 5 0.231635
4 23 100 5 0.238553
5 23 100 5 0.234324
1 24 100 5 0.143864
2 24 100 5 0.201631
3 24 100 5 0.215092
4 24 100 5 0.215608
5 24 100 5 0.223806
1 25 100 5 0.996426
2 25 100 5 0.000800365
3 25 100 5 0.00159173
4 25 100 5 0.000297261
5 25 100 5 0.000884789
1 26 100 5 0.976304
2 26 100 5 0.021035
3 26 100 5 0.00049452
4 26 100 5 0.000547614
5 26 100 5 0.00161928
1 27 100 5 0.965157
2 27 100 5 5.12642e-05
3 27 100 5 0.00293583
4 27 100 5 0.000917003
5 27 100 5 0.0309389
1 28 100 5 0.16876
2 28 100 5 0.219287
3 28 100 5 0.21512
4 28 100 5 0.180054
5 28 100 5 0.216779
1 29 100 5 0.0156531
2 29 100 5 0.983515
3 29 100 5 3.19346e-05
4 29 100 5 0.00079969
1 30 100 5 0.0056615
2 30 100 5 0.953731
3 30 100 5 0.00096163
4 30 100 5 0.000186877
5 30 100 5 0.0394593
1 32 100 5 0.00019462
2 32 100 5 0.00297393
3 32 100 5 0.00691293
4 32 100 5 0.0021744
5 32 100 5 0.987744
1 33 100 5 0.197188
2 33 100 5 0.197558
3 33 100 5 0.0438034
4 33 100 5 0.00822712
5 33 100 5 0.553223
1 34 100 5 0.112709
2 34 100 5 5.27542e-05
3 34 100 5 0.00174801
4 34 100 5 9.77791e-05
5 34 100 5 0.885392
1 35 100 5 0.0445004
2 35 100 5 0.18885
3 35 100 5 0.24037
4 35 100 5 0.247379
5 35 100 5 0.278901
1 36 100 5 0.859921
2 36 100 5 0.00151426
3 36 100 5 3.12044e-05
4 36 100 5 5.69121e-06
5 36 100 5 0.138528
1 37 100 5 0.934283
2 37 100 5 0.000556249
3 37 100 5 0.0590498
4 37 100 5 0.00014177
5 37 100 5 0.00596896
1 38 100 5 0.186779
2 38 100 5 0.0120786
3 38 100 5 0.00126241
4 38 100 5 0.000103832
5 38 100 5 0.799777
1 39 100 5 0.000788595
2 39 100 5 0.000303828
3 39 100 5 1.29915e-05
5 39 100 5 0.998895
1 40 100 5 0.378483
2 40 100 5 0.281747
3 40 100 5 0.0170624
4 40 100 5 0.263681
5 40 100 5 0.0590261
1 41 100 5 0.935175
2 41 100 5 0.0240711
3 41 100 5 0.040754
2 42 100 5 0.995697
3 42 100 5 0.00430264
1 43 100 5 0.00193816
2 43 100 5 0.184044
3 43 100 5 0.0001944
4 43 100 5 5.81387e-05
5 43 100 5 0.813766
1 44 100 5 0.85917
2 44 100 5 0.000865617
3 44 100 5 0.13732
4 44 100 5 0.00264463
1 45 100 5 0.744153
2 45 100 5 0.000331281
3 45 100 5 0.00201248
4 45 100 5 0.000506237
5 45 100 5 0.252997
1 46 100 5 0.040588
2 46 100 5 0.259886
3 46 100 5 0.257735
4 46 100 5 0.260351
5 46 100 5 0.181441
1 47 100 5 0.978302
2 47 100 5 5.86949e-06
4 47 100 5 6.34088e-06
5 47 100 5 0.021686
1 48 100 5 0.281056
2 48 100 5 7.58598e-05
3 48 100 5 0.000156434
4 48 100 5 9.19701e-05
5 48 100 5 0.71862
1 50 100 5 1
1 52 100 5 0.998027
2 52 100 5 7.35548e-05
3 52 100 5 0.000431872
5 52 100 5 0.00146796
2 53 100 5 0.997424
3 53 100 5 0.00210582
4 53 100 5 0.000470451
1 54 100 5 0.988401
2 54 100 5 5.82838e-05
3 54 100 5 5.64223e-05
4 54 100 5 5.76153e-05
5 54 100 5 0.0114263
1 55 100 5 0.512775
2 55 100 5 0.0625175
3 55 100 5 0.000455302
4 55 100 5 0.000510279
5 55 100 5 0.423742
1 56 100 5 0.0385999
2 56 100 5 0.245068
3 56 100 5 0.263164
4 56 100 5 0.249986
5 56 100 5 0.203182
1 57 100 5 4.55858e-05
2 57 100 5 0.879438
3 57 100 5 0.000826655
4 57 100 5 0.000223817
5 57 100 5 0.119466
1 58 100 5 0.092592
2 58 100 5 0.000126055
3 58 100 5 0.000123551
4 58 100 5 0.0001293
5 58 100 5 0.907029
1 59 100 5 5.45545e-06
2 59 100 5 0.0532615
3 59 100 5 0.326354
4 59 100 5 0.326206
5 59 100 5 0.294173
1 60 100 5 0.989712
2 60 100 5 0.00908366
3 60 100 5 5.69088e-05
4 60 100 5 4.33405e-05
5 60 100 5 0.00110447
1 61 100 5 0.136704
2 61 100 5 0.247591
3 61 100 5 0.0462428
4 61 100 5 0.288172
5 61 100 5 0.28129
1 62 100 5 0.000569438
2 62 100 5 0.0868176
3 62 100 5 0.778839
4 62 100 5 0.133774
1 63 100 5 0.999948
4 63 100 5 5.23287e-05
1 64 100 5 1
1 65 100 5 0.999933
2 65 100 5 3.60141e-05
3 65 100 5 3.07089e-05
1 66 100 5 1
1 67 100 5 0.284017
2 67 100 5 1.52869e-05
3 67 100 5 1.50158e-05
4 67 100 5 1.48745e-05
5 67 100 5 0.715938
1 68 100 5 1
1 69 100 5 0.973443
2 69 100 5 0.00239563
3 69 100 5 0.00182308
4 69 100 5 0.00121213
5 69 100 5 0.0211258
1 70 100 5 0.99584
2 70 100 5 3.39813e-05
3 70 100 5 3.37495e-05
4 70 100 5 3.31837e-05
5 70 100 5 0.00405886
1 71 100 5 0.0493163
4 71 100 5 3.44554e-05
5 71 100 5 0.950649
1 72 100 5 0.0221348
2 72 100 5 0.259818
3 72 100 5 0.241866
4 72 100 5 0.24204
5 72 100 5 0.234142
1 73 100 5 1
3 74 100 5 3.91987e-05
4 74 100 5 8.05555e-05
5 74 100 5 0.99988
1 75 100 5 0.999826
2 75 100 5 7.55495e-05
3 75 100 5 3.72594e-05
4 75 100 5 1.1806e-05
5 75 100 5 4.89126e-05
1 76 100 5 0.99392
2 76 100 5 2.36309e-05
3 76 100 5 2.46113e-05
4 76 100 5 2.5024e-05
5 76 100 5 0.00600662
1 77 100 5 1
2 78 100 5 0.00449412
3 78 100 5 0.00527186
4 78 100 5 0.00484712
5 78 100 5 0.985387
1 79 100 5 0.0143041
2 79 100 5 6.59056e-06
5 79 100 5 0.985689
1 80 100 5 0.287536
3 80 100 5 0.00343022
4 80 100 5 0.00464158
5 80 100 5 0.704392
1 81 100 5 0.993447
2 81 100 5 0.000428776
3 81 100 5 0.000319056
4 81 100 5 0.00028458
5 81 100 5 0.00552041
1 82 100 5 1
1 83 100 5 0.623507
2 83 100 5 3.64917e-05
3 83 100 5 3.85271e-05
4 83 100 5 4.02028e-05
5 83 100 5 0.376378
1 84 100 5 0.99323
2 84 100 5 0.000172935
3 84 100 5 0.000120472
4 84 100 5 6.38426e-05
5 84 100 5 0.00641311
1 85 100 5 0.999218
2 85 100 5 1.28783e-05
3 85 100 5 1.13092e-05
4 85 100 5 9.64662e-06
5 85 100 5 0.000748336
1 86 100 5 0.98497
2 86 100 5 4.41841e-05
3 86 100 5 4.74368e-05
4 86 100 5 5.13329e-05
5 86 100 5 0.0148867
1 87 100 5 0.994801
5 87 100 5 0.0051989
1 88 100 5 1
1 89 100 5 0.000742923
2 89 100 5 2.42322e-05
3 89 100 5 6.34507e-05
4 89 100 5 7.87142e-05
5 89 100 5 0.999091
1 90 100 5 0.842346
2 90 100 5 0.00085875
3 90 100 5 0.000474302
4 90 100 5 0.0010444
5 90 100 5 0.155276
1 91 100 5 0.999929
2 91 100 5 4.81372e-05
3 91 100 5 1.37901e-05
4 91 100 5 3.9898e-06
5 91 100 5 4.63959e-06
1 92 100 5 0.999883
2 92 100 5 1.43029e-05
3 92 100 5 7.12866e-06
4 92 100 5 6.26287e-06
5 92 100 5 8.96717e-05
1 93 100 5 0.999633
3 93 100 5 0.000243997
5 93 100 5 0.000123371
1 94 100 5 1
1 96 100 5 0.999916
2 96 100 5 5.13554e-05
3 96 100 5 3.23974e-05
1 97 100 5 1
1 98 100 5 0.0735727
2 98 100 5 0.291514
3 98 100 5 0.291523
4 98 100 5 0.291514
5 98 100 5 0.051876
1 99 100 5 1
1 100 100 5 1
1 0 100 6 0.117174
2 0 100 6 0.243321
3 0 100 6 0.210156
4 0 100 6 0.0585878
5 0 100 6 0.177891
6 0 100 6 0.19287
1 1 100 6 0.207624
2 1 100 6 0.186931
3 1 100 6 0.134722
4 1 100 6 0.174895
5 1 100 6 0.153284
6 1 100 6 0.142545
1 2 100 6 0.143599
2 2 100 6 0.161834
3 2 100 6 0.157143
4 2 100 6 0.208186
5 2 100 6 0.211128
6 2 100 6 0.11811
1 3 100 6 0.220534
2 3 100 6 0.145728
3 3 100 6 0.159162
4 3 100 6 0.172631
5 3 100 6 0.154838
6 3 100 6 0.147107
1 4 100 6 0.154493
2 4 100 6 0.110334
3 4 100 6 0.155056
4 4 100 6 0.198346
5 4 100 6 0.157563
6 4 100 6 0.224209
1 5 100 6 0.252878
2 5 100 6 0.0955873
3 5 100 6 0.179688
4 5 100 6 0.142604
5 5 100 6 0.177163
6 5 100 6 0.15208
1 6 100 6 0.175316
2 6 100 6 0.182772
3 6 100 6 0.16664
4 6 100 6 0.154646
5 6 100 6 0.155742
6 6 100 6 0.164884
1 7 100 6 0.0557885
2 7 100 6 0.202048
3 7 100 6 0.191308
4 7 100 6 0.163621
5 7 100 6 0.165354
6 7 100 6 0.221881
1 8 100 6 0.113729
2 8 100 6 0.139271
3 8 100 6 0.165513
4 8 100 6 0.20023
5 8 100 6 0.202135
6 8 100 6 0.179122
1 9 100 6 0.572284
2 9 100 6 0.406033
3 9 100 6 0.0209015
4 9 100 6 0.000406342
5 9 100 6 0.000142215
6 9 100 6 0.000232892
1 10 100 6 0.0986791
2 10 100 6 0.194304
3 10 100 6 0.247331
4 10 100 6 0.173737
5 10 100 6 0.183228
6 10 100 6 0.102721
1 11 100 6 0.215281
2 11 100 6 0.156353
3 11 100 6 0.191653
4 11 100 6 0.144401
5 11 100 6 0.143958
6 11 100 6 0.148353
1 12 100 6 0.962712
2 12 100 6 0.0117961
3 12 100 6 0.00361823
4 12 100 6 0.000607115
5 12 100 6 0.0126726
6 12 100 6 0.00859401
1 13 100 6 0.121881
2 13 100 6 0.189377
3 13 100 6 0.162275
4 13 100 6 0.177295
5 13 100 6 0.173643
6 13 100 6 0.175529
1 14 100 6 0.778582
2 14 100 6 0.000128206
3 14 100 6 0.0126747
4 14 100 6 0.000981996
5 14 100 6 0.000168159
6 14 100 6 0.207465
1 15 100 6 0.259342
2 15 100 6 0.0118538
3 15 100 6 0.0776881
4 15 100 6 0.031076
5 15 100 6 0.000494457
6 15 100 6 0.619545
1 16 100 6 0.232688
2 16 100 6 0.177452
3 16 100 6 0.158714
4 16 100 6 0.149126
5 16 100 6 0.155587
6 16 100 6 0.126433
1 17 100 6 0.00422817
2 17 100 6 0.134887
3 17 100 6 0.214424
4 17 100 6 0.214051
5 17 100 6 0.214429
6 17 100 6 0.217981
1 18 100 6 0.0369678
2 18 100 6 0.172524
3 18 100 6 0.203425
4 18 100 6 0.197037
5 18 100 6 0.192774
6 18 100 6 0.197272
1 19 100 6 0.986008
2 19 100 6 0.00333071
3 19 100 6 0.00159125
4 19 100 6 5.21397e-06
5 19 100 6 7.4662e-05
6 19 100 6 0.00899014
1 20 100 6 0.00957193
2 20 100 6 0.934875
3 20 100 6 0.0362028
4 20 100 6 0.0123495
5 20 100 6 0.000282614
6 20 100 6 0.00671848
1 21 100 6 0.219149
2 21 100 6 0.151034
3 21 100 6 0.155335
4 21 100 6 0.15606
5 21 100 6 0.15701
6 21 100 6 0.161411
1 22 100 6 0.036716
2 22 100 6 0.145002
3 22 100 6 0.208433
4 22 100 6 0.206871
5 22 100 6 0.204638
6 22 100 6 0.19834
1 23 100 6 0.997422
2 23 100 6 0.00122242
3 23 100 6 8.2988e-05
4 23 100 6 5.01159e-05
5 23 100 6 0.000271978
6 23 100 6 0.000950316
1 24 100 6 0.0959853
2 24 100 6 0.543638
3 24 100 6 0.0628977
4 24 100 6 0.00245335
5 24 100 6 0.000107798
6 24 100 6 0.294917
1 25 100 6 0.123566
2 25 100 6 0.126693
3 25 100 6 0.210073
4 25 100 6 0.212745
5 25 100 6 0.22262
6 25 100 6 0.104304
1 26 100 6 0.204751
2 26 100 6 0.217951
3 26 100 6 0.215983
4 26 100 6 0.213932
5 26 100 6 0.00232306
6 26 100 6 0.145061
1 27 100 6 0.783061
2 27 100 6 0.000103316
3 27 100 6 0.000247579
4 27 100 6 0.000254765
5 27 100 6 0.00589784
6 27 100 6 0.210436
1 28 100 6 0.0872462
2 28 100 6 0.204211
3 28 100 6 0.0304688
4 28 100 6 0.238601
5 28 100 6 0.22152
6 28 100 6 0.217954
1 29 100 6 0.0612791
2 29 100 6 0.256626
3 29 100 6 0.21662
4 29 100 6 0.218237
5 29 100 6 0.0168599
6 29 100 6 0.230378
1 30 100 6 0.37615
2 30 100 6 0.00569592
3 30 100 6 0.154858
4 30 100 6 0.155815
5 30 100 6 0.155759
6 30 100 6 0.151722
1 31 100 6 0.994897
2 31 100 6 0.00350805
3 31 100 6 0.00112557
4 31 100 6 0.000169897
5 31 100 6 0.0002997
1 32 100 6 0.00550854
2 32 100 6 0.0253659
3 32 100 6 0.0531775
4 32 100 6 0.307578
5 32 100 6 0.00560186
6 32 100 6 0.602768
1 33 100 6 0.78572
2 33 100 6 0.000309839
3 33 100 6 0.00019428
4 33 100 6 0.000423861
5 33 100 6 0.000252268
6 33 100 6 0.2131
1 34 100 6 0.993022
2 34 100 6 0.00256627
3 34 100 6 0.000337215
4 34 100 6 0.000128205
5 34 100 6 0.000241712
6 34 100 6 0.00370442
1 35 100 6 0.105531
2 35 100 6 0.0661991
3 35 100 6 0.214481
4 35 100 6 0.185711
5 35 100 6 0.21705
6 35 100 6 0.211027
1 36 100 6 0.0511226
2 36 100 6 0.150232
3 36 100 6 0.223402
4 36 100 6 0.187389
5 36 100 6 0.189311
6 36 100 6 0.198544
1 37 100 6 0.0167275
3 37 100 6 0.000445024
4 37 100 6 0.00999818
5 37 100 6 0.00138271
6 37 100 6 0.971447
1 38 100 6 0.117397
2 38 100 6 0.881447
3 38 100 6 0.000476017
4 38 100 6 0.000180511
5 38 100 6 7.9627e-05
6 38 100 6 0.000419601
1 39 100 6 0.0529089
2 39 100 6 0.195537
3 39 100 6 0.112834
4 39 100 6 0.215367
5 39 100 6 0.219471
6 39 100 6 0.203882
1 40 100 6 0.000851991
2 40 100 6 0.000201593
3 40 100 6 0.0836949
4 40 100 6 0.055193
5 40 100 6 0.00884109
6 40 100 6 0.851217
1 41 100 6 0.0661305
2 41 100 6 0.932906
3 41 100 6 0.000323384
4 41 100 6 6.93081e-05
5 41 100 6 0.0001135
6 41 100 6 0.000457731
1 42 100 6 0.128853
2 42 100 6 0.0124907
3 42 100 6 0.0348817
4 42 100 6 0.0453621
5 42 100 6 0.778002
6 42 100 6 0.000410142
1 43 100 6 0.685731
2 43 100 6 0.0155258
3 43 100 6 0.298114
4 43 100 6 0.000540421
5 43 100 6 8.88878e-05
1 44 100 6 0.00112522
3 44 100 6 7.57776e-06
5 44 100 6 0.000523558
6 44 100 6 0.998344
1 45 100 6 0.0233279
4 45 100 6 0.000304823
5 45 100 6 0.00107043
6 45 100 6 0.975297
1 46 100 6 0.143005
2 46 100 6 0.174533
3 46 100 6 0.164852
4 46 100 6 0.174224
5 46 100 6 0.164775
6 46 100 6 0.17861
1 47 100 6 0.113957
2 47 100 6 0.182283
3 47 100 6 0.184235
4 47 100 6 0.183075
5 47 100 6 0.18194
6 47 100 6 0.15451
1 48 100 6 0.770259
2 48 100 6 0.0111601
3 48 100 6 0.00525666
4 48 100 6 0.017701
5 48 100 6 0.000596687
6 48 100 6 0.195026
1 49 100 6 0.115844
2 49 100 6 4.08113e-06
3 49 100 6 0.878394
4 49 100 6 0.00507639
5 49 100 6 2.54724e-05
6 49 100 6 0.000656399
1 50 100 6 0.997833
2 50 100 6 9.90665e-05
3 50 100 6 0.000196122
4 50 100 6 7.0505e-05
5 50 100 6 5.19728e-05
6 50 100 6 0.00174946
2 51 100 6 0.998077
4 51 100 6 0.0019231
1 52 100 6 0.974186
2 52 100 6 0.0087789
3 52 100 6 0.00368056
4 52 100 6 0.00144958
5 52 100 6 2.22593e-05
6 52 100 6 0.0118828
1 53 100 6 0.944158
2 53 100 6 0.0516846
3 53 100 6 0.00354564
4 53 100 6 0.000588458
5 53 100 6 2.34553e-05
1 54 100 6 0.0012111
2 54 100 6 0.000370679
3 54 100 6 0.000375979
4 54 100 6 0.000459445
5 54 100 6 0.000109378
6 54 100 6 0.997473
1 55 100 6 0.991541
2 55 100 6 0.00399212
3 55 100 6 9.04849e-06
4 55 100 6 0.000128191
5 55 100 6 5.72154e-06
6 55 100 6 0.00432357
1 56 100 6 0.962457
2 56 100 6 0.00294263
3 56 100 6 0.000280468
4 56 100 6 0.000791361
5 56 100 6 5.74394e-05
6 56 100 6 0.0334713
1 57 100 6 0.368619
2 57 100 6 0.369682
3 57 100 6 0.250078
4 57 100 6 0.0115605
5 57 100 6 3.39292e-06
6 57 100 6 5.78047e-05
1 58 100 6 0.000334731
2 58 100 6 1.26174e-06
3 58 100 6 0.0164675
4 58 100 6 0.30058
5 58 100 6 0.348498
6 58 100 6 0.334119
1 59 100 6 0.972732
2 59 100 6 0.0104864
3 59 100 6 0.012668
4 59 100 6 0.00411323
1 60 100 6 0.358945
2 60 100 6 0.553868
3 60 100 6 0.00031262
4 60 100 6 0.0658489
5 60 100 6 0.00022847
6 60 100 6 0.0207964
1 61 100 6 0.00103491
2 61 100 6 8.63861e-05
3 61 100 6 0.000193237
4 61 100 6 0.000174994
5 61 100 6 6.52627e-05
6 61 100 6 0.998445
2 62 100 6 0.00259101
3 62 100 6 0.00737671
4 62 100 6 0.990032
1 63 100 6 0.344565
3 63 100 6 0.252634
4 63 100 6 0.4028
1 64 100 6 0.798247
2 64 100 6 0.000374851
3 64 100 6 1.08856e-05
4 64 100 6 0.000187903
5 64 100 6 1.06641e-05
6 64 100 6 0.201169
1 65 100 6 0.00853642
3 65 100 6 0.00019449
4 65 100 6 0.000414722
5 65 100 6 0.000194165
6 65 100 6 0.99066
1 66 100 6 0.0203369
3 66 100 6 0.872779
4 66 100 6 0.0324717
5 66 100 6 1.36764e-05
6 66 100 6 0.0743989
1 67 100 6 0.0166734
2 67 100 6 4.85005e-05
3 67 100 6 3.20777e-05
4 67 100 6 8.81007e-05
5 67 100 6 3.55843e-05
6 67 100 6 0.983122
1 68 100 6 0.0230837
2 68 100 6 0.00351326
3 68 100 6 0.168437
4 68 100 6 0.000659691
5 68 100 6 2.37022e-05
6 68 100 6 0.804283
1 69 100 6 0.0285161
3 69 100 6 0.971484
1 70 100 6 0.995865
4 70 100 6 0.00413535
5 71 100 6 8.03054e-06
6 71 100 6 0.999992
1 72 100 6 0.0011641
3 72 100 6 4.3089e-06
4 72 100 6 5.09927e-06
5 72 100 6 5.29285e-06
6 72 100 6 0.998821
2 73 100 6 0.861356
4 73 100 6 0.138644
1 74 100 6 0.972969
2 74 100 6 0.02547
5 74 100 6 0.00156057
1 75 100 6 0.0628362
2 75 100 6 0.00779504
3 75 100 6 0.917452
4 75 100 6 0.00398571
5 75 100 6 0.000668339
6 75 100 6 0.00726278
1 76 100 6 6.10716e-05
3 76 100 6 0.0069019
4 76 100 6 0.0916336
5 76 100 6 0.0503118
6 76 100 6 0.851092
1 77 100 6 0.988609
2 77 100 6 3.75172e-05
3 77 100 6 0.0109272
4 77 100 6 0.000287029
5 77 100 6 0.00013883
1 78 100 6 0.0126692
4 78 100 6 0.0585531
5 78 100 6 0.00071828
6 78 100 6 0.928059
1 79 100 6 0.999529
2 79 100 6 0.00010932
6 79 100 6 0.000361234
2 80 100 6 4.32872e-05
6 80 100 6 0.999957
1 81 100 6 0.999958
2 81 100 6 4.212e-05
1 82 100 6 0.819505
2 82 100 6 0.159342
3 82 100 6 0.000284523
4 82 100 6 0.00023026
5 82 100 6 0.000137001
6 82 100 6 0.0205016
1 83 100 6 1
1 84 100 6 2.48644e-05
3 84 100 6 0.0044554
4 84 100 6 2.05562e-05
5 84 100 6 3.07268e-05
6 84 100 6 0.995468
1 85 100 6 0.0159297
2 85 100 6 0.000354427
3 85 100 6 7.66439e-05
4 85 100 6 0.00234747
5 85 100 6 5.34667e-05
6 85 100 6 0.981238
1 86 100 6 0.00294225
2 86 100 6 0.000389165
3 86 100 6 0.000141147
4 86 100 6 0.000249774
5 86 100 6 0.000420197
6 86 100 6 0.995857
1 87 100 6 0.00793306
2 87 100 6 2.80149e-05
3 87 100 6 4.50523e-05
4 87 100 6 4.63839e-05
5 87 100 6 5.51592e-05
6 87 100 6 0.991892
1 88 100 6 0.794445
2 88 100 6 0.197769
3 88 100 6 0.00357307
4 88 100 6 2.14323e-05
5 88 100 6 3.02241e-05
6 88 100 6 0.00416122
1 89 100 6 0.991196
2 89 100 6 0.000141586
3 89 100 6 9.16346e-05
4 89 100 6 6.28383e-05
5 89 100 6 9.45328e-05
6 89 100 6 0.00841359
1 90 100 6 0.00105116
6 90 100 6 0.998949
1 91 100 6 0.970976
3 91 100 6 0.0289773
5 91 100 6 2.17007e-05
6 91 100 6 2.49114e-05
1 92 100 6 0.960359
4 92 100 6 0.00902981
6 92 100 6 0.0306107
1 93 100 6 0.0681129
2 93 100 6 0.237459
3 93 100 6 0.219126
4 93 100 6 0.216756
5 93 100 6 0.215781
6 93 100 6 0.0427658
1 94 100 6 0.999283
4 94 100 6 0.000717103
1 96 100 6 1
1 97 100 6 0.027528
2 97 100 6 0.225363
3 97 100 6 0.217688
4 97 100 6 0.214829
5 97 100 6 0.217022
6 97 100 6 0.0975697
1 98 100 6 0.999523
2 98 100 6 8.07597e-06
3 98 100 6 6.65733e-06
6 98 100 6 0.000461857
1 99 100 6 0.997783
2 99 100 6 0.000170256
3 99 100 6 0.000149195
4 99 100 6 0.000297802
5 99 100 6 0.000100238
6 99 100 6 0.00149939
3 100 100 6 0.600015
4 100 100 6 0.399985
1 0 100 7 0.179543
2 0 100 7 0.186118
3 0 100 7 0.178743
4 0 100 7 0.0853048
5 0 100 7 0.0976881
6 0 100 7 0.186839
7 0 100 7 0.0857635
1 1 100 7 0.189864
2 1 100 7 0.15635
3 1 100 7 0.134757
4 1 100 7 0.149095
5 1 100 7 0.130203
6 1 100 7 0.109632
7 1 100 7 0.130099
1 2 100 7 0.155475
2 2 100 7 0.134895
3 2 100 7 0.137285
4 2 100 7 0.13907
5 2 100 7 0.142736
6 2 100 7 0.140172
7 2 100 7 0.150366
1 3 100 7 0.108454
2 3 100 7 0.158253
3 3 100 7 0.189227
4 3 100 7 0.159934
5 3 100 7 0.132593
6 3 100 7 0.124855
7 3 100 7 0.126684
1 4 100 7 0.144015
2 4 100 7 0.141511
3 4 100 7 0.122347
4 4 100 7 0.158426
5 4 100 7 0.157979
6 4 100 7 0.158953
7 4 100 7 0.116768
1 5 100 7 0.164066
2 5 100 7 0.172575
3 5 100 7 0.142263
4 5 100 7 0.11859
5 5 100 7 0.14301
6 5 100 7 0.117464
7 5 100 7 0.142033
1 6 100 7 0.0451517
2 6 100 7 0.0679051
3 6 100 7 0.104405
4 6 100 7 0.175202
5 6 100 7 0.172083
6 6 100 7 0.208701
7 6 100 7 0.226551
1 7 100 7 0.0469796
2 7 100 7 0.0890934
3 7 100 7 0.173106
4 7 100 7 0.186357
5 7 100 7 0.187137
6 7 100 7 0.139598
7 7 100 7 0.177729
1 8 100 7 0.251187
2 8 100 7 0.207714
3 8 100 7 0.114853
4 8 100 7 0.117305
5 8 100 7 0.0782486
6 8 100 7 0.11538
7 8 100 7 0.115312
1 9 100 7 0.740691
2 9 100 7 0.25736
3 9 100 7 0.00139026
4 9 100 7 0.000258347
5 9 100 7 5.38223e-05
6 9 100 7 0.000110504
7 9 100 7 0.000136324
1 10 100 7 0.0712197
2 10 100 7 0.187187
3 10 100 7 0.194171
4 10 100 7 0.184644
5 10 100 7 0.168205
6 10 100 7 0.176707
7 10 100 7 0.0178654
1 11 100 7 0.310799
2 11 100 7 0.447871
3 11 100 7 0.236711
4 11 100 7 0.00443551
5 11 100 7 2.79045e-05
6 11 100 7 2.21171e-05
7 11 100 7 0.000133952
1 12 100 7 0.108778
2 12 100 7 0.0734263
3 12 100 7 0.170439
4 12 100 7 0.179737
5 12 100 7 0.178935
6 12 100 7 0.177824
7 12 100 7 0.110861
1 13 100 7 0.00431836
2 13 100 7 0.872985
3 13 100 7 0.0153823
4 13 100 7 0.100411
5 13 100 7 0.00585867
6 13 100 7 0.00019718
7 13 100 7 0.000848112
1 14 100 7 0.115814
2 14 100 7 0.182937
3 14 100 7 0.140865
4 14 100 7 0.143068
5 14 100 7 0.140268
6 14 100 7 0.141124
7 14 100 7 0.135925
1 15 100 7 0.213038
2 15 100 7 0.156564
3 15 100 7 0.166591
4 15 100 7 0.00975595
5 15 100 7 0.157606
6 15 100 7 0.155592
7 15 100 7 0.140854
1 16 100 7 0.165531
2 16 100 7 0.162606
3 16 100 7 0.155857
4 16 100 7 0.169981
5 16 100 7 0.00109282
6 16 100 7 0.171054
7 16 100 7 0.173878
1 17 100 7 0.00206832
2 17 100 7 1.74909e-05
3 17 100 7 0.00694274
4 17 100 7 0.257742
5 17 100 7 0.24752
6 17 100 7 0.23906
7 17 100 7 0.246649
1 18 100 7 0.000602609
2 18 100 7 0.556224
3 18 100 7 0.350075
4 18 100 7 0.091248
5 18 100 7 0.00126878
6 18 100 7 4.78283e-05
7 18 100 7 0.000534317
1 19 100 7 0.039641
2 19 100 7 0.0423886
3 19 100 7 0.00877791
4 19 100 7 0.114569
5 19 100 7 0.377698
6 19 100 7 0.0417718
7 19 100 7 0.375153
1 20 100 7 0.404051
2 20 100 7 0.30264
3 20 100 7 0.280451
4 20 100 7 0.0125256
5 20 100 7 6.81094e-05
6 20 100 7 7.16562e-06
7 20 100 7 0.000257053
1 21 100 7 0.21095
2 21 100 7 0.1249
3 21 100 7 0.0921172
4 21 100 7 0.156985
5 21 100 7 0.136234
6 21 100 7 0.139263
7 21 100 7 0.139552
1 22 100 7 0.942246
2 22 100 7 0.0187199
3 22 100 7 0.00125347
4 22 100 7 0.0338621
5 22 100 7 0.00118363
6 22 100 7 6.90682e-06
7 22 100 7 0.00272802
1 23 100 7 0.122344
2 23 100 7 0.00108408
3 23 100 7 0.00131681
4 23 100 7 0.00389492
5 23 100 7 0.0001338
6 23 100 7 0.000280941
7 23 100 7 0.870945
1 24 100 7 0.937038
2 24 100 7 0.00434795
3 24 100 7 0.01948
4 24 100 7 0.0330907
5 24 100 7 0.00108503
6 24 100 7 7.94742e-05
7 24 100 7 0.00487882
1 25 100 7 0.0530985
2 25 100 7 0.230529
3 25 100 7 0.00101911
4 25 100 7 0.000287087
5 25 100 7 0.000641594
6 25 100 7 0.000219822
7 25 100 7 0.714204
1 26 100 7 0.978428
2 26 100 7 0.00831567
3 26 100 7 3.12304e-05
4 26 100 7 0.0124102
5 26 100 7 0.000216902
6 26 100 7 1.54285e-05
7 26 100 7 0.000582269
1 27 100 7 0.133802
2 27 100 7 0.0522488
3 27 100 7 0.161745
4 27 100 7 0.168802
5 27 100 7 0.160404
6 27 100 7 0.160348
7 27 100 7 0.162651
1 28 100 7 0.377828
2 28 100 7 0.00107029
3 28 100 7 0.0371559
4 28 100 7 0.000229107
5 28 100 7 0.00338957
6 28 100 7 0.000214716
7 28 100 7 0.580112
1 29 100 7 0.180978
2 29 100 7 0.00429762
3 29 100 7 0.0082151
4 29 100 7 0.789146
5 29 100 7 0.0139191
6 29 100 7 0.000138768
7 29 100 7 0.00330587
1 30 100 7 0.799588
2 30 100 7 0.005917
3 30 100 7 0.00380213
4 30 100 7 0.00428169
5 30 100 7 0.000317176
6 30 100 7 0.000308117
7 30 100 7 0.185786
1 31 100 7 0.0667599
2 31 100 7 0.00319918
3 31 100 7 0.0449978
4 31 100 7 0.87219
5 31 100 7 0.0126042
6 31 100 7 3.253e-05
7 31 100 7 0.000216138
1 32 100 7 0.0508506
2 32 100 7 3.14666e-05
3 32 100 7 0.00531055
4 32 100 7 0.0806944
5 32 100 7 0.258065
6 32 100 7 0.352113
7 32 100 7 0.252935
1 33 100 7 0.0981487
2 33 100 7 0.222285
3 33 100 7 0.0390796
4 33 100 7 0.60666
5 33 100 7 0.0295328
6 33 100 7 0.000537728
7 33 100 7 0.00375605
1 34 100 7 0.425091
2 34 100 7 0.559325
3 34 100 7 0.00578989
4 34 100 7 0.000287422
5 34 100 7 0.000564191
7 34 100 7 0.00894308
1 35 100 7 0.0081103
2 35 100 7 6.7034e-05
3 35 100 7 3.80864e-05
4 35 100 7 0.0314909
5 35 100 7 0.309981
6 35 100 7 0.302638
7 35 100 7 0.347675
1 36 100 7 0.000598629
2 36 100 7 3.23478e-05
3 36 100 7 0.000123856
4 36 100 7 0.0466594
5 36 100 7 0.278374
6 36 100 7 0.295865
7 36 100 7 0.378347
1 37 100 7 0.0344925
2 37 100 7 0.153677
3 37 100 7 0.165048
4 37 100 7 0.1648
5 37 100 7 0.162035
6 37 100 7 0.169079
7 37 100 7 0.150869
1 38 100 7 0.0281207
2 38 100 7 0.00210913
3 38 100 7 0.00629283
4 38 100 7 0.954867
5 38 100 7 0.00506306
6 38 100 7 0.00074588
7 38 100 7 0.00280103
1 39 100 7 0.0260997
2 39 100 7 0.199102
3 39 100 7 0.195179
4 39 100 7 0.229761
5 39 100 7 0.0583356
6 39 100 7 0.195304
7 39 100 7 0.0962188
1 40 100 7 0.144096
2 40 100 7 0.00366379
3 40 100 7 0.757306
4 40 100 7 0.0825294
5 40 100 7 0.00666947
6 40 100 7 0.00131207
7 40 100 7 0.00442325
1 41 100 7 0.000740088
2 41 100 7 0.0267988
3 41 100 7 0.00135378
4 41 100 7 0.94756
5 41 100 7 0.000617433
6 41 100 7 0.00280836
7 41 100 7 0.0201218
1 42 100 7 0.00426491
2 42 100 7 9.50173e-05
3 42 100 7 0.00159142
4 42 100 7 0.981545
5 42 100 7 0.00690301
6 42 100 7 3.16568e-05
7 42 100 7 0.00556918
1 43 100 7 2.89773e-05
2 43 100 7 0.0154663
3 43 100 7 0.00180733
4 43 100 7 0.889132
5 43 100 7 0.0595611
6 43 100 7 0.0299001
7 43 100 7 0.00410414
1 44 100 7 0.227349
2 44 100 7 0.277178
3 44 100 7 0.28591
4 44 100 7 0.208492
5 44 100 7 0.000962752
6 44 100 7 3.39135e-07
7 44 100 7 0.000107127
1 45 100 7 0.984828
2 45 100 7 0.000265372
3 45 100 7 0.000610244
4 45 100 7 0.000371655
5 45 100 7 0.000193094
6 45 100 7 0.000119986
7 45 100 7 0.0136117
1 46 100 7 0.0418814
2 46 100 7 0.164546
3 46 100 7 0.169028
4 46 100 7 0.169046
5 46 100 7 0.169036
6 46 100 7 0.169003
7 46 100 7 0.11746
1 47 100 7 0.0641093
2 47 100 7 0.177159
3 47 100 7 0.179033
4 47 100 7 0.129281
5 47 100 7 0.167814
6 47 100 7 0.147711
7 47 100 7 0.134892
1 48 100 7 0.100335
2 48 100 7 0.0159774
3 48 100 7 0.00467669
4 48 100 7 0.851945
5 48 100 7 0.00509215
6 48 100 7 0.00107285
7 48 100 7 0.0209004
1 49 100 7 0.0532687
2 49 100 7 0.167388
3 49 100 7 0.159551
4 49 100 7 0.154068
5 49 100 7 0.17893
6 49 100 7 0.192205
7 49 100 7 0.0945903
1 50 100 7 0.968959
2 50 100 7 0.000642693
3 50 100 7 0.000230234
4 50 100 7 0.000901155
5 50 100 7 0.000667469
6 50 100 7 0.000622805
7 50 100 7 0.0279768
1 51 100 7 0.0828557
2 51 100 7 0.163058
3 51 100 7 0.235897
4 51 100 7 0.0337197
5 51 100 7 0.236494
6 51 100 7 0.00908693
7 51 100 7 0.238888
1 52 100 7 0.702255
2 52 100 7 0.00146294
3 52 100 7 0.000136748
4 52 100 7 0.291369
5 52 100 7 0.00104841
6 52 100 7 5.63353e-05
7 52 100 7 0.00367173
1 53 100 7 0.8199
2 53 100 7 0.00133713
3 53 100 7 0.000597552
4 53 100 7 0.0001212
5 53 100 7 0.000357058
6 53 100 7 0.000118946
7 53 100 7 0.177568
1 54 100 7 0.00111997
2 54 100 7 0.000668043
3 54 100 7 5.93782e-05
4 54 100 7 7.45474e-05
5 54 100 7 9.10493e-05
6 54 100 7 8.26215e-05
7 54 100 7 0.997904
1 55 100 7 0.095201
2 55 100 7 0.000132444
3 55 100 7 0.00457133
4 55 100 7 0.893661
5 55 100 7 0.00165862
6 55 100 7 0.00470594
7 55 100 7 6.93176e-05
1 56 100 7 0.902414
3 56 100 7 0.00118055
6 56 100 7 0.00152311
7 56 100 7 0.0948822
1 57 100 7 0.00362855
2 57 100 7 0.000214076
3 57 100 7 8.30717e-05
4 57 100 7 0.00019726
5 57 100 7 6.12025e-05
6 57 100 7 1.06124e-05
7 57 100 7 0.995805
1 58 100 7 0.00179196
2 58 100 7 3.80022e-05
3 58 100 7 0.00288315
4 58 100 7 0.289285
5 58 100 7 0.00556057
6 58 100 7 5.08235e-05
7 58 100 7 0.700391
1 59 100 7 0.94723
2 59 100 7 0.0148573
3 59 100 7 0.00663957
4 59 100 7 0.0025317
5 59 100 7 0.0282708
6 59 100 7 0.000147361
7 59 100 7 0.000323034
1 60 100 7 6.13851e-05
2 60 100 7 6.11332e-05
3 60 100 7 0.000636848
4 60 100 7 0.0572401
5 60 100 7 0.00230364
6 60 100 7 0.00410393
7 60 100 7 0.935593
1 61 100 7 0.197952
2 61 100 7 0.204274
3 61 100 7 0.0045148
4 61 100 7 0.201275
5 61 100 7 0.202358
6 61 100 7 0.189569
7 61 100 7 5.71433e-05
1 62 100 7 5.84459e-05
2 62 100 7 0.00442753
3 62 100 7 5.8806e-05
4 62 100 7 0.00038123
5 62 100 7 0.994825
6 62 100 7 0.000249341
1 63 100 7 0.0484541
2 63 100 7 5.16243e-06
3 63 100 7 0.19141
4 63 100 7 0.193898
5 63 100 7 0.191512
6 63 100 7 0.191391
7 63 100 7 0.183331
1 64 100 7 0.512762
2 64 100 7 0.46024
3 64 100 7 9.8914e-06
4 64 100 7 2.97247e-05
5 64 100 7 0.000154225
6 64 100 7 0.0263416
7 64 100 7 0.00046266
1 65 100 7 0.763865
2 65 100 7 0.000261109
3 65 100 7 3.45321e-05
4 65 100 7 6.37499e-05
5 65 100 7 0.000340242
6 65 100 7 0.235337
7 65 100 7 9.85196e-05
1 66 100 7 0.996697
2 66 100 7 0.00239437
5 66 100 7 5.11216e-05
7 66 100 7 0.000857317
1 67 100 7 0.812896
2 67 100 7 0.000314162
3 67 100 7 7.22818e-05
4 67 100 7 0.152479
5 67 100 7 0.0122292
6 67 100 7 1.77172e-05
7 67 100 7 0.0219912
1 68 100 7 0.000230616
2 68 100 7 0.0307717
3 68 100 7 6.55578e-05
4 68 100 7 0.00111146
5 68 100 7 0.000679311
6 68 100 7 0.000106063
7 68 100 7 0.967035
1 69 100 7 0.0013902
2 69 100 7 0.0681967
3 69 100 7 0.000355866
4 69 100 7 0.853117
5 69 100 7 0.00275347
6 69 100 7 8.22078e-06
7 69 100 7 0.0741787
1 70 100 7 0.996345
2 70 100 7 0.000670911
5 70 100 7 4.24189e-05
7 70 100 7 0.00294126
1 71 100 7 0.00197266
2 71 100 7 0.996303
3 71 100 7 9.96773e-05
4 71 100 7 2.82172e-05
5 71 100 7 4.70522e-05
6 71 100 7 0.000123742
7 71 100 7 0.00142556
1 72 100 7 0.000331057
2 72 100 7 0.000403979
4 72 100 7 1.82112e-06
5 72 100 7 2.97378e-06
6 72 100 7 4.1501e-06
7 72 100 7 0.999256
1 73 100 7 0.529196
2 73 100 7 0.00214795
3 73 100 7 0.000976246
4 73 100 7 0.000186993
5 73 100 7 0.467131
6 73 100 7 0.000362281
1 74 100 7 0.0022587
2 74 100 7 0.000183427
3 74 100 7 0.000523889
4 74 100 7 0.977812
5 74 100 7 0.0188295
7 74 100 7 0.000392842
1 75 100 7 0.321526
2 75 100 7 0.321989
3 75 100 7 0.322035
4 75 100 7 0.0323788
5 75 100 7 0.00206603
7 75 100 7 4.96219e-06
1 76 100 7 0.993892
2 76 100 7 8.65105e-05
3 76 100 7 0.000381372
7 76 100 7 0.00563985
1 77 100 7 0.997206
2 77 100 7 0.00248008
4 77 100 7 5.40195e-05
5 77 100 7 5.39633e-05
6 77 100 7 0.000206156
2 78 100 7 0.00971601
3 78 100 7 9.75783e-06
4 78 100 7 1.04094e-05
5 78 100 7 2.18572e-05
6 78 100 7 2.26941e-05
7 78 100 7 0.990219
1 79 100 7 0.865
2 79 100 7 0.0707738
3 79 100 7 3.624e-05
6 79 100 7 0.0426885
7 79 100 7 0.0215014
2 80 100 7 0.00170825
7 80 100 7 0.998292
1 81 100 7 0.999309
2 81 100 7 0.000300646
3 81 100 7 0.000299357
4 81 100 7 9.07642e-05
1 82 100 7 0.557766
2 82 100 7 0.430766
3 82 100 7 0.000115911
4 82 100 7 0.000142086
5 82 100 7 5.93579e-05
6 82 100 7 1.31141e-05
7 82 100 7 0.0111381
1 83 100 7 0.371055
2 83 100 7 2.85475e-05
3 83 100 7 3.54375e-06
4 83 100 7 1.33134e-05
5 83 100 7 7.69783e-06
6 83 100 7 3.94226e-06
7 83 100 7 0.628888
1 84 100 7 0.0436116
2 84 100 7 5.35173e-05
3 84 100 7 0.000345649
4 84 100 7 0.00585508
6 84 100 7 0.00309042
7 84 100 7 0.947044
1 85 100 7 0.0014327
2 85 100 7 0.0161052
3 85 100 7 0.209403
4 85 100 7 0.148282
5 85 100 7 0.209474
6 85 100 7 0.208755
7 85 100 7 0.206547
1 86 100 7 0.995793
4 86 100 7 0.00420727
1 87 100 7 0.00131167
2 87 100 7 0.00151663
3 87 100 7 6.81622e-05
4 87 100 7 8.65063e-05
5 87 100 7 7.15423e-05
7 87 100 7 0.996946
7 88 100 7 1
1 89 100 7 0.000195975
2 89 100 7 0.424797
3 89 100 7 0.000180377
4 89 100 7 4.37424e-05
5 89 100 7 2.3009e-05
7 89 100 7 0.57476
1 90 100 7 0.925768
2 90 100 7 0.073996
3 90 100 7 5.90473e-06
4 90 100 7 9.98336e-07
5 90 100 7 9.74714e-07
6 90 100 7 9.36255e-07
7 90 100 7 0.000226781
1 91 100 7 0.999891
3 91 100 7 2.68113e-05
4 91 100 7 2.54409e-05
5 91 100 7 2.40455e-05
6 91 100 7 2.25762e-05
7 91 100 7 1.05479e-05
1 92 100 7 0.999892
2 92 100 7 5.4032e-05
3 92 100 7 5.4032e-05
1 93 100 7 0.99509
2 93 100 7 2.99123e-05
7 93 100 7 0.00488008
1 94 100 7 0.00299353
2 94 100 7 0.0788862
7 94 100 7 0.91812
1 95 100 7 0.00428573
7 95 100 7 0.995714
1 96 100 7 0.999834
2 96 100 7 4.34453e-05
7 96 100 7 0.000122432
1 97 100 7 0.207493
7 97 100 7 0.792507
1 98 100 7 0.819114
7 98 100 7 0.180886
1 99 100 7 0.00486537
7 99 100 7 0.995135
1 100 100 7 0.958124
2 100 100 7 0.00175017
7 100 100 7 0.040126
1 0 100 8 0.0856988
2 0 100 8 0.113475
3 0 100 8 0.071718
4 0 100 8 0.125923
5 0 100 8 0.0851523
6 0 100 8 0.190345
7 0 100 8 0.169968
8 0 100 8 0.15772
1 1 100 8 0.136457
2 1 100 8 0.125669
3 1 100 8 0.136879
4 1 100 8 0.130403
5 1 100 8 0.132492
6 1 100 8 0.123292
7 1 100 8 0.105071
8 1 100 8 0.109737
1 2 100 8 0.105349
2 2 100 8 0.10668
3 2 100 8 0.131329
4 2 100 8 0.143257
5 2 100 8 0.142365
6 2 100 8 0.0902657
7 2 100 8 0.134752
8 2 100 8 0.146002
1 3 100 8 0.257543
2 3 100 8 0.144062
3 3 100 8 0.141796
4 3 100 8 0.14167
5 3 100 8 0.139486
6 3 100 8 0.03544
7 3 100 8 0.0708352
8 3 100 8 0.069168
1 4 100 8 0.156545
2 4 100 8 0.135326
3 4 100 8 0.157066
4 4 100 8 0.111973
5 4 100 8 0.117734
6 4 100 8 0.112901
7 4 100 8 0.114471
8 4 100 8 0.0939835
1 5 100 8 0.104404
2 5 100 8 0.122684
3 5 100 8 0.12268
4 5 100 8 0.100931
5 5 100 8 0.102761
6 5 100 8 0.142212
7 5 100 8 0.183635
8 5 100 8 0.120694
1 6 100 8 0.128104
2 6 100 8 0.114322
3 6 100 8 0.104
4 6 100 8 0.00121825
5 6 100 8 0.112441
6 6 100 8 0.208095
7 6 100 8 0.208708
8 6 100 8 0.123112
1 7 100 8 0.0642197
2 7 100 8 0.113967
3 7 100 8 0.110015
4 7 100 8 0.121857
5 7 100 8 0.148845
6 7 100 8 0.154347
7 7 100 8 0.128779
8 7 100 8 0.15797
1 8 100 8 0.0900504
2 8 100 8 0.135091
3 8 100 8 0.0896941
4 8 100 8 0.120636
5 8 100 8 0.114744
6 8 100 8 0.137746
7 8 100 8 0.159694
8 8 100 8 0.152344
1 9 100 8 0.186144
2 9 100 8 0.128269
3 9 100 8 0.151097
4 9 100 8 0.130003
5 9 100 8 0.129781
6 9 100 8 0.0793911
7 9 100 8 0.130291
8 9 100 8 0.0650244
1 10 100 8 0.149296
2 10 100 8 0.163669
3 10 100 8 0.16597
4 10 100 8 0.1773
5 10 100 8 0.0121489
6 10 100 8 0.163099
7 10 100 8 0.00670065
8 10 100 8 0.161816
1 11 100 8 0.544609
2 11 100 8 0.0100095
3 11 100 8 0.0131591
4 11 100 8 0.39948
5 11 100 8 0.027933
6 11 100 8 0.000541792
7 11 100 8 0.00381123
8 11 100 8 0.000456941
1 12 100 8 0.0258784
2 12 100 8 0.049693
3 12 100 8 0.305146
4 12 100 8 0.0361541
5 12 100 8 0.569573
6 12 100 8 0.00571702
7 12 100 8 0.000473117
8 12 100 8 0.00736532
1 13 100 8 0.000943556
2 13 100 8 0.894299
3 13 100 8 0.00765876
4 13 100 8 0.0408529
5 13 100 8 0.025709
6 13 100 8 0.0197326
7 13 100 8 0.00131819
8 13 100 8 0.00948582
1 14 100 8 0.0220376
2 14 100 8 0.000754371
3 14 100 8 0.0438569
4 14 100 8 0.908444
5 14 100 8 0.00301985
6 14 100 8 0.000103405
7 14 100 8 1.74728e-05
8 14 100 8 0.0217663
1 15 100 8 0.16932
2 15 100 8 0.127128
3 15 100 8 0.0859433
4 15 100 8 0.12107
5 15 100 8 0.117284
6 15 100 8 0.124828
7 15 100 8 0.126713
8 15 100 8 0.127714
1 16 100 8 0.176985
2 16 100 8 0.000567182
3 16 100 8 0.0124538
4 16 100 8 0.478566
5 16 100 8 0.327038
6 16 100 8 0.00361882
7 16 100 8 0.000455732
8 16 100 8 0.000315911
1 17 100 8 0.156523
2 17 100 8 0.139199
3 17 100 8 0.0203803
4 17 100 8 0.138582
5 17 100 8 0.136947
6 17 100 8 0.13675
7 17 100 8 0.135945
8 17 100 8 0.135673
1 18 100 8 0.959715
2 18 100 8 8.13471e-05
3 18 100 8 0.000139762
4 18 100 8 7.27784e-05
5 18 100 8 5.58286e-05
6 18 100 8 3.98513e-05
7 18 100 8 3.05622e-05
8 18 100 8 0.0398654
2 19 100 8 0.588278
3 19 100 8 0.356744
4 19 100 8 0.0033124
5 19 100 8 0.00109701
6 19 100 8 0.0494535
7 19 100 8 0.00111518
1 20 100 8 0.060633
2 20 100 8 0.149918
3 20 100 8 0.129677
4 20 100 8 0.138141
5 20 100 8 0.14387
6 20 100 8 0.076831
7 20 100 8 0.151071
8 20 100 8 0.149859
1 21 100 8 0.998518
2 21 100 8 3.34159e-06
4 21 100 8 1.69764e-05
5 21 100 8 0.00043229
8 21 100 8 0.00102974
2 22 100 8 0.00195706
3 22 100 8 0.00269066
4 22 100 8 0.719835
5 22 100 8 0.269912
6 22 100 8 0.0018616
7 22 100 8 0.00180189
8 22 100 8 0.00194178
1 23 100 8 0.146871
2 23 100 8 0.204109
3 23 100 8 0.214673
4 23 100 8 0.178071
5 23 100 8 0.143671
6 23 100 8 0.0738419
7 23 100 8 0.030248
8 23 100 8 0.00851449
1 24 100 8 0.000479883
2 24 100 8 2.93562e-05
3 24 100 8 9.39316e-06
4 24 100 8 2.31641e-05
5 24 100 8 0.000109216
6 24 100 8 0.301427
7 24 100 8 0.338794
8 24 100 8 0.359129
1 25 100 8 0.0912311
2 25 100 8 0.015878
3 25 100 8 0.17781
4 25 100 8 0.142056
5 25 100 8 0.179379
6 25 100 8 0.143398
7 25 100 8 0.127633
8 25 100 8 0.122615
1 26 100 8 0.152325
2 26 100 8 0.114229
3 26 100 8 0.156904
4 26 100 8 0.157432
5 26 100 8 0.158043
6 26 100 8 0.162927
7 26 100 8 0.0189946
8 26 100 8 0.0791451
1 27 100 8 0.974849
2 27 100 8 2.37986e-05
3 27 100 8 3.96845e-05
4 27 100 8 0.00498644
5 27 100 8 0.0171299
6 27 100 8 0.0013303
7 27 100 8 0.00036503
8 27 100 8 0.00127575
1 28 100 8 0.0561317
2 28 100 8 0.00108319
3 28 100 8 0.00594943
4 28 100 8 0.105385
5 28 100 8 0.714965
6 28 100 8 0.0304079
7 28 100 8 0.0347157
8 28 100 8 0.0513622
1 29 100 8 0.279238
2 29 100 8 0.00481596
3 29 100 8 0.0121053
4 29 100 8 0.0260623
5 29 100 8 0.00244439
6 29 100 8 0.672095
7 29 100 8 0.000797158
8 29 100 8 0.00244157
1 30 100 8 0.00838202
2 30 100 8 0.0242172
3 30 100 8 0.0508084
4 30 100 8 0.00392479
5 30 100 8 0.410621
6 30 100 8 0.00845734
7 30 100 8 0.0033251
8 30 100 8 0.490264
1 31 100 8 0.000766585
2 31 100 8 0.0293907
3 31 100 8 0.00169768
4 31 100 8 2.38643e-05
5 31 100 8 0.00356028
6 31 100 8 0.964518
7 31 100 8 1.70626e-05
8 31 100 8 2.62418e-05
1 32 100 8 0.457544
2 32 100 8 0.474378
3 32 100 8 0.0131872
4 32 100 8 0.0262613
5 32 100 8 0.00127063
6 32 100 8 0.000495438
7 32 100 8 0.000760701
8 32 100 8 0.0261031
1 33 100 8 0.832334
2 33 100 8 0.000393495
3 33 100 8 0.000339766
4 33 100 8 0.163188
5 33 100 8 0.0015752
6 33 100 8 0.000151248
7 33 100 8 0.00172206
8 33 100 8 0.00029569
1 34 100 8 0.00376896
2 34 100 8 0.00217334
3 34 100 8 0.00366333
4 34 100 8 0.000101191
5 34 100 8 0.012983
6 34 100 8 0.00848196
7 34 100 8 0.879155
8 34 100 8 0.0896733
1 35 100 8 0.998248
4 35 100 8 0.00147703
5 35 100 8 6.87598e-05
6 35 100 8 1.20491e-05
7 35 100 8 4.81498e-05
8 35 100 8 0.000146374
2 36 100 8 0.00113773
3 36 100 8 0.106025
4 36 100 8 0.885907
5 36 100 8 0.00312498
6 36 100 8 0.00062682
7 36 100 8 0.00306851
8 36 100 8 0.000109328
1 37 100 8 0.29477
2 37 100 8 1.92226e-05
3 37 100 8 0.0257954
4 37 100 8 0.674
5 37 100 8 0.000691997
6 37 100 8 0.000241645
7 37 100 8 0.00085365
8 37 100 8 0.00362733
1 38 100 8 0.173235
2 38 100 8 0.148757
3 38 100 8 0.148624
4 38 100 8 1.89986e-05
5 38 100 8 0.0809926
6 38 100 8 0.149235
7 38 100 8 0.150714
8 38 100 8 0.148424
1 39 100 8 0.0236901
2 39 100 8 0.197506
3 39 100 8 0.193977
4 39 100 8 0.168611
5 39 100 8 0.193385
6 39 100 8 0.136256
7 39 100 8 0.0513712
8 39 100 8 0.0352044
1 40 100 8 0.119496
2 40 100 8 0.175964
3 40 100 8 0.175922
4 40 100 8 0.000955778
5 40 100 8 0.171018
6 40 100 8 0.170523
7 40 100 8 0.0108915
8 40 100 8 0.175229
3 41 100 8 0.95309
4 41 100 8 0.0272451
7 41 100 8 0.0196645
1 42 100 8 0.00014238
2 42 100 8 0.000661946
3 42 100 8 0.792548
4 42 100 8 0.204223
5 42 100 8 0.000339597
6 42 100 8 0.000196555
7 42 100 8 8.04315e-06
8 42 100 8 0.00187979
1 43 100 8 0.000178456
2 43 100 8 0.00102755
4 43 100 8 0.735705
5 43 100 8 0.249893
6 43 100 8 0.00899218
7 43 100 8 0.00341664
8 43 100 8 0.000786264
1 44 100 8 2.9555e-06
2 44 100 8 2.2049e-06
3 44 100 8 0.000505024
4 44 100 8 0.00635092
5 44 100 8 0.000241816
6 44 100 8 0.000479948
7 44 100 8 4.36786e-05
8 44 100 8 0.992373
1 45 100 8 0.982324
2 45 100 8 0.000101224
3 45 100 8 0.00876622
4 45 100 8 0.00679278
5 45 100 8 0.00178972
6 45 100 8 2.01194e-06
7 45 100 8 7.11272e-05
8 45 100 8 0.000153374
1 46 100 8 0.0872891
4 46 100 8 0.00195089
5 46 100 8 0.000598698
6 46 100 8 0.000871496
7 46 100 8 0.00342772
8 46 100 8 0.905862
1 47 100 8 0.15045
2 47 100 8 0.164875
3 47 100 8 0.157636
4 47 100 8 0.0352222
5 47 100 8 0.162923
6 47 100 8 0.00158827
7 47 100 8 0.164946
8 47 100 8 0.16236
3 48 100 8 0.00422446
4 48 100 8 0.142151
5 48 100 8 0.812538
6 48 100 8 0.0133254
7 48 100 8 0.00280072
8 48 100 8 0.0249608
1 49 100 8 0.000620114
2 49 100 8 0.000283563
3 49 100 8 0.0011469
4 49 100 8 0.000683762
5 49 100 8 0.00764883
6 49 100 8 0.000800087
7 49 100 8 0.0201305
8 49 100 8 0.968686
4 50 100 8 0.995046
7 50 100 8 0.00495438
3 51 100 8 0.00121889
4 51 100 8 0.993459
6 51 100 8 0.000378344
7 51 100 8 0.000105245
8 51 100 8 0.00483846
1 52 100 8 0.727079
2 52 100 8 3.47714e-05
3 52 100 8 0.00121886
4 52 100 8 0.224167
5 52 100 8 0.000323991
6 52 100 8 0.00042097
7 52 100 8 0.00788575
8 52 100 8 0.0388699
1 53 100 8 9.75894e-06
3 53 100 8 0.509973
4 53 100 8 0.476766
5 53 100 8 0.000337847
6 53 100 8 0.0125231
7 53 100 8 0.000390197
1 54 100 8 1.68544e-05
2 54 100 8 0.000247401
3 54 100 8 0.00487461
4 54 100 8 0.980638
5 54 100 8 0.00503877
6 54 100 8 0.000801681
7 54 100 8 0.000314396
8 54 100 8 0.0080678
1 55 100 8 0.112285
3 55 100 8 0.000135479
4 55 100 8 0.00405382
5 55 100 8 0.000148417
8 55 100 8 0.883377
1 56 100 8 0.300778
2 56 100 8 1.35425e-05
3 56 100 8 0.00733449
4 56 100 8 0.215929
5 56 100 8 8.54667e-05
6 56 100 8 1.31103e-05
7 56 100 8 4.14444e-05
8 56 100 8 0.475805
1 57 100 8 0.00110626
3 57 100 8 0.000417795
4 57 100 8 0.967292
6 57 100 8 0.015697
8 57 100 8 0.0154869
3 58 100 8 0.978231
4 58 100 8 0.0186632
5 58 100 8 6.42623e-06
7 58 100 8 1.49985e-05
8 58 100 8 0.00308407
3 59 100 8 0.00225703
4 59 100 8 0.994536
5 59 100 8 0.000655258
6 59 100 8 0.00254299
7 59 100 8 8.32122e-06
1 60 100 8 0.000364008
4 60 100 8 0.00400926
5 60 100 8 0.000235757
6 60 100 8 0.0008257
7 60 100 8 0.0141767
8 60 100 8 0.980389
1 61 100 8 2.00794e-05
2 61 100 8 6.39579e-05
3 61 100 8 0.194648
4 61 100 8 0.0635845
5 61 100 8 0.00180271
6 61 100 8 0.24252
7 61 100 8 0.00101202
8 61 100 8 0.49635
3 62 100 8 0.0162146
4 62 100 8 0.575206
5 62 100 8 0.325972
7 62 100 8 0.04141
8 62 100 8 0.0411977
1 63 100 8 0.039635
2 63 100 8 0.157139
3 63 100 8 0.156649
4 63 100 8 0.154235
5 63 100 8 0.157043
6 63 100 8 0.157108
7 63 100 8 0.153496
8 63 100 8 0.0246949
1 64 100 8 1.54425e-06
2 64 100 8 5.01982e-06
3 64 100 8 5.21648e-06
4 64 100 8 0.00377899
5 64 100 8 0.234748
6 64 100 8 0.257251
7 64 100 8 0.258656
8 64 100 8 0.245554
1 65 100 8 9.34852e-05
2 65 100 8 8.73295e-06
3 65 100 8 0.00973795
4 65 100 8 0.9136
5 65 100 8 0.07548
6 65 100 8 0.000425412
7 65 100 8 0.000654287
1 66 100 8 0.00928188
5 66 100 8 0.0316907
6 66 100 8 0.00436349
7 66 100 8 0.241429
8 66 100 8 0.713235
1 67 100 8 0.000467621
2 67 100 8 0.000184997
3 67 100 8 0.0364195
4 67 100 8 0.0343947
5 67 100 8 0.0044785
6 67 100 8 0.263788
7 67 100 8 0.000105882
8 67 100 8 0.66016
4 68 100 8 8.23641e-05
5 68 100 8 0.000394819
7 68 100 8 0.00013797
8 68 100 8 0.999385
8 69 100 8 1
1 70 100 8 0.797567
2 70 100 8 0.000357163
3 70 100 8 0.000177282
4 70 100 8 0.000117376
5 70 100 8 0.000293328
6 70 100 8 0.000132527
7 70 100 8 0.0528588
8 70 100 8 0.148497
1 71 100 8 0.999396
4 71 100 8 0.000604387
1 72 100 8 0.00300909
4 72 100 8 0.0124084
8 72 100 8 0.984582
4 73 100 8 0.00125889
7 73 100 8 0.0087742
8 73 100 8 0.989967
4 74 100 8 0.968664
5 74 100 8 0.0313361
1 75 100 8 0.000560919
4 75 100 8 0.00531155
7 75 100 8 0.983423
8 75 100 8 0.0107042
1 76 100 8 0.988463
2 76 100 8 4.29125e-05
3 76 100 8 0.000124229
4 76 100 8 2.65574e-05
5 76 100 8 3.07444e-05
6 76 100 8 3.02775e-05
7 76 100 8 0.0001959
8 76 100 8 0.0110867
1 77 100 8 0.000100101
2 77 100 8 5.82596e-05
3 77 100 8 0.0314201
4 77 100 8 0.96529
5 77 100 8 5.7616e-05
7 77 100 8 2.0705e-05
8 77 100 8 0.00305333
2 78 100 8 0.130964
4 78 100 8 0.0316257
7 78 100 8 0.041136
8 78 100 8 0.796274
1 79 100 8 0.000101218
4 79 100 8 5.2643e-05
6 79 100 8 2.58241e-05
7 79 100 8 0.00173619
8 79 100 8 0.998084
5 80 100 8 3.27994e-06
6 80 100 8 8.18768e-06
7 80 100 8 3.07054e-05
8 80 100 8 0.999958
2 81 100 8 0.0528134
4 81 100 8 0.00356127
5 81 100 8 0.0279324
8 81 100 8 0.915693
1 82 100 8 0.0731964
8 82 100 8 0.926804
1 83 100 8 0.335087
2 83 100 8 0.327339
3 83 100 8 0.327658
4 83 100 8 0.00980634
5 83 100 8 4.13767e-07
8 83 100 8 0.000109168
1 84 100 8 0.0132089
2 84 100 8 0.121271
8 84 100 8 0.865521
1 85 100 8 0.000119687
2 85 100 8 0.141852
3 85 100 8 0.124794
4 85 100 8 0.729592
7 85 100 8 3.12929e-05
8 85 100 8 0.00361094
1 86 100 8 0.00226994
2 86 100 8 5.10743e-05
5 86 100 8 1.5641e-05
6 86 100 8 0.00039587
7 86 100 8 0.00254034
8 86 100 8 0.994727
1 87 100 8 1.29986e-05
6 87 100 8 1.51918e-06
7 87 100 8 2.10889e-06
8 87 100 8 0.999983
1 88 100 8 0.943903
2 88 100 8 3.33439e-05
3 88 100 8 3.34117e-05
4 88 100 8 3.33278e-05
5 88 100 8 3.40069e-05
6 88 100 8 3.71966e-05
7 88 100 8 7.65715e-05
8 88 100 8 0.0558492
1 89 100 8 0.00125024
5 89 100 8 2.80635e-05
8 89 100 8 0.998722
1 90 100 8 9.60601e-05
2 90 100 8 4.90448e-05
3 90 100 8 0.00928311
4 90 100 8 0.984942
5 90 100 8 1.31689e-05
8 90 100 8 0.00561673
1 91 100 8 0.89405
5 91 100 8 0.0330481
8 91 100 8 0.0729022
1 92 100 8 0.000196686
3 92 100 8 0.00066911
4 92 100 8 0.415832
5 92 100 8 2.98845e-05
7 92 100 8 0.000138643
8 92 100 8 0.583134
7 93 100 8 0.040167
8 93 100 8 0.959833
1 94 100 8 0.457384
5 94 100 8 0.224834
8 94 100 8 0.317782
1 95 100 8 0.0345718
4 95 100 8 0.0257183
8 95 100 8 0.93971
1 96 100 8 1
8 97 100 8 1
1 98 100 8 0.260579
8 98 100 8 0.739421
4 99 100 8 0.323906
8 99 100 8 0.676094
1 100 100 8 0.999931
2 100 100 8 1.82748e-05
3 100 100 8 7.29719e-06
4 100 100 8 6.61566e-06
8 100 100 8 3.69453e-05
1 0 100 9 0.0585738
2 0 100 9 0.0883893
3 0 100 9 0.110032
4 0 100 9 0.130236
5 0 100 9 0.133933
6 0 100 9 0.123513
7 0 100 9 0.130592
8 0 100 9 0.071295
9 0 100 9 0.153437
1 1 100 9 0.119789
2 1 100 9 0.138139
3 1 100 9 0.177571
4 1 100 9 0.120345
5 1 100 9 0.132399
6 1 100 9 0.0911308
7 1 100 9 0.0607488
8 1 100 9 0.0918389
9 1 100 9 0.068038
1 2 100 9 0.133245
2 2 100 9 0.0853298
3 2 100 9 0.0427721
4 2 100 9 0.0854415
5 2 100 9 0.0609126
6 2 100 9 0.145828
7 2 100 9 0.149294
8 2 100 9 0.161532
9 2 100 9 0.135645
1 3 100 9 0.0916267
2 3 100 9 0.128544
3 3 100 9 0.114295
4 3 100 9 0.100624
5 3 100 9 0.121758
6 3 100 9 0.117692
7 3 100 9 0.112796
8 3 100 9 0.0997209
9 3 100 9 0.112944
1 4 100 9 0.157714
2 4 100 9 0.16516
3 4 100 9 0.125834
4 4 100 9 0.110458
5 4 100 9 0.165111
6 4 100 9 0.0550521
7 4 100 9 0.110524
8 4 100 9 0.0550405
9 4 100 9 0.0551063
1 5 100 9 0.140584
2 5 100 9 0.0838506
3 5 100 9 0.115922
4 5 100 9 0.0517573
5 5 100 9 0.0875941
6 5 100 9 0.117879
7 5 100 9 0.134682
8 5 100 9 0.133154
9 5 100 9 0.134576
1 6 100 9 0.12021
2 6 100 9 0.113377
3 6 100 9 0.140291
4 6 100 9 0.145023
5 6 100 9 0.121117
6 6 100 9 0.038322
7 6 100 9 0.113348
8 6 100 9 0.0898044
9 6 100 9 0.118508
1 7 100 9 0.0640906
2 7 100 9 0.060749
3 7 100 9 0.0617275
4 7 100 9 0.130957
5 7 100 9 0.138555
6 7 100 9 0.133608
7 7 100 9 0.115737
8 7 100 9 0.144614
9 7 100 9 0.149963
1 8 100 9 0.15452
2 8 100 9 0.240725
3 8 100 9 0.156815
4 8 100 9 0.167955
5 8 100 9 0.0822149
6 8 100 9 0.0396022
7 8 100 9 0.0392923
8 8 100 9 0.0403441
9 8 100 9 0.0785317
1 9 100 9 0.145668
2 9 100 9 0.15214
3 9 100 9 0.150426
4 9 100 9 0.152348
5 9 100 9 0.100284
6 9 100 9 0.198261
7 9 100 9 0.0501845
8 9 100 9 0.0501556
9 9 100 9 0.000533609
1 10 100 9 0.000249076
2 10 100 9 0.0776174
3 10 100 9 9.83593e-06
4 10 100 9 0.167674
5 10 100 9 0.194491
6 10 100 9 0.159694
7 10 100 9 0.158521
8 10 100 9 0.162442
9 10 100 9 0.0793017
1 11 100 9 0.0277245
2 11 100 9 0.000129814
3 11 100 9 0.00151929
4 11 100 9 0.874328
5 11 100 9 0.0237334
6 11 100 9 0.0499112
7 11 100 9 0.000462578
8 11 100 9 0.000111771
9 11 100 9 0.022079
1 12 100 9 0.126073
2 12 100 9 0.000268427
3 12 100 9 0.00538662
4 12 100 9 0.0470199
5 12 100 9 0.00116887
6 12 100 9 0.00402249
7 12 100 9 0.00148538
8 12 100 9 0.524643
9 12 100 9 0.289932
1 13 100 9 0.092206
2 13 100 9 0.105596
3 13 100 9 0.114305
4 13 100 9 0.114046
5 13 100 9 0.115045
6 13 100 9 0.114405
7 13 100 9 0.114828
8 13 100 9 0.115141
9 13 100 9 0.114429
1 14 100 9 0.193407
2 14 100 9 0.154431
3 14 100 9 0.0894914
4 14 100 9 0.0898962
5 14 100 9 0.135907
6 14 100 9 0.0897133
7 14 100 9 0.097588
8 14 100 9 0.0827195
9 14 100 9 0.0668462
1 15 100 9 0.169931
2 15 100 9 0.172116
3 15 100 9 0.206139
4 15 100 9 0.0855038
5 15 100 9 0.0863201
6 15 100 9 0.0825508
7 15 100 9 0.0861624
8 15 100 9 0.0859894
9 15 100 9 0.0252877
1 16 100 9 0.306172
2 16 100 9 0.286813
3 16 100 9 0.34304
4 16 100 9 0.0616211
5 16 100 9 0.00171297
6 16 100 9 0.000465342
7 16 100 9 8.42811e-05
8 16 100 9 6.1603e-05
9 16 100 9 2.99622e-05
1 17 100 9 0.000154371
2 17 100 9 2.18665e-05
3 17 100 9 0.00615417
4 17 100 9 0.325417
5 17 100 9 0.331882
6 17 100 9 0.329555
7 17 100 9 0.00678619
8 17 100 9 8.18817e-06
9 17 100 9 2.13647e-05
1 18 100 9 0.0015694
2 18 100 9 0.000886814
3 18 100 9 0.066665
4 18 100 9 0.0820607
5 18 100 9 0.260006
6 18 100 9 0.144369
7 18 100 9 0.147835
8 18 100 9 0.149057
9 18 100 9 0.147551
1 19 100 9 0.470811
2 19 100 9 0.48662
3 19 100 9 0.0411666
4 19 100 9 0.000526958
5 19 100 9 0.000362421
6 19 100 9 7.23429e-05
7 19 100 9 1.43916e-05
8 19 100 9 1.59106e-05
9 19 100 9 0.00041007
1 20 100 9 0.261425
2 20 100 9 0.0183068
3 20 100 9 0.217211
4 20 100 9 0.235927
5 20 100 9 0.216803
6 20 100 9 0.0460527
7 20 100 9 0.00409327
8 20 100 9 7.94257e-06
9 20 100 9 0.000173078
1 21 100 9 7.92823e-06
2 21 100 9 4.7973e-06
3 21 100 9 1.10411e-05
4 21 100 9 0.000371215
5 21 100 9 7.63284e-06
6 21 100 9 0.00639442
7 21 100 9 0.136823
8 21 100 9 0.445846
9 21 100 9 0.410534
1 22 100 9 0.00101738
2 22 100 9 7.93824e-05
3 22 100 9 0.000137996
4 22 100 9 0.000384759
5 22 100 9 0.000275017
6 22 100 9 0.000867617
7 22 100 9 0.344938
8 22 100 9 0.323984
9 22 100 9 0.328316
1 23 100 9 0.0793279
2 23 100 9 0.139488
3 23 100 9 0.155051
4 23 100 9 0.167895
5 23 100 9 0.000730616
6 23 100 9 0.138549
7 23 100 9 0.138768
8 23 100 9 0.139542
9 23 100 9 0.0406488
1 24 100 9 0.000272593
2 24 100 9 0.000768534
3 24 100 9 0.0451944
4 24 100 9 0.126501
5 24 100 9 0.175856
6 24 100 9 0.19136
7 24 100 9 0.153869
8 24 100 9 0.150776
9 24 100 9 0.155403
1 25 100 9 0.384113
2 25 100 9 3.21315e-05
3 25 100 9 0.00105696
4 25 100 9 0.367892
5 25 100 9 0.00124117
6 25 100 9 0.243418
7 25 100 9 0.000818621
8 25 100 9 1.93156e-05
9 25 100 9 0.00140852
1 26 100 9 0.015937
2 26 100 9 0.000454091
3 26 100 9 0.000301905
4 26 100 9 0.0632434
5 26 100 9 0.00142897
6 26 100 9 0.000181833
7 26 100 9 0.0198061
8 26 100 9 0.00284413
9 26 100 9 0.895803
1 27 100 9 0.298238
2 27 100 9 0.00590819
3 27 100 9 0.00270988
4 27 100 9 0.689391
5 27 100 9 0.000199274
6 27 100 9 0.0031591
7 27 100 9 0.000321094
8 27 100 9 7.13404e-05
9 27 100 9 2.45176e-06
1 28 100 9 0.131969
2 28 100 9 0.136479
3 28 100 9 0.137468
4 28 100 9 0.000845865
5 28 100 9 0.146707
6 28 100 9 0.150507
7 28 100 9 0.00841064
8 28 100 9 0.14379
9 28 100 9 0.143822
1 29 100 9 0.0100454
2 29 100 9 0.000489584
3 29 100 9 0.00162983
4 29 100 9 0.454322
5 29 100 9 0.00764501
6 29 100 9 0.042762
7 29 100 9 0.0767652
8 29 100 9 2.32425e-05
9 29 100 9 0.406318
1 30 100 9 0.0106465
2 30 100 9 0.000122437
3 30 100 9 0.000152396
4 30 100 9 0.000126198
5 30 100 9 4.02075e-05
6 30 100 9 0.00146923
7 30 100 9 0.000399428
8 30 100 9 0.000126132
9 30 100 9 0.986917
1 31 100 9 0.0738872
2 31 100 9 0.127526
3 31 100 9 0.128325
4 31 100 9 0.126009
5 31 100 9 0.134902
6 31 100 9 0.129143
7 31 100 9 0.033209
8 31 100 9 0.127681
9 31 100 9 0.119318
1 32 100 9 0.512448
2 32 100 9 0.470362
3 32 100 9 0.016422
4 32 100 9 6.76306e-06
6 32 100 9 1.11279e-05
7 32 100 9 7.47061e-06
9 32 100 9 0.000742732
2 33 100 9 0.247497
3 33 100 9 0.00183542
4 33 100 9 0.431189
5 33 100 9 0.00368327
6 33 100 9 0.0151673
7 33 100 9 0.18677
8 33 100 9 0.00223265
9 33 100 9 0.111625
1 34 100 9 0.01001
2 34 100 9 0.000728657
3 34 100 9 0.0223177
4 34 100 9 0.00556042
5 34 100 9 0.00227428
6 34 100 9 0.534765
7 34 100 9 0.416339
8 34 100 9 0.00772228
9 34 100 9 0.000282196
1 35 100 9 0.0404537
2 35 100 9 0.0109045
3 35 100 9 0.000127748
4 35 100 9 0.452795
5 35 100 9 0.376184
6 35 100 9 0.00151376
7 35 100 9 0.016021
8 35 100 9 0.101869
9 35 100 9 0.000130939
1 36 100 9 0.0307023
2 36 100 9 0.000334223
3 36 100 9 7.43526e-05
4 36 100 9 0.000458573
5 36 100 9 8.94505e-06
6 36 100 9 0.114819
7 36 100 9 0.0939681
8 36 100 9 0.0859261
9 36 100 9 0.673709
1 37 100 9 0.412735
2 37 100 9 0.000527335
3 37 100 9 0.000513122
4 37 100 9 0.226529
5 37 100 9 0.000572205
6 37 100 9 0.000154645
7 37 100 9 0.0187669
8 37 100 9 2.64827e-05
9 37 100 9 0.340176
1 38 100 9 0.00628241
2 38 100 9 0.0105096
3 38 100 9 6.19489e-05
4 38 100 9 0.745719
5 38 100 9 0.00738324
6 38 100 9 0.229767
7 38 100 9 0.000276405
2 39 100 9 4.61868e-06
3 39 100 9 2.38761e-05
4 39 100 9 4.31213e-06
5 39 100 9 1.75337e-06
6 39 100 9 0.018097
7 39 100 9 0.330372
8 39 100 9 0.32911
9 39 100 9 0.322387
1 40 100 9 2.8728e-05
2 40 100 9 0.00422553
3 40 100 9 0.31423
4 40 100 9 0.331027
5 40 100 9 0.325177
6 40 100 9 0.0211463
7 40 100 9 0.0040833
8 40 100 9 1.50699e-06
9 40 100 9 8.05677e-05
1 41 100 9 0.00495838
2 41 100 9 8.04582e-05
3 41 100 9 1.98117e-06
4 41 100 9 0.00384922
5 41 100 9 0.022435
6 41 100 9 0.24134
7 41 100 9 0.240769
8 41 100 9 0.243736
9 41 100 9 0.24283
1 42 100 9 0.900863
2 42 100 9 0.000149826
3 42 100 9 4.7701e-05
4 42 100 9 0.000138686
5 42 100 9 0.000288457
6 42 100 9 0.00111356
7 42 100 9 0.000349647
8 42 100 9 0.000761969
9 42 100 9 0.0962869
1 43 100 9 0.0408307
2 43 100 9 0.000602545
3 43 100 9 0.00124939
4 43 100 9 0.00455668
5 43 100 9 0.0060341
6 43 100 9 0.930801
7 43 100 9 0.00721245
8 43 100 9 0.00871271
1 44 100 9 0.000878281
2 44 100 9 7.86525e-05
3 44 100 9 3.42269e-05
4 44 100 9 0.0248286
5 44 100 9 0.0616969
6 44 100 9 0.786498
7 44 100 9 0.00174142
8 44 100 9 0.00466441
9 44 100 9 0.11958
2 45 100 9 7.78209e-06
3 45 100 9 9.93119e-06
4 45 100 9 0.000142643
5 45 100 9 0.000208308
6 45 100 9 0.972059
7 45 100 9 0.0275656
8 45 100 9 6.45955e-06
1 46 100 9 0.000671154
2 46 100 9 0.000147009
3 46 100 9 0.000261016
4 46 100 9 0.0194566
5 46 100 9 0.0227298
6 46 100 9 0.0033424
7 46 100 9 0.46453
8 46 100 9 0.43906
9 46 100 9 0.0498027
1 47 100 9 0.000993931
2 47 100 9 0.00062832
3 47 100 9 9.12751e-07
4 47 100 9 9.52308e-06
5 47 100 9 1.38628e-05
6 47 100 9 0.000170326
7 47 100 9 0.318601
8 47 100 9 0.334349
9 47 100 9 0.345233
2 48 100 9 0.0044581
3 48 100 9 3.36715e-06
4 48 100 9 3.03662e-05
5 48 100 9 0.00132462
6 48 100 9 0.0023062
7 48 100 9 6.44884e-05
8 48 100 9 0.00590938
9 48 100 9 0.985903
1 49 100 9 0.00248327
2 49 100 9 0.000426886
3 49 100 9 4.31603e-06
4 49 100 9 2.04779e-06
5 49 100 9 7.04073e-06
6 49 100 9 0.00261862
7 49 100 9 0.309551
8 49 100 9 0.346472
9 49 100 9 0.338435
1 50 100 9 0.051145
2 50 100 9 0.194565
3 50 100 9 0.19358
4 50 100 9 0.18953
5 50 100 9 0.180317
6 50 100 9 0.177209
7 50 100 9 0.00938007
8 50 100 9 6.48307e-06
9 50 100 9 0.00426712
1 51 100 9 0.111545
2 51 100 9 0.112169
3 51 100 9 0.112017
4 51 100 9 0.110279
5 51 100 9 0.110259
6 51 100 9 0.108971
7 51 100 9 0.111083
8 51 100 9 0.111749
9 51 100 9 0.111929
1 52 100 9 0.470907
2 52 100 9 0.000289212
3 52 100 9 0.000815801
4 52 100 9 0.000146305
5 52 100 9 0.00015642
6 52 100 9 0.511136
7 52 100 9 0.00659607
8 52 100 9 0.00991146
9 52 100 9 4.13628e-05
1 53 100 9 0.938783
2 53 100 9 0.000310586
4 53 100 9 0.0587275
5 53 100 9 0.00158644
6 53 100 9 0.000370463
7 53 100 9 0.000222175
1 54 100 9 0.000954511
2 54 100 9 0.00274034
3 54 100 9 0.0143299
4 54 100 9 0.00170996
5 54 100 9 1.21831e-05
6 54 100 9 0.690743
7 54 100 9 0.0243585
9 54 100 9 0.265151
1 55 100 9 0.000133965
2 55 100 9 0.00386487
3 55 100 9 0.145228
4 55 100 9 0.176443
5 55 100 9 0.161451
6 55 100 9 0.19825
7 55 100 9 0.167307
8 55 100 9 0.14732
9 55 100 9 1.81749e-06
1 56 100 9 0.941184
2 56 100 9 0.000318684
3 56 100 9 0.000202689
4 56 100 9 0.0270681
5 56 100 9 0.00309827
6 56 100 9 0.00184931
7 56 100 9 0.0057027
8 56 100 9 0.000333998
9 56 100 9 0.0202426
1 57 100 9 0.422682
2 57 100 9 0.39317
3 57 100 9 0.0041668
4 57 100 9 0.000142661
5 57 100 9 2.59014e-06
6 57 100 9 2.69323e-05
7 57 100 9 1.24024e-05
8 57 100 9 0.0131626
9 57 100 9 0.166634
1 58 100 9 0.248658
2 58 100 9 0.249651
3 58 100 9 0.249187
4 58 100 9 0.00330971
5 58 100 9 0.242439
6 58 100 9 0.00653006
7 58 100 9 6.53768e-05
8 58 100 9 4.4543e-05
9 58 100 9 0.000115105
1 59 100 9 1.31271e-05
2 59 100 9 0.00039058
3 59 100 9 8.63862e-05
4 59 100 9 0.000106266
5 59 100 9 0.0153085
6 59 100 9 0.320663
7 59 100 9 0.335268
8 59 100 9 0.328162
9 59 100 9 1.37969e-06
1 60 100 9 0.154881
2 60 100 9 0.134091
3 60 100 9 0.132723
4 60 100 9 0.0282572
5 60 100 9 0.132703
6 60 100 9 0.00153235
7 60 100 9 0.135633
8 60 100 9 0.133801
9 60 100 9 0.146378
2 61 100 9 0.00227836
3 61 100 9 0.000112657
4 61 100 9 0.000240331
5 61 100 9 5.60364e-05
6 61 100 9 0.000236865
7 61 100 9 0.000134374
8 61 100 9 0.00328319
9 61 100 9 0.993658
2 62 100 9 0.974989
3 62 100 9 0.0239911
5 62 100 9 1.20539e-05
6 62 100 9 0.00087431
7 62 100 9 6.33942e-05
9 62 100 9 6.98335e-05
1 63 100 9 0.0564837
2 63 100 9 0.132057
3 63 100 9 0.137781
4 63 100 9 0.131456
5 63 100 9 0.130515
6 63 100 9 0.0715706
7 63 100 9 0.131671
8 63 100 9 0.129681
9 63 100 9 0.0787842
1 64 100 9 0.00124718
2 64 100 9 6.85503e-06
3 64 100 9 0.0125087
4 64 100 9 0.000403906
5 64 100 9 0.000420199
6 64 100 9 0.00043307
7 64 100 9 9.46505e-05
9 64 100 9 0.984885
1 65 100 9 0.000956579
2 65 100 9 0.0315069
3 65 100 9 0.0021606
5 65 100 9 0.00703865
6 65 100 9 0.651338
7 65 100 9 0.303338
8 65 100 9 0.00366146
1 66 100 9 0.000499569
2 66 100 9 0.369152
3 66 100 9 0.000134375
4 66 100 9 0.00575342
5 66 100 9 0.0236697
6 66 100 9 0.355179
7 66 100 9 0.209036
8 66 100 9 0.0310726
9 66 100 9 0.00550407
1 67 100 9 0.00038621
2 67 100 9 0.0840775
3 67 100 9 0.0191725
4 67 100 9 2.17159e-05
6 67 100 9 0.000279844
7 67 100 9 0.891543
8 67 100 9 0.000797583
9 67 100 9 0.00372172
1 68 100 9 3.52223e-05
2 68 100 9 4.94231e-05
3 68 100 9 5.27178e-05
4 68 100 9 0.0884743
5 68 100 9 0.0204508
6 68 100 9 0.000186797
7 68 100 9 0.000368601
8 68 100 9 0.000461169
9 68 100 9 0.889921
1 69 100 9 0.0906978
2 69 100 9 0.0566651
3 69 100 9 0.805053
4 69 100 9 0.000132368
5 69 100 9 7.10119e-06
6 69 100 9 8.65762e-05
7 69 100 9 0.00106714
8 69 100 9 4.50752e-05
9 69 100 9 0.0462464
1 70 100 9 0.92448
2 70 100 9 0.00458418
3 70 100 9 1.57502e-05
4 70 100 9 0.0106151
5 70 100 9 0.0592247
6 70 100 9 0.000733735
7 70 100 9 1.46444e-05
9 70 100 9 0.000331709
1 71 100 9 0.00118219
2 71 100 9 0.00150932
3 71 100 9 0.00562557
6 71 100 9 0.90738
7 71 100 9 0.0843024
1 72 100 9 0.00104731
2 72 100 9 0.0955968
3 72 100 9 0.000287168
4 72 100 9 0.351575
5 72 100 9 0.503572
6 72 100 9 0.00261293
8 72 100 9 0.0202642
9 72 100 9 0.0250447
2 73 100 9 0.000640203
3 73 100 9 0.00455298
4 73 100 9 3.95267e-05
5 73 100 9 0.993555
6 73 100 9 0.000895564
7 73 100 9 0.00031715
2 74 100 9 2.15304e-06
3 74 100 9 3.5484e-05
4 74 100 9 0.4464
5 74 100 9 0.552095
6 74 100 9 1.40861e-06
7 74 100 9 0.0014494
8 74 100 9 7.59514e-06
9 74 100 9 8.61195e-06
2 75 100 9 0.00109122
3 75 100 9 0.125286
6 75 100 9 0.822913
7 75 100 9 0.0477358
8 75 100 9 0.00297413
1 76 100 9 2.0576e-05
3 76 100 9 0.000462828
5 76 100 9 1.86222e-05
6 76 100 9 0.957743
7 76 100 9 0.0417079
9 76 100 9 4.68967e-05
1 77 100 9 0.000255891
2 77 100 9 0.0137341
3 77 100 9 0.746639
6 77 100 9 0.0199161
7 77 100 9 0.219455
2 78 100 9 0.039099
6 78 100 9 0.415163
7 78 100 9 0.0307099
9 78 100 9 0.515028
1 79 100 9 0.00440278
2 79 100 9 2.66223e-06
3 79 100 9 0.000165164
4 79 100 9 0.00555654
9 79 100 9 0.989873
2 80 100 9 0.000503841
3 80 100 9 0.00162521
4 80 100 9 0.000194846
6 80 100 9 0.000125858
7 80 100 9 0.000183241
8 80 100 9 4.09558e-05
9 80 100 9 0.997326
1 81 100 9 0.998474
2 81 100 9 0.0001806
3 81 100 9 0.000139971
4 81 100 9 4.01235e-05
6 81 100 9 0.00104109
7 81 100 9 1.72683e-06
8 81 100 9 1.16443e-05
9 81 100 9 0.00011034
3 82 100 9 0.000302884
6 82 100 9 2.72229e-05
7 82 100 9 0.072088
8 82 100 9 0.0325141
9 82 100 9 0.895068
1 83 100 9 0.530405
2 83 100 9 0.466443
3 83 100 9 0.00309342
4 83 100 9 9.54593e-07
6 83 100 9 1.19027e-06
7 83 100 9 1.80563e-06
9 83 100 9 5.43541e-05
1 84 100 9 0.0221427
2 84 100 9 0.000458815
3 84 100 9 0.00215229
6 84 100 9 0.0126532
7 84 100 9 0.000110995
8 84 100 9 2.73056e-05
9 84 100 9 0.962455
1 85 100 9 0.236836
2 85 100 9 0.00103702
3 85 100 9 0.0044155
5 85 100 9 0.00437046
6 85 100 9 0.00279097
7 85 100 9 0.432524
8 85 100 9 0.316584
9 85 100 9 0.00144126
1 86 100 9 0.116255
2 86 100 9 0.429657
3 86 100 9 0.159499
6 86 100 9 0.220638
7 86 100 9 0.073952
1 87 100 9 0.000286469
2 87 100 9 0.274538
3 87 100 9 0.0451712
6 87 100 9 0.00243556
7 87 100 9 0.00793183
8 87 100 9 0.00319119
9 87 100 9 0.666445
1 88 100 9 0.304409
2 88 100 9 0.00170291
3 88 100 9 0.00430703
4 88 100 9 0.254911
5 88 100 9 0.39041
6 88 100 9 0.00641702
7 88 100 9 0.0280079
8 88 100 9 0.00592517
9 88 100 9 0.0039099
1 89 100 9 0.971141
5 89 100 9 0.0275755
9 89 100 9 0.00128366
1 90 100 9 0.000534155
2 90 100 9 0.841889
3 90 100 9 0.14121
4 90 100 9 0.00150644
5 90 100 9 0.000399697
6 90 100 9 7.16084e-05
9 90 100 9 0.014389
2 91 100 9 0.00229356
3 91 100 9 0.0586295
4 91 100 9 0.171423
5 91 100 9 0.170268
6 91 100 9 0.171498
7 91 100 9 0.12074
8 91 100 9 0.17139
9 91 100 9 0.133758
1 92 100 9 0.0709904
2 92 100 9 0.0140571
3 92 100 9 0.792812
4 92 100 9 0.00974232
6 92 100 9 0.00831308
9 92 100 9 0.104085
1 93 100 9 0.313124
2 93 100 9 0.307726
3 93 100 9 0.304086
4 93 100 9 0.0605671
5 93 100 9 0.0144458
9 93 100 9 5.19844e-05
1 94 100 9 0.00107754
2 94 100 9 0.268481
3 94 100 9 0.552084
6 94 100 9 0.0184622
9 94 100 9 0.159895
1 95 100 9 0.607461
2 95 100 9 0.243376
3 95 100 9 0.00343461
6 95 100 9 0.145728
1 96 100 9 0.99893
2 96 100 9 9.9031e-05
4 96 100 9 0.000236206
5 96 100 9 0.000373845
6 96 100 9 0.000228725
8 96 100 9 0.000132237
1 97 100 9 0.0250823
2 97 100 9 0.156989
3 97 100 9 0.156959
4 97 100 9 0.155782
5 97 100 9 0.0052319
6 97 100 9 0.156996
7 97 100 9 0.156958
8 97 100 9 0.155482
9 97 100 9 0.0305203
4 98 100 9 0.0706764
5 98 100 9 0.924553
8 98 100 9 0.00477044
1 99 100 9 0.996557
2 99 100 9 4.86174e-05
9 99 100 9 0.00339421
1 100 100 9 0.564977
2 100 100 9 0.435022
7 100 100 9 1.87664e-06
1 0 100 10 0.0838953
2 0 100 10 0.0224616
3 0 100 10 0.0783293
4 0 100 10 0.0791161
5 0 100 10 0.191174
6 0 100 10 0.209903
7 0 100 10 0.10134
8 0 100 10 0.134205
9 0 100 10 0.0667302
10 0 100 10 0.0328457
1 1 100 10 0.210495
2 1 100 10 0.12516
3 1 100 10 0.0747164
4 1 100 10 0.0752022
5 1 100 10 0.12535
6 1 100 10 0.100225
7 1 100 10 0.0751906
8 1 100 10 0.0751938
9 1 100 10 0.0751825
10 1 100 10 0.0632848
2 2 100 10 0.0927586
3 2 100 10 0.101895
4 2 100 10 0.102166
5 2 100 10 0.145887
6 2 100 10 0.100953
7 2 100 10 0.152822
8 2 100 10 0.149625
9 2 100 10 0.101895
10 2 100 10 0.0519995
1 3 100 10 0.13258
2 3 100 10 0.0451173
3 3 100 10 0.0649682
4 3 100 10 0.132522
5 3 100 10 0.0964309
6 3 100 10 0.132556
7 3 100 10 0.130768
9 3 100 10 0.132535
10 3 100 10 0.132521
1 4 100 10 0.0612987
2 4 100 10 0.178532
3 4 100 10 0.121076
4 4 100 10 1.88216e-05
5 4 100 10 2.1986e-05
6 4 100 10 9.79673e-06
7 4 100 10 0.0607113
8 4 100 10 0.183286
9 4 100 10 0.180196
10 4 100 10 0.214848
1 5 100 10 0.092557
2 5 100 10 0.085907
3 5 100 10 0.162544
4 5 100 10 0.151567
5 5 100 10 0.125848
6 5 100 10 0.0470197
7 5 100 10 0.101167
8 5 100 10 0.0668827
9 5 100 10 0.0832562
10 5 100 10 0.0832518
1 6 100 10 0.13926
2 6 100 10 0.18192
3 6 100 10 0.187121
4 6 100 10 0.185633
5 6 100 10 0.0466942
6 6 100 10 0.0718064
7 6 100 10 0.0472284
8 6 100 10 0.0467809
9 6 100 10 0.0467771
10 6 100 10 0.0467796
1 7 100 10 0.999982
2 7 100 10 1.33193e-05
6 7 100 10 4.6158e-06
1 8 100 10 0.0370229
2 8 100 10 0.0904637
3 8 100 10 0.0592416
4 8 100 10 0.0891026
5 8 100 10 0.0897068
6 8 100 10 0.090701
7 8 100 10 0.138027
8 8 100 10 0.106304
9 8 100 10 0.151029
10 8 100 10 0.148401
2 9 100 10 0.00302603
5 9 100 10 0.0111009
7 9 100 10 0.985873
1 10 100 10 0.00661685
2 10 100 10 0.17865
3 10 100 10 0.179507
4 10 100 10 0.270438
5 10 100 10 0.179489
6 10 100 10 0.180074
7 10 100 10 0.000101523
8 10 100 10 0.00507339
10 10 100 10 5.02389e-05
4 11 100 10 0.890709
5 11 100 10 2.66821e-05
8 11 100 10 2.04071e-05
10 11 100 10 0.109244
1 12 100 10 0.00358059
2 12 100 10 0.00505174
3 12 100 10 0.465639
4 12 100 10 0.00889511
5 12 100 10 0.0179425
6 12 100 10 0.044095
7 12 100 10 0.00241627
8 12 100 10 0.452167
9 12 100 10 0.00021352
1 13 100 10 0.401611
2 13 100 10 0.557979
3 13 100 10 6.90463e-06
4 13 100 10 4.05626e-05
5 13 100 10 0.000300938
6 13 100 10 0.000738814
7 13 100 10 0.00894712
8 13 100 10 0.0302954
9 13 100 10 8.01599e-05
1 14 100 10 0.00213984
2 14 100 10 7.88462e-06
3 14 100 10 1.79025e-05
4 14 100 10 5.91112e-06
5 14 100 10 0.000123169
7 14 100 10 0.00129248
8 14 100 10 0.000171383
9 14 100 10 0.489808
10 14 100 10 0.506433
1 15 100 10 0.0846829
2 15 100 10 0.0683464
3 15 100 10 0.0668878
4 15 100 10 0.0135741
5 15 100 10 0.128574
6 15 100 10 0.135143
7 15 100 10 0.154333
8 15 100 10 0.14306
9 15 100 10 0.0707763
10 15 100 10 0.134623
1 16 100 10 0.0007852
2 16 100 10 0.152114
3 16 100 10 0.0928114
5 16 100 10 0.10653
6 16 100 10 0.00951815
7 16 100 10 0.358932
8 16 100 10 0.0233345
9 16 100 10 0.219689
10 16 100 10 0.0362854
1 17 100 10 0.0774084
2 17 100 10 0.00269309
3 17 100 10 4.8182e-05
4 17 100 10 0.0325734
5 17 100 10 0.00469906
6 17 100 10 9.55329e-05
7 17 100 10 0.0573317
8 17 100 10 0.824461
9 17 100 10 0.000256257
10 17 100 10 0.000433395
1 18 100 10 0.000200835
2 18 100 10 1.37005e-06
3 18 100 10 0.00144471
4 18 100 10 0.142794
5 18 100 10 0.143644
6 18 100 10 0.143509
7 18 100 10 0.144626
8 18 100 10 0.146136
9 18 100 10 0.134211
10 18 100 10 0.143432
1 19 100 10 4.76598e-05
2 19 100 10 0.00118084
3 19 100 10 0.000102267
4 19 100 10 0.000196197
5 19 100 10 0.00044294
6 19 100 10 0.000134305
7 19 100 10 0.99039
8 19 100 10 0.00354885
9 19 100 10 0.00244532
10 19 100 10 0.00151156
1 20 100 10 4.32172e-05
2 20 100 10 0.00162695
3 20 100 10 0.184377
4 20 100 10 0.15386
5 20 100 10 0.151013
6 20 100 10 0.0356764
7 20 100 10 0.153244
8 20 100 10 0.147768
9 20 100 10 0.025542
10 20 100 10 0.146849
1 21 100 10 0.19641
2 21 100 10 0.238013
3 21 100 10 0.135826
4 21 100 10 0.120038
5 21 100 10 3.93421e-05
6 21 100 10 0.00272267
7 21 100 10 0.000150967
8 21 100 10 0.0358993
9 21 100 10 0.133228
10 21 100 10 0.137673
1 22 100 10 0.120935
2 22 100 10 0.137339
3 22 100 10 0.120854
4 22 100 10 0.120927
5 22 100 10 0.120929
6 22 100 10 0.125103
7 22 100 10 0.00212782
8 22 100 10 0.00539975
9 22 100 10 0.125045
10 22 100 10 0.12134
1 23 100 10 0.665187
2 23 100 10 0.325294
3 23 100 10 0.00484608
5 23 100 10 0.000369161
6 23 100 10 6.50469e-06
7 23 100 10 0.000143188
8 23 100 10 0.00413745
9 23 100 10 1.70418e-05
1 24 100 10 0.114561
2 24 100 10 0.0420228
3 24 100 10 0.654367
4 24 100 10 0.0370546
5 24 100 10 0.00288942
6 24 100 10 8.82657e-06
7 24 100 10 0.148465
8 24 100 10 0.00063085
1 25 100 10 2.23361e-05
2 25 100 10 0.00168856
3 25 100 10 2.66391e-05
4 25 100 10 0.0228163
5 25 100 10 0.000771091
6 25 100 10 0.00306853
7 25 100 10 0.967442
8 25 100 10 0.00396802
9 25 100 10 1.28551e-06
10 25 100 10 0.00019566
1 26 100 10 0.976597
2 26 100 10 0.00106662
3 26 100 10 1.52172e-05
4 26 100 10 0.0124063
5 26 100 10 0.00183215
6 26 100 10 8.12695e-06
7 26 100 10 0.00804079
8 26 100 10 3.38691e-05
1 27 100 10 0.0028879
2 27 100 10 3.61876e-05
3 27 100 10 0.00017626
4 27 100 10 0.0376798
5 27 100 10 9.73969e-05
6 27 100 10 0.00564931
7 27 100 10 0.00112513
8 27 100 10 0.952348
1 28 100 10 0.227986
2 28 100 10 0.000136764
3 28 100 10 0.752498
5 28 100 10 0.00159385
7 28 100 10 0.0177859
2 29 100 10 0.000616801
3 29 100 10 0.00901666
4 29 100 10 0.000806157
5 29 100 10 0.032785
6 29 100 10 0.00101819
7 29 100 10 0.9398
8 29 100 10 0.0158021
9 29 100 10 0.000155319
1 30 100 10 0.173736
2 30 100 10 0.175285
3 30 100 10 0.169462
4 30 100 10 0.108522
5 30 100 10 0.087578
6 30 100 10 0.0875992
7 30 100 10 0.0889788
8 30 100 10 0.0873022
9 30 100 10 0.0118839
10 30 100 10 0.00965236
1 31 100 10 0.0108336
3 31 100 10 0.24397
5 31 100 10 0.168439
7 31 100 10 9.22867e-05
10 31 100 10 0.576665
1 32 100 10 0.604575
2 32 100 10 6.00788e-05
3 32 100 10 0.000538292
5 32 100 10 0.027433
6 32 100 10 8.85227e-05
7 32 100 10 0.13463
8 32 100 10 0.00012457
9 32 100 10 0.125472
10 32 100 10 0.107079
1 33 100 10 0.00252264
2 33 100 10 0.176266
3 33 100 10 0.0910623
4 33 100 10 0.0701306
5 33 100 10 0.0503906
6 33 100 10 0.000247668
7 33 100 10 0.546426
8 33 100 10 0.0281661
9 33 100 10 0.0347882
1 34 100 10 0.979764
2 34 100 10 7.71574e-06
3 34 100 10 5.60431e-06
5 34 100 10 0.00124274
6 34 100 10 0.00627454
7 34 100 10 0.0081184
8 34 100 10 0.0045489
10 34 100 10 3.8153e-05
1 35 100 10 2.86148e-05
2 35 100 10 9.18514e-05
3 35 100 10 3.26008e-05
4 35 100 10 0.0364022
5 35 100 10 0.000575197
6 35 100 10 7.28028e-05
7 35 100 10 0.957073
8 35 100 10 0.00454411
9 35 100 10 2.51612e-05
10 35 100 10 0.00115425
1 36 100 10 0.893311
2 36 100 10 0.00157781
3 36 100 10 0.00556905
4 36 100 10 0.000530325
5 36 100 10 0.00255609
6 36 100 10 0.000527265
7 36 100 10 0.0432806
8 36 100 10 0.0264864
9 36 100 10 0.00107758
10 36 100 10 0.0250835
1 37 100 10 1.2223e-05
2 37 100 10 0.0635173
3 37 100 10 0.12845
4 37 100 10 0.124243
5 37 100 10 0.12837
6 37 100 10 0.0441853
7 37 100 10 0.0584153
8 37 100 10 0.189952
9 37 100 10 0.133462
10 37 100 10 0.129392
1 38 100 10 0.298168
2 38 100 10 0.00849514
3 38 100 10 0.000297426
4 38 100 10 2.54059e-06
5 38 100 10 6.20623e-07
6 38 100 10 8.46619e-07
7 38 100 10 0.00200864
8 38 100 10 0.00791812
9 38 100 10 0.332659
10 38 100 10 0.350449
1 39 100 10 5.81519e-06
2 39 100 10 0.00168921
3 39 100 10 9.49494e-05
4 39 100 10 0.00337701
5 39 100 10 0.000621076
6 39 100 10 0.000206944
7 39 100 10 0.00193357
8 39 100 10 0.982753
9 39 100 10 0.00931363
10 39 100 10 5.04043e-06
1 40 100 10 0.000221727
2 40 100 10 0.958579
3 40 100 10 0.00013301
4 40 100 10 4.04403e-05
5 40 100 10 0.000165367
6 40 100 10 2.5177e-05
7 40 100 10 0.0393195
8 40 100 10 0.000865402
9 40 100 10 0.000650399
1 41 100 10 0.0149741
2 41 100 10 0.0190336
3 41 100 10 3.97654e-05
4 41 100 10 0.957392
5 41 100 10 0.000345456
6 41 100 10 2.00746e-05
7 41 100 10 0.00608453
8 41 100 10 0.000272466
9 41 100 10 0.000368093
10 41 100 10 0.0014696
2 42 100 10 0.00671291
3 42 100 10 0.0104238
4 42 100 10 0.00507739
5 42 100 10 0.0168538
6 42 100 10 0.000864542
7 42 100 10 0.734785
8 42 100 10 0.22487
9 42 100 10 0.000269376
10 42 100 10 0.000143646
1 43 100 10 0.002267
2 43 100 10 0.000867371
3 43 100 10 3.18891e-05
5 43 100 10 0.0179191
6 43 100 10 0.000366771
7 43 100 10 0.538921
8 43 100 10 0.439627
1 44 100 10 0.00117962
2 44 100 10 0.0017339
3 44 100 10 5.89427e-05
4 44 100 10 7.61414e-05
5 44 100 10 0.00321848
6 44 100 10 0.00969922
7 44 100 10 0.00132177
8 44 100 10 0.945807
9 44 100 10 0.000523486
10 44 100 10 0.0363814
1 45 100 10 0.000542986
2 45 100 10 4.93321e-05
3 45 100 10 0.000311455
4 45 100 10 0.985466
5 45 100 10 0.00689698
6 45 100 10 1.35554e-05
7 45 100 10 0.000850343
8 45 100 10 0.00422002
10 45 100 10 0.00164972
3 46 100 10 0.000925643
5 46 100 10 0.976128
7 46 100 10 0.0131978
8 46 100 10 0.00974895
1 47 100 10 0.0282756
2 47 100 10 0.113666
3 47 100 10 0.141796
4 47 100 10 0.14165
5 47 100 10 2.22721e-05
6 47 100 10 0.142655
7 47 100 10 0.0071699
8 47 100 10 0.140275
9 47 100 10 0.142651
10 47 100 10 0.141839
2 48 100 10 0.000769794
3 48 100 10 0.00313233
4 48 100 10 0.00284326
5 48 100 10 0.0043124
6 48 100 10 0.000276553
7 48 100 10 0.988602
8 48 100 10 6.3326e-05
1 49 100 10 0.0233107
2 49 100 10 0.138468
3 49 100 10 0.126785
4 49 100 10 0.138614
5 49 100 10 0.127082
6 49 100 10 0.139105
7 49 100 10 8.87465e-05
8 49 100 10 0.142017
9 49 100 10 0.138468
10 49 100 10 0.0260605
1 50 100 10 0.0419675
2 50 100 10 2.67218e-05
3 50 100 10 0.000618489
4 50 100 10 0.331475
5 50 100 10 0.0107751
7 50 100 10 0.604633
8 50 100 10 0.0104672
10 50 100 10 3.63636e-05
3 51 100 10 8.22896e-05
5 51 100 10 0.000689533
6 51 100 10 0.93986
7 51 100 10 0.000274163
8 51 100 10 0.0452397
10 51 100 10 0.0138547
1 52 100 10 0.9982
2 52 100 10 1.00772e-05
3 52 100 10 2.3548e-06
5 52 100 10 2.85888e-05
7 52 100 10 0.000850873
9 52 100 10 2.17319e-05
10 52 100 10 0.000886027
1 53 100 10 0.000124387
2 53 100 10 4.1133e-06
3 53 100 10 0.000939047
5 53 100 10 0.00185191
6 53 100 10 0.00253815
7 53 100 10 0.961371
8 53 100 10 0.0331553
10 53 100 10 1.6419e-05
1 54 100 10 2.49673e-06
3 54 100 10 2.96213e-07
4 54 100 10 0.00217893
5 54 100 10 0.0321762
6 54 100 10 0.222631
7 54 100 10 0.222686
8 54 100 10 0.0744661
9 54 100 10 0.222641
10 54 100 10 0.223217
1 55 100 10 0.99176
2 55 100 10 7.54063e-06
3 55 100 10 1.82858e-06
4 55 100 10 0.00507504
5 55 100 10 0.0008504
6 55 100 10 1.5461e-05
7 55 100 10 0.0020328
8 55 100 10 0.000252767
10 55 100 10 4.54005e-06
1 56 100 10 0.988147
2 56 100 10 1.94107e-05
3 56 100 10 0.000239511
4 56 100 10 1.66937e-05
5 56 100 10 0.0012511
6 56 100 10 6.47288e-06
7 56 100 10 0.0024478
8 56 100 10 1.55913e-05
9 56 100 10 8.43341e-06
10 56 100 10 0.00784765
2 57 100 10 0.000210139
5 57 100 10 0.141615
7 57 100 10 0.143651
8 57 100 10 0.00339797
10 57 100 10 0.711127
1 58 100 10 0.00201525
2 58 100 10 0.000113704
3 58 100 10 0.00043076
5 58 100 10 0.000169154
7 58 100 10 0.0286066
10 58 100 10 0.968665
1 59 100 10 0.025865
3 59 100 10 0.344596
5 59 100 10 0.416873
6 59 100 10 0.0173489
7 59 100 10 0.195317
3 60 100 10 0.000768838
7 60 100 10 0.0580633
10 60 100 10 0.941168
3 61 100 10 7.95712e-05
7 61 100 10 0.00025305
9 61 100 10 6.76059e-06
10 61 100 10 0.999661
3 62 100 10 0.00305896
5 62 100 10 0.00475628
7 62 100 10 0.0405322
8 62 100 10 0.951653
1 63 100 10 0.00472672
2 63 100 10 0.114591
3 63 100 10 0.114994
4 63 100 10 0.115569
5 63 100 10 0.115363
6 63 100 10 0.113912
7 63 100 10 0.115573
8 63 100 10 0.114646
9 63 100 10 0.115568
10 63 100 10 0.0750582
1 64 100 10 0.948146
2 64 100 10 0.0483203
3 64 100 10 0.00038325
4 64 100 10 7.56075e-05
5 64 100 10 0.000929707
6 64 100 10 3.28385e-05
7 64 100 10 0.00109224
8 64 100 10 0.000929707
9 64 100 10 5.66784e-05
10 64 100 10 3.31235e-05
1 65 100 10 0.0324926
7 65 100 10 0.967507
1 66 100 10 0.884132
2 66 100 10 8.6882e-05
7 66 100 10 0.115781
3 67 100 10 0.000467972
6 67 100 10 0.986445
7 67 100 10 6.71741e-05
8 67 100 10 0.0130197
1 68 100 10 3.90502e-05
5 68 100 10 1.36621e-05
6 68 100 10 3.16671e-06
7 68 100 10 0.000443626
8 68 100 10 3.28991e-06
9 68 100 10 3.13484e-06
10 68 100 10 0.999494
3 69 100 10 0.000761755
4 69 100 10 0.000194897
6 69 100 10 0.986623
8 69 100 10 0.0124199
3 70 100 10 0.0323161
6 70 100 10 0.0815876
7 70 100 10 0.00036341
8 70 100 10 0.884773
10 70 100 10 0.000959474
1 71 100 10 0.185181
3 71 100 10 0.513421
5 71 100 10 0.156459
6 71 100 10 0.000617553
7 71 100 10 0.139264
9 71 100 10 0.00505803
1 72 100 10 0.0938203
2 72 100 10 0.000123557
3 72 100 10 0.00041178
6 72 100 10 0.901468
8 72 100 10 0.00417609
1 73 100 10 0.87362
2 73 100 10 0.00288354
3 73 100 10 0.029413
4 73 100 10 0.013707
5 73 100 10 0.0402243
6 73 100 10 0.00494228
7 73 100 10 0.0352102
3 74 100 10 0.505371
7 74 100 10 0.494629
1 75 100 10 0.98901
2 75 100 10 0.0109361
3 75 100 10 1.79697e-05
4 75 100 10 8.47275e-06
10 75 100 10 2.74729e-05
1 76 100 10 0.999723
2 76 100 10 5.10663e-05
3 76 100 10 3.42031e-05
4 76 100 10 1.90769e-05
10 76 100 10 0.0001728
1 77 100 10 0.983914
2 77 100 10 0.0143534
3 77 100 10 0.00124658
5 77 100 10 0.000237212
8 77 100 10 0.00024915
2 78 100 10 1.49781e-05
3 78 100 10 3.19753e-06
4 78 100 10 3.64342e-06
6 78 100 10 6.03683e-06
7 78 100 10 6.16883e-06
9 78 100 10 9.40464e-06
10 78 100 10 0.999957
1 79 100 10 0.499441
2 79 100 10 1.95707e-05
3 79 100 10 4.0434e-05
4 79 100 10 9.45537e-06
5 79 100 10 3.25673e-06
10 79 100 10 0.500486
4 80 100 10 3.72809e-05
6 80 100 10 9.94575e-05
7 80 100 10 5.54558e-05
8 80 100 10 9.81464e-05
9 80 100 10 5.04075e-05
10 80 100 10 0.999659
1 81 100 10 0.0477552
3 81 100 10 0.7775
5 81 100 10 0.145674
8 81 100 10 0.029071
1 82 100 10 0.999532
2 82 100 10 2.01497e-05
3 82 100 10 6.48983e-05
4 82 100 10 2.65905e-05
10 82 100 10 0.000356084
1 83 100 10 0.0281198
8 83 100 10 0.97188
1 84 100 10 0.000212281
3 84 100 10 0.00757261
4 84 100 10 0.000123644
6 84 100 10 4.62073e-05
7 84 100 10 4.92508e-05
8 84 100 10 5.26287e-05
9 84 100 10 4.7327e-05
10 84 100 10 0.991896
1 85 100 10 0.0205684
2 85 100 10 9.62032e-06
3 85 100 10 0.00414586
9 85 100 10 0.00127923
10 85 100 10 0.973997
1 86 100 10 0.991637
2 86 100 10 0.00296854
3 86 100 10 0.00134241
4 86 100 10 0.00117624
5 86 100 10 0.000109205
6 86 100 10 0.000902729
7 86 100 10 0.000551172
8 86 100 10 0.000184677
9 86 100 10 0.000755781
10 86 100 10 0.000372444
1 87 100 10 0.962458
2 87 100 10 0.000116305
3 87 100 10 0.000169416
4 87 100 10 0.000491984
10 87 100 10 0.0367645
1 88 100 10 0.00960702
3 88 100 10 1.64391e-05
5 88 100 10 0.000254464
6 88 100 10 2.11176e-05
7 88 100 10 3.65413e-05
8 88 100 10 0.000152884
9 88 100 10 3.69959e-05
10 88 100 10 0.989875
1 89 100 10 0.895516
2 89 100 10 0.00275443
3 89 100 10 0.0959407
4 89 100 10 0.000537142
6 89 100 10 0.000343357
7 89 100 10 0.000116435
8 89 100 10 7.92251e-05
9 89 100 10 0.000273074
10 89 100 10 0.00443988
2 90 100 10 0.00339328
3 90 100 10 0.868197
4 90 100 10 0.128132
9 90 100 10 0.000277582
1 91 100 10 0.359556
3 91 100 10 0.640444
1 92 100 10 0.977133
2 92 100 10 7.69797e-05
3 92 100 10 0.0209112
4 92 100 10 0.00181931
9 92 100 10 5.95672e-05
8 93 100 10 1
1 94 100 10 0.969616
2 94 100 10 0.000106133
3 94 100 10 0.00023355
4 94 100 10 2.57003e-05
5 94 100 10 0.000193097
6 94 100 10 8.45795e-05
7 94 100 10 7.5227e-05
8 94 100 10 6.737e-05
9 94 100 10 6.20293e-05
10 94 100 10 0.0295361
1 95 100 10 0.00814856
2 95 100 10 0.00129947
3 95 100 10 0.946129
4 95 100 10 0.00701786
5 95 100 10 0.0123298
6 95 100 10 0.0115812
7 95 100 10 0.00878074
8 95 100 10 0.00314628
9 95 100 10 0.000763255
10 95 100 10 0.000804246
1 96 100 10 0.99624
2 96 100 10 8.91599e-05
3 96 100 10 0.00339731
4 96 100 10 0.000234815
5 96 100 10 9.64342e-06
8 96 100 10 2.94782e-05
1 97 100 10 0.0167211
2 97 100 10 0.139109
3 97 100 10 0.132145
4 97 100 10 0.136642
5 97 100 10 0.00145151
6 97 100 10 0.136793
7 97 100 10 0.136798
8 97 100 10 0.13199
9 97 100 10 0.136802
10 97 100 10 0.0315497
1 98 100 10 0.0500426
2 98 100 10 0.12972
3 98 100 10 0.109685
4 98 100 10 0.00196201
5 98 100 10 0.135205
6 98 100 10 0.1351
7 98 100 10 0.135113
8 98 100 10 0.13514
9 98 100 10 0.134409
10 98 100 10 0.033624
1 99 100 10 0.993002
2 99 100 10 0.0013026
3 99 100 10 0.00326669
4 99 100 10 0.000994227
5 99 100 10 0.000202382
6 99 100 10 0.000591893
7 99 100 10 0.000317359
8 99 100 10 0.000145621
9 99 100 10 6.41905e-05
10 99 100 10 0.000112731
1 100 100 10 0.550019
2 100 100 10 0.00672756
3 100 100 10 0.339291
4 100 100 10 0.0986639
5 100 100 10 0.000897102
8 100 100 10 0.00214259
9 100 100 10 0.00225806
1 0 100 11 0.101486
2 0 100 11 0.0960703
3 0 100 11 0.047958
4 0 100 11 0.138742
5 0 100 11 0.0894862
6 0 100 11 0.0649719
7 0 100 11 0.165971
8 0 100 11 0.136073
9 0 100 11 0.0606267
10 0 100 11 0.0893267
11 0 100 11 0.00928852
1 1 100 11 0.200186
2 1 100 11 0.117466
3 1 100 11 0.160627
4 1 100 11 0.120888
5 1 100 11 0.0402078
6 1 100 11 0.0804521
7 1 100 11 0.0805922
8 1 100 11 0.0787377
9 1 100 11 0.0402961
10 1 100 11 0.0402437
11 1 100 11 0.040303
1 2 100 11 0.0341453
2 2 100 11 0.100181
3 2 100 11 0.0842847
4 2 100 11 0.0679417
5 2 100 11 0.133857
6 2 100 11 0.103619
7 2 100 11 0.0343723
8 2 100 11 0.101908
9 2 100 11 0.101922
10 2 100 11 0.101883
11 2 100 11 0.135887
1 3 100 11 0.0640697
2 3 100 11 0.0961045
3 3 100 11 0.0953006
4 3 100 11 0.0320439
5 3 100 11 0.0925482
6 3 100 11 0.0961045
7 3 100 11 0.0640697
8 3 100 11 0.0637972
9 3 100 11 0.128125
10 3 100 11 0.160174
11 3 100 11 0.107662
2 4 100 11 7.70749e-05
5 4 100 11 0.00745692
6 4 100 11 0.00315209
7 4 100 11 0.222336
8 4 100 11 0.222335
9 4 100 11 0.173926
10 4 100 11 0.222332
11 4 100 11 0.148386
1 5 100 11 0.14402
2 5 100 11 0.143593
3 5 100 11 0.119284
4 5 100 11 0.0480055
5 5 100 11 0.096011
6 5 100 11 0.0960157
7 5 100 11 0.0480579
8 5 100 11 0.0959049
9 5 100 11 0.0960082
10 5 100 11 4.81642e-06
11 5 100 11 0.113096
1 6 100 11 0.0367292
2 6 100 11 5.38554e-06
3 6 100 11 0.0728512
4 6 100 11 0.11017
5 6 100 11 0.11007
6 6 100 11 0.146805
7 6 100 11 0.108255
8 6 100 11 0.0362128
9 6 100 11 0.110156
10 6 100 11 0.121904
11 6 100 11 0.14684
1 7 100 11 0.139944
2 7 100 11 0.041107
3 7 100 11 0.139942
4 7 100 11 0.133549
5 7 100 11 0.125623
6 7 100 11 0.139942
7 7 100 11 1.493e-06
8 7 100 11 0.139942
9 7 100 11 0.139942
11 7 100 11 8.07851e-06
1 8 100 11 0.142857
2 8 100 11 0.142857
3 8 100 11 0.142857
4 8 100 11 0.142857
5 8 100 11 0.142857
6 8 100 11 0.142857
7 8 100 11 0.142857
1 9 100 11 0.199896
2 9 100 11 0.199956
4 9 100 11 0.199896
5 9 100 11 0.202417
6 9 100 11 0.197087
7 9 100 11 6.51807e-05
11 9 100 11 0.000681929
4 10 100 11 1
1 11 100 11 0.170474
2 11 100 11 0.174333
3 11 100 11 0.280031
4 11 100 11 0.143402
5 11 100 11 0.151172
6 11 100 11 0.0805448
8 11 100 11 1.24036e-05
9 11 100 11 3.06968e-05
1 12 100 11 0.10829
2 12 100 11 0.777216
10 12 100 11 0.114494
1 13 100 11 6.42695e-05
2 13 100 11 3.96335e-06
3 13 100 11 0.00582949
4 13 100 11 0.136929
5 13 100 11 0.00211465
6 13 100 11 0.14739
7 13 100 11 0.146887
8 13 100 11 0.139492
9 13 100 11 0.146252
10 13 100 11 0.147749
11 13 100 11 0.127288
1 14 100 11 0.17783
2 14 100 11 0.173348
3 14 100 11 0.108393
4 14 100 11 0.0893029
5 14 100 11 0.0887775
6 14 100 11 7.18661e-07
7 14 100 11 0.0887888
8 14 100 11 0.0887089
9 14 100 11 0.0887092
10 14 100 11 0.00881193
11 14 100 11 0.0873292
1 15 100 11 1.10585e-06
2 15 100 11 1.37873e-06
3 15 100 11 0.000116926
4 15 100 11 1.57688e-05
5 15 100 11 6.22359e-07
6 15 100 11 0.00599134
7 15 100 11 0.198986
8 15 100 11 0.206524
9 15 100 11 0.176082
10 15 100 11 0.206564
11 15 100 11 0.205716
2 16 100 11 0.000160047
3 16 100 11 1.27721e-05
4 16 100 11 0.000430249
5 16 100 11 1.0589e-05
6 16 100 11 0.932865
7 16 100 11 0.0503249
8 16 100 11 0.0159632
9 16 100 11 0.000153732
10 16 100 11 7.96311e-05
2 17 100 11 0.000262806
3 17 100 11 0.000241276
5 17 100 11 0.153216
7 17 100 11 0.0293001
8 17 100 11 0.81698
1 18 100 11 0.000337386
2 18 100 11 0.233005
3 18 100 11 0.190896
4 18 100 11 0.19079
5 18 100 11 1.55622e-05
6 18 100 11 0.193388
7 18 100 11 0.191527
8 18 100 11 3.50047e-05
9 18 100 11 5.7631e-06
11 18 100 11 6.03627e-07
2 19 100 11 0.00565004
4 19 100 11 0.0074425
5 19 100 11 0.000223435
7 19 100 11 0.986684
1 20 100 11 0.0708853
2 20 100 11 0.000443338
4 20 100 11 3.65665e-05
5 20 100 11 3.20298e-05
6 20 100 11 0.914475
7 20 100 11 0.00756919
8 20 100 11 0.00655844
1 21 100 11 0.0049927
2 21 100 11 0.193476
3 21 100 11 0.27129
4 21 100 11 0.272266
5 21 100 11 0.2542
6 21 100 11 0.00363463
7 21 100 11 0.000135423
8 21 100 11 3.97757e-07
11 21 100 11 3.43666e-06
1 22 100 11 0.991607
2 22 100 11 0.000273476
3 22 100 11 0.000209278
4 22 100 11 8.9893e-05
5 22 100 11 5.81747e-05
6 22 100 11 0.00446803
7 22 100 11 0.000840787
8 22 100 11 0.00215914
9 22 100 11 3.47038e-05
10 22 100 11 1.79948e-05
11 22 100 11 0.000241635
2 23 100 11 0.0035705
3 23 100 11 0.00185389
4 23 100 11 0.000743841
5 23 100 11 0.123496
6 23 100 11 0.776684
7 23 100 11 0.0935495
11 23 100 11 0.000102148
1 24 100 11 0.995894
2 24 100 11 0.00190302
3 24 100 11 0.000423135
4 24 100 11 0.000137834
5 24 100 11 0.00091584
6 24 100 11 0.000158712
11 24 100 11 0.000567151
1 25 100 11 0.00113225
3 25 100 11 0.170672
4 25 100 11 0.0233372
5 25 100 11 0.0520483
7 25 100 11 0.75281
1 26 100 11 1.52149e-06
2 26 100 11 4.16453e-05
3 26 100 11 1.69465e-06
4 26 100 11 2.00052e-06
5 26 100 11 0.000112593
6 26 100 11 0.00183208
7 26 100 11 0.000110163
8 26 100 11 0.146385
9 26 100 11 0.28868
10 26 100 11 0.281581
11 26 100 11 0.281252
3 27 100 11 3.71811e-05
4 27 100 11 0.747086
7 27 100 11 0.252876
1 28 100 11 0.993915
2 28 100 11 8.43459e-06
3 28 100 11 0.00563357
4 28 100 11 1.67286e-05
7 28 100 11 7.30171e-06
9 28 100 11 0.00041708
11 28 100 11 1.84712e-06
2 29 100 11 0.238058
3 29 100 11 0.226376
4 29 100 11 0.220635
5 29 100 11 0.302929
6 29 100 11 0.0117796
7 29 100 11 1.12964e-05
