1 1 1 100 1
0 2 1 100 0.0024565
1 2 1 100 0.997543
0 3 1 100 0.014149
1 3 1 100 0.985851
1 4 1 100 1
1 5 1 100 1
0 6 1 100 0.0485059
1 6 1 100 0.951494
1 7 1 100 1
0 8 1 100 0.499974
1 8 1 100 0.500026
0 1 2 100 0.000223023
1 1 2 100 0.237134
2 1 2 100 0.762643
0 2 2 100 0.114374
1 2 2 100 0.160317
2 2 2 100 0.725309
0 3 2 100 0.110893
1 3 2 100 0.319483
2 3 2 100 0.569624
0 4 2 100 0.066084
1 4 2 100 0.463137
2 4 2 100 0.470779
0 5 2 100 0.168088
1 5 2 100 0.388889
2 5 2 100 0.443024
0 6 2 100 0.0726064
1 6 2 100 0.518054
2 6 2 100 0.40934
0 7 2 100 0.0692687
1 7 2 100 0.562402
2 7 2 100 0.36833
0 8 2 100 0.104596
1 8 2 100 0.695398
2 8 2 100 0.200006
0 9 2 100 0.125
1 9 2 100 0.375
2 9 2 100 0.5
0 10 2 100 0.142857
1 10 2 100 0.440999
2 10 2 100 0.416144
0 11 2 100 0.00436871
1 11 2 100 0.49704
2 11 2 100 0.498591
0 12 2 100 0.000182379
1 12 2 100 0.75
2 12 2 100 0.249818
0 13 2 100 0.250032
1 13 2 100 0.251439
2 13 2 100 0.498528
0 14 2 100 0.333295
1 14 2 100 5.21965e-05
2 14 2 100 0.666652
1 15 2 100 0.5
2 15 2 100 0.5
1 16 2 100 0.5
2 16 2 100 0.5
1 17 2 100 1
0 1 3 100 0.0178218
1 1 3 100 0.267898
2 1 3 100 0.0703466
3 1 3 100 0.643934
0 2 3 100 0.0706612
1 2 3 100 0.214206
2 2 3 100 0.0845612
3 2 3 100 0.630572
0 3 3 100 0.0788248
1 3 3 100 0.203634
2 3 3 100 0.0917575
3 3 3 100 0.625784
0 4 3 100 0.0746531
1 4 3 100 0.206774
2 4 3 100 0.204107
3 4 3 100 0.514466
0 5 3 100 0.19101
1 5 3 100 0.205808
2 5 3 100 0.214307
3 5 3 100 0.388875
0 6 3 100 0.145799
1 6 3 100 0.153846
2 6 3 100 0.267303
3 6 3 100 0.433051
0 7 3 100 0.211624
1 7 3 100 0.149627
2 7 3 100 0.299996
3 7 3 100 0.338752
0 8 3 100 0.00406742
1 8 3 100 0.166667
2 8 3 100 0.440454
3 8 3 100 0.388812
0 9 3 100 0.134673
1 9 3 100 0.133336
2 9 3 100 0.331992
3 9 3 100 0.399999
0 10 3 100 0.199816
1 10 3 100 0.199832
2 10 3 100 0.200352
3 10 3 100 0.4
0 11 3 100 0.165948
1 11 3 100 0.214299
2 11 3 100 0.191197
3 11 3 100 0.428556
0 12 3 100 0.153873
1 12 3 100 0.230802
2 12 3 100 0.461477
3 12 3 100 0.153849
0 13 3 100 0.067612
1 13 3 100 0.307692
2 13 3 100 0.45989
3 13 3 100 0.164806
0 14 3 100 0.0835698
1 14 3 100 0.333333
2 14 3 100 0.25
3 14 3 100 0.333097
0 15 3 100 0.178704
1 15 3 100 0.363637
2 15 3 100 0.107681
3 15 3 100 0.349978
0 16 3 100 0.196039
1 16 3 100 0.403949
2 16 3 100 0.100012
3 16 3 100 0.3
0 17 3 100 0.196728
1 17 3 100 0.333212
2 17 3 100 0.111116
3 17 3 100 0.358944
0 18 3 100 0.0116937
1 18 3 100 0.489608
2 18 3 100 0.125
3 18 3 100 0.373698
0 19 3 100 0.00249632
1 19 3 100 0.666031
2 19 3 100 0.166667
3 19 3 100 0.164806
1 20 3 100 0.8
3 20 3 100 0.2
0 21 3 100 0.0189096
1 21 3 100 0.731092
2 21 3 100 0.0717057
3 21 3 100 0.178293
0 22 3 100 0.00101069
1 22 3 100 0.5
2 22 3 100 0.248989
3 22 3 100 0.25
0 23 3 100 2.53638e-06
1 23 3 100 0.25
2 23 3 100 0.25
3 23 3 100 0.499997
2 24 3 100 1
2 25 3 100 1
2 26 3 100 1
0 27 3 100 0.998583
1 27 3 100 0.00127377
2 27 3 100 0.000143506
0 1 4 100 0.0214581
1 1 4 100 0.438782
2 1 4 100 0.247858
3 1 4 100 0.0994854
4 1 4 100 0.192417
0 2 4 100 0.0609579
1 2 4 100 0.409132
2 2 4 100 0.22428
3 2 4 100 0.113736
4 2 4 100 0.191894
0 3 4 100 0.132979
1 3 4 100 0.34015
2 3 4 100 0.212648
3 3 4 100 0.114231
4 3 4 100 0.199992
0 4 4 100 0.137507
1 4 4 100 0.372573
2 4 4 100 0.206403
3 4 4 100 0.0918727
4 4 4 100 0.191644
0 5 4 100 0.108067
1 5 4 100 0.277894
2 5 4 100 0.307604
3 5 4 100 0.103681
4 5 4 100 0.202755
0 6 4 100 0.18788
1 6 4 100 0.246309
2 6 4 100 0.255768
3 6 4 100 0.161377
4 6 4 100 0.148664
0 7 4 100 0.142733
1 7 4 100 0.238121
2 7 4 100 0.380496
3 7 4 100 0.142863
4 7 4 100 0.0957872
0 8 4 100 0.104194
1 8 4 100 0.190476
2 8 4 100 0.325124
3 8 4 100 0.237348
4 8 4 100 0.142858
0 9 4 100 0.114628
1 9 4 100 0.0666203
2 9 4 100 0.352855
3 9 4 100 0.333333
4 9 4 100 0.132564
0 10 4 100 0.0129934
1 10 4 100 0.0831765
2 10 4 100 0.333237
3 10 4 100 0.416701
4 10 4 100 0.153893
0 11 4 100 0.0286374
1 11 4 100 1.42986e-05
2 11 4 100 0.304817
3 11 4 100 0.416531
4 11 4 100 0.25
0 12 4 100 0.400552
1 12 4 100 0.100001
2 12 4 100 0.100614
3 12 4 100 0.2
4 12 4 100 0.198833
0 13 4 100 0.142859
2 13 4 100 0.142856
3 13 4 100 0.428571
4 13 4 100 0.285714
0 14 4 100 0.166667
3 14 4 100 0.666666
4 14 4 100 0.166667
1 15 4 100 0.166667
3 15 4 100 0.666667
4 15 4 100 0.166667
0 16 4 100 0.16822
1 16 4 100 0.165113
2 16 4 100 6.86859e-05
3 16 4 100 0.666598
1 17 4 100 0.166667
3 17 4 100 0.666667
4 17 4 100 0.166667
1 18 4 100 0.4
3 18 4 100 0.4
4 18 4 100 0.2
0 19 4 100 0.4
1 19 4 100 0.2
3 19 4 100 0.2
4 19 4 100 0.2
0 20 4 100 0.556746
1 20 4 100 0.243254
4 20 4 100 0.2
0 21 4 100 0.201508
1 21 4 100 0.398492
3 21 4 100 0.2
4 21 4 100 0.2
0 22 4 100 0.200178
1 22 4 100 0.399822
4 22 4 100 0.4
0 23 4 100 0.00215483
1 23 4 100 0.4
4 23 4 100 0.597845
0 24 4 100 0.00787721
1 24 4 100 0.599997
4 24 4 100 0.392126
1 25 4 100 0.5
4 25 4 100 0.5
0 26 4 100 0.00841839
1 26 4 100 0.5
4 26 4 100 0.491582
0 27 4 100 0.33332
1 27 4 100 1.37121e-05
3 27 4 100 0.333333
4 27 4 100 0.333333
4 28 4 100 1
2 29 4 100 0.5
4 29 4 100 0.5
0 30 4 100 0.5
2 30 4 100 0.5
2 31 4 100 0.5
4 31 4 100 0.5
2 32 4 100 0.5
4 32 4 100 0.5
2 33 4 100 0.5
4 33 4 100 0.5
1 34 4 100 1
0 1 5 100 0.0621282
1 1 5 100 0.438459
2 1 5 100 0.192108
3 1 5 100 0.0635492
4 1 5 100 0.105553
5 1 5 100 0.138202
0 2 5 100 0.0649164
1 2 5 100 0.399518
2 2 5 100 0.181904
3 2 5 100 0.0757586
4 2 5 100 0.108518
5 2 5 100 0.169384
0 3 5 100 0.0526409
1 3 5 100 0.346877
2 3 5 100 0.208443
3 3 5 100 0.0824512
4 3 5 100 0.123086
5 3 5 100 0.186502
0 4 5 100 0.09648
1 4 5 100 0.31362
2 4 5 100 0.197698
3 4 5 100 0.111862
4 4 5 100 0.122162
5 4 5 100 0.158177
0 5 5 100 0.0873046
1 5 5 100 0.324324
2 5 5 100 0.208031
3 5 5 100 0.0825864
4 5 5 100 0.132363
5 5 5 100 0.16539
0 6 5 100 0.1284
1 6 5 100 0.258753
2 6 5 100 0.168292
3 6 5 100 0.163519
4 6 5 100 0.0726922
5 6 5 100 0.208344
0 7 5 100 0.133714
1 7 5 100 0.188517
2 7 5 100 0.205277
3 7 5 100 0.184209
4 7 5 100 0.0789494
5 7 5 100 0.209334
0 8 5 100 0.141547
1 8 5 100 0.176042
2 8 5 100 0.171717
3 8 5 100 0.159689
4 8 5 100 0.15387
5 8 5 100 0.197135
0 9 5 100 0.150643
1 9 5 100 0.0740006
2 9 5 100 0.187051
3 9 5 100 0.180873
4 9 5 100 0.185185
5 9 5 100 0.222248
0 10 5 100 0.136424
1 10 5 100 0.136305
2 10 5 100 0.136364
3 10 5 100 0.227273
4 10 5 100 0.135832
5 10 5 100 0.227803
0 11 5 100 0.292662
1 11 5 100 0.142857
2 11 5 100 0.0476191
3 11 5 100 0.235361
4 11 5 100 0.142794
5 11 5 100 0.138707
0 12 5 100 0.105269
1 12 5 100 0.105258
2 12 5 100 0.210526
3 12 5 100 0.105263
4 12 5 100 0.250748
5 12 5 100 0.222936
0 13 5 100 0.0525641
1 13 5 100 0.125
2 13 5 100 0.187495
3 13 5 100 0.1875
4 13 5 100 0.13494
5 13 5 100 0.3125
0 14 5 100 0.131249
1 14 5 100 0.0714286
2 14 5 100 0.0714287
3 14 5 100 0.142857
4 14 5 100 0.357143
5 14 5 100 0.225894
0 15 5 100 9.1269e-05
1 15 5 100 0.0769231
2 15 5 100 0.307625
3 15 5 100 0.230769
4 15 5 100 0.230769
5 15 5 100 0.153822
0 16 5 100 0.416631
2 16 5 100 0.25
3 16 5 100 0.166667
4 16 5 100 0.0833334
5 16 5 100 0.0833685
0 17 5 100 0.000108147
1 17 5 100 0.0909091
2 17 5 100 0.272727
3 17 5 100 0.272727
4 17 5 100 0.181738
5 17 5 100 0.18179
0 18 5 100 0.115897
1 18 5 100 0.0998718
2 18 5 100 0.2
3 18 5 100 0.3
4 18 5 100 0.1
5 18 5 100 0.184231
0 19 5 100 0.200032
1 19 5 100 0.2
2 19 5 100 0.2
3 19 5 100 0.1
5 19 5 100 0.299967
0 20 5 100 0.170781
1 20 5 100 0.111111
2 20 5 100 0.111152
3 20 5 100 0.00261871
4 20 5 100 0.159914
5 20 5 100 0.444423
0 21 5 100 0.0106158
1 21 5 100 0.125
3 21 5 100 0.25
4 21 5 100 0.25
5 21 5 100 0.364384
0 22 5 100 3.47518e-05
1 22 5 100 0.249935
3 22 5 100 0.25
4 22 5 100 0.25003
5 22 5 100 0.25
0 23 5 100 0.0349659
1 23 5 100 0.142857
3 23 5 100 0.142857
4 23 5 100 0.428572
5 23 5 100 0.250747
0 24 5 100 6.11183e-05
1 24 5 100 0.142857
4 24 5 100 0.569859
5 24 5 100 0.287222
0 25 5 100 0.00268096
1 25 5 100 0.142892
4 25 5 100 0.571394
5 25 5 100 0.283033
1 26 5 100 0.333333
4 26 5 100 0.166667
5 26 5 100 0.5
0 27 5 100 0.4
3 27 5 100 0.2
5 27 5 100 0.4
0 28 5 100 0.2
1 28 5 100 0.2
4 28 5 100 0.2
5 28 5 100 0.4
0 29 5 100 0.0814835
4 29 5 100 0.2
5 29 5 100 0.718517
0 30 5 100 6.6791e-05
5 30 5 100 0.999933
0 31 5 100 0.00150482
5 31 5 100 0.998495
0 32 5 100 0.0435472
2 32 5 100 0.101466
5 32 5 100 0.854986
0 33 5 100 0.5
2 33 5 100 0.399087
5 33 5 100 0.100913
0 34 5 100 0.499896
2 34 5 100 0.000104069
3 34 5 100 0.5
1 35 5 100 0.5
3 35 5 100 0.5
1 36 5 100 0.5
3 36 5 100 0.5
0 1 6 100 0.0539345
1 1 6 100 0.342577
2 1 6 100 0.025954
3 1 6 100 0.157317
4 1 6 100 0.199442
5 1 6 100 0.118413
6 1 6 100 0.102362
0 2 6 100 0.173174
1 2 6 100 0.285417
2 2 6 100 0.058832
3 2 6 100 0.10507
4 2 6 100 0.171283
5 2 6 100 0.091162
6 2 6 100 0.115062
0 3 6 100 0.0770687
1 3 6 100 0.290387
2 3 6 100 0.065997
3 3 6 100 0.131675
4 3 6 100 0.196461
5 3 6 100 0.119691
6 3 6 100 0.11872
0 4 6 100 0.0968158
1 4 6 100 0.319876
2 4 6 100 0.101326
3 4 6 100 0.0855184
4 4 6 100 0.213412
5 4 6 100 0.0852262
6 4 6 100 0.0978263
0 5 6 100 0.109122
1 5 6 100 0.276538
2 5 6 100 0.124604
3 5 6 100 0.0771698
4 5 6 100 0.199846
5 5 6 100 0.123168
6 5 6 100 0.0895528
0 6 6 100 0.159726
1 6 6 100 0.201394
2 6 6 100 0.0907217
3 6 6 100 0.0761196
4 6 6 100 0.246265
5 6 6 100 0.118767
6 6 6 100 0.107007
0 7 6 100 0.105674
1 7 6 100 0.105271
2 7 6 100 0.131571
3 7 6 100 0.0789475
4 7 6 100 0.313904
5 7 6 100 0.159363
6 7 6 100 0.10527
0 8 6 100 0.12851
1 8 6 100 0.15266
2 8 6 100 0.124987
3 8 6 100 0.0625
4 8 6 100 0.247212
5 8 6 100 0.159128
6 8 6 100 0.125002
0 9 6 100 0.081496
1 9 6 100 0.119482
2 9 6 100 0.119988
3 9 6 100 0.08
4 9 6 100 0.279054
5 9 6 100 0.16
6 9 6 100 0.15998
0 10 6 100 0.183669
1 10 6 100 0.089779
2 10 6 100 0.0454552
3 10 6 100 0.0454546
4 10 6 100 0.271985
5 10 6 100 0.227272
6 10 6 100 0.136385
0 11 6 100 0.0599058
1 11 6 100 0.0588076
2 11 6 100 0.117647
3 11 6 100 0.0587944
4 11 6 100 0.234348
5 11 6 100 0.235294
6 11 6 100 0.235203
0 12 6 100 0.334181
1 12 6 100 6.93644e-07
2 12 6 100 0.332835
5 12 6 100 0.199913
6 12 6 100 0.13307
0 13 6 100 0.187361
2 13 6 100 0.465206
4 13 6 100 0.0666667
5 13 6 100 0.0659403
6 13 6 100 0.214826
0 14 6 100 0.333574
2 14 6 100 0.399705
5 14 6 100 0.0666667
6 14 6 100 0.200054
0 15 6 100 0.285607
1 15 6 100 0.0714406
2 15 6 100 0.0714286
3 15 6 100 3.97375e-06
4 15 6 100 0.142857
5 15 6 100 0.142857
6 15 6 100 0.285806
0 16 6 100 0.202474
1 16 6 100 0.0714286
2 16 6 100 0.0712458
4 16 6 100 0.142857
5 16 6 100 0.214286
6 16 6 100 0.297709
0 17 6 100 0.147102
1 17 6 100 0.285716
2 17 6 100 0.0720134
4 17 6 100 0.210215
5 17 6 100 0.0714285
6 17 6 100 0.213525
1 18 6 100 0.307691
2 18 6 100 0.0769231
4 18 6 100 0.153846
5 18 6 100 0.153848
6 18 6 100 0.307692
0 19 6 100 0.173382
1 19 6 100 0.166667
2 19 6 100 0.0766203
4 19 6 100 0.166664
5 19 6 100 0.166667
6 19 6 100 0.25
0 20 6 100 0.16674
1 20 6 100 0.416594
4 20 6 100 0.25
5 20 6 100 0.0833333
6 20 6 100 0.0833333
0 21 6 100 0.250024
1 21 6 100 0.166645
3 21 6 100 0.0833334
4 21 6 100 0.0833334
5 21 6 100 0.166667
6 21 6 100 0.249998
0 22 6 100 0.18183
1 22 6 100 0.272706
3 22 6 100 0.181818
4 22 6 100 1.09252e-05
5 22 6 100 0.181816
6 22 6 100 0.181818
0 23 6 100 0.200008
1 23 6 100 0.399999
2 23 6 100 0.0999935
3 23 6 100 0.2
5 23 6 100 0.1
0 24 6 100 0.400002
1 24 6 100 0.20002
4 24 6 100 0.2
6 24 6 100 0.199978
0 25 6 100 0.102941
1 25 6 100 0.300019
2 25 6 100 0.1
3 25 6 100 0.1
4 25 6 100 0.099784
5 25 6 100 0.1
6 25 6 100 0.197255
0 26 6 100 0.2
1 26 6 100 0.3
3 26 6 100 0.1
4 26 6 100 0.0999999
5 26 6 100 0.2
6 26 6 100 0.1
0 27 6 100 0.1
1 27 6 100 0.3
2 27 6 100 0.1
3 27 6 100 0.3
5 27 6 100 0.0999996
6 27 6 100 0.1
0 28 6 100 0.221859
1 28 6 100 0.11148
2 28 6 100 0.111114
3 28 6 100 0.111111
4 28 6 100 0.333325
6 28 6 100 0.111111
0 29 6 100 0.111188
1 29 6 100 0.111111
2 29 6 100 0.222222
3 29 6 100 0.222222
4 29 6 100 0.222145
6 29 6 100 0.111111
0 30 6 100 0.166674
2 30 6 100 0.166667
3 30 6 100 0.166667
4 30 6 100 0.166667
6 30 6 100 0.333326
0 31 6 100 0.000102773
2 31 6 100 0.333333
4 31 6 100 0.666564
2 32 6 100 0.166667
4 32 6 100 0.492656
5 32 6 100 0.166666
6 32 6 100 0.174011
0 33 6 100 0.333334
4 33 6 100 0.340677
6 33 6 100 0.325989
2 34 6 100 0.5
3 34 6 100 0.25
4 34 6 100 0.25
0 35 6 100 0.178122
2 35 6 100 0.571878
4 35 6 100 0.25
0 36 6 100 0.0368784
2 36 6 100 0.713121
4 36 6 100 0.25
2 37 6 100 0.25
3 37 6 100 0.25
4 37 6 100 0.25
6 37 6 100 0.25
2 38 6 100 0.75
6 38 6 100 0.25
0 39 6 100 0.000628927
2 39 6 100 0.999371
0 40 6 100 5.22174e-06
2 40 6 100 0.999995
0 41 6 100 1.95133e-05
2 41 6 100 0.99998
0 42 6 100 0.5
2 42 6 100 0.5
0 43 6 100 0.44289
2 43 6 100 0.499992
6 43 6 100 0.0571176
4 44 6 100 0.5
6 44 6 100 0.5
6 45 6 100 1
3 46 6 100 1
0 47 6 100 1
3 48 6 100 1
6 49 6 100 1
0 50 6 100 1
3 51 6 100 1
0 52 6 100 0.999495
1 52 6 100 0.000504966
0 1 7 100 0.0766028
1 1 7 100 0.202854
2 1 7 100 0.0192138
3 1 7 100 0.0416553
4 1 7 100 0.113682
5 1 7 100 0.199839
6 1 7 100 0.070823
7 1 7 100 0.27533
0 2 7 100 0.0744915
1 2 7 100 0.186289
2 2 7 100 0.0374318
3 2 7 100 0.0370596
4 2 7 100 0.130703
5 2 7 100 0.131496
6 2 7 100 0.0574049
7 2 7 100 0.345124
0 3 7 100 0.118875
1 3 7 100 0.196037
2 3 7 100 0.0392263
3 3 7 100 0.0588044
4 3 7 100 0.0588236
5 3 7 100 0.155082
6 3 7 100 0.0392173
7 3 7 100 0.333935
0 4 7 100 0.184092
1 4 7 100 0.160963
2 4 7 100 0.04207
3 4 7 100 0.0588225
4 4 7 100 0.117654
5 4 7 100 0.079281
6 4 7 100 0.0782206
7 4 7 100 0.278897
0 5 7 100 0.0666116
1 5 7 100 0.152922
2 5 7 100 0.0585106
3 5 7 100 0.0714483
4 5 7 100 0.103854
5 5 7 100 0.166593
6 5 7 100 0.124729
7 5 7 100 0.255331
0 6 7 100 0.168585
1 6 7 100 0.090974
2 6 7 100 0.0441493
3 6 7 100 0.0908092
4 6 7 100 0.112783
5 6 7 100 0.202775
6 6 7 100 0.113441
7 6 7 100 0.176484
0 7 7 100 0.0492129
1 7 7 100 0.254704
2 7 7 100 0.0512821
3 7 7 100 0.0512827
4 7 7 100 0.0772747
5 7 7 100 0.199545
6 7 7 100 0.142511
7 7 7 100 0.174188
0 8 7 100 0.243727
1 8 7 100 0.172033
2 8 7 100 0.0971402
3 8 7 100 0.0673182
4 8 7 100 0.0344925
5 8 7 100 0.208318
6 8 7 100 0.0390398
7 8 7 100 0.137932
0 9 7 100 0.180481
1 9 7 100 0.236191
2 9 7 100 8.58317e-07
3 9 7 100 0.0416667
4 9 7 100 0.0416667
5 9 7 100 0.291648
6 9 7 100 0.0416541
7 9 7 100 0.166691
0 10 7 100 0.178111
1 10 7 100 0.227273
2 10 7 100 0.0909091
5 10 7 100 0.136364
6 10 7 100 0.136364
7 10 7 100 0.23098
0 11 7 100 0.0922416
1 11 7 100 0.226635
2 11 7 100 0.0909091
3 11 7 100 0.0454544
5 11 7 100 0.272456
6 11 7 100 0.136365
7 11 7 100 0.135939
0 12 7 100 0.242097
1 12 7 100 0.142922
2 12 7 100 0.191403
3 12 7 100 0.0952381
5 12 7 100 0.233098
6 12 7 100 0.047623
7 12 7 100 0.0476191
0 13 7 100 0.201937
1 13 7 100 0.250001
2 13 7 100 0.149613
4 13 7 100 0.05
5 13 7 100 0.248801
6 13 7 100 0.0496483
7 13 7 100 0.05
0 14 7 100 0.111074
1 14 7 100 0.105263
2 14 7 100 0.256842
3 14 7 100 0.210506
4 14 7 100 0.0526316
5 14 7 100 0.211051
7 14 7 100 0.0526324
0 15 7 100 0.209933
1 15 7 100 0.157865
2 15 7 100 0.316413
3 15 7 100 0.157895
4 15 7 100 0.0525758
5 15 7 100 0.0526796
7 15 7 100 0.0526394
0 16 7 100 0.310831
1 16 7 100 0.0526316
2 16 7 100 0.26298
3 16 7 100 0.10468
4 16 7 100 0.106803
5 16 7 100 0.105648
7 16 7 100 0.0564274
0 17 7 100 0.115206
1 17 7 100 0.0526316
2 17 7 100 0.314085
3 17 7 100 0.151781
4 17 7 100 0.208401
5 17 7 100 0.157895
7 17 7 100 2.06244e-06
0 18 7 100 0.256066
1 18 7 100 0.0588235
2 18 7 100 0.202493
3 18 7 100 0.176471
4 18 7 100 0.247324
5 18 7 100 0.0588235
0 19 7 100 0.0640274
1 19 7 100 0.0666667
2 19 7 100 0.133294
3 19 7 100 0.266667
4 19 7 100 0.33325
5 19 7 100 0.0666667
6 19 7 100 0.0666667
7 19 7 100 0.00276116
0 20 7 100 0.209422
1 20 7 100 0.191548
2 20 7 100 0.13328
3 20 7 100 0.133333
4 20 7 100 0.0666667
5 20 7 100 0.0666667
6 20 7 100 0.199081
7 20 7 100 2.96479e-06
0 21 7 100 0.285556
2 21 7 100 0.0714286
3 21 7 100 0.0714286
4 21 7 100 0.357143
5 21 7 100 0.0714286
6 21 7 100 0.142857
7 21 7 100 0.000158264
0 22 7 100 0.153849
1 22 7 100 0.0769204
2 22 7 100 0.0769231
4 22 7 100 0.461529
6 22 7 100 0.230769
7 22 7 100 9.05462e-06
0 23 7 100 0.154253
1 23 7 100 1.29158e-05
2 23 7 100 0.230759
3 23 7 100 0.0769231
4 23 7 100 0.384206
5 23 7 100 0.0769231
6 23 7 100 0.0769231
0 24 7 100 0.276575
2 24 7 100 0.108237
4 24 7 100 0.461341
6 24 7 100 0.153846
0 25 7 100 0.0769228
3 25 7 100 0.0769231
4 25 7 100 0.461539
5 25 7 100 0.0769231
6 25 7 100 0.307692
0 26 7 100 0.182743
1 26 7 100 5.34141e-05
2 26 7 100 1.07506e-05
3 26 7 100 0.181818
4 26 7 100 0.181649
5 26 7 100 0.0909091
6 26 7 100 0.362817
0 27 7 100 0.110295
3 27 7 100 0.222015
4 27 7 100 0.111111
5 27 7 100 0.111111
6 27 7 100 0.334357
7 27 7 100 0.111111
0 28 7 100 0.111111
3 28 7 100 0.222279
4 28 7 100 0.333276
5 28 7 100 0.111111
6 28 7 100 0.222222
0 29 7 100 2.20566e-06
3 29 7 100 0.33332
4 29 7 100 0.333344
5 29 7 100 0.111111
6 29 7 100 0.222222
0 30 7 100 0.248681
1 30 7 100 0.00131809
3 30 7 100 0.249984
4 30 7 100 0.125016
5 30 7 100 0.125
6 30 7 100 0.125
7 30 7 100 0.125
0 31 7 100 0.374702
2 31 7 100 0.125
3 31 7 100 0.124973
4 31 7 100 0.125027
6 31 7 100 0.125298
7 31 7 100 0.125
0 32 7 100 0.249733
1 32 7 100 0.125
2 32 7 100 0.125009
4 32 7 100 0.25
6 32 7 100 0.125247
7 32 7 100 0.125011
0 33 7 100 0.500005
3 33 7 100 0.124998
4 33 7 100 0.249999
7 33 7 100 0.124999
0 34 7 100 0.14286
3 34 7 100 0.285711
4 34 7 100 0.428572
5 34 7 100 0.142857
0 35 7 100 0.428344
4 35 7 100 0.428355
5 35 7 100 0.142163
7 35 7 100 0.00113869
0 36 7 100 0.134713
2 36 7 100 0.00684005
3 36 7 100 0.285713
4 36 7 100 0.285715
5 36 7 100 0.285715
6 36 7 100 0.00130446
0 37 7 100 0.142852
1 37 7 100 5.58564e-06
3 37 7 100 0.285714
4 37 7 100 0.142857
5 37 7 100 0.285714
6 37 7 100 0.142857
0 38 7 100 0.00410653
1 38 7 100 0.142857
3 38 7 100 0.142857
5 38 7 100 0.567351
6 38 7 100 0.142828
0 39 7 100 0.284202
3 39 7 100 0.142857
5 39 7 100 0.430082
6 39 7 100 0.142857
7 39 7 100 2.09504e-06
0 40 7 100 0.284446
3 40 7 100 0.285714
5 40 7 100 0.285714
6 40 7 100 0.144126
0 41 7 100 0.142539
5 41 7 100 0.428571
6 41 7 100 0.286054
7 41 7 100 0.142836
0 42 7 100 0.333327
3 42 7 100 0.166667
5 42 7 100 0.333333
6 42 7 100 0.166673
0 43 7 100 0.000776016
1 43 7 100 8.66503e-06
3 43 7 100 0.166667
4 43 7 100 0.166658
5 43 7 100 0.333333
6 43 7 100 0.332557
0 44 7 100 0.163241
1 44 7 100 0.166667
3 44 7 100 0.333332
4 44 7 100 0.00342095
5 44 7 100 0.166667
6 44 7 100 0.166667
7 44 7 100 4.6015e-06
0 45 7 100 0.166667
1 45 7 100 0.166667
2 45 7 100 0.166667
3 45 7 100 0.333333
4 45 7 100 0.166531
7 45 7 100 0.000135306
0 46 7 100 0.1707
1 46 7 100 0.166658
2 46 7 100 0.330889
3 46 7 100 0.00136357
4 46 7 100 0.00313009
6 46 7 100 0.327137
7 46 7 100 0.000121843
0 47 7 100 0.196809
3 47 7 100 0.4
4 47 7 100 0.199999
6 47 7 100 0.201097
7 47 7 100 0.00209418
0 48 7 100 0.000767432
3 48 7 100 0.4
6 48 7 100 0.599228
7 48 7 100 5.12679e-06
0 49 7 100 0.0360577
3 49 7 100 0.399999
6 49 7 100 0.563943
0 50 7 100 0.000220517
4 50 7 100 0.2
5 50 7 100 0.399999
6 50 7 100 0.39978
0 51 7 100 5.04648e-06
3 51 7 100 0.199995
4 51 7 100 0.2
5 51 7 100 0.2
6 51 7 100 0.4
0 52 7 100 0.593905
3 52 7 100 7.20956e-06
5 52 7 100 0.206065
6 52 7 100 0.200023
0 53 7 100 0.00104478
4 53 7 100 0.2
5 53 7 100 0.39916
6 53 7 100 0.399795
0 54 7 100 0.00895891
1 54 7 100 0.4
4 54 7 100 0.199833
5 54 7 100 0.191041
6 54 7 100 0.200167
0 55 7 100 0.250089
3 55 7 100 0.25
4 55 7 100 0.25
5 55 7 100 0.249911
0 56 7 100 1.68807e-05
1 56 7 100 0.499991
5 56 7 100 0.25
7 56 7 100 0.249993
0 57 7 100 0.250003
1 57 7 100 0.5
6 57 7 100 0.249997
0 58 7 100 6.20907e-06
1 58 7 100 0.999994
1 59 7 100 1
0 60 7 100 1.56347e-05
1 60 7 100 0.999984
1 61 7 100 0.5
2 61 7 100 0.5
0 62 7 100 2.45756e-05
1 62 7 100 0.5
7 62 7 100 0.499975
0 1 8 100 0.0750161
1 1 8 100 0.168838
2 1 8 100 0.037363
3 1 8 100 0.0338063
4 1 8 100 0.0719042
5 1 8 100 0.100792
6 1 8 100 0.175205
7 1 8 100 0.0492113
8 1 8 100 0.287865
0 2 8 100 0.0932348
1 2 8 100 0.121712
2 2 8 100 0.0329137
3 2 8 100 0.0197519
4 2 8 100 0.0642265
5 2 8 100 0.0666457
6 2 8 100 0.19588
7 2 8 100 0.0692249
8 2 8 100 0.33641
0 3 8 100 0.0506401
1 3 8 100 0.182614
2 3 8 100 0.0772714
3 3 8 100 0.0181944
4 3 8 100 0.0559363
5 3 8 100 0.0833325
6 3 8 100 0.233393
7 3 8 100 0.0668077
8 3 8 100 0.23181
0 4 8 100 0.131643
1 4 8 100 0.16161
2 4 8 100 0.108758
3 4 8 100 0.0284527
4 4 8 100 0.0573195
5 4 8 100 0.0546473
6 4 8 100 0.144538
7 4 8 100 0.107972
8 4 8 100 0.205059
0 5 8 100 0.120982
1 5 8 100 0.223128
2 5 8 100 0.129495
3 5 8 100 0.0015775
4 5 8 100 0.0769178
5 5 8 100 0.0780759
6 5 8 100 0.110326
7 5 8 100 0.128313
8 5 8 100 0.131184
0 6 8 100 0.136957
1 6 8 100 0.183674
2 6 8 100 0.12276
4 6 8 100 0.038004
5 6 8 100 0.0911188
6 6 8 100 0.163254
7 6 8 100 0.141778
8 6 8 100 0.122455
0 7 8 100 0.160915
1 7 8 100 0.162394
2 7 8 100 0.170051
3 7 8 100 1.41602e-06
4 7 8 100 0.0461397
5 7 8 100 0.0930232
6 7 8 100 0.135858
7 7 8 100 0.0697899
8 7 8 100 0.161827
0 8 8 100 0.197576
1 8 8 100 0.249662
2 8 8 100 0.174914
4 8 8 100 7.13652e-06
5 8 8 100 0.0735949
6 8 8 100 0.0499999
7 8 8 100 0.137115
8 8 8 100 0.117131
0 9 8 100 0.000478095
1 9 8 100 0.291489
2 9 8 100 0.166667
5 9 8 100 0.0416667
6 9 8 100 0.249844
7 9 8 100 0.0833334
8 9 8 100 0.166521
0 10 8 100 0.136462
1 10 8 100 0.205701
2 10 8 100 0.181711
4 10 8 100 0.0215796
5 10 8 100 0.0454546
6 10 8 100 0.181814
7 10 8 100 0.0909096
8 10 8 100 0.136368
0 11 8 100 0.0661488
1 11 8 100 0.263154
2 11 8 100 0.157895
4 11 8 100 1.32298e-06
5 11 8 100 0.0526316
6 11 8 100 0.357787
7 11 8 100 0.0497506
8 11 8 100 0.0526316
0 12 8 100 0.000419756
1 12 8 100 0.222011
2 12 8 100 0.277778
5 12 8 100 0.166667
6 12 8 100 0.166418
7 12 8 100 0.0555556
8 12 8 100 0.111151
0 13 8 100 0.221245
1 13 8 100 0.0555556
2 13 8 100 0.277723
5 13 8 100 0.222222
7 13 8 100 0.111104
8 13 8 100 0.11215
0 14 8 100 0.223413
1 14 8 100 0.0555556
2 14 8 100 0.332664
5 14 8 100 0.16666
6 14 8 100 0.0550495
7 14 8 100 0.111102
8 14 8 100 0.0555556
0 15 8 100 0.288281
1 15 8 100 0.3125
2 15 8 100 0.125
3 15 8 100 0.0625
4 15 8 100 4.79591e-05
5 15 8 100 0.125
6 15 8 100 0.0241648
7 15 8 100 0.0625
8 15 8 100 5.71012e-06
0 16 8 100 0.209522
1 16 8 100 0.333322
3 16 8 100 0.0666667
4 16 8 100 1.1267e-05
5 16 8 100 0.2
6 16 8 100 0.0662591
7 16 8 100 0.066571
8 16 8 100 0.0576482
0 17 8 100 0.26146
1 17 8 100 0.266807
2 17 8 100 0.2
4 17 8 100 1.77711e-06
5 17 8 100 0.199626
7 17 8 100 0.00542259
8 17 8 100 0.0666828
0 18 8 100 0.134534
1 18 8 100 0.33261
2 18 8 100 0.2
3 18 8 100 0.0666667
4 18 8 100 0.133345
5 18 8 100 0.0661786
8 18 8 100 0.0666667
0 19 8 100 0.135264
1 19 8 100 0.333333
2 19 8 100 0.200001
4 19 8 100 0.133333
5 19 8 100 0.0666667
8 19 8 100 0.131402
0 20 8 100 0.153776
1 20 8 100 0.307693
2 20 8 100 0.0769976
3 20 8 100 0.307687
4 20 8 100 8.32184e-07
5 20 8 100 0.0769232
8 20 8 100 0.0769232
0 21 8 100 0.0772467
1 21 8 100 0.307537
2 21 8 100 0.230769
3 21 8 100 0.230769
5 21 8 100 0.0767543
8 21 8 100 0.0769231
0 22 8 100 0.00455719
1 22 8 100 0.380058
2 22 8 100 0.230769
3 22 8 100 0.307692
4 22 8 100 0.0769231
0 23 8 100 0.0691895
1 23 8 100 0.230747
2 23 8 100 0.238525
3 23 8 100 0.307692
4 23 8 100 0.0769231
6 23 8 100 0.0769231
0 24 8 100 0.000765772
1 24 8 100 0.0769231
2 24 8 100 0.384615
3 24 8 100 0.386527
6 24 8 100 0.0742462
8 24 8 100 0.076923
0 25 8 100 0.0859493
1 25 8 100 0.0769231
2 25 8 100 0.298666
3 25 8 100 0.307692
5 25 8 100 0.0769231
6 25 8 100 0.076923
8 25 8 100 0.0769231
0 26 8 100 0.23128
2 26 8 100 0.153846
3 26 8 100 0.153846
4 26 8 100 0.0765295
5 26 8 100 0.384498
0 27 8 100 0.230939
1 27 8 100 0.0769231
2 27 8 100 0.384722
3 27 8 100 0.0769231
5 27 8 100 0.153569
7 27 8 100 0.0769231
0 28 8 100 0.154199
1 28 8 100 0.0769286
2 28 8 100 0.230417
3 28 8 100 0.307692
5 28 8 100 0.0769231
7 28 8 100 0.153841
0 29 8 100 0.242935
1 29 8 100 0.0648566
2 29 8 100 0.384506
3 29 8 100 0.153846
4 29 8 100 0.0769231
5 29 8 100 0.0769231
7 29 8 100 9.56947e-06
0 30 8 100 0.307697
1 30 8 100 0.0769231
2 30 8 100 0.0769231
3 30 8 100 0.153827
5 30 8 100 0.230769
6 30 8 100 0.0769231
8 30 8 100 0.0769376
0 31 8 100 0.166667
1 31 8 100 0.249996
2 31 8 100 0.25
3 31 8 100 0.0833329
5 31 8 100 0.16667
6 31 8 100 0.0833334
0 32 8 100 0.153657
1 32 8 100 0.25
2 32 8 100 0.25
6 32 8 100 0.0960585
7 32 8 100 2.47782e-05
8 32 8 100 0.25026
0 33 8 100 0.0833333
1 33 8 100 0.166667
2 33 8 100 0.25
3 33 8 100 0.0833334
6 33 8 100 0.0833333
7 33 8 100 0.0833332
8 33 8 100 0.25
0 34 8 100 0.178198
1 34 8 100 0.166686
2 34 8 100 0.1651
3 34 8 100 0.166667
4 34 8 100 0.0833334
6 34 8 100 0.0841657
7 34 8 100 0.0833334
8 34 8 100 0.072516
0 35 8 100 0.0913221
1 35 8 100 0.0909092
2 35 8 100 0.0909092
4 35 8 100 0.0909092
6 35 8 100 0.272312
7 35 8 100 0.0909111
8 35 8 100 0.272727
0 36 8 100 0.0917814
1 36 8 100 0.0909091
2 36 8 100 0.181817
3 36 8 100 0.090909
4 36 8 100 0.0909091
6 36 8 100 0.271856
8 36 8 100 0.181818
0 37 8 100 0.200717
1 37 8 100 0.0909091
4 37 8 100 0.0909091
5 37 8 100 0.0909091
6 37 8 100 0.162917
7 37 8 100 0.0909117
8 37 8 100 0.272727
0 38 8 100 0.0916791
1 38 8 100 0.0909091
2 38 8 100 0.0909091
4 38 8 100 0.0909091
5 38 8 100 0.0907928
6 38 8 100 0.0902553
7 38 8 100 0.0909091
8 38 8 100 0.363636
0 39 8 100 0.298812
2 39 8 100 0.2
4 39 8 100 0.1
5 39 8 100 0.1
6 39 8 100 0.100322
7 39 8 100 7.10755e-06
8 39 8 100 0.200859
0 40 8 100 0.22204
2 40 8 100 0.111111
4 40 8 100 0.111111
5 40 8 100 0.111111
6 40 8 100 0.111293
7 40 8 100 0.111111
8 40 8 100 0.222222
0 41 8 100 1.97101e-05
4 41 8 100 0.333314
5 41 8 100 0.111111
6 41 8 100 0.111111
7 41 8 100 0.222222
8 41 8 100 0.222222
0 42 8 100 0.224127
4 42 8 100 0.221936
5 42 8 100 0.11091
6 42 8 100 0.111111
7 42 8 100 0.111111
8 42 8 100 0.220804
0 43 8 100 0.435497
1 43 8 100 7.33705e-05
3 43 8 100 0.111111
4 43 8 100 0.222223
5 43 8 100 1.12143e-06
8 43 8 100 0.231094
0 44 8 100 0.110761
2 44 8 100 0.111111
3 44 8 100 0.111078
4 44 8 100 0.333717
6 44 8 100 0.111111
7 44 8 100 0.111111
8 44 8 100 0.11111
0 45 8 100 0.00255272
2 45 8 100 0.222222
3 45 8 100 0.111111
4 45 8 100 0.22167
6 45 8 100 0.10911
7 45 8 100 0.222222
8 45 8 100 0.111111
0 46 8 100 0.285713
2 46 8 100 0.142857
3 46 8 100 0.142859
4 46 8 100 0.142857
7 46 8 100 0.285714
0 47 8 100 0.142857
3 47 8 100 0.142857
4 47 8 100 0.428572
7 47 8 100 0.142857
8 47 8 100 0.142857
0 48 8 100 0.142833
2 48 8 100 0.142857
3 48 8 100 0.142857
4 48 8 100 0.285714
6 48 8 100 2.37793e-05
7 48 8 100 0.285714
4 49 8 100 0.285714
5 49 8 100 0.142857
6 49 8 100 0.142857
7 49 8 100 0.143066
8 49 8 100 0.285506
0 50 8 100 0.332595
4 50 8 100 0.500733
5 50 8 100 0.166667
6 50 8 100 5.35185e-06
0 51 8 100 0.00103004
3 51 8 100 0.165637
4 51 8 100 0.666667
8 51 8 100 0.166667
4 52 8 100 0.666667
5 52 8 100 0.166667
8 52 8 100 0.166667
0 53 8 100 0.00807197
3 53 8 100 0.161864
5 53 8 100 0.333333
7 53 8 100 0.496731
0 54 8 100 0.000837876
4 54 8 100 0.166667
5 54 8 100 0.332495
7 54 8 100 0.5
0 55 8 100 0.00138943
4 55 8 100 0.199999
5 55 8 100 0.198611
7 55 8 100 0.6
0 56 8 100 0.502475
4 56 8 100 0.247528
5 56 8 100 0.249998
0 57 8 100 0.499997
4 57 8 100 0.25
5 57 8 100 0.250003
0 58 8 100 0.25978
2 58 8 100 7.30168e-06
5 58 8 100 0.240212
7 58 8 100 0.500001
0 59 8 100 0.25
4 59 8 100 0.25
5 59 8 100 0.5
4 60 8 100 0.25
5 60 8 100 0.5
7 60 8 100 0.25
0 61 8 100 0.250012
3 61 8 100 0.25
5 61 8 100 0.249992
7 61 8 100 0.249996
0 62 8 100 0.5
7 62 8 100 0.5
0 63 8 100 0.25
2 63 8 100 0.25
5 63 8 100 0.25
7 63 8 100 0.25
2 64 8 100 0.333333
5 64 8 100 0.333333
7 64 8 100 0.333333
0 65 8 100 0.666615
2 65 8 100 0.333333
5 65 8 100 3.83968e-05
8 65 8 100 1.31168e-05
0 66 8 100 0.333332
2 66 8 100 0.333334
4 66 8 100 0.333334
0 67 8 100 0.665723
4 67 8 100 0.000697714
5 67 8 100 0.333579
2 68 8 100 0.333333
5 68 8 100 0.333333
6 68 8 100 0.333333
2 69 8 100 0.5
6 69 8 100 0.5
2 70 8 100 0.499998
6 70 8 100 0.500002
0 71 8 100 1
2 72 8 100 1
0 1 9 100 0.0434169
1 1 9 100 0.0820711
2 1 9 100 0.0696413
3 1 9 100 0.0685922
4 1 9 100 0.0891979
5 1 9 100 0.370641
6 1 9 100 0.0185189
7 1 9 100 0.021069
8 1 9 100 0.0395774
9 1 9 100 0.197274
0 2 9 100 0.0542803
1 2 9 100 0.110911
2 2 9 100 0.0506609
3 2 9 100 0.0757316
4 2 9 100 0.0442759
5 2 9 100 0.351411
6 2 9 100 0.0349743
7 2 9 100 0.0370375
8 2 9 100 0.0391592
9 2 9 100 0.201558
0 3 9 100 0.0979831
1 3 9 100 0.0961542
2 3 9 100 0.0576923
3 3 9 100 0.153848
4 3 9 100 0.0225122
5 3 9 100 0.266062
6 3 9 100 0.0576152
7 3 9 100 0.0566349
8 3 9 100 0.0377304
9 3 9 100 0.153768
0 4 9 100 0.0986718
1 4 9 100 0.12
2 4 9 100 0.0779268
3 4 9 100 0.100001
4 4 9 100 0.0256977
5 4 9 100 0.219715
6 4 9 100 0.0599998
7 4 9 100 0.0777775
8 4 9 100 0.0602091
9 4 9 100 0.160002
0 5 9 100 0.0822664
1 5 9 100 0.122904
2 5 9 100 0.0853815
3 5 9 100 0.0833357
4 5 9 100 0.0624987
5 5 9 100 0.249519
6 5 9 100 0.0267632
7 5 9 100 0.0829865
8 5 9 100 0.062507
9 5 9 100 0.141838
0 6 9 100 0.208434
1 6 9 100 0.0869554
2 6 9 100 0.108695
3 6 9 100 0.0431421
4 6 9 100 0.0652185
5 6 9 100 0.200014
6 6 9 100 0.0434794
7 6 9 100 0.0912054
8 6 9 100 0.0217394
9 6 9 100 0.131116
0 7 9 100 0.190584
1 7 9 100 0.119048
2 7 9 100 0.0476174
3 7 9 100 0.122945
4 7 9 100 0.0238018
5 7 9 100 0.217717
6 7 9 100 0.0476206
7 7 9 100 0.0402228
8 7 9 100 0.0714396
9 7 9 100 0.119004
0 8 9 100 0.168777
1 8 9 100 0.189189
2 8 9 100 0.0810811
3 8 9 100 0.0540567
4 8 9 100 0.0270278
5 8 9 100 0.264477
6 8 9 100 0.027027
7 8 9 100 0.107538
8 8 9 100 5.01261e-06
9 8 9 100 0.0808213
0 9 9 100 0.170769
1 9 9 100 0.065737
2 9 9 100 8.81492e-05
3 9 9 100 0.17225
4 9 9 100 0.0882347
5 9 9 100 0.20482
6 9 9 100 0.00401597
7 9 9 100 0.176944
8 9 9 100 0.0598239
9 9 9 100 0.057316
0 10 9 100 0.465832
1 10 9 100 0.0416667
2 10 9 100 0.0833335
3 10 9 100 0.208319
4 10 9 100 0.114129
5 10 9 100 0.00273812
6 10 9 100 1.72463e-05
7 10 9 100 0.0416667
8 10 9 100 0.0422829
9 10 9 100 1.55345e-05
0 11 9 100 0.261065
1 11 9 100 0.0833334
2 11 9 100 0.125028
3 11 9 100 0.140054
4 11 9 100 0.0417237
5 11 9 100 0.140211
6 11 9 100 0.0417564
7 11 9 100 0.0416265
8 11 9 100 0.0833526
9 11 9 100 0.0418504
0 12 9 100 0.173301
1 12 9 100 0.0869566
2 12 9 100 0.130435
3 12 9 100 0.173998
4 12 9 100 0.130437
5 12 9 100 0.130435
7 12 9 100 0.0434843
8 12 9 100 0.0869978
9 12 9 100 0.043956
0 13 9 100 0.000163713
1 13 9 100 0.0454546
2 13 9 100 0.0909091
3 13 9 100 0.272703
4 13 9 100 0.136362
5 13 9 100 0.227133
6 13 9 100 0.0454538
7 13 9 100 0.045455
8 13 9 100 0.090911
9 13 9 100 0.0454546
0 14 9 100 0.204044
1 14 9 100 0.0138967
2 14 9 100 0.136364
3 14 9 100 0.136364
4 14 9 100 0.136351
5 14 9 100 0.136364
6 14 9 100 0.0548793
7 14 9 100 0.0908373
8 14 9 100 0.0909002
0 15 9 100 0.150332
1 15 9 100 0.05
2 15 9 100 0.2
3 15 9 100 0.1
4 15 9 100 0.0499993
5 15 9 100 0.15
6 15 9 100 0.099666
7 15 9 100 0.100002
9 15 9 100 0.1
0 16 9 100 0.147667
1 16 9 100 0.1
2 16 9 100 0.15
3 16 9 100 0.25
5 16 9 100 0.1
7 16 9 100 0.05
8 16 9 100 0.0523331
9 16 9 100 0.15
0 17 9 100 0.0517218
1 17 9 100 0.15
2 17 9 100 0.148657
3 17 9 100 0.249514
5 17 9 100 0.15
7 17 9 100 0.10001
9 17 9 100 0.150097
0 18 9 100 0.315785
1 18 9 100 0.157895
2 18 9 100 0.157896
3 18 9 100 0.105261
5 18 9 100 0.105268
6 18 9 100 0.105237
8 18 9 100 2.63905e-05
9 18 9 100 0.0526327
0 19 9 100 0.158875
1 19 9 100 0.105129
2 19 9 100 0.20968
3 19 9 100 0.157899
4 19 9 100 0.105261
5 19 9 100 0.105263
6 19 9 100 0.105258
8 19 9 100 4.00306e-06
9 19 9 100 0.0526316
0 20 9 100 0.105286
1 20 9 100 0.157765
2 20 9 100 0.210526
3 20 9 100 0.210524
4 20 9 100 0.0526316
5 20 9 100 0.105303
7 20 9 100 0.0525849
8 20 9 100 1.2136e-06
9 20 9 100 0.105378
0 21 9 100 0.120591
1 21 9 100 0.0526316
2 21 9 100 0.105263
3 21 9 100 0.0526311
4 21 9 100 0.195224
5 21 9 100 0.105263
6 21 9 100 0.157892
7 21 9 100 0.105238
8 21 9 100 2.95891e-06
9 21 9 100 0.105263
0 22 9 100 0.19689
1 22 9 100 0.105263
2 22 9 100 0.105263
3 22 9 100 0.105263
4 22 9 100 0.0526316
5 22 9 100 0.105263
6 22 9 100 0.154915
7 22 9 100 0.121877
8 22 9 100 1.92412e-06
9 22 9 100 0.0526316
0 23 9 100 0.224324
1 23 9 100 1.33804e-05
3 23 9 100 0.0555556
4 23 9 100 0.109385
5 23 9 100 0.0555603
6 23 9 100 0.332937
7 23 9 100 0.111111
8 23 9 100 2.22429e-06
9 23 9 100 0.111111
0 24 9 100 0.27813
1 24 9 100 0.166652
2 24 9 100 0.166667
4 24 9 100 0.110758
5 24 9 100 0.110985
6 24 9 100 0.055553
7 24 9 100 0.0556504
8 24 9 100 4.91285e-05
9 24 9 100 0.0555556
0 25 9 100 1.67518e-05
1 25 9 100 0.166667
2 25 9 100 0.166667
3 25 9 100 0.0555556
4 25 9 100 0.0555556
5 25 9 100 0.111096
6 25 9 100 0.166648
7 25 9 100 0.166667
8 25 9 100 0.055573
9 25 9 100 0.0555556
0 26 9 100 0.0556534
1 26 9 100 0.165534
2 26 9 100 0.166604
3 26 9 100 0.0555556
4 26 9 100 3.70324e-06
5 26 9 100 0.166661
6 26 9 100 0.111711
7 26 9 100 0.166667
8 26 9 100 0.111111
9 26 9 100 0.000498789
0 27 9 100 0.268717
1 27 9 100 0.109687
2 27 9 100 0.111111
4 27 9 100 0.111111
5 27 9 100 0.111111
6 27 9 100 0.111471
7 27 9 100 0.111228
8 27 9 100 0.0655634
0 28 9 100 0.12514
2 28 9 100 0.18735
3 28 9 100 0.187494
5 28 9 100 0.0625
7 28 9 100 0.312506
8 28 9 100 0.12501
0 29 9 100 0.125257
2 29 9 100 0.0625604
3 29 9 100 0.0625
4 29 9 100 0.125
5 29 9 100 0.312485
6 29 9 100 1.47382e-06
7 29 9 100 0.249696
8 29 9 100 0.0625
0 30 9 100 0.197026
2 30 9 100 0.2
3 30 9 100 0.0666681
4 30 9 100 0.0666649
5 30 9 100 0.200003
6 30 9 100 0.00290062
7 30 9 100 0.200075
9 30 9 100 0.0666633
0 31 9 100 0.287113
1 31 9 100 0.0714286
2 31 9 100 0.142868
3 31 9 100 0.0714286
4 31 9 100 6.31169e-06
5 31 9 100 0.142857
6 31 9 100 0.141441
7 31 9 100 0.0714286
8 31 9 100 0.0714286
0 32 9 100 0.149569
1 32 9 100 0.0712966
3 32 9 100 0.214483
5 32 9 100 0.142857
6 32 9 100 0.0646513
7 32 9 100 0.142857
8 32 9 100 0.214286
0 33 9 100 0.0714286
1 33 9 100 0.0714286
2 33 9 100 0.0714286
3 33 9 100 0.214286
4 33 9 100 0.0714286
6 33 9 100 0.142857
7 33 9 100 0.214286
8 33 9 100 0.142857
0 34 9 100 0.0716362
1 34 9 100 0.214117
2 34 9 100 0.0714286
3 34 9 100 0.214239
4 34 9 100 1.10334e-06
6 34 9 100 0.0714286
7 34 9 100 0.142857
8 34 9 100 0.214286
9 34 9 100 6.93098e-06
0 35 9 100 0.0790273
1 35 9 100 0.0748189
3 35 9 100 0.230769
5 35 9 100 0.153846
6 35 9 100 0.153846
7 35 9 100 0.230769
8 35 9 100 0.0769231
0 36 9 100 0.0833334
1 36 9 100 0.25
3 36 9 100 0.166667
5 36 9 100 0.0833334
6 36 9 100 0.166667
7 36 9 100 0.166666
8 36 9 100 0.0833334
0 37 9 100 0.00236191
1 37 9 100 0.0833334
2 37 9 100 0.166661
3 37 9 100 0.166667
5 37 9 100 0.166667
6 37 9 100 0.164311
7 37 9 100 0.25
0 38 9 100 0.333262
2 38 9 100 0.111183
5 38 9 100 0.111111
6 38 9 100 0.111111
7 38 9 100 0.222222
9 38 9 100 0.111111
0 39 9 100 0.222282
2 39 9 100 0.111111
6 39 9 100 0.111111
7 39 9 100 0.222222
8 39 9 100 0.222162
9 39 9 100 0.111111
0 40 9 100 0.222215
3 40 9 100 0.111111
5 40 9 100 0.111111
6 40 9 100 0.222222
7 40 9 100 0.222222
8 40 9 100 0.111111
9 40 9 100 7.20341e-06
0 41 9 100 0.111111
3 41 9 100 0.222222
5 41 9 100 0.222222
6 41 9 100 0.111111
7 41 9 100 0.111111
9 41 9 100 0.222222
0 42 9 100 0.107917
3 42 9 100 0.444445
5 42 9 100 0.111111
9 42 9 100 0.336528
0 43 9 100 0.499974
2 43 9 100 0.125
3 43 9 100 0.125
8 43 9 100 0.125024
9 43 9 100 0.125003
0 44 9 100 0.125173
1 44 9 100 0.125
2 44 9 100 0.125
3 44 9 100 0.125
8 44 9 100 0.125
9 44 9 100 0.374826
1 45 9 100 0.125
2 45 9 100 0.375
8 45 9 100 0.125
9 45 9 100 0.375
0 46 9 100 0.25
2 46 9 100 0.25
3 46 9 100 0.125
5 46 9 100 0.25
9 46 9 100 0.125
0 47 9 100 0.125112
2 47 9 100 0.125
6 47 9 100 0.125
7 47 9 100 0.125
8 47 9 100 0.25
9 47 9 100 0.249888
0 48 9 100 0.108963
1 48 9 100 1.45909e-06
2 48 9 100 0.125
6 48 9 100 0.1242
7 48 9 100 0.25
8 48 9 100 0.249993
9 48 9 100 0.141842
0 49 9 100 0.250446
7 49 9 100 0.25
8 49 9 100 0.25
9 49 9 100 0.249554
0 50 9 100 0.000437061
2 50 9 100 0.125
7 50 9 100 0.25
8 50 9 100 0.375
9 50 9 100 0.249563
0 51 9 100 0.374402
2 51 9 100 0.125
7 51 9 100 0.25
8 51 9 100 0.25
9 51 9 100 0.000598157
0 52 9 100 0.124983
1 52 9 100 0.125
2 52 9 100 0.125
5 52 9 100 0.375
7 52 9 100 0.125
8 52 9 100 1.44353e-05
9 52 9 100 0.125003
0 53 9 100 0.110267
1 53 9 100 0.142857
4 53 9 100 0.142855
5 53 9 100 0.285715
6 53 9 100 0.175448
7 53 9 100 0.142857
0 54 9 100 0.255989
1 54 9 100 0.285714
2 54 9 100 1.64155e-05
5 54 9 100 0.428572
6 54 9 100 0.0297082
0 55 9 100 0.16668
4 55 9 100 0.166667
5 55 9 100 0.166667
9 55 9 100 0.499986
0 56 9 100 0.384783
3 56 9 100 0.166667
6 56 9 100 0.11522
7 56 9 100 0.166667
9 56 9 100 0.166664
0 57 9 100 0.2
4 57 9 100 0.4
5 57 9 100 0.4
0 58 9 100 0.200159
4 58 9 100 0.2
5 58 9 100 0.2
9 58 9 100 0.39984
1 59 9 100 0.249939
4 59 9 100 0.250001
5 59 9 100 0.250001
8 59 9 100 0.25006
0 60 9 100 0.000435833
1 60 9 100 8.32356e-06
5 60 9 100 0.5
7 60 9 100 0.25
8 60 9 100 0.249556
5 61 9 100 0.333334
8 61 9 100 0.333949
9 61 9 100 0.332717
8 62 9 100 1
8 63 9 100 1
0 64 9 100 0.5
8 64 9 100 0.5
0 65 9 100 0.5
8 65 9 100 0.5
0 66 9 100 0.501142
1 66 9 100 0.498858
8 67 9 100 1
0 68 9 100 0.477458
4 68 9 100 0.499994
6 68 9 100 0.0225484
0 69 9 100 0.504242
6 69 9 100 0.47926
8 69 9 100 0.0001197
9 69 9 100 0.0163791
3 70 9 100 0.5
8 70 9 100 0.5
0 71 9 100 0.499782
1 71 9 100 0.000217557
5 71 9 100 0.5
8 72 9 100 1
8 73 9 100 1
1 74 9 100 1
0 1 10 100 0.0330552
1 1 10 100 0.2769
2 1 10 100 0.00964337
3 1 10 100 0.243031
4 1 10 100 0.0652531
5 1 10 100 9.38072e-06
6 1 10 100 0.100445
7 1 10 100 6.79871e-07
8 1 10 100 0.166918
9 1 10 100 0.0733503
10 1 10 100 0.0313943
0 2 10 100 0.0861559
1 2 10 100 0.267709
2 2 10 100 1.15229e-05
3 2 10 100 0.162947
4 2 10 100 0.0477611
5 2 10 100 0.0243994
6 2 10 100 0.0732571
7 2 10 100 0.000248213
8 2 10 100 0.241337
9 2 10 100 0.0717799
10 2 10 100 0.0243931
0 3 10 100 0.0356973
1 3 10 100 0.218392
3 3 10 100 0.145854
4 3 10 100 0.0487804
5 3 10 100 0.0465343
6 3 10 100 0.161268
8 3 10 100 0.194004
9 3 10 100 0.117185
10 3 10 100 0.0322854
0 4 10 100 0.0576055
1 4 10 100 0.151967
3 4 10 100 0.128157
4 4 10 100 0.0312793
5 4 10 100 0.101795
6 4 10 100 0.179487
7 4 10 100 0.0256421
8 4 10 100 0.168616
9 4 10 100 0.129315
10 4 10 100 0.0261357
0 5 10 100 0.0956718
1 5 10 100 0.210009
2 5 10 100 0.0305547
3 5 10 100 0.0646095
4 5 10 100 0.0531521
5 5 10 100 0.103565
6 5 10 100 0.152837
7 5 10 100 0.0263158
8 5 10 100 0.157807
9 5 10 100 0.0528098
10 5 10 100 0.0526692
0 6 10 100 0.239328
1 6 10 100 0.162082
2 6 10 100 0.0270316
3 6 10 100 0.107486
4 6 10 100 0.000783634
5 6 10 100 0.0577668
6 6 10 100 0.0813342
7 6 10 100 0.0540541
8 6 10 100 0.16218
9 6 10 100 0.0809184
10 6 10 100 0.0270358
0 7 10 100 0.121377
1 7 10 100 0.0909095
2 7 10 100 0.0909074
3 7 10 100 0.0909102
4 7 10 100 0.0606917
5 7 10 100 0.133971
6 7 10 100 0.151507
7 7 10 100 0.030303
8 7 10 100 0.138517
9 7 10 100 0.0605862
10 7 10 100 0.0303202
0 8 10 100 0.212534
1 8 10 100 0.13472
2 8 10 100 0.0818426
3 8 10 100 0.0667456
4 8 10 100 0.0333333
5 8 10 100 0.128236
6 8 10 100 0.0792314
7 8 10 100 0.0501012
8 8 10 100 0.146604
9 8 10 100 0.0332984
10 8 10 100 0.0333532
0 9 10 100 0.0357235
1 9 10 100 0.142857
2 9 10 100 0.107137
3 9 10 100 0.107143
4 9 10 100 0.0357143
5 9 10 100 0.107139
6 9 10 100 0.107143
7 9 10 100 0.0714286
8 9 10 100 0.214286
9 9 10 100 0.0357143
10 9 10 100 0.0357143
0 10 10 100 0.23829
1 10 10 100 0.04
2 10 10 100 0.12
3 10 10 100 0.119991
4 10 10 100 0.0436172
5 10 10 100 0.04
7 10 10 100 0.119999
8 10 10 100 0.19801
9 10 10 100 0.0401302
10 10 10 100 0.0399619
0 11 10 100 0.156621
1 11 10 100 0.05
2 11 10 100 0.150002
3 11 10 100 0.1
5 11 10 100 5.92299e-06
6 11 10 100 0.05
7 11 10 100 0.200003
8 11 10 100 0.249377
9 11 10 100 0.0439922
0 12 10 100 0.299873
1 12 10 100 0.000122656
2 12 10 100 0.0500021
3 12 10 100 0.150001
4 12 10 100 0.1
6 12 10 100 0.05
7 12 10 100 0.1
8 12 10 100 0.2
9 12 10 100 0.0500019
0 13 10 100 0.100398
2 13 10 100 0.05
3 13 10 100 0.15
4 13 10 100 0.05
5 13 10 100 0.0466452
6 13 10 100 0.05
7 13 10 100 0.2
8 13 10 100 0.252957
9 13 10 100 0.05
10 13 10 100 0.05
0 14 10 100 0.151208
2 14 10 100 0.15
3 14 10 100 0.148818
7 14 10 100 0.199995
8 14 10 100 0.199975
9 14 10 100 0.05
10 14 10 100 0.100003
0 15 10 100 0.216186
1 15 10 100 0.0526316
2 15 10 100 0.0526316
3 15 10 100 0.157895
4 15 10 100 0.0526316
6 15 10 100 0.10527
7 15 10 100 0.157895
8 15 10 100 0.105291
10 15 10 100 0.0995677
0 16 10 100 0.00595287
1 16 10 100 0.0555556
2 16 10 100 0.0508812
3 16 10 100 0.165998
4 16 10 100 0.0555556
6 16 10 100 0.277862
7 16 10 100 0.221846
8 16 10 100 0.110793
10 16 10 100 0.0555556
0 17 10 100 0.279016
1 17 10 100 0.0555556
2 17 10 100 0.0555556
3 17 10 100 0.111111
6 17 10 100 0.16659
7 17 10 100 0.166667
8 17 10 100 0.0555556
10 17 10 100 0.109949
0 18 10 100 0.177744
2 18 10 100 0.176455
3 18 10 100 0.0588235
4 18 10 100 0.117647
6 18 10 100 0.292861
8 18 10 100 0.117641
10 18 10 100 0.0588277
0 19 10 100 0.00340112
2 19 10 100 0.133333
3 19 10 100 0.2
4 19 10 100 0.0666667
6 19 10 100 0.2
7 19 10 100 0.0666667
8 19 10 100 0.133333
10 19 10 100 0.1966
0 20 10 100 0.0722465
2 20 10 100 0.2
3 20 10 100 0.133321
4 20 10 100 0.199593
6 20 10 100 0.133333
8 20 10 100 0.0666667
9 20 10 100 0.0666667
10 20 10 100 0.128172
0 21 10 100 0.154223
2 21 10 100 0.218776
3 21 10 100 0.209796
6 21 10 100 0.0714286
8 21 10 100 0.142857
9 21 10 100 0.0600623
10 21 10 100 0.142857
0 22 10 100 0.286177
2 22 10 100 0.213822
3 22 10 100 0.142857
4 22 10 100 0.0714286
7 22 10 100 0.0714286
8 22 10 100 0.0714286
10 22 10 100 0.142857
0 23 10 100 0.142857
1 23 10 100 0.142857
2 23 10 100 0.0763746
3 23 10 100 0.20934
4 23 10 100 0.0714287
7 23 10 100 0.0714287
9 23 10 100 0.142857
10 23 10 100 0.142857
0 24 10 100 0.235598
1 24 10 100 0.153846
2 24 10 100 0.0769231
4 24 10 100 0.153846
7 24 10 100 0.0769231
9 24 10 100 0.149013
10 24 10 100 0.153851
0 25 10 100 0.19314
1 25 10 100 0.0769232
2 25 10 100 0.191492
4 25 10 100 0.0769232
7 25 10 100 0.23077
9 25 10 100 0.230751
0 26 10 100 0.233581
1 26 10 100 0.0769231
2 26 10 100 0.0769231
4 26 10 100 0.303462
7 26 10 100 0.153846
8 26 10 100 0.00141799
9 26 10 100 0.076923
10 26 10 100 0.0769231
0 27 10 100 0.45006
1 27 10 100 0.0769231
2 27 10 100 0.153846
3 27 10 100 0.0769231
7 27 10 100 0.076923
9 27 10 100 0.0884012
10 27 10 100 0.0769231
0 28 10 100 0.0833333
2 28 10 100 0.0833333
4 28 10 100 0.166667
7 28 10 100 0.166667
8 28 10 100 0.166667
9 28 10 100 0.0833333
10 28 10 100 0.25
0 29 10 100 0.250727
1 29 10 100 0.0833334
4 29 10 100 0.25
7 29 10 100 0.0833369
8 29 10 100 0.0833334
9 29 10 100 0.083337
10 29 10 100 0.165932
0 30 10 100 0.250001
1 30 10 100 0.0833333
3 30 10 100 0.0833333
4 30 10 100 0.166667
5 30 10 100 0.166666
7 30 10 100 0.0833333
9 30 10 100 0.0833333
10 30 10 100 0.0833333
0 31 10 100 0.0165579
1 31 10 100 0.0833334
2 31 10 100 0.0833419
3 31 10 100 0.0833334
4 31 10 100 0.150102
5 31 10 100 0.0833334
6 31 10 100 0.0833334
7 31 10 100 0.0833334
10 31 10 100 0.333332
0 32 10 100 0.000282951
2 32 10 100 0.181818
3 32 10 100 0.181818
4 32 10 100 0.0909091
5 32 10 100 0.181818
7 32 10 100 0.0909091
10 32 10 100 0.272444
0 33 10 100 0.0909125
2 33 10 100 0.181818
4 33 10 100 0.181817
5 33 10 100 0.0909091
7 33 10 100 0.181818
10 33 10 100 0.272725
0 34 10 100 0.199784
1 34 10 100 0.1
2 34 10 100 0.199672
4 34 10 100 0.1
6 34 10 100 0.000328012
8 34 10 100 0.2
10 34 10 100 0.200216
0 35 10 100 0.100196
1 35 10 100 0.1
2 35 10 100 0.2
4 35 10 100 0.1
7 35 10 100 0.0998039
8 35 10 100 0.2
10 35 10 100 0.2
0 36 10 100 0.29994
1 36 10 100 0.1
2 36 10 100 0.000328026
3 36 10 100 0.1
4 36 10 100 6.0273e-05
6 36 10 100 0.099672
8 36 10 100 0.2
10 36 10 100 0.2
0 37 10 100 7.1081e-06
2 37 10 100 0.1
3 37 10 100 0.0999929
4 37 10 100 0.1
6 37 10 100 0.1
8 37 10 100 0.3
10 37 10 100 0.3
0 38 10 100 0.442491
3 38 10 100 0.222222
4 38 10 100 5.21775e-05
6 38 10 100 0.0038221
8 38 10 100 0.331254
9 38 10 100 8.47024e-05
10 38 10 100 7.38454e-05
3 39 10 100 0.333334
4 39 10 100 0.111111
6 39 10 100 0.222222
8 39 10 100 0.111111
9 39 10 100 0.111111
10 39 10 100 0.111111
0 40 10 100 0.375069
3 40 10 100 0.125
6 40 10 100 0.249905
7 40 10 100 1.75252e-05
8 40 10 100 0.25
10 40 10 100 8.74614e-06
0 41 10 100 0.375
3 41 10 100 0.125
5 41 10 100 0.125
7 41 10 100 0.125
8 41 10 100 0.125
9 41 10 100 0.125
0 42 10 100 0.00128528
4 42 10 100 0.141668
5 42 10 100 0.142857
6 42 10 100 0.142857
7 42 10 100 0.142749
8 42 10 100 5.5648e-06
9 42 10 100 0.142853
10 42 10 100 0.285724
0 43 10 100 0.00204442
3 43 10 100 0.142857
5 43 10 100 0.570349
9 43 10 100 0.142857
10 43 10 100 0.141893
0 44 10 100 0.00377474
1 44 10 100 1.2806e-05
2 44 10 100 0.142857
5 44 10 100 0.142857
6 44 10 100 0.142857
9 44 10 100 0.142857
10 44 10 100 0.424784
0 45 10 100 0.289126
1 45 10 100 0.142857
2 45 10 100 0.142857
4 45 10 100 3.16223e-06
5 45 10 100 0.282299
9 45 10 100 0.142857
0 46 10 100 7.19106e-06
1 46 10 100 0.285703
3 46 10 100 0.285714
4 46 10 100 0.142857
6 46 10 100 0.142857
9 46 10 100 0.142857
10 46 10 100 4.56083e-06
0 47 10 100 0.428519
1 47 10 100 0.142857
3 47 10 100 0.142857
4 47 10 100 0.14291
9 47 10 100 0.142857
0 48 10 100 0.166685
3 48 10 100 0.166667
4 48 10 100 0.333327
9 48 10 100 0.333322
0 49 10 100 0.412703
1 49 10 100 0.166667
3 49 10 100 0.166666
4 49 10 100 0.0880231
7 49 10 100 0.16594
0 50 10 100 0.00802042
4 50 10 100 0.333334
6 50 10 100 0.166667
7 50 10 100 0.325312
10 50 10 100 0.166667
0 51 10 100 0.0520766
2 51 10 100 0.166667
4 51 10 100 0.11459
7 51 10 100 0.166667
9 51 10 100 0.5
1 52 10 100 0.333321
4 52 10 100 0.166667
7 52 10 100 0.166667
9 52 10 100 0.166667
10 52 10 100 0.166679
0 53 10 100 0.167309
2 53 10 100 0.166037
4 53 10 100 0.166667
5 53 10 100 0.166667
7 53 10 100 0.166654
9 53 10 100 0.166667
0 54 10 100 0.333315
1 54 10 100 0.166667
4 54 10 100 0.166666
7 54 10 100 0.166685
10 54 10 100 0.166667
0 55 10 100 0.2
6 55 10 100 0.2
10 55 10 100 0.600001
2 56 10 100 0.2
3 56 10 100 0.2
10 56 10 100 0.6
2 57 10 100 0.2
3 57 10 100 0.2
4 57 10 100 0.2
10 57 10 100 0.4
0 58 10 100 0.250141
2 58 10 100 0.25
6 58 10 100 0.25
10 58 10 100 0.249859
2 59 10 100 0.25
3 59 10 100 0.25
8 59 10 100 0.25
10 59 10 100 0.25
0 60 10 100 0.249999
2 60 10 100 0.25
3 60 10 100 0.25
6 60 10 100 0.25
0 61 10 100 1.05586e-05
2 61 10 100 0.25
3 61 10 100 0.25
4 61 10 100 0.249989
8 61 10 100 0.25
4 62 10 100 0.333333
8 62 10 100 0.333333
9 62 10 100 0.333333
0 63 10 100 0.333084
4 63 10 100 0.000202887
7 63 10 100 0.333333
8 63 10 100 0.333333
10 63 10 100 4.68856e-05
0 64 10 100 0.333333
6 64 10 100 0.333334
10 64 10 100 0.333334
0 65 10 100 0.33228
6 65 10 100 0.333334
9 65 10 100 0.00105175
10 65 10 100 0.333334
0 66 10 100 5.93816e-06
2 66 10 100 0.333327
5 66 10 100 0.333333
10 66 10 100 0.333333
2 67 10 100 0.333331
8 67 10 100 0.333334
10 67 10 100 0.333334
0 68 10 100 0.333341
2 68 10 100 0.333332
4 68 10 100 0.333327
0 69 10 100 0.00102324
6 69 10 100 0.500002
7 69 10 100 0.498975
0 70 10 100 7.93295e-06
2 70 10 100 0.499992
8 70 10 100 0.5
0 71 10 100 0.486223
3 71 10 100 0.5
4 71 10 100 0.00225723
9 71 10 100 0.0115197
0 72 10 100 0.201607
2 72 10 100 0.298392
8 72 10 100 0.500001
2 73 10 100 0.5
8 73 10 100 0.5
2 74 10 100 0.5
5 74 10 100 0.5
3 75 10 100 1
3 76 10 100 1
5 77 10 100 1
0 78 10 100 0.000596227
4 78 10 100 0.000279273
7 78 10 100 0.999125
0 79 10 100 0.00336529
4 79 10 100 0.996347
7 79 10 100 0.000287236
3 80 10 100 1
3 81 10 100 1
3 82 10 100 1
0 1 11 100 0.121253
1 1 11 100 0.09375
2 1 11 100 0.03125
3 1 11 100 0.0312648
4 1 11 100 0.15625
5 1 11 100 0.031294
6 1 11 100 0.0363158
7 1 11 100 0.0317392
8 1 11 100 0.210958
10 1 11 100 0.038401
11 1 11 100 0.217524
0 2 11 100 0.18264
1 2 11 100 0.0627877
2 2 11 100 0.0626923
3 2 11 100 0.0337118
4 2 11 100 0.124069
5 2 11 100 0.0316778
6 2 11 100 0.03125
7 2 11 100 0.0404261
8 2 11 100 0.183792
9 2 11 100 3.79871e-06
10 2 11 100 0.0577513
11 2 11 100 0.189198
0 3 11 100 0.165008
1 3 11 100 0.0645161
2 3 11 100 0.117051
3 3 11 100 0.0323216
4 3 11 100 0.0968314
5 3 11 100 0.032259
6 3 11 100 0.0645161
7 3 11 100 0.064516
8 3 11 100 0.171495
9 3 11 100 2.43835e-05
10 3 11 100 0.03214
11 3 11 100 0.159322
0 4 11 100 0.325265
1 4 11 100 0.0322725
2 4 11 100 0.0645175
3 4 11 100 5.08411e-06
4 4 11 100 0.121089
6 4 11 100 0.064529
7 4 11 100 0.0307844
8 4 11 100 0.128812
9 4 11 100 0.0322581
10 4 11 100 0.00220744
11 4 11 100 0.19826
0 5 11 100 0.0402852
1 5 11 100 0.0645194
2 5 11 100 0.0967378
3 5 11 100 0.0322693
4 5 11 100 0.132278
5 5 11 100 0.0645162
6 5 11 100 0.0645162
7 5 11 100 0.121029
8 5 11 100 0.129032
9 5 11 100 0.0326649
11 5 11 100 0.222151
0 6 11 100 0.0421297
1 6 11 100 0.103448
2 6 11 100 0.137828
4 6 11 100 0.103448
5 6 11 100 0.0689656
6 6 11 100 0.0689592
7 6 11 100 0.103448
8 6 11 100 0.103559
9 6 11 100 0.0654425
11 6 11 100 0.202771
0 7 11 100 0.298763
1 7 11 100 0.148146
2 7 11 100 0.074074
3 7 11 100 1.86419e-06
4 7 11 100 0.0733952
5 7 11 100 0.0740741
6 7 11 100 0.0352202
7 7 11 100 0.0740905
8 7 11 100 0.0740741
9 7 11 100 0.0740862
11 7 11 100 0.0740741
0 8 11 100 0.074227
1 8 11 100 0.185185
2 8 11 100 0.0740741
4 8 11 100 0.0740741
5 8 11 100 0.0739922
6 8 11 100 0.037037
7 8 11 100 0.148148
8 8 11 100 0.14806
9 8 11 100 0.111129
11 8 11 100 0.0740741
0 9 11 100 0.238189
1 9 11 100 0.12
2 9 11 100 0.12
3 9 11 100 0.0400056
5 9 11 100 0.041326
6 9 11 100 0.08
7 9 11 100 0.160013
8 9 11 100 0.0400613
9 9 11 100 0.0804056
11 9 11 100 0.0800005
0 10 11 100 0.120262
1 10 11 100 0.15975
2 10 11 100 0.16
3 10 11 100 0.0799849
4 10 11 100 0.04
5 10 11 100 0.04
6 10 11 100 0.0800035
7 10 11 100 0.04
8 10 11 100 0.199999
9 10 11 100 0.0400006
10 10 11 100 0.04
0 11 11 100 0.0989181
1 11 11 100 0.147239
2 11 11 100 0.0799999
3 11 11 100 0.119999
4 11 11 100 0.08
5 11 11 100 0.0758325
6 11 11 100 0.04
7 11 11 100 0.04
8 11 11 100 0.159991
9 11 11 100 0.118021
10 11 11 100 0.04
0 12 11 100 0.0931657
1 12 11 100 0.227046
3 12 11 100 0.045456
4 12 11 100 0.0909098
5 12 11 100 0.0909079
7 12 11 100 0.090913
8 12 11 100 0.227281
9 12 11 100 0.0909082
10 12 11 100 0.0433924
11 12 11 100 1.9481e-05
0 13 11 100 0.151201
1 13 11 100 0.0999853
2 13 11 100 0.100005
3 13 11 100 8.33408e-06
5 13 11 100 0.05
6 13 11 100 0.0500016
7 13 11 100 0.1
8 13 11 100 0.198792
9 13 11 100 0.1
10 13 11 100 0.0500234
11 13 11 100 0.0999832
0 14 11 100 0.0511848
1 14 11 100 0.1
2 14 11 100 0.100016
3 14 11 100 0.05
5 14 11 100 0.05
6 14 11 100 0.148828
7 14 11 100 0.0498543
8 14 11 100 0.20013
9 14 11 100 0.050001
10 14 11 100 0.05
11 14 11 100 0.149986
0 15 11 100 0.0380362
1 15 11 100 0.1
2 15 11 100 0.100003
3 15 11 100 0.05
5 15 11 100 0.1
6 15 11 100 0.26789
8 15 11 100 0.1
9 15 11 100 0.05
10 15 11 100 0.05
11 15 11 100 0.14407
0 16 11 100 0.236603
2 16 11 100 0.05
3 16 11 100 0.000206644
5 16 11 100 0.15
6 16 11 100 0.15
7 16 11 100 0.05
8 16 11 100 0.150228
9 16 11 100 0.05
10 16 11 100 8.94e-07
11 16 11 100 0.162962
0 17 11 100 0.000628062
1 17 11 100 0.0555555
2 17 11 100 0.0555555
3 17 11 100 0.0555556
5 17 11 100 0.0555556
6 17 11 100 0.111111
7 17 11 100 0.111111
8 17 11 100 0.222222
9 17 11 100 0.111111
11 17 11 100 0.221594
0 18 11 100 0.118093
1 18 11 100 0.0588235
2 18 11 100 0.0588235
3 18 11 100 0.0588235
4 18 11 100 0.0588235
5 18 11 100 0.0588235
7 18 11 100 0.117647
8 18 11 100 0.176483
9 18 11 100 0.0588235
11 18 11 100 0.234835
0 19 11 100 0.235313
1 19 11 100 0.0588235
2 19 11 100 0.117647
3 19 11 100 0.0588236
4 19 11 100 0.117648
6 19 11 100 0.117647
7 19 11 100 0.0588236
8 19 11 100 0.0588236
11 19 11 100 0.176449
0 20 11 100 0.237268
1 20 11 100 0.117647
3 20 11 100 0.0588235
4 20 11 100 0.115672
5 20 11 100 0.0588235
7 20 11 100 0.117648
8 20 11 100 0.0588235
11 20 11 100 0.235294
0 21 11 100 0.252083
1 21 11 100 0.0625
2 21 11 100 0.0625
3 21 11 100 1.61467e-06
4 21 11 100 0.125004
5 21 11 100 0.0625777
6 21 11 100 0.125
7 21 11 100 0.125
8 21 11 100 0.0625023
9 21 11 100 1.51607e-06
11 21 11 100 0.122829
0 22 11 100 0.12717
1 22 11 100 0.125
4 22 11 100 0.12283
6 22 11 100 0.3125
7 22 11 100 0.0625
8 22 11 100 0.0625
11 22 11 100 0.1875
0 23 11 100 0.435891
1 23 11 100 0.124971
2 23 11 100 0.0625007
3 23 11 100 0.0625
4 23 11 100 0.000616741
5 23 11 100 0.0625
6 23 11 100 0.0625
7 23 11 100 0.125
8 23 11 100 0.0627163
9 23 11 100 0.000804263
0 24 11 100 0.187479
1 24 11 100 0.0625624
2 24 11 100 0.187426
6 24 11 100 0.3125
7 24 11 100 0.0625302
8 24 11 100 0.0625001
9 24 11 100 2.90712e-06
10 24 11 100 0.0625001
11 24 11 100 0.0625001
0 25 11 100 0.001815
1 25 11 100 0.0625
2 25 11 100 0.0625
3 25 11 100 0.125
4 25 11 100 0.124468
5 25 11 100 0.0625
6 25 11 100 0.373714
8 25 11 100 0.0625
9 25 11 100 0.0625
11 25 11 100 0.0625024
0 26 11 100 0.0565818
2 26 11 100 4.95111e-06
3 26 11 100 0.0625
4 26 11 100 0.245968
5 26 11 100 0.182829
6 26 11 100 0.264614
7 26 11 100 0.0625
8 26 11 100 0.0625
10 26 11 100 1.06093e-06
11 26 11 100 0.0625
0 27 11 100 0.0666719
1 27 11 100 0.0666667
2 27 11 100 0.0666667
3 27 11 100 0.0666667
4 27 11 100 0.266667
5 27 11 100 0.133245
6 27 11 100 0.2
7 27 11 100 0.133333
11 27 11 100 8.21303e-05
0 28 11 100 0.214298
1 28 11 100 0.0714286
4 28 11 100 0.142857
5 28 11 100 0.214286
6 28 11 100 0.0714285
7 28 11 100 0.214273
9 28 11 100 0.0714286
0 29 11 100 0.0833749
2 29 11 100 0.0833334
3 29 11 100 0.0833334
4 29 11 100 0.166667
5 29 11 100 0.0833334
6 29 11 100 0.166651
7 29 11 100 0.0833334
9 29 11 100 0.0833157
11 29 11 100 0.166658
0 30 11 100 0.0909091
3 30 11 100 0.090908
4 30 11 100 0.181818
5 30 11 100 0.0909091
6 30 11 100 0.181819
8 30 11 100 0.0769414
10 30 11 100 0.0139675
11 30 11 100 0.272727
0 31 11 100 0.117211
2 31 11 100 0.0909091
3 31 11 100 0.0645338
4 31 11 100 0.181818
6 31 11 100 0.0846265
7 31 11 100 0.181763
8 31 11 100 0.0909091
10 31 11 100 0.0909091
11 31 11 100 0.0973201
0 32 11 100 0.181494
4 32 11 100 0.272708
5 32 11 100 0.0909091
6 32 11 100 0.272676
8 32 11 100 0.0913062
9 32 11 100 2.6714e-06
10 32 11 100 0.0909046
0 33 11 100 0.0913994
4 33 11 100 0.181818
5 33 11 100 0.0909138
6 33 11 100 0.272221
7 33 11 100 0.272728
9 33 11 100 0.0909092
11 33 11 100 1.103e-05
0 34 11 100 0.0913996
4 34 11 100 0.272237
5 34 11 100 0.0909091
6 34 11 100 0.363636
7 34 11 100 0.0909091
11 34 11 100 0.0909091
0 35 11 100 2.38139e-05
5 35 11 100 0.333313
6 35 11 100 0.333333
7 35 11 100 0.111111
11 35 11 100 0.222219
0 36 11 100 0.125338
4 36 11 100 2.73513e-06
5 36 11 100 4.53071e-06
6 36 11 100 0.374997
7 36 11 100 3.56232e-06
8 36 11 100 0.249649
9 36 11 100 0.125
10 36 11 100 0.125
11 36 11 100 4.32428e-06
0 37 11 100 0.245506
2 37 11 100 0.25
6 37 11 100 0.254494
11 37 11 100 0.25
0 38 11 100 0.394443
2 38 11 100 0.251949
5 38 11 100 0.00044684
6 38 11 100 0.300065
8 38 11 100 3.84575e-05
9 38 11 100 0.053058
2 39 11 100 0.5
6 39 11 100 0.25
9 39 11 100 0.25
0 40 11 100 0.510524
3 40 11 100 0.250005
4 40 11 100 0.000101345
11 40 11 100 0.23937
0 41 11 100 0.25
4 41 11 100 0.25
5 41 11 100 0.25
6 41 11 100 0.25
2 42 11 100 0.25
3 42 11 100 0.25
5 42 11 100 0.25
6 42 11 100 0.25
2 43 11 100 0.25
3 43 11 100 0.25
5 43 11 100 0.25
8 43 11 100 0.249999
0 44 11 100 0.25
8 44 11 100 0.5
11 44 11 100 0.25
2 45 11 100 0.25
4 45 11 100 0.25
8 45 11 100 0.25
11 45 11 100 0.25
0 46 11 100 0.000243475
1 46 11 100 0.25
2 46 11 100 0.25
7 46 11 100 0.249757
8 46 11 100 0.25
2 47 11 100 0.5
4 47 11 100 0.25
8 47 11 100 0.25
0 48 11 100 9.18993e-05
5 48 11 100 0.25
6 48 11 100 0.25
9 48 11 100 0.249908
11 48 11 100 0.25
0 49 11 100 0.00257255
5 49 11 100 0.250006
11 49 11 100 0.747421
0 50 11 100 0.247891
2 50 11 100 0.25
4 50 11 100 0.00131441
5 50 11 100 0.25
8 50 11 100 0.25
9 50 11 100 0.000794658
1 51 11 100 0.25
2 51 11 100 0.25
5 51 11 100 0.25
11 51 11 100 0.25
0 52 11 100 0.249547
2 52 11 100 0.5
4 52 11 100 0.250453
0 53 11 100 0.25
2 53 11 100 0.25
7 53 11 100 0.5
0 54 11 100 3.15742e-05
1 54 11 100 0.25
5 54 11 100 0.249988
6 54 11 100 0.24998
7 54 11 100 0.25
0 55 11 100 0.000713502
2 55 11 100 0.499286
7 55 11 100 0.5
0 56 11 100 0.246354
1 56 11 100 0.25
4 56 11 100 0.25
7 56 11 100 0.25
11 56 11 100 0.00364609
0 57 11 100 0.249999
4 57 11 100 0.25
10 57 11 100 0.5
0 58 11 100 0.000221648
2 58 11 100 0.25
3 58 11 100 0.25
5 58 11 100 0.249997
8 58 11 100 0.249781
0 59 11 100 0.00841805
2 59 11 100 0.491582
4 59 11 100 0.5
1 60 11 100 0.25
4 60 11 100 0.5
8 60 11 100 0.25
0 61 11 100 0.00146773
4 61 11 100 0.5
6 61 11 100 0.248532
7 61 11 100 0.25
0 62 11 100 0.249907
3 62 11 100 9.27844e-05
4 62 11 100 0.25
7 62 11 100 0.25
10 62 11 100 0.25
0 63 11 100 6.89946e-06
2 63 11 100 0.25
4 63 11 100 0.249993
5 63 11 100 0.25
10 63 11 100 0.25
0 64 11 100 0.333333
1 64 11 100 0.333334
10 64 11 100 0.333334
1 65 11 100 0.666667
3 65 11 100 0.333333
1 66 11 100 0.333333
9 66 11 100 0.333333
10 66 11 100 0.333333
0 67 11 100 0.332935
5 67 11 100 0.000143681
9 67 11 100 0.666668
11 67 11 100 0.000253026
2 68 11 100 0.333334
9 68 11 100 0.666666
0 69 11 100 0.333268
4 69 11 100 1.10574e-05
8 69 11 100 0.333334
9 69 11 100 0.333387
7 70 11 100 0.333333
8 70 11 100 0.333333
10 70 11 100 0.333333
0 71 11 100 0.333333
7 71 11 100 0.333333
10 71 11 100 0.333333
0 72 11 100 0.333311
2 72 11 100 1.75376e-05
7 72 11 100 0.333333
8 72 11 100 0.333338
4 73 11 100 0.333333
6 73 11 100 0.333333
10 73 11 100 0.333333
1 74 11 100 1
0 75 11 100 0.495294
5 75 11 100 0.00466183
9 75 11 100 0.500001
11 75 11 100 4.29402e-05
1 76 11 100 1
10 77 11 100 1
0 78 11 100 0.000124148
3 78 11 100 0.499876
10 78 11 100 0.5
4 79 11 100 0.5
10 79 11 100 0.5
4 80 11 100 0.5
11 80 11 100 0.5
3 81 11 100 0.5
4 81 11 100 0.5
4 82 11 100 1
4 83 11 100 1
0 1 12 100 0.0526517
1 1 12 100 0.0804079
2 1 12 100 0.0489466
3 1 12 100 0.105263
5 1 12 100 0.0858833
6 1 12 100 0.1057
7 1 12 100 0.159162
10 1 12 100 0.00356582
12 1 12 100 0.358419
0 2 12 100 0.110182
1 2 12 100 0.0526467
3 2 12 100 0.104561
4 2 12 100 1.38357e-05
5 2 12 100 0.0521216
6 2 12 100 0.157843
7 2 12 100 0.105261
8 2 12 100 3.63196e-05
9 2 12 100 0.000951825
10 2 12 100 0.105003
11 2 12 100 0.0526367
12 2 12 100 0.258742
0 3 12 100 0.050751
1 3 12 100 0.0526316
3 3 12 100 0.157895
5 3 12 100 0.0526316
6 3 12 100 0.0526316
7 3 12 100 0.105263
8 3 12 100 0.00187941
10 3 12 100 0.0978828
11 3 12 100 0.0600118
12 3 12 100 0.368422
0 4 12 100 0.00919328
1 4 12 100 0.0666666
2 4 12 100 1.3709e-06
3 4 12 100 0.266667
5 4 12 100 0.0666667
7 4 12 100 0.130563
10 4 12 100 0.193577
11 4 12 100 1.8818e-06
12 4 12 100 0.266663
0 5 12 100 0.213214
1 5 12 100 0.0666667
3 5 12 100 0.133333
5 5 12 100 0.0666667
7 5 12 100 0.0666667
8 5 12 100 0.0666667
9 5 12 100 0.0666667
10 5 12 100 0.0666667
12 5 12 100 0.253454
0 6 12 100 0.214375
1 6 12 100 0.0714286
3 6 12 100 3.29242e-05
5 6 12 100 0.140547
6 6 12 100 0.0714296
7 6 12 100 0.0718848
9 6 12 100 0.0714286
10 6 12 100 0.214286
12 6 12 100 0.144587
0 7 12 100 0.213862
1 7 12 100 0.0714306
3 7 12 100 0.14289
4 7 12 100 0.142855
6 7 12 100 0.000364194
9 7 12 100 0.142856
10 7 12 100 0.142857
12 7 12 100 0.142884
0 8 12 100 0.115763
1 8 12 100 0.0769231
3 8 12 100 0.0769231
4 8 12 100 0.153846
6 8 12 100 0.0769231
8 8 12 100 0.153846
10 8 12 100 0.0769231
11 8 12 100 0.0380833
12 8 12 100 0.230769
0 9 12 100 0.135858
1 9 12 100 0.0769228
2 9 12 100 1.00907e-06
4 9 12 100 0.103618
6 9 12 100 0.153844
8 9 12 100 0.0769232
9 9 12 100 0.229117
10 9 12 100 0.0769232
12 9 12 100 0.146792
0 10 12 100 0.0769682
1 10 12 100 1.34641e-06
2 10 12 100 4.44752e-06
3 10 12 100 0.0745426
4 10 12 100 0.0784768
6 10 12 100 0.384566
7 10 12 100 0.0769231
8 10 12 100 0.0769231
9 10 12 100 0.154672
12 10 12 100 0.0769231
0 11 12 100 0.0776697
4 11 12 100 0.154017
5 11 12 100 0.153846
6 11 12 100 0.154463
7 11 12 100 0.0769231
8 11 12 100 0.0769179
10 11 12 100 0.152312
11 11 12 100 5.1816e-06
12 11 12 100 0.153846
0 12 12 100 0.146157
3 12 12 100 0.33333
5 12 12 100 0.0833325
6 12 12 100 0.166667
10 12 12 100 0.103847
12 12 12 100 0.166667
0 13 12 100 0.0833334
3 13 12 100 0.166665
5 13 12 100 0.0833334
6 13 12 100 0.250002
7 13 12 100 0.0833334
8 13 12 100 0.0833333
10 13 12 100 0.166666
12 13 12 100 0.0833333
0 14 12 100 0.205783
3 14 12 100 0.0911952
5 14 12 100 0.181818
6 14 12 100 0.181721
7 14 12 100 0.0909332
9 14 12 100 1.08859e-05
10 14 12 100 0.248539
0 15 12 100 0.1
3 15 12 100 0.1
6 15 12 100 0.2
8 15 12 100 0.3
9 15 12 100 0.1
10 15 12 100 0.2
0 16 12 100 0.10051
3 16 12 100 0.199819
4 16 12 100 0.1
6 16 12 100 0.399671
8 16 12 100 0.2
0 17 12 100 0.0314339
3 17 12 100 0.268566
4 17 12 100 0.1
5 17 12 100 0.1
6 17 12 100 0.3
8 17 12 100 0.2
0 18 12 100 1.48126e-06
2 18 12 100 0.1
3 18 12 100 0.299999
4 18 12 100 0.1
6 18 12 100 0.3
8 18 12 100 0.2
0 19 12 100 0.333333
2 19 12 100 0.222215
4 19 12 100 0.111111
6 19 12 100 0.111118
7 19 12 100 0.111111
12 19 12 100 0.111111
2 20 12 100 0.111111
3 20 12 100 0.111111
4 20 12 100 0.111111
8 20 12 100 0.555556
11 20 12 100 0.111111
0 21 12 100 0.11563
3 21 12 100 0.217706
4 21 12 100 0.111111
6 21 12 100 0.111111
8 21 12 100 0.332703
12 21 12 100 0.111738
2 22 12 100 0.25
3 22 12 100 0.125
4 22 12 100 0.125
5 22 12 100 0.125
6 22 12 100 0.125
9 22 12 100 0.25
0 23 12 100 0.251046
2 23 12 100 0.373954
5 23 12 100 0.25
11 23 12 100 0.125
0 24 12 100 0.136508
2 24 12 100 0.488492
3 24 12 100 0.125
4 24 12 100 0.25
2 25 12 100 0.125
3 25 12 100 0.125
4 25 12 100 0.25
5 25 12 100 0.125
6 25 12 100 0.125
10 25 12 100 0.25
0 26 12 100 0.121697
2 26 12 100 0.125
3 26 12 100 0.125
5 26 12 100 0.25
8 26 12 100 0.249996
10 26 12 100 0.125
12 26 12 100 0.00330635
0 27 12 100 0.25
2 27 12 100 0.25
4 27 12 100 0.25
8 27 12 100 0.125
10 27 12 100 0.125
0 28 12 100 0.374987
2 28 12 100 0.125
4 28 12 100 0.25
6 28 12 100 0.125
8 28 12 100 0.124993
9 28 12 100 2.00478e-05
0 29 12 100 0.000127269
1 29 12 100 0.125
2 29 12 100 0.125
3 29 12 100 0.249868
6 29 12 100 0.125
8 29 12 100 0.125
9 29 12 100 0.125
11 29 12 100 0.125
12 29 12 100 5.07169e-06
0 30 12 100 0.00393516
1 30 12 100 0.121098
2 30 12 100 0.25
3 30 12 100 0.249967
4 30 12 100 0.125
8 30 12 100 0.25
0 31 12 100 0.125
2 31 12 100 0.499999
6 31 12 100 0.125
8 31 12 100 0.25
0 32 12 100 0.125009
1 32 12 100 0.125
2 32 12 100 0.125
3 32 12 100 0.125
6 32 12 100 0.125
8 32 12 100 0.249991
10 32 12 100 0.125
0 33 12 100 3.93966e-06
2 33 12 100 0.125
3 33 12 100 0.125
4 33 12 100 0.124996
7 33 12 100 0.125
8 33 12 100 0.125
9 33 12 100 0.125
11 33 12 100 0.25
0 34 12 100 0.125054
2 34 12 100 0.124936
3 34 12 100 0.125
4 34 12 100 0.25
5 34 12 100 0.25
7 34 12 100 0.125
10 34 12 100 9.72669e-06
3 35 12 100 0.125
4 35 12 100 0.375001
5 35 12 100 0.25
8 35 12 100 0.125
10 35 12 100 0.124999
0 36 12 100 0.124213
2 36 12 100 0.250018
4 36 12 100 0.250768
5 36 12 100 0.25
9 36 12 100 0.125
0 37 12 100 0.124999
2 37 12 100 0.12516
4 37 12 100 0.125
5 37 12 100 0.374841
11 37 12 100 0.25
4 38 12 100 0.249953
5 38 12 100 0.25
6 38 12 100 0.125
8 38 12 100 0.125
9 38 12 100 0.125
12 38 12 100 0.125047
0 39 12 100 0.125
4 39 12 100 0.375
5 39 12 100 0.125
8 39 12 100 0.125
10 39 12 100 0.125
11 39 12 100 0.125
0 40 12 100 0.242729
1 40 12 100 1.35449e-05
2 40 12 100 0.000395073
3 40 12 100 0.042958
4 40 12 100 0.285777
5 40 12 100 0.14246
12 40 12 100 0.285668
0 41 12 100 0.708392
2 41 12 100 3.39314e-05
4 41 12 100 0.142857
6 41 12 100 0.00513156
8 41 12 100 8.70218e-06
11 41 12 100 0.000707789
12 41 12 100 0.142869
0 42 12 100 0.142937
3 42 12 100 0.285635
4 42 12 100 0.142857
5 42 12 100 0.142857
9 42 12 100 0.285714
4 43 12 100 0.142857
5 43 12 100 0.142857
8 43 12 100 0.285715
12 43 12 100 0.428571
0 44 12 100 0.143003
4 44 12 100 0.285714
5 44 12 100 0.142857
6 44 12 100 8.08486e-05
9 44 12 100 0.142857
11 44 12 100 0.142857
12 44 12 100 0.142631
0 45 12 100 0.142856
4 45 12 100 0.142857
6 45 12 100 0.142857
12 45 12 100 0.571429
0 46 12 100 8.17516e-06
5 46 12 100 0.285714
8 46 12 100 0.142849
10 46 12 100 0.285714
12 46 12 100 0.285714
0 47 12 100 0.27838
1 47 12 100 0.142857
2 47 12 100 0.142857
8 47 12 100 0.00510126
12 47 12 100 0.430805
0 48 12 100 0.143097
3 48 12 100 0.142857
6 48 12 100 0.142857
7 48 12 100 0.142618
10 48 12 100 0.142857
12 48 12 100 0.285714
0 49 12 100 0.166478
5 49 12 100 0.333333
6 49 12 100 0.333333
10 49 12 100 0.166667
12 49 12 100 0.000188228
2 50 12 100 0.166667
5 50 12 100 0.5
6 50 12 100 0.166667
12 50 12 100 0.166667
0 51 12 100 0.039363
2 51 12 100 0.326466
6 51 12 100 0.165963
8 51 12 100 0.166667
11 51 12 100 0.134254
12 51 12 100 0.167287
2 52 12 100 0.166666
10 52 12 100 0.333334
11 52 12 100 0.5
0 53 12 100 0.599989
1 53 12 100 0.2
2 53 12 100 0.200001
11 53 12 100 2.37656e-06
12 53 12 100 7.2083e-06
4 54 12 100 0.2
7 54 12 100 0.2
10 54 12 100 0.6
5 55 12 100 0.2
6 55 12 100 0.2
8 55 12 100 0.2
10 55 12 100 0.2
12 55 12 100 0.2
8 56 12 100 0.2
10 56 12 100 0.4
11 56 12 100 0.2
12 56 12 100 0.2
0 57 12 100 0.599903
2 57 12 100 0.199999
8 57 12 100 9.06444e-05
12 57 12 100 0.200007
0 58 12 100 0.000117098
2 58 12 100 0.199755
5 58 12 100 0.2
6 58 12 100 0.000127683
8 58 12 100 0.4
9 58 12 100 0.2
0 59 12 100 4.87102e-05
5 59 12 100 0.4
10 59 12 100 0.2
11 59 12 100 0.199951
12 59 12 100 0.2
0 60 12 100 0.600695
2 60 12 100 3.79495e-05
8 60 12 100 0.2
10 60 12 100 0.199262
12 60 12 100 5.07324e-06
0 61 12 100 6.28404e-05
1 61 12 100 0.2
2 61 12 100 0.399939
9 61 12 100 0.2
11 61 12 100 0.199997
0 62 12 100 2.17752e-05
2 62 12 100 0.199978
4 62 12 100 0.2
9 62 12 100 0.6
0 63 12 100 0.497866
2 63 12 100 0.00125997
3 63 12 100 0.249989
6 63 12 100 0.000861852
8 63 12 100 0.250023
2 64 12 100 3.11607e-06
6 64 12 100 0.249997
9 64 12 100 0.5
12 64 12 100 0.25
0 65 12 100 6.49523e-05
3 65 12 100 0.499935
9 65 12 100 0.5
8 66 12 100 0.5
9 66 12 100 0.5
0 67 12 100 8.15885e-06
3 67 12 100 0.333325
7 67 12 100 0.333333
9 67 12 100 0.333333
0 68 12 100 0.00015966
1 68 12 100 0.333333
3 68 12 100 0.333174
8 68 12 100 0.333333
0 69 12 100 0.16365
1 69 12 100 0.333333
11 69 12 100 0.503016
0 70 12 100 1.95811e-05
3 70 12 100 0.333334
7 70 12 100 0.666646
0 71 12 100 4.86563e-06
3 71 12 100 0.666662
7 71 12 100 0.333333
0 72 12 100 0.333334
7 72 12 100 0.333332
8 72 12 100 0.333334
3 73 12 100 0.333333
4 73 12 100 0.333333
8 73 12 100 0.333333
0 74 12 100 0.000174594
2 74 12 100 4.64148e-06
7 74 12 100 0.333282
8 74 12 100 0.666539
2 75 12 100 0.00031265
6 75 12 100 0.666354
7 75 12 100 0.333333
3 76 12 100 0.000233753
7 76 12 100 0.333333
9 76 12 100 0.333333
10 76 12 100 0.3331
5 77 12 100 0.333333
7 77 12 100 0.333333
11 77 12 100 0.333333
5 78 12 100 0.333333
7 78 12 100 0.333333
8 78 12 100 0.333333
0 79 12 100 0.00126636
2 79 12 100 0.33198
5 79 12 100 0.333333
6 79 12 100 0.000111188
11 79 12 100 0.333309
3 80 12 100 0.3331
6 80 12 100 0.333333
10 80 12 100 0.000233753
11 80 12 100 0.333333
4 81 12 100 0.666662
10 81 12 100 0.333333
12 81 12 100 4.26256e-06
0 82 12 100 0.667111
2 82 12 100 0.332686
6 82 12 100 0.000202552
3 83 12 100 0.666667
10 83 12 100 0.333333
0 84 12 100 0.333148
4 84 12 100 0.333333
8 84 12 100 0.333323
11 84 12 100 0.000194852
0 85 12 100 0.333328
3 85 12 100 0.333333
7 85 12 100 5.15432e-06
11 85 12 100 0.333333
4 86 12 100 0.666667
6 86 12 100 0.333333
3 87 12 100 0.333333
10 87 12 100 0.666667
8 88 12 100 0.333333
9 88 12 100 0.333333
10 88 12 100 0.333333
5 89 12 100 0.500001
8 89 12 100 0.499999
9 90 12 100 1
0 91 12 100 0.469699
2 91 12 100 0.0282706
5 91 12 100 0.00202044
6 91 12 100 7.48889e-06
9 91 12 100 0.500002
0 92 12 100 0.000349491
6 92 12 100 0.999651
9 93 12 100 0.5
10 93 12 100 0.5
7 94 12 100 0.5
10 94 12 100 0.5
0 95 12 100 0.00119889
1 95 12 100 0.498801
5 95 12 100 0.5
0 96 12 100 0.5
5 96 12 100 0.5
5 97 12 100 1
4 98 12 100 0.499994
5 98 12 100 0.5
12 98 12 100 5.58171e-06
0 99 12 100 1
5 100 12 100 0.500002
10 100 12 100 0.499998
0 1 13 100 0.0685299
1 1 13 100 0.140416
2 1 13 100 0.069328
3 1 13 100 0.0334882
7 1 13 100 0.26546
8 1 13 100 0.169998
9 1 13 100 0.0739192
13 1 13 100 0.178861
0 2 13 100 2.43981e-05
1 2 13 100 0.0666809
2 2 13 100 0.0666719
3 2 13 100 0.0389997
5 2 13 100 0.00426131
6 2 13 100 0.0623795
7 2 13 100 0.200104
8 2 13 100 0.133443
9 2 13 100 0.0723416
11 2 13 100 0.0666667
13 2 13 100 0.288427
0 3 13 100 0.134577
1 3 13 100 0.0666667
6 3 13 100 0.133333
7 3 13 100 0.133249
8 3 13 100 0.0666667
9 3 13 100 0.0666662
11 3 13 100 0.0666667
13 3 13 100 0.332174
0 4 13 100 0.2061
1 4 13 100 0.0666861
5 4 13 100 5.42411e-06
6 4 13 100 0.0667452
7 4 13 100 0.133375
8 4 13 100 0.131471
9 4 13 100 5.23427e-06
10 4 13 100 1.03065e-06
11 4 13 100 5.23427e-06
12 4 13 100 0.0689184
13 4 13 100 0.326687
0 5 13 100 0.118094
1 5 13 100 0.103505
2 5 13 100 2.35406e-06
3 5 13 100 5.42987e-05
5 5 13 100 7.096e-06
6 5 13 100 0.0767425
7 5 13 100 0.22822
8 5 13 100 0.242601
10 5 13 100 3.62593e-06
11 5 13 100 1.10759e-06
13 5 13 100 0.23077
0 6 13 100 0.0769288
4 6 13 100 0.0769231
6 6 13 100 0.0769641
7 6 13 100 0.230722
8 6 13 100 0.307692
9 6 13 100 0.0769231
13 6 13 100 0.153846
0 7 13 100 0.0901405
2 7 13 100 6.55172e-06
4 7 13 100 0.0769231
6 7 13 100 0.0769263
7 7 13 100 0.153277
8 7 13 100 0.307692
9 7 13 100 0.00167158
10 7 13 100 0.0640601
11 7 13 100 0.000105177
12 7 13 100 0.0753507
13 7 13 100 0.153846
0 8 13 100 0.0769231
4 8 13 100 0.0769231
5 8 13 100 0.153846
6 8 13 100 0.0769265
7 8 13 100 0.153843
8 8 13 100 0.153846
9 8 13 100 0.0769231
12 8 13 100 0.0769231
13 8 13 100 0.153846
0 9 13 100 0.181814
2 9 13 100 0.0909104
4 9 13 100 0.0909091
5 9 13 100 0.0909091
6 9 13 100 0.0909043
7 9 13 100 0.0909091
9 9 13 100 0.0909091
12 9 13 100 5.20971e-06
13 9 13 100 0.272729
0 10 13 100 0.192067
1 10 13 100 0.111314
2 10 13 100 0.0299911
4 10 13 100 0.222242
5 10 13 100 0.222068
6 10 13 100 0.111111
9 10 13 100 0.111111
12 10 13 100 4.16004e-05
13 10 13 100 5.48105e-05
0 11 13 100 0.363758
1 11 13 100 0.375001
2 11 13 100 2.62547e-05
4 11 13 100 0.123474
8 11 13 100 0.125
10 11 13 100 0.00111097
11 11 13 100 7.62599e-06
13 11 13 100 0.0116217
0 12 13 100 0.205469
1 12 13 100 0.25
2 12 13 100 8.3142e-06
4 12 13 100 0.125
5 12 13 100 0.00127852
6 12 13 100 0.125365
7 12 13 100 0.125004
8 12 13 100 0.126267
10 12 13 100 3.0853e-06
11 12 13 100 0.0232385
12 12 13 100 0.014782
13 12 13 100 0.00358348
0 13 13 100 0.249528
1 13 13 100 0.125
2 13 13 100 1.08875e-05
4 13 13 100 0.125
6 13 13 100 0.125005
7 13 13 100 0.250005
8 13 13 100 0.125
10 13 13 100 7.769e-05
11 13 13 100 0.00016844
12 13 13 100 0.000190736
13 13 13 100 1.35173e-05
0 14 13 100 0.363164
1 14 13 100 0.125
3 14 13 100 1.24012e-05
4 14 13 100 0.000451844
5 14 13 100 0.000310691
7 14 13 100 0.124618
9 14 13 100 0.125
12 14 13 100 0.00440351
13 14 13 100 0.257039
0 15 13 100 0.250342
1 15 13 100 3.76884e-06
2 15 13 100 0.000384167
5 15 13 100 0.249336
7 15 13 100 0.250001
11 15 13 100 0.125013
13 15 13 100 0.12492
1 16 13 100 0.125
3 16 13 100 0.125
5 16 13 100 0.375
6 16 13 100 2.01675e-06
7 16 13 100 0.124998
9 16 13 100 0.125
13 16 13 100 0.125
0 17 13 100 0.333333
1 17 13 100 0.166667
8 17 13 100 0.166667
11 17 13 100 0.166667
13 17 13 100 0.166667
5 18 13 100 0.333334
8 18 13 100 0.333334
13 18 13 100 0.333332
0 19 13 100 0.200256
4 19 13 100 0.199991
5 19 13 100 0.399692
10 19 13 100 5.23204e-05
11 19 13 100 0.200008
1 20 13 100 0.399996
4 20 13 100 8.79236e-06
5 20 13 100 0.399962
11 20 13 100 0.200018
12 20 13 100 4.31058e-06
13 20 13 100 1.05961e-05
0 21 13 100 0.221694
3 21 13 100 0.2
5 21 13 100 0.2
7 21 13 100 0.00767624
9 21 13 100 0.2
11 21 13 100 0.17063
1 22 13 100 0.2
5 22 13 100 0.4
7 22 13 100 0.2
11 22 13 100 0.2
0 23 13 100 6.56967e-06
5 23 13 100 0.4
6 23 13 100 0.2
7 23 13 100 1.13891e-05
8 23 13 100 0.199989
13 23 13 100 0.199993
0 24 13 100 0.200033
2 24 13 100 0.2
6 24 13 100 0.2
8 24 13 100 0.199966
10 24 13 100 0.2
9 25 13 100 0.333333
10 25 13 100 0.333333
12 25 13 100 0.333333
0 26 13 100 0.333333
2 26 13 100 0.333333
10 26 13 100 0.333333
5 27 13 100 0.333333
9 27 13 100 0.333333
10 27 13 100 0.333333
2 28 13 100 0.333333
9 28 13 100 0.666667
2 29 13 100 0.333333
9 29 13 100 0.333333
10 29 13 100 0.333333
2 30 13 100 0.5
9 30 13 100 0.5
0 31 13 100 0.49995
2 31 13 100 0.5
6 31 13 100 5.00539e-05
2 32 13 100 1
0 33 13 100 1.20346e-05
2 33 13 100 0.5
9 33 13 100 0.499988
0 34 13 100 0.499999
4 34 13 100 0.500001
2 35 13 100 0.5
12 35 13 100 0.5
0 36 13 100 0.499993
4 36 13 100 0.5
7 36 13 100 6.97035e-06
10 37 13 100 0.5
11 37 13 100 0.5
9 38 13 100 0.5
11 38 13 100 0.5
0 39 13 100 1.05079e-05
11 39 13 100 0.99999
0 40 13 100 0.404862
5 40 13 100 0.500001
12 40 13 100 0.0951379
2 41 13 100 0.500001
6 41 13 100 0.499999
9 42 13 100 1
2 43 13 100 0.5
9 43 13 100 0.5
9 44 13 100 0.5
11 44 13 100 0.5
0 45 13 100 0.000764129
7 45 13 100 0.499236
13 45 13 100 0.5
9 46 13 100 0.500001
11 46 13 100 0.499999
2 47 13 100 0.5
9 47 13 100 0.5
0 48 13 100 9.26259e-05
5 48 13 100 0.499791
6 48 13 100 0.499907
9 48 13 100 0.00020943
9 49 13 100 0.500001
13 49 13 100 0.499999
0 50 13 100 0.000233848
2 50 13 100 0.5
12 50 13 100 0.499766
0 51 13 100 0.5
2 51 13 100 0.5
0 52 13 100 1.67054e-05
6 52 13 100 0.499983
9 52 13 100 0.5
2 53 13 100 0.5
9 53 13 100 0.5
0 54 13 100 0.499994
9 54 13 100 6.20073e-06
11 54 13 100 0.5
0 55 13 100 0.0519716
6 55 13 100 0.448028
11 55 13 100 0.5
1 56 13 100 0.5
11 56 13 100 0.5
0 57 13 100 0.500011
9 57 13 100 0.499989
0 58 13 100 0.492947
7 58 13 100 0.507052
6 59 13 100 0.5
7 59 13 100 0.5
0 60 13 100 0.0266084
6 60 13 100 0.973392
6 61 13 100 0.5
11 61 13 100 0.5
6 62 13 100 0.5
11 62 13 100 0.5
0 63 13 100 1
0 64 13 100 5.55763e-06
6 64 13 100 0.5
13 64 13 100 0.499994
7 65 13 100 1
0 66 13 100 0.00282845
7 66 13 100 0.497171
8 66 13 100 0.500001
5 67 13 100 0.5
6 67 13 100 0.5
1 68 13 100 0.5
5 68 13 100 0.5
4 69 13 100 0.500001
8 69 13 100 0.499999
5 70 13 100 0.000209351
7 70 13 100 0.5
9 70 13 100 0.499791
0 71 13 100 0.499993
8 71 13 100 0.5
10 71 13 100 7.43902e-06
5 72 13 100 1
4 73 13 100 0.5
5 73 13 100 0.5
6 74 13 100 0.5
9 74 13 100 0.5
5 75 13 100 0.5
6 75 13 100 0.5
0 76 13 100 0.000588569
5 76 13 100 0.5
7 76 13 100 0.499411
5 77 13 100 0.5
11 77 13 100 0.5
0 78 13 100 0.499999
11 78 13 100 0.500001
5 79 13 100 0.5
11 79 13 100 0.5
5 80 13 100 0.5
6 80 13 100 0.5
0 81 13 100 0.00126817
8 81 13 100 0.5
10 81 13 100 0.498732
5 82 13 100 0.5
8 82 13 100 0.5
7 83 13 100 1
0 84 13 100 1.62636e-05
7 84 13 100 0.499771
10 84 13 100 0.500212
7 85 13 100 1
0 86 13 100 9.79248e-05
6 86 13 100 0.499902
10 86 13 100 0.5
3 87 13 100 0.5
8 87 13 100 0.500001
3 88 13 100 0.5
7 88 13 100 0.000228048
10 88 13 100 0.499771
0 89 13 100 5.37266e-05
6 89 13 100 0.499946
10 89 13 100 0.5
3 90 13 100 0.5
10 90 13 100 0.5
3 91 13 100 0.5
7 91 13 100 0.5
3 92 13 100 1
3 93 13 100 0.5
7 93 13 100 0.5
0 94 13 100 0.500037
10 94 13 100 0.499963
13 95 13 100 1
0 96 13 100 0.499971
10 96 13 100 0.500029
13 97 13 100 1
0 98 13 100 0.5
13 98 13 100 0.5
0 99 13 100 0.499951
6 99 13 100 4.8991e-05
13 99 13 100 0.5
0 100 13 100 0.5
5 100 13 100 0.5
0 1 14 100 0.0797064
1 1 14 100 0.00631284
2 1 14 100 0.0388577
4 1 14 100 0.158684
6 1 14 100 0.00881658
7 1 14 100 0.0385109
8 1 14 100 0.0384616
9 1 14 100 0.0386358
10 1 14 100 0.100564
11 1 14 100 1.20982e-05
12 1 14 100 0.0769649
13 1 14 100 1.19446e-05
14 1 14 100 0.414462
0 2 14 100 0.0942949
1 2 14 100 0.000770612
2 2 14 100 0.000863984
3 2 14 100 0.0107915
4 2 14 100 0.153846
6 2 14 100 2.70925e-05
7 2 14 100 0.00544512
8 2 14 100 0.0387751
9 2 14 100 0.0188871
10 2 14 100 0.153846
11 2 14 100 0.0384616
12 2 14 100 0.0769232
13 2 14 100 0.000211902
14 2 14 100 0.406855
0 3 14 100 0.0414903
1 3 14 100 1.4279e-06
2 3 14 100 0.0400075
4 3 14 100 0.15851
6 3 14 100 0.0400047
8 3 14 100 0.08
9 3 14 100 0.04
10 3 14 100 0.12
11 3 14 100 0.04
12 3 14 100 0.080093
14 3 14 100 0.359894
0 4 14 100 0.0549895
4 4 14 100 0.136253
7 4 14 100 0.0454484
8 4 14 100 0.080412
9 4 14 100 0.0471879
10 4 14 100 0.0909073
11 4 14 100 0.136292
12 4 14 100 0.135673
14 4 14 100 0.272838
0 5 14 100 0.224506
1 5 14 100 1.21313e-06
2 5 14 100 0.0454544
3 5 14 100 0.0454553
4 5 14 100 0.0454545
5 5 14 100 1.41092e-06
7 5 14 100 0.0909092
8 5 14 100 0.041706
10 5 14 100 0.0960153
11 5 14 100 0.136365
12 5 14 100 0.0454546
13 5 14 100 3.78089e-06
14 5 14 100 0.228673
0 6 14 100 0.188682
1 6 14 100 0.0454546
3 6 14 100 0.0454546
4 6 14 100 0.0454546
7 6 14 100 0.0909091
8 6 14 100 0.0909092
9 6 14 100 0.0454546
10 6 14 100 0.0909092
11 6 14 100 0.174954
14 6 14 100 0.181818
0 7 14 100 0.136301
1 7 14 100 0.0454933
2 7 14 100 0.000322768
3 7 14 100 0.0454614
4 7 14 100 0.0451318
7 7 14 100 0.0454546
8 7 14 100 0.0454011
9 7 14 100 0.0454546
10 7 14 100 0.0454546
11 7 14 100 0.227241
12 7 14 100 0.0906697
14 7 14 100 0.227614
0 8 14 100 0.184146
1 8 14 100 0.0454546
2 8 14 100 0.0454541
3 8 14 100 0.0914342
6 8 14 100 1.02961e-06
7 8 14 100 0.0454573
8 8 14 100 0.135317
10 8 14 100 0.0454563
11 8 14 100 0.136335
12 8 14 100 0.135839
13 8 14 100 6.99666e-06
14 8 14 100 0.135099
0 9 14 100 0.0957776
1 9 14 100 0.0952381
2 9 14 100 0.0952727
3 9 14 100 0.0095632
7 9 14 100 0.0380558
8 9 14 100 0.190465
9 9 14 100 0.047619
11 9 14 100 0.142857
12 9 14 100 0.189977
14 9 14 100 0.0951748
0 10 14 100 0.204204
1 10 14 100 0.166946
4 10 14 100 0.0555556
5 10 14 100 6.35442e-07
6 10 14 100 0.0177488
7 10 14 100 0.0555556
8 10 14 100 0.0555556
9 10 14 100 0.0555556
10 10 14 100 0.0555556
11 10 14 100 0.0555556
12 10 14 100 0.277662
13 10 14 100 8.17688e-07
14 10 14 100 0.000104438
0 11 14 100 0.0560708
1 11 14 100 0.10652
2 11 14 100 0.0555513
3 11 14 100 4.27479e-06
6 11 14 100 0.0555553
7 11 14 100 0.0555556
8 11 14 100 0.166667
11 11 14 100 0.115187
12 11 14 100 0.333333
14 11 14 100 0.0555556
0 12 14 100 0.0104972
1 12 14 100 0.117647
2 12 14 100 0.0588235
7 12 14 100 0.17422
8 12 14 100 0.117647
10 12 14 100 0.117642
11 12 14 100 0.117647
12 12 14 100 0.227052
14 12 14 100 0.0588235
0 13 14 100 0.25
1 13 14 100 0.125
2 13 14 100 0.0625
6 13 14 100 3.76326e-05
7 13 14 100 0.0625
8 13 14 100 0.124962
10 13 14 100 0.125
11 13 14 100 0.0625
12 13 14 100 0.1875
0 14 14 100 0.133349
1 14 14 100 0.2
2 14 14 100 0.133333
6 14 14 100 0.0666509
7 14 14 100 0.133333
10 14 14 100 0.133333
11 14 14 100 0.133333
12 14 14 100 0.0666667
0 15 14 100 0.201642
1 15 14 100 0.133333
2 15 14 100 0.196281
3 15 14 100 6.68955e-07
4 15 14 100 1.31813e-06
5 15 14 100 7.27322e-07
8 15 14 100 0.0666667
9 15 14 100 0.068662
11 15 14 100 0.133329
12 15 14 100 0.200055
14 15 14 100 2.83445e-05
0 16 14 100 0.213625
1 16 14 100 0.142857
3 16 14 100 0.0714286
4 16 14 100 0.142856
6 16 14 100 0.0714286
10 16 14 100 0.0714286
11 16 14 100 0.142857
12 16 14 100 0.142857
13 16 14 100 8.3941e-06
14 16 14 100 0.000653314
0 17 14 100 0.0714286
1 17 14 100 0.142857
2 17 14 100 0.0714286
3 17 14 100 0.0714286
6 17 14 100 0.142857
8 17 14 100 0.285714
9 17 14 100 0.0714286
11 17 14 100 0.0714286
12 17 14 100 0.0714286
0 18 14 100 0.301451
1 18 14 100 0.153846
2 18 14 100 0.153806
3 18 14 100 0.0769231
4 18 14 100 0.0769186
6 18 14 100 0.0770725
8 18 14 100 0.0769232
10 18 14 100 0.0769262
12 18 14 100 0.00613318
0 19 14 100 0.15347
1 19 14 100 0.0769231
3 19 14 100 0.0769231
4 19 14 100 0.0769231
8 19 14 100 0.230769
9 19 14 100 0.0769231
10 19 14 100 0.0769231
11 19 14 100 0.230769
14 19 14 100 0.000376423
0 20 14 100 0.083445
1 20 14 100 0.0833334
2 20 14 100 0.0833334
3 20 14 100 0.0833334
4 20 14 100 0.0833334
6 20 14 100 0.0833334
8 20 14 100 0.0833326
10 20 14 100 0.166555
11 20 14 100 0.25
0 21 14 100 0.083989
1 21 14 100 0.0833357
2 21 14 100 0.166667
3 21 14 100 0.0833334
4 21 14 100 0.0833334
5 21 14 100 0.0833334
8 21 14 100 0.0830577
10 21 14 100 0.0833331
11 21 14 100 0.249342
13 21 14 100 0.000275693
0 22 14 100 3.74372e-06
1 22 14 100 0.0833333
2 22 14 100 0.166667
3 22 14 100 0.166667
4 22 14 100 0.0833333
6 22 14 100 0.0833333
10 22 14 100 0.166667
11 22 14 100 0.166667
12 22 14 100 0.0833296
0 23 14 100 0.0833334
2 23 14 100 0.24993
4 23 14 100 0.166667
6 23 14 100 0.166667
8 23 14 100 0.0833341
11 23 14 100 0.166667
12 23 14 100 0.0833334
13 23 14 100 6.91727e-05
0 24 14 100 0.450438
1 24 14 100 0.0909119
2 24 14 100 0.0909091
4 24 14 100 0.0909091
5 24 14 100 2.60902e-06
10 24 14 100 0.0909091
11 24 14 100 0.092221
12 24 14 100 0.0936987
0 25 14 100 0.363321
1 25 14 100 0.0909092
3 25 14 100 0.000228788
5 25 14 100 0.0909092
6 25 14 100 0.0909475
7 25 14 100 0.0909092
8 25 14 100 8.2769e-06
9 25 14 100 0.0909092
10 25 14 100 0.0909044
12 25 14 100 0.0909083
13 25 14 100 4.05546e-05
14 25 14 100 4.81596e-06
1 26 14 100 0.0909091
2 26 14 100 0.181818
4 26 14 100 0.0909091
5 26 14 100 0.0909091
6 26 14 100 0.0909091
8 26 14 100 0.272727
10 26 14 100 0.181818
0 27 14 100 0.0909091
1 27 14 100 0.0909091
2 27 14 100 0.181818
4 27 14 100 0.181818
6 27 14 100 0.0909091
8 27 14 100 0.272727
10 27 14 100 0.0909091
0 28 14 100 0.1
1 28 14 100 0.1
2 28 14 100 0.1
5 28 14 100 0.1
8 28 14 100 0.2
9 28 14 100 0.2
10 28 14 100 0.1
12 28 14 100 0.1
0 29 14 100 0.285704
2 29 14 100 0.1
5 29 14 100 0.1
6 29 14 100 0.1
8 29 14 100 0.214296
9 29 14 100 0.1
10 29 14 100 0.1
0 30 14 100 0.293371
1 30 14 100 0.1
2 30 14 100 0.00590795
4 30 14 100 0.100002
5 30 14 100 0.0999973
6 30 14 100 0.000719405
9 30 14 100 0.299989
12 30 14 100 1.02805e-06
13 30 14 100 8.31791e-06
14 30 14 100 0.100004
0 31 14 100 0.1
1 31 14 100 0.0999999
4 31 14 100 0.1
6 31 14 100 0.0999997
7 31 14 100 0.1
8 31 14 100 0.2
9 31 14 100 0.2
14 31 14 100 0.1
0 32 14 100 0.1011
1 32 14 100 0.1
3 32 14 100 0.0988995
4 32 14 100 0.2
5 32 14 100 0.1
8 32 14 100 0.1
9 32 14 100 0.1
11 32 14 100 1.54126e-06
12 32 14 100 0.099999
14 32 14 100 0.1
0 33 14 100 0.000193755
1 33 14 100 0.111111
5 33 14 100 0.111111
6 33 14 100 0.110963
9 33 14 100 0.444629
14 33 14 100 0.221992
0 34 14 100 0.000582724
4 34 14 100 0.111111
5 34 14 100 0.11108
6 34 14 100 0.111145
9 34 14 100 0.44441
14 34 14 100 0.22167
0 35 14 100 0.0913753
2 35 14 100 0.209015
5 35 14 100 0.144074
6 35 14 100 0.111111
9 35 14 100 0.111111
12 35 14 100 0.11109
13 35 14 100 1.96586e-06
14 35 14 100 0.222222
0 36 14 100 0.100817
1 36 14 100 0.110859
2 36 14 100 0.111133
5 36 14 100 0.190959
6 36 14 100 0.261254
7 36 14 100 2.24318e-06
9 36 14 100 0.113635
13 36 14 100 1.94917e-06
14 36 14 100 0.111339
2 37 14 100 0.222222
5 37 14 100 0.111111
6 37 14 100 0.222222
8 37 14 100 0.111111
9 37 14 100 0.222222
14 37 14 100 0.111111
2 38 14 100 0.111111
5 38 14 100 0.11111
6 38 14 100 0.111111
9 38 14 100 0.222222
14 38 14 100 0.444445
6 39 14 100 0.222222
8 39 14 100 0.111111
9 39 14 100 0.222222
12 39 14 100 0.222222
14 39 14 100 0.222222
0 40 14 100 0.624684
8 40 14 100 0.000368871
10 40 14 100 0.000116532
12 40 14 100 0.250012
14 40 14 100 0.124819
0 41 14 100 0.000296767
2 41 14 100 0.125
6 41 14 100 0.249701
9 41 14 100 0.125002
11 41 14 100 0.125
12 41 14 100 0.125
14 41 14 100 0.25
0 42 14 100 8.6204e-05
2 42 14 100 0.125
6 42 14 100 0.249914
11 42 14 100 0.125
12 42 14 100 0.125
14 42 14 100 0.375
0 43 14 100 0.142857
1 43 14 100 0.000164356
2 43 14 100 0.285714
6 43 14 100 0.28555
8 43 14 100 0.142857
12 43 14 100 0.142857
0 44 14 100 0.142857
4 44 14 100 0.142857
6 44 14 100 0.285713
8 44 14 100 0.142857
10 44 14 100 0.142857
11 44 14 100 0.142857
0 45 14 100 0.183361
3 45 14 100 0.388067
6 45 14 100 0.285714
8 45 14 100 0.142857
0 46 14 100 0.499446
3 46 14 100 0.166669
4 46 14 100 0.166667
14 46 14 100 0.167218
0 47 14 100 0.16667
1 47 14 100 0.166472
3 47 14 100 0.166667
6 47 14 100 0.166858
8 47 14 100 0.166667
10 47 14 100 0.166664
14 47 14 100 2.33316e-06
0 48 14 100 0.166667
2 48 14 100 0.166667
4 48 14 100 0.166667
6 48 14 100 0.166667
11 48 14 100 0.166667
12 48 14 100 0.166665
0 49 14 100 0.0102502
3 49 14 100 0.166667
10 49 14 100 0.323076
12 49 14 100 0.500007
0 50 14 100 0.166667
2 50 14 100 0.166667
3 50 14 100 0.166667
5 50 14 100 0.166667
7 50 14 100 0.166667
14 50 14 100 0.166667
0 51 14 100 0.333303
1 51 14 100 0.166666
6 51 14 100 2.98361e-05
7 51 14 100 0.166667
10 51 14 100 0.166667
14 51 14 100 0.166667
0 52 14 100 0.166606
3 52 14 100 0.166667
5 52 14 100 4.02034e-05
7 52 14 100 0.166667
10 52 14 100 0.166667
11 52 14 100 1.94539e-05
12 52 14 100 0.166667
14 52 14 100 0.166667
0 53 14 100 0.336398
2 53 14 100 2.66015e-06
3 53 14 100 0.166667
4 53 14 100 0.166671
10 53 14 100 0.16348
12 53 14 100 0.000120217
14 53 14 100 0.166661
0 54 14 100 0.16708
7 54 14 100 0.166667
10 54 14 100 0.166667
12 54 14 100 0.333333
14 54 14 100 0.166254
3 55 14 100 0.166667
7 55 14 100 0.166667
8 55 14 100 0.166667
9 55 14 100 0.166667
10 55 14 100 0.166667
12 55 14 100 0.166667
0 56 14 100 0.333333
7 56 14 100 0.166667
10 56 14 100 0.166667
12 56 14 100 0.333333
0 57 14 100 0.166613
1 57 14 100 6.32126e-06
7 57 14 100 0.166663
8 57 14 100 0.166667
12 57 14 100 0.333419
14 57 14 100 0.166632
0 58 14 100 0.166667
2 58 14 100 0.5
4 58 14 100 0.166667
6 58 14 100 0.166667
0 59 14 100 0.333291
2 59 14 100 0.166667
6 59 14 100 4.18581e-05
7 59 14 100 3.10524e-06
11 59 14 100 0.166667
12 59 14 100 0.33333
0 60 14 100 0.187885
2 60 14 100 0.2
8 60 14 100 0.2
10 60 14 100 0.0121147
12 60 14 100 0.4
2 61 14 100 0.399999
4 61 14 100 0.2
8 61 14 100 0.4
0 62 14 100 1.92024e-05
3 62 14 100 0.24998
4 62 14 100 0.25
12 62 14 100 0.25
13 62 14 100 0.25
0 63 14 100 8.47318e-05
1 63 14 100 1.00737e-05
2 63 14 100 0.25
5 63 14 100 0.5
14 63 14 100 0.249905
0 64 14 100 1.48717e-05
2 64 14 100 0.499985
8 64 14 100 0.5
0 65 14 100 0.000121871
6 65 14 100 0.5
7 65 14 100 0.499878
0 66 14 100 0.5
8 66 14 100 0.5
8 67 14 100 1
0 68 14 100 0.499875
5 68 14 100 0.5
10 68 14 100 0.000125267
8 69 14 100 1
0 70 14 100 1
4 71 14 100 0.5
5 71 14 100 0.5
8 72 14 100 0.5
11 72 14 100 0.5
0 73 14 100 0.00330066
3 73 14 100 0.496699
5 73 14 100 0.5
0 74 14 100 0.498396
10 74 14 100 0.501604
0 75 14 100 0.5
5 75 14 100 0.5
5 76 14 100 1
5 77 14 100 1
0 78 14 100 0.499998
8 78 14 100 0.500002
0 79 14 100 0.0345049
5 79 14 100 0.5
10 79 14 100 0.465495
5 80 14 100 1
8 81 14 100 0.5
12 81 14 100 0.5
0 82 14 100 0.499992
1 82 14 100 0.500001
4 82 14 100 6.35148e-06
8 83 14 100 0.5
12 83 14 100 0.5
4 84 14 100 0.5
8 84 14 100 0.5
0 85 14 100 0.000503629
10 85 14 100 0.5
12 85 14 100 0.499496
0 86 14 100 0.302507
1 86 14 100 8.4442e-06
6 86 14 100 0.500003
10 86 14 100 0.197482
0 87 14 100 0.000344104
4 87 14 100 0.499656
8 87 14 100 0.5
2 88 14 100 0.5
8 88 14 100 0.5
1 89 14 100 0.5
2 89 14 100 0.5
0 90 14 100 6.49306e-06
4 90 14 100 0.999994
1 91 14 100 0.5
6 91 14 100 0.5
1 92 14 100 0.5
6 92 14 100 0.5
1 93 14 100 0.5
9 93 14 100 0.5
6 94 14 100 0.5
10 94 14 100 0.5
9 95 14 100 0.5
10 95 14 100 0.5
0 96 14 100 0.5
5 96 14 100 0.5
6 97 14 100 0.5
9 97 14 100 0.5
5 98 14 100 0.5
6 98 14 100 0.5
4 99 14 100 0.5
5 99 14 100 0.5
0 100 14 100 0.49999
2 100 14 100 0.50001
0 1 15 100 0.00136495
1 1 15 100 0.0401024
2 1 15 100 0.0011299
5 1 15 100 0.00348992
6 1 15 100 0.0352582
7 1 15 100 0.105526
8 1 15 100 0.0174658
9 1 15 100 0.0958904
11 1 15 100 0.0526671
13 1 15 100 0.031808
15 1 15 100 0.615297
0 2 15 100 0.105985
3 2 15 100 0.000348225
4 2 15 100 6.54687e-07
5 2 15 100 1.86498e-05
6 2 15 100 1.92318e-05
7 2 15 100 0.155385
8 2 15 100 0.0526314
9 2 15 100 0.0526316
10 2 15 100 0.00247226
11 2 15 100 0.0526316
13 2 15 100 0.000444983
14 2 15 100 2.02106e-05
15 2 15 100 0.577411
0 3 15 100 0.235553
1 3 15 100 6.20865e-07
7 3 15 100 0.117402
8 3 15 100 0.0588236
9 3 15 100 0.05877
10 3 15 100 0.0588236
11 3 15 100 0.0588358
12 3 15 100 0.058853
14 3 15 100 6.93383e-07
15 3 15 100 0.352938
0 4 15 100 0.0625081
3 4 15 100 0.00130091
5 4 15 100 0.0588236
6 4 15 100 4.33292e-06
7 4 15 100 0.117647
8 4 15 100 0.0588236
9 4 15 100 0.0585537
10 4 15 100 0.0276447
11 4 15 100 0.0856041
12 4 15 100 0.0588249
14 4 15 100 0.0588236
15 4 15 100 0.411442
0 5 15 100 0.180403
2 5 15 100 0.0588236
3 5 15 100 0.0588236
4 5 15 100 0.0588234
5 5 15 100 0.0588231
6 5 15 100 2.23727e-06
7 5 15 100 0.0443257
8 5 15 100 0.0588236
9 5 15 100 0.0588236
10 5 15 100 0.0144978
11 5 15 100 0.0582005
12 5 15 100 0.0588362
13 5 15 100 1.09565e-06
14 5 15 100 0.0588236
15 5 15 100 0.231969
0 6 15 100 0.00174447
3 6 15 100 0.133384
4 6 15 100 0.0666667
5 6 15 100 7.62596e-07
6 6 15 100 0.0666667
7 6 15 100 0.0666667
10 6 15 100 0.0666667
11 6 15 100 0.0666667
12 6 15 100 0.0665971
13 6 15 100 0.000218738
15 6 15 100 0.464721
0 7 15 100 0.0754215
1 7 15 100 6.43695e-05
3 7 15 100 0.0714286
4 7 15 100 0.214286
7 7 15 100 0.0674437
9 7 15 100 1.52433e-06
10 7 15 100 0.142857
12 7 15 100 0.0714286
15 7 15 100 0.357069
0 8 15 100 0.148641
1 8 15 100 0.142857
4 8 15 100 0.0714286
6 8 15 100 0.0714286
7 8 15 100 0.0714286
8 8 15 100 0.142857
12 8 15 100 0.0714286
15 8 15 100 0.27993
0 9 15 100 0.234281
1 9 15 100 0.00121754
2 9 15 100 1.81028e-06
4 9 15 100 0.333334
6 9 15 100 0.0833345
7 9 15 100 0.0833331
10 9 15 100 0.0145533
12 9 15 100 0.0833334
15 9 15 100 0.166612
0 10 15 100 0.181817
1 10 15 100 0.363637
4 10 15 100 0.181818
10 10 15 100 0.0909346
11 10 15 100 0.00536027
12 10 15 100 0.0909092
15 10 15 100 0.0855244
0 11 15 100 0.295886
1 11 15 100 0.3
2 11 15 100 0.2
4 11 15 100 4.19773e-05
10 11 15 100 0.0998901
12 11 15 100 0.1
15 11 15 100 0.00418185
0 12 15 100 0.100156
1 12 15 100 0.1
3 12 15 100 0.2
4 12 15 100 0.199838
9 12 15 100 0.1
10 12 15 100 0.1
11 12 15 100 0.1
15 12 15 100 0.100005
0 13 15 100 0.190341
1 13 15 100 0.1
2 13 15 100 3.95409e-06
3 13 15 100 0.109617
4 13 15 100 0.200009
7 13 15 100 0.0999981
8 13 15 100 2.99539e-05
11 13 15 100 0.2
13 13 15 100 0.1
1 14 15 100 0.3
2 14 15 100 0.1
3 14 15 100 0.2
4 14 15 100 0.1
9 14 15 100 0.1
13 14 15 100 0.1
14 14 15 100 0.1
0 15 15 100 0.0130718
1 15 15 100 0.4
3 15 15 100 0.286928
5 15 15 100 0.1
14 15 15 100 0.1
15 15 15 100 0.1
0 16 15 100 0.000106977
1 16 15 100 0.2
3 16 15 100 0.399893
5 16 15 100 0.1
9 16 15 100 0.1
14 16 15 100 0.1
15 16 15 100 0.1
0 17 15 100 0.0996742
1 17 15 100 0.1
3 17 15 100 0.1
4 17 15 100 0.00101689
5 17 15 100 0.2
7 17 15 100 1.34102e-06
9 17 15 100 0.1
14 17 15 100 0.3
15 17 15 100 0.0993076
0 18 15 100 0.511745
1 18 15 100 0.1
3 18 15 100 0.0867313
4 18 15 100 9.13665e-05
5 18 15 100 0.101429
9 18 15 100 0.1
11 18 15 100 1.8631e-06
14 18 15 100 0.1
0 19 15 100 0.300579
1 19 15 100 0.1
3 19 15 100 0.199996
4 19 15 100 0.100004
5 19 15 100 0.1
14 19 15 100 0.0994206
15 19 15 100 0.1
0 20 15 100 0.100005
1 20 15 100 0.1
3 20 15 100 0.0999951
9 20 15 100 0.199995
10 20 15 100 0.1
11 20 15 100 0.100005
14 20 15 100 0.1
15 20 15 100 0.2
0 21 15 100 0.493197
1 21 15 100 0.1
3 21 15 100 0.101123
6 21 15 100 1.52814e-06
9 21 15 100 3.32839e-06
10 21 15 100 0.1
14 21 15 100 0.103005
15 21 15 100 0.102669
0 22 15 100 0.00191939
1 22 15 100 0.1
4 22 15 100 0.0999963
5 22 15 100 0.1
9 22 15 100 0.1
10 22 15 100 0.1
13 22 15 100 0.1
14 22 15 100 0.1
15 22 15 100 0.298084
0 23 15 100 0.298077
1 23 15 100 0.199979
3 23 15 100 0.0999995
11 23 15 100 0.0999936
15 23 15 100 0.30195
0 24 15 100 1.48604e-06
1 24 15 100 0.111111
5 24 15 100 0.111111
8 24 15 100 0.111111
9 24 15 100 0.111111
10 24 15 100 0.222221
11 24 15 100 0.111111
14 24 15 100 0.111111
15 24 15 100 0.111111
0 25 15 100 0.0133072
5 25 15 100 0.208926
8 25 15 100 0.111111
9 25 15 100 0.111111
10 25 15 100 0.222222
11 25 15 100 0.1111
13 25 15 100 0.111111
15 25 15 100 0.111111
0 26 15 100 0.222222
8 26 15 100 0.111111
9 26 15 100 0.111111
10 26 15 100 0.222222
14 26 15 100 0.222222
15 26 15 100 0.111111
0 27 15 100 0.12366
4 27 15 100 0.00137403
5 27 15 100 0.249966
8 27 15 100 0.125
10 27 15 100 0.125
13 27 15 100 0.125
14 27 15 100 0.125
15 27 15 100 0.125
0 28 15 100 0.124373
8 28 15 100 0.125
9 28 15 100 0.125
11 28 15 100 0.124088
13 28 15 100 0.125
14 28 15 100 0.375
15 28 15 100 0.00153944
5 29 15 100 0.125
8 29 15 100 0.375
9 29 15 100 0.125
13 29 15 100 0.125
14 29 15 100 0.125
15 29 15 100 0.125
0 30 15 100 0.250541
2 30 15 100 3.08321e-05
3 30 15 100 0.124999
4 30 15 100 0.249425
8 30 15 100 0.125
9 30 15 100 0.125004
13 30 15 100 0.125
0 31 15 100 0.00188886
5 31 15 100 0.142857
6 31 15 100 0.142857
8 31 15 100 0.285713
9 31 15 100 0.285714
15 31 15 100 0.14097
0 32 15 100 0.142857
3 32 15 100 0.142857
5 32 15 100 0.285714
8 32 15 100 0.142857
12 32 15 100 0.142857
15 32 15 100 0.142857
0 33 15 100 0.00138306
1 33 15 100 0.142857
5 33 15 100 0.427188
8 33 15 100 0.142857
11 33 15 100 0.142857
15 33 15 100 0.142857
1 34 15 100 0.166667
2 34 15 100 0.166667
5 34 15 100 0.333333
8 34 15 100 0.166667
9 34 15 100 0.166667
0 35 15 100 0.167474
1 35 15 100 0.166667
2 35 15 100 0.166667
5 35 15 100 0.333299
10 35 15 100 2.43251e-06
11 35 15 100 1.49243e-05
15 35 15 100 0.165876
0 36 15 100 0.000545948
5 36 15 100 0.499456
6 36 15 100 0.166665
9 36 15 100 0.166667
15 36 15 100 0.166667
0 37 15 100 0.333333
2 37 15 100 0.333333
5 37 15 100 0.166667
15 37 15 100 0.166667
0 38 15 100 0.2
1 38 15 100 0.2
2 38 15 100 0.4
5 38 15 100 0.2
0 39 15 100 0.203263
10 39 15 100 0.39571
11 39 15 100 0.2
12 39 15 100 0.2
15 39 15 100 0.00102695
2 40 15 100 0.2
5 40 15 100 0.2
12 40 15 100 0.2
14 40 15 100 0.4
4 41 15 100 0.2
5 41 15 100 0.2
6 41 15 100 0.2
12 41 15 100 0.4
3 42 15 100 0.25
9 42 15 100 0.249996
12 42 15 100 0.25
14 42 15 100 0.250004
0 43 15 100 0.29047
4 43 15 100 0.25
11 43 15 100 0.45953
0 44 15 100 0.00212239
2 44 15 100 0.25
3 44 15 100 0.497878
11 44 15 100 0.25
0 45 15 100 0.25
3 45 15 100 0.25
11 45 15 100 0.25
12 45 15 100 0.25
0 46 15 100 1.48735e-05
1 46 15 100 0.25
11 46 15 100 0.25
14 46 15 100 0.499985
2 47 15 100 0.75
11 47 15 100 0.25
0 48 15 100 0.00274452
2 48 15 100 0.5
10 48 15 100 0.247255
11 48 15 100 0.25
0 49 15 100 0.00099819
2 49 15 100 0.5
5 49 15 100 0.25
10 49 15 100 0.249002
0 50 15 100 0.748231
6 50 15 100 1.0308e-05
10 50 15 100 0.00174876
11 50 15 100 1.02843e-05
14 50 15 100 0.25
0 51 15 100 0.505978
2 51 15 100 0.25
10 51 15 100 2.74247e-05
12 51 15 100 0.243995
2 52 15 100 0.5
14 52 15 100 0.5
0 53 15 100 0.25
2 53 15 100 0.25
14 53 15 100 0.25
15 53 15 100 0.25
0 54 15 100 0.25
12 54 15 100 3.17898e-05
14 54 15 100 0.749968
0 55 15 100 2.4384e-05
2 55 15 100 0.25
4 55 15 100 0.249976
14 55 15 100 0.5
12 56 15 100 0.5
14 56 15 100 0.5
9 57 15 100 4.1009e-06
14 57 15 100 0.999996
9 58 15 100 0.25
10 58 15 100 2.73475e-05
13 58 15 100 0.25
14 58 15 100 0.499973
0 59 15 100 2.23296e-05
6 59 15 100 3.46199e-06
10 59 15 100 0.249972
11 59 15 100 0.249974
12 59 15 100 0.249968
14 59 15 100 0.25006
0 60 15 100 0.451234
5 60 15 100 0.048766
12 60 15 100 0.25
14 60 15 100 0.25
0 61 15 100 0.0006411
9 61 15 100 0.25
13 61 15 100 0.5
15 61 15 100 0.249359
1 62 15 100 0.25
9 62 15 100 0.25
10 62 15 100 0.25
13 62 15 100 0.25
1 63 15 100 0.25
12 63 15 100 0.25
13 63 15 100 0.5
1 64 15 100 0.25
4 64 15 100 0.25
9 64 15 100 0.25
13 64 15 100 0.25
0 65 15 100 4.44627e-06
1 65 15 100 0.249999
11 65 15 100 0.249996
13 65 15 100 0.25
15 65 15 100 0.25
4 66 15 100 0.25
8 66 15 100 0.25
11 66 15 100 0.499999
0 67 15 100 0.252532
5 67 15 100 0.247466
13 67 15 100 0.250001
15 67 15 100 0.250001
0 68 15 100 0.250298
1 68 15 100 0.749702
0 69 15 100 0.25
4 69 15 100 0.25
13 69 15 100 0.25
14 69 15 100 0.25
4 70 15 100 0.25
12 70 15 100 0.25
13 70 15 100 0.25
15 70 15 100 0.25
1 71 15 100 0.25
2 71 15 100 0.25
4 71 15 100 0.25
15 71 15 100 0.25
0 72 15 100 0.25
2 72 15 100 0.5
3 72 15 100 0.25
2 73 15 100 0.25
5 73 15 100 0.5
7 73 15 100 0.25
0 74 15 100 0.000996543
5 74 15 100 0.25
6 74 15 100 0.249003
7 74 15 100 0.25
12 74 15 100 0.25
0 75 15 100 0.24957
2 75 15 100 0.25
5 75 15 100 0.000430049
6 75 15 100 0.25
14 75 15 100 0.25
1 76 15 100 0.25
2 76 15 100 0.25
5 76 15 100 0.25
9 76 15 100 0.25
2 77 15 100 0.25
5 77 15 100 0.25
9 77 15 100 0.5
0 78 15 100 0.25
2 78 15 100 0.5
8 78 15 100 0.25
0 79 15 100 0.00750435
2 79 15 100 0.25
6 79 15 100 0.242489
9 79 15 100 0.25
11 79 15 100 6.20757e-06
12 79 15 100 0.25
0 80 15 100 4.29633e-06
2 80 15 100 0.25
3 80 15 100 0.25
5 80 15 100 0.249996
9 80 15 100 0.25
0 81 15 100 0.00184844
5 81 15 100 0.248152
9 81 15 100 0.25
12 81 15 100 0.499999
0 82 15 100 0.250057
3 82 15 100 0.25
6 82 15 100 2.74795e-06
9 82 15 100 0.25
11 82 15 100 0.249934
15 82 15 100 6.25742e-06
1 83 15 100 0.5
7 83 15 100 0.25
8 83 15 100 0.25
0 84 15 100 3.4912e-05
12 84 15 100 0.25
15 84 15 100 0.749965
7 85 15 100 0.25
13 85 15 100 0.25
15 85 15 100 0.5
0 86 15 100 4.2569e-06
2 86 15 100 0.25
10 86 15 100 0.249999
13 86 15 100 0.25
15 86 15 100 0.249996
9 87 15 100 0.5
13 87 15 100 0.25
15 87 15 100 0.25
1 88 15 100 0.75
15 88 15 100 0.25
0 89 15 100 0.000326041
12 89 15 100 0.5
13 89 15 100 0.249674
15 89 15 100 0.25
1 90 15 100 0.5
3 90 15 100 0.25
9 90 15 100 0.25
0 91 15 100 0.188556
5 91 15 100 0.249999
6 91 15 100 0.311444
13 91 15 100 0.25
0 92 15 100 0.499994
3 92 15 100 0.5
10 92 15 100 6.01752e-06
0 93 15 100 9.63452e-06
1 93 15 100 0.25
6 93 15 100 0.25
10 93 15 100 0.00064419
13 93 15 100 0.24999
15 93 15 100 0.249356
0 94 15 100 7.33297e-06
10 94 15 100 0.499349
11 94 15 100 0.25
15 94 15 100 0.250644
0 95 15 100 0.25
6 95 15 100 0.25
13 95 15 100 0.5
0 96 15 100 4.00165e-06
6 96 15 100 0.25
11 96 15 100 0.25
13 96 15 100 0.499996
6 97 15 100 0.5
13 97 15 100 0.5
0 98 15 100 0.249999
4 98 15 100 0.25
13 98 15 100 0.500001
9 99 15 100 0.25
13 99 15 100 0.5
14 99 15 100 0.25
0 100 15 100 0.000213859
5 100 15 100 0.499786
6 100 15 100 0.25
9 100 15 100 0.25
0 1 16 100 0.000935581
1 1 16 100 0.104632
3 1 16 100 0.111089
5 1 16 100 0.056318
6 1 16 100 0.334505
10 1 16 100 0.0555556
12 1 16 100 0.0555556
14 1 16 100 0.0555609
16 1 16 100 0.225849
0 2 16 100 0.0637615
3 2 16 100 0.111111
5 2 16 100 0.0555556
6 2 16 100 0.27302
10 2 16 100 0.0535078
11 2 16 100 0.0555556
12 2 16 100 0.0555556
14 2 16 100 0.054134
16 2 16 100 0.277799
0 3 16 100 0.0123733
1 3 16 100 4.88694e-05
2 3 16 100 1.87789e-06
3 3 16 100 0.0555556
5 3 16 100 0.111111
6 3 16 100 0.320775
8 3 16 100 0.00106372
10 3 16 100 0.0546387
11 3 16 100 0.0555556
12 3 16 100 0.0555556
14 3 16 100 0.0555556
16 3 16 100 0.277765
0 4 16 100 0.0723053
3 4 16 100 0.110726
5 4 16 100 0.104404
6 4 16 100 0.221369
7 4 16 100 0.0555568
9 4 16 100 5.15677e-06
10 4 16 100 0.0555613
11 4 16 100 0.0555574
12 4 16 100 1.73277e-05
13 4 16 100 2.57987e-06
14 4 16 100 0.05556
16 4 16 100 0.268934
0 5 16 100 0.28077
3 5 16 100 0.111111
5 5 16 100 0.0555556
6 5 16 100 0.235157
7 5 16 100 1.5982e-05
10 5 16 100 0.0552441
12 5 16 100 0.0555556
13 5 16 100 7.8258e-06
14 5 16 100 0.00137972
15 5 16 100 1.40163e-06
16 5 16 100 0.205201
0 6 16 100 0.228011
2 6 16 100 0.00377484
3 6 16 100 0.124992
4 6 16 100 0.062502
5 6 16 100 0.123977
6 6 16 100 0.0625014
9 6 16 100 0.000209955
10 6 16 100 0.0625573
11 6 16 100 0.125006
12 6 16 100 0.00019841
14 6 16 100 0.0637555
15 6 16 100 1.33278e-06
16 6 16 100 0.142514
0 7 16 100 0.367278
3 7 16 100 0.0714287
4 7 16 100 0.142857
5 7 16 100 0.000888444
8 7 16 100 0.0720197
9 7 16 100 0.00933129
10 7 16 100 0.143051
11 7 16 100 0.00385202
13 7 16 100 2.14397e-06
14 7 16 100 0.0499372
15 7 16 100 1.27439e-05
16 7 16 100 0.139342
0 8 16 100 0.142859
1 8 16 100 0.142857
4 8 16 100 0.214286
5 8 16 100 0.0714286
7 8 16 100 2.84484e-06
8 8 16 100 0.0714259
10 8 16 100 0.142857
11 8 16 100 0.142855
12 8 16 100 0.0714286
0 9 16 100 0.0714286
1 9 16 100 0.0714286
3 9 16 100 0.142857
4 9 16 100 0.0714286
5 9 16 100 0.0714286
6 9 16 100 0.0714286
8 9 16 100 0.0714286
10 9 16 100 0.142857
11 9 16 100 0.214286
16 9 16 100 0.0714286
0 10 16 100 0.155002
1 10 16 100 0.0769231
3 10 16 100 0.153846
4 10 16 100 0.0769231
5 10 16 100 0.0758078
7 10 16 100 1.00536e-05
8 10 16 100 0.0768705
10 10 16 100 0.0769231
11 10 16 100 1.63593e-06
12 10 16 100 0.0769231
14 10 16 100 0.0769231
16 10 16 100 0.153846
0 11 16 100 0.1542
1 11 16 100 0.0769231
3 11 16 100 0.153848
4 11 16 100 0.0769231
5 11 16 100 0.0765594
7 11 16 100 0.0769231
8 11 16 100 0.076923
9 11 16 100 7.31667e-06
10 11 16 100 0.0769231
11 11 16 100 0.0769231
12 11 16 100 0.0769231
16 11 16 100 0.0769231
0 12 16 100 0.153846
3 12 16 100 0.153846
4 12 16 100 0.0769107
5 12 16 100 0.0769232
7 12 16 100 0.0769232
8 12 16 100 0.23077
9 12 16 100 0.076935
14 12 16 100 0.153846
0 13 16 100 0.230764
4 13 16 100 0.0769231
