ہے NULL 0.0346576
مرزا !" 0.00219954
رواج जूँ 0.807692
اس NULL 0.0459233
نہ NULL 0.00190061
تو NULL 0.120577
کی NULL 0.431006
ہیں NULL 2.12424e-06
سوئس ज़र-ए-मुबादला 1
وہ NULL 0.00223873
کے NULL 0.13508
کاٹنے हमरंग 0.112941
ہی NULL 0.0124386
کا NULL 0.115817
تھا۔ NULL 0.00157783
کہ NULL 0.0454557
میں NULL 0.214144
کیا NULL 0.00529048
انہیں अशराफ़ 0.0459322
ایک NULL 0.0229602
اور NULL 0.119987
پکڑے NULL 0.341546
بھی NULL 0.0489414
نہیں NULL 0.0295138
سے NULL 0.122827
ہوئے पट्टे 0.0323672
یہ NULL 0.0352997
ہے۔ NULL 0.00840513
احوال पहले 1
میرے रखी 0.0213965
طرف NULL 3.50103e-05
بلکہ NULL 0.000129457
اب NULL 0.00251862
کہاں NULL 0.0707584
پاؤں NULL 0.211872
ہیں۔ NULL 3.54063e-05
کو NULL 0.08812
جی!" कैलेन्डर 0.0982
ان NULL 0.000370927
کرنےوالے जिलाए 1
لینےکوجی जिलाए 1
جانے मुताले 0.0347191
کر जिनका 0.00208346
پر NULL 0.015436
مسٹر इंदाम 0.375346
کر NULL 0.0331365
عبدالرحیم इंदाम 0.107492
وفاؔ इंदाम 0.0362118
جوتی है।दिन 0.664644
نے NULL 0.0299094
تک रेफ्रीजरेटर 0.00265047
کتنی हक़दार 0.0648826
ہوتا मा’फ़ 0.00578258
پیش NULL 0.0412781
ہیں परेशान 0.000633048
مٹی मिला,तो 0.199986
ہوں۔’’ “हुंह।” 0.171974
لکھنؤ सनअत-व-हिर्फ़त 0.685565
کچھ परेशान 0.000580718
ہے۔ मा’फ़ 0.000431593
ابھی मुताले 0.0265526
بچہ स्टेशनरी, 0.0688514
معنی मा’फ़ 0.256361
اورترس ग़म-ए-दहर 1
سا मा’फ़ 0.0473025
بھونچال NULL 0.675442
رو देगा। 0.195077
پروا NULL 0.14523
ملحوظ 1980 1
بعض 1980 0.0188517
خراب NULL 0.146112
ہےاورگلہری NULL 1
وغیرہ “आगे 0.00655847
رشتے वारिस 1
ساتھ रुक 0.00595849
نام NULL 0.00434797
مریدپور थी।अब 0.469004
گزٹ थी।अब 1
میں फ़रमाएं 0.000809851
مضافات वारिस 1
بستے वारिस 1
فخرومباہات वारिस 1
پیسہ NULL 0.113859
ہیں किताबों 0.00234131
قیصرہ दोगी।या 0.0672106
بحث “आगे 0.0157674
اضافہ NULL 0.124584
رہا मश्ग़ाल 0.0257455
نےولی दोगी।या 1
صاحب मुशायरों 0.0141547
وغیرہ۔ “आगे 0.0500048
اعلان साहिबो!मेरी 0.167442
عرض देख 0.314083
اوپر NULL 0.0516978
بات मानने 0.00424764
معلوم रेफ्रीजरेटर 0.00528895
کو किताबों 0.00170764
گھر NULL 0.00233047
معمولی रेफ्रीजरेटर 0.0781384
غالب: चौकीदार 0.0998265
طورپرایک खड़े-खड़े 1
فوراً NULL 0.12011
تعطیلات आते 0.457744
خلاف बुराइयाँ 0.0099629
معلوم मा’फ़ 0.00962768
کو दाद 0.00340753
کبھی दाद 0.0406575
قسم، अब, 0.466667
بینگن؟ चौकीदार 1
نے मुशायरों 0.000661121
صبح दाद 0.0462846
یہاں परेशान 3.15763e-06
"اور ” 0.258627
جنگ देगा। 0.124222
دور है,इस 0.121965
کیا है।तू 0.00194067
‘‘انجمن डटी 0.130215
نسواں’’کا डटी 1
لگاتے۔ अब, 1
احترام 1980 1
کو सन्त्री 0.00153339
بجائے रेफ्रीजरेटर 0.0354389
ہے؟’’ ब-नाम 0.0900157
اتنے किताबों 0.128252
پہلے मानने 0.010568
! NULL 0.136878
پرزے कितने 0.219958
م۔ن۔ फ़ह्म 0.000685828
ارشد:۔ फ़ह्म 0.0611093
نگار ” 0.772875
اچھا NULL 6.21779e-05
بائیسکلوں जूँ 0.060984
سال मुताले 0.0635542
سانپ दस्तूर 0.352941
مجھ किताबों 0.0297298
ہے मोहतरम-उल-मक़ाम 0.000955628
ہوسٹل शिआरी 1
مہینے मानने 0.596363
‘‘ہرمرنے वफ़ात-ए-हस्रत 0.249989
متعلّق वफ़ात-ए-हस्रत 1
گھونگھٹ “सुना 1
پیشانی रुक 0.818182
"بھئی !" 0.333324
اور “हैं 0.00135792
گا۔’’ NULL 0.0814832
ایک ठाठें 0.000133289
جاسکتا (जूलाई 0.015141
بھیجنے फ़ैसले 0.5
(۳) जुलने 0.0833711
رکھے परेशान 0.0319981
میاں बूढ़े 0.42396
یہ खाया 0.00219931
مردوں “आप 0.887949
دوست किताबों 0.0422005
مجھےتو मुलाक़ात 1
بوسہ मियां 1
وقت ठाठें 0.00184913
کر दर्द-अंगेज़ 0.00209443
حصہ अशराफ़ 0.0960197
لکھ मरे।मेरे 0.042827
قہقہے मस्ती,जिसमें 1
شام दाद 0.207342
ہیں،انھیں ना-ख़्वान्दा 1
بہلاتے ना-ख़्वान्दा 1
لگے धोका 0.136367
پھول परेशान 0.280574
نہیں रसा-कशी 0.00183507
قاموس है।मेरे 1
وہ “वही 0.000199091
بنا “वही 0.0121083
مجھے ठाठें 0.0010289
ور कितने 0.893617
عشق निकालनी 0.0276435
بھاگ जिनका 0.515797
لگائے पालीसी 0.5
کےساتھ मस्ती,जिसमें 0.0249216
رہا रिवाज 0.0113789
کھولے NULL 1
فائدہ साहिबो!मेरी 0.086125
ہیں۔ایک स्टेशनरी, 0.599999
بھائی होना। 0.0887103
مل “वही 0.00613049
ان पड़ता।बीवी 0.00111296
بعد रिवाज 0.00423438
میبل रहीं। 0.0174094
"مصنف" रहीं। 1
ضرورآگاہ रहीं। 1
شرکت खाया 0.315403
بوڑھے बूढ़े 0.389497
صدردسترخوان स्टेशनरी, 1
پل आधा-आधा 1.49718e-05
جادو बुराइयाँ 0.0604028
کہا‘‘غلط है?” 1
بھی बिकता 0.000797184
مقبولیت बच 1
آنکھیں “वही 0.0543308
نےکہا पकड़ा 0.0458663
جہاں रगड़ 0.0167462
نہیں۔ सिविल 0.0125004
چل रिवाज 0.0432622
منڈلا पीर 1
مرزا मुशायरों 0.00593966
دیکھ देस 0.160261
کےتختےپرچڑھا करदो 0.0660455
مرحوم ज़ाती 0.0194077
سنارہے बोलीं— 1
نے बिकता 0.000543151
راحت उड़ाती 0.593426
تم बिकता 0.00580274
صحافت देगा। 1
تھوڑے रखी 0.857145
کر तजवीज़ 0.0024886
دو सिविल 0.00985617
ہے एक्सरे 0.000234732
مقررہ ठाठें 1
‘‘محترمہ रस्म 0.253557
صحن NULL 1
ایک “बेगम 2.07403e-08
سامنا “आप 0.750018
صدیوں कोला 0.222041
چیز सिविल 0.00818249
اور आरज़ू 0.00135792
کہ अगर 0.038539
اٹھا तजवीज़ 0.224303
آپ मुल्ज़िम 0.00119457
بکس “आगे 0.020971
فروکش शिआरी 1
نے “बेगम 0.00109717
جائے अगर 0.204516
؎ ठाठें 0.09338
کہا एक्सरे 0.00403686
دیا मचली 0.00158404
آکر तजवीज़ 0.878312
پرانے मुल्ज़िम 0.0975289
سامنے तजवीज़ 0.0371866
فون मुशायरों 0.175807
ہے इसकीअदबी 0.000238865
روشن किताबों 0.169465
عشق या’नी 0.00603984
یا या’नी 0.00153558
خودبخود रुजहानात 0.106841
سب या’नी 0.00237622
انتساب (जूलाई 0.00218796
کام या’नी 0.00839158
روانہ NULL 0.234728
توخداسےاوراگرکسی महाराती 1
بناتا NULL 0.143637
تھا या’नी 0.00163724
"تمہارا वलवला 0.125
لیے एक्सरे 0.0050113
عائد निकलने 0.234783
اب या’नी 0.00135113
بھیجتا आते 1
کر या’नी 0.00045317
لیکن या’नी 0.00063051
ہوا या’नी 0.00731291
عزیز किताबों 0.49209
شاہی कोला 1
ستاتی बढ़े 0.573925
سی मरौअत 0.00399335
آپ वज़न 0.00268779
لگے۔ मचली 0.0070505
نے या’नी 0.000177721
سمجھتے मुल्ज़िम 0.03038
ہوچکا NULL 0.580526
دم मरौअत 0.00535475
پراسپکٹس काटी 0.127525
آئی इसकीअदबी 0.0315255
ستھرے NULL 1
تمہارے या’नी 0.0240507
ابھی या’नी 0.00870225
باغ धोका 0.222871
مگر चुके।दो 0.006578
اپنی मरौअत 0.000981744
مرحوم लेटे 0.0388153
گارہی “सुना 0.233671
اپنی तक़रीर 0.00294524
ڈھیلے मिला,तो 0.000520429
ہو बाज़ार 0.00399911
ڈری۔ चुके।दो 1
پھر चुके।दो 0.00156884
ذراجی चुके।दो 1
کڑاکر चुके।दो 1
بولی:۔ चुके।दो 3.57798e-05
لحاف रुक 0.470149
بھی बाज़ार 0.000873605
نہیں बाज़ार 0.00102083
لیے तक़रीर 0.00747345
بڑوں NULL 1
آپ मचली 0.00297147
مطمئن रेफ्रीजरेटर 0.166031
وغیرہ۔ मुल्ज़िम 0.0499998
سکتا या’नी 0.0235841
نکالے “सुना 0.0472931
سامنے इसकीअदबी 0.00772867
کم वज़न 0.0155332
دوا रुख़सत 0.146342
صرف निकलने 0.00886961
میں कारगुज़ारी 0.000809851
چھ मचली 0.0441939
ہیں) मुल्ज़िम 0.0910273
کنکھیوں तरीक़ों 0.285714
خوبی गाला 0.580645
مرید मौज़ूँ 1
برقرار कोला 0.5
پوُجا मौज़ूँ 1
ہے؛ देख 0.979585
شوہرانہ इख़्तिलाफ़ 1
؎ एक्सरे 0.140886
میلے मुल्ज़िम 0.0908939
کپڑے मुल्ज़िम 0.00184237
ہر पर्चे 0.0106998
مکانی “सुना 1
اب पाते 0.00619039
رات सचमुच 0.0502059
ضرور इसकीअदबी 0.0155343
توکیا बाज़ार 0.735554
پیرومُرشد इश्क़-व-मुहब्बत 0.037037
پر तालीम 0.00306205
دلوائےگا۔ करख़त 1
باغ रिवाज 0.0738778
یادہ ठाठें 1
سڑک मरौअत 0.0046959
مجھےاس “वही 0.0769265
موت फ़तूहात 0.115717
ہیں"۔ ” 0.357151
میراثن “सुना 1
ڈھولک “सुना 1
تھی۔وہاں “सुना 1
ثابت मुल्ज़िम 0.0203943
ہےاوراس NULL 0.162227
بھی वारदात 0.000316353
یہ पॉर्क 0.000272745
تھا वारदात 0.00150039
ہی ।" 0.00747015
یوں ।" 0.0351681
جو वारदात 0.000829568
روپوں रखी 0.9
ہوا पॉर्क 0.00419133
وٹامن‘‘ب’’ हुल्या 1
‘‘ٹ’’۔غرضیکہ हुल्या 1
ٹ हुल्या 1
ث हुल्या 1
دینے शॉर्ट 0.0231746
خوبصورت पर्चे 0.19802
تک शॉर्ट 0.0025802
بجے मचली 0.0185921
گرم तबसरा 0.0640276
مہنگا गया 1
کو शॉर्ट 4.06529e-05
ساتھ ।" 0.0135747
لیکن ।" 0.00328698
تندرستی उल्मा 0.512888
خواجہ फ़िक्शन 0.0321852
ختم पॉर्क 0.084263
خندہ रुक 0.271559
ہرے पालीसी 1
ریستوران बरोज़ 0.972973
دفعہ झाड़-पोंछ 0.0257859
امکان मरौअत 1
اذان पकड़ा 1
پکاررہی पकड़ा 1
تھی۔دل पकड़ा 1
تھا۔ बा-तस्वीर 0.0022832
محلے सिविल 0.218446
مچھلی तक़रीर 0.327972
کان किया, 0.212099
پتھر वारदात 0.096793
فضول “आगे 0.087526
ہر किया, 0.00427994
کاٹا “हुंह।” 0.0916584
تک बा-तस्वीर 0.00113591
خوراک वज़न 0.666667
مائک तजवीज़ 0.72776
وہم बाज़ार 0.526649
اس ख़ास 0.00570506
مرضی، !" 1
ویمت !" 1
جو एंटी 0.00276182
بیری पालीसी 0.210526
رکھی रुख़सत 0.0916024
پھل शॉर्ट 0.300445
ہوں मंदी 0.00321869
ملے पाती।अगर 0.140598
پوچھنے मचली 0.0798652
ٹیک पालीसी 1
بالکل ।" 0.0570129
ڈربے NULL 0.509966
وقت ख़ास 0.0314413
تو कीजिए,दिन 0.000602572
یہاں ।" 0.0738619
"چل रिवाज 0.799086
الزام अल्लाह-अल्लाह 0.130435
پارٹی तबसरा 0.138614
اورآپ मंदी 0.0841122
پتلی मरौअत 0.529412
جموئی जेठानी 0.0364073
قائم गदहे 0.264743
بولا۔ NULL 0.0393175
کام माअ-उचकन, 0.0256047
ہماری ।" 0.0402737
بن माअ-उचकन, 0.0331026
پر अल्लाह-अल्लाह 0.000618646
کانپ मंदी 0.145072
بنے किया, 0.27525
ہوئے किया, 0.00359636
صورتوں 1980 1
کلام पर्चे 0.0368285
واسطے ख़ास 0.544897
‘‘شاید होगी।” 0.166608
کالج एंटी 0.029979
شرط निकलने 0.499161
نسائی पड़ता 0.57683
حسیّت पड़ता 0.576732
رہی मंदी 0.00808053
‘‘شاید उठाया 0.166608
کمپنی धोका 0.122963
لنگڑانے धोका 1
سرد धोका 1
چراغ धोका 1
وطنو!" रहे,तो 0.240521
خریدتے۔خدا मुताले 1
پڑی किया, 0.115748
بھی हैं।जमीलुद्दीन 0.00158946
بات गुल-ओ-बुलबुल, 0.00637146
تکیہ पर्चे 0.0916604
کالج कीजिए,दिन 0.0152076
کرتے बनाऊं 0.0011533
رکاب सनाउल्लाह 0.661721
طبعی घड़े 0.10003
اللہ बनाऊं 0.00608901
ہمارے बा-तस्वीर 0.00226785
کنڈکٹر “आगे 1
جتنے किताबों 0.420983
بتاتا۔ मोज़े 1
سقہ मोज़े 1
کردیا मौज़ू 0.130743
رہتا बा-तस्वीर 0.0094559
کاہے थैला 0.14954
"تو मचली 0.0226852
کےاندردوڑتی करो,वो 1
پڑیہ रुख़सत 1
تکئے रुख़सत 1
نیچے۔جوشاندہ रुख़सत 1
دیگچی रुख़सत 0.588235
سرہانے रुख़सत 1
کہا बनाऊं 0.00178377
مرض इज़राईल 0.000586856
رہتی गदहे 0.0869204
بھی ज़ुल्म 0.000344016
کچھ ज़ुल्म 0.00154421
تھے"۔ ” 1
وفاداری NULL 0.141855
وفائی NULL 0.999175
ہروقت मस्ती,जिसमें 0.5
اپنےجیسےپھکڑلوگوں मस्ती,जिसमें 1
گپیں मस्ती,जिसमें 1
ہانکا मस्ती,जिसमें 1
کرتےتھےاوروہ मस्ती,जिसमें 1
لگاتےتھےجوگزوں मस्ती,जिसमें 1
میلوں मस्ती,जिसमें 1
ہیں ग़ैज़:- 0.00281297
روحانی तालीम 0.714669
جیسےایک फ़रमान 0.155025
‘‘جب “हुंह।” 1
طرف ग़ैज़:- 0.024555
رکھوں ,पूना,बंबई,पंजाब 0.213378
تھے बनाऊं 0.00156215
بالکل बनाऊं 0.00556152
اور चको।जो 0.000193815
یہ शोर 0.00329954
۔اس रिवाज 0.362173
تمام लिस्ट 0.00655932
دیا लिस्ट 0.00158406
ہے۔’’ लहजे 0.0232089
بھاری वारदात 0.0869902
شرط तालीम 0.334451
پھٹے मुल्ज़िम 1
عالم .....क्यूँ 0.081632
ہے۔ अकाउंट 0.00301324
ہندوستان लिस्ट 0.0159628
بخاری हंस 0.256889
وہ था।घाग 0.00179385
تھا۔’’ फूलों 0.0857089
نےان बुराइयाँ 1
نام लिस्ट 0.00103795
کھانا चको।जो 0.0363696
کیا मारो, 0.000970314
اہلیہ ।" 0.685647
"پھر؟" ठोक-बजा 0.88722
آیا चको।जो 0.00996958
چپ चको।जो 0.104665
چاپ चको।जो 0.102888
کھانے चको।जो 0.0252526
لگا۔ चको।जो 0.0141742
طرف ग़रारा 0.00460851
نسل गदहे 1
الزام पड़े 0.869565
بیوقوف है।कलफ़ 0.18178
میرے मजबूरी 0.00267456
اشیا NULL 0.0152056
کھیتی दाद 0.714286
نے जाऊँगा। 0.000169123
ٹین NULL 0.999719
خریدلیتے NULL 1
"اچھا۔۔۔ NULL 1
خداحافظ!" NULL 1
کہنے पुर्ज़ों 0.0140931
ہم ग़रारा 0.000701879
فالج बाज़ार 1
تمہارارادہ NULL 0.000647375
روایت गदहे 0.6
"دیکھا NULL 0.993499
لوگ सकते।बड़ी 0.0164204
گا ग़रारा 0.00814686
لگی मजबूरी 0.010673
کیا हुई?” 0.000277169
بیان पड़े 0.109764
ہاتھ ग़रारा 0.00914335
پرکچھ बुराइयाँ 1
سحرکردیا बुराइयाँ 1
ہے۔اگرچہ बुराइयाँ 1
ٹوانہ बुराइयाँ 1
کو “हिंदोस्तानी 0.000371609
بنا،مسجدوتالاب आधा-आधा 0.141392
ہے۔ वाक़या 0.000547862
"وہ सचमुच 0.116545
پر “हिंदोस्तानी 0.000379675
جانے दहन 0.0104157
دیا पड़े 0.0190087
بھی۔ मारो, 0.100026
گاتا रिवाज 0.779292
سا वाक़या 0.0283479
نکل ग़रारा 0.00868944
چورمیں NULL 0.739816
ہوچکی ।" 0.294132
‘‘تو लिए।उसने 0.0974167
ایک आह 0.00319575
کرنےکےبعد रेफ्रीजरेटर 0.230769
مضموں जद-ओ-जहद 0.444076
جیسے ग़रारा 0.00563221
اس क़वी 0.000684696
گئی ज़दा 0.0804851
بوسی कोला 1
اوردبدبہ कोला 1
آرا किताबों 0.243844
ہے आतिश 0.00130755
نہ आतिश 0.000436627
وہ आतिश 0.000975702
ہر आतिश 0.00523778
کوئی आतिश 0.00122187
پسند दहन 0.0253923
پر नावाक़िफ 0.000385963
چنانچہ वाक़या 0.0267473
نے चिड़े 0.000542486
بخار रेफ्रीजरेटर 0.192112
ہال किया, 0.0590407
ہونےکے،کہ रेफ्रीजरेटर 1
ہے،شام रेफ्रीजरेटर 1
کانٹے NULL 0.000184456
ہے،ان पर्चे 1
دوسرا जाऊँगा। 0.0146329
آنکھوں गाने,रेडियो 0.197612
لفظ वाक़या 0.313999
پڑھ इसार 0.0130062
دھوبی जुमा 0.0209713
روشنی मजबूरी 0.030124
ناز फ़हम 1
، ।" 0.208378
واپسی “हिंदोस्तानी 0.240703
آئے गर्मी 0.0398725
ہے۔ बर्फ़ 0.000988643
وہ आबी 0.000298975
بیوی जाएंगे।लेकिन 0.0340638
سے गर्मी 0.0010419
کوئی रिसीवर 0.000998425
صاحب रिसीवर 0.00262564
شام “हिंदोस्तानी 0.047783
کو ड्रामा 0.00105524
سارا हैं।उनसे 0.0532545
دھیرے मजबूरी 0.2
رکھے मजबूरी 0.0133171
ہیں۔ आबी 0.000524328
پکڑ लगे।” 0.117775
خدا करे। 0.00828087
بھائی चिड़े 0.0889088
گیا आबी 0.00273217
جگا मचली 0.163516
مصرع जाऊँगा। 0.0262945
ہےاوراس उल्मा 0.350698
لگی۔ इसार 0.0270325
کہنے इसार 0.00281862
چند हुई?” 0.00696073
اگر रिसीवर 0.00302773
ڈاکٹر बर्फ़ 9.40808e-07
واسطے करती।मेज़ 0.0213644
کیا۔ नावाक़िफ 0.00722607
سے देगचियों 0.000676256
نے आठ 0.00658321
چکی इसार 0.0591221
چھوٹی रिसीवर 0.123068
گانا हैं।उनसे 0.0991635
گیا۔ आबी 0.0108661
ان देगचियों 0.000390581
پہلے गर्मी 0.0158521
میری लगे।” 0.00171931
(بہنیں हैं।बहनैं 0.00780547
کہتا बहीश्ती 0.0330394
متوجہ हैं।बहनैं 0.0522342
ہوں—ادارہ) हैं।बहनैं 1
شاعر दहन 0.0221331
معلوم करती।मेज़ 0.00176298
بانا “हुंह।” 0.0617804
سناؤ۔ हैं।उनसे 1
‘‘آمد हैं।उनसे 1
شہزادہ हैं।उनसे 1
گلشن हैं।उनसे 1
لکھنؤ हैं।उनसे 0.0856957
!’’ایک हैं।उनसे 1
لحاف मंदी 0.268657
کےاندر मंदी 0.72
اور हैं।लेकिन 0.00330126
سےکانا “हुंह।” 0.307692
اسی हैं।लेकिन 0.0171089
سےلوٹا “हुंह।” 1
ہوئے गर्मी 0.0161836
ہند गर्मगर्म 0.115426
پر पार 0.00154661
پر हैं।लेकिन 0.00367961
ہجرت अल्लाह-अल्लाह 1
دو ख़ूबी 0.059137
لائق दहन 0.54496
آکر नावाक़िफ 0.12409
ہے कीड़े 0.000476803
بلانا एंटी 1
بن “मर 0.0198616
گھناؤنا NULL 0.991497
بھی पोशी। 0.000223914
ہے؟’’ थैला 0.154584
نہیں तमद्दुन 0.000435225
والی कीड़े 0.0504209
دماغی तालीम 0.857753
چلتی، गदहे 1
ہے की 0.107583
نہ की 0.074132
چنبیلی रिवाज 1
میں" रिवाज 1
ہی की 0.140889
کا की 0.0320671
کہ की 0.112868
نہیں “मान 0.000202989
ایک की 0.0356617
‘‘مرتو हंसूँ, 0.999969
بھی की 0.0731172
بیٹھی जाऊँगा। 0.0961265
حکیم बर्फ़ 1
یہ की 0.159905
ہے۔ की 0.0337653
لیکن फ़ैसला 0.00240473
نہیں۔" बैठे, 0.266606
ہوگی۔ रिसीवर 0.16
دل तमद्दुन 0.00241496
کھینچا लगे।” 1
کوٹھری लिस्ट 0.5
افسانہ “वही 0.0470652
کبھی “मान 0.00271201
ہیں۔ की 0.0485548
زندہ ज़दा 0.0637649
برگزیدہ करे। 1
پلاٹ “वही 0.0193881
ہے हाज़िरीन-व-ग़ाइबीन 0.000239157
ہوتا हाज़िरीन-व-ग़ाइबीन 0.0023925
آزمائش करे। 1
وہ हाज़िरीन-व-ग़ाइबीन 0.000450341
کہ हाज़िरीन-व-ग़ाइबीन 0.000165119
خود की 0.347881
کہا पोशी। 0.00229872
دیں मुलाज़िमत 0.243871
بڑی की 0.482693
ہمیشہ “मान 0.0215803
کہیں की 0.570929
شاگرد फ़हम 0.272727
افتتاح करती।मेज़ 0.0909177
تھا۔ आएँ। 0.00355203
کردکھاتی “वही 1
پہنچی कीजिए,दिन 1
پوتوں NULL 1
طرح “मान 0.000746282
روپے रिसीवर 0.0192012
تم की 0.178045
پھر तमद्दुन 0.000997332
طرف आएँ। 0.00409646
جانتےکہ खाया 1
پھرتی “मर 0.136332
کےکانٹےسڑک NULL 0.55004
مرتبہ ख़ूबी 0.279693
بے एतबार 0.0193595
نوبجےہیں۔ लगता।सारा 0.166667
صاحب अँगीठी 0.00131282
تین ख़ूबी 0.0468782
چل फ़ैसला 0.122355
شیروانی लगे।” 0.0787604
اسکول करती।मेज़ 0.0370913
پدم ग़ाइबीन 0.235678
ناک चिड़े 0.068927
پڑجائیں की 1
گے۔ की 0.381924
میں जवाब 0.00593872
حاضر पोशी। 0.364171
قویٰ तालीम 1
آتے एतबार 0.132967
کراسےکترتا “मान 1
ہےمگرگلہری “मान 1
اورگلہری “मान 1
دوسری याफ़ता 0.0399452
نکل की 0.534976
لکھا आएँ। 0.0262612
ان जवाब 0.0100694
تقسیم हुई?” 0.112678
اسٹیشن पाती।अगर 0.00942793
گیا۔ आएँ। 0.0144881
یہاں फ़ैसला 0.0270189
دیا आएँ। 0.00316811
رہی की 0.435301
لگا۔ आएँ। 0.0220454
ہی "वाहिद 0.000180081
لوگ बद्तर 0.00547347
نے जवाब 0.00569567
تھا "वाहिद 0.000832689
‘‘اگر फ़टीचर 0.276922
پہنچا बद्तर 0.272306
پڑا۔ फ़ैसला 0.280901
بہت "वाहिद 0.00146289
ہیں۔ बद्तर 0.000524323
کرتے बद्तर 0.00172995
رویے ईमान-दार 0.407407
الموت इज़राईल 0.10439
کر "वाहिद 0.000232525
پانچ रिसीवर 0.0240659
خشک، मरौअत 1
تابحد मरौअत 1
درست पड़े 0.215592
دی۔ याफ़ता 0.0830398
زندگی जादू 0.00932524
ہوا फ़िर्क़ा 0.00418377
کم अँगीठी 0.00345176
رہ जादू 0.0301855
ہمیں धुल 0.0196098
خدا، बिकता 1
سیرت वाक़या 0.0360823
اپنا मख़्वाह 0.0044955
۔جی बाज़ार 1
ہے!اور बाज़ार 1
بالغرض बाज़ार 1
بندوں करे। 0.600949
جارہا मख़्वाह 0.0543343
اس हूँ।ऑल 0.000110616
ہے) पोशी। 0.00849627
وہ हूँ।ऑल 0.000300886
ہی हूँ।ऑल 0.00027147
مہر हाँ-हाँ 0.090824
خیال खुला 0.0204914
ہے؟" एहतियात 0.0587986
ہوں۔ फ़िर्क़ा 0.00473593
مکالمہ पॉर्क 1
ہوتا दिक़्क़त 0.00211777
ہیں दिक़्क़त 0.000468395
اتارچڑھاؤ۔’’ पूछा।बुख़ारी 0.238477
حیرت है।समझे 0.406541
کیجئے अँगीठी 0.0462149
بتائیے۔’’ ज़ुल्म 0.164939
مشورہ हमदर्दी 0.0249766
ہو۔ खुला 0.0322321
قسمت जादू 0.203045
میری मख़्वाह 0.00343862
کےوہ फ़हम 1
تھی۔’’ “मर 0.185717
لوگ जंत्री 0.00412632
کہ फ़ारसी 0.000737948
جہاں खुला 0.0125662
ہے۔ फ़ारसी 0.00167454
والی फ़ारसी 0.112019
ا की 0.805095
ہوگئی फ़िर्क़ा 0.0675675
اب फ़ारसी 0.0137642
جو जंत्री 0.00104104
ہمیں हमदर्दी 0.00653662
کب हूँ।ऑल 0.0260436
لیے मख़्वाह 0.0044287
آپ अँगीठी 0.00148574
سنبھالو बदला 0.514701
ہم फ़ारसी 0.00312194
لیٹ जवाब 0.596836
مل गए....माफ़ 0.0275833
داروں ग़रारा 0.172132
طرح जंत्री 0.00165217
پڑھنے आएँ। 0.109656
ہی करता।कभी 0.00162057
حسین नौ-मौलूद 0.0391004
چلے "वाहिद 0.00600954
معاف अँगीठी 0.0250002
کہ पाकीज़गी 0.000666766
جھونپڑی बा-तस्वीर 1
میں39ء बा-तस्वीर 1
افیمی बा-तस्वीर 1
کیسی करती।मेज़ 0.333332
ان दादा 0.00333888
اور पेश-ए-नज़र 0.00203687
خرابےسےڈرتاہوں۔اندیشہ बे-नवा 0.49948
ہوں मुरब्बियाना 0.000938781
دی सड़क 0.0582309
بنی۔ अल्लाह-अल्लाह 1
کہ बिना 0.00133353
دیکھا फ़ारसी 0.122617
داخل दिक़्क़त 0.0282512
غیظ ग़ैज़:- 0.453339
بات सड़क 0.00956141
کرنے हमदर्दी 0.00959069
غور हमदर्दी 0.0137816
آواز लगे।” 0.00812291
کیے दहन 0.0524781
اگر आलमगीर 0.00908319
ہوں، जादू 0.0684049
صاحبان गर्मी 0.523256
"ہاں इसार 0.0467951
دیں हमदर्दी 0.0812905
جمیل हैं।मिसाल 0.75
بیدردی लगे।” 1
دامن लगे।” 0.0542581
‘چر’ लगे।” 1
آئی—میں लगे।” 1
کر सड़क 0.00313194
گے، हमदर्दी 0.121932
کہہ सड़क 0.142207
قانون आतिश 0.239178
کئے जादू 0.0950207
اخلاق पेश-ए-नज़र 1
ماموں बनाऊं 0.0162405
ہے۔ अधूरे 8.37012e-05
آئی، की 1
اگرایسا आह 0.00371734
کام हवास 0.0128024
اس गिरता 0.000322423
نظم कीड़े 0.0553076
نہ दिखला 0.00160551
میں गिरता 2.90464e-05
ریاست करती।मेज़ 0.0244758
ہر हवास 0.0064199
سواری अधूरे 0.0181828
اب महंगे 0.00619039
‘‘جی वाला”और 0.0628267
نمٹنے तक़रीर 1
سرے हवास 0.100595
قابل हूँ।ऑल 0.0211358
واحد चिड़े 0.0958046
تھا गिरता 0.00373416
میری सड़क 0.0464418
جاسکتا हुई?” 0.0174926
مایۂ फ़हम 0.829308
نہیں कारोबार 4.56794e-08
ہماری जंत्री 0.00888514
وہ शायर 0.00497615
تھا जी!कपड़े 0.00749342
ملا، किया, 1
لاؤڈاسپیکر किया, 0.499995
معززخاتون किया, 1
منھ की 0.992833
بڑی हवास 0.0104535
وقت गिरता 0.00552881
گلا बनाऊं 1
سستا "वाहिद 0.500026
نسخہ "वाहिद 0.00916972
گیا शायर 0.0455426
حسین दर-हक़ीक़त 3.6151e-06
ہے۔’’ शायर 0.0644935
ہمارے फ़ारसी 0.017647
تو"۔ आते,तो 0.333333
آیا तमद्दुन 0.0112886
کومل आबी 1
ہیروبن आबी 1
فون तमद्दुन 0.0745849
وقفہ दिक़्क़त 1
سجدہ नावाक़िफ 0.11117
چھوٹی हवास 0.184602
نزدیک "वाहिद 0.0169891
ناپید ।" 1
بدصورت पर्चे 0.816327
از अँगीठी 0.0474661
نظم अँगीठी 0.0122819
بحر रिसीवर 0.283162
بغیر जादू 0.0286387
غالب शब 0.0284992
ہےدن पर्चे 1
ہمیشہ माँग 0.0121322
بھروہ पर्चे 1
صنعت फ़ुलां 0.0947469
چیزکودیکھ पर्चे 1
نہ सीधे 0.000458459
بعض अधूरे 0.0104732
لیکن सवार! 0.00143673
کیونکہ शायर 0.279988
اسے सीधे 0.0132941
کہتے अधूरे 0.00836337
تمام फ़रोग़ 0.0590337
دوچارپائیاں मुलाज़िमत 1
اور पर।” 0.000284074
لڑکی माँग 0.0342236
چوری बद्तर 0.0561626
چکراسے नौ-मौलूद 0.195151
ہونے कारोबार 0.0319216
میں मिसरे 0.000757199
خیر फ़िर्क़ा 0.0292682
آنکھیں मुरब्बियाना 0.0313766
مارتے हमदर्दी 1
بتا "वाहिद 0.14287
ہنس शायर 0.321047
ہے۔وہ है)उर्दू 1
ہمیں पर।” 0.00438967
‘‘وہ “जी! 0.0476663
کسی हूँ। 0.0203799
کر है।बेदिल 0.000692696
سمجھا۔ इर्द-गिर्द 0.297474
ہے۔ महल 0.00301324
کواہمیت याफ़ता 1
جائے۔ शब 0.0290256
ہندوؤں याफ़ता 1
کتنے जवाब 0.243696
ٹپکتی वाक़या 1
تن गोपाल 0.42736
داخل शब 0.0706281
ختم गया“नियत 0.0373335
کب पर।” 0.0695136
رنگ मिसरे 0.00189192
پھر उलुल-अज़्मी 0.00784446
پیسے जवाब 0.277657
رہیں’’مرزا जाऊँगा। 1
لگایا۔ जाऊँगा। 0.403164
طرح हूँ। 0.038039
تھی—! कूटते 1
و थी,या 0.00733726
عشق (शे’र 0.0276435
صورت है।बेदिल 0.032122
بھی दर्ख़वास्त? 0.000227075
کار अधूरे 0.0610203
رکھا दर्ख़वास्त? 0.012582
والا पूछा,आख़िर 0.0641758
جی थी,या 0.0139893
انسان शायर 0.180813
بےرنگ वाक़या 1
نیکی वाक़या 1
تصورکرتی तबसरा 0.249998
کے बजा 0.00042371
تھا۔ बजा 0.00889646
ہے आइना 0.000573574
ہے۔اگر नज़्मों 0.25
ایک बजा 0.000419483
تو आइना 0.00111722
اختیار है।बेदिल 0.123948
کیا आइना 0.00116443
آتی हवास 0.0182701
اپنے “जी! 0.00158959
طرف बजा 0.0102602
بہت बजा 0.00732725
کرکے शब 0.0377629
ع उतारी 0.129183
ہونے गया“नियत 0.00354689
لوگ से....” 0.00234681
بدقسمتی गोपाल 0.27907
آج तौहन-व-करहन 0.004962
نہیں से....” 0.000261453
ہے۔ तौहन-व-करहन 8.16994e-05
غذا हवास 0.545455
اپنی सत्तर 0.00392697
نام झलकियाँ 0.00934164
شاید से....” 0.00694187
سبھی आलमगीर 1
خاطرانھیں हुई?” 1
قسموں हुई?” 1
موجودگی मख़्वाह 0.333297
یہی कोशिशों 0.022335
گے۔ पूछिए 0.00620338
ذکر गया“नियत 0.0144872
آپ सुनी। 0.00119457
جاسکتا पोशी। 0.0175323
خبرہوجائےکہ गिरानी।सारी 1
کوسنے आइना 0.0881714
کاٹنے आइना 0.0677885
نہیں बिछा 0.00110109
آپ पर।” 0.00299323
ہم ईएसए 0.000701879
گی۔میرے बनाऊं 1
بخشے बनाऊं 1
یہاں थी,या 0.0185271
مصنف की 0.829767
چند ज़ेर-ए-ग़ौर 0.016241
میرے बिछा 0.0128385
گھوڑے अधूरे 0.0350709
دیں पूछिए 0.121936
قابو हूँ। 1
توڑ दर्ख़वास्त? 0.0738479
ہے، सुनी। 0.00122566
ہیں!’’ हूँ।अल्लाह 0.0924753
وہ तरह,बिल्कुल 0.000358763
بکتا खुला 0.333393
آدمی गिरता 0.0352109
کر (80) 0.00209443
چاہتی۔ बिछा 1
بچے बिछा 0.132329
جئیں बिछा 1
ان तरह,बिल्कुल 0.000222596
جانتے۔ से....” 1
اکثر गया“नियत 0.00952309
دوسرے दर्ख़वास्त? 0.0098484
دیسی ईएसए 1
معمولی सुनी। 0.0260461
خواہ तौहन-व-करहन 0.00609954
زار! तमद्दुन 1
کہنے बुलबुलों 0.00352327
دنیا तौहन-व-करहन 0.00878211
لگے۔ बुलबुलों 0.0158636
لئے बजा 0.0128581
ہوگیا सुनी। 0.00537613
اسی तजरबा 0.0143805
سائنس अधूरे 0.249988
بھتیجے ड्रामा 0.0327875
تا दर्ख़वास्त? 0.124972
تجربہ अधूरे 0.0276032
مالی “जी! 0.436226
شان थी,या 0.666274
کا मूंछों 0.00102993
ہمہ गोपाल 0.201434
لطیفہ सत्तर 0.0517012
۰۰/۵۰۰ ज़ंजीर 0.405938
وہ (तालियाँ) 0.000199272
محض सुनी। 0.00557122
کیا शेर 0.00441061
اور ख़ालिस 0.0108633
ربط एतबार 0.827456
سوالات एतबार 0.0519025
غالب:۔ अँगीठी 0.00331035
ہیں۔ (तालियाँ) 0.000349562
ارشد अँगीठी 0.0417072
اسے शेर 0.105736
انسان तौहन-व-करहन 0.0072531
بڑھا आएँ। 1
لوگوں ईएसए 0.0165638
کر ख़त्म 0.00359724
جس शेर 0.0513202
پیدل फ़ैसला 1
نہ खिंचने 0.000320885
دل ख़त्म 0.0322541
تو खिंचने 0.000372441
دیکھاجو बहीश्ती 1
اگر करो...... 0.00151387
بات खिंचने 0.00127451
رادھا बकवास 0.470283
طرح शेर 0.0152563
ہم जाना 0.00393053
دیتا۔ मुरब्बियाना 0.0208819
دھوبی दुबारा 0.0104857
تھی۔میرے की 1
‘‘آج की 1
بہتیرا मुरब्बियाना 1
جھپکتا मुरब्बियाना 1
سجھائی मुरब्बियाना 1
سمجھ खिंचने 0.0266922
’’آپ आएँ। 1
ہے डालने 0.000218969
یا डालने 1.11374e-05
کا डालने 6.23003e-05
چیزیں किराये 0.0069328
ہے जदीद 0.00860065
ہوگا गुज़ारनी 0.135699
پوری जाना 0.0675024
پھر जाना 0.0109822
جائے۔ करो...... 0.00580511
اسی बादशाह 0.0217829
نہیں जान 0.0171264
سوچتا जादू 0.0977824
لیے करो...... 0.0044287
کو बादशाह 0.00227746
مخصوص बजा 0.518024
پچھلے ज़ेर-ए-ग़ौर 0.0222381
بھیجا मख़्वाह 0.240261
نام शेर 0.0636934
چنانچہ जाना 0.102977
خواجہ जुमेरात: 0.0108671
حسن जुमेरात: 0.0119078
خاں सीधे 0.391325
نظامی जुमेरात: 0.0104429
سمجھا करो...... 0.0338927
بھی हैं।थोड़ी 8.94813e-09
کھلا ख़त्म 0.332718
کھائے، मुलाक़ाती 0.667184
نسخہ लगाएँ,तो 0.0825189
مرزا बुलबुलों 0.00247448
سامعین गोपाल 0.164393
ایک पूछा:“ये 8.86235e-05
پاتا कारोबार 0.399997
دینا (तालियाँ) 0.0118874
ہے۔ “साहब!जन्नती 0.000103182
ظاہر जाना 0.376705
مجھے जान 0.0576199
چیز किराये 0.00363667
نہ मजमा 0.0012039
موجود किराये 0.0158053
صرف खिंचने 0.00236563
اس हर 0.0190257
نہ हर 0.0888971
ضرورت करो...... 0.0108771
وہ हर 0.024832
(اسے पोशी। 1
عطیۂ पोशी। 1
بالکل क़मीज़,लैस 0.0500537
آپ पूछा:“ये 0.00119535
ہوں मजमा 0.0042248
خدا “साहब!जन्नती 0.0023843
غیر किराये 0.181818
‘‘ہمیں ज़ुल्म 0.120574
کو۔’’ “जी! 0.545454
خانہ फ़ेहरिस्त-ए-दवा-ख़ाना, 0.0396304
کس “साहब!जन्नती 0.0028098
ہمارا (तालियाँ) 0.00634198
ساتھ फ़ेहरिस्त-ए-दवा-ख़ाना, 0.00170243
نے “साहब!जन्नती 0.000157129
روپ पेश-ए-नज़र 0.384616
نے पूछा:“ये 0.000121679
پڑجائے ग़रारा 1
چلا अब्दुल 0.227229
ہوا क़रीब 0.0223134
*** संदूकची 0.056156
چلو था।दफ़्तर 0.0971571
ہزار तरह,बिल्कुल 0.0375999
ہونے किराये 0.00354689
ہم मजमा 0.00210577
ابٹن मख़्वाह 1
تھا،کہلا मख़्वाह 1
دولہا मख़्वाह 0.608696
کھانا फ़ेहरिस्त-ए-दवा-ख़ाना, 0.0363641
نہیں भून 0.000203896
نہ ख़ुशनसीब 0.000228648
ہاں۔ थी,या 0.228237
دنوں शेर 0.37908
‘‘ارے हुए।” 0.098388
وصف हवास 0.571429
پکڑی “साहब!जन्नती 0.128659
الدین हैं।मिसाल 0.571429
عالی हैं।मिसाल 1
کوئی ख़ुशनसीब 0.00192649
دھیان (तालियाँ) 1
پردفتر लहजे 1
پہنچنا लहजे 1
زبان “साहब!जन्नती 0.00569029
کھائے पर।” 0.251528
تھے۔ भून 0.00174685
رشک जादू 1
پڑھی हैं।थोड़ी 0.255304
جنہوں किराये 0.0475577
تھیں—میں “मर 1
اکیلی “मर 1
نے उभरीं,और 0.0010972
ہمارے डालने 0.00374957
دیں۔ जाना 0.545454
سوفیصد पड़े 1
ہےمگراب पड़े 1
دور भून 0.00451722
نظر रस्सी, 0.0282389
بالکل क़रीब 0.0667382
تھی، हैं।थोड़ी 0.0365409
پطرس ओंघने 0.158404
بات तीन…..तो 0.00190235
اگرایسا सवार! 0.467203
بولیں— की 0.937805
پڑھی मजमा 0.574473
ماں ख़त्म 0.295877
پیمانہ तौहन-व-करहन 0.50073
یہ तीन…..तो 0.000113963
کریمہ पोती 0.0666131
مستنصر दर-हक़ीक़त 0.18882
بہت तीन…..तो 0.00393061
و पैथिक,एलोपैथिक,आयुर्वेदिक,बाबू 0.00321005
بار पूछा:“ये 0.00491557
کیا ख़ूब, 0.00388134
الٹا (तालियाँ) 0.112854
ایجاد करो...... 0.0909091
طبقےسےاپنی है)उर्दू 1
مگرجناب चाहिए।हमारी 1
میں ग़ालिब 2.51359e-06
کیا ग़ालिब 0.00290885
کا ग़ालिब 0.00902327
ہوں ग़ालिब 0.00844532
‘زندانِ लिस्ट 1
غالب’رکھ लिस्ट 0.0181448
جائےاور लिस्ट 1
جیلوں लिस्ट 1
اور ग़ालिब 0.00895905
ہوتے ग़ालिब 0.229906
جانے ग़ालिब 0.0780833
میرے वलवले 0.0106982
اطراف मजबूरी 1
پھیلنے मजबूरी 1
آیۃ की 1
چھوٹے फ़ेहरिस्त-ए-दवा-ख़ाना, 0.391304
خواہشات जाना 1
دیا फ़न-ए-लतीफ़ा-गोई 0.00712824
رکھ पूछा:“ये 0.020332
سنا टच 0.0300505
کہانی हैं।थोड़ी 0.152415
مشورہ लेते।” 0.0189489
آہستہ फ़ैसला 1
بےخطا ख़ूबी 1
ساتھ यलग़ार 0.011917
نکال ख़त्म 0.695324
عالم “किस 0.040816
کوکیوں सीधे 1
آئینہ वलवले 0.692308
رہا ज़रूर 0.0257455
نے लेते।” 0.000267043
سامنے पैथिक,एलोपैथिक,आयुर्वेदिक,बाबू 0.00386411
تخلص पूछा:“ये 1
جی ख़ुदाया 0.0139893
صبح ख़ुदाया 0.00595086
"تو बुलबुलों 0.0510417
دل ज़रूर 0.0189947
دو “किस 0.0197123
نام ग़ालिब 0.0643264
ہیں۔’’؟ जाऐंगे।” 1
کریں۔ पूछा:“ये 0.0400247
بولیں‘‘نہیں، लहरों 0.166663
دیا۔ लेते।” 0.0266682
باغ ख़त्म 0.567671
ہیں कमीशन 0.0010538
کہ कमीशन 1.13204e-07
لڑائی लपकी 0.0847212
نام छःमाशे 0.00485316
اسی कमीशन 0.00718963
دوسری लेते।” 0.0200396
تھا۔ नंबर 0.00959054
تو गुल 0.00114533
ولولہ ज़रूर 1
کر वैदिक 0.00104645
پانچ फ़ेहरिस्त-ए-दवा-ख़ाना, 0.0154709
چائے बाइस्किलों 0.0731371
کوئی गुल 0.0202054
پھانسی टोस 0.735433
کہہ वैदिक 0.023708
حضرات पैथिक,एलोपैथिक,आयुर्वेदिक,बाबू 0.0152844
بڑے बाइस्किलों 0.0151969
اڑاتے (तालियाँ) 1
صرف सुनिएगा। 0.00131402
کالج ख़ुदाया 0.0128482
مذاق (तालियाँ) 0.103629
درکنار (तालियाँ) 0.307698
فضل कर्रार 0.204545
جدید भून 0.0233989
درجے तरह,बिल्कुल 0.444445
نریتہ करती।मेज़ 1
کلا करती।मेज़ 1
پتہ नंबर 0.420901
مجھے नंबर 0.00370404
ہیں۔" wonder 0.0876428
ہے؟’’ ज़मीमा 0.0900157
جوش बाइस्किलों 0.0927717
ہی नया 0.00324115
بات नया 0.00637146
ہیں फिरते 0.00210777
جلدی बाइस्किलों 0.219287
تھا۔’’ फ़न-ए-लतीफ़ा-गोई 0.0428544
کل नया 0.0336813
کچھ फिरते 0.00587044
گھاس करदिया 1
آواز था।फ़सल 0.0731061
سات फ़ेहरिस्त-ए-दवा-ख़ाना, 0.00818564
پروفیسر कमीशन 0.102829
شبینہ टच 1
ہے रस्म-ए-ताज 0.000644907
اپنے पसंदीदा 0.0158959
تھی۔ अंग्रेज़ी 0.0326867
آپ सुनिएगा। 0.00297146
کا रस्म-ए-ताज 0.000680218
خانے बाइस्किलों 0.165644
خواجہ हिदायात 0.0106687
حسن हिदायात 0.0117885
نظامی हिदायात 0.0107499
ثبوت गया“नियत 0.2
اُٹھ ज़रूर 0.0528936
پیدا करदिया 0.0106195
منایا शब 0.59448
آگ ख़त्म 0.320696
ہے दख़्ल 0.000844536
کہا अंग्रेज़ी 0.0160539
تھا शैतान-ए-आज़म 0.00149869
طفلانہ जाना 0.611654
آخر जाना 0.12292
کرہی जाना 0.770642
یوم शब 0.817592
قصور डालने 0.260817
سالوں ज़ेर-ए-ग़ौर 1
ایک वग़ैरा। 0.000719676
کتا करदिया 0.0682424
نا सुनिएगा। 0.0176807
گزر रस्म-ए-ताज 0.130648
قاعدہ गया“नियत 0.181818
ساتھ बातें।” 0.011917
لاحق आलमगीर 0.75
تھی۔ घोड़ा 0.0245151
ن परीज़ाद 0.278679
خوبصورت तंज़ीम 0.356436
صنف भून 0.0159474
دے घोड़ा 0.0252536
فرماتے सुनिएगा। 0.147368
ہم शैतान-ए-आज़म 0.000561503
دیکھئے सुनिएगा। 0.2
ایسی वग़ैरा। 0.0137107
واقعے गया“नियत 1
کرتےکہ गया“नियत 1
بغدادی गया“नियत 1
پہننے،غسل नसो 0.0706626
یاد अंग्रेज़ी 0.0336673
اواگون पेश-ए-नज़र 1
آجاؤ۔ मक्कारी 1
دے बअज़ 0.0462984
بات बी.ए.में 0.00212382
مگر वग़ैरा। 0.00986786
نےایک वग़ैरा। 0.32928
بن में,बाग़ 0.0110342
اتنے घोड़ा 0.0865947
مولوی पैथिक,एलोपैथिक,आयुर्वेदिक,बाबू 0.0523245
عاشق में,बाग़ 0.0209612
جائیں बअज़ 0.182525
شوکت थी,या 0.260492
پیش लीजिए 0.127688
کہتے अंग्रेज़ी 0.07527
اورسوئی दिक़्क़त 1
بازومیں दिक़्क़त 1
ہونےاورنکلنےکا दिक़्क़त 1
سب फाड़ने 0.00435025
توقیامت दिक़्क़त 1
ہے۔جب दिक़्क़त 1
جیسی लीजिए 0.185887
قرار भून 0.00562005
بات फाड़ने 0.00254858
وقت में,बाग़ 0.00123276
پھر बअज़ 0.0107861
کہتا फाड़ने 0.0264315
سوگیا۔ की 1
کہیں बी.ए.में 0.0123643
مرزا सुनिएगा। 0.00109977
اس ख़ातिर 0.0005252
کی ख़ातिर 9.7695e-08
میر शेर 0.326816
رہی घोड़ा 0.0212114
جو फाड़ने 0.00331418
"بس कोशिशों 0.0189742
جائے ख़ातिर 0.0456549
اسامی ख़ुशनसीब 1
ہیں،مثلاً हमदर्दी 1
آلو،مٹراورٹماٹرپسند हमदर्दी 1
ہوئے वज़ू 0.0121377
واپس बअज़ 0.141043
پہلی लीजिए 0.234197
چلااوراس फ़ेहरिस्त-ए-दवा-ख़ाना, 1
ٹھیک अंग्रेज़ी 0.0395627
کوشش ख़ातिर 0.0584867
ہاں अंग्रेज़ी 0.209499
یا बहस-व-तकरार 0.00315869
تھا’’ایک दर्ख़वास्त? 1
بدگونے दर्ख़वास्त? 1
گفتگو लीजिए 0.183279
“دور कीड़े 1
اپنا इज़्हार 0.00674337
صاف बअज़ 0.303763
ہے दे 0.0215879
کیا बह 0.0014555
ہاں۔’’ वाला”और 0.0231873
نہیں दे 0.0246077
تین लीजिए 0.0218765
بدذوقی सड़क 1
وفادار “जी! 0.583333
دیئے भून 0.263158
اب बह 0.00464279
‘‘ولایت ख़ुशनसीब 1
پاس’’ہوکرآئے۔ریاست ख़ुशनसीब 1
آواز घोड़ा 0.0674224
سنائی घोड़ा 0.285917
جاتے में,बाग़ 0.00597001
ہیں۔’’ हुए।ख़ुदा 0.119312
غسل बाइस्किलों 0.198758
میں पहलुओं 0.000809851
ضرور लीजिए 0.0434936
مجھ ख़ातिर 0.0215094
زدہ घोड़ा 0.590704
اب डिस्टर्ब 0.00103173
ہی नाक़िस 0.000644014
ایک नाक़िस 0.000320408
میں गई।” 1.73592e-06
ہوئی गई।” 0.00671636
چونکہ ख़ातिर 0.0649585
گا؟ पर।” 0.234844
اور तिजारत 0.00271583
جائے “बदनाम 0.0189363
تجریدی निसाब 0.339585
سوال इज़्हार 0.177816
کسی दीवान 0.00604994
جزیرہ हूँ।ऑल 0.376299
پرقدرت जादू 1
بھی दीवान 0.00200105
ہوگی۔ बी.ए.में 0.239999
کیوں मसमसा 0.0271702
ہو न 0.0422453
آگیا लीजिए 0.0522675
کی न 0.040666
مشہور पैथिक,एलोपैथिक,आयुर्वेदिक,बाबू 0.0333899
وہ न 0.0104663
کہ न 0.00315681
اور न 0.0160311
بھی न 0.0472795
ہے۔ जब 0.0653833
بہت कहानी 0.00329114
کر गई।” 0.000779207
ہر न 0.113048
ہے۔" तीन…..तो 0.000132779
جاں थे।मुझे 0.12267
گا काँपने 0.0256305
کھوسٹوں तरह,बिल्कुल 1
نے थे।मुझे 0.000115359
ان न 0.00669606
کروڑپتی माँग 1
سےجو माँग 1
بدصورت माँग 0.183673
جاہل، माँग 1
پھوہڑ माँग 1
اورلڑاکا माँग 1
تمدن डालने 1
یاد बह 0.0252505
ساتھ न 0.0699374
بڑی न 0.184074
کی मसाइल 0.00229732
ہال ख़ुदाया 0.0759095
وہاں है।आर्टिस्ट 0.0423146
آنکھوں गई।” 0.0741278
بول भई, 0.077789
رکھتا डिस्टर्ब 0.0243557
ہم न 0.247203
کے बहाते 5.12047e-09
آئی थे।मुझे 0.0141047
کو है—!! 0.00153339
داستان टच 0.0275381
کچھ बहाते 0.000733747
بیوی में,बाग़ 0.00378486
قسم बहाते 0.00419023
ہے कहूं। 0.000406609
تو कहूं। 5.72039e-05
سی न 0.187516
کہ कहूं। 8.79375e-05
صادق अरूवे 0.772362
پھاڑ गई।” 0.41292
بکتا ग़ालिब 0.666607
بولا गई।” 0.139632
"تمہارا फ़ूलने 0.125
وہ सवार 0.00165612
سب सवार 0.0100394
ہے(مرغوں हवास 1
مسلسل घोड़ा 0.5625
کچھ सवार 0.0054191
آنکھیں गई।” 0.183398
دفعہ बअज़ 0.0354555
صورت दीवान 0.0403694
گے न 0.222314
کہ उल्टा 0.00252102
خدا बहाते 0.00207006
مضمون नाक़िस 0.0122455
ہوں उल्टा 0.00686646
بس कहूं। 0.0233079
ہے۔ त्यौरी 0.000125399
ہوتی कहानी 0.0118722
رات न 0.221018
مضامین नाक़िस 0.0717887
ہوتی न 0.0929145
اگر बहाते 0.00170297
کم दीवान 0.00676447
مہر सिरी 0.090824
جانےکےسبب न 0.0826162
مجھے बहाते 0.000771615
کروں न 0.395263
تم सवार 0.0106732
خودانتخاب पूछा:“ये 1
کسی रिहाई 0.000599396
یہی कहूं। 0.0114547
تم त्यौरी 0.00192812
خاموش कहानी 0.0548198
اشارے त्यौरी 0.600058
اسداللہ सीधे 1
دکھایا، सीधे 1
مسیحا सीधे 1
سوالات खाती 0.0861907
لگتا न 0.539111
ہاتھ त्यौरी 0.00609704
اورپھر ईएसए 1
کرفرمایا۔ शायर 1
جدامجد शायर 1
تو करो 0.00466149
ہیں करो 0.00265482
چلو त्यौरी 0.0161968
بچوں त्यौरी 0.0659712
نظم वग़ैरा। 0.0331629
کیا करो 0.00486607
افیم ख़त्म 0.938584
۔ सवार 0.021666
ٹھیک काँपने 0.00844579
نام मोअज़्ज़िज़ीन 0.00155692
دوسرے थे।मुझे 0.00771099
یہ करो 0.00271649
میل जब 0.844065
واضح न 0.792876
وجہ कहूं। 0.0334058
باقاعدہ भून 0.4
گےے भून 1
سائے’’کا शेर 1
ہےکہ है।इंगलैंड 0.0108933
مانگنے न 1
بات है।इंगलैंड 0.00212382
وہ है।टब 0.00179385
معاملہ मानिए। 0.0688909
مالک रिहाई 0.027168
میرا हैं।मुझे 0.0161855
دولت न 0.870808
دینا सवार 0.0987398
سہی،مشتبہ किराये 1
دورِ किराये 1
مغلیہ किराये 1
شخص कहानी 0.0963736
ہوا है।इंगलैंड 0.00278918
معشوق सुनिएगा। 0.5
کوئی तिलमिलाते 0.00112323
اور कहिए 0.000889175
مضمون सोज़ 0.030564
تحت कहिए 0.31449
سامنے मानिए। 0.0077283
کے गुज़र 0.000833436
دوزخ बहस-व-तकरार 0.268532
اتنی न 0.353748
شریف बारहंगी 0.0405535
تھے बारहंगी 0.00200848
سے गुज़र 0.00218895
کوئی कहिए 0.00601185
پھراس गुज़र 6.56072e-05
حضرت तिलमिलाते 0.0383731
مرحوم हल्की 0.0194077
دکان रिहाई 0.0831545
تھوڑاہی थी,या 1
اعلیٰ बहाते 0.359982
پیرومُرشد है,आशिक़ 0.037037
بوڑھے वग़ैरा। 0.020876
ضرور सवार 0.0573562
ليے बहाते 0.0027022
ہاں सवार 0.0966954
جاتے बारहंगी 0.00767573
‘‘خلق “साहब!जन्नती 1
جوشیلے वग़ैरा। 1
پڑھی۔ वग़ैरा। 1
ہوئی गला,गर्दन 0.0179047
ساچبوترہ बजा 1
مقرروں बजा 1
یہ दिलचस्पियों 0.00109985
سفر बारहंगी 0.0294614
اورسلوتری अधूरे 1
پرتشریف गोपाल 1
لانےکوکہا۔ गोपाल 1
اندازڈالی गोपाल 1
اورفرمایا۔‘‘صاحب गोपाल 1
صدر!میں गोपाल 1
سال मसाइल 9.83978e-05
تعلق डिस्टर्ब 0.114705
کہ फ़िट 1.87492e-08
مچھلی कहानी 0.0437309
ہے अव्वल 0.000736309
کے अव्वल 9.91747e-06
گا، सवार 0.270519
اب शिकनी 0.00412693
اوران गई।” 0.267981
ہیراجی:۔ सुनिएगा। 0.0111194
موسمی सुनी। 0.0217391
بخاریا सुनी। 1
نزلہ सुनी। 1
بخار सुनी। 0.0640372
جان आमदनी 0.00548674
نے बिखराए 0.000746976
لیکن शिकनी 0.00384768
حسن तज़बज़ुब 0.00584451
نظامی तज़बज़ुब 0.0268306
فتوحات टच 0.6
لزیز टच 1
تے टच 1
ملے फ़लसफ़ियाना 0.0312984
لے फ़िट 0.0465897
نا؟" दख़्ल 0.166168
بھیج सवार 0.0738837
نے अव्वल 0.000842675
بزرگ थे।मुझे 0.0241528
کیا नरी 0.000431265
روپیہ न 0.710764
ہوجائے सवार 0.0490074
ہیں सच्चे 0.00107084
و नरी 0.00570682
کے सच्चे 1.73445e-07
جیت कमीशन 0.126152
مشتاق बॉय-फ़ोकल 0.180123
منہ सच्चे 0.0220717
بند आदम-जा़द 0.0196684
پر नरी 0.000343683
کر नरी 0.000465409
آتے सच्चे 0.0563457
دل नरी 0.0042211
تصویر गुल 0.69102
ہیں۔ चारा 0.00251678
دہرایا۔ इज़्हार 0.538457
کھلائے पर।” 1
یا फ़ुतूर 0.00100402
فرشتوں उसका!वह 0.230769
ہوتا चटनवी 0.00161979
سے चटनवी 0.000159236
کشتی आमदनी 1
دودو शब 1
چارچار शब 1
نئےقیدی शब 1
آگئی۔ बह 0.240828
جموئی डब्लयू. 0.0364073
پیدا उसका!वह 0.0106194
میرے चटनवी 0.00363668
بانا से....” 0.0529782
ارادہ मोहन 0.0128466
ہے होने 0.00658837
کاٹا’’میں से....” 1
کہ होने 0.00241574
بیچ सच्चे 0.0392008
کہ‘‘کانا से....” 1
کچھ होने 0.0608772
مجھے मोहन 0.00123896
خطرناک स्टाफ़ 0.123349
جو होने 0.0286385
رکھنے मानिए। 0.0309159
نظر सच्चे 0.0143466
اسم न 1
ڈھائی शैतान-ए-आज़म 0.0407893
ہاشم आलू,मटर 0.0341557
جارہے पूर 0.0173876
میں जाएगा।”एक 2.97929e-06
تحریر मारका-अल-आरा 0.000575574
صاحبہ मारका-अल-आरा 0.0221687
نے होने 0.0287462
ام मारका-अल-आरा 0.972129
کلثوم मारका-अल-आरा 0.0623319
ایک आओ।अगर 0.000193034
کہ ब-आवाज़ 0.000665158
کون चारा 0.0254366
آپ अव्वल 0.0109109
کہ सितारे 0.000666727
معشوق में,बाग़ 0.5
اب जाएगा।”एक 0.00616762
کچھ सितारे 0.00587078
آنکھیں आदम-जा़द 0.0947324
ہر ज़ीस्त 0.00867095
بناتا—! जान 1
ان ज़ीस्त 0.000611893
کھولا नंबर 0.333333
فرمایش पूछिए 1
قسم निज़ाम 0.100573
افوہ۔ जाइए।बाक़ी 1
سنیما शिकनी 0.6
کر घुट्टी 0.000261734
شروع चटनवी 0.00337356
لئے पूर 0.00770056
گاروں बग़्दादी 0.142857
لحاف डिस्टर्ब 0.156716
رکھ नरी 0.0406379
قصہ चटनवी 0.0212825
پختہ न 0.963522
ہم इशक़ 0.00280751
نظر पुरानी 0.0282389
جناب शिकनी 0.157379
سوروپےبچانےکے शैतान-ए-आज़म 1
لیےلازمی शैतान-ए-आज़म 1
اور सुनाएँगे। 0.000185344
نہیں सुनाएँगे। 0.000257729
کچھ सुनाएँगे। 0.000848505
جنم रिहाई 0.375001
! चारा 0.237144
کےمعیارکو तौहन-व-करहन 1
ناپنےکا तौहन-व-करहन 1
پیالہ तौहन-व-करहन 1
نہ कहना 0.00188913
خود तसनीफ़ात 0.00452035
کہ कहना 0.0031333
کچھ पहने 0.0066042
کہتا कहना 0.233326
ہوں कहना 0.0132595
اچھا۔ तीन…..तो 1
بہت पहने 0.0296205
پھیر न 1
بوڑھا कहिए 1
تھی۔ मोहताज 0.0108956
کھانسی नहीं।कम-अज़-कम 0.112678
ہیں۔’’ पूर 0.0397708
‘‘جی जनाज़े 0.0328525
اجی चारा 0.204201
شعریہاں गुल 1
عجیب पुरानी 0.281092
لیکن कहना 0.00339657
کس मोहताज 0.0032529
ٹھیک पुरानी 0.0395619
ہی अल-ग़र्ज़ 0.000180064
(12) नहीं।बल्कि 1
تم कहना 0.0136132
دو कहना 0.0464032
"ہاں सवार 0.215985
ملے पहने 0.176054
نہیں۔ भरा। 0.000439432
بننےکی मोहताज 1
جنم है।इंगलैंड 0.375
کیونکہ तसनीफ़ात 0.0100782
ہے सिर्फ 0.00191126
یہی कहना 0.028647
ہو" करदिया 1
لیکن۔۔۔ करदिया 1
جنت बहस-व-तकरार 0.0329984
کوئی बिकाऊ 0.00149764
کو कौर 0.00153339
رات मोहताज 0.00313787
نام तसनीफ़ात 0.00186833
ساڑھی सिरे 0.920267
ہارمونیم (मज़ाह)की 1
کرنے सुनाएँगे। 0.00416083
معروف पैथिक,एलोपैथिक,आयुर्वेदिक,बाबू 1
نام लड़ाने 0.00311388
قتل दाँतों 0.143079
رہے अल-ग़र्ज़ 0.00134475
شوکت लीजिए 0.638206
ماری ख़त्म 1
خوری न 1
ہم बिकाऊ 0.000935838
کم पहने 0.0349497
بیری वज़ू 0.789474
ہی है)मुर्ग़ीयों 0.000810286
سنتے लड़ाने 0.269529
نگلتے वज़ू 1
کومرحوم वज़ू 0.818182
جانتا कहना 0.513016
‘‘بھائیو!میں तिलमिलाते 1
مقررتوہوں तिलमिलाते 1
لطیفہ आओ।अगर 0.026148
غریب प्यारा 0.151084
شیاطین कला 0.198749
بنا،چاہ ना-फ़र्मान 0.00612013
بنا،مسجدوتالاب ना-फ़र्मान 0.140602
رقص सुनाएँगे। 0.0652701
قول नरी 1
پی، बाइस्किलों 1
خروش बाइस्किलों 1
آتےہیں यतीम 0.251739
نوبجےہیں۔ पूछा।“आप 0.333333
ہے 15 0.00191126
تھا۔’’ आओ।अगर 0.0216737
تھے अल-ग़र्ज़ 0.00156215
آپ प्यारा 0.00358372
اپنے अल-ग़र्ज़ 0.000883108
پر मंझ्ली 0.00154661
‘‘تو है।आर्टिस्ट 0.0260406
ذکر दाँतों 0.0434616
سوا सुनाएँगे। 0.176726
’’ڈاک नाक़िस 1
‘‘ریش पैथिक,एलोपैथिक,आयुर्वेदिक,बाबू 0.269673
حنائی’’چٹنوی पैथिक,एलोपैथिक,आयुर्वेदिक,बाबू 1
سیرت फ़लसफ़ियाना 0.00992263
کمرے मोहताज 0.00414104
مصلحت उसका!वह 0.146335
ٹوٹ मोहताज 0.149482
کے हम-वतनो 9.89642e-05
کا हम-वतनो 0.00028873
مل बरसर-ए-मतलब 0.0275833
نہ नावल 0.00040135
تھا۔ नावल 0.00199808
داد आपकी 0.138454
آتا सुनाएँगे। 0.0548018
رہ लाज़्मी 0.0679175
کہ 10 0.000666766
ابھی पहिए 0.0682781
یوں नावल 0.00385953
نصیب मोहताज 0.0980338
غالب बैरर 0.00732837
ہے؟" कहिए 0.0393386
قرار नरी 0.0112402
تک नावल 0.00198767
پھٹی गई।” 0.7242
وغریب पुरानी 0.833333
فرما अल-ग़र्ज़ 0.120402
دیتا पहिए 0.168098
پھنسا क़रीब 1
لیکن नावल 0.00036073
ہے۔’’ राहत 0.0231257
ہوجائیں प्यारा 0.126053
کا सामने 0.00466663
کہ सामने 0.00287709
میں सामने 0.00550602
لنڈورے नया 1
بھلے۔ नया 1
صرف है)मुर्ग़ीयों 0.00591307
نہیں सामने 0.0177225
گیا बैरर 0.00234186
اورروکھا न 1
عظیم ब-दस्त 0.000326357
جوابات हों— 0.333333
لیکن बैरर 0.000412251
موقع सामने 0.202149
پڑھا नावल 0.00871156
خیز सवार 0.690583
تمام नावल 0.00737942
شروع प्यारा 0.00661605
‘‘ارے करो 0.123923
گے، प्यारा 0.121932
کر सामने 0.0108212
کسی शख़्सिय्यत 0.000513775
کام शख़्सिय्यत 0.00548673
ابھی नावल 0.0099575
‘‘سرکار “किस 1
آجاؤ’’ “किस 1
برآمدے पुरानी 0.324324
آدمی हम-वतनो 0.0219191
ہیرو वक़्फ़े 0.371901
طلب आपकी 0.234491
قدرت मोहताज 0.139644
آیا पुरानी 0.0887902
ملے۔ ख़ुदाया 1
تھا भंडार 0.00299742
میری सामने 0.035055
ہے होते 0.0231641
بار आपकी 0.0663169
کہ होते 0.0163359
کرایہ रहे। 0.666667
دیکھ भंडार 0.0106842
جلسے फ़ुतूर 0.0295394
یہ होते 0.00908485
مشین पुरानी 1
ریاض गुज़र 1
بہت ढंग 0.0131646
کر भंडार 0.0016755
تھیں नुक़्ता-ए-उरूज 0.410453
ہچکی थे।मुझे 1
بحق थे।मुझे 1
ہوگئے’’ थे।मुझे 1
انگوچھے थे।मुझे 1
عبدالحئی दिमाग़ 0.878049
نگاہ:۔ दिमाग़ 0.878049
لحاظ हिंद 0.0735289
خانے प्यारा 0.124233
اصلی भरा। 0.090036
چونکہ बैरर 0.011547
کہا भंडार 0.00321083
عرصے बहाते 0.272702
ہو “मरने 0.000898698
معائنہ अल-ग़र्ज़ 0.153846
تو “मरने 0.000232243
چلے नावल 0.00676022
کے “मरने 1.23821e-07
ان कुल्लीयां 0.00111296
اوربات “ब-ज़ाहिर 0.600243
خواہش मोहताज 0.0134576
تقریب फ़ुतूर 0.10228
اس हैं।” 0.00375412
جواب बैरर 0.00512922
وہ हैं।” 0.00326416
اڑتا “बदनाम 0.727273
الہی उसका!वह 1
آدم उसका!वह 0.0322581
جارہے शख़्सिय्यत 0.00745185
ایسی “मरने 0.00571312
ہے۔ हैं।” 0.000690946
ہےکیا؟’’ छःमाशे 0.381639
کنہیا 1947 0.0503878
اب हैं।” 0.00563195
بخدا ब-आवाज़ 0.000106112
کلّیہ ख़ातिर 1
سےمستثنیٰ ख़ातिर 1
ہوں۔لہذا ख़ातिर 1
کوبیمارڈالنے ख़ातिर 1
آئے नावल 0.171666
ہیں۔ था। 0.0377532
دیکھے हैं।” 0.16553
عطائی हनीमून 1
ہاشم ब-दस्त 0.0341136
ایسی हैं।” 0.0416815
سی सफेदपोश 0.0159734
تاج रसमी 0.0453581
نے हैं।” 0.00201638
دوستوں मोहताज 0.0412134
میں बे-वक़ूफ़ी 0.000604393
خیال था। 0.327913
ہے हिन्दोस्तान 0.000955628
لالہ ख़ुदाया 0.0301129
دوسرے रसमी 0.0196959
محض रसमी 0.007163
انہیں नावल 0.0114834
"مسٹر! ख़ुदाया 0.72
کےمجموعۂ मोअज़्ज़िज़ीन 1
کلام‘‘میری मोअज़्ज़िज़ीन 1
غزل’’کا मोअज़्ज़िज़ीन 1
انتساب‘‘انسانی मोअज़्ज़िज़ीन 1
ارتقا’’کے मोअज़्ज़िज़ीन 1
یعنی अंदोजी 0.00546607
بات अजीब 0.0127429
میرا था। 0.194222
لیکن “नेक 0.00032064
پیڑھی घुट्टी 1
دورچل घुट्टी 1
دیو घुट्टी 0.529395
جانس घुट्टी 0.529395
کلبی घुट्टी 1
خم घुट्टी 0.359997
جاملتی घुट्टी 1
کیوں؟ गड़हा 0.142856
نے “नेक 0.000121911
ادب हैं।” 0.078054
جب अजीब 0.0159942
ان भर 0.0356148
ہیں، शख़्सिय्यत 0.00514075
۔’’ बाना 0.987086
معلوم हैं।” 0.0289432
اپنے हैं।” 0.00724908
لڑاکامیاں में,बाग़ 0.0612326
طرف के।छः 0.018434
چاہتے पिछला 0.0622431
اورچوررقیبِ में,बाग़ 1
روسیاہ۔ में,बाग़ 1
گی۔! फ़लसफ़ियाना 0.642857
اس दिर्म-ओ-दाम 1.81951e-06
دیا۔ “नेक 0.0117171
بولی बे-वक़ूफ़ी 3.70943e-05
کوئی हैं।हिंदोस्तान 0.000748818
مگروائے फ़लसफ़ियाना 1
تقدیرکہ फ़लसफ़ियाना 1
غول प्यारा 1
اب दिर्म-ओ-दाम 0.00308687
کپڑے भंडार 0.00331643
ساتھ हैं।हिंदोस्तान 0.00198616
اورآن आमदनी 1
فری आमदनी 1
اسٹائل आमदनी 1
چل अजीब 0.195767
کر इज़हार-ए-ख़याल 0.0062833
لکھا हैं।हिंदोस्तान 0.0196959
گھبرا बैरर 0.421644
اکاؤنٹ नंबर 0.128298
سنایا आओ।अगर 0.639006
لیٹا न 1
ضرور हैं।” 0.0566701
آج पढ़ी।” 0.00494721
ادا मृत्यु 0.0546693
کیا उतारता 0.00021563
صورت हैं।हिंदोस्तान 0.0159986
پیدا अंदोजी 0.0176991
سےپہلےبھی बिकाऊ 1
جانماز बारहंगी 1
۔قرآن बारहंगी 1
،لوٹا बारहंगी 1
رکھی नुक़्ता-ए-उरूज 0.160304
پطرس हैं।भला 0.0792018
ہر नुस्खे़ 0.0045164
شمار हैं।” 0.247772
ادبی फ़ुतूर 0.115917
ہاں वर्म 0.0523746
ہونٹوں “इक 0.0879116
وبود जब 1
خوب हैं।हिंदोस्तान 0.0152542
کر नुस्खे़ 0.000488041
ڈوبتے नरी 1
ہیں، वर्म 0.0179927
مارنے मोहन 0.643652
آنکھوں पंच 0.197612
بھی؟’’ बिखराए 0.107561
آفت पहने 1
سہولت पहने 0.310005
میسرآجائے۔ पहने 1
کے अच्छाई 2.6566e-09
کا अच्छाई 0.000344651
ہے، उतारता 0.00122566
دیتی उतारता 0.010928
سےمیرا थे?” 0.470588
مصنف तसनीफ़ात 0.0107819
لیں۔ नुस्खे़ 0.139671
بتائیے۔’’ “ब-ज़ाहिर 0.208172
کے शबाब-ए-रफ़्ता 0.000106465
خواجہ रोटियाँ 0.0321852
مانو कहना 0.875961
کی मोहतरमा 8.82032e-08
روتا अंदोजी 1
سے मोहतरमा 0.0027677
جس अच्छाई 0.00408702
ہوتا पता 0.0485236
وہ पता 0.0022841
بھی पता 0.00404428
کوئی मोहतरमा 0.00516504
بلکہ मोहतरमा 0.0582244
ہے؟ उतारता 0.00826262
ہے!’’ भरा। 0.218697
حسین अच्छाई 0.00181217
جو पता 0.0105421
آپ मोहतरमा 0.0247199
ٹیشن भरा। 1
دوپٹے लड़ाने 0.198096
پڑی۔ पुरानी 0.649471
نہ अदवीया 8.31207e-07
تک पहले। 0.000989701
تمام मोहतरमा 0.0678652
کہ बयानियों 0.000666766
جب पहले। 0.00100026
سب Public) 0.0108756
اول गए।उनका 0.0935364
دیکھئے! बअज़ 1
امیروں बअज़ 1
کہنا शबाब-ए-रफ़्ता 0.0186067
مرزا “नेक 0.00109977
میرا शबाब-ए-रफ़्ता 0.00345732
مردم हुए,ये 0.486853
سا अदवीया 0.0155833
مطلب थे?” 0.0271556
کسی उतार 0.00479521
اسی मुड़ 0.00431415
کی सलाम 0.00461425
میک फ़ुतूर 0.141509
اپ फ़ुतूर 0.588235
اب मुड़ 0.00185708
ہوتا पीछे 0.0167189
نام अच्छाई 0.00263917
حضرت मुड़ 0.0460478
آوازآتی दाएँ 0.479299
و सलाम 0.051331
گاہ दाँतों 0.538466
ہیں۔ उतार 0.0013982
کرنا पीछे 0.1032
ہے۔ पीछे 0.00261794
ملا۔ बैरर 0.104651
پرسکون कहानी 1
ہے۔’’ हूँ.......... 0.00580224
استعمال मोहतरमा 0.24533
صلاحیت हूँ.......... 0.290323
دیواروں सच्चे 0.99051
ذہانت लगती।आज 1
پکا नुस्खे़ 0.17427
روز नुस्खे़ 0.0339315
بھتیجے चटनवी 0.0178715
مکان राहत 0.000577212
آپ दा’वत 0.0133716
شعلے नापी 0.39435
خوشی हैं।” 0.0465806
پروگرام शख़्सिय्यत 0.00682937
ہےاگلےپچھلےکسی रिहाई 1
لاؤڈاسپیکرکی रिहाई 1
کرنا लगे,जिसमें 0.00326804
بھرے “नेक 0.108696
میں सेंटीमीटर 0.000809851
والی लगे,जिसमें 0.0111967
صرف पता 0.0301076
ضروری पीछे 0.0595974
لیجئے उतारता 0.0423009
لیجئے، उतारता 1
کیجیے गुज़र 0.950898
ناواقف ऑल 1
واحد बाया 0.0955926
تصویرکشی पढ़ी।” 1
میں किताब 0.00243295
صورت सलाम 0.0959359
کسی उनका 0.00854182
تھی۔ ऑल 0.0817169
بھی उनका 0.00377544
مجمع “नेक 0.0992909
جان दिलाता 0.00391909
سلام शबाब-ए-रफ़्ता 0.0728994
بہت किताब 0.0394925
ان उनका 0.00792915
حسین खर्राट 0.0868934
مابعد डिस्टर्ब 1
الطبعیات डिस्टर्ब 1
لے दिलाता 0.00332788
ہیں...... कलिमात 1
دودھ उतारता 0.0360209
لگے۔’’ हैं।” 1
طرف (ब-आवाज़ 0.00409645
جی!" सुराही 0.0982
ہوں’’۔ पहिए 1
نیچے उतार 0.0831523
ہیں۔ (ब-आवाज़ 0.000349551
روشن हो।और 0.152562
قرار “नेक 0.00562005
شکل सलाम 0.166956
دیا۔ मिन-व-अन 0.210908
بوتل नुस्खे़ 1
سرکہ नुस्खे़ 1
پیس नुस्खे़ 0.19248
بالوں नुस्खे़ 0.0227537
آیا दिलाता 0.00996824
اوپر उतार 0.0993483
دیا उनका 0.0677207
اپنی दिलाता 0.001122
صنعت तहक़ीक़ात 0.0947469
سپاہیانہ मोहताज 1
فراخی، मोहताज 1
وابستگی मोहताज 1
نکل दिलाता 0.00496538
بدتر’’سے दीवान 1
بھی कुर्सी 0.00242766
نہیں कुर्सी 0.0028608
کےصلہ न 1
اورناممکن न 1
اور रहती 0.00835668
آرڈر लगे,जिसमें 1
ہوں रहती 0.0374481
جہاں किताब 0.0502287
رجوع (ब-आवाज़ 0.117645
بھجوائی अव्वल 1
بیٹھا मुड़ 0.0924617
ليے"۔ अव्वल 1
ہے۔’’ कुर्सी 0.0361851
پر रहती 0.000817801
ہونٹوں “मरने 0.0109902
ہمیشہ रहती 0.228768
نظمیں पिछला 0.583394
رہے۔’’ मोहतरमा 1
یہی गए।अधेड़ 0.0243388
امریکہ नावल 0.157898
پچھاڑتے भंडार 1
بند (ब-आवाज़ 0.00439894
لباس मारी।ग़ुस्से 0.235266
فطرت पढ़ी।” 0.0236942
دلہن मोहतरमा 0.941447
ہوتا हिंदू 0.00317665
قیمت इंतजाम 0.0206866
شکل उनका 0.396765
آزاد पिछला 0.193587
وہ चाहता 0.0376709
دیاجاسکتا तसनीफ़ात 1
تاریخ (ब-आवाज़ 0.0240196
(۶) अंग्रेज़ी, 0.142804
کرلیا، गोल 1
ہوں۔ रहती 0.0437944
پور “अरे,ये 0.488165
ہوجاتا पीछे 0.106728
ایک होकर 0.0135955
کرکے किन 0.0679731
کہ हुए 0.0266843
کیا हुए 0.163714
وغیرہ (ब-आवाज़ 0.0065578
ان हिंदू 0.000370986
‘‘کیسا मोहन 0.164734
یہ हुए 0.00288157
علم किताब 0.460633
ہیں۔ मर्कज़ 0.00314597
کھانا आहंग 0.254549
دال उतार 0.18209
ماشاءاللہ मुड़ 0.72973
جارہی बेदिल 0.139271
دشواریاں सफेदपोश 1
چائے कुर्सी 0.256563
یہی बेदिल 0.00270432
غیرمنقولہ न 1
خانم पढ़कर 0.101024
‘‘محترمہ पढ़कर 0.492886
امی भरा। 1
نےبرائےفصل था।डॉसन 0.445101
ہوتی बेदिल 0.00175885
فقرہ हैं।हिंदोस्तान 0.289497
ان सा?” 0.000559922
تصنیف हिंदू 0.112675
و नस्र 0.0171203
ایسےوقت है।इंगलैंड 1
‘‘یہ तख़्ते 0.182804
کوآپ मानिए। 1
باتیں फ़िक़रा 0.120434
لیکن सा?” 0.00143396
پاس लगा।लिहाज़ा 0.00271053
ہے۔ यकायक 0.00150662
دوسری मर्कज़ 0.0399457
چکر तअल्लुक़, 0.0890407
ٹھیک कुर्सी 0.061681
آنکھیں (ब-आवाज़ 0.0209177
کسی तो।आप 0.000399603
نے इन्हीं 0.000548279
ہذا पिछला 0.239307
لکھوانا पिछला 0.500063
کیسے तो।आप 0.017697
بکری उतारता 0.190413
بارہ मुड़ 0.0246234
یہی इन्हीं 0.0112151
کچھ (बात 0.00587043
بناداں वाक़िफ़-कार 0.0714286
کہا۔ इन्हीं 0.00817799
اپنی नस्र 0.00261798
ہوا तो।आप 0.00185945
مزید हूँ.......... 0.445544
ہوئی हमागीर 0.00447617
کراچی पहले। 1
اور बी 0.000756733
ہیں۔ हमागीर 0.000786491
انہوں आफ़त 0.0226191
بیگم कुर्सी 0.239207
سیٹ लगे,जिसमें 1
لکھ सुहाग 0.042827
اختلاف पीछे 0.330218
پیدا बेदिल 0.0058997
ٹھہرا शबाब-ए-रफ़्ता 0.151107
کوئی चप्पा-चप्पा 0.00448732
درجہ तो।आप 0.0421901
بوڑھوں दिलाता 0.0412413
کہ कान्फ़्रैंस 0.000281439
سامنےسےولی बी 1
عہد बी 0.134041
آتادکھائی बी 1
دیا बी 0.0122702
پانچ क़ैंची 0.108296
تھا कान्फ़्रैंस 0.0146348
کرلی (ब-आवाज़ 0.0357143
دلچسپی तो।आप 0.0113995
جا लगा।लिहाज़ा 0.00969054
لائن लगे,जिसमें 0.333333
رہتے मर्कज़ 0.0824953
ہوگیا۔ चलन 0.0630314
گے۔" कहना 0.913735
موازنہ गुज़र 1
فہمیدہ गुज़र 1
بوسے गुज़र 1
شک है।पस-ए-म्ंतिक़ाना 0.0817098
تو हुआ।मगर 0.00186189
النہار इजतिमा 0.5
اصلی बेदिल 0.0408773
برداشت हूँ.......... 0.272727
کون हक़ 0.190774
کتاب नस्र 0.0418802
پھر चलन 0.00261482
مجھے कान्फ़्रैंस 0.0120567
خواب की“तादाद-ए-जारिया”दोस्तों 0.140764
کے हाफ़िज़ 3.1359e-05
کا हाफ़िज़ 0.000326696
باقی घड़त 0.00428555
لال हीच 0.0574085
اپنی कान्फ़्रैंस 0.0766937
دل घड़त 0.00211053
بی۔اے चलन 0.0550662
امتحان चलन 0.0253517
ارادہ घड़त 0.00711231
بتائیے दिर्म-ओ-दाम 1
سلامت दिलाता 0.0588251
واقعہ चलन 0.0367772
ہم चह 0.00140376
چٹیا वक़्फ़े 1
پکڑکرگھرسےنکال वक़्फ़े 1
دیتےہیں۔ वक़्फ़े 1
‘‘واللہ!موت “मरने 1
ہو!(سسکی)مرحوم “मरने 1
پرعالم “मरने 1
سکرات “मरने 1
کا؟’’ मोहन 1
مرتبہ चलन 0.124308
گرنا प्यारा 1
پانچ बहुतों 0.108296
بھی चावलों 0.00039727
کے भाई” 0.000731265
انہیں तो।आप 0.0102072
شاعری नस्र 0.0403272
و चावलों 0.00642062
زندگی हेड-मास्टर 0.00699394
قانونی हैं।” 0.864581
بتا इंतजाम 0.85713
رہ हेड-मास्टर 0.0226392
کرنے घड़त 0.0031969
جو हेड-मास्टर 0.00138091
وہ दफ़ा 0.00950947
کبھی मजरूह 0.0081315
جاتی हेड-मास्टर 0.0109953
ہوتی दुआ 0.018091
مٹی उतार 0.088966
نہایت दुआ 0.0374804
مردم ख़्वार 0.0458963
مغز पहिए 1
شگون “नेक 1
سرہلا “नेक 1
پر दफ़ा 0.00550978
لکھتے मर्कज़ 0.116915
نماز! क़ुव्वत-ए-इरादी 1
لگے۔ घड़त 0.00705048
کبوتروں नावल 1
فرماتی हमागीर 0.113088
لکھتی हमागीर 0.111389
مجھے नशीन 0.0246936
پھر मजरूह 0.0104593
بھی बचाने 0.000806298
ہاتھ दफ़ा 0.0646269
جن दफ़ा 0.0516996
کرنا सेहत 0.0882372
لیکن हैं।“आओ-आओ 0.00288576
ہے कितना 0.00569428
نہ कितना 0.00488287
مریضہ अल-ग़र्ज़ 0.0196571
مطب अल-ग़र्ज़ 1
اورساتھ अल-ग़र्ज़ 1
محض घड़त 0.00557122
میرا दफ़ा 0.0572011
مجبوروں शरीक-ए-हयात 0.0573788
مختار शरीक-ए-हयात 0.129764
بالکل हैं।ग़र्ज़ 0.0500537
کو तलाश 4.08433e-08
خود बचाने 0.011246
ساتھ शायर, 0.00297924
بارمیں मोहताज 0.333333
بلکہ था।मगर 0.00846057
‘‘اچھاکوئی “ब-ज़ाहिर 1
آپ तलाश 0.0215021
ذرا सेहत 0.0542008
جعلی कम्बल-दरी 1
چلو हा!क्या 0.0971571
عین चाटने 0.692307
بیان सेहत 0.123484
مندی दुआ 1
پان कुर्सी 0.640966
اس कराहते 5.78398e-08
تقریر घड़त 0.0484958
رفتہ ख़्वार 0.0253925
سے ताबूत 6.51949e-05
کام मस्जिद 0.0164602
سعادت दुआ 0.695652
انتظام कुर्सी 0.178213
آئی इरादा 0.12571
اتنے इरादा 0.115107
نےشوہر मोहताज 1
کرکی मोहताज 1
نےغالباً मोहताज 1
آتی तज़कीर-ओ-तानीस 0.0469174
آوازمیں फ़िक़रा 1
جھلا बे-वक़ूफ़ी 0.451261
ہوگا ख़िज़ाब 0.0678496
چاہتا सेहत 0.099134
نے कराहते 0.000774927
کس मस्जिद 0.00836459
طرح मस्जिद 0.00287691
بیچ खुल 0.0771605
دو۔" इंतजाम 0.247838
دیا कराहते 3.89607e-05
بڑے इरादा 0.0681774
وحشت ना-इंसाफ़ी 0.333333
شخص हेड-मास्टर 0.128499
مستری करतब 0.317605
پیٹ،آدمی हम-वतनो 1
بھی ख़ूगर:- 0.00158946
ہے، मस्जिद 0.00472755
لہٰذا जाता,जब 0.0876827
دوران दफ़ा 0.545508
گے’’مصنف लगती।आज 1
اورطباعی लगती।आज 1
خدا गॉर्ड 0.0165617
گھر इरादा 0.0178674
سال हेड-मास्टर 0.0105924
ہے और 0.0324219
اس और 0.0118723
کی और 0.0391611
کہ और 0.0226319
میں और 0.077176
اور और 0.207297
بھی और 0.0806282
کریں—! चर्ख़-ए-कोहन 1
سے और 0.237823
یہ रोज़गार 0.00068342
پرپہلے वर्म 1
درزیوں वर्म 1
اوران चह 0.357196
معلوم मस्जिद 0.00680008
ظالم पहले। 1
اب और 2.59159e-06
قیمت और 0.52631
کرتے और 0.352108
ماند तेरा 0.544572
کتنا मस्जिद 0.162727
کہنا۔ पढ़ी।” 0.437301
پاس रोज़गार 0.00513135
منی लगे,जिसमें 0.1
لیکن और 0.0489474
میرا जाता,जब 0.00404638
پیچھے और 0.842207
تفصیل सेहत 0.47581
ثابت चावलों 0.0458908
تو चन्द 0.00186189
ہوگیا मस्जिद 0.0207365
ان नाम—अगर 0.00111296
رنگ और 0.493593
پڑھنے शायर, 0.123363
کانفرنس कान्फ़्रैंस 0.13442
جواب कराहते 0.000211784
میں मुलाहिज़ा 0.000809851
جسم दफ़ा 0.218599
تو मंत्र 0.00186189
جس ख़ंदाज़नी 0.0112905
گویا और 0.714866
نہایت और 0.556255
سکتی۔ जाता,जब 0.2
نکلے बराबरी 0.404494
لیے और 0.338026
بلانے कान्फ़्रैंस 0.773052
کہا۔ जाके 0.0154347
خواتین इरादा 0.31513
پہنچ और 0.611318
پھر नेमते 0.00112063
کمی तलाश 0.620639
جسم भूले 0.123708
سہولتیں बेदिल 1
کبھی छुपे 0.00243945
گائے उतारता 0.249981
جا जाता,जब 0.0121132
سے “दस्तरख़्वान 0.000486422
رہے۔ और 0.816851
سالم चावलों 1
کہہ इल्म-ए-मसीर 0.0473813
کبھی तेरे 0.00609863
چلا भाइयो!अल्लाह 0.0568072
راس और 0.993492
مرض नेमते 0.0565716
سکھیاں ऐन्टी 0.802887
شیکسپیئر किताब 1
کانفرنس प्रिंटेड 0.0687966
جا और 0.821827
خوبی बेदिल 0.129032
اتنا तेरे 0.0364712
اگلے चलन 0.0351363
طرح नए 0.067128
بچھوکا अदवीया 1
زہریلا अदवीया 1
ڈنک अदवीया 1
تھا،نہ अदवीया 1
عاریتاً शख़्सिय्यत 1
آنےکےلئےدیئے शख़्सिय्यत 1
اُٹھ और 0.89715
یک नेमते 0.0231885
صحیح शायर, 0.0883561
پہلے तेरे 0.00792604
صاحب चलने 0.0392797
نکتے नस्र 1
تھیکرے नस्र 1
نیٹی नस्र 1
فیر नस्र 1
تھے भाइयो!अल्लाह 0.00702967
ایسی फ़ज़ीहत 0.00507778
گا हैं।बल्कि 0.0325874
گئی۔ टेनीसन 0.13626
ہے؟" ख़ौफ़ 0.0587986
طے तेरे 0.372781
اسٹیڈیم रसमी 1
فٹبال रसमी 1
گے۔اورایک रसमी 1
ا नेमते 0.0074724
آتا द्स्त्ब्र्द 0.0221677
‘‘آپ “उसे 0.143544
بھی अगली 0.0001701
اتنے फ़राएज़ 0.0577298
اسے रिश्ते-दारों” 0.0114755
بہت अगली 0.0126956
کے बुलंद 0.00585061
جہاں फ़राएज़ 0.00837308
لگا हश्र 0.0565773
ایسا द्स्त्ब्र्द 0.00641642
زباں 1983 1
کبھی बजट 0.0121973
دیکھ बजट 0.0534203
حسین उर्फ़-ए-ख़ास 0.0289642
کم फ़ज़ीहत 0.00345182
پہننے،غسل मारी।ग़ुस्से 0.00487977
نہیں है,कभी 0.00183507
ہوجاتا छुपे 0.0121672
نکلنےکےبعد अजीब 1
سفیدی डूबते 0.25
گئی बजट 0.0402425
سوسائٹی हाफ़िज़ 0.162299
رہے बजट 0.00605137
زور अगली 0.0910399
لمحے दफ़ा 0.876057
ہو पहनने 0.0279654
جب हूँ।वो 0.000888567
ہوئی खटका 0.00596823
میرے हूँ।वो 0.00237739
علاج: आज़माएँ। 0.333333
دیر हश्र 0.0486622
جاتا۔ दरवाज़े 0.920398
بچوں बजट 0.197865
تاج फ़राएज़ 0.317507
بھی बढ़कर 0.00157966
گزرتےجارہے बेदिल 1
اورانتساب बेदिल 1
"بس इन्हीं 0.117457
بھر रिश्ते-दारों” 0.0108809
ختم हूँ।वो 0.0373335
دیا، चलन 0.319985
اب अलबत्ता 0.00550257
مختلف था।मगर 0.0207323
پھاندتا लगा।लिहाज़ा 1
منشی लगा।लिहाज़ा 0.166667
ثناءاللہ लगा।लिहाज़ा 1
تھوڑی हश्र 0.064436
لیے हश्र 0.0132876
جس अलबत्ता 0.010036
نہیں गुड-मॉर्निंग 0.000203897
متواتر और 1
بوڑھوں नेमते 0.0412415
ہونے हश्र 0.0212809
کرتے गुड-मॉर्निंग 0.0011533
سوسائٹی भाई” 4.19475e-05
کانکے “दस्तरख़्वान 0.150897
گھاگ हाफ़िज़ 0.0284346
حاصل फ़ज़ीहत 0.0115222
اتنی फ़ज़ीहत 0.00669637
ہوجاتی और 0.703154
کہ व 0.00800119
‘‘موسیقیت थे?” 1
کی रहे 0.0132047
کرتےہوئے मृत्यु 0.692073
ہی रहे 0.0222366
دو गुड-मॉर्निंग 0.00438052
کہ۔۔۔۔’’ करेगा।बल्कि 1
چاہے गुड-मॉर्निंग 0.0452505
سے रहे 0.0184301
معنی कीजिएगा 0.422527
زندگی रहे 0.120172
پر रहे 0.0267216
کم अलबत्ता 0.0276145
ہی भेंच 0.000395133
تصنیف गुड-मॉर्निंग 0.0375584
چیز गुड-मॉर्निंग 0.00363667
عمری फ़ज़ीहत 0.0769231
مشان फ़ज़ीहत 1
کامیابی फ़ज़ीहत 0.112509
عظیم फ़ज़ीहत 0.0293671
صرف अलबत्ता 0.0105121
نے रहे 0.00632275
رہا भेंच 0.00648939
جسم आज़ादी, 0.123708
سےایک रखो! 0.448338
کہا रहे 0.0919479
کے रहेगा 0.0029253
جن रहे 0.167571
ہیں، बजट 0.0179926
بانا गए।उनका 0.0926705
کاٹا’’کا गए।उनका 0.428571
تو‘‘کانا गए।उनका 1
بہت दौड़ा 0.0131646
تری ताबूत 0.0122768
اور आवाज़ 0.00271611
سےمجھےکوئی पढ़ी।” 1
مصورفطرت पढ़ी।” 1
آماد पढ़ी।” 1
ہندہ पढ़ी।” 1
سےہاتھ पढ़ी।” 1
خمار मुड़ 1
بنکوی मुड़ 1
(82)کے मुड़ 1
پیٹے मुड़ 1
کھٹ घड़त 1
چلی बजट 0.190755
مرزا चलने 0.0496215
پڑے पहली 0.141495
تیرابگڑتا चप्पा-चप्पा 0.00029168
پاس आवाज़ 0.0135523
عمر रिश्ते-दारों” 0.0232209
اس तिरसठ 0.000684696
دھیمی फ़िक़रा 0.212097
یہی गई,मगर 0.0243388
دیتے गुड-मॉर्निंग 0.0303475
‘‘تو इरादा 0.0971195
بول तुझको 0.0518593
کبوتر तुझको 0.0411636
جرح किताब 1
سننے कैसे?”अब 0.0943459
ہیں— बजट 0.485178
بھینس अफ़्सर 0.297147
گئی۔ आवाज़ 0.0681284
نےحق मृत्यु 1
شاگردی मृत्यु 1
لئے गुड-मॉर्निंग 0.00256686
کو अशआ’र 1.13578e-06
محسوس हश्र 0.119787
متضاد था।मगर 1
کر अशआ’र 0.00209288
تلفظ शायर, 1
انشورنس ताईद-व-तौसीफ़ 0.166667
ہاسٹل हेड-मास्टर 0.158419
حمایت हेड-मास्टर 0.0614407
کہ डाइस 0.00133353
رشتہ सूँत 0.13044
بلیات है।पस-ए-म्ंतिक़ाना 1
خیر अगली 0.112894
قیصر दस्तर 0.0364887
نےیہ दस्तर 1
سنکر दस्तर 1
تیوری दस्तर 0.0587221
کہ क़ैसरा 7.95996e-06
ہے۔ है।इस 0.00451986
سخت आवाज़ 0.276068
بڑافن किताब 1
کارہے۔’’Seminarکےپیریڈ किताब 1
پرجرح किताब 1
تھی क़ैसरा 0.0524179
ہوگئے आवाज़ 0.168016
آئے “यहाँ 0.0398725
ایسے क़ैसरा 0.0292711
متعدی नेमते 1
چہل चलने 0.882076
شہربڑاالبیلا،انوکھا पहले। 1
اوراوکھا पहले। 1
شہرہے۔بہت पहले। 1
شہرہے۔انسان पहले। 1
جہاں सूँत 0.00279034
ایک पटाख़ों 2.98153e-05
لگنی लगे,जिसमें 1
لگئے، लगे,जिसमें 1
اپنا क़रारदार 0.0101149
رکھ आवाज़ 0.0914317
ہندوستان सूँत 0.0239453
دھرے उतार 1
مریدپور ख़्वार 0.530996
باشندگان ख़्वार 1
ہوئی۔ आवाज़ 0.0292602
قیصرہ क़ैसरा 0.21967
میری क़ैसरा 0.0126436
خانے पहली 0.41411
کرتے आज़ादी 0.00148281
بےچاری क़ैसरा 0.225899
کانپ क़ैसरा 0.414883
میرے आज़ादी 0.00305664
پڑھایا۔ क़ैसरा 1
کیاجانتی क़ैसरा 1
تقدیر क़ैसरा 1
‘‘جی इनमें 0.0657049
ساتھ आज़ादी 0.00170242
گا क़रारदार 0.00814685
پیٹ हवाला 0.130435
پلیٹ पहली 0.847458
نے पटाख़ों 0.000258486
ہوتے सवाल 0.0374368
ان रिपोर्ट 0.00222592
وقت सवाल 0.0244102
کیونکر हवाला 0.636364
بار ब-फ़रज़-ए-मुहाल 0.0442112
چھوڑا बढ़कर 0.711564
گنجان था।मगर 1
تھیں، इरादा 0.393069
دکھادے जोशीले 0.333333
تو क्यूँकर 0.000306661
محلوّں था।मगर 1
تقریبیں था।मगर 1
خاموشی आज़ादी 0.00857563
نہ डिब्बे 0.00017839
ہوں۔ हवाला 0.00473594
ہے आवाज़ें 0.000949525
بھی डिब्बे 0.000176607
سب आवाज़ें 0.010889
ہو، सूँत 0.0093886
آنکھیں हवाला 0.122227
ایک रीछ 8.8854e-05
اس लेकिन 0.0112287
لوگ लेकिन 0.199336
کہ लेकिन 0.0241782
دامن हूँ।वो 0.0542581
ہوپاتا۔ कुर्सी 1
ہمارا इबलीस 0.0284978
کھائے، अपवाइंटमेंट 0.166796
لیکن आवाज़ें 0.00288929
ان लेकिन 0.0406223
بزرگوں रहे 0.473316
لگی क्यूँकर 0.0195881
سےآگاہ सेहत 1
خوشبوآئی ताबूत 0.373297
سینما रिश्ते-दारों” 0.0239289
پتہ डिब्बे 0.0779446
پٹ घड़त 0.129032
کیا، इरादा 0.245997
بولی۔ क्यूँकर 0.579206
کڑاکے और 1
نےاکثردیکھا ख़िज़ाब 1
تنظیم पहनने 1
کیا मलामत 0.000388132
صاحب जद्द-ए-अमजद 0.00196923
دونوں क्यूँकर 0.00809569
بول सवाल 0.0855678
ہیں नज़दीक 0.00281037
جواب आज़ादी 0.00512922
عالم नज़दीक 0.0544211
ہوں۔ लेकिन 0.230039
نچلے पहली 0.813954
گھر सवाल 0.0575575
ہندوستانی’’مدہم फ़िक़रा 1
بجائے‘‘پنجم’’میں फ़िक़रा 1
کرنےکےعادی फ़िक़रा 1
دورجدید गुलशन 0.333333
کچھ बुरा 0.00913178
ان मज़ीद 0.00178074
ہوئے आवाज़ें 0.0162075
ملاقات जद्द-ए-अमजद 0.036053
لیکن नज़दीक 0.00192386
پیرومُرشد घटती 0.037037
انگریزی، और 1
ہونے क्यूँकर 0.0073233
جناب सूँत 0.0196733
کوشش मज़ीद 0.0582207
ہم मज़ीद 0.00449201
بانوں खटका 1
ٹوٹی खटका 1
انتظار आज़ादी 0.0625143
سامنے रीछ 0.00343479
پہلے मलामत 0.00634084
رہے۔ क्यूँकर 0.0110483
‘‘بوڑھوں रहे 0.875003
‘‘الٰہی रहे 1
ہوئی۔ पीनी 0.0585219
شروع रीछ 0.00220537
لمبی बुरा 0.254546
سی बुरा 0.0248475
ٹھنڈی बुरा 0.266545
اپنا गई,और 0.00224775
پلاٹ दुआ 0.199392
سےسرہلاکران दुआ 1
کےاس दुआ 1
دن गई,और 0.00109999
فارم पहली 1
گھاگس द्स्त्ब्र्द 0.428571
تبسم अलबत्ता 0.941176
بند गए।दरअसल 0.0197914
صادق द्स्त्ब्र्द 0.193091
دی मेज़ 0.0646724
جو दुकान 0.00382404
۔(زرگزشت) चंद्र 0.249221
صاحب करेंगे 0.00918975
ہیں तक 0.169521
بیکارثابت तो।आप 1
اپنےسوا तो।आप 1
چیزمیں तो।आप 1
کر दुकान 0.000966725
رخصت क्यूँकर 0.175581
‘‘چار’’ कराहते 0.316461
ہوں तक 0.0611572
گاڑی पहली 0.225244
سنانا रीछ 1
اپنا तक 0.109822
ہوجاتا۔ दफ़ा 0.0749409
، गुड-मॉर्निंग 0.0203269
دے करेंगे 0.026189
ہونے गए।दरअसल 0.015964
ملی۔ Super 0.818181
کی नदारद। 0.00108091
ہاشم नॉलेज” 0.0341557
محض लेकिन 0.608668
رہے करेंगे 0.00941324
پنچایت ईतबा 1
کلثوم हुई,ये 0.187534
چکانے ईतबा 1
دور۔ ईतबा 1
ہے सिम्त 0.000955628
گے۔ दुकान 0.0114523
گرم बुरा 0.149397
دیتا۔ रहे 0.717603
ادا सर-ज़मीन 0.0312396
آخری पटाख़ों 0.079416
تھا۔ क़ाफ़िया 0.0236693
مرزا पटाख़ों 0.00239903
ہو नस्ल 0.00239626
کیا अफ़सोस 0.000862116
عام दुकान 0.103493
جووہ और 0.119926
کچھ नस्ल 0.00195681
تھا नस्ल 0.00249781
لطیفہ रीछ 0.0229785
بیچ दुकान 0.0356124
اور सय्याहत 0.00015088
گیا नस्ल 0.00546434
جاگ भेंच 0.0111813
کیوں अफ़सोस 0.0120764
رہے सर-ज़मीन 0.00172896
ہم अफ़सोस 0.00124786
ہوئی۔ जद्द-ए-अमजद 0.00975363
ہمیں अफ़सोस 0.008716
تھی۔ सय्याहत 0.00363187
گاروں कहे-सुने 0.142857
تین गई,और 0.00347246
سفر गई,और 0.0229144
گانے सवाल 0.885057
بیسویں सय्याहत 0.310516
صدی सय्याहत 0.0722528
کے सनीचर 0.0029253
باقی वफ़्द 0.00858733
ادھورا बचाने 0.817449
مجھےاپنا बचाने 1
طورپربازارسےگزرہوا۔ایک उर्फ़-ए-ख़ास 1
ساڑھی उर्फ़-ए-ख़ास 0.0438229
آپ वफ़्द 0.00117647
جیسےایک लिखा।“आप 0.155025
جانتے तक 0.513213
ہے आख़िर 0.00280182
نہیں۔ان सरिश्ता-ए-मतलब 1
ہوتا आख़िर 0.0141346
بولے۔ करेंगे 0.208135
جون जद्द-ए-अमजद 0.5
زبان नस्ल 0.0131753
مجموعۂ तेरे 0.37837
ایسا नस्ल 0.00855523
دوسرے करेंगे 0.0536167
کھانسی ना-हक़ 0.112678
فضیل तेरे 1
بڑے बॉय” 0.00854825
چونکہ सर-ज़मीन 0.011547
لیکن आख़िर 0.00428009
وصول दुकान 0.226246
سنائی करेंगे 0.296507
دوا मेज़ 0.853658
اصول गई,और 0.0468051
پائی सय्याहत 0.0402299
لوگوں करेंगे 0.0515319
کیا सहर 0.000215319
پرتیارہوں۔’’ हुआ,जिन्हें 1
لوگ सफ़ेदी 0.00182449
کئی आख़िर 0.0946931
ہے नू 0.000382565
آپ तक 0.0726056
دفعہ Super 0.012893
زیادہ सफ़ेदी 0.00160995
کیا नू 0.000779736
لگا सरगिरदाँ 0.0106086
اب सरगिरदाँ 0.000773755
مجھے आख़िर 0.0183125
قدیم सफ़ेदी 0.0625
بچوں، नेमते 1
وہ बढ़ 0.00328868
چلو आख़िर 0.144101
تعارف नस्ल 0.360894
یا जिन 0.0109326
بات बढ़ 0.011681
لیکن सहर 0.000320686
کا दीगर 0.000594947
زیرلب अलबत्ता 1
(کہ अलबत्ता 1
اورمتانت अलबत्ता 1
ہوئے मुसिर 0.00355541
دل सरगिरदाँ 0.00237436
کو हमको 0.0122671
کلام तक 0.359879
رنگ था,जिसमें 0.0291002
ضرورت अफ़सोस 0.0145036
کوئی जिन 0.00349449
بزرگوں रीछ 0.00918231
کوایک सरगिरदाँ 0.14445
خواجہ लो।ये 0.0321852
ہوتے जिन 0.0529411
بول! तुझको 0.540912
پاس जिन 0.010541
ایسی बढ़ 0.0837836
معصوم दार-व-रस्न 0.9
خواب नदारद। 0.0747382
ہو लाओगी 0.0010268
معلوم आख़िर 0.0470667
پھر सहर 0.00087177
پیداوار यद-ए-तूला 0.157895
(ناول) मिलिए।वो 0.425642
پرحیرت मिलिए।वो 0.442441
اب، बहा 0.888889
اسباب बनवाया 0.499955
انسان अफ़सोस 0.0289276
اس हल्के 0.000373793
نہ हल्के 0.000922105
یا अमीर 0.00234276
نہ अमीर 0.00053507
تمام जिन 0.0918304
بےخبر छुपे 0.613217
ہے۔گویا छुपे 1
خداسےکام छुपे 1
کا मशरिक़ी 6.74489e-06
خاطر गई,और 0.0817274
فقرہ पटाख़ों 0.421005
ہے पोतियों 0.000187461
پہ पोतियों 0.0133961
ادب सफ़ेदी 0.00950879
تھی۔ लाओगी 0.00466967
تو बुख़ारी 0.00120858
اس दोनों 0.0126942
کا बुख़ारी 5.96525e-06
میں बुख़ारी 0.000172852
اچھا नस्ल 0.0136199
سننے बढ़ 0.172968
‘‘تو स्टेशनों 0.0974167
یہ बुख़ारी 0.000836044
کچھ दोनों 0.12011
سکتے सहर 0.0433871
شاید हल्के 0.0279815
ہے؟ सहर 0.00826416
و इसमें 0.0513609
جو पोतियों 0.000833234
ان पोतियों 0.00022794
گئی लाओगी 0.0114982
سی लाओगी 0.00456396
جب बुख़ारी 0.00613665
نے हल्के 0.000631307
والے सिरसी 0.0173457
آپ इसमें 0.0107511
لڑکے जिन 0.126508
کیا बा-वजूद 0.00064689
لگتے नज़दीक 0.202163
مبہوت पहली 0.769231
سامنے जिन 0.0240434
یہاں दीगर 0.0461157
مصرعہ बराती 0.156952
بند लाओगी 0.00565592
غسل नज़दीक 0.298136
قسم मुहय्या 0.0223497
ملتوی गई,और 1
انہی नस्ल 0.75
ہوتی अमीर 0.00527668
تھا: रीछ 0.0207796
! आख़िर 0.00259487
لہٰذا पुकारने 0.0389701
مرد सय्याहत 0.0528525
یونیورسٹی जिन 0.1382
پانا पड़ता।जो 0.25
کر दिला 0.00502626
اُٹھ सहर 0.00587816
ہوا पुकारने 0.00185945
ذرا पुकारने 0.00401488
چنانچہ बुख़ारी 0.0564431
ندامت आवाज़ 1
فرضی रखो! 1
اورمیں अमीर 0.598257
ہیں، सहर 0.00399909
دنوں सफ़ेदी 0.0185328
دفتر मुसिर 0.219378
جاتا बा-वजूद 0.00484678
دستانے आवाज़ 1
تو दबाकर 0.00186189
نہ इंतिक़ाल 0.00017839
عرض नू 0.015789
پرورش सय्याहत 1
دینا हल्के 0.0616321
ہیں۔ बजाए।हम 0.000786491
ہے महाजन 2.90998e-08
ہوں۔ पुकारने 0.00210486
ہوگا۔’’ -----------“ऐ 0.233287
اور धोके 0.00031053
نہیں धोके 0.000839714
عجیب लाओगी 0.0401571
رہا धोके 0.00589052
جواب हल्के 0.0206842
مناسب हल्के 0.0892942
گھر बुख़ारी 0.013384
ہنستے क्यूँकर 0.146801
جو महाजन 0.00082852
ناشائستہ करेंगे 1
میرے महाजन 0.00855833
آواز लाओगी 0.0128427
سانس बुरा 0.736842
دھل आवाज़ 1
کیوں धोके 0.00621648
مرزا आख़िर 0.0146806
بہ रौज़न-ए-ज़िंदाँ 0.074925
ہم धोके 0.000642353
رہے، आज़ादी 0.243226
نے धोके 0.000437274
تم धोके 0.00264625
اس सुर-ताल 8.99633e-05
آخر मलामत 0.0175601
صرف पुकारने 0.00131402
نے का।देखिए 0.0010972
نکلے बॉय” 0.101124
ایسے धमकता। 0.00398036
نکتہ आख़िर 1
طرف सुर-ताल 0.00266866
کئے इसमें 0.213794
کرتے सुर-ताल 0.00150265
نہیں कहिए,बड़ी 0.000262153
کان कहिए,बड़ी 0.136349
خاندان इंतिक़ाल 0.0250071
اونچی डिब्बे 0.437484
کنہیا मुतरादिफ़ 0.0503878
سرسی सिरसी 1
‘‘بہن! सिरसी 0.571429
آنسوروئی۔ सिरसी 1
تکیہ सिरसी 0.0366642
شاہ सिरसी 0.317459
واقع पुकारने 0.0149774
شوہر सिरसी 0.0258205
اثر सिरसी 0.274492
جادو सिरसी 0.0939598
نکلا۔ बराती 0.555505
دیئے गई,और 0.263158
کیا शख़्सियत 0.00172476
میرے कहिए,बड़ी 0.00305664
کبھی मुतअस्सिर 0.0243945
ہے۔ दिसंबर 0.00075331
لیے महाजन 0.0039857
ہواکرتا सफ़ेदी 1
پیچ आवाज़ें 0.90011
دیکھتا दिला 0.103889
طبیعت पुकारने 0.0776699
مصنوعی महेज़ 0.265555
بخدا भी,निस्फ़-ए-बेहतर 0.0439962
بدذات धमकता। 0.0124065
حیوان धमकता। 1
پرجو धमकता। 1
پرندہ धमकता। 0.181818
ہےاپنےدوڑنےاوربھاگنےاوردیواروں धमकता। 1
چھتوں धमकता। 1
پرپھرتی धमकता। 1
چڑھ धमकता। 0.085873
ساتھ शख़्सियत 0.0105931
ٹھنڈی कहिए,बड़ी 0.0489573
خواجہ ब-हुरूफ़-ए-जली 0.0321852
کلمات करेंगे 0.875
ہاشم जमहूरियत 0.0341557
کر खड़ा 0.00162901
ماحول सवाल 0.634983
چونکہ इंतिक़ाल 0.00898096
دل खड़ा 0.0147737
ہے होम-रूल 0.000955628
پونے दुकान 0.166276
ہم खड़ा 0.00218362
بیان शख़्सियत 0.0731773
دینا इंतिक़ाल 0.011887
غنچوں पोतियों 0.169132
وضاحت शख़्सियत 0.547764
جب पत 0.0079971
اپنی हैं।कोई 0.00261798
ہوئے सुर-ताल 0.00234286
عزت खड़ा 0.198089
مختلف सर-ज़मीन 0.0177705
جنہوں बजाए।हम 0.107005
مرزا ख़्यालात 0.0296938
مناسب इंतिक़ाल 0.0172223
(۵) राज़ 0.16625
واضح करें।” 0.0270161
بندوبست लिमिटेड 0.0893686
واقعہ सुर-ताल 0.0159725
جسے पहनते 0.223944
کے नहीं 0.0341106
ہمارے इंतिक़ाल 0.00176389
ذات हैं।कोई 0.195641
لال कोशिश-व-हिम्मत 1.46689e-06
ہم “ख़ाकम 0.00272631
نہایت शख़्सियत 0.029152
یہ नहीं 0.126392
کوئی नहीं 0.10558
اشارہ सुर-ताल 0.0659243
کیوں असल 0.0452837
جو नहीं 0.194736
زرد इसमें 1
چاہتا खड़ा 0.0257014
آپ नहीं 0.126296
صبح नहीं 0.489344
کر नहीं 0.0554239
کے रखा,नब्ज़ 0.000140436
قدر खड़ा 0.0480436
انتہا इंतिक़ाल 0.17241
اپنے खड़ा 0.00618176
ایک रखा,नब्ज़ 0.000160982
ست ग़मी, 0.0640558
گزار गई,और 0.499997
ارادہ नहीं 0.751951
نہیں؟ अफ़सोस 0.470603
تفریح अफ़सोस 0.800009
کےچاک हूँ।वो 1
اورگریباں हूँ।वो 1
فاصلہ हूँ।वो 1
ہوجائے—! हूँ।वो 1
انعام जिन 1
چاہیں सहर 0.220505
کھیل कॉम्प्लेक्स 0.523211
عورت सय्याहत 0.0133002
جکڑے डिब्बे 1
ہوئےتھے۔ डिब्बे 1
کیسےسو डिब्बे 1
روپوں डिब्बे 0.1
دیواراتنی डिब्बे 1
پوری ज़िक्र 0.101789
اس दूं 7.92425e-08
تھا، शख़्सियत 0.046297
زور ज़िक्र 0.39862
کیا पहचाना। 0.00048302
خاموشی नहीं 0.70518
بات पहचाना। 0.00159177
ہوں शायरी 0.0506944
بھی पहचाना। 0.00039662
سادروازہ सवाल 0.99916
دوست छिलके 0.0759824
دوسری तान 0.0798914
کو दूं 0.000380607
لیجئے۔ दूं 0.0693562
جنتری हैं।कोई 0.12973
کرنے ज़िक्र 0.060741
خدا अबे 0.0165617
اس पागलों 0.000114689
نہیں पागलों 0.000316846
سینما आख़िर 0.13649
گی पहचाना। 0.000196013
کرنا पहुँचे 0.00490207
ہے۔’’ में,जापान 0.023033
ہنس ज़िक्र 0.243961
سمجھ ईसाइयो 0.133439
کیوں पागलों 0.00470011
میں डाले 1.35956e-05
ہی पीस 0.00072039
گےنا؟ आख़िर 1
ہیں इंतिहा 0.00421555
جرابیں पहली 1
ہیں"۔ पहली 0.524774
تو मेरी 0.0328598
کند दमकती 0.749859
‘‘اورمیری बेपरवाई 0.307184
آخر पहचाना। 0.0524247
میں मेरी 0.0414033
سے मुक़ाबला 0.0020838
ہے۔ पीस 0.000332472
ایک मेरी 0.00926248
بہت अनासिर 0.00292547
آگے अनासिर 0.110882
کہیں، मलामत 0.101132
بہت पीस 0.00585665
خطرے गुर्दे 0.92287
میاں नौबत 0.0756854
دکاندار पुर्जे़ 0.17185
کپور कोशिश-व-हिम्मत 0.076641
ہرج सहर 0.117821
جب मेरी 0.0643185
لئے ज़िक्र 0.0487703
نے डाले 0.00327319
داموں दुकान 1
غرارہ बा-वजूद 1
پھر ऐक्टर 6.9314e-05
نصیبہ बॉय” 1
کہنا ऐक्टर 0.0863378
کہتا तहतानी 0.0660788
دوران ‘लुगाई’; 0.0771778
نے मेरी 0.0177169
‘‘بچے झोंपड़ी 0.0670405
پھر पहुँचे 0.00130741
طان छोड़ने 0.0909091
مساوات सय्याहत 1
قیمتی आख़िर 0.000100798
"دیا"؟ उज्लत 0.5
معلوم में,जापान 8.77408e-05
پھر मेरी 0.128369
سڑک नहीं 0.441311
چیز अनासिर 0.00727333
پر ही------- 0.00154661
لکھنے नौबत 0.234308
اکثر ‘लुगाई’; 0.0214269
مصرعے दीगर 0.100558
ناک कहिए,बड़ी 0.0196495
خود दूँ 0.0169513
سکتا۔ सकते।काश 0.374142
ہوکہ करें।” 0.166667
پر दवाएं 0.000171846
شروع पहुँचे 0.00330802
جاتی दवाएं 0.00366509
اسی साहिबो, 0.0137275
شکی पुकारने 1
دفع पुकारने 1
کیا، रीछ 0.0274169
مینڈک सकते।काश 1
سینما बुख़ारी 0.0706165
اپنا साहिबो, 0.000918608
قصہ पहुँचे 0.0212025
ہے ग़र्ज़ 1.35252e-07
ہوتا ग़र्ज़ 0.0167322
کسٹم मशरिक़ी 0.236232
لیتی दूँ 0.343048
یہ ग़र्ज़ 0.00190703
حالت तन्क़ीदी 0.086951
ہے۔تو हवाला 1
کھانے दवाएं 0.019638
ہر लिल्लाह 0.00481493
رہنے बना-दाँ 0.0574686
والے बना-दाँ 0.0156111
گئی तन्क़ीदी 0.0268284
وہی ता’रीफ़ 0.0150019
دیکھی तन्क़ीदी 0.112905
گھسے आवाज़ें 0.818364
پرانی ता’रीफ़ 0.0448686
ہم समझी 0.00842236
ابھی मुर्ग़-ओ-माही 0.0398289
شعر दूं 0.0115255
دو लिल्लाह 0.00985617
بھی पान,वग़ैरा 0.000361609
ور बॉय” 0.0496454
کہ मुस्लिम 0.000666681
تو होता।अक्सर 0.000372876
اونچا रखा,नब्ज़ 0.0249392
تقسیم शख़्सियत 0.350545
مڑ दिला 1
تو मोहल्ला 0.00109876
طالب बना-दाँ 0.0825581
تھا ख़ाक़ानि-ए-हिन्द 0.0037468
عالم ख़ाक़ानि-ए-हिन्द 0.040815
جمائی सरगिरदाँ 1
‘‘آپ पागलों 0.0239954
کو मोहल्ला 0.00179418
بیاہ उल्टने 0.36334
ہے، ख़ानम 0.00367697
ہندوستان، सूँत 1
پیارا बुरा 0.420428
؂ नू 0.0320022
غالب:۔ नू 0.0117248
چھوڑئیے، रहे 1
نے होता।अक्सर 0.000217797
پر सोचते 0.000662581
پوچھا होता।अक्सर 0.113618
رہی ख़ानम 0.00471365
میبل क्यूँकर 0.0359454
نہیں،اس अनासिर 1
واقعہ ग़र्ज़ 0.193644
دراصل ग़र्ज़ 0.512091
تھا"۔ भेंच 1
جوصرف महाजन 1
ضروری आब 0.00424639
مخواہ ब-यैकवक़्त 0.0117209
جلسے शख़्सियत 0.183805
کے फ़ौज 0.000731326
دھانی इसमें 1
دوپٹے۔ इसमें 1
نسخہ पीस 0.0367092
ہے ले। 0.000185142
منہ दोहराया। 0.00795901
کنٹوپ आवाज़ 1
ليے۔ आवाज़ 1
ٹٹولا۔ आवाज़ 1
بالوں पीस 0.0806698
لگائیں۔ पीस 0.72299
اصلی पीस 0.163669
ہمہ पीस 0.268841
گیر पीस 1
وقت हैं।जैसा 0.0110948
اس था।” 0.000516813
تین लिल्लाह 0.00781303
بھی दिलाया 0.00317892
آتی۔ सबको 0.954545
کیا ज़िंदगी 0.0201808
ہے، आब 0.00137887
ایک ज़िंदगी 0.0101278
مجھ होता।अक्सर 0.00536386
کو था।” 0.002522
استعمال आब 0.0266756
مجھ मोहल्ला 0.0165913
میرے था।” 0.00882585
جان था।” 0.0113161
سچ मुस्लिम 1.64995e-05
بےتکلفی जिन 0.475887
مضمون भाड़ 0.030564
کر था।” 0.00172511
دن ज़िंदगी 0.0686778
محض ख़ानम 0.00835684
والے आब 0.00975693
گھر पान,वग़ैरा 0.00453659
تھی؟’’ मेज़ 1
جاناں था।” 1
پنڈال रखा,नब्ज़ 0.0602583
خواہ ब-यैकवक़्त 0.0109465
بہن (जवाबन 0.116324
تو “ओह!अच्छा 0.000364643
شیشے आब 1
پکڑ साहब,“आप 0.117775
پانی था।” 0.0399355
کپڑوں साहब,“आप 0.0645034
کبھی साहब,“आप 0.00135525
تو ‘बैंगन’। 0.000442349
یہ “ओह!अच्छा 0.000217531
ہیں، समझी 0.107958
اب “ओह!अच्छा 0.001251
ہے، पड़ा।” 0.0110309
کہا:‘‘میں इसमें 1
بند दोहराया। 0.00656304
ہوں ‘बैंगन’। 0.00134482
پھر था।” 0.00323577
کونے रखा,नब्ज़ 0.1317
ہے साबित 0.00707177
بیگم चिड़ा 0.153426
وظیفہ जिन 0.875
تھی बुज़ुर्गों 0.0213838
ہے۔اس अनासिर 0.0689703
نہیں साबित 0.0212865
ان हिंदुओं 0.00111296
کچھ हद 0.0332658
ہے۔’’ तुले 2.8503e-05
ڈرتے बाज़ी 0.100286
بائیسکل दुकान 0.0222509
لیکن ‘बैंगन’। 0.000133218
سال ख़ानम 0.0105924
آرزوؤں जिन 1
جتنے जिन 0.294772
تمغہ जिन 1
پڑتی उनमें 0.32967
چکا ‘बैंगन’। 0.0936332
پر हद 0.00876414
مجھے “ओह!अच्छा 0.0012479
دے बुज़ुर्गों 0.0224477
اپنے था।” 0.00327846
پلانے आब 1
کیا۔ दोहराया। 0.0047887
کی दी।गरमियों 0.00076815
وغیرہ था।” 0.0243453
تھا۔ बाक़ायदगी 0.003996
دس ख़ानम 0.0192362
جون ख़ानम 0.5
درازیٔ ख़ानम 1
عمر ख़ानम 0.0313807
شاخ(شاخشسانہ सफ़ेदी 1
ہے)اردو सफ़ेदी 1
ہوجاتی۔متروک सफ़ेदी 1
رہ बाक़ायदगी 0.0339589
مصرعے ‘लुगाई’; 0.0353494
فی दी।गरमियों 0.0833333
سے गया।बड़ा 0.00097901
پر दी।गरमियों 0.000171846
خیرگم उलटने 0.25
بائیسکلوں दुकान 0.0469105
نصیبا क़रारदार 1
کو मकानी 0.000340681
لاہور बुख़ारी 0.0573386
تیری था।” 0.131825
جغرافیہ बुख़ारी 1
نےکہا असल 0.152888
ہائےکتنا बुरा 1
اونے दुकान 1
شاعر ब-यैकवक़्त 0.0221331
انجمنوں सर-ज़मीन 1
اغراض सर-ज़मीन 1
ومقاصد सर-ज़मीन 1
سمجھا۔ इंतिक़ाल 0.0330527
بدلوں हवाला 1
ڈکارآتی हवाला 1
گھڑی तन्क़ीदी 0.315789
پکڑلیتا हवाला 1
دریا साहब,“आप 0.0181818
سوئز इबलीस 1
بینک इबलीस 0.313774
کھاتہ इबलीस 0.345969
رہی बुज़ुर्गों 0.0377092
ہیں۔ ख़ाक 0.000898844
کمپنی करें।” 0.0184445
ذرا गया।बड़ा 0.002181
(۲) की।उन्होंने 0.166667
تو ब-कसरत 0.00186189
سہرا करें।” 1
نگاری करें।” 0.642857
بھی ख़ाने 0.000493928
زیادہ दुरुश्ती 0.00181119
تھی، बुज़ुर्गों 0.0730823
بہت दुरुश्ती 0.00493674
س दोहराया। 1
اسے ख़ाने 0.0080166
طلباء मुहय्या 0.034192
بناداں शाहदरे 0.0714286
دودھ आब 0.0405235
ہے साये 0.000955628
تومیرا सरगिरदाँ 1
لرزنے सरगिरदाँ 1
۔مجھ सरगिरदाँ 1
بھول ‘बैंगन’। 0.132989
لوگ पूरी 0.0207873
زیادہ खालिदा 0.00482985
وہ पूरी 0.00229647
سے सुनते 0.000651011
ذکر बुज़ुर्गों 0.0869229
اپنے मकानी 0.00353254
انہوں दाग़ा 0.0226191
۔تو बढ़ 0.942857
دل वस्ल 0.0189947
ورد बढ़ 0.733334
ہیں۔ पूरी 0.023885
ان पूरी 0.00422685
چاہیے۔ पहुँचे 0.222193
نقشہ ले। 0.149747
سنائی बुज़ुर्गों 0.254149
مل परवान 0.0275833
گا हैं।हम 0.016294
کردیں۔ ब-यैकवक़्त 0.356436
مرمت तयम्मुम 0.497516
گے (अरशद 0.00757619
وظیفہ इंतिक़ाल 0.125
الٹا ले। 0.204722
سےآخری जद्द-ए-अमजद 1
1947ء जद्द-ए-अमजद 1
کوئی खड़ा 0.0017972
اُٹھنا लेकिन 1
مرحوم मकानी 0.00862569
بغیر था।” 0.0265797
بھیا، लेकिन 1
ہرایک ले। 0.232156
کررہے पूरी 0.29197
وہ दाम 0.00308366
ظلم पूरी 0.502377
بھی दाम 0.00384884
انجمن सोचते 0.131567
شہرت दूँ 0.428571
اشیا आख़िर 0.767019
دیکھا۔ ख़ाने 0.0529271
ہلکے नहीं 1
(نظم ‘लुगाई’; 1
آتا बाक़ायदगी 0.0947025
وغیرہ खालिदा 0.0065578
اگر जाए.......बाहर 0.00453977
کہ मछलियाँ 0.000762767
ہوئی मछलियाँ 0.0102414
انتظام दूँ 0.0857292
‘‘میں हैं।हम 0.2917
بدتمیزی दवाएं 1
یہ मछलियाँ 0.00188298
چوتھا दवाएं 1
بدزبانی दवाएं 1
سنتی दवाएं 1
سہتی दवाएं 1
الفاظ हैं।हम 0.136738
کہا: चिड़ा 0.499565
کیا होते! 0.000388063
میں، फ़्लोर 0.195836
نظرآتا ले। 1
مرتبہ हैं।हम 0.0932307
مطلب (अरशद 0.0162827
پڑتا अख़ज़ 0.0133582
دفعہ बुज़ुर्गों 0.0171906
سوار सोचते 0.0714656
نہ मालूम 0.0748442
سے “बहनों 0.0010419
نہ पुराने 0.00267569
اپ، लेकिन 0.94794
کسی मालूम 0.0373412
تین सुनते 0.0390666
بھی पुराने 0.00264949
گلے बुज़ुर्गों 0.525376
آداب मकानी 1
انعامات शख़्सियत 1
پڑوسن सुर-ताल 0.202135
جتنا पूरी 0.46469
ہے۔میں असल 1
لیکن अख़ज़ 0.000961919
’’عشق‘‘ अँगीठी, 0.249831
پھانسی तुले 0.0235406
ممکن पुराने 0.459878
تمہارا दुरुश्ती 0.0982232
نے थी।हमने 0.0010972
قریب खड़ा 0.0263447
م۔ दूं 0.0607099
اسلامیہ सोचते 0.412229
ہال सोचते 0.113871
پھاٹک सोचते 0.14997
بہتر खालिदा 0.0454524
کے तिलाई 0.000731326
دیکھا’’مرزاکی कहिए,बड़ी 1
ٹھندی कहिए,बड़ी 1
رکشہ सोचते 0.794128
بیماری अख़ज़ 0.230769
ہی था।वही 0.000324109
لمحے लिल्लाह 0.123943
انگلیاں दी।गरमियों 0.470849
چاہوں अमीर 0.0336433
کا है......?” 0.000114438
نہ मामले 0.00107032
ایک है......?” 0.000266568
عالم रईसों 0.040816
(ناول) क़ाफ़िया 0.0017016
پرحیرت क़ाफ़िया 0.557559
انگیزعبورحاصل क़ाफ़िया 1
کتا ख़ाने 0.11759
لوگ देखा 0.036946
لاہور नहीं 0.43887
لڑنا ता’रीफ़ 1
جھگڑنا۔ ता’रीफ़ 1
بحث؂ ता’रीफ़ 0.0625351
قسم देखा 0.0754298
ہر देखा 0.086669
ملک देखा 0.223118
قوم देखा 0.603834
تسبیح दी।गरमियों 0.0416091
گنگا उनमें 0.49988
ہوگیا۔ लाइए 0.126063
جلالی मुहय्या 1
لاکھ सँभल-सँभल 0.0988421
ہوا देखा 0.0376539
تھا: नुक्कड़ 0.187015
کی ना।यहाँ 7.45767e-07
لکھیں (अरशद 0.0425224
دس सुनते 0.0360692
کہ गुलाब 0.000225245
ہزار सुनते 0.235008
رہے देखा 0.0272308
کہانی सादिक़ 0.301584
خط (अरशद 0.0185131
دستیاب खालिदा 1
ہوجائے खालिदा 0.00589884
ہوگا) खालिदा 1
مکھن खालिदा 1
تھی गुलाब 0.0108419
ڈاکٹرکےپاس अमीर 1
انجکشن अमीर 1
لگوانےپہنچ अमीर 1
جاتیں अमीर 1
ماہ सुनते 0.161885
ساری “किताबी 0.0341269
ہیں “मेरे 0.0016322
کہ “मेरे 0.000536764
پیچھے “किताबी 0.00551715
کہہ “किताबी 0.0052646
ہم ठहरना 0.00280751
دارد मा-ख़ुद 0.81134
غلطی मछलियाँ 0.13323
توہین है......?” 0.0176325
مجبوروں “ख़ाकम 0.00661058
کےلیےدوا वफ़्द 1
تیارکرلوں۔ वफ़्द 1
باتیں۔۔۔۔’’ वफ़्द 1
داخل लाइए 0.0847536
ہوئے۔ मामले 0.126848
ان “मेरे 0.00172369
نے गुलाब 0.000340291
گیا नाशता 0.00273216
*** क़ुर्बानी 0.103191
دھوبی भेजे 0.0209713
مرنے मकानी 0.0251112
پھر ना।यहाँ 0.00261398
دے “मेरे 0.0260743
ہونٹ था।वही 0.0325822
فرماتی फ़रमाए।आमीन।” 0.151736
ہیں: फ़रमाए।आमीन।” 0.0218396
پورا नाशता 0.049149
ہاسٹل पहुँचे 0.0396048
سےتحریر फ़रमाए।आमीन।” 0.981689
ایسا “किताबी 0.00285174
ہےکہ दरयाफ़्त 0.0837302
کیا۔ देखा 0.064996
رےشریرتویہاں असल 1
آیا۔اُچھل असल 1
نہیں۔ हथेली 0.0250008
گرمی साहब,“आप 0.0214577
یہ दरयाफ़्त 0.00158145
چچ—اس पुरज़ोर 0.0831927
وکیل था।” 0.361762
کوپکڑکرہلاک नाशता 1
کردینےکا नाशता 1
بندوبست नाशता 0.00744739
کردیا नाशता 0.0217905
گاڑی ख़ाक 0.0579198
رہی “मेरे 0.0219007
بجے खड़ा 0.066931
پچاس होते! 0.473032
انہوں गुलाब 0.00764548
محض देखा 0.112817
حاوی ज़िक्र 1
آزمائی ज़िक्र 1
پڑیں ज़िक्र 1
اندر लाइए 0.0595428
یا ख़सारा 0.00100466
ہی ख़सारा 0.000230638
بھی ख़सारा 0.000227199
تمہیں तख़्तों 0.00107953
متاثر मामले 0.800001
ہاسٹل बना-दाँ 0.0475258
یوں ख़सारा 0.00441358
بھائی’’ बढ़िया।पुरानी 0.122811
بچھا औरत, 0.09
لفٹ पागलों 0.0882235
دن बनी-नौ-इन्सान 0.00109999
بھی शे’र-ओ-अदब 0.00158946
صبح बनी-नौ-इन्सान 0.00231423
کثرت दी।गरमियों 0.00604296
اصول है......?” 0.046806
تشریف पारा 0.023079
"یعنی बना-दाँ 1
نہیں۔ दाग़ 0.0214619
ہیں، देखा 0.0809671
دروازے बनी-नौ-इन्सान 0.0208059
تجھ था।” 0.197662
گھر “मेरे 0.0135063
سات खड़ा 0.0229197
کی मज़ा 0.00579028
دھوتا साहब,“आप 0.4
بلکہ इश्क़ 0.0451185
پر दाग़ 0.000656775
جو इश्क़ 0.00368247
کرتے इश्क़ 0.00922649
انہیں देखा 0.206696
ایسی इश्क़ 0.0406228
گندہ ब-यैकवक़्त 1
چلنے मांगता 0.447392
ہوگئے۔ जद-व-जहद 0.0270016
پھراپنےانہیں हैं।हम 1
کودہراؤں हैं।हम 1
ہی चमन 0.000539995
ہے ज़रूर, 0.000380821
میرے ब-लिहाज़-ए-शोहरत:- 0.00356608
نہیں चमन 0.000611243
ہے۔ चमन 0.000251165
بلاؤں name 1
ہوا۔’’ था।” 0.533201
بعد ब-लिहाज़-ए-शोहरत:- 0.00152035
کس ब-लिहाज़-ए-शोहरत:- 0.0032529
نہ तमाशा 0.000535168
یہ (आलू, 0.00109985
ہوئی तमाशा 0.0119365
انہوں बनी-नौ-इन्सान 0.00251324
تھا۔’’ अख़बार 0.425002
زیادتی गुलाब 1
ہمیں ज़रूर, 0.00393162
گورنمنٹ मज़ा 0.787216
امراض जद-व-जहद 1
نڈھال ख़ाक 0.72
دراصل यूरोप 0.218829
تھے इश्क़ 0.0249947
پسند इश्क़ 0.112856
نہ हैं।निशाना 0.000535014
ہی हैं।निशाना 0.000540269
‘‘توکیا ब़ड़े 0.0697285
‘‘گذشتہ “मेरे 1
ہفتہ “मेरे 0.617394
میرا ज़रूर, 3.21509e-07
نےادب बजाए।हम 1
اورفن बजाए।हम 1
توصاحبو!میری जाए.......बाहर 1
تجویزہےکہ जाए.......बाहर 1
دوسرے बनी-नौ-इन्सान 0.00765953
پوری तमाशा 0.016072
چھوٹی तमाशा 0.184602
لڑکی तमाशा 0.0912629
روح मुतज़ाद 0.10145
بخشتا खड़ा 1
وطنوں खड़ा 1
کم चमन 0.0103584
کو कारवाई 0.000170377
سا कारवाई 0.00866185
بلا ब-लिहाज़-ए-शोहरत:- 0.0819917
شکار जद-व-जहद 1
عمر जद-व-जहद 0.0104602
بالکل हैं।हाँ 0.0500537
تو मलिका-ए-जज़्बात 0.000310316
جوانی जद-व-जहद 0.0909091
دی लय 0.00776071
بخت चमन 0.500071
چھ बनी-नौ-इन्सान 0.0441938
ہم खाना 0.00842255
بھئی शै 0.0247407
تمام कारवाई 0.00655931
اچھا होगा।शौकत 0.0408597
کروں۔ आया, 0.274809
اپنی मुतज़ाद 0.00130897
محبت ज़रूर, 0.14769
مطلب ज़रूर, 0.0163335
کو हुए। 0.000183922
رے सिन्फ़ 0.482745
میلہ सँभल-सँभल 1
آئے हसीन 0.0265817
چڑیا सादिक़ 0.290625
پر हुए। 0.00019322
گا मलिका-ए-जज़्बात 0.00543124
تشریف पर्चा 0.025754
بھونک शै 0.75
نے हुए। 1.81377e-08
زمرے मेरी 1
سیہ तरन्नुम, 0.858643
ادھیڑ जद-व-जहद 1
نہایت खाना 0.098386
بین नई-नई 0.684478
گے मलिका-ए-जज़्बात 0.00631246
اٹھے मलिका-ए-जज़्बात 0.238095
گئی۔ लय 0.0272519
معمولی कारवाई 0.0260461
گا؟’’مرزا दोहराया। 0.00533181
نےا दोहराया। 1
بدلگام दोहराया। 1
بندہ दाग़ 0.458895
کان ज़िंदों 0.20054
انسانوں सँभल-सँभल 0.40103
بھی तलक़ीन 0.00158946
سےایک पर्चा 0.199262
دی ना-शनासी 0.00431051
‘‘آپ “उनका 0.143544
صاحب ज़िंदों 0.00194368
بات ना-शनासी 0.000707961
ہےکہ मार-मार 0.0363111
سب मार-मार 0.00604202
کچھ ना-शनासी 0.000652289
یا नहीं, 0.00703288
بار मेहरबान 0.0884225
ہے हूँ।” 0.00244636
لوگ हूँ।” 0.0212401
کہ हूँ।” 0.00151087
کرتے निचिंत 0.00518983
لگوالیتے۔’’ पागलों 0.125263
قسم नहीं, 0.0335217
گرچہ (अरशद 0.087084
کرانے मुतज़ाद 0.122018
قطعاً कारवाई 0.1
بجے बनी-नौ-इन्सान 0.018592
جاتی ना-शनासी 0.0036652
بیہودہ देखा 0.593234
لیا नहीं, 0.145152
گیا हूँ।” 0.0212047
جارہا नहीं, 0.244484
یاد हसीन 0.0224449
کےلحاظ कमेटी’ 0.109747
نے बड़ी 0.000609557
انگلیوں हद 1
ہیں है।!” 0.000421555
زیادہ (दूसरे 0.0144895
شرف आया, 1
علاج हसीन 0.17072
موت हुए। 0.0145631
پھر बहर-हाल 0.00784446
انسان कारवाई 0.00723148
عشق रफ़्ता-रफ़्ता 0.0552869
ہر है।!” 0.00385194
نیاز आया, 0.503463
حاصل आया, 0.0414798
ہو फ़ैशन 5.84302e-05
پڑا हैं।निशाना 0.372705
کہا बड़ी 0.00891885
لی۔ दाम 0.510123
‘‘توکیا तुले 0.067411
من हसीन 0.289666
اس सुलूक 0.0013656
کی۔ बड़ी 0.203552
لیں मलिका-ए-जज़्बात 0.0538205
الموت समझाते 0.00104918
واپسی हुए। 0.118283
راستے हुए। 0.054904
سراسر गुलाब 1
‘‘ایک अख़बार 0.0111019
سر फ़ैशन 0.0128475
کیونکہ ना-शनासी 0.00559916
نظم दाग़ 0.0474453
آدمی मार-मार 0.041679
عام ना-शनासी 0.0249159
دیتے۔ “किताबी 0.0654818
ہوئے۔ ज़िंदों 0.0386899
کچھ था।मैं 0.00580682
بعد है।!” 0.00182442
دیکھا हूँ।” 0.142681
جب सुलूक 0.0160385
پرینٹیڈ नहीं 1
انتخاب अलाव 0.100802
جانکی मकानी 1
رُو मकानी 1
ہیں۔’’ बूढ़ा 0.0596562
میبل होता।अक्सर 0.0314013
بیگم लें,इसमें 0.153426
ہوں، हसीन 0.102607
بلوا था।” 1
عظیم बूढ़ा 0.132152
محدب आब 1
آیا अलाव 0.00872223
آبادی बूढ़ा 0.13255
انہوں बड़ी 0.0125662
کھڑے ज़िंदों 0.0322936
مارنے सँभल-सँभल 0.356348
سے था,चीख़-चीख़ 0.000199232
ہونے नहीं, 0.0319193
قدم पर्चा 0.0190603
گردوغبار रईसों 1
وقت बजे, 0.0110948
"بہن! चिड़ा 1
ہیں जोश 0.000602218
لکھنے दाग़ 0.0670471
میسر “विलायत 0.315789
ایک कहाँ 0.00109539
یوں जोश 0.00882157
بندرکا में,जापान 0.00610248
اورزمزم उनमें 1
کےپانی उनमें 1
آخرکیابات उनमें 1
ہے۔جوخلقت उनमें 1
پرپلی उनमें 1
یورپ उनमें 0.25
کےمنتخب उनमें 1
سلسلہ यूरोप 0.0737373
مرحوم बड़ी 0.010782
اطلاع पोशीदा 0.236439
ڈرلگ “ओह!अच्छा 1
ساتھ पोशीदा 0.00595849
اب कहाँ 0.010295
ہیں۔ कहाँ 0.0104629
جس जोश 0.00322586
فلسفی कलीद 0.395447
ہے दीजिए”एक 3.6055e-07
تجربے निचिंत 1
بے बे-वक़ूफ़ी 0.0322952
ہوئی۔ बहर-हाल 0.0585219
طور ना-शनासी 0.00764648
کھیلتے मुतज़ाद 1
ورنہ फ़ैशन 0.0251539
پیشترموصوف सुनते 1
اگر कहाँ 0.0226589
پوری पोशीदा 0.024108
رہے जोश 0.0034579
کی हवाई 0.0046089
گی، रोशन-दान 0.0212466
لگتی हसीन 0.680712
آزمودہ हसीन 0.333333
بتائیں۔’’ हसीन 1
کھڑے देख-भाल 0.0384244
گھاگیات है......?” 1
قضیئے है......?” 1
مذاہب है......?” 1
تو क़रीब 0.00282532
مرزا हुए। 0.00124566
بے जगा 0.0143534
غوطہ सँभल-सँभल 1
طبعی पहुंचाने 0.10003
لاش ख़ाक 0.176471
ہے۔ क़रीब 0.00128692
کچھ जगा 0.00260908
سیلاب ब-लिहाज़-ए-शोहरत:- 0.0236951
کے ही 0.0129887
اورتوپ ख़ाक 1
پرتیری ख़ाक 1
اٹھانےکا ख़ाक 1
میں ही 0.0807295
کیا ही 0.0346842
بارش बनी-नौ-इन्सान 0.5
اور ही 0.0356307
دیکھ पिछली 0.0801304
یہ ही 0.0499174
میرے क़रीब 0.0375473
بالکل नमूने 0.100107
قتل कहाँ 0.713843
کو ही 0.0136987
ان ही 3.99627e-05
جب लड़का 0.0026657
پطرس तहसीन-ए-बहुरूफ़,सुनहरी-व-रुपहली 0.0396009
مرض था,चीख़-चीख़ 0.0800611
ہرافسانےکےساتھ एडिटरों 1
سوکھے समझाते 0.137432
اس "। 0.000104284
پولیس देख-भाल 1
دولت तमद्दुन-व-मुआशरत 0.0741789
کلام अलाव 0.0082864
بوٹی दीजिए”एक 0.529061
میں निगाह:- 5.49084e-07
ہاشم बूढ़ा 0.0170779
اور निगाह:- 0.000535399
یا बताता 0.00234271
متاثرہورہاتھا۔ तन्क़ीदी 1
برابرمیں तन्क़ीदी 1
ہوں निगाह:- 0.00456346
ہوں‘‘بھئی था।” 1
برس था,चीख़-चीख़ 0.11232
کرتے बताता 0.00345989
پالیسی होते! 1
لےکر बताता 1
دہری रोशन-दान 1
استادوں अलाव 1
فیمی अनासिर 1
نزم अनासिर 1
تانے अनासिर 1
بانے अनासिर 1
چیز ही 0.290836
رکھے था।मैं 0.000468764
بس बताता 0.0165082
کم क़रीब 0.0545173
گا۔’’ फ़ैशन 0.116872
چنانچہ लड़का 0.0245183
بیٹیاں पान,वग़ैरा 1
کا कब?” 0.000220117
خدا लगा।क़ैसरा 0.00207022
اپنے ही 0.070625
ہنسنے देखा 0.782405
ہزارکی होते! 1
ہوئی؟’’ होते! 1
دلچسپی ही 0.911657
چیز "। 0.00554767
پھول था।मैं 0.00601126
شکل जगा 0.0742458
ہے۔ आएगी। 0.00075331
پانچ है।!” 0.0216593
پر हैं.......!! 0.00154661
ہے۔’’ ऐंठते 0.000560789
منٹ है।!” 0.0179963
نازل जगा 0.298826
داڑھی जगा 0.146754
اب सेशीन 0.000884215
ستاتی साहब,“आप 0.106281
پھوٹ लगा।क़ैसरा 0.23006
گئی۔ लगा।क़ैसरा 0.0170326
سنواراس लगा।क़ैसरा 0.148929
موئے लगा।क़ैसरा 0.36
پادری लगा।क़ैसरा 0.0857143
سےمیرا लगा।क़ैसरा 0.176471
پتھر लगा।क़ैसरा 0.060421
کر “अपने 0.000232715
گھر ही 2.38413e-05
وطن लड़का 0.105804
آپ तक़तीअ 0.0267432
خلقت मोहल्ला 1
نے बताऊं 0.000271665
بعد “अपने 0.00101357
قریب "। 0.0111668
سی बताऊं 0.00799368
قابل पिछली 0.189013
تر क़रीब 0.230077
وغریب है।!” 0.166667
پانی “अपने 0.0107573
‘‘اچھا، गूँज 0.836142
وغیرہ बताता 0.0196734
ہے، कब?” 0.00123906
پھڑک था।वही 0.130435
توگئے۔ था।वही 1
پرزبان था।वही 1
ذوق शुग्ल 1
ہے۔سولہ सँभल-सँभल 1
سترہ सँभल-सँभल 1
کاجماوہے۔ریلوں सँभल-सँभल 1
خاطرگھربارچھوڑکرچاروں सँभल-सँभल 1
لائنوں पान,वग़ैरा 0.201464
میرا सेशीन 0.00231227
کسی अली 0.00118462
خداحافظ۔۔۔ दुरुश्ती 1
شکریہ، दुरुश्ती 1
ہیں۔ उठने 0.00943789
کےبچےکوسنےمیں को।नन्ने 0.0831419
تھا۔" खाना 0.684307
کوئی अली 0.0014799
ہو भेज 0.0323495
سفر बताता 0.0687433
اٹھا तौबा!बूढ़े 0.0266372
قبل “अपने 0.242982
حرفت बाएं 0.00522339
کی बल्कि 0.0097323
کیا उनको 0.0256784
ہیں बल्कि 0.00889923
گئے۔ बना। 0.0321345
بھیجیں रोशन-दान 1
جیسا सेशीन 0.0599767
کسی बल्कि 0.0759222
اتنا शुग्ल 0.0121571
تماشا देख-भाल 1
یوسف क़ुर्बानी 0.0518755
ہے۔ उनको 0.00155317
پر नआश 0.000618438
میں، लड़का 0.0326393
بعد सुपेरिटेंडेंट 0.0091221
مارے बना। 0.0139879
پٹری दी।गरमियों 1
دن भेज 0.0222748
کون बताऊं 0.0159117
پی “अपने 0.0688177
لئے बताता 0.00770057
الذکر है।संदूक़ 1
اگر अली 0.000322623
ابھی शुग्ल 0.00663816
بچے बना। 0.0490121
بینگن दाग़ 0.235448
حقدار दाग़ 1
مجھے सुपेरिटेंडेंट 0.0061734
توپ लय 0.13401
شعرا आया, 0.0565095
قیاس नहीं, 0.609466
تبلیغ नहीं, 1
سیرت नहीं, 0.049609
جلسہ नहीं, 0.206722
لاہور तख़्तों 0.0370641
دونوں बना। 0.00392098
نہیں۔ निगह-ए-इंतिख़ाब 0.00557015
ایک निगह-ए-इंतिख़ाब 8.69922e-05
بولے۔ बताऊं 0.066959
شور तौबा!बूढ़े 0.0608287
اب रहती, 0.00206225
جاؤ फ़ैशन 1
تصنیف अली 0.111341
بالا क़रीब 0.817079
اپنی अली 0.00258699
فہم क़रीब 0.659677
آدھا “अपने 0.237288
شو कलीद 1
صاحب गुफ़्तुगू 0.0165416
اپنی बल्कि 0.0331601
بڑے बना। 0.00379923
ڈر बना। 0.142857
اشتہاری जद-व-जहद 1
جنسی जद-व-जहद 1
تونس जद-व-जहद 1
شوخ पर्चा 0.0668896
(اگرچہ शै 1
سو कब?” 0.0214454
تنقید घी,दूध,मक्खन 0.142857
ٹال ना-शनासी 0.156244
ضمیر ना-शनासी 1
حال उनको 0.283818
گھناؤنا था।” 0.00850336
پل है........तो 0.0050446
آغوش जोश 1
ایک नफ़रत, 0.000799736
کسی बारिश 0.00287714
بستر बताता 0.140198
کتابوں रहती, 0.0690207
بھی पड़ा। 9.76846e-07
نہیں पड़ा। 0.000516026
ہماری है........तो 0.0212146
مجلس निकलना 0.091463
مونچھ जगा 0.285605
ہوتا लिखने 0.0381198
کیا लिखने 0.00388134
ہاں शुग्ल 0.0174583
پر में,समाजी 0.000441758
عائد लिखने 0.626087
جو बारिश 0.00331418
کبھی बारिश 0.00975781
وقت बारिश 0.00887585
قبلہ सेशीन 0.189477
دیکھی मुरीद 0.0376352
نالے साहब,“आप 1
جاڑا साहब,“आप 1
بخاری तहसीन-ए-बहुरूफ़,सुनहरी-व-रुपहली 0.0428148
نے पड़ा। 0.000312384
مثلاً गुफ़्तुगू 0.240048
واقتدار तमद्दुन-व-मुआशरत 1
شعلے जोश 0.112672
ایبل पर्चा 0.195449
حالات ही 0.582045
مرزا बताऊं 0.00247665
جموئی हो।दूल्हा 0.0364073
والوں में,समाजी 0.0233551
خریدی बताऊं 0.375205
دو، देखा 0.808355
بہت कहानियाँ 0.00329479
بلکہ लीजिए। 0.0282001
بعد मदीने 0.00912209
خواتین शुग्ल 0.0526824
خدا हाय,मरहूम 0.00236596
ہے۔ साबिक़ा 0.000451984
مشہور कलीद 0.0890396
‘‘ہروقت निकलेगी। 0.0928155
شاعر अली 0.0364517
پرانے कहानियाँ 0.219682
اطلاق लिखने 0.804384
دو लीजिए। 0.0438056
ہے؟ पड़ा। 0.0213196
انسان निगह-ए-इंतिख़ाब 0.0072505
دنیا मुरीद 0.00875593
حادثہ۔ देखा 1
ہیں،اس बताता 0.666667
اورہم मुरीद 0.4375
رہے दाने 0.00605137
‘‘یعنی ज़िंदों 0.0011144
کئی मुकम्मल 0.0354694
دیکھتے۔ देख-भाल 1
معترض “किताबी 0.0806452
دھندا पूरी 1
کو ताज़ा-ताज़ा” 0.000168851
انسانی कहाँ 0.756142
کرتا ताज़ा-ताज़ा” 0.00604342
سنگین कहाँ 0.789113
بھائیوں ही 0.946729
کاہاتھ ही 1
یک में,समाजी 0.0231912
طرف۔ मुरीद 1
بھی‘‘جدید है।संदूक़ 1
شوقین इश्क़ 1
اظہار’’کے है।संदूक़ 1
ہے۔اوّل है।संदूक़ 1
صدیقی बल्कि 0.364777
یا जल्द 0.00390427
ہی जल्द 0.000900257
ہے हुई 0.0334293
کہ हुई 0.0173483
ازوقت “अपने 1
ہے۔ जल्द 0.000418478
کہہ —पार-साल 0.0118453
کرچکا कारवाई 0.5
کوئی जल्द 0.00249591
پھرتی साबिक़ा 0.408996
پروفیسر लीजिए। 0.114265
سلام पड़ा। 0.0978432
اِدھر साबिक़ा 1
سےاُدھر साबिक़ा 1
اُدھرسےادھر۔ साबिक़ा 1
صبح निशानियाँ 0.00297543
کلاس “किताबी 0.0379683
پلاٹ ना।यहाँ 0.0581372
جدید (और 0.21059
رفتہ "। 0.0190138
اٹھنا अलाव 1
قبض मुतज़ाद 1
پینترے मुतज़ाद 1
پسلی अलाव 1
لخت में,समाजी 0.03201
وحی ना।यहाँ 1
گود है........तो 0.186508
ہیں निभाने 0.000384903
بھی निभाने 0.000146098
وجہ मुकम्मल 0.0394336
بعد!۔۔۔ खड़ा 1
آسانی जल्द 0.735282
اچھا हुआ।अक़्ल 0.0102149
جاتے लीजिए। 0.0298503
گفتگو दाने 0.130913
جناب अंदाज 0.118034
یا क़ुबूल 0.00100402
جب आरास्ता 0.0079971
ہی किर्म 0.000269581
بن क़ुबूल 0.0141868
منزل मुरीद 0.0597719
کتنے बताऊं 0.0336987
بار लीजिए। 0.024562
رفتار दाने 0.308839
خواجہ ना,इस 0.0321852
کرنا हसद 0.0073531
ہوں हसद 0.00281636
مرتبہ मुकम्मल 0.10359
ہوتا नाज़िल 0.00259908
تار कहाँ 0.882128
تھے، दाने 0.0671037
ماشاءاللہ मुरीद 0.27027
کیا नाज़िल 0.00052926
پر लिफ़्ट 0.00257487
تک हिमाक़त 0.00265022
کرتا हसद 0.0135825
جانے क़ुबूल 0.0074398
چار लीजिए। 0.0427844
گلاس “अपने 0.307692
ہے۔ है।ओ 0.000150662
عمر मुरीद 0.0209205
خسر सेशीन 0.125003
مرزا गुफ़्तुगू 0.0277141
نہایت जल्द 0.0182289
نظر किए।अगर 0.0282389
کرتا नाज़िल 0.0148173
ایسا जल्द 0.0142578
آیا۔ "। 0.0348527
تم हसद 0.00289147
گرتا निगाह:- 0.366442
کسی करंसी 0.00193654
دیر खड़ड़, 0.0729949
مزدوری ताज़ा-ताज़ा” 1
اس लौटाने 9.78119e-05
دنیا था,क्यूँकि 0.0788033
صدر अंदाज 0.0902029
اچھائی हुए। 1
ساتھ۔ हुए। 1
دعا पड़ा। 0.72069
گے؟" ख़सारा 0.0373748
بے कीड़ों 0.00807381
نام हरीफ़ 0.00103796
ہرطرف तौबा!बूढ़े 0.5625
‘‘مارو तौबा!बूढ़े 1
مارو، तौबा!बूढ़े 1
پکڑو तौबा!बूढ़े 1
پکڑو۔’’ तौबा!बूढ़े 1
کو۔ है।ओ 0.0812462
ہے۔ खां, 0.00075331
تک तवज्जो 0.00176698
ہوتا साफ़ 0.00956067
شرکت निभाने 0.0228824
شام ताज़ा-ताज़ा” 0.0207574
صرف हरीफ़ 0.00131402
ترساتے ख़सारा 1
رہو ख़सारा 1
فیض जगा 0.162952
کھانے है।ओ 0.0353484
آنکھ गुफ़्तुगू 0.834413
اٹھے है।ओ 0.285715
پھاڑ है।ओ 0.220155
حمایت बड़ी 0.204802
سکتے निभाने 0.0566534
ہے، नाज़िल 0.0120338
چاہتا हसद 0.00826117
کم क़ुबूल 0.00443805
ایسے तवज्जो 0.00796072
پراترآئے۔ हाय,मरहूम 1
اٹھتا निगाह:- 0.129233
کس लौटाने 0.00278821
صنعت बाएं 0.0938665
ہیں۔ बैठ 0.00584245
ہے۔’’ साफ़ 0.0230593
نگہ अलाव 1
واپس हिमाक़त 0.0341929
وصول ताज़ा-ताज़ा” 0.0545278
رقم ताज़ा-ताज़ा” 0.0806139
کئی तवज्जो 0.0141878
تشریف बैठ 0.215227
کوگھروالی हसीन 1
ناچ जोश 1
کا۔’’ मुकम्मल 1
تارڑ दीजिए”एक 0.226451
تاکہ किर्म 0.00784085
آپ निशानियाँ 0.00191021
کیا؟’’وکیل ज़िंदों 0.984703
نیچےجھاڑکران “किताबी 1
پڑجاتی۔ “किताबी 1
تمہیں तवज्जो 0.0301897
تصنیف लौटाने 0.0482895
ہندوستان करंसी 0.0773579
ہیں، निशानियाँ 0.00514077
کا था।मान 0.00102993
جہاں तवज्जो 0.00372137
کےبچےکوسنےمیں गया।मगर 0.0831419
چٹکلوں हाय,मरहूम 1
نہ ख़ातून 1.67911e-08
فرما निभाने 0.157246
میرامطلب बड़ी 1
کسی ख़ातून 0.00358191
‘‘جی —पार-साल 0.00821312
کتابوں कीड़ों 0.0517504
چلتا लौटाने 0.0129613
حنائی’’ पारा 0.712629
منزلیں जल्द 1
جاگ बना। 0.0049289
لیے शाह 0.119575
سڑک हरीफ़ 0.00417413
پر ख़ातून 0.00160278
وغیرہ कीड़ों 0.0147551
ہوئے बैठ 0.0300572
دشمن हुआ।अक़्ल 1
الفاظ तवज्जो 0.0607724
اشارہ लौटाने 0.0650543
مل पासदारी 0.0275833
اس फूंकें 1.19834e-07
مشرق मुरीद 0.333196
امید हसद 0.111111
ایک ठंडे-ठंडे 0.000113047
بھی ठंडे-ठंडे 0.000223368
کہتا फूंकें 0.0260705
ہیں۔ निकालो 0.000524328
بیویاں लिफ़्ट 1
سردی भेज 0.269372
واسطےدرکارہے۔ खा-खाकर 0.5
جانے निकालो 0.00867977
دوسری मोबाइलया 0.159783
کہیں ना-मामूल 0.037093
شہر लड़ते 0.0915627
ہے، ख़ातून 0.0109864
موبائل चमन 0.141139
خدمات करंसी 0.828915
ٹینی दरयाफ़्त 0.0916765
بیوی नाज़िल 0.0185803
ڈرائونی मार-मार 0.833333
ڈانٹ मुकम्मल 0.701754
شکلیں मार-मार 1
سامنےآتا मार-मार 1
ہے۔اوردل मार-मार 1
سےکہاتا मार-मार 1
مرجایا मार-मार 1
رقم करंसी 0.390231
ذرا संगीन 0.0180691
لوں किर्म 0.120507
لے संगीन 7.04211e-07
کروں बेहतरीन 0.0673401
چاٹ निगह-ए-इंतिख़ाब 0.200402
‘‘سنا था,चीख़-चीख़ 1
ہےچالیس था,चीख़-चीख़ 1
علاوہ तवज्जो 0.025705
نظراندازکرگئے۔ अलाव 1
حاصل करंसी 0.0558383
کا सल्ला 0.000246523
کیا सल्ला 0.000491787
—اکثر हूँ।” 1
خواجہ वज़ा 0.0321852
نشانی करंसी 0.563758
بےہودہ हथेली 0.333124
دیکھئےنا۔ हथेली 1
یا वग़ैरा।लेकिन 0.000780902
ہوں۔ फूंकें 0.000514159
خفیہ कब?” 0.201745
ترقی मुतअल्लिक़ 0.603763
دونوں निकालो 0.00588147
دیتی निकालो 0.016392
گرمیوں लड़का 0.291262
گی मुतअल्लिक़ 0.0903014
نیاز कीड़ों 0.314664
اسے वग़ैरा।लेकिन 0.0051693
دی ब-फ़ज़ले 0.00647051
اعتراف हसद 0.160896
مصنف अली 0.0177572
تھا अज़ा-व-जवारेह 0.000832603
ہوں۔ मुतअल्लिक़ 0.0168397
نہیں ब-फ़ज़ले 0.000305072
پہنے बैठ 0.365623
بھری हरीफ़ 0.166667
قائم ख़ातून 0.439457
پوچھا۔ बताऊं 0.0280905
لیے ठंडे-ठंडे 0.00286228
؂ घिघ्घी 0.0795733
قسم، हाय,मरहूम 0.533333
تعطیلات लड़का 0.0643427
ہوئے शुक्रिया!” 0.0161836
صاحب क़ीमत 0.0414799
کپڑے बैठ 0.0615871
آڑی हरीफ़ 1
جانے ब-फ़ज़ले 0.00868416
چادر बना। 0.230558
گھونسوں बनी-नौ-इन्सान 1
آواز हो,उस 0.0299655
بادشاہ क़ुबूल 0.0855107
پرانے अज़ा-व-जवारेह 0.0975289
ہو थी।क़ुदरत 0.000798755
لعنتیں रोशन-दान 1
جاسکتی ब-फ़ज़ले 0.157954
کرو۔ फूंकें 0.131637
صدر क़ुबूल 0.0128861
ہے، सल्ला 0.00279761
چوری लिफ़्ट 0.561932
کے जानवरों 0.000731326
مرزا में....कम-अज़-कम 0.00989792
کنہیا ब-इस्लाम 0.0503878
جاتی थी।क़ुदरत 0.00366509
متعلقات कारवाई 1
فراموش कारवाई 1
لازمی तरद्दुद-ओ-तअम्मुल 0.749999
گاہک कहानियाँ 0.0586403
بھی दिल-व-दिमाग़ 0.00158946
بھتیجے ही 0.93432
ہم थी।क़ुदरत 0.000311946
کٹر नआश 1
ملحد नआश 1
دانی वग़ैरा।लेकिन 1
آج पहाड़ 0.0296833
رکھے ख़ातून 0.212214
کو हैं।एक 1.54681e-05
ساری ढक 0.230356
درخواست निशानियाँ 0.0921457
تواس अज़ा-व-जवारेह 0.119403
1945 सेशीन 1
ہے،لہٰذا सेशीन 1
ویسے अज़ा-व-जवारेह 0.5
اجازت ब-फ़ज़ले 0.0362189
لڑائی थी।क़ुदरत 0.00941348
گیا पहाड़ 0.0109287
ہاں! —पार-साल 1
صبح पहाड़ 0.0138854
وہ छापे 0.000358759
بولی‘‘میں यूरोप 1
کہا‘‘بات यूरोप 1
پنڈال निभाने 0.0432136
یہی तक़रीबी 0.0243388
دونوں थी।क़ुदरत 0.00392098
پھرتے करें, 0.333333
تھا، वग़ैरा।लेकिन 0.00578701
قارئین लौटाने 1
کی “क्यूँ,क्या 5.75011e-08
نہیں करें, 0.000203896
ليے संगीन 0.0108042
نومولود ख़ातून 1
خوشیوں ख़ातून 1
پائے۔آمین ख़ातून 1
ثم ख़ातून 1
عورتیں कुशादा 0.3126
منحوس साफ़ 1
تکلیف अलार्म 0.224299
ورنہ ब-फ़ज़ले 0.0126336
یونیورسٹی वग़ैरा।लेकिन 0.00987141
دن छापे 0.00198003
طرف “क्यूँ,क्या 0.00263337
بیوی ठंडे-ठंडे 0.00489233
دیتے अज़ा-व-जवारेह 0.0303475
کرنے थी।क़ुदरत 0.0031969
خرچ नाज़िल 0.0454986
بہت बुज़्दिली 0.0131646
بشرطیکہ निभाने 1
دوسرے वग़ैरा।लेकिन 0.00765953
حدیث नग़मा 0.705882
میں लेते 0.0170069
اپنی हैं।एक 0.00781433
گا छापे 0.00651722
کھیتی जगा 0.285714
شروع थी।क़ुदरत 0.00220535
لئے कहनी 0.0092406
دو “क्यूँ,क्या 0.00563196
پیداوار पेशावर 0.315789
صدر हैं।मछलियों 0.0902029
اگر नाम। 0.0136248
کب छापे 0.0310544
نہ छपता 0.000356776
نہ लतीफ़े 0.000644036
جاہل हुआ।अक़्ल 0.198748
رات ओवर-कोट 0.0188272
کرعجیب है।!” 1
بھرکرہائےکتنا है।!” 1
پیاراہے’’کا है।!” 1
ٹیپ है।!” 0.642857
وہ लतीफ़े 0.000709355
عذاب जगा 1
عشق ज़ेर-ए-लब 6.42029e-05
پڑے दर-किनार 0.025469
کیا ज़ेर-ए-लब 0.000965688
راہوں इश्क़ 1
کی۔ फ़ख़्र-ए-कायनात 0.0203552
‘‘آپ सल्ला 0.0364049
تھے۔ दर-किनार 0.00314433
ڈکارکو लय 1
سےتشبیہ लय 1
کردیا۔ पहाड़ 0.666667
ان अफ़साना 0.00049465
کالج करें, 0.00499651
انگلینڈ हूँ।किंग 0.198332
شاعرانہ अफ़साना 0.153846
نسبتاً हो,उस 1
تھا ज़ौक़ 0.000832603
کےگھرجائےگا ब-लिहाज़-ए-शोहरत:- 1
ہند फ़ख़्र-ए-कायनात 0.0128252
وطرارفیشن पर्चा 1
فرماتھے۔انہوں पर्चा 1
نےنظرحقارت पर्चा 1
اورآگےبڑھادیا۔ पर्चा 1
جمع करंसी 0.14157
گوشت बनते— 0.223118
ہیں۔ खोल 0.0172755
انگوٹھی ठंडे-ठंडे 1
لاتے बैठ 0.607387
دیکھتا पहाड़ 0.0865641
خودکشی हाय,मरहूम 0.221993
ہمہ वग़ैरा।लेकिन 0.0671447
ہو केस 0.000798755
لئے पहाड़ 0.0154011
کسی केस 0.000399603
نہیں केस 0.000203896
موسیقی वग़ैरा।लेकिन 0.0288721
بھی करे।और 0.00105965
تین “क्यूँ,क्या 0.00446448
اندر पहाड़ 0.0595428
یوسف “मगर 0.319392
ناظم “मगर 0.492254
طور अलार्म 0.055053
یہ 3- 0.000362366
راس करें, 0.00650818
کرتے केस 0.0011533
اب 3- 0.00207515
ہمیں की:"तो 0.00217887
نہیں जिसको 0.00489351
بادشاہ तरद्दुद-ओ-तअम्मुल 0.199525
صاحب......’’۔ दीजिए”एक 1
کام अमान 0.00480088
آئے छापे 0.274665
ہمیں 3- 0.00657537
اگر की:"तो 0.00151387
مرزا क़ीमत 0.0346087
مثل निगह-ए-इंतिख़ाब 0.100237
ہے؟ ज़ेर-ए-लब 0.0371871
کیا۔ दर-किनार 0.00577741
پڑھوائے लीजिए। 1
عمر ढक 0.0706066
لیکن अमान 0.000360721
بولے:‘‘ہمارے कहानियाँ 1
"مرزا तवज्जो 0.0647152
ہم जिसको 0.00374335
معلوم खोल 0.0874051
اتنے केस 0.0128289
گئے۔ अमान 0.0361511
آتے तवज्जो 0.0759822
سب है?" 0.0012084
مگران अमान 1
کس अमान 0.00243968
‘‘بچے अफ़ीम 0.0656138
کان है?" 0.212099
ہیں!’’ अफ़ीम 0.00196797
کے तक़्रीबन 3.93448e-05
مٹھائی में,समाजी 1
کِھل मलिका-ए-जज़्बात 1
کی थी,वो 0.00230445
ایک मज़मूनों 0.000799736
۔ करे।और 0.0156471
وضع धीरे-धीरे 0.48
خلل अमान 0.214218
آگیا अमान 0.1537
ہٹتا۔ अमान 1
لاکھوں अमान 0.360001
عورتیں अमान 0.0390751
بیوہ अमान 0.149272
انہیں करें, 0.0102072
ہوگئیں۔بےشماربچےیتیم अमान 1
ہوگئے۔گھربارجڑوں अमान 1
سےکھد अमान 1
ننےکےابا अमान 1
کےسرسےلڑائی अमान 1
جن अमान 0.00365721
اترا۔نوج अमान 1
ایسےمردودے अमान 1
بہی अमान 1
کے۔مجھاتےسمجھاتےسرچکرا अमान 1
گیا۔ अमान 0.00814957
کےکان अमान 0.529412
پرجوں अमान 1
دورکےمسافرہم ही 1
گے۔ कड़वे 0.00620338
یہ सस्ती 0.000366768
غائب अज़ा-व-जवारेह 0.0384663
لوگ ज़ाहिर 0.0113679
اندازہ ज़ाहिर 0.200468
کرے गौहर 0.0243755
حساب ,काठियावाड़ 0.141635
روزانہ ताज़ा-ताज़ा” 0.285835
تیرا थे; 0.231901
آدمی क़ीमत 0.247914
سر ज़ाहिर 0.0267901
کریں है?" 0.00529193
مگر है?" 0.00730915
جھٹپٹا बम्बई 0.254994
سکتے बोसीदा 0.0780822
گیا तौर 0.122947
آسانی शबाब।मगर 0.264718
لکھ बोसीदा 0.0085654
خوب कड़वे 0.0457625
جھینگر निगह-ए-इंतिख़ाब 0.0338445
علی धीरे-धीरे 0.0895597
ہے۔جوکتابیں निगह-ए-इंतिख़ाब 1
لیتےہیں۔ निगह-ए-इंतिख़ाब 1
سمجھتےبوجھتےخاک निगह-ए-इंतिख़ाब 1
گا، छपता 0.0325614
بہ फ़ख़्र-ए-कायनात 0.008325
لطیفہ लतीफ़े 0.0414785
"کون बताऊं 1
مثلاً؟" बताऊं 1
صدیقی हदीस-ए-ख़्वाब 0.00111225
حرکت अफ़साना 0.133282
"تم बताऊं 0.15824
تھی؟" बताऊं 1
کہ बनी 0.000514983
تھا बनी 0.00604878
انھوں पड़ा। 0.0881315
‘‘اجی दर-किनार 0.0856104
نہیں फ़ोन 0.000912508
یہ फ़ोन 2.20033e-07
جاتا ज़ाहिर 0.0100667
کوئی फ़ोन 0.00224946
بلکہ फ़ोन 0.0252372
دیور फ़ैशन 1
ٹکرادوں फ़ैशन 1
کہہ गुनाह, 0.00947627
صاحب बंदा 0.00525129
آپ बनी 0.00867846
چوم किर्म 0.99967
عارض किर्म 1
گلفام किर्म 1
ترا किर्म 0.000392326
میرے फ़ोन 0.0107127
کرتے बंदा 0.00461319
کتے करे।और 0.0721484
صرف मज़मूनों 0.00591307
جانے बंदा 0.0231461
پر बंदा 0.000687383
گے، है?" 0.040644
احسان केस 0.0344514
خرچ थी।क़ुदरत 0.00926822
کر बंदा 0.000930861
کرلوں हाय,मरहूम 0.222265
گا۔’’مرزا हाय,मरहूम 1
پڑھا बनी 0.0561711
خیال फ़ोन 0.0136817
عمل छपता 0.0496563
سے सड़ी 0.0010419
پھر गुनाह, 0.00156889
سےمیں मुकम्मल 1
ہے۔ मश्ग़ला-ए-दिल 0.000148687
سائیکل क़ीमत 0.872379
دماغ बनी 0.0596916
"پان संगीन 0.401825
تمباکو संगीन 0.18139
لینا केस 0.0359639
چل गुनाह, 0.0195767
بھی ‘क़ाइदा’ 0.000396586
کرنا उक़्त 0.00588248
وہ भाट 0.000358769
صاحب ‘क़ाइदा’ 0.00295565
گیا शरीफ़ाना 0.0036429
قسم भाट 0.0067049
وہ रखते 0.00448327
مجھ फपती 0.00535288
‘‘واقف मारी। 1
دریافت दर-किनार 0.0415486
لیکن कहीं-कहीं 1.2044e-08
پورے ज़ौक़ 0.0116467
اٹھتے ज़ाहिर 0.32812
کرتے दौड़ 0.00691978
جس भाट 0.0022581
تھے، ज़ाहिर 0.0929127
رنگ शरीफ़ाना 0.00646672
ہم ‘क़ाइदा’ 7.20825e-09
کو रखते 0.00127781
کھاتہ पोशीदा 0.345807
بجے अफ़साना 0.0743681
رازداری पोशीदा 1
اورایمانداری पोशीदा 1
کر रखते 0.00348552
وہی ज़ाहिर 0.0520566
دو، रहती, 0.119791
نہیں— क़ुबूल 1
میں अराकीन 6.45385e-07
روشنی तक़्रीबन 0.228026
کرسی ज़ाहिर 0.0424147
سلطانِ बजे, 1
گڑھ फपती 0.545455
ہوں۔ दौड़ 0.00631459
بڑھیں कड़वे 0.42836
بارہ ज़ौक़ 0.00911975
ہے۔’’ अराकीन 0.0231904
اللہ “अम्माँ 0.0548011
مہمان फपती 0.155674
سال मज़मूनों 0.0158885
مزی होंगे।घाग 0.0219034
بھرکی कीड़ों 1
ذوقے होंगे।घाग 0.112305
تھا۔ उसे 0.059451
کیا उसे 0.00877878
گزر रेल 0.196553
ہوگی ज़ाहिर 0.149618
ہوئے दौड़ 0.00539453
ورِضا कहाँ 1
جھلملاتے कहाँ 1
کوٹ रखते 0.789465
حضرات फ़ोन 0.0612202
لوگوں बंदा 0.0294468
نے उसे 0.016326
بہ शबाब।मगर 0.014985
بولے दौड़ 0.027434
کھلا रखते 0.163787
گیارہ गौहर 0.1
پس गौहर 0.273105
ماندگان गौहर 1
اورقرض गौहर 1
خواہوں गौहर 0.307692
صبر गौहर 0.0151121
جمیل गौहर 0.25
عطا गौहर 0.189614
پرمعلوم अज़ा-व-जवारेह 1
گزرجاتی۔ अज़ा-व-जवारेह 1
وطیرہ अज़ा-व-जवारेह 1
ہماری कहीं-कहीं 0.0117866
فوراً कहीं-कहीं 0.0865312
گاہکوں कहनी 0.113401
بھلا रखते 0.417637
نہیں बन्द्र-गाह 0.000378315
تجویز कहीं-कहीं 0.177099
خم करें, 0.319985
تومیں —पार-साल 0.111111
موبائلیا हर-वक़्त 0.142857
خالی ज़ाहिर 0.757009
بگڑا शुग्ल 1
طویل उक़्त 0.0408756
ہر बन्द्र-गाह 0.00509159
تھا۔ तालिब-ए-इल्म 0.0142096
پڑا، उक़्त 1
پرستی मुतअल्लिक़ 0.254775
‘‘کانا ऐंठते 0.0726629
کہ ज़रूरत 0.00267686
کیا ज़रूरत 0.00763841
رشید हदीस-ए-ख़्वाब 0.196898
دکھا उसे 0.72025
ہوئے ढेरों 0.0040459
نظروں लड़ाएँ 0.126761
آپ लड़ाएँ 0.00307176
ہوگئے ‘क़ाइदा’ 0.0840667
تھا ज़रूरत 0.0156147
ہیں؟ ज़ाहिर 0.275358
سورج कीड़ों 0.529316
ملیریا फ़ख़्र-ए-कायनात 1
مس फ़ख़्र-ए-कायनात 0.0714701
میوالمعروف फ़ख़्र-ए-कायनात 1
نے लगा।” 0.000312192
مادر फ़ख़्र-ए-कायनात 0.5
انسدادکچھ फ़ख़्र-ए-कायनात 1
بھینس हैं।एक 0.0985495
اب ज़रूरत 0.0257834
وہی दौड़ 0.0250644
کو ज़रूरत 0.00876796
رنگ लड़ाएँ 0.00415717
طرح बन्द्र-गाह 0.00177964
لیکن तालिब-ए-इल्म 0.00256509
نے पोंछ 0.0010972
پطرس कायनात 0.0792018
انہوں ढेरों 0.00565478
کہتے ढेरों 0.0188176
کے का!” 0.00146238
پھر लगा।” 0.00107271
مل तालिब-ए-इल्म 0.0245182
ہمہ पटकना 0.302151
باندھتی नालायक़,बेवक़ूफ़,जाहिल 1
قبضہ ज़ौक़ 1
یوں भूला 0.0308754
میری देखना 0.00928442
چڑھا शरीफ़ाना 1
پتا लौटाने 0.0384609
نحیف हो,उस 1
آپ का!” 4.05081e-06
کھاتہ कब?” 0.0776859
کیونکہ क़सीदा 0.050391
کہ तक़वियत 0.000628082
بیس’ कब?” 1
نام‘گوبھی कब?” 1
پھول’ कब?” 1
کاٹنے पैंट 0.112941
‘‘ہاں रहेगा।दिल 0.159768
گوارا केस 0.1
کی۔" पड़ा। 1
لیکن “कौन 0.00288576
جی!" लरज़ने 0.0982
انہوں लगा।” 0.00654889
غزلیں कहनी 0.0215337
(۲) झूटो 0.166667
نکلے मज़मूनों 0.202247
(چاند कीड़ों 1
خریدلواوردنیا कीड़ों 1
سے फ़लसफ़ी“मोमो 0.000246048
ہذا कहनी 0.239548
تو करेगी। 0.000204045
جانا तालिब-ए-इल्म 0.135591
محنت भरपूर 0.069125
کیا۔ देखना 0.0346643
کیا शम्मा 0.000966993
پہلو की:"तो 0.333333
مائک शबाब।मगर 0.120996
ہے۔’’ फ़लसफ़ी“मोमो 0.00606528
‘‘یہ फ़लसफ़ी“मोमो 0.00301476
تووہ की:"तो 0.0909092
جو करेगी। 0.000461092
یہ शम्मा 0.00109415
صاحب शम्मा 0.00592252
کا—کیا मुकम्मल 1
بھروسہ मुकम्मल 1
ہےزندگانی मुकम्मल 1
تھی۔ करेगी। 0.00363809
ہوگیا ज़रूरत 0.100761
کا समझे 0.00103838
کوترشی है।बड़े-बड़े 0.5
نظم फ़ोन 0.0553432
زبان अअज़्ज़ा 0.0395257
جی शम्मा 0.0245426
ذرا करेगी। 0.00402176
ہے۔ शीरीं 0.00075331
کوئی समझे 0.00448369
یونیورسٹی तालिब-ए-इल्म 0.0789703
بیاہتا ठंडे-ठंडे 1
شکایت फ़लसफ़ी“मोमो 0.0814928
بنایاتوایک ताज़ा-ताज़ा” 1
مزدورتقریباً ताज़ा-ताज़ा” 1
مدعو देखना 1
بہتر क़सीदा 0.409071
دکاندار लोहे 0.17185
ڈاکٹر वर्फ 0.104299
پالی निकालो 0.428351
سنگ शरीफ़ाना 0.045406
کب फ़लसफ़ी“मोमो 0.0348868
مرتب उक़्त 0.126236
کیا हिंदे 0.00194067
کی सौदाईयों 0.00103107
دیر अय्यार 0.0182487
میں सौदाईयों 5.09901e-05
چھوڑی ठंडे-ठंडे 1
سما शबाब।मगर 1
سکیں۔ शबाब।मगर 0.148936
سےہمیشہ हुआ।अक़्ल 1
گرکرمرجاتی जल्द 1
چٹ कहा।अरी 1
بلائیں कहा।अरी 0.25
حساس केस 1
خیر दौड़ 0.0390243
پہنچ अय्यार 0.00901042
چاہیئے तालिब-ए-इल्म 0.484845
ہیراجی:۔ लंगड़ाने 0.100075
کاش तुम्हारा 0.803642
صاحب तुम्हारा 0.0161191
توجہ तुम्हारा 0.498032
سامنے करेगी। 0.00344065
جائے दुकानदार 0.0142023
اتر उसे 0.437721
وقت तुम्हारा 0.0151361
کثرت तौर 0.407899
فی दुकानदार 0.375001
آوازیں “क्यूँ,क्या 0.0869546
بس दुकानदार 0.0247623
سےکیا तौर 1
اموات तौर 1
میں हेड 0.000809851
نے तुम्हारा 0.00433009
کیا ख़ोरी 1.81048e-06
تم तुम्हारा 0.0131796
تم दुकानदार 0.00578295
اچھےالفاظ फूंकें 1
ذکرکیا फूंकें 1
واسطےمیں फूंकें 1
رہتے۔ होगी, 0.448399
اگرصرف हिमाक़त 1
آئےہوئےافسانوں हिमाक़त 1
کےتعزیتی हिमाक़त 1
جلسوں हिमाक़त 1
گا۔ दुकानदार 0.0381983
چکے ठहरती 0.314679
شوہر، बारिश 1
اے तुम्हारा 0.310541
یاد सौदाईयों 0.0164823
پاس लदा 0.00150585
دیکھا दुकानदार 0.0551521
بھی थीं 0.0051219
نے ख़ोरी 0.00109618
سانپ अम्लीयात 0.176471
پرکیا बेहतरीन 1
توخدا मुतअल्लिक़ 0.639999
گھومنے हरीफ़ 1
خانقاہ दौड़ 1
سجادہ दौड़ 1
نشین दौड़ 0.575435
لیجئے! दौड़ 1
مقدم दौड़ 0.6
فارسی तब्सिरा 0.106996
دمے ढक 1
پراتنی ढक 1
بولیں‘‘نہیں، शर्म-व-हिजाब 0.166663
مرحوم सौदाईयों 9.49014e-07
ہیں पड़ोस 0.000843119
تو जहां 4.22587e-05
ہوئی पड़ोस 0.00716195
حرکت शम्मा 0.150318
نہیں पड़ोस 0.000733999
صاحب जहां 0.0100894
لوگ बड़ा 0.0862086
بہت जहां 0.0112415
معنی पड़ोस 0.169012
نہیں बड़ा 0.00642238
نہیں आवाज़ 0.00725241
حالات क़तरे 0.0655019
سےانسان मुतअल्लिक़ 1
بیمارزیادہ मुतअल्लिक़ 1
بیماریابڑھیں मुतअल्लिक़ 1
کریگی۔ मुतअल्लिक़ 1
لیکن पाकिस्तान 0.00216432
بہت बड़ा 0.0230385
دھوپ पड़ोस 0.244834
کرتے बड़ा 0.0181647
آم बोसीदा 1
صفت बोसीदा 1
قصیدہ बोसीदा 0.582904
کیا डिवीज़न।” 0.000595489
خدا आवाज़ 0.0663793
گا۔ जहां 0.0326184
لالہ निशानियाँ 0.0150564
کوئی बे-चारी 0.000898582
چاول की:"तो 0.142857
تتلا निशानियाँ 1
جی، निशानियाँ 1
کی۔ पनाह! 0.0366394
بایں पटकना 1
فضل इर्तिक़ा 0.204545
وہ मै 0.000797332
کیسے अज़-सर-ए-नौ 0.0353941
و अज़-सर-ए-नौ 0.00285338
مچھلی समझे 0.17456
کرتے अज़-सर-ए-नौ 0.00230659
کےساتھ बनाया 0.224294
آزادی मज़मूनों 0.145568
جھوٹ तक़वियत 0.0432363
لیکن मै 0.00128255
بجےتک अय्यार 1
ہوا मै 0.00743774
دعویدار۔اکثر वग़ैरा।लेकिन 1
کےدماغ बे-चारी 0.642857
کمرے थीं 0.416859
مجید पनाह! 1
پل आतिशीं 0.025223
بدقسمتی पाकिस्तान 0.627907
جدید इज़्तिरारी 0.140393
کسان भरपूर 0.13019
کرشمہ भरपूर 1
حنائی पन 0.121621
