0 3 0.0250899
7789 4344 0.110998
828 13356 0.199796
0 12 0.0464007
0 20 0.000818976
0 35 0.044802
0 37 0.129391
0 48 6.97219e-07
20387 21173 0.249745
0 53 0.000863384
0 55 0.127782
1174 1120 0.998979
0 62 0.00530997
0 63 0.0777955
0 65 6.82901e-05
0 67 0.0471633
0 68 0.182932
0 69 0.00188596
8677 3431 0.49949
0 93 0.0198618
0 98 0.0611296
0 102 0.000159933
0 103 0.0213018
0 104 0.0111266
0 115 0.0815567
9422 1449 0.998979
0 171 0.0222038
0 180 0.00771898
512 18653 0.0928714
5155 375 0.332993
0 217 1.31391e-06
0 233 1.76427e-06
0 247 0.000281471
0 289 0.00032017
0 298 0.000320265
0 301 7.78604e-06
0 308 0.0397568
19559 8091 0.998979
0 331 0.000230567
16722 17254 0.110998
16722 17255 0.110998
3093 444 0.166497
1031 472 0.496872
0 446 0.00690467
9678 11018 0.200187
0 472 0.0109453
9678 11019 0.200187
9678 11020 0.200187
9535 10126 0.998979
0 647 0.0188586
17384 248 0.110998
10453 2087 0.116044
10167 34 0.202054
0 771 0.000313104
9136 48 0.300033
17497 8526 0.998038
19446 421 0.166497
15721 10554 0.998979
9136 144 0.0988216
10167 180 0.190781
3093 991 0.166497
7503 3260 0.166497
10167 310 0.202038
14231 14784 0.297119
10167 342 0.202054
0 1103 0.00015999
7360 2373 0.110998
0 1121 0.000159989
13403 1559 0.199796
13403 1595 0.199796
0 1192 0.000319801
0 1195 0.00015999
14434 1671 0.111009
11740 12009 0.221996
1919 478 0.249745
0 1497 0.000321998
17753 18478 0.199796
17753 18484 0.199796
18272 68 0.998979
11740 12335 0.110998
11740 12336 0.110998
11740 12337 0.110998
0 1752 0.000159995
8993 48 0.110966
888 898 0.49949
14434 2380 0.111009
0 1949 0.00015999
10024 229 0.998979
888 974 0.49949
7962 211 0.398923
14434 2468 0.111009
6931 190 0.49949
143 3055 0.333003
0 2052 0.000159999
2807 90 0.332993
17384 1589 0.110998
8993 308 0.11125
0 2139 9.24373e-05
17384 1668 0.110998
10423 10698 0.332656
15405 17021 0.998979
0 2205 0.000320051
399 12469 0.098707
15179 705 0.142712
10167 1589 0.202054
745 308 0.221995
745 330 0.332993
6758 6667 0.124873
10423 10885 0.333162
7962 647 0.200646
745 429 0.221996
9136 1733 4.86453e-05
12056 8072 0.020417
7360 3831 0.110998
3838 675 0.998979
17098 69 0.998979
19958 20675 0.166174
19958 20676 0.166561
6758 6956 0.124873
13403 3072 0.199796
21222 308 0.998979
17384 2298 0.110998
12944 7328 0.998979
8993 1062 0.110966
2807 1014 0.332993
0 3107 0.000159722
6156 10480 0.49949
10280 10671 0.00217191
10280 10672 0.206146
12056 8679 0.0204169
0 3248 1.05276e-06
828 16638 0.199796
3093 3426 0.49949
13975 7905 0.998979
8993 1640 0.110966
21079 3 0.998979
15578 12137 0.249745
2807 1516 0.332993
12628 13158 0.332973
12628 13159 0.333003
12658 5989 0.110998
1919 2612 0.249745
7789 7972 0.110998
15924 98 0.998979
0 3744 0.00016006
6645 93 0.166497
13087 9551 0.123532
11770 7496 0.998979
12086 2390 0.998979
9136 3344 0.300042
6329 5402 0.59956
2521 171 0.332935
3379 6351 0.332993
8993 2462 0.110966
715 9418 0.119939
1716 16628 0.199796
6645 401 0.166497
7676 472 0.998979
8677 7745 0.49949
12974 1772 0.998979
10769 693 0.110998
745 2531 0.110998
16007 16330 0.110998
16007 16331 0.110998
2664 1584 0.166497
9136 3857 0.300035
19905 104 0.998979
6442 14071 0.199796
16812 53 0.110872
16812 109 0.111014
6645 864 0.166497
6156 12169 0.49949
8564 6 0.998979
1031 4916 0.502107
12372 5403 0.199796
10769 1259 0.110998
9595 229 0.110381
0 5079 0.000159989
6931 3300 0.499489
7503 7549 0.166497
13862 1666 0.998979
16812 748 0.222027
1347 331 0.998979
9595 593 0.115929
15864 16217 0.110998
15864 16228 0.110998
15864 16229 0.110998
2521 1492 0.333022
6329 6752 0.39942
7503 7824 0.166497
12831 1852 0.000592971
15179 4007 0.142712
1114 21159 0.109115
15638 103 0.250516
572 9970 0.998979
16812 1272 0.111014
11627 8374 0.249745
12688 1245 0.998979
7390 89 0.249745
9595 1218 0.110381
5840 18524 0.17029
7962 4344 0.199826
10483 335 0.998979
19386 20132 0.141288
5614 2321 0.998979
14547 14948 0.249758
15638 647 0.247264
7533 1422 0.998979
15638 680 0.2506
7360 7625 0.110998
5155 6702 0.332993
2235 472 0.19783
7390 681 0.249745
17557 3 0.245381
6645 2847 0.166497
3695 3804 0.998979
0 6830 0.00015999
13433 93 2.59075e-05
3379 9130 0.332993
21049 10824 0.110998
7390 1208 0.249745
1061 98 0.998979
30 67 0.888321
2235 1200 0.200287
8278 426 0.110998
14434 7797 0.111009
15578 16050 0.249745
13433 647 0.998954
30 292 0.110658
6645 3580 0.166497
17557 888 0.2512
19619 969 0.110996
2235 1460 0.200287
8278 641 0.110998
2235 1690 0.200287
7962 5969 0.199585
13290 3 0.249701
8993 6063 0.110966
10197 6 0.0727559
10197 19 0.0727559
20733 16752 0.875322
10197 74 0.0727559
13087 13488 0.123532
10197 87 0.0727559
0 7989 0.00015999
19100 19862 0.332993
0 8003 0.000159275
10197 152 0.0727559
11913 12526 0.998979
17557 1456 0.2512
7104 129 0.249745
10197 247 0.0726797
399 18459 0.098707
10197 472 0.0720493
10197 479 0.0727558
10197 506 0.145512
8993 6631 0.110966
21049 12195 0.110998
10566 18019 0.199799
15352 760 0.124873
4011 426 0.249745
19619 1944 0.110998
10197 647 0.053937
8278 1685 0.110998
0 8664 0.000159971
15352 956 0.124873
10596 11133 0.998979
13290 1004 0.24976
0 8848 0.00015999
10197 982 0.0727559
10197 991 0.0727559
2664 5880 0.166497
918 751 0.199789
15352 1224 0.124873
15495 2321 0.998979
12658 11505 0.110998
11228 1224 0.124873
17497 16838 0.000941896
1806 18 0.111146
918 1015 0.199789
918 1016 0.199789
918 1017 0.199789
918 1018 0.199789
918 1019 3.57446e-05
1919 8280 0.249745
1806 103 0.109812
1806 104 0.111145
11228 1456 0.124873
0 9307 0.00015999
19619 2786 0.221996
17384 8867 0.110998
8278 2468 0.110998
10197 1577 0.0727559
12658 11910 0.110998
13290 1690 0.24976
4011 1489 0.49949
6216 2592 0.142711
7104 1667 0.249745
20221 68 0.998979
19619 3131 0.110998
8278 2823 0.110998
12199 16268 0.998979
12515 11209 0.49949
13516 18472 0.0908177
21049 13584 0.110998
13516 18487 0.0908177
143 10918 0.333003
5554 20549 0.333317
17557 3580 0.2512
8278 3345 0.110998
8278 3346 0.110998
3725 200 0.110998
12658 12807 0.110998
2694 247 0.998979
775 1215 0.665986
13290 2636 0.24976
1806 1307 0.111146
18671 19306 0.998979
1663 446 0.329637
1287 19959 0.332993
9595 5880 0.110381
6645 6871 0.166497
15352 3046 0.124873
16812 6221 0.111013
13147 2037 0.998979
12056 16399 0.020417
12658 13404 0.110998
12658 13405 0.110998
12658 13406 0.110998
8278 4057 0.110998
0 10997 0.00016001
10799 103 0.198828
12861 171 0.247732
10799 152 0.200023
7706 62 0.287804
7706 158 0.071117
10799 324 0.200043
5155 11475 0.332993
12861 506 0.250196
17354 18071 0.110998
17354 18072 0.110998
17354 18073 0.110998
17354 18074 0.110998
2551 203 0.324165
3725 1299 0.110998
2551 248 0.324165
19619 4881 0.110998
19190 1804 0.332995
429 14563 0.0424882
2551 308 0.0264847
7706 478 0.0711214
7706 479 0.071117
15209 2763 0.499492
19047 895 0.998979
12861 734 0.250526
1919 10684 0.249745
12372 12158 0.399592
3665 16038 0.998979
16383 4174 0.998979
15352 4165 0.124873
11627 14367 0.249745
11627 14368 0.249745
11627 14369 0.249745
12718 65 0.142695
7390 6049 0.249745
11228 4124 0.624361
13749 116 0.110998
10799 1059 0.200043
14434 12492 0.111009
13749 200 0.110998
19446 11657 0.166497
12718 248 0.142712
4011 4134 0.249745
2235 6158 0.200287
1806 3092 0.111146
346 12 0.594553
7789 16657 0.110998
7789 16658 0.110998
8594 324 0.332993
12372 12764 0.199796
6216 5436 0.142711
2551 1237 0.324165
1377 195 0.285423
19935 795 0.89752
19619 5970 0.110998
12372 12954 0.199796
7706 1592 0.071117
0 12655 0.00015999
346 401 0.202213
20823 35 0.323303
7706 1733 0.0711183
9595 8069 0.110381
17730 128 0.199796
19190 3288 0.332995
1377 702 0.142711
15352 5262 0.124873
3868 3970 0.998979
9768 2172 0.199796
0 13161 0.00016054
7420 87 0.665986
7706 2165 0.071117
7420 107 0.332993
17730 446 0.399592
1377 1039 0.142711
13749 1448 0.110998
13749 1449 0.110998
13403 13738 0.199796
3725 3204 0.110998
346 1088 0.202213
19416 20169 0.998979
8594 1480 0.332993
7104 5544 0.49949
4237 21865 0.136151
4237 21866 0.136123
1377 1467 0.142711
6013 20169 0.998979
2664 10864 0.166497
2664 10865 0.166497
2664 10866 0.166497
2664 10867 0.166497
15006 18523 0.949108
3093 14064 0.166497
13749 2135 0.110998
13463 103 0.998979
10370 90 0.998979
3725 3997 0.110998
20823 1480 0.337838
16556 327 0.110998
12545 8468 0.998979
15608 15768 0.998979
16556 466 0.110998
12718 2495 0.142712
14434 14863 0.111009
8993 12664 0.110966
20447 21230 0.49949
20447 21231 0.49949
6389 1344 0.998979
12718 2575 0.142727
14494 656 0.141205
19619 8027 0.110998
1234 1310 0.998979
6216 7676 0.142711
6216 7677 0.142711
6216 7678 0.142711
6216 7679 0.142711
6216 7680 0.142711
16556 888 0.110998
12575 1807 0.00148045
9768 3860 0.199796
19506 103 0.216215
19506 144 0.26278
12056 20413 0.020417
0 14964 0.000159988
0 14965 0.000159971
10769 11323 0.110998
10769 11324 0.110998
10769 11325 0.110998
10769 11326 0.110998
10769 11327 0.110998
10769 11328 0.110998
10769 11329 0.110998
10227 48 0.333302
1663 4956 0.167336
19130 19891 0.998979
19446 14823 0.166497
10227 217 0.332671
21478 22134 0.998979
16556 1554 0.110998
16556 1592 0.110998
948 98 0.142584
1979 171 0.998979
9595 10677 0.110381
21568 812 0.110998
21568 969 0.110998
3010 404 0.332993
10799 4763 0.200043
1663 5544 0.167336
8278 8936 0.110998
21425 172 0.998979
20394 180 0.998979
21568 1327 0.110998
1949 7956 0.998979
10084 53 0.998979
19792 3472 0.998979
15179 14605 0.142712
21568 1497 0.110996
948 875 0.142733
6991 69 0.499479
7706 5292 0.071117
16496 16865 0.998979
948 1063 0.14273
948 1064 0.142733
948 1065 0.142733
948 1066 0.142733
948 1067 0.142733
5960 217 0.124873
9768 5522 0.199796
805 128 0.166497
14178 7716 0.998979
8022 375 0.124872
0 16585 1.73542e-05
745 14586 0.110998
13177 647 0.153983
0 16644 0.000159978
0 16647 0.00015999
0 16690 0.000159989
0 16691 0.000159989
16413 1854 0.998979
5960 576 0.124873
1806 7664 0.111146
0 16896 2.68483e-06
9768 5930 0.199796
0 16904 0.000159931
17158 44 0.998979
5960 750 0.124873
8022 831 0.124872
13034 69 0.142675
805 739 0.166497
5960 917 0.124873
15179 15547 0.142712
15179 15548 0.142711
15179 15549 0.142711
15179 15550 0.142712
19220 308 0.242097
12831 13476 0.998387
12003 180 0.181633
775 8029 0.332993
19220 446 0.245237
18189 444 0.199796
805 969 0.166497
6991 1196 0.499501
9595 12559 0.110381
12003 342 0.0908164
5960 1232 0.124873
0 17471 0.000131211
7706 6449 0.071117
19476 9897 0.998979
662 93 0.997982
17384 17094 0.110998
10340 10833 0.998979
5960 1538 0.124873
21139 12 0.998979
6848 749 0.49949
21049 21746 0.110998
21049 21747 0.110998
8993 16318 0.110966
9798 3 0.455622
9798 20 0.0905594
9798 53 0.18112
9798 200 0.0905594
9798 210 0.0905594
18189 1583 0.199796
11860 446 0.249299
12003 1495 0.0908164
17015 647 0.164641
17384 18108 0.110998
13749 6766 0.110998
17384 18155 0.110998
17384 18156 0.110998
0 18693 1.00106e-06
3725 8659 0.110998
13177 2837 0.168999
10829 825 0.998979
12003 1891 0.181633
15984 999 0.199796
8737 8039 0.998979
8022 2980 0.124872
15668 6319 0.249745
7706 8129 0.071117
19220 2366 0.255844
8624 2 0.166497
11717 180 0.65553
7593 53 0.166497
11115 3264 0.998979
8624 115 0.166497
10686 210 0.110998
10686 211 0.110998
19220 2531 0.255801
12748 308 0.68747
9911 9459 0.124873
8022 3301 0.249745
8022 3344 0.124872
7593 301 0.166497
6562 274 0.110998
13779 528 0.249745
17015 1666 0.333738
7593 372 0.166497
19619 13065 0.110998
13177 3650 0.168999
15209 10997 0.499488
15984 1850 0.199796
15984 1854 0.199796
13034 2794 0.142717
10686 743 0.110998
11717 783 4.50554e-06
19965 1088 0.110998
11860 1911 0.249894
19822 115 0.648399
3469 647 0.998979
15984 2094 0.199796
10686 1001 0.110998
9911 10219 0.124873
7593 935 0.166497
19822 331 0.35058
8624 1014 0.166497
6562 964 0.110998
3898 3979 0.00802064
12605 151 0.49949
3898 3980 0.263182
3898 3981 0.727777
18189 3563 0.199796
19965 1589 0.110998
19446 20016 0.166497
9911 10550 0.124873
9911 10551 0.124873
9911 10552 0.124873
9911 10553 0.124873
9911 10554 0.124873
9911 10555 0.124873
1377 8280 0.142711
1377 8282 0.142711
1264 98 0.404774
19446 20200 0.166497
1264 185 0.198086
19446 20218 0.166497
8624 1449 0.166497
1407 1370 0.998979
3326 446 0.998979
1264 446 0.396119
17730 8139 0.199796
6419 681 0.249745
18189 4145 0.199796
11860 3047 0.249894
12462 3 0.249216
8594 9140 0.332993
14524 107 0.199796
0 21193 0.000159224
13493 103 0.140731
14494 7328 0.857775
10400 104 0.236929
12462 204 0.249921
1663 11157 0.167336
9768 10397 0.199796
90 3 0.112016
90 20 0.0459427
9595 16724 0.110381
9595 16725 0.110381
90 62 0.0865032
90 63 0.0309797
90 67 0.16843
1121 104 0.110504
90 93 0.0443689
14464 14891 0.998979
90 103 0.0457712
13177 5652 0.169
11717 2574 0.343445
90 171 0.144661
90 180 0.0445984
9369 479 0.166492
19649 7980 0.998979
10686 2588 0.110998
10400 550 0.127009
6562 2486 0.110998
21568 7072 0.110998
16812 17184 0.111014
1121 330 0.222119
90 301 0.0153568
6848 4637 0.49949
13779 2814 0.249745
16812 17256 0.111014
21598 3 0.250006
21598 34 0.250794
13779 2882 0.249745
21598 53 0.250791
21598 67 0.247389
90 425 0.0153148
13493 888 0.143042
7450 1729 0.49949
90 480 0.0153148
1121 516 0.222119
90 514 0.0153148
15668 9195 0.249745
19965 3201 0.110998
17474 65 0.110997
16812 17466 0.111014
20823 9399 0.337838
0 22099 0.000159989
1121 632 0.11106
10686 3029 0.221996
90 680 0.015317
10400 1016 0.127009
17474 217 0.110998
2521 18199 0.333022
14524 1244 0.199796
0 22316 0.000155113
6419 2030 0.249745
7164 4 0.199614
19160 19910 0.998979
10257 211 0.110998
6419 2151 0.249745
9369 1218 0.249746
6562 3239 0.110998
19965 3669 0.110998
21508 22180 0.998979
17015 4634 0.166869
90 1060 0.0153148
90 1061 0.0153148
978 68 0.271319
13493 1504 0.143042
1663 12428 0.167336
7164 318 0.399229
1121 1201 0.11106
1121 1202 0.11106
1121 1203 0.11106
7307 1441 0.249742
90 1232 0.0153146
17474 755 0.110998
978 331 0.334746
13034 5889 0.285435
19935 11231 0.10146
17474 935 0.110998
9369 1733 0.0832488
17474 969 0.110998
90 1467 0.0153146
17474 1067 0.110998
17331 62 0.111009
16300 44 0.332994
978 647 0.192066
17331 152 0.111009
13004 13355 0.998979
16300 169 0.166497
9369 2013 0.0832488
17331 278 0.111009
16300 301 0.166495
16300 327 0.166497
11830 12494 0.998979
12575 10501 0.997499
17331 472 0.110907
10686 4364 0.110998
15352 15843 0.124873
15352 15844 0.124873
805 7222 0.166497
7307 2302 0.249746
3928 184 0.110998
14238 506 0.249745
10257 1489 0.110996
3928 291 0.110998
12176 577 0.998979
15638 18144 0.2506
12003 6763 0.181633
835 341 0.110998
1806 14776 0.111146
1806 14777 0.111146
1806 14778 0.111146
13779 4917 0.249745
835 420 0.110998
19250 12 0.16139
13493 2915 0.143042
19250 53 0.167561
19250 62 0.167344
8767 5896 0.998979
4959 678 0.249701
9053 8024 0.998979
14238 1030 0.249745
12861 13327 0.250526
12033 34 0.110998
12033 48 0.110998
18874 19733 0.998979
17760 4351 0.998979
10257 2080 0.110998
19506 9665 0.262839
9971 202 0.110998
4959 1074 0.249701
3928 1046 0.110998
835 964 0.110998
15668 11688 0.249745
14524 3479 0.199796
2754 44 0.251036
1723 67 0.110563
4959 1245 0.249876
1723 180 0.222063
1723 204 0.111049
90 3240 0.0153148
14238 1644 0.249745
1723 247 0.222121
2754 324 0.251036
9971 577 0.110998
19250 995 0.167562
835 1456 0.110998
10257 2786 0.110998
1091 10752 0.998979
1723 576 0.111086
978 2603 0.0669494
6878 748 0.998979
5960 8924 0.124873
2754 632 0.245871
17474 3143 0.110998
17045 62 0.998979
3785 677 0.449522
17331 2204 0.111009
10257 3087 0.110998
11890 67 0.998979
12718 13446 0.142712
12718 13447 0.142712
12718 13448 0.142712
19965 6510 0.221996
14983 331 0.998979
6735 98 0.499488
7879 8330 0.998979
7766 195 0.166496
549 26 0.124928
17730 12859 0.199796
1580 67 0.998979
1723 1117 0.111049
12033 1443 0.110998
10227 10616 0.333007
549 90 0.124928
9971 1463 0.110998
9971 1510 0.110998
6562 6544 0.110998
18189 9063 0.199796
13952 743 0.332993
3928 2510 0.110998
8624 6756 0.332993
15984 8033 0.199796
9971 1729 0.110998
13350 3905 0.332993
6562 6784 0.110998
6562 6785 0.110998
6562 6786 0.110998
6562 6787 0.110998
549 472 0.124486
9971 1863 0.110998
549 572 0.249855
9798 8064 0.0905594
3928 2781 0.110999
6735 833 0.166497
16556 12419 0.110998
16902 180 0.110998
90 4820 0.0153148
662 8981 0.000997795
10716 87 0.110998
7623 12 0.235209
12462 5310 0.249921
6592 20 0.998979
7623 68 0.0179149
19965 7641 0.110998
10716 200 0.110998
16902 400 0.110998
11747 247 0.998979
19393 3571 0.955219
11228 18686 0.124873
10716 234 0.110998
19250 2555 0.167562
17015 8638 0.333732
7623 152 0.248908
549 964 0.249855
13034 9551 0.142717
15668 13767 0.249745
3499 104 1.24335e-05
2754 2165 0.251036
406 53 0.110847
1437 152 0.998979
13749 14897 0.110998
13749 14899 0.110998
13749 14900 0.110998
90 5259 0.0153148
10716 480 0.110998
7623 401 0.248908
16556 12975 0.110998
17331 3918 0.111009
17331 3920 0.111009
406 372 0.111014
9685 677 4.15614e-05
406 404 0.111039
1723 2495 0.111049
15954 16302 0.998979
10400 5952 0.127008
7593 7918 0.166497
7593 7919 0.166497
10400 5969 0.254017
12033 2991 0.110998
11860 9230 0.249894
10716 1001 0.110998
17331 4369 0.111009
7706 16366 0.071117
3725 17284 0.110998
10257 5295 0.110998
10257 5310 0.110998
10686 8401 0.110998
3928 4095 0.110998
2325 9 0.110998
3725 17529 0.110998
16759 516 0.124873
3725 17530 0.110998
15525 13798 0.998979
3725 17531 0.110998
263 20 0.142631
16902 1595 0.110998
8511 479 0.49736
406 1257 0.222026
263 272 0.142729
16902 1871 0.110998
15728 812 0.998979
7450 7760 0.49949
20740 98 0.104492
16759 1002 0.124873
16300 5141 0.166497
3785 3866 0.549457
3499 1849 0.499484
10430 68 0.934032
14238 5322 0.249745
7766 3093 0.166497
9971 4190 0.110998
17331 5496 0.111009
406 1951 0.111014
13207 5446 0.49949
20740 577 0.111811
14554 417 0.199796
1151 82 0.332996
13523 472 0.330394
14953 10809 0.998979
2182 180 0.998979
7307 7610 0.249746
2325 1309 0.110998
7307 7611 0.249746
978 6460 0.0669494
12003 11950 0.0908164
9399 626 0.110998
2325 1443 0.110998
12492 734 0.110998
20740 995 0.223622
10430 695 0.0649479
19709 1016 0.998979
978 6638 0.0669494
13177 13237 0.168999
13177 13238 0.168999
1151 632 0.332992
16842 17557 0.998979
17504 215 0.142711
10287 6 0.998979
13523 1155 0.334293
12349 103 0.142717
16902 3327 0.110998
12349 147 0.142718
12635 2255 0.998979
17504 370 0.142711
406 2923 0.111014
12003 12538 0.0908164
12003 12539 0.0908164
19190 19962 0.33299
3070 55 0.115756
3070 65 0.111202
1008 3 0.199864
12921 4494 0.998979
3070 93 0.104798
1008 35 0.199812
13523 1457 0.334293
1008 69 0.1998
10716 3509 0.110998
14554 1590 0.199796
3070 217 0.111204
3070 278 0.111204
2325 2349 0.110998
18219 6125 0.998979
12492 1849 0.110998
19423 44 0.142775
9399 1819 0.110998
21485 157 0.11133
19423 104 0.142331
21485 180 0.108343
10716 4107 0.110998
14411 1224 0.49949
21628 1497 0.998979
19423 451 0.142775
13952 5407 0.332993
13034 13589 0.142717
13034 13590 0.142717
835 7069 0.110998
2039 963 0.916733
5132 1061 0.249745
12492 2317 0.110998
17361 426 0.110998
13493 9551 0.143042
14208 14704 0.998979
1008 1113 0.199637
1008 1120 0.199866
865 104 0.199806
20740 2786 0.111811
15299 576 0.249745
16556 17025 0.110998
16556 17026 0.110998
17504 1733 0.142711
90 9423 0.0153148
15585 2794 0.332993
865 375 0.199805
16902 5074 0.110998
5132 1729 0.49949
1151 2671 0.332992
12349 2003 0.142718
17361 1165 0.110998
12891 13333 0.998979
13094 53 0.199792
4959 8116 0.249701
7623 5245 0.24804
18249 472 0.998979
865 958 0.19979
865 959 0.19979
865 960 0.199789
13094 331 0.199799
19423 1662 0.142775
12492 3496 0.110998
12349 2500 0.142718
15299 1596 0.249745
17361 1668 0.110998
21485 1927 0.11133
10400 10863 0.127009
16330 1854 0.249745
21485 2057 0.11133
16330 1944 0.249745
3070 2601 0.111204
17361 2034 0.110998
21199 185 0.998979
16902 6206 0.110998
12748 13258 0.31151
12349 3004 0.142675
16902 6228 0.110998
14554 4146 0.199796
17504 3237 0.142711
13982 63 0.998979
9399 4043 0.110998
14411 3181 0.49949
14780 20661 0.998979
6765 53 0.110973
17361 2539 0.110998
2641 69 0.0908162
1610 98 0.998979
7164 10530 0.199614
7164 10531 0.200523
10257 10644 0.110998
6765 301 0.111001
10257 10661 0.110998
2641 272 0.0908162
21485 2923 0.11133
17474 11004 0.110998
15299 2800 0.249745
4703 472 0.100928
2641 410 0.181632
9369 11911 0.249746
21056 20 0.199661
4703 550 0.0997837
21056 35 0.199829
12605 13114 0.49949
9858 743 0.110998
21056 90 0.19983
6133 10899 0.998979
2641 632 0.0908162
579 576 0.0998981
7766 7976 0.166496
8797 8039 0.998979
90 11873 0.0153147
90 11874 0.0153148
7766 8086 0.166497
7766 8087 0.166497
7766 8088 0.166497
21056 353 0.19983
17474 11559 0.110998
5591 3 0.228903
5591 19 0.00158308
5591 63 0.0604283
10746 224 0.110998
3529 3 0.998979
11777 286 0.998979
579 1000 0.0998981
579 1016 0.0998974
9858 1309 0.110998
4560 185 0.504402
436 104 0.332975
3928 10492 0.110998
9858 1456 0.221996
4560 308 0.494577
3070 4421 0.111204
15585 5865 0.332993
835 10632 0.110998
2641 1497 0.27245
579 1495 0.0998981
13839 895 0.337298
13839 896 0.337298
263 6623 0.142724
13839 897 0.324383
9858 1843 0.110998
17820 103 5.62392e-06
4703 1771 0.0997837
1836 18147 0.998979
3958 3920 0.998979
16330 4344 0.249745
9399 6180 0.110998
10603 93 0.110703
3499 8078 0.499484
6765 2040 0.111001
12665 180 0.136832
579 1860 0.0998981
436 864 0.333002
10746 1208 0.110998
2355 20 0.249697
10746 1326 0.110998
21056 1667 0.19983
293 12 0.286172
293 20 0.570243
9858 2387 0.332993
293 53 0.142564
13493 13788 0.143042
13493 13789 0.143042
15901 1592 0.998979
10603 426 0.11107
2355 195 0.249761
12665 528 0.143817
10746 1503 0.110998
19506 20233 0.257147
14554 6810 0.199796
7510 470 0.142711
12665 631 0.143817
6765 2498 0.111001
7510 478 0.142711
12665 647 0.143062
6735 9733 0.166497
10603 647 0.110786
5960 18948 0.124873
4417 474 0.998979
5448 506 0.332993
1467 1437 0.998979
19882 1026 0.998979
13094 3896 0.199796
10746 1849 0.110998
2355 576 0.249761
835 11907 0.110998
835 11908 0.110998
835 11909 0.110998
7510 875 0.142711
10460 104 0.110997
7367 20 0.14227
17504 6488 0.142711
2641 2965 0.0908162
19995 9691 0.998979
10716 9474 0.110998
12665 1366 0.143817
13350 13700 0.332993
13350 13701 0.332993
7367 210 0.428348
6765 3268 0.111001
3010 20570 0.332993
3010 20571 0.332993
12665 1423 0.143817
20740 7828 0.111811
10460 368 0.110998
3928 12463 0.110998
17820 1661 0.332991
10746 2497 0.110998
14524 14931 0.199796
14524 14932 0.199796
14584 647 0.998979
5591 2495 0.235953
579 3395 0.0998981
805 19826 0.166497
805 19827 0.166497
10460 675 0.110998
8541 1687 0.998979
5448 1592 0.332993
17820 2007 0.332991
7653 2756 0.998979
19596 90 0.298269
8511 8981 0.501619
90 14909 0.0153148
2355 1661 0.249761
4703 3789 0.0997837
21485 6372 0.11133
19596 171 0.103511
3672 3802 0.998979
9685 10209 0.998938
19596 278 0.298269
17534 215 0.124873
10603 2123 0.11107
10317 69 0.998979
6765 4071 0.111001
9858 4224 0.110998
13207 13624 0.49949
10859 11522 0.998979
4131 68 0.000516767
4131 69 0.24956
7 63 0.301798
4131 195 0.249634
21568 22273 0.110998
21568 22274 0.110998
21568 22275 0.110998
21568 22276 0.110998
7 98 0.227273
7 300 0.232703
4131 444 0.249634
1038 375 0.49949
8022 21126 0.124872
8022 21127 0.124872
90 15772 0.0153148
7510 2702 0.142711
579 4544 0.0998981
14441 969 0.49949
10603 2949 0.11107
12522 1985 0.166497
17820 3203 0.332991
17391 202 0.252632
9369 16401 0.166498
6419 17351 0.249745
21515 478 0.998979
4703 5084 0.0997831
7081 172 0.249745
263 10250 0.142724
1038 1119 0.49949
5019 229 0.249745
17391 647 0.243138
17534 1690 0.124873
10603 3565 0.22214
2957 370 0.142711
2957 429 0.142711
16330 8027 0.249745
5019 550 0.249745
7081 681 0.249745
7 1497 0.237205
10573 11125 0.998979
10603 4005 0.11107
18046 20632 0.998979
17391 1149 0.252631
4703 5880 0.199567
10031 48 0.249724
10031 67 8.48034e-05
895 905 0.998979
19453 1497 0.518989
10031 185 0.249724
17391 1441 0.250579
4876 65 0.199796
3845 35 0.0768142
5019 1135 0.249745
14155 472 0.499124
7510 4364 0.142711
16360 1621 0.110998
3845 210 0.561575
13696 4632 0.998979
14155 572 0.499856
17534 2784 0.124873
16360 1782 0.110998
6765 6625 0.111001
10174 1667 0.110998
2957 1480 0.142711
6765 6790 0.111001
6765 6817 0.111001
13410 2970 0.998979
10460 3928 0.110998
13094 8144 0.199796
19965 20698 0.110998
19965 20699 0.110998
4876 804 0.199796
4876 864 0.199796
17790 12553 0.998979
12951 7328 0.998979
16360 2313 0.110998
8857 62 0.332993
8857 90 0.166497
4733 48 0.499489
16360 2469 0.221996
14441 3472 0.49949
8857 268 0.166497
4733 144 0.499491
15329 2564 0.199796
9715 6544 0.998979
7510 5532 0.142711
10031 1525 0.249724
12522 4747 0.166497
21086 3 0.337082
5907 1590 0.998979
1640 450 0.142711
10174 2786 0.221996
21086 63 0.32989
16360 3037 0.110998
11950 895 0.33114
11950 896 0.333921
11950 897 0.333918
12492 12227 0.110998
5019 2776 0.249745
15329 3187 0.199796
2325 13063 0.110998
4703 8103 0.0997837
7683 3 0.882848
1640 888 0.142711
10776 152 0.199796
579 8058 0.0998981
579 8059 0.0998981
579 8060 0.0998981
2325 13254 0.110998
5591 7209 0.236056
15585 12643 0.332993
6652 93 0.299658
15329 3466 0.199796
10174 3307 0.110998
21086 575 0.332008
12492 12636 0.110998
15931 478 0.998979
13952 15806 0.332993
13869 450 0.124873
10144 10609 0.998979
6795 1299 0.998979
10460 5584 0.110998
13869 620 0.124873
10174 3606 0.110998
10776 576 0.199796
10174 3635 0.110998
6652 518 0.0999032
12492 13021 0.110998
12492 13022 0.110998
12492 13023 0.110998
13666 14108 0.998979
1640 1462 0.142711
6735 16051 0.166497
16014 16347 0.998979
3559 620 0.124873
18881 90 0.332993
6652 751 0.0999032
6652 758 0.0999032
16819 107 0.110998
13869 1062 0.124873
17534 5278 0.124873
16819 134 0.110998
3559 816 0.124873
17504 12568 0.142711
466 771 0.199796
1640 1871 0.142711
12033 17597 0.110998
12033 17598 0.110998
12033 17599 0.110998
8571 74 0.199796
12033 17600 0.110998
12033 17601 0.110998
466 850 0.199796
10460 6293 0.110998
8571 90 0.199796
16819 401 0.110998
3559 1016 0.124872
8571 151 0.199796
90 20403 0.0153148
18881 514 0.332993
10174 4344 0.110998
1354 12 0.0957841
1354 37 5.29384e-06
2641 9299 0.0908162
13869 1467 0.124873
8571 324 0.399592
2039 12545 0.0822469
1354 292 0.200709
7367 6637 0.142788
9971 18061 0.110998
9971 18062 0.110998
2528 1449 0.249745
3559 1496 0.124873
466 1440 0.099898
7510 7819 0.142711
1640 2599 0.142715
1354 563 0.100355
1640 2696 0.285422
13583 19 0.448977
12349 13393 0.142718
12349 13394 0.142718
466 1896 0.099898
12462 21829 0.249921
12552 341 0.332999
3559 2116 0.124873
1211 3 0.626867
180 69 0.249745
19393 20133 0.0437602
1211 104 0.372112
466 2151 0.099898
549 17558 0.124928
14554 14956 0.199796
10460 7662 0.110998
180 247 0.249745
7367 7649 0.142788
7367 7650 0.142788
13869 2745 0.124873
13869 2746 0.124873
16819 1926 0.110998
3702 3630 0.998979
16360 6115 0.110998
17564 68 0.998979
466 2636 0.099898
1354 1640 0.100355
13869 3101 0.124873
19626 247 0.166497
10347 62 0.198497
10347 93 0.200117
9316 68 0.000713774
9316 79 0.124912
1354 1890 0.100355
20740 15818 0.223622
7254 98 0.998979
13440 292 0.665986
13237 13631 0.998979
12552 1322 0.33298
5192 82 0.420123
19250 19994 0.167562
3928 20553 0.110998
5192 103 0.314416
18881 2588 0.332993
14471 449 0.998979
37 18 0.0188764
466 3106 0.099898
37 37 0.0566839
17534 7768 0.124873
37 53 0.0187414
37 67 0.015208
37 98 0.0379217
37 103 0.0955475
1068 180 0.795468
3130 278 0.124872
9316 472 0.123886
37 200 0.0188542
19596 7982 0.000662061
12409 594 0.111744
16533 750 0.785714
13094 12941 0.199796
12409 647 0.105032
37 331 0.0193257
16759 17282 0.124873
16759 17283 0.124873
16759 17284 0.124873
16759 17285 0.124873
16759 17286 0.124873
16759 17287 0.124873
5591 10851 0.236056
180 1462 0.249745
37 478 0.0188512
37 480 0.0188542
18452 37 0.995886
2957 6766 0.142711
19483 114 0.731941
9316 825 0.124911
10490 1889 0.998979
19626 1164 0.166497
37 576 0.282832
15359 55 6.99448e-06
12409 1004 0.111744
21545 308 0.998979
12522 9257 0.166497
15359 144 0.124863
16819 3264 0.110998
15359 149 0.124863
10204 3 0.212527
10204 35 0.0153461
37 760 0.0188542
10204 67 0.065876
16789 10524 0.998979
9316 1093 0.124912
4131 8116 0.249634
9316 1116 0.124912
11920 12526 0.998979
6080 53 0.0768565
6080 74 0.0768473
10716 18705 0.110998
13869 4465 0.124873
6080 144 0.076848
9316 1272 0.124912
3559 4174 0.124872
5192 1155 0.105031
37 997 0.0188544
1956 67 0.755422
15359 528 0.124863
10347 1415 0.200122
1956 195 0.243558
10204 457 0.235077
925 180 0.166295
3130 1274 0.374616
37 1215 0.0377084
10347 1539 0.200122
37 1274 0.0188542
15359 743 0.124863
5192 1489 0.0543801
12981 5896 0.998979
37 1397 0.00134951
15359 864 0.124863
37 1426 0.0188542
6080 680 0.0768227
10603 11140 0.11107
15216 82 0.166494
10204 963 0.235077
925 680 0.166537
3130 1815 0.124872
925 731 0.166537
263 18150 0.142724
263 18151 0.142724
263 18152 0.142724
15615 10531 0.998979
37 1886 0.0188542
925 917 0.166537
15299 15741 0.249745
406 19388 0.111014
406 19389 0.111014
2844 35 0.250107
2844 48 0.125825
925 1026 0.166537
925 1027 0.166537
6652 5310 0.0999032
2844 69 0.250486
4703 13451 0.0997837
6080 1219 0.0768473
16533 2599 0.213265
13297 1497 0.166495
12409 2500 0.111744
2844 171 0.246736
1068 2291 0.101756
37 2347 0.0188542
10204 1681 0.235077
10460 10910 0.110998
10460 10911 0.110998
2641 13834 0.0908162
19197 27 0.166497
37 2525 0.0188542
19197 90 0.332993
17135 53 0.998979
20371 1358 0.249748
15216 1217 0.166497
9030 1099 0.998979
37 2873 0.0188542
6080 2040 0.0768337
10746 13491 0.110998
10746 13495 0.110998
10746 13496 0.110998
3130 3048 0.124872
19197 506 0.166497
10174 9475 0.110998
6825 210 0.249745
2701 98 0.163535
12123 1415 0.998979
2701 101 0.167089
20371 1690 0.249748
639 55 0.0813187
13583 4560 0.400626
37 3123 0.0188542
14185 1534 0.142711
14185 1554 0.142711
639 115 0.149913
2701 210 0.334177
639 148 4.21358e-05
6825 340 0.249745
2987 2321 0.998979
15216 1705 0.166497
17504 18203 0.142711
15359 2779 0.124863
18678 19306 0.998979
6652 6752 0.0999032
6080 2636 0.0768473
15359 2954 0.124934
6080 2696 0.0768473
14185 1926 0.142711
12665 13188 0.143817
6652 6866 0.0999032
6652 6867 0.0999032
13899 79 0.998979
3070 18193 0.111204
3070 18194 0.111204
15961 171 0.998979
14185 2195 0.142711
16902 21750 0.110998
9399 19471 0.110998
9399 19472 0.110998
9399 19478 0.110998
9399 19479 0.110998
9399 19480 0.110998
18452 3426 0.00309334
19626 4552 0.166497
4620 67 1.40455e-05
3130 4124 0.124876
1527 3 0.192428
1527 55 0.00338678
6080 3279 0.0768473
6682 247 0.166497
9316 4514 0.124912
10174 10688 0.110998
17361 18105 0.110998
17361 18106 0.110998
17361 18107 0.110998
17361 18108 0.110998
5651 381 0.199796
12868 647 0.680106
6682 479 0.332993
19054 896 0.165551
19054 897 0.833428
12522 13057 0.166497
12522 13058 0.166497
12522 13059 0.166497
10806 795 0.199796
4620 615 0.998965
7683 7973 0.116132
6080 3841 0.0768415
1527 647 0.19181
12409 5128 0.111743
12725 69 0.110999
37 4828 0.0188542
6080 4063 0.0768473
7570 48 0.169174
12725 215 0.110999
7570 55 7.89742e-05
10031 10436 0.249724
4018 4142 0.998979
7570 156 0.153083
7713 1273 0.496291
12725 446 0.110995
12725 472 0.110993
7570 318 0.169175
12725 550 0.110999
3845 10557 0.180295
3446 301 0.399593
12552 6797 0.333
20740 21411 0.111811
20830 19 0.142711
9918 2807 0.199796
17737 34 0.169795
17737 115 0.152677
5651 1875 0.199796
2325 22277 0.110998
2325 22278 0.110998
2325 22279 0.110998
180 6907 0.249745
3875 3970 0.998979
9918 3187 0.199796
17737 375 0.169793
19423 20016 0.142775
19799 600 0.20049
210 3 0.127542
19423 20110 0.142775
210 67 0.0670253
7570 1375 0.169174
19423 20186 0.142775
210 144 0.191844
19799 864 0.200489
1384 1357 0.998979
210 324 0.127887
20371 5101 0.249736
7570 1687 0.169175
37 6585 0.0188536
10776 10011 0.199796
17421 6126 0.998979
6539 1703 0.332993
16563 68 0.00367505
3732 3773 0.0024265
3732 3806 0.332264
210 647 0.484682
3732 3845 0.332251
3732 3846 0.332038
14501 93 0.241126
13470 67 0.99657
3446 1814 0.199797
1527 2786 0.203785
12439 67 0.49946
16819 9475 0.110998
16563 247 0.995304
12439 144 0.499519
7713 3093 0.502689
10377 200 0.449752
436 17440 0.333002
10377 331 0.549227
4876 12458 0.199796
5132 21733 0.249745
2129 149 0.998979
20454 21229 0.998979
6682 3502 0.166497
7284 472 0.124839
17737 1840 0.169795
6539 2601 0.332993
13124 13127 0.998979
19626 8280 0.166497
12725 2949 0.110999
17737 2131 0.167125
37 7746 0.0188542
67 576 0.998979
1241 1687 0.110998
6682 3949 0.332993
10776 11355 0.199796
10776 11356 0.199796
10234 98 0.136352
10234 104 0.140303
10234 144 0.144391
15216 6469 0.166497
3446 3107 0.199793
21485 22140 0.11133
21485 22141 0.11133
21485 22142 0.11133
955 20 0.0587727
13327 425 0.199796
955 67 0.234723
3017 144 0.124872
955 151 0.176371
955 195 0.117581
19596 16151 0.298269
3017 278 0.249745
37 8423 0.0188529
2701 5490 0.167089
5079 450 0.110998
12582 2750 0.998979
6539 3630 0.332993
4477 3571 0.998979
3446 3545 0.199797
3845 13825 0.180295
1241 2481 0.110998
955 479 0.0587904
5079 631 0.0554989
1241 2599 0.110998
18339 62 0.110998
6020 22320 0.998979
955 680 0.0587904
955 681 0.0587904
6080 8033 0.0768473
3017 795 0.124873
13184 89 0.00877941
5079 882 0.0554989
19197 6469 0.166497
13327 1257 0.199796
4936 3 0.998979
955 963 0.0587904
15329 15801 0.199796
15329 15802 0.199796
13583 10631 0.149377
6998 210 0.332993
10091 308 0.998979
5079 1215 0.0554989
13327 1497 0.199796
323 11348 0.998979
18911 4783 0.998979
10234 1463 0.144466
17534 17081 0.124873
9203 1497 0.332993
1986 1293 0.332995
18339 810 0.110998
466 12568 0.099898
4703 20945 0.0997837
37 9541 0.0188542
6998 576 0.332993
3017 1489 0.124873
2528 12764 0.249745
18196 62 0.49949
9203 1914 0.332993
2528 13005 0.249745
2528 13006 0.249745
955 1694 0.0587904
6825 7025 0.249745
6825 7026 0.249745
14501 3181 0.252618
14072 182 0.110998
20025 20862 0.998979
12838 13475 0.00617018
12838 13476 0.992809
10234 2126 0.144424
12725 5313 0.110999
16360 16722 0.110998
16360 16723 0.110998
812 900 0.998979
18851 19910 0.998979
3762 3 0.998979
14501 3472 0.252618
18339 1554 0.110998
14072 426 0.110998
18339 1590 0.110998
13041 446 0.998979
19483 9897 0.267039
1986 2317 0.332995
10234 2621 0.144522
10347 10837 0.200122
17534 18236 0.124873
17534 18237 0.124873
10806 6763 0.199796
5079 2501 0.0554989
9918 7791 0.199796
5079 2634 0.0554989
18053 55 0.135184
18053 63 0.280054
6855 748 0.998979
15991 20 0.124864
15991 65 0.0624379
669 652 0.249745
10234 3015 0.144522
21146 291 0.998979
13929 67 0.998979
9948 991 0.285423
15991 158 0.0624379
5079 2942 0.0554989
8774 9 0.142711
2701 8024 0.167089
12725 6293 0.110999
15991 248 0.124861
9316 11360 0.124912
1241 4977 0.110998
18339 2496 0.110998
9948 1286 0.285423
5448 20614 0.332993
15991 479 0.0624379
12898 404 0.995397
14072 1490 0.110998
526 63 0.129326
526 67 0.12316
526 68 0.194053
8857 15718 0.166497
8857 15719 0.166497
18196 1667 0.49949
526 104 0.275652
8774 372 0.142711
37 11375 0.0188542
17451 3818 0.00123352
3905 2375 0.998979
8774 479 0.142711
526 238 0.064661
15991 754 0.0624379
6080 10746 0.0768473
15991 812 0.0624379
14072 1840 0.110998
2844 9691 0.125825
14072 1863 0.110998
526 472 0.147467
19972 82 0.142711
19972 87 0.142711
15991 991 0.124876
7081 18222 0.249745
7081 18223 0.249745
1241 5803 0.221996
18053 1228 0.291871
16277 3229 0.249745
669 1753 0.249745
5079 3983 0.0554989
1241 5952 0.110998
2957 18310 0.142711
8631 152 0.199799
526 964 0.064661
383 3 0.424823
669 2123 0.49949
383 67 0.42939
8887 9554 0.998979
8631 335 0.0998995
20830 6899 0.142711
383 171 0.144766
1241 6353 0.110998
639 9443 0.153541
2445 278 0.998979
8631 472 0.399579
10836 1594 0.49949
12409 13093 0.111744
12409 13094 0.111743
12409 13095 0.111743
12409 13096 0.111743
782 10705 0.49949
782 10706 0.49949
21432 4238 0.998979
14072 3037 0.110998
13184 4042 0.244483
8774 1890 0.142711
8631 888 0.0998995
15359 12368 0.124863
12612 18 0.124886
18339 4297 0.110998
12612 35 0.124607
15991 2204 0.0624379
12612 55 0.000169137
19829 331 0.998979
19513 5592 0.333624
5079 5189 0.0554989
20830 7777 0.142711
1271 12 0.260824
8774 2329 0.142711
1271 53 0.086561
13440 13752 0.332993
9918 10579 0.199796
9918 10580 0.199796
19972 1703 0.142711
12612 518 0.124886
1271 180 0.0436322
19453 20219 0.479991
5824 3434 0.998979
1271 247 0.0432791
13470 6800 0.00240938
1354 15663 0.100355
1354 15664 0.100355
1354 15665 0.100355
1354 15666 0.100355
15991 2836 0.0624379
240 301 0.333007
1271 364 0.0433875
5681 2579 0.998979
17451 6126 0.997746
1271 518 0.0433875
8488 760 0.49949
21003 2242 0.142711
1271 647 0.0874225
5079 5918 0.0554989
14531 68 0.745539
240 678 0.332986
10407 3 0.998979
2957 20266 0.142711
21003 2500 0.285423
21003 2539 0.142711
15991 3431 0.0624379
2957 20472 0.142711
13297 13655 0.166497
13297 13656 0.166497
13297 13657 0.166497
13297 13658 0.166497
13297 13659 0.166497
10550 1340 0.332993
1128 90 0.249745
240 1099 0.332986
12469 479 0.110998
7284 7531 0.124877
7284 7532 0.124877
7284 7533 0.124877
7284 7534 0.124877
7284 7535 0.124877
7284 7536 0.124877
7284 7537 0.124877
15645 16074 0.998979
12469 647 0.110997
1271 1345 0.0433875
1128 363 0.249745
97 331 0.998979
19972 3021 0.142711
7969 20177 0.998979
1271 1589 0.0867748
1271 1590 0.0433875
16819 17469 0.110998
21605 217 0.998979
10693 2952 0.199846
16819 17500 0.110998
16819 17501 0.110998
10806 11187 0.199796
10264 12 0.00265469
12469 1149 0.110998
14531 1225 2.52183e-05
13357 210 0.166497
10806 11430 0.199796
10806 11431 0.199796
14072 5480 0.221996
10264 247 0.498146
8631 3346 0.0999031
13357 478 0.166497
5651 11523 0.199796
5651 11524 0.199796
5651 11525 0.199796
1128 1218 0.249745
6140 472 0.998979
13357 755 0.166497
8774 4721 0.142711
4876 21028 0.199796
14501 9086 0.252618
37 15890 0.0188542
1271 2636 0.0433875
20431 157 0.110998
21462 257 0.249745
15276 69 0.110998
13357 1155 0.166497
10550 3187 0.332993
6998 7241 0.332993
14185 14670 0.142711
14185 14671 0.142711
14185 14672 0.142711
10836 5436 0.49949
20717 2756 0.998979
3935 200 0.11713
1271 3194 0.0433875
20830 10975 0.142711
15562 2696 0.249744
20401 8026 0.998979
1068 16665 0.101756
13357 1693 0.166497
3935 472 0.11639
12725 12092 0.110999
15562 3021 0.249745
19799 11464 0.20049
7028 825 0.998979
12868 13331 0.318873
3017 8944 0.124873
3017 8957 0.124873
3017 8958 0.124872
13071 55 3.62888e-06
13071 63 0.334295
15276 1165 0.110998
15276 1230 0.110998
8059 1054 0.332993
13327 9423 0.199796
3935 977 0.11713
19513 9665 0.331732
6885 55 0.145429
842 895 0.998979
955 9137 0.0587899
3792 37 2.94123e-06
10550 4412 0.332993
3792 115 0.20413
13071 410 0.361619
699 34 0.363322
699 53 0.0908566
699 103 0.18156
3792 210 0.0883403
3792 233 0.0881388
15276 1656 0.110998
13184 8856 0.248572
13071 677 0.0208338
699 324 0.181581
3792 426 0.176687
13184 9018 0.248572
9203 9923 0.332993
1241 11731 0.110998
13959 20 0.000517194
21176 248 0.124342
3792 812 0.0883406
11897 67 0.998979
21176 363 0.12495
8804 74 0.998979
19257 1446 0.249745
3559 21457 0.124873
3559 21458 0.124873
6885 1090 0.213388
12469 4344 0.110998
6885 1099 0.213388
17767 5574 0.998979
13959 342 0.199693
8059 2214 0.332993
4680 82 0.332992
7773 185 0.0998982
2618 37 0.33338
20830 12936 0.142711
20830 12937 0.285423
7773 247 0.0998961
556 34 0.125183
13071 1497 0.282228
7773 340 0.0998982
13154 16929 0.998979
2618 215 0.3328
1986 10446 0.33299
4680 301 0.110997
556 178 0.250367
556 180 0.247978
8774 7621 0.142711
3130 18719 0.124872
6742 404 0.249745
3792 1339 0.0883405
6742 412 0.249745
7570 13797 0.169119
13214 2769 0.332993
3935 2562 0.11713
3935 2563 0.11713
17737 13258 0.169795
12898 7988 0.00358273
10121 2786 0.998979
6569 6793 0.998979
1271 5611 0.0433875
19972 7274 0.142711
15216 17386 0.166497
15216 17387 0.166497
20002 178 0.110998
12469 5067 0.110998
15878 68 0.998979
20002 204 0.110998
699 1667 0.181661
556 665 0.125183
15276 3226 0.110998
15276 3353 0.110998
639 16247 0.153541
11754 237 0.49949
17022 8638 0.998979
20431 3695 0.110998
1444 68 0.111153
2618 1155 0.1664
413 82 0.124877
11754 450 0.49949
413 103 0.124888
12469 5637 0.110998
6599 381 0.142711
6885 2492 0.213388
1444 278 0.110994
413 331 0.374584
9692 677 0.998979
19626 20470 0.166497
19626 20471 0.166497
6599 615 0.142711
15705 7103 0.998979
15276 4059 0.110998
1271 6775 0.0433875
17797 217 0.221995
5538 8091 0.998979
9948 10290 0.285423
4680 1943 0.110997
17797 301 0.110998
5252 6063 0.998979
12469 6293 0.110998
2618 1905 0.1664
10723 1149 0.998979
3935 4018 0.11713
3935 4019 0.11713
3935 4020 0.11713
3935 4021 0.0626771
6599 1063 0.142711
4680 2052 0.110997
413 969 0.249754
6599 1224 0.142713
15532 13798 0.998979
5079 12451 0.0554989
5079 12452 0.0554989
5079 12453 0.0554989
6599 1232 0.142711
5192 20668 0.105031
2332 103 0.108985
2332 104 0.111241
37 20539 0.0188542
37 20540 0.0188542
1301 98 0.341543
20002 1709 0.110998
1301 195 0.368975
1444 1245 0.110976
17797 793 0.110998
1527 16730 0.203785
7773 2580 0.0998982
1527 16731 0.203785
2332 404 0.111251
1301 446 0.0293461
12612 8026 0.124886
1301 516 0.130813
10693 9084 0.199846
3792 3749 0.0883405
12642 963 0.998979
15991 10316 0.0624379
8631 9169 0.0998995
17797 1273 0.110998
13673 1163 0.929993
20431 5487 0.110998
3792 3966 0.176659
7344 34 0.332994
15592 316 0.332993
413 1905 0.124877
10693 9396 0.199846
6313 53 0.998979
13327 13667 0.199796
17797 1524 0.110998
12153 12623 0.998979
1843 12308 0.998979
1301 1030 0.128303
14561 431 0.998979
556 3090 0.125183
1158 93 0.998979
7630 2349 0.998979
127 67 0.3148
127 69 0.663571
17797 1671 0.110998
7344 331 0.332992
19799 16149 0.197022
127 171 0.0206086
1444 2263 0.110976
3220 301 0.49949
20747 875 0.998979
4680 3478 0.111002
7773 3629 0.0998982
13530 819 0.110998
8488 8943 0.49949
2332 1621 0.111251
13530 963 0.110998
37 22083 0.0188542
3649 3770 0.0280266
3649 3804 0.970953
13184 13342 0.248572
9662 10199 0.998979
13530 1274 0.110998
13357 7429 0.166497
14418 331 0.502579
7344 1146 0.332994
10294 215 0.221996
19197 19974 0.166497
15449 432 0.998979
20371 21122 0.249748
7201 226 0.285423
14418 479 0.496401
12356 419 0.199796
1015 180 0.998979
3220 1441 0.249745
17511 865 0.998979
2332 2599 0.111251
17797 3093 0.110998
19430 82 0.110998
4108 647 0.249598
10693 11155 0.199596
10693 11156 0.199846
19430 191 0.110998
15276 7242 0.110998
7773 5064 0.0998982
4108 963 0.230161
10151 144 0.998979
11867 12517 0.998979
4108 1007 0.264652
10294 1224 0.110998
19430 506 0.110998
6742 5247 0.249745
3965 79 0.249745
21176 5791 0.124948
872 98 0.139177
3965 301 0.249745
19573 1841 0.998979
2332 3614 0.111251
20002 5289 0.110998
5139 1772 0.998979
556 5795 0.125085
13530 3187 0.110998
6885 7083 0.213388
13101 210 0.997736
19430 1445 0.110998
6599 5152 0.142711
5884 67 0.0234258
872 966 0.214951
872 967 0.214951
872 968 0.214951
872 969 0.21495
10580 4364 0.998979
5884 152 0.10839
17797 4689 0.110998
19430 1715 0.110998
12356 2534 0.199796
20002 5861 0.221996
3220 3304 0.124872
12070 557 0.110998
955 16659 0.0587904
639 21877 0.153541
639 21878 0.153541
639 21879 0.153541
15306 1869 0.49949
17082 35 0.998979
17594 18512 0.998979
13530 4042 0.110998
6742 6942 0.249745
6027 1814 0.998979
10294 3006 0.110998
12070 1016 0.110998
5884 864 0.10839
13387 3162 0.998979
9865 55 0.0428359
9865 63 0.31688
16051 290 0.110998
10008 1267 0.998979
5884 1224 0.541946
16051 550 0.110998
12070 1482 0.110998
12070 1491 0.110998
16051 600 0.110998
10264 10754 0.498179
6599 6586 0.142711
12070 1651 0.110998
6772 576 0.49949
16277 17279 0.249745
16277 17280 0.249745
16277 17281 0.249745
12612 13119 0.124886
12612 13120 0.124886
12612 13121 0.124886
12612 13122 0.124886
19799 20631 0.200489
12070 2030 0.221996
14072 16459 0.110998
18542 4364 0.998979
12815 103 0.249685
9722 55 0.998896
19430 3431 0.110998
10294 4195 0.110998
12815 215 0.249765
11784 184 0.110998
1271 13217 0.0433875
15592 5496 0.332993
11784 291 0.110998
16051 1463 0.110998
11784 324 0.110998
2505 53 0.230249
7660 330 0.332993
11784 465 0.110998
3679 1274 0.142711
4680 8526 0.110997
3679 1328 0.142711
8375 5574 0.094175
9948 16925 0.142711
12469 13008 0.110998
12469 13009 0.110998
2505 446 0.154732
3220 5630 0.124872
19656 20489 0.998979
16051 1944 0.110998
15991 16357 0.0624379
3965 3774 0.249745
3965 3803 0.249745
6629 864 0.998979
7660 1016 0.665986
9579 103 0.25338
2505 917 0.0767498
2505 930 0.0767498
7517 178 0.249745
16796 479 0.998979
1331 3 0.661399
1331 20 0.33758
18339 18998 0.110998
18339 19001 0.110998
18339 19002 0.110998
16051 2539 0.110998
2505 1099 0.1535
13500 13803 0.250814
13500 13804 0.748166
15908 1592 0.998979
6486 308 6.65219e-06
9579 425 0.248534
10610 478 0.249745
5079 19783 0.0554989
2362 233 0.166497
19513 20244 0.333624
6486 426 0.499486
7517 543 0.124872
7487 7807 0.998979
19889 1026 0.998979
11039 3887 0.998979
7517 739 0.124872
3679 2685 0.142711
2332 7786 0.111251
14591 12 8.43889e-05
16051 3200 0.110998
8375 7082 0.452396
12529 115 0.0625094
11498 87 0.142711
3679 2936 0.142711
2332 8041 0.11125
5455 1004 0.110659
5455 1062 0.110659
5079 20534 0.0554989
5079 20535 0.0554989
5079 20536 0.0554989
21063 2735 0.998979
7201 6415 0.142711
14531 14937 0.253415
4281 286 0.49949
7517 1418 0.249745
14591 647 0.705555
11498 631 0.142711
11498 632 0.142711
300 1375 0.998979
15592 8151 0.332993
14591 969 0.00273005
5455 1782 0.221318
8518 9054 0.998979
11784 3048 0.110998
16480 7308 0.998979
18053 18645 0.291871
10324 103 0.998979
11498 1165 0.142711
17541 362 0.249745
2505 2992 0.0767498
13214 13627 0.332993
13214 13628 0.332993
19603 528 0.998979
5455 2139 0.113708
11784 3426 0.110998
14 3 0.0356015
14 12 0.0181952
14 37 0.0178323
14 67 0.0356177
14 68 0.0999992
14 98 0.160192
14 103 0.0532301
21575 22299 0.998979
14 115 0.239523
1045 171 0.620742
15562 16034 0.249745
15562 16035 0.249745
6772 4514 0.49949
11498 1589 0.142711
21176 12149 0.124948
14 247 4.39307e-07
14 316 0.0177984
14 327 0.0355969
2904 13763 0.998979
11498 1739 0.142711
20431 14328 0.110998
1045 419 0.378237
20002 11272 0.110998
14 479 0.0177987
17541 1099 0.249745
14 568 0.0177984
7517 2866 0.124872
12815 4057 0.249765
14305 35 0.998979
11498 2034 0.142711
21522 331 0.998979
14 695 0.0177989
10610 3143 0.249745
5884 6129 0.108437
14591 2329 0.00589251
6057 68 0.998979
2505 4104 0.0767498
902 35 0.998979
10181 410 0.998979
14 1187 0.0355969
14 1328 0.0177984
17541 1922 0.249745
13989 5963 0.998979
14 1456 0.0177984
5884 6774 0.10839
16367 1007 0.998979
5455 3767 0.110659
14 1562 0.0177984
15336 1016 0.14271
6486 3914 0.499487
8548 4104 0.998979
13530 10423 0.110998
15193 330 0.199796
15276 15713 0.110998
17541 2534 0.249745
3852 115 0.466385
14 2099 0.0177984
12815 5627 0.249765
14162 572 0.998979
2821 330 0.166497
6945 474 0.49949
14 2351 0.0177984
15336 1807 0.142712
10437 10898 0.998979
1444 12687 0.110976
20032 6129 0.998979
14 2534 0.0177984
13530 11209 0.110998
2821 634 0.166497
12070 8143 0.110998
759 632 0.998979
13959 14381 0.199693
13959 14382 0.199693
13959 14383 0.199693
13959 14384 0.199692
19972 20723 0.142711
19972 20724 0.142711
14 2776 0.0177984
15336 2306 0.142712
10610 5308 0.249745
2821 1014 0.166497
616 211 0.332106
10294 10799 0.110998
10294 10800 0.110998
10294 10801 0.110998
10294 10802 0.110998
6945 1554 0.49949
3709 518 0.110998
10926 750 0.998979
19174 1048 0.998979
11927 8024 0.998979
2821 1637 0.166497
21003 21725 0.142711
21003 21726 0.142711
21003 21727 0.142711
15336 3240 0.142712
9895 1029 0.249745
19460 3480 0.998979
7690 103 0.0356361
4740 1062 0.249745
11814 272 0.246406
7690 278 0.32113
473 55 0.998979
4740 1245 0.249745
4597 241 0.166493
9895 1430 0.249745
18512 19123 0.998979
1504 330 0.199796
1504 335 0.199796
10783 677 0.332991
3709 1489 0.110998
13673 14108 0.0689869
19919 104 0.998979
15193 3090 0.199796
1128 20179 0.249745
11468 13336 0.998979
1504 749 0.099898
9865 9237 0.322592
1504 810 0.099898
7690 1035 0.321107
2505 8076 0.0767498
6516 18 0.647695
16826 363 0.110998
7547 79 0.332993
16826 375 0.110998
3995 4079 0.998979
4597 1068 0.166493
443 8150 0.998979
1504 1027 0.099898
4740 2242 0.49949
1361 103 0.49641
13530 13829 0.110998
13530 13830 0.110998
4108 12545 0.254569
11814 1517 0.246406
16826 734 0.110998
12070 10855 0.110998
330 247 0.110998
2362 7491 0.166497
12356 12950 0.199796
12356 12951 0.199796
12356 12952 0.199796
4597 1455 0.166493
4597 1456 0.166515
330 410 0.110998
19776 104 0.110998
14 5678 0.0177984
15336 5152 0.142712
4597 1849 0.166493
19776 327 0.110998
9722 9237 8.33765e-05
3852 3942 0.532595
9865 10371 0.316672
3709 3082 0.110998
3709 3123 0.110998
14 6114 0.0177984
2249 67 0.998979
8059 19727 0.332993
187 37 0.0540023
21462 20184 0.249745
187 62 0.129316
19776 681 0.110998
19400 20136 0.998979
19776 689 0.110998
187 115 0.166707
6373 310 0.998979
187 184 0.0539773
187 446 0.162829
330 1489 0.110998
19633 62 0.243574
19776 1146 0.110998
19776 1208 0.110998
3709 3813 0.110998
3709 3814 0.110998
3709 3815 0.221996
3709 3818 0.110998
330 1667 0.110998
187 647 0.0543088
19633 229 0.251802
11957 4104 0.998979
12559 1072 0.49949
187 888 0.0539773
5199 55 0.998979
187 930 0.0539773
1504 3021 0.099898
19257 20016 0.249745
19257 20017 0.249745
19257 20020 0.249745
10354 278 0.998979
12529 8553 0.00566125
4168 98 0.222018
20431 21201 0.110998
20431 21202 0.110998
20431 21203 0.110998
20431 21204 0.110998
20431 21205 0.110998
7773 18766 0.0998982
7773 18767 0.0998982
7773 18768 0.0998982
7773 18769 0.0998982
16051 11914 0.110998
1504 3299 0.099898
616 4344 0.500821
1075 276 0.110998
13101 12983 0.00124335
4168 419 0.110995
11814 3795 0.246406
21552 12 0.998979
7201 14952 0.142711
17571 963 0.998979
19776 2111 0.110998
5455 9897 0.110659
10497 1889 0.332993
10497 2000 0.332993
1444 18135 0.110976
14478 1147 0.998979
1504 3883 0.099898
14448 8507 0.998979
4168 1048 0.0554973
21462 22112 0.249745
21462 22113 0.249745
19776 2601 0.110998
10211 308 0.000739946
4597 4322 0.166493
2362 10470 0.166497
10211 472 0.99824
10610 11151 0.249745
12958 13345 0.998979
11784 12306 0.221996
11784 12495 0.110998
6975 67 0.998979
17285 453 0.166505
15306 15765 0.49949
7690 5322 0.321107
932 1025 0.249897
932 1031 0.249898
932 1032 0.249898
932 1033 0.249287
789 67 0.00132511
1820 180 0.998979
4168 2379 0.0554973
1444 19713 0.110976
1444 19714 0.110976
1444 19715 0.110976
789 259 0.181392
4168 2520 0.0554973
21266 2 0.998979
789 508 0.0906959
15336 9194 0.142712
616 6777 0.166053
21176 21832 0.124948
21176 21833 0.124948
21176 21834 0.124948
21176 21835 0.124948
17285 1245 0.166456
13018 93 0.0372434
20002 20811 0.110998
20002 20814 0.110998
19204 341 0.49949
4168 2949 0.0554973
17285 1327 0.166505
4680 21429 0.110997
8375 18478 0.226204
8375 18502 0.226204
4168 3019 0.0554973
789 898 0.181392
789 964 0.0906959
1075 3037 0.110998
11987 327 0.142711
789 1038 0.0906959
789 1039 0.0906959
11987 375 0.142711
789 1056 0.0906959
789 1057 0.0906959
789 1058 0.0906959
13447 3571 0.998979
11987 478 0.142711
19204 750 0.249745
8894 442 0.124873
1075 3297 0.110998
13018 647 0.235346
1677 300 0.0998978
646 331 0.998979
1677 401 0.199809
8894 682 0.124873
20378 2123 0.998979
1361 5635 0.502569
2362 12871 0.166497
5455 12972 0.110659
6659 6873 0.998979
15968 35 0.0822678
2362 13049 0.166497
2362 13050 0.166497
11987 1069 0.142711
10813 20 0.110998
8894 1030 0.124872
7720 3 0.165433
10813 103 0.110998
7720 74 0.166701
17285 2465 0.166505
8894 1272 0.124873
3596 93 0.110991
503 12 0.101129
503 44 0.074859
503 67 0.22361
16826 6785 0.110998
2332 20681 0.111251
10068 2498 0.249393
17368 18147 0.998979
7720 479 0.1667
503 331 0.225074
187 5454 0.0539773
15968 831 0.114589
7517 13930 0.124872
12529 13075 0.930809
11814 7957 0.25976
10813 804 0.110998
16051 16361 0.110998
5455 14036 0.110659
15968 1070 0.114589
14 11872 0.0177984
4281 13048 0.49949
6516 6970 0.351284
14794 69 0.199795
18918 211 0.166497
15968 1188 0.114589
1677 1889 0.0998978
7577 48 0.332994
11987 2329 0.142711
7577 172 0.166496
503 1030 0.0748821
1075 5173 0.110998
1677 2139 0.299695
7201 19748 0.142711
7201 19749 0.142711
7201 19750 0.142711
10038 10634 0.998979
1391 144 0.221996
6546 331 0.399593
7720 1449 0.166743
18918 823 0.166497
7577 479 0.166499
18399 19306 0.998979
14 12590 0.0177984
15968 1849 0.114589
17285 3949 0.166505
6546 563 0.199796
6546 576 0.39959
7547 7871 0.332993
7547 7872 0.332993
11987 2966 0.142711
3596 1690 0.110999
14794 1014 0.399592
15968 2099 0.114589
187 6770 0.0539773
187 6772 0.0539773
10956 3019 0.998979
3596 1840 0.110999
1391 759 0.110998
1391 760 0.110998
1391 761 0.110998
20837 341 0.110998
3679 17256 0.142711
3679 17258 0.142711
3679 17259 0.142711
20837 377 0.110998
1075 6011 0.110998
9895 10390 0.249745
330 8057 0.221996
12732 1273 0.499395
9895 10524 0.249745
1248 26 0.332993
10527 324 0.153689
13417 13747 0.998979
6403 211 0.110998
217 48 0.711012
19430 20203 0.110998
19430 20208 0.110998
19430 20209 0.110998
10527 472 0.0768496
15968 2718 0.114589
14591 14980 0.284718
217 195 0.0959862
1075 6461 0.110998
3596 2447 0.110999
217 341 0.0479931
2505 16810 0.0767498
19776 8129 0.110998
6403 620 0.110998
12732 1849 0.499585
11701 1832 0.49949
19663 37 0.468573
17428 6126 0.998979
503 2539 0.0748565
6403 810 0.110998
8578 9118 0.332993
3739 3846 0.998979
8578 9119 0.332993
8578 9120 0.332993
10384 3 0.998979
10527 1061 0.0768443
1391 1804 0.110998
187 7976 0.0539773
15539 257 0.142711
13018 4305 0.24213
7291 65 0.369819
13018 4344 0.24213
5229 18 0.110998
6260 69 0.110946
10527 1294 0.0768443
14 14319 0.000619174
5229 144 0.110998
5229 152 0.110998
3596 3181 0.221997
10527 1375 0.0768443
2136 98 0.110998
5229 372 0.110998
19633 8010 0.251802
6260 449 0.111004
15539 810 0.142711
6260 576 0.111004
18918 3019 0.166496
6260 577 0.111004
2136 450 0.110998
13131 13127 0.998979
20837 2151 0.110998
20837 2195 0.110998
1677 4699 0.0998978
2136 752 0.110998
2136 753 0.110998
12303 55 0.998979
19520 290 0.222416
9579 17431 0.248533
9579 17438 0.248533
10783 11347 0.332991
10783 11348 0.332998
19520 426 0.109316
19144 19891 0.998979
217 1893 0.0479931
962 3 0.133133
21492 22173 0.998979
962 34 0.0673483
6403 2261 0.110998
18918 3786 0.166497
5229 1423 0.110998
2821 13648 0.166497
5229 1430 0.110998
6403 2500 0.110998
12589 2750 0.998979
2821 13770 0.166497
12446 1782 0.249745
15539 1890 0.142711
962 479 0.0673484
10527 2852 0.0768443
6403 2746 0.110998
1248 2592 0.332993
20837 3206 0.110998
2136 1629 0.110998
6403 2800 0.110998
15253 69 0.110837
12988 13353 0.998979
13191 44 0.110998
962 719 0.0673482
10098 3 0.19996
217 2786 0.0480027
11701 4174 0.49949
13191 145 0.110998
10098 69 0.200688
14222 241 0.124874
14222 247 0.124865
962 864 0.134697
13191 345 0.110998
15336 15805 0.142712
2881 53 0.166494
962 1026 0.0673484
5229 2202 0.110998
819 19 0.110998
2881 90 0.166497
15253 479 0.111014
1850 63 0.288535
330 11331 0.110998
330 11332 0.110998
330 11333 0.110998
10241 1449 0.219468
14222 550 0.124874
5974 308 0.998979
217 3204 0.0479931
18346 695 0.998979
6260 2387 0.111004
819 210 0.055499
3596 5454 0.110999
14222 691 0.124874
20408 895 0.998979
819 300 0.110998
10497 10931 0.332993
819 419 0.055499
2881 518 0.166497
9925 6933 0.998979
19663 3162 0.530406
17172 18 0.142688
962 1589 0.134697
15253 1016 0.111018
5944 7901 0.998979
18858 19598 0.176472
18858 19599 0.822507
6832 6947 0.998979
12845 13304 0.998979
6260 2923 0.111004
9955 12 0.136342
9955 20 0.143438
8924 19 0.111
8924 20 0.110977
819 812 0.110998
15193 15603 0.199796
15193 15604 0.199796
15193 15605 0.199796
7893 63 0.00654222
20837 4582 0.110998
13018 7429 0.24213
3769 3 0.195965
3769 7 0.194138
13191 1345 0.110998
17172 450 0.142715
2738 35 0.0926358
1707 12 0.474896
2738 63 0.000826573
2738 68 0.0304598
5229 3248 0.110998
2881 1147 0.166497
19490 9897 0.998979
2738 171 0.108481
1707 144 0.524084
15253 1635 0.111018
9955 451 0.143875
15253 1656 0.111018
676 215 0.249745
3769 324 0.200926
3769 331 0.204596
17172 749 0.142715
17172 760 0.142715
2738 363 0.109511
9955 647 0.143698
3912 1508 0.110998
676 426 0.124872
819 1519 0.055499
18060 69 0.332993
7577 5955 0.166496
1075 10877 0.110998
819 1690 0.055499
1850 1733 0.355222
8751 7108 0.49949
17172 1273 0.142715
7577 6115 0.166496
8781 149 0.332993
20837 5707 0.110998
5229 4216 0.110998
8924 1274 0.111
3596 7277 0.110999
962 3107 0.000198743
6719 362 0.110998
2136 4354 0.110998
819 2269 0.110998
17398 18183 0.998979
7750 472 0.599343
15253 2776 0.111018
6719 506 0.110998
6719 543 0.110998
2738 1495 0.109511
4168 11793 0.110995
12559 13097 0.49949
8924 1799 0.111
15253 3021 0.111018
13191 2965 0.110998
10241 3930 0.779512
18060 1101 0.332993
4168 11987 0.0554973
14824 35 0.998979
11731 20 0.110998
10098 3055 0.200881
2136 4868 0.110998
9955 2040 0.143876
18948 301 0.249745
7607 3 3.04199e-05
6719 1030 0.110998
19377 3488 0.998979
8638 98 0.114224
8638 104 0.228563
17172 2481 0.142715
8638 229 0.114282
9955 2329 0.143876
9955 2345 0.143875
2738 2139 0.109511
15968 8767 0.114589
7607 324 0.19979
6403 6479 0.110998
7607 375 0.39958
17172 2745 0.142715
1391 7389 0.110998
4168 12604 0.0554973
8638 449 0.114282
962 4344 0.0673492
21439 3958 0.998979
8638 576 0.114282
11987 9942 0.142711
8638 647 0.199065
8638 680 0.114282
19836 12 0.131258
14794 8059 0.199796
6719 1667 0.110998
6576 647 0.998979
12446 5963 0.249745
1421 508 0.110998
962 4697 0.0673484
19836 217 0.144621
676 2781 0.124873
19836 327 0.144621
12619 104 0.142711
12619 116 0.142711
11731 1143 0.110998
10813 9317 0.110998
19234 3434 0.998979
3912 3988 0.110998
3912 3989 0.110998
3912 3996 0.110998
3912 3997 0.110998
3912 3998 0.110998
6719 2038 0.110998
3912 4001 0.110998
3912 4006 0.110998
3912 4007 0.110998
8751 9296 0.49949
20837 7662 0.110998
4371 69 0.110979
12619 375 0.142711
8495 330 0.998979
1278 180 0.998979
7607 1456 0.19979
13191 4707 0.110998
7720 9673 0.166701
7750 2509 0.199819
6719 2480 0.110998
14508 6828 0.998979
13477 6800 0.998979
1421 1389 0.110998
1421 1390 0.110998
1421 1391 0.110998
1421 1392 0.110998
1421 1393 0.110998
1421 1394 0.110998
1421 1395 0.110998
1421 1396 0.110998
4371 478 0.111
12619 761 0.142711
15712 895 0.998979
6403 7787 0.110998
17458 6126 0.998979
247 472 0.110998
1677 10798 0.0998978
11731 1890 0.110998
247 550 0.110998
15569 3 0.998979
10527 8053 0.0768443
247 576 0.110998
4371 739 0.111
11731 2040 0.110998
3769 3847 0.203354
4371 836 0.111
20724 363 0.998979
13650 1224 0.332993
19836 1449 0.14462
247 841 0.110998
15539 7491 0.142711
18948 2497 0.249745
12017 4344 0.998979
11731 2345 0.110998
12130 12622 0.998979
10700 2347 0.199796
10557 1343 0.998979
19836 1651 0.144621
3167 7295 0.998979
104 55 0.123922
11731 2495 0.110998
13650 1568 0.332993
3340 1267 2.55258e-05
13507 576 0.970083
4371 1328 0.111
104 171 0.305321
104 210 0.0624343
19836 1910 0.144621
4228 449 0.332993
104 324 0.12489
676 4493 0.124873
247 1418 0.110998
104 426 0.0312108
104 429 0.0624216
104 472 0.0703071
17488 55 0.191833
247 1569 0.110998
11731 2968 0.110998
247 1590 0.110998
17488 93 0.201088
3626 3771 0.998979
20837 9437 0.110998
104 600 0.0312108
6260 7964 0.222009
6260 7965 0.111004
16826 17524 0.221996
16826 17525 0.110998
16826 17526 0.110998
16826 17527 0.110998
819 5771 0.055499
15253 6273 0.111018
18203 5404 0.998979
2136 8125 0.110998
10813 11472 0.110998
10813 11473 0.110998
10813 11474 0.110998
10813 11475 0.110998
10813 11476 0.110998
2166 1000 0.110998
3054 12 0.000115616
4371 2110 0.111
2166 1035 0.221996
992 69 0.24864
104 1069 0.0312108
992 90 0.249573
4085 195 0.998979
992 103 0.249276
1677 12457 0.0998844
7464 2462 0.998979
7321 1441 0.998979
3054 308 0.24796
3054 339 0.250302
13650 2772 0.332993
2166 1463 0.110998
2023 528 0.998979
17345 12 0.167333
17345 104 0.172485
962 7957 0.0673484
992 817 0.00192749
12190 178 0.166497
19407 404 0.991404
2166 1951 0.110998
15283 353 0.998979
17345 449 0.172811
4973 68 0.0055902
3942 62 0.111019
962 8170 0.0673484
2911 48 0.998979
1075 16398 0.110998
1075 16399 0.110998
849 35 0.141044
15366 15858 0.998979
16540 16932 0.998979
992 1096 0.249563
849 68 0.408579
1880 115 0.998979
3942 180 0.110224
849 93 0.0925608
6004 278 0.110998
6004 284 0.110998
14794 11868 0.199796
3942 278 0.111106
16570 9913 0.998979
2595 5402 0.49949
16457 1764 0.998979
3340 3435 0.998954
15253 7961 0.111018
849 363 0.0642762
2166 2601 0.110998
4973 647 0.993389
10527 11074 0.0768443
18060 6189 0.332993
16314 1016 0.00882703
12446 10160 0.249745
16314 1090 0.990152
18233 151 0.998979
10414 2992 0.249745
849 647 0.129047
12875 13332 0.998979
12190 1016 0.166496
21236 21853 0.998979
2136 10106 0.110998
962 9088 9.09553e-06
16397 16740 0.998979
19407 1589 0.00552418
849 1016 0.130781
104 3046 0.0312108
6004 1208 0.110998
13078 446 0.998979
2595 6311 0.49949
10414 3496 0.249745
1850 8372 0.355223
12619 4634 0.142711
8954 425 0.249745
6892 573 0.49949
10700 5832 0.199796
706 446 0.110998
12190 1840 0.166497
706 465 0.110998
21183 185 0.953617
6719 6923 0.110998
6719 6924 0.110998
3596 14036 0.110999
6892 847 0.49949
2738 7957 0.109511
21183 341 0.0453625
12190 2131 0.166497
7780 3 2.01982e-05
7780 34 0.250565
7893 8336 0.992437
8954 1209 0.249745
7780 171 0.247447
19121 549 0.166497
8894 15635 0.124872
706 1066 0.110998
5718 200 0.249745
12047 1505 0.199796
12047 1508 0.199796
19121 749 0.166497
10128 2537 0.199308
19121 814 0.166497
7720 14838 0.166701
10128 2724 0.199919
6749 576 0.499479
18090 991 0.998979
3054 3608 0.250302
5718 681 0.249745
20009 103 0.227272
12446 12169 0.249745
17947 67 0.998852
15885 35 0.200063
17488 4191 0.202019
4371 5889 0.111
7750 8065 0.199819
11761 35 0.196509
12047 2109 0.199796
12792 152 0.499502
12792 172 0.499478
14222 10494 0.124874
17345 3480 0.166993
11761 308 0.389626
20581 4687 0.998979
3656 1165 0.166496
17285 17985 0.166505
1391 14430 0.110998
10098 10638 0.200881
10098 10644 0.196569
187 20649 0.0539773
15885 647 0.198299
6606 446 0.142657
15885 807 0.200206
3656 1467 0.0832484
15968 16217 0.114589
6004 3644 0.110998
7780 1651 0.250474
7780 1652 0.250474
19633 20475 0.251802
7607 7941 0.19979
2482 665 0.124873
10730 943 0.199796
4371 6899 0.111
13680 55 0.998979
676 9963 0.124873
676 9964 0.124873
3942 3920 0.111101
8525 3 0.193541
12649 156 0.165604
4168 20397 0.0554973
4168 20398 0.0554973
4168 20401 0.0554973
3942 4021 0.111106
3942 4029 0.111106
3942 4042 0.111106
3942 4043 0.111106
3942 4044 0.111106
17804 401 0.998979
3370 12 0.0837819
5718 2151 0.249745
4401 103 0.998979
1564 9291 0.998979
277 69 0.346275
2482 1165 0.124872
277 93 0.421699
15885 1640 0.200206
3370 308 0.18256
2482 1339 0.124873
11761 1640 0.206423
3370 375 0.0457855
3370 381 0.0457855
17947 1870 0.000127563
819 11610 0.055499
1451 1415 0.998979
3370 472 0.0914248
277 377 0.231005
3656 2539 0.0832484
2482 1508 0.124873
20009 2139 0.259837
1248 14885 0.332993
3370 636 0.0457855
17488 6204 0.202019
10730 1927 0.199796
3799 3768 0.998979
14568 35 0.195645
2482 1719 0.124873
20754 274 0.110998
3370 770 0.0457855
20754 313 0.110998
20754 330 0.110998
10444 35 0.237338
14568 171 0.197581
6749 3021 0.4995
14568 247 0.201881
10587 1165 0.998979
676 11131 0.124873
12649 1273 0.165604
10444 195 0.238508
3370 1016 0.0457855
17488 6648 0.202019
134 3 0.389083
17059 3614 0.249745
819 12331 0.0554989
6320 259 0.110998
6004 5375 0.110998
134 104 0.609896
7351 331 0.998979
1165 144 0.332993
9413 404 0.00122685
19550 6874 0.998979
10527 15839 0.153688
10444 479 0.046117
3656 3426 0.166497
819 12659 0.055499
819 12664 0.055499
819 12665 0.0554986
2339 1458 0.110998
10444 699 0.238508
1165 446 0.332993
14568 864 0.201936
6320 620 0.110998
3370 1590 0.0457855
2482 2593 0.124873
12649 1911 0.165604
17518 37 0.332993
3370 1671 0.0457855
16487 65 0.249741
3656 3785 0.166497
3656 3786 0.0832484
3656 3794 0.0832484
3656 3795 0.166497
13191 13492 0.110998
13191 13493 0.110998
13191 13498 0.110998
16487 291 0.499492
10414 8372 0.249745
17518 406 0.110998
7208 115 0.938682
17518 446 0.110998
10843 11511 0.998979
10527 16638 0.0768443
19204 19984 0.249745
12363 308 0.110974
2738 12372 0.219022
3370 2149 0.0457855
2738 12382 0.109511
4228 8374 0.166497
1391 17528 0.110998
10527 16859 0.0768443
10730 3563 0.199796
15539 16018 0.142711
15539 16019 0.142711
15539 16020 0.142711
11731 10809 0.110998
8894 19944 0.124873
8894 19945 0.124873
19121 4894 0.166497
8894 19946 0.124873
20754 1880 0.110998
10068 21022 0.249862
10068 21023 0.249862
10068 21024 0.249862
6320 1467 0.221996
1022 301 0.142711
10700 10864 0.199796
7208 543 0.0602974
12506 1817 0.998979
17375 35 0.998979
10700 11160 0.199796
10700 11161 0.199796
15313 103 0.310435
16344 145 0.124872
6320 2007 0.110998
16344 278 0.374617
12649 3241 0.165604
15313 272 0.172136
8781 12400 0.332993
11874 12517 0.998979
2482 4059 0.124873
2941 3 0.998979
14222 14762 0.124874
14222 14763 0.124874
14222 14764 0.124874
10444 2389 0.238508
879 44 0.0665608
3972 145 0.332993
879 53 0.0673097
1910 115 0.124839
6320 2317 0.110998
12363 1590 0.222003
19580 1841 0.998979
2881 14666 0.166497
9127 550 0.998979
2881 14705 0.166497
879 301 0.399184
879 331 0.199682
12190 7868 0.166497
8525 3790 0.20136
6320 2746 0.110998
6034 748 0.998979
5003 750 0.166499
10730 5039 0.199796
12905 13335 0.998979
10158 997 0.199829
11731 12331 0.110998
8525 4071 0.20136
18918 19795 0.166497
18918 19796 0.166497
13108 210 0.199799
503 20359 0.0748565
12363 2321 0.221997
3370 4095 0.0457855
503 20411 0.0748565
8525 4277 0.20136
879 1021 0.0665608
1767 53 0.343452
879 1091 0.0665608
1767 103 0.483801
6606 5455 0.142721
8954 7579 0.249745
962 16585 0.0574582
15313 1711 0.172136
104 10483 0.0624216
10414 10874 0.249745
16487 3015 0.249746
3972 1671 0.110998
6922 743 0.33286
18120 67 0.285703
18120 79 0.142852
8954 8041 0.249745
5003 1790 0.166496
706 7826 0.221996
18120 171 0.427572
706 7827 0.110998
706 7831 0.110998
706 7832 0.110998
706 7833 0.110998
5003 1836 0.166496
17059 7350 0.49949
12965 69 0.199759
14425 3285 0.998979
8525 5167 0.20136
5003 2030 0.166496
10158 2214 0.199665
9872 179 0.332993
6320 4174 0.110998
6606 6304 0.142721
1624 20 0.81701
3686 115 0.998979
593 20 0.332974
503 21551 0.0748565
1624 82 0.18197
1910 2151 0.249755
593 103 0.333042
6320 4394 0.110998
12363 3558 0.111001
4371 12556 0.111
19836 13073 0.144621
879 2239 0.0665608
4228 11574 0.166497
9872 479 0.332993
10271 10756 0.998979
9413 4632 0.0319764
593 279 0.332963
16344 2818 0.249745
10903 647 0.998979
13108 1750 0.199795
3054 10660 0.250301
6606 6765 0.14272
6606 6766 0.142721
6606 6767 0.142721
3972 2591 0.110998
21070 55 0.998979
12619 13134 0.142711
12619 13135 0.142711
6606 6838 0.142721
9872 797 0.332993
12822 62 0.199792
5718 8076 0.249745
17518 4349 0.110998
8924 16404 0.111
9729 63 0.111
7667 20 0.332987
9729 93 0.33298
8698 172 0.49949
7291 19598 0.000176372
7291 19599 0.259128
7291 19600 0.369856
15313 3466 0.344272
450 44 0.0624365
104 12372 0.0312095
10128 10657 0.199919
10128 10658 0.199919
10128 10659 0.199915
450 149 0.062436
450 200 0.124873
450 214 0.0624365
450 216 0.0624365
17518 4872 0.110998
2339 6473 0.110998
6636 557 0.332993
8781 16043 0.332993
15170 2962 0.110998
450 506 0.0624362
19866 7277 0.998979
16803 37 0.00032329
10158 3977 0.199829
1910 3785 0.124877
12679 67 0.168736
1910 3896 0.249755
450 810 0.0624355
10015 3203 0.329445
10158 4247 0.199829
3972 4062 0.110998
3972 4063 0.110998
3972 4064 0.110998
3972 4065 0.110998
12679 259 0.168832
8924 17573 0.111
8924 17574 0.111
8924 17575 0.111
8924 17576 0.111
1910 4049 0.124877
18865 519 0.110998
3400 48 0.110512
3400 67 0.114886
18865 568 0.110998
18865 572 0.110998
17834 576 0.998979
9985 10603 0.998979
18120 2673 0.142852
9729 1388 0.111
13507 13803 0.0288961
19520 20254 0.222416
19520 20255 0.222416
19520 20256 0.222416
6636 1443 0.332993
7667 1485 0.332996
3400 331 0.221023
12679 647 0.154914
1338 372 0.166496
1481 1437 0.917853
15742 8039 0.998979
12363 5959 0.111001
16803 1016 0.332885
3400 620 0.110512
12822 1987 0.199797
3829 3774 0.335095
3829 3775 0.334997
1338 692 0.166497
12190 12306 0.166497
3829 3910 0.328887
18865 1430 0.110998
6350 27 0.319939
450 1911 0.0624363
4228 14339 0.166497
4228 14340 0.166497
4288 89 0.49949
20754 7776 0.110998
6350 171 0.359102
14538 14939 0.998979
3370 8567 0.0457855
1338 1341 0.166497
1338 1342 0.166497
1338 1343 0.166497
1338 1344 0.166497
1022 6461 0.142712
3400 1467 0.110512
13108 4881 0.199795
12965 3895 0.199805
12679 1841 0.168832
450 2539 0.0624364
2166 14901 0.110998
2166 14902 0.110998
2166 14906 0.110998
6636 2782 0.332993
16517 19 0.142802
16517 62 0.142173
16517 103 0.142795
15629 1107 0.00793817
7667 2938 0.332996
12047 12306 0.199796
16517 158 0.142802
9699 10212 0.998979
8412 981 0.998979
17345 13602 0.157819
19610 377 0.110998
10331 103 0.998979
19610 429 0.110998
17518 7539 0.110998
9729 3206 0.111
17548 402 0.198938
12047 12550 0.199796
5176 89 0.142929
450 3021 0.0624364
19610 554 0.110998
3370 9297 0.0457855
3400 2139 0.110512
13108 5532 0.199795
1052 37 0.502017
20754 8898 0.110998
21 233 0.110987
5176 446 0.141407
21 324 0.110999
21 327 0.110999
450 3431 0.0624363
21 518 0.110999
10730 11178 0.199796
2083 668 0.998979
12536 2085 0.110998
5003 6994 0.166496
5003 6995 0.166496
12250 62 0.166436
10188 3 0.398096
21529 375 0.166497
12250 104 0.166375
12250 180 0.166538
19091 19868 0.998979
3370 10218 0.0457855
21529 593 0.166497
21529 631 0.166497
909 20 0.166496
4002 171 0.998979
909 79 0.332993
19610 1841 0.110998
5462 3472 0.990722
12679 3705 0.168832
10188 577 0.200288
1052 1323 0.496963
12536 2752 0.110998
1022 8624 0.142712
7238 1652 0.249745
21 1554 0.221998
21 1583 0.110999
15200 20 0.332897
15200 62 0.333041
12935 13340 0.998979
3400 3827 0.110512
3400 3828 0.110512
10188 1099 1.98437e-05
18948 19850 0.249745
18948 19851 0.249745
6922 7190 0.33306
6922 7191 0.33306
19610 2500 0.110998
909 1000 0.166497
909 1001 0.166497
909 1002 0.166497
13138 359 0.166497
247 18485 0.110998
247 18486 0.110998
12250 1489 0.166544
5921 308 0.110998
5921 342 0.110998
21529 1928 0.166497
12536 3764 0.110998
12536 3795 0.110998
7095 1592 0.998979
21243 35 0.166497
12536 3888 0.110998
19181 26 0.199796
12250 1873 0.166544
19610 3131 0.110998
766 576 0.332993
15343 2066 0.332993
5921 812 0.110998
13424 3248 0.998979
10045 1122 0.199796
13138 1224 0.166494
10188 2197 0.200288
10188 2214 0.200288
12995 308 0.119822
10474 4336 0.998979
15170 8585 0.110998
623 2 0.110998
10015 8539 0.669534
12995 446 0.124804
21243 750 0.166497
8871 402 0.110998
15343 2741 0.332993
12995 647 1.6514e-05
849 16664 0.0326919
10301 10823 0.998979
12536 4761 0.110998
766 1328 0.332993
12077 8895 0.998979
21243 997 0.166497
21243 1092 0.166497
19181 1048 0.199794
5921 1668 0.110998
12649 13164 0.00535492
12649 13165 0.165604
12649 13166 0.165604
5176 3777 0.142929
12852 116 0.209897
15170 9434 0.110998
10790 103 0.998979
8871 1072 0.110998
7697 26 0.110972
19467 3480 0.998979
12852 211 0.164336
7697 90 0.111001
5635 27 0.110998
5635 74 0.110998
7697 144 0.111001
1511 19 0.111073
2828 2123 0.998979
480 3 0.255734
480 44 0.12922
480 67 0.226365
8728 327 0.49949
17345 18029 0.161538
1511 149 0.110988
10158 10680 0.199829
13138 2594 0.166497
5921 2404 0.110998
19610 4881 0.110998
7697 465 0.111001
450 7415 0.0624362
1511 355 0.110988
480 372 0.12922
1511 420 0.110988
623 1462 0.110998
21499 11388 0.998979
4604 647 0.110998
1165 12851 0.332993
16833 48 0.099898
19926 145 0.998979
10045 2919 0.199796
623 1645 0.110998
12995 2037 0.125723
11821 1016 0.49949
5921 2923 0.110998
10647 6 0.998979
16833 200 0.099898
10045 3081 0.199796
10045 3082 0.199796
9616 18 0.00405984
15200 3266 0.333042
4604 888 0.110998
1767 10022 0.171727
9413 13340 0.965776
623 1902 0.110998
5492 12 0.498106
4604 1037 0.221996
21243 2595 0.166497
11046 10501 0.0100254
12995 2366 0.125723
12995 2367 0.125723
12679 7490 0.168832
5462 7283 0.00825701
9616 273 0.165833
7697 1257 0.111001
5176 5310 0.142929
5635 1228 0.110998
7697 1294 0.111001
18865 7818 0.110998
12852 1485 0.203134
2399 144 0.988156
16833 593 0.099898
480 1117 0.12922
5492 363 0.500874
104 20705 0.0312108
13740 684 0.124873
12363 12960 0.111001
12363 12961 0.111001
6952 3630 0.249745
15885 16217 0.200206
3859 3614 0.998979
623 2510 0.110998
3370 14950 0.0457855
6952 3818 0.249745
2482 16069 0.124873
13740 1063 0.124873
6952 3948 0.249745
4604 1841 0.110998
12852 2101 0.209897
15170 11464 0.110998
12566 115 0.191025
1511 1849 0.110988
8871 3108 0.110998
8698 9261 0.49949
19783 401 0.49949
17059 17870 0.249745
2256 48 0.14271
5176 6311 0.142929
7381 7481 0.998979
194 93 0.0760165
2256 158 0.142712
19407 20160 0.00205105
2339 15541 0.110998
2339 15542 0.110998
2339 15543 0.110998
2339 15544 0.110998
2339 15545 0.110998
2339 15560 0.110998
2339 15561 0.110998
7238 6495 0.249745
4604 2321 0.110998
8442 427 0.166497
14568 14966 0.201936
8442 478 0.166497
194 247 0.092298
194 301 0.184579
2256 410 0.142712
14628 872 0.332993
16547 3 0.000376906
8728 2891 0.49949
14485 4 0.998979
11821 3019 0.49949
7697 2896 0.111001
13138 5114 0.166497
9616 1961 0.165833
1910 13035 0.124877
194 743 0.0922982
8442 1000 0.166497
2256 810 0.14271
10361 37 0.998979
15945 3303 0.199796
623 3870 0.110998
623 3871 0.110998
623 3872 0.110998
8585 2101 0.249745
9729 10372 0.111
9729 10373 0.111
9729 10385 0.111
6237 35 0.126325
12995 4344 0.125722
4175 4 0.110998
15170 12674 0.110998
15599 15768 0.998979
1022 14322 0.142712
6237 180 0.142218
4175 144 0.110998
21529 6856 0.166497
51 55 0.0618202
1022 14438 0.142712
1022 14439 0.142711
1022 14440 0.142712
51 68 0.346978
51 69 0.0622092
19610 7877 0.110998
51 98 0.0913327
7268 335 0.49949
51 171 0.157977
6237 375 0.146087
11535 1592 0.998979
194 1293 0.092298
51 308 0.0310959
51 331 0.000124983
1082 363 0.166497
11678 2756 0.49949
12566 1807 0.201968
16773 17347 0.998979
11046 13102 0.988954
16404 12 0.152152
8585 2878 0.249745
7554 2873 0.49949
13740 3204 0.124873
16547 1269 0.499301
10218 68 0.000338657
6952 6126 0.249745
10218 98 0.196939
7125 19 0.110998
19121 19906 0.166497
19121 19907 0.166497
10218 195 0.404672
3370 17473 0.0457832
12566 2515 0.201996
7125 327 0.110998
12965 12817 0.199805
7125 343 0.110998
15945 4742 0.399592
13740 3654 0.124873
6004 21857 0.110998
6004 21858 0.110998
6004 21859 0.110998
6004 21860 0.110998
51 1208 0.0309298
2399 3344 0.00439553
7125 457 0.110998
6237 1489 0.14609
9616 3744 0.165754
1082 1495 0.166497
20009 19516 0.259836
20385 63 0.213503
939 528 0.124873
51 1590 0.0309298
450 11892 0.0624365
12965 13344 0.199805
12965 13346 0.199805
51 1715 0.0309298
16404 1208 0.169325
2399 3857 0.00642821
4175 1905 0.110998
14199 180 0.998979
16833 4364 0.099898
21416 446 0.998979
19354 404 0.024138
16833 4424 0.099898
4175 1997 0.110998
4175 2004 0.110998
11106 247 0.142691
20754 18019 0.110998
939 1047 0.124873
939 1048 0.124873
939 1049 0.124873
939 1050 0.124873
939 1051 0.124873
939 1054 0.124873
939 1059 0.124873
13168 472 0.110998
51 2139 4.75793e-06
1082 2180 0.166497
19640 2786 0.998979
11761 19960 0.206423
16261 647 0.0824483
13168 593 0.110998
16404 1750 0.169376
16261 760 0.0833211
7268 2555 0.49949
6237 2545 0.146087
16833 4977 0.099898
13168 770 0.110998
5891 14911 0.998979
7125 1671 0.110998
20385 1165 0.112211
12822 13297 0.199797
12822 13298 0.199797
12822 13299 0.199797
18180 212 0.166497
15170 15522 0.110998
15170 15523 0.110998
15170 15524 0.110998
15170 15529 0.110998
20009 20835 0.252034
11106 1099 0.142715
10963 82 0.164526
16344 16677 0.124872
16344 16678 0.124872
16118 301 0.998979
796 899 0.998979
766 8075 0.332993
10963 210 0.164525
3746 18 0.49949
7125 2195 0.110998
6982 1200 0.142711
13168 1406 0.110998
7840 7412 0.00928241
653 37 0.111025
1684 69 0.629437
653 48 0.110994
17149 583 0.110998
15945 6695 0.199796
11106 1427 0.142715
653 82 0.554972
18180 634 0.166497
8585 5489 0.249745
1481 13489 0.0811268
1684 180 0.0980806
9932 446 0.399458
1082 3285 0.166497
11994 593 0.49949
17149 773 0.110998
17518 18212 0.110998
3746 377 0.249745
16261 1814 0.0833211
13168 1721 0.110998
7125 2601 0.110998
13281 10004 0.249745
10963 743 0.0118275
18180 991 0.166497
17149 959 0.221996
5176 10891 0.142929
5176 10892 0.142929
11994 864 0.49949
19181 8324 0.199796
10045 9067 0.199796
1511 6761 0.110988
1511 6762 0.110988
1511 6763 0.110988
1511 6764 0.110988
15629 12372 0.991041
17149 1188 0.110998
13913 89 0.111286
13913 93 0.108665
16261 2261 0.0833211
6982 1981 0.142711
15975 247 0.332798
9616 6200 0.165834
10963 1146 0.164526
6237 4133 0.146087
10963 1224 0.164526
6237 4234 0.146087
13168 2421 0.221996
14628 5680 0.332993
1541 211 0.199796
653 1224 0.110994
17149 1782 0.110998
17149 1885 0.110998
12536 13085 0.110998
12536 13086 0.110998
12536 13087 0.110998
8871 8883 0.110998
15343 11197 0.332993
20385 3160 0.112211
15915 15350 0.998979
7697 7974 0.111001
7697 7975 0.111001
1684 1665 0.271462
3370 21193 0.000219095
6839 1852 0.199796
2256 5823 0.142712
13770 93 0.998979
7584 82 0.199796
7125 4175 0.110998
15975 1382 0.333091
6553 103 0.000306975
6553 104 0.140458
6839 2165 0.599388
14169 10606 0.998979
4175 5230 0.110998
1398 34 0.399592
1398 69 0.199796
18180 2696 0.166497
11708 446 0.285338
1398 129 0.199796
7584 324 0.199796
7584 330 0.199796
7584 401 0.199796
11106 3631 0.142715
17894 814 0.110998
20754 21450 0.110998
20754 21451 0.110998
11678 7956 0.49949
6553 647 0.14221
1541 1540 0.199796
7554 7897 0.49949
2256 6793 0.142712
8871 10086 0.110998
51 5745 0.0309298
16261 4344 0.0833211
3889 3970 0.998979
11708 1148 0.285457
16261 4460 0.0833211
450 16313 0.0624363
10534 278 0.25002
8472 233 0.110991
17751 593 0.998979
18180 3767 0.166497
12596 528 0.142711
1255 180 0.199795
14628 7768 0.332993
19437 20214 0.998979
10963 3563 0.164526
10534 641 0.25002
1398 1403 0.199796
8472 681 0.221997
6553 1656 0.143201
13913 2923 0.11129
17894 2057 0.110998
450 16898 0.0624365
7125 5894 0.110998
17894 2136 0.110998
7441 810 0.249745
12852 10233 0.00234952
2286 719 0.110998
8585 9114 0.249745
18865 16660 0.110998
879 20211 0.0665608
16577 308 0.110004
194 8043 0.092298
16577 356 0.111122
194 8044 0.092298
51 7050 0.0309298
51 7051 0.0309298
11708 2306 0.142728
17894 2511 0.110998
13281 13651 0.249745
21 14265 0.110999
13281 13652 0.249745
13281 13653 0.249745
653 4052 0.110994
2143 19 0.110991
2143 62 0.11099
81 3 0.572882
81 67 0.426098
13168 5608 0.110998
2143 180 0.110991
14515 572 0.249745
5921 12602 0.110998
2143 210 0.110991
1255 1244 0.199796
8472 1525 0.110999
6553 2492 0.143201
1255 1318 0.199796
1255 1319 0.199796
1255 1320 0.199796
5236 429 0.142711
18865 17312 0.110998
16803 17256 0.332885
14944 3928 0.998979
16404 7082 0.338751
13740 10080 0.124873
13138 13151 0.166497
13138 13152 0.166497
13740 10110 0.124873
11708 2906 0.142728
16803 17424 0.332885
6839 4825 0.199796
17465 48 0.182425
17465 103 0.0918229
2286 1681 0.110998
13108 20476 0.199795
2143 674 0.110991
18925 3248 0.249745
8472 1926 0.110999
7441 1896 0.249745
6696 3949 0.49949
11279 19 0.142711
20558 363 0.998979
10248 62 0.166179
11279 107 0.142711
17894 3427 0.110998
16261 6460 0.0833211
8472 2123 0.110999
7441 2096 0.249745
1112 895 0.998979
9217 178 0.124872
9217 195 0.249745
2286 2030 0.110998
2000 34 0.0908166
194 9202 0.0922982
7441 2272 0.249745
17894 3629 0.110998
2000 69 0.090814
13341 446 0.332629
6124 248 0.166481
9217 356 0.124872
11279 444 0.142711
8472 2424 0.221997
13168 6676 0.110998
969 180 0.199795
17894 3795 0.221996
11106 6672 0.142715
1541 4344 0.39959
2143 1328 0.111054
13484 1687 0.998979
2000 356 0.0908166
2143 1430 0.110991
16404 8051 0.169376
9217 680 0.124872
10218 7916 0.202336
18353 82 0.0768445
16434 1068 0.998979
16577 2108 0.111122
13198 12 0.142709
12453 2057 0.998979
6696 4983 0.49949
12995 13377 0.125723
12995 13378 0.125723
6553 3959 0.143201
16517 16582 0.142802
9074 4 0.124873
21589 1497 0.110998
6982 7231 0.142711
6982 7232 0.142711
6982 7233 0.142711
6982 7234 0.142711
6982 7235 0.142711
969 906 0.199796
10105 180 0.998979
12167 248 0.110998
4950 34 0.334067
17465 1492 0.144964
16577 2531 0.111122
21589 1667 0.110998
16517 16879 0.142802
16517 16880 0.142802
4175 9334 0.110998
969 1066 0.199796
1541 5193 0.199796
969 1092 0.199796
969 1093 0.199796
4604 12495 0.221996
17465 1635 0.144964
2000 1165 0.363266
9217 1418 0.124872
11279 1489 0.142711
12167 508 0.110998
12596 3634 0.142711
10218 8724 0.194694
13198 631 0.142712
7840 13798 0.989697
1857 301 0.14271
4950 404 0.330846
13740 11949 0.124873
6124 1496 0.1665
16577 2852 0.111122
16577 2898 0.111122
12167 719 0.110998
1857 402 0.14271
623 13706 0.110998
2256 10729 0.142712
2286 3589 0.110998
16547 10210 0.249651
10248 1864 0.166327
5236 2786 0.14271
12852 13306 0.209366
18865 19702 0.110998
18865 19703 0.110998
12167 1107 0.110998
13198 1146 0.142712
18353 1327 0.0768447
5236 3021 0.142712
7900 63 0.998979
12167 1245 0.110998
826 899 0.998979
12596 4389 0.142711
3776 20 1.04478e-06
17465 2496 0.144964
4604 13382 0.110998
3776 82 0.0994947
14515 3571 0.249745
9074 1382 0.124873
13198 1619 0.142712
17548 18238 0.800041
2143 3423 0.110991
17149 8010 0.110998
3919 1456 0.998979
21589 3046 0.110998
3776 446 0.103526
9074 1671 0.124873
1857 1449 0.142721
18925 6105 0.249745
12167 1836 0.110998
13198 1910 0.142712
6869 748 0.998979
13943 12 8.74194e-05
17894 6344 0.110998
9217 3032 0.124872
12912 93 0.141212
12912 103 0.140387
13943 151 0.197067
18067 301 0.166497
13341 3267 0.333175
3746 8185 0.249745
7870 8318 0.998979
18067 444 0.166497
17179 1441 0.998979
16005 514 0.998979
21160 679 0.998979
3776 1165 0.0994948
12250 17838 0.166544
18353 2674 0.0768447
6350 19722 0.319939
2000 3264 0.181633
5635 14686 0.110998
2286 5397 0.110998
5635 14722 0.110998
5635 14723 0.110998
5635 14724 0.110998
5635 14725 0.110998
5635 14726 0.110998
18353 2898 0.0768447
7757 543 0.249775
10248 3700 0.166325
7757 615 1.50995e-05
683 1426 0.49949
13913 7987 0.11129
12566 13099 0.201996
12566 13100 0.201996
12167 2849 0.110998
13740 14175 0.124873
18353 3082 0.0768447
19986 63 0.239116
19986 69 0.253152
480 14877 0.12922
11881 895 0.998979
18353 3153 0.0768447
4288 20134 0.249745
4288 20135 0.249745
15862 19 0.110998
13943 1030 0.0135568
20385 10460 0.112211
3633 724 0.110997
18067 1188 0.166497
18067 1230 0.166497
1082 11978 0.166497
3633 817 0.110997
9074 3081 0.124873
15862 272 0.110998
6583 26 0.166581
9217 4236 0.124872
10963 9423 0.164526
8645 152 0.110998
3633 1030 0.111003
6583 104 0.166076
1857 3067 0.14271
21589 4766 0.110998
3776 2172 0.0994948
16261 10758 0.0833211
12912 1456 0.143476
10075 10638 0.998979
12596 6667 0.142711
1082 12469 0.166497
8788 1449 0.998979
397 211 0.250506
1857 3346 0.28542
21589 5005 0.110998
6583 444 0.166581
17149 10014 0.110998
19610 20376 0.110998
12024 2745 0.332993
11279 4798 0.142711
8645 641 0.110998
19843 18 0.110998
15945 16294 0.199796
6583 653 0.166581
13943 1913 0.197067
11279 4983 0.142711
19986 1165 0.253356
13341 5141 0.333175
13657 55 0.998979
16291 4344 0.998979
19241 3434 0.998979
19843 465 0.110998
5921 18488 0.110998
5921 18489 0.110998
21017 1544 0.332993
10534 7384 0.248918
6440 103 0.998979
51 13258 0.0309298
19843 576 0.110998
9932 10585 0.399681
9932 10586 0.199841
15862 1630 0.110998
254 157 0.110998
3776 3344 0.19899
3347 308 0.00503861
9533 519 0.249745
5236 6551 0.142712
8645 1535 0.110998
11106 11860 0.142715
11106 11863 0.142715
8645 1543 0.110998
6583 1493 0.166581
19843 905 0.110998
254 372 0.110998
14515 6977 0.249745
254 429 0.110998
20731 53 0.19979
7238 21168 0.249745
7238 21172 0.249745
17465 6204 0.144876
12626 963 0.998979
19843 1188 0.110998
15576 47 0.110998
15862 2110 0.110998
13198 5105 0.142712
14545 37 2.49267e-05
15576 104 0.110998
7757 2954 0.249761
3776 3859 0.0994948
3776 3862 0.0994948
3776 3863 0.0994948
3776 3864 0.0994948
7471 923 0.998979
4950 4943 0.334067
1285 766 0.199796
6583 1961 0.166581
15862 2269 0.110998
20731 377 0.199801
14545 217 0.142708
12912 3264 0.143476
8645 2111 0.110998
19843 1463 0.110998
2000 6087 0.181633
12483 278 0.998979
17465 6635 0.144964
15862 2500 0.110998
15689 8700 0.998979
111 68 0.998979
3347 1224 0.496971
20731 750 0.199788
4175 14586 0.110998
19843 1840 0.110998
10707 2601 0.399589
14545 681 0.142708
15546 7901 0.998979
18210 4983 0.998979
13514 743 0.998979
20731 995 0.199801
18526 20 0.221994
14402 20 0.200366
18925 10408 0.249745
19700 1215 0.998979
16833 17532 0.099898
16833 17533 0.099898
16833 17534 0.099898
16833 17539 0.099898
14402 53 0.197517
4175 15110 0.110998
10278 6 0.00232016
17495 276 0.199796
10278 69 0.497097
21 22301 0.110999
7328 1037 0.110998
19986 3480 0.253356
17495 368 0.199796
19181 19914 0.199796
19181 19915 0.199796
254 1950 0.110998
13371 331 0.110998
15576 1480 0.110998
18895 17980 0.998979
13371 411 0.110998
12024 5503 0.332993
4092 152 0.110998
21529 22214 0.166497
7328 1370 0.110998
8871 19897 0.110998
8871 19898 0.110998
8871 19899 0.110998
8871 19900 0.110998
18353 6917 0.0768446
1142 1268 0.998979
999 301 0.498702
12912 4904 0.143476
1857 6653 0.14271
254 2509 0.110998
12596 10072 0.142711
15862 4043 0.110998
16321 18 0.110998
254 2601 0.110998
16321 82 0.110998
16321 104 0.110997
15862 4207 0.110998
15290 103 0.332996
14545 2151 0.142708
254 2782 0.110998
13025 13489 0.49949
13025 13490 0.49949
1285 2896 0.199796
12197 171 0.329133
15576 2351 0.110998
16321 327 0.110998
12197 247 0.334879
17352 577 0.110998
1887 104 0.665986
21017 4798 0.332993
16547 16963 0.249651
856 87 0.0416241
20731 2836 0.199801
12197 577 0.334968
17352 743 0.110998
397 4344 0.2495
13913 12993 0.11129
10278 1656 0.499562
17495 1911 0.199796
8472 10875 0.110999
9533 3795 0.249745
856 479 0.0416243
10534 11049 0.25002
12167 8049 0.110998
1887 576 0.332993
999 1589 0.500277
16321 1062 0.110998
856 583 0.041624
12167 8128 0.110998
16178 74 0.110998
856 624 0.0416243
856 631 0.0416243
12882 13332 0.97772
16178 116 0.221996
12882 13333 0.0212593
13085 55 0.0537444
11708 12317 0.142728
21243 21854 0.166497
11023 37 0.998979
12054 93 0.249745
15290 1219 0.332992
20445 1452 0.332993
856 890 0.0416243
856 915 0.0416243
856 921 0.041624
856 922 0.0416243
856 923 0.0416243
856 924 0.0416242
15576 3431 0.110998
856 925 0.0416243
856 926 0.0416242
856 927 0.0416243
856 928 0.0416243
856 929 0.0416242
856 930 0.0416243
856 931 0.0416243
856 932 0.0416243
856 933 0.0416243
856 934 0.0416243
856 935 0.0416243
856 936 0.0416243
856 937 0.0416243
51 17326 0.0309298
3949 1061 0.249745
7930 171 0.333131
8645 5362 0.110998
1744 44 0.0768444
1744 66 0.0768444
3806 164 0.110998
21476 1757 0.998979
16577 10827 0.111122
10135 1419 0.998979
397 5245 0.249487
1744 273 0.0768444
16178 740 0.110998
16178 751 0.221996
10391 10850 0.998979
9104 1635 0.199796
713 372 0.249745
6899 674 0.199796
9104 1772 0.199796
3949 1693 0.49949
13913 14357 0.11129
20445 2266 0.332993
13913 14358 0.11129
13913 14359 0.11129
13913 14360 0.11129
18526 3279 0.110998
7328 3958 0.110998
14402 3181 0.200363
16261 16586 0.0833211
16261 16587 0.083321
8359 4052 0.0128605
13371 3212 0.110998
16261 16636 0.0833211
16261 16637 0.0833211
9849 67 0.192893
9849 152 0.201597
6553 13400 0.143201
17495 3515 0.199796
5725 104 0.0993507
5725 171 3.99707e-05
1744 1101 0.0768473
5725 210 0.100032
5725 233 0.0993292
9616 20858 0.165833
9616 20859 0.165834
16035 572 0.199796
3663 211 0.110998
9849 426 0.201597
10248 10736 0.166319
10248 10737 0.166327
10248 10738 0.166327
10248 10739 0.00117622
5725 375 0.100033
3663 327 0.110998
15290 2740 0.332992
12054 1667 0.124873
3663 444 0.110998
3663 446 0.110998
16178 1863 0.110998
16321 2900 0.110998
19843 6087 0.110998
3663 472 0.110998
12596 13117 0.142711
12596 13118 0.142711
9849 754 0.201296
5725 678 0.100032
18526 4161 0.110998
20016 115 0.998979
16035 1016 0.199796
2286 12911 0.110998
21047 180 0.197177
397 6730 0.124743
9849 891 0.201597
7757 8073 0.249755
7757 8074 0.249674
16321 3220 0.110998
16035 1218 0.199796
10737 103 0.249255
12799 178 0.199796
8675 53 0.199795
10737 211 0.249897
15892 372 0.110998
8675 149 0.199796
1458 53 0.249669
19128 1640 0.199796
17292 17987 0.998979
17495 4717 0.199796
11768 479 4.16934e-06
4092 4341 0.110998
1744 2225 0.0768444
6613 327 0.166497
8675 410 0.199796
1744 2272 0.0768444
15892 695 0.110998
10737 576 2.56486e-06
1458 308 0.083247
8442 21024 0.166497
13371 4881 0.110998
8442 21123 0.166497
8442 21124 0.166497
1458 472 0.166248
1744 2537 0.0768444
15975 16313 0.333091
11279 12110 0.142711
18842 68 0.000796104
13085 2980 0.945235
1744 2728 0.0768444
19783 21743 0.49949
19128 2258 0.199796
6613 1030 0.0832484
3949 4034 0.249745
4092 5064 0.110998
18842 404 0.998183
19873 466 0.998979
19128 2519 0.199796
12054 3426 0.124873
9962 10599 0.138513
9074 11596 0.124873
9962 10601 0.860466
284 65 0.0977779
284 69 0.11892
15749 575 0.998979
1744 3296 0.0768444
6613 1449 0.0832483
194 21863 0.0922982
194 21864 0.0922982
1458 1574 0.166524
5725 2784 0.100033
3663 2800 0.110998
284 647 0.39117
6899 3958 0.199796
6613 1925 0.083248
1458 1771 0.0835046
3806 3893 0.110998
3806 3900 0.110998
3806 3901 0.110998
3806 3902 0.110998
3806 3903 0.110998
3806 3904 0.110998
3806 3905 0.110998
3806 3906 0.110998
8645 9232 0.110998
8645 9233 0.110998
8645 9234 0.110998
11768 2165 0.333012
11768 2205 0.332952
10707 9355 0.199797
1458 1920 0.249786
7358 104 0.205948
11768 2293 0.333012
15576 7536 0.110998
14515 14679 0.249745
17006 17834 0.998979
1744 4081 0.0768444
18180 18961 0.166497
12799 2409 0.199796
7358 200 0.264095
2203 65 0.111009
12799 2443 0.199796
3633 10392 0.110997
19354 20127 0.974842
141 67 0.182299
141 69 0.178725
8359 7508 0.986119
284 1115 0.0977779
10594 1449 0.249745
9420 394 0.142711
9420 426 0.285423
10737 2520 0.249912
141 152 0.0946212
1744 4309 0.0768444
9074 12756 0.124873
7328 7591 0.221996
7328 7592 0.110998
7328 7593 0.110998
14575 647 0.284245
7328 7594 0.110998
7328 7595 0.110998
3347 8507 0.496971
141 247 0.189128
6613 2537 0.0832484
141 308 0.259645
9420 695 0.142711
7358 632 0.264842
2203 479 0.110996
6327 647 0.998979
7644 2756 0.998979
10594 1841 0.249745
10594 1871 0.249745
17525 55 0.998791
14575 1016 0.136608
2203 748 0.110996
8818 4043 0.49949
16863 17613 0.998979
4092 7011 0.110998
13401 158 0.998979
5296 964 0.199799
15892 3361 0.110998
13198 13595 0.142712
12024 12547 0.332993
17525 426 0.000188197
20385 21024 0.112211
10451 1257 0.49949
3091 67 0.941022
20385 21163 0.112211
20385 21164 0.112211
20385 21165 0.112211
1172 1120 0.998979
9706 3469 0.998979
16321 6883 0.110998
6553 17871 0.143201
7215 479 0.998979
19557 8091 0.998979
14575 1841 0.289234
10707 10968 0.199797
12513 1817 0.998979
12054 5963 0.124873
9074 14069 0.124873
9074 14072 0.124872
19444 115 0.235913
10707 11155 0.199797
15320 35 0.109478
2203 1736 0.110996
4408 2846 0.332993
5296 1911 0.39959
10165 69 0.124442
17352 7470 0.110998
6899 6158 0.199796
19444 404 0.261067
19444 432 0.0164749
17352 7558 0.110998
15320 324 0.111188
10165 171 0.24845
10165 211 0.125186
2286 17454 0.110998
2286 17455 0.110998
2286 17456 0.110998
15320 450 0.111188
141 2034 0.0945611
1917 63 0.201436
14229 14790 0.998979
5725 5310 0.100033
12370 1423 0.998979
10165 370 0.125186
15320 543 0.111188
2948 180 0.998979
1917 210 0.199386
2203 2269 0.110996
12912 12858 0.143476
19444 780 0.261067
16577 17087 0.111122
16577 17088 0.111122
5296 2414 0.199799
10451 2591 0.49949
16494 1764 0.998979
17382 783 0.998979
18067 13156 0.166497
15892 4978 0.110996
19444 995 0.224458
12799 4970 0.199796
18270 69 0.998979
16208 37 0.44697
16351 1068 0.249745
16208 68 0.062898
12912 13338 0.143476
6899 7129 0.199796
6899 7130 0.199796
18925 19832 0.249745
2143 17318 0.110991
886 975 0.665986
886 976 0.332993
16321 8677 0.110998
6613 5322 0.0832484
16351 1562 0.249745
2203 3256 0.110996
10421 10688 0.998979
2805 209 0.0851786
2805 211 0.0851786
2805 218 0.0851786
15320 1690 0.111188
1774 292 0.124873
284 4355 0.0977779
2805 401 0.0851786
713 7539 0.249745
1774 406 0.124873
14545 11080 0.142708
1774 457 0.124873
713 7597 0.249745
713 7599 0.249745
20189 68 0.998979
2805 647 0.246404
17096 69 0.000931962
2805 680 0.0711478
1774 680 0.124873
13943 14378 0.197067
13943 14379 0.197067
13943 14380 0.197067
13687 5219 0.998979
6124 17374 0.1665
6124 17375 0.1665
6124 17376 0.1665
6124 17377 0.1665
1774 874 0.249744
12972 208 0.49949
7584 20541 0.199796
2805 1020 0.0851786
16208 1462 0.489062
14003 419 0.110998
1774 1117 0.124873
1631 103 0.160956
17096 647 0.998048
13973 7905 0.998979
683 15705 0.49949
3633 14779 0.110997
21589 18560 0.110998
6613 6840 0.0832484
6613 6841 0.0832484
6613 6842 0.0832484
6613 6843 0.0832484
6613 6846 0.0832484
12084 1923 0.998979
9533 13115 0.249745
9533 13116 0.249745
19813 20632 0.998979
16208 2321 4.8849e-05
8705 48 0.199798
7674 35 0.00377891
8705 79 0.199798
10165 3212 0.125186
8705 104 0.199788
7674 211 0.142174
1488 44 0.374624
7674 278 0.142174
8705 310 0.199798
1488 104 0.249731
457 104 0.141003
15606 5745 0.998979
3633 15619 0.110997
3633 15620 0.110997
3633 15621 0.110997
3633 15622 0.110997
9736 479 0.249745
1488 278 0.124875
8705 513 0.199798
1488 327 0.124875
9104 10888 0.199796
9104 10889 0.199796
9104 10890 0.199796
18872 69 0.306534
457 528 0.142996
7674 874 0.142174
5236 20266 0.142711
16810 210 0.199796
17352 11507 0.110998
5236 20369 0.142712
5236 20370 0.142712
6643 1037 0.199796
8818 9301 0.49949
743 2970 0.998979
5469 53 0.111007
8562 191 0.221996
8562 215 0.110998
1917 4124 0.199386
8562 327 0.221996
3550 1259 0.199796
12054 10790 0.124873
3091 5393 0.057958
5469 479 0.110997
16351 4932 0.249745
5469 506 0.110997
15862 16222 0.110998
16810 914 0.199796
1631 2501 0.838023
6643 1634 0.199796
12829 1852 0.998979
9736 1819 0.249745
10022 3928 0.665986
4408 7891 0.332993
4408 7899 0.332993
3234 6862 0.998979
8675 9258 0.199796
8675 9259 0.199796
8562 1063 0.110998
7388 19 0.110998
4092 13271 0.110998
4092 13272 0.110998
4092 13273 0.110998
4092 13274 0.110998
4092 13275 0.110998
10165 5308 0.125186
6357 69 0.332884
1202 19 0.249745
8186 20763 0.998979
3550 2228 0.199796
14545 14942 0.142708
14545 14943 0.142708
14545 14944 0.142708
8562 1480 0.110998
12686 1635 0.249745
7358 7628 0.264095
5469 1440 0.110997
5725 10671 0.100033
5725 10672 0.100033
1202 328 0.249745
397 16708 0.124744
5725 10878 0.100032
1488 2573 0.124875
2233 549 0.110998
5981 20229 0.998979
16524 69 0.111003
15320 6246 0.111188
18067 18714 0.166497
457 2825 0.142995
12054 12419 0.124873
10338 103 0.631789
2203 8058 0.110996
16524 324 0.11101
15320 6497 0.111188
5469 2110 0.110997
2233 1014 0.110998
10481 1273 0.166562
6643 3204 0.199796
7674 3248 0.142174
16524 450 0.111011
18353 21023 0.0768447
18353 21027 0.153689
12054 12657 0.124873
1345 2080 0.332993
21589 22241 0.110998
14402 14850 0.200367
14402 14851 0.200367
3121 171 0.333011
1202 1147 0.249745
12686 2534 0.249745
1917 6309 0.199386
18353 21169 0.0768447
7930 12649 0.332699
18353 21170 0.0768447
18353 21174 0.0768446
21589 22302 0.110998
21589 22308 0.110998
16524 647 0.221915
10338 508 0.36719
2233 1286 0.110998
15576 16047 0.110998
15576 16048 0.110998
15576 16049 0.110998
3121 301 0.665968
28 308 0.0937844
6643 3608 0.199796
15892 11257 0.110998
1774 5706 0.124873
10481 1889 0.166562
15350 44 0.110998
10737 11179 0.249912
15320 7242 0.111185
6357 1849 0.333048
10481 2000 0.166168
7388 1943 0.110998
13860 4196 0.332993
13288 115 0.998979
8133 63 0.0124416
2233 1961 0.110998
8133 103 0.968751
7388 2139 0.110998
4009 20 0.195474
14003 5486 0.110998
5469 3204 0.110997
1345 3087 0.332993
2233 2110 0.110998
916 35 0.128864
15350 574 0.110998
15350 576 0.110998
1947 180 0.110998
16524 1661 0.111011
17352 15013 0.110998
12686 3630 0.249745
28 1274 0.181039
916 278 0.216657
21536 969 0.199796
16524 1840 0.111011
916 335 0.218362
2978 404 0.998979
5469 3560 0.110997
13860 4876 0.332993
9420 9923 0.285423
3550 4634 0.399592
10195 751 0.998979
9420 9956 0.142711
916 472 0.218217
10481 2829 0.166562
1202 2601 0.249745
7674 4852 0.142174
10594 11134 0.249745
1285 18020 0.199796
1285 18021 0.199796
1285 18022 0.199796
14176 3 0.104064
12942 13340 0.998979
2805 6907 0.0851786
13860 5240 0.332993
1744 14087 0.0768444
254 18146 0.110998
10624 4238 0.998979
14003 6457 0.110998
2233 3090 0.110998
916 1014 0.216879
6643 5310 0.199796
7388 3345 0.110998
14575 10758 0.288893
2233 3212 0.110998
1947 1155 0.110998
28 2123 0.0905196
2835 178 0.142735
1947 1215 0.110998
1947 1230 0.110998
2835 278 0.142736
5296 10606 0.199791
15350 1733 0.110998
773 308 0.333497
18872 5024 0.306703
3866 470 0.110998
2835 446 0.142566
2835 480 0.142736
21250 35 0.0983287
13371 17256 0.110998
20219 68 0.998979
773 516 0.332741
12799 13285 0.199796
13371 17443 0.110998
13371 17444 0.110998
13371 17445 0.110998
13371 17450 0.110998
21250 292 0.129784
2835 789 0.142735
28 2784 0.0905196
3866 896 0.221996
13431 3248 0.998979
15207 1294 0.110998
16178 15708 0.110998
4754 52 0.249745
2692 48 0.998979
21017 21142 0.332994
630 37 0.00390518
15892 13839 0.110998
630 79 0.165846
5469 5373 0.110997
7847 377 0.332993
21250 817 0.129788
773 1224 0.332741
28 3264 0.0905196
7930 15839 0.333149
2203 11575 0.110996
18669 19306 0.998979
7674 6678 0.142174
21250 997 0.129798
11971 710 0.998979
1661 450 0.0998981
1947 2602 0.110998
1661 576 0.299693
21250 1200 0.122106
570 14914 0.998979
19843 20638 0.110998
2805 8853 0.0851786
13145 2037 0.998979
7847 864 0.332993
1947 2761 0.110998
10767 7195 0.998979
12686 6273 0.249745
1661 812 0.0998981
9766 67 0.000447985
10797 103 0.998979
9766 104 0.221702
8133 3181 0.0177869
9766 171 0.110316
1744 16368 0.0768444
9766 248 0.111086
487 34 0.000394635
487 37 0.132996
15922 7729 0.998979
487 93 0.0656224
10165 10644 0.125344
18526 19124 0.110998
17352 18063 0.110998
18526 19125 0.110998
17352 18064 0.110998
18526 19126 0.110998
17352 18065 0.110998
18526 19127 0.110998
18526 19128 0.110998
7704 353 0.998979
6673 363 0.49949
487 180 1.04388e-05
487 217 0.0666631
9909 1538 0.998979
28 4341 0.0905196
2203 12605 0.110996
3663 15744 0.110998
3663 15746 0.221996
6673 506 0.49949
11828 681 0.249745
487 342 0.0666631
3866 2589 0.110998
16035 16313 0.199796
16035 16354 0.199796
8735 780 0.998979
16840 48 0.998979
16524 5240 0.111011
254 21192 0.110998
1345 6922 0.332993
3723 1876 0.110998
457 7957 0.142996
457 7963 0.142996
4754 1988 0.249745
12716 204 0.110998
457 8031 0.142996
457 8032 0.142996
18902 446 0.678548
7561 98 0.1111
9623 171 0.998979
21250 2595 0.12958
4009 4136 0.803505
2406 18 0.142711
344 18 0.374617
12716 419 0.110998
10022 10605 0.332993
344 65 0.124872
12716 455 0.110998
28 5189 0.0905196
7561 308 0.110523
2406 154 0.142711
344 113 0.249745
16178 18066 0.110998
1375 218 0.249745
1661 2306 0.0998981
7847 2500 0.332993
21250 3003 0.129798
15952 1850 0.998979
28 5475 0.0905196
344 372 0.124872
344 410 0.124872
20821 55 0.153646
7531 7852 0.49949
7531 7857 0.49949
19933 1107 0.166497
7561 754 0.111051
1661 2636 0.0998981
17728 114 0.199796
16351 12447 0.249745
20821 375 0.169067
3866 3947 0.110998
3866 3948 0.110998
3866 3949 0.110998
3866 3957 0.110998
3866 3962 0.110998
5785 3019 0.998979
19933 1449 0.166497
6387 35 0.18587
12716 1274 0.110998
11828 2298 0.249745
7418 147 0.166497
17728 514 0.199796
16095 3568 0.49949
2406 1101 0.142711
1375 1151 0.249745
4325 233 0.166488
19414 20169 0.998979
17555 6862 0.998979
7561 1493 0.111051
7418 478 0.166496
9766 2617 0.111086
7388 7682 0.110998
7388 7683 0.110998
1375 1349 0.249745
7388 7684 0.110998
1375 1350 0.249745
7388 7685 0.110998
7388 7686 0.110998
19647 62 0.135329
16554 35 4.89716e-05
20821 1224 0.169067
11828 3029 0.49949
16554 103 0.166156
8562 9087 0.110998
8562 9088 0.110998
3723 3829 0.110998
3723 3830 0.110998
3723 3831 0.110998
3723 3832 0.110998
3723 3833 0.110998
3723 3834 0.110998
3723 3835 0.110998
3723 3836 0.110998
10368 12 0.998979
6387 995 0.203272
21047 17877 0.200451
20821 1497 0.169066
7275 63 0.141767
5213 69 0.125828
5213 103 0.117732
6357 8391 0.333048
14432 14875 0.49949
14432 14876 0.49949
20445 21227 0.332993
7275 331 0.173947
3151 247 0.249795
7674 10644 0.142155
2805 12555 0.0851786
16554 743 0.166555
1232 1301 0.998979
284 16712 0.0977779
19933 3029 0.166497
21566 12 0.110995
3151 479 0.249795
9337 677 0.499442
2835 5611 0.142736
284 16809 0.0977779
18902 3046 0.320431
13115 13125 0.49949
13115 13126 0.49949
19504 103 0.998979
17728 2110 0.199796
9766 4068 0.111086
2263 1852 0.998979
487 3850 0.0666631
5213 924 0.125905
14349 184 0.249745
2233 9058 0.110998
17728 2427 0.199796
630 4970 0.165846
19128 19889 0.199796
19128 19890 0.199796
487 3980 0.0666631
19647 1524 0.135688
7275 1188 0.174206
487 4151 0.0666631
3151 1165 0.249794
15892 19008 0.110998
15892 19009 0.110998
15892 19010 0.110998
12543 9743 0.967251
4325 2322 0.166498
3151 1274 0.249596
4039 278 0.998979
12972 12923 0.49949
