1 1 100 1 1
1 2 100 1 1
1 3 100 1 1
1 4 100 1 1
1 5 100 1 1
1 7 100 1 1
1 8 100 1 1
1 9 100 1 1
1 10 100 1 1
1 11 100 1 1
1 12 100 1 1
1 13 100 1 1
1 14 100 1 1
1 15 100 1 1
1 16 100 1 1
1 17 100 1 1
1 19 100 1 1
1 20 100 1 1
1 22 100 1 1
1 23 100 1 1
1 25 100 1 1
1 27 100 1 1
1 29 100 1 1
1 30 100 1 1
1 31 100 1 1
1 34 100 1 1
1 35 100 1 1
1 37 100 1 1
1 39 100 1 1
1 42 100 1 1
1 45 100 1 1
1 47 100 1 1
1 51 100 1 1
1 53 100 1 1
1 55 100 1 1
1 56 100 1 1
1 57 100 1 1
1 59 100 1 1
1 60 100 1 1
1 61 100 1 1
1 63 100 1 1
1 64 100 1 1
1 65 100 1 1
1 66 100 1 1
1 67 100 1 1
1 68 100 1 1
1 70 100 1 1
1 75 100 1 1
1 76 100 1 1
1 77 100 1 1
1 78 100 1 1
1 80 100 1 1
1 82 100 1 1
1 84 100 1 1
1 85 100 1 1
1 86 100 1 1
1 87 100 1 1
1 88 100 1 1
1 89 100 1 1
1 90 100 1 1
1 92 100 1 1
1 93 100 1 1
1 94 100 1 1
1 95 100 1 1
1 96 100 1 1
1 99 100 1 1
2 0 100 2 1
1 1 100 2 0.613846
2 1 100 2 0.386154
1 2 100 2 0.474225
2 2 100 2 0.525775
1 3 100 2 0.585134
2 3 100 2 0.414866
1 4 100 2 0.430996
2 4 100 2 0.569004
1 5 100 2 0.510518
2 5 100 2 0.489482
1 6 100 2 0.444679
2 6 100 2 0.555322
1 7 100 2 0.508604
2 7 100 2 0.491396
1 8 100 2 0.513903
2 8 100 2 0.486097
1 9 100 2 0.0265344
2 9 100 2 0.973466
1 10 100 2 0.522141
2 10 100 2 0.477859
1 12 100 2 0.415383
2 12 100 2 0.584617
1 14 100 2 0.0206012
2 14 100 2 0.979399
1 15 100 2 0.947552
2 15 100 2 0.0524478
1 16 100 2 0.492499
2 16 100 2 0.507501
1 17 100 2 0.387141
2 17 100 2 0.612859
1 18 100 2 0.861843
2 18 100 2 0.138157
1 19 100 2 0.00197677
2 19 100 2 0.998023
2 20 100 2 1
1 21 100 2 0.997781
2 21 100 2 0.00221909
1 22 100 2 0.997712
2 22 100 2 0.00228777
1 23 100 2 0.360046
2 23 100 2 0.639954
1 24 100 2 0.00286229
2 24 100 2 0.997138
1 25 100 2 0.492076
2 25 100 2 0.507924
1 26 100 2 0.396664
2 26 100 2 0.603336
1 27 100 2 0.570287
2 27 100 2 0.429713
1 28 100 2 0.00547809
2 28 100 2 0.994522
1 29 100 2 0.000545787
2 29 100 2 0.999454
2 30 100 2 1
1 31 100 2 0.996609
2 31 100 2 0.0033908
1 32 100 2 0.497813
2 32 100 2 0.502187
1 33 100 2 0.999933
2 33 100 2 6.70406e-05
1 34 100 2 0.550991
2 34 100 2 0.449009
1 35 100 2 0.454978
2 35 100 2 0.545021
1 36 100 2 0.0691787
2 36 100 2 0.930821
1 37 100 2 0.990357
2 37 100 2 0.00964336
1 38 100 2 0.000342117
2 38 100 2 0.999658
1 39 100 2 1
1 40 100 2 0.197655
2 40 100 2 0.802345
1 41 100 2 0.738304
2 41 100 2 0.261695
1 42 100 2 0.961811
2 42 100 2 0.0381888
1 43 100 2 0.26913
2 43 100 2 0.73087
1 44 100 2 0.987523
2 44 100 2 0.0124772
1 45 100 2 0.257259
2 45 100 2 0.742741
1 46 100 2 0.0203349
2 46 100 2 0.979665
1 47 100 2 0.242332
2 47 100 2 0.757668
1 48 100 2 0.999919
2 48 100 2 8.1126e-05
1 49 100 2 0.999579
2 49 100 2 0.000420883
2 50 100 2 1
1 51 100 2 0.408304
2 51 100 2 0.591696
1 52 100 2 0.0318406
2 52 100 2 0.968159
1 53 100 2 0.996881
2 53 100 2 0.00311933
1 54 100 2 8.63294e-05
2 54 100 2 0.999914
1 55 100 2 3.66048e-05
2 55 100 2 0.999963
1 56 100 2 0.00017802
2 56 100 2 0.999822
1 57 100 2 0.999793
2 57 100 2 0.000206752
1 58 100 2 0.428933
2 58 100 2 0.571067
2 59 100 2 1
2 60 100 2 1
1 61 100 2 0.0241586
2 61 100 2 0.975841
1 62 100 2 1
1 63 100 2 0.992975
2 63 100 2 0.00702452
1 64 100 2 0.987922
2 64 100 2 0.0120779
1 65 100 2 0.0153735
2 65 100 2 0.984627
1 66 100 2 0.0768033
2 66 100 2 0.923197
1 67 100 2 0.99818
2 67 100 2 0.00182026
1 68 100 2 0.955686
2 68 100 2 0.0443138
1 69 100 2 1
1 70 100 2 0.000485833
2 70 100 2 0.999514
1 71 100 2 0.999587
2 71 100 2 0.000413007
1 72 100 2 1
1 73 100 2 0.00128822
2 73 100 2 0.998712
1 74 100 2 0.00946406
2 74 100 2 0.990536
1 75 100 2 0.643332
2 75 100 2 0.356668
1 76 100 2 0.53385
2 76 100 2 0.46615
1 77 100 2 0.0132412
2 77 100 2 0.986759
1 78 100 2 0.000587077
2 78 100 2 0.999413
1 79 100 2 0.00815776
2 79 100 2 0.991842
1 80 100 2 0.913013
2 80 100 2 0.0869871
1 81 100 2 0.971927
2 81 100 2 0.0280727
1 82 100 2 0.982127
2 82 100 2 0.0178728
1 85 100 2 0.000275987
2 85 100 2 0.999724
1 88 100 2 0.952499
2 88 100 2 0.0475011
1 89 100 2 0.062595
2 89 100 2 0.937405
1 91 100 2 0.999949
2 91 100 2 5.10282e-05
1 92 100 2 0.868986
2 92 100 2 0.131014
1 93 100 2 0.378159
2 93 100 2 0.621841
1 95 100 2 0.999882
2 95 100 2 0.000118478
1 97 100 2 0.999401
2 97 100 2 0.000598703
1 98 100 2 0.41449
2 98 100 2 0.58551
1 99 100 2 0.983227
2 99 100 2 0.0167732
1 100 100 2 0.98296
2 100 100 2 0.0170401
1 0 100 3 0.00389087
2 0 100 3 0.44516
3 0 100 3 0.550949
1 1 100 3 0.367714
2 1 100 3 0.33653
3 1 100 3 0.295756
1 2 100 3 0.474107
2 2 100 3 0.235037
3 2 100 3 0.290856
1 3 100 3 0.359516
2 3 100 3 0.323499
3 3 100 3 0.316985
1 4 100 3 0.305934
2 4 100 3 0.411072
3 4 100 3 0.282994
1 5 100 3 0.311023
2 5 100 3 0.331619
3 5 100 3 0.357358
1 6 100 3 0.383671
2 6 100 3 0.318271
3 6 100 3 0.298058
1 7 100 3 0.299646
2 7 100 3 0.381126
3 7 100 3 0.319229
1 8 100 3 0.0326269
2 8 100 3 0.46735
3 8 100 3 0.500023
2 9 100 3 1
1 10 100 3 0.311733
2 10 100 3 0.348947
3 10 100 3 0.33932
1 11 100 3 0.127721
2 11 100 3 0.320093
3 11 100 3 0.552185
1 12 100 3 0.00312916
2 12 100 3 0.112719
3 12 100 3 0.884152
1 13 100 3 0.00741467
2 13 100 3 0.503906
3 13 100 3 0.488679
1 14 100 3 0.963022
2 14 100 3 0.0286621
3 14 100 3 0.00831601
1 15 100 3 0.298914
2 15 100 3 0.385893
3 15 100 3 0.315194
1 16 100 3 0.513916
2 16 100 3 0.237954
3 16 100 3 0.248129
1 17 100 3 0.431559
2 17 100 3 0.174475
3 17 100 3 0.393966
1 18 100 3 0.335619
2 18 100 3 0.32985
3 18 100 3 0.334531
1 19 100 3 0.00357743
2 19 100 3 0.717564
3 19 100 3 0.278858
1 20 100 3 0.285646
2 20 100 3 0.405341
3 20 100 3 0.309013
1 21 100 3 0.00117013
2 21 100 3 0.499973
3 21 100 3 0.498857
1 22 100 3 0.00245255
2 22 100 3 0.997547
1 23 100 3 0.330563
2 23 100 3 0.29703
3 23 100 3 0.372407
1 24 100 3 0.532743
2 24 100 3 0.467221
3 24 100 3 3.5872e-05
1 25 100 3 0.844952
2 25 100 3 0.0104175
3 25 100 3 0.14463
1 26 100 3 0.916756
2 26 100 3 0.0832134
3 26 100 3 3.08577e-05
1 27 100 3 0.254739
2 27 100 3 0.402264
3 27 100 3 0.342997
2 28 100 3 0.0151747
3 28 100 3 0.984825
1 29 100 3 0.927975
2 29 100 3 0.071234
3 29 100 3 0.000790972
1 30 100 3 0.452992
2 30 100 3 0.247441
3 30 100 3 0.299567
1 31 100 3 0.331088
2 31 100 3 0.668666
3 31 100 3 0.000245109
1 32 100 3 0.99947
2 32 100 3 0.000385604
3 32 100 3 0.000143923
1 33 100 3 0.783997
2 33 100 3 0.186071
3 33 100 3 0.0299311
2 34 100 3 0.999967
3 34 100 3 3.26564e-05
1 35 100 3 0.833491
2 35 100 3 0.165167
3 35 100 3 0.00134215
1 36 100 3 0.295533
2 36 100 3 0.00264689
3 36 100 3 0.70182
1 37 100 3 0.946688
2 37 100 3 0.0240149
3 37 100 3 0.0292975
1 38 100 3 0.253391
2 38 100 3 0.375803
3 38 100 3 0.370806
1 39 100 3 0.0292257
2 39 100 3 0.205868
3 39 100 3 0.764906
1 40 100 3 0.115281
2 40 100 3 0.882405
3 40 100 3 0.00231442
2 41 100 3 0.995636
3 41 100 3 0.00436423
1 42 100 3 0.286247
2 42 100 3 0.30013
3 42 100 3 0.413623
1 43 100 3 0.454178
2 43 100 3 0.545697
3 43 100 3 0.000125483
1 44 100 3 0.000955018
2 44 100 3 0.999045
1 45 100 3 0.904369
2 45 100 3 0.0947606
3 45 100 3 0.000870256
1 46 100 3 0.000405421
2 46 100 3 0.994135
3 46 100 3 0.00545994
1 47 100 3 0.00392725
2 47 100 3 0.336517
3 47 100 3 0.659556
1 48 100 3 0.472672
2 48 100 3 0.144711
3 48 100 3 0.382617
1 49 100 3 0.00648986
2 49 100 3 0.108232
3 49 100 3 0.885279
1 50 100 3 0.996947
2 50 100 3 0.00127564
3 50 100 3 0.00177762
1 51 100 3 6.79763e-05
2 51 100 3 0.000317264
3 51 100 3 0.999615
1 52 100 3 0.97889
2 52 100 3 0.0204632
3 52 100 3 0.000646991
1 53 100 3 0.804612
2 53 100 3 0.191355
3 53 100 3 0.00403346
1 54 100 3 8.02913e-05
2 54 100 3 0.257345
3 54 100 3 0.742574
1 55 100 3 0.26979
2 55 100 3 0.365115
3 55 100 3 0.365095
1 56 100 3 0.729988
2 56 100 3 0.000923733
3 56 100 3 0.269089
1 58 100 3 0.00921475
2 58 100 3 0.0175846
3 58 100 3 0.973201
1 59 100 3 0.926759
2 59 100 3 0.0648011
3 59 100 3 0.00844012
1 60 100 3 0.00330961
2 60 100 3 0.99669
1 61 100 3 0.557408
3 61 100 3 0.442592
2 62 100 3 1
1 63 100 3 0.998599
2 63 100 3 0.000323161
3 63 100 3 0.00107825
1 64 100 3 0.88822
2 64 100 3 0.107258
3 64 100 3 0.00452206
1 65 100 3 0.00108095
2 65 100 3 3.97909e-05
3 65 100 3 0.998879
1 66 100 3 0.00405545
2 66 100 3 0.213659
3 66 100 3 0.782286
1 68 100 3 0.00426057
2 68 100 3 0.0818049
3 68 100 3 0.913935
1 69 100 3 0.387159
2 69 100 3 0.612841
1 70 100 3 0.520862
2 70 100 3 0.479138
1 71 100 3 0.922068
2 71 100 3 0.0775823
3 71 100 3 0.000349762
2 72 100 3 1
1 74 100 3 0.838863
2 74 100 3 3.26274e-05
3 74 100 3 0.161105
1 75 100 3 0.18918
2 75 100 3 0.438384
3 75 100 3 0.372435
1 76 100 3 0.863711
2 76 100 3 0.119634
3 76 100 3 0.0166544
1 77 100 3 0.998223
2 77 100 3 0.000146371
3 77 100 3 0.00163091
1 78 100 3 0.00103317
2 78 100 3 0.0151605
3 78 100 3 0.983806
1 79 100 3 0.996683
2 79 100 3 3.46445e-05
3 79 100 3 0.00328196
1 80 100 3 0.998474
3 80 100 3 0.00152584
1 81 100 3 0.799958
2 81 100 3 0.197069
3 81 100 3 0.00297377
1 82 100 3 0.984852
2 82 100 3 0.000106892
3 82 100 3 0.0150409
1 84 100 3 0.614059
2 84 100 3 0.347237
3 84 100 3 0.0387044
1 86 100 3 0.477616
2 86 100 3 0.366665
3 86 100 3 0.155718
1 87 100 3 0.908867
2 87 100 3 0.0904342
3 87 100 3 0.00069918
1 88 100 3 0.997012
2 88 100 3 7.45221e-06
3 88 100 3 0.00298061
1 89 100 3 0.999815
3 89 100 3 0.000185425
2 90 100 3 0.90997
3 90 100 3 0.0900296
1 92 100 3 0.531345
2 92 100 3 0.0002625
3 92 100 3 0.468393
1 93 100 3 0.0208745
2 93 100 3 3.70278e-05
3 93 100 3 0.979088
1 94 100 3 0.999711
2 94 100 3 3.35501e-05
3 94 100 3 0.000255504
1 95 100 3 0.999769
2 95 100 3 4.60494e-05
3 95 100 3 0.000184958
1 96 100 3 0.295237
3 96 100 3 0.704763
1 97 100 3 0.96193
2 97 100 3 0.0009244
3 97 100 3 0.0371459
1 98 100 3 0.0631958
3 98 100 3 0.936804
1 100 100 3 0.970255
2 100 100 3 0.000174714
3 100 100 3 0.0295707
1 0 100 4 0.00604909
2 0 100 4 0.24322
3 0 100 4 0.425729
4 0 100 4 0.325001
1 1 100 4 0.256848
2 1 100 4 0.245618
3 1 100 4 0.247195
4 1 100 4 0.250338
1 2 100 4 0.275234
2 2 100 4 0.243882
3 2 100 4 0.273666
4 2 100 4 0.207217
1 3 100 4 0.338109
2 3 100 4 0.265473
3 3 100 4 0.227645
4 3 100 4 0.168773
1 4 100 4 0.210603
2 4 100 4 0.263866
3 4 100 4 0.265963
4 4 100 4 0.259568
1 5 100 4 0.245639
2 5 100 4 0.239163
3 5 100 4 0.240983
4 5 100 4 0.274216
1 6 100 4 0.281241
2 6 100 4 0.279059
3 6 100 4 0.23909
4 6 100 4 0.200611
1 7 100 4 0.224117
2 7 100 4 0.224664
3 7 100 4 0.289602
4 7 100 4 0.261617
1 8 100 4 0.269522
2 8 100 4 0.261793
3 8 100 4 0.253401
4 8 100 4 0.215284
1 9 100 4 0.00568614
2 9 100 4 0.00731385
3 9 100 4 0.378351
4 9 100 4 0.608649
1 10 100 4 0.283954
2 10 100 4 0.20672
3 10 100 4 0.247251
4 10 100 4 0.262076
1 11 100 4 0.295265
2 11 100 4 0.275718
3 11 100 4 0.0560145
4 11 100 4 0.373002
3 12 100 4 0.501999
4 12 100 4 0.498001
1 13 100 4 0.224009
2 13 100 4 0.264481
3 13 100 4 0.260729
4 13 100 4 0.250781
1 14 100 4 0.829922
2 14 100 4 0.160149
3 14 100 4 0.00969143
4 14 100 4 0.000238026
1 15 100 4 0.0996706
2 15 100 4 0.0384468
3 15 100 4 0.0106777
4 15 100 4 0.851205
1 16 100 4 0.00222531
2 16 100 4 0.0371657
3 16 100 4 0.423948
4 16 100 4 0.536661
1 17 100 4 0.298801
2 17 100 4 0.289733
3 17 100 4 0.110399
4 17 100 4 0.301067
1 18 100 4 0.0739295
2 18 100 4 0.00627098
3 18 100 4 0.000966596
4 18 100 4 0.918833
1 19 100 4 6.01645e-06
2 19 100 4 0.557655
3 19 100 4 0.0212029
4 19 100 4 0.421136
1 20 100 4 0.00283304
2 20 100 4 0.119993
3 20 100 4 0.716695
4 20 100 4 0.160479
1 21 100 4 0.00662302
2 21 100 4 0.135596
3 21 100 4 0.379187
4 21 100 4 0.478594
1 22 100 4 0.991265
2 22 100 4 0.00768298
3 22 100 4 0.00101218
4 22 100 4 3.94923e-05
1 23 100 4 0.0113713
2 23 100 4 0.552664
3 23 100 4 0.0160095
4 23 100 4 0.419955
1 24 100 4 0.403135
2 24 100 4 0.578993
3 24 100 4 0.00929322
4 24 100 4 0.00857805
1 25 100 4 0.546571
2 25 100 4 0.370877
3 25 100 4 0.000736852
4 25 100 4 0.0818149
1 26 100 4 0.955756
2 26 100 4 0.00264735
3 26 100 4 3.79511e-05
4 26 100 4 0.0415583
1 27 100 4 0.0540379
2 27 100 4 0.341176
3 27 100 4 0.34694
4 27 100 4 0.257846
1 28 100 4 0.270573
2 28 100 4 0.287094
3 28 100 4 0.242632
4 28 100 4 0.199701
1 29 100 4 0.00503606
2 29 100 4 0.256429
3 29 100 4 0.6618
4 29 100 4 0.0767356
1 30 100 4 0.23737
2 30 100 4 0.219099
3 30 100 4 0.248089
4 30 100 4 0.295442
1 31 100 4 0.00307735
2 31 100 4 0.0322952
3 31 100 4 0.0073002
4 31 100 4 0.957327
1 32 100 4 0.25152
2 32 100 4 0.235323
3 32 100 4 0.256255
4 32 100 4 0.256902
1 33 100 4 0.806176
2 33 100 4 0.102234
3 33 100 4 0.0835136
4 33 100 4 0.00807603
1 34 100 4 0.280095
2 34 100 4 0.247772
3 34 100 4 0.242972
4 34 100 4 0.229161
1 35 100 4 0.88438
2 35 100 4 0.00768486
3 35 100 4 0.107612
4 35 100 4 0.00032228
1 36 100 4 0.0817462
2 36 100 4 0.318601
3 36 100 4 0.300253
4 36 100 4 0.2994
2 37 100 4 4.73005e-05
3 37 100 4 0.000169786
4 37 100 4 0.999783
1 38 100 4 0.000594885
2 38 100 4 0.000760648
3 38 100 4 0.265391
4 38 100 4 0.733254
3 39 100 4 0.921052
4 39 100 4 0.0789477
1 40 100 4 0.000303987
2 40 100 4 0.0210199
3 40 100 4 0.767259
4 40 100 4 0.211417
1 41 100 4 0.0201453
2 41 100 4 0.752407
3 41 100 4 0.00815801
4 41 100 4 0.21929
1 42 100 4 0.129682
2 42 100 4 0.853179
3 42 100 4 0.0059246
4 42 100 4 0.0112142
1 43 100 4 0.999392
2 43 100 4 0.000421413
3 43 100 4 0.000186615
1 44 100 4 0.206595
2 44 100 4 0.0194067
3 44 100 4 0.73432
4 44 100 4 0.0396784
1 45 100 4 0.185144
2 45 100 4 0.055981
3 45 100 4 0.0197358
4 45 100 4 0.739139
1 46 100 4 0.152462
2 46 100 4 0.0288228
3 46 100 4 0.43843
4 46 100 4 0.380285
2 47 100 4 0.999757
3 47 100 4 0.000193585
4 47 100 4 4.96193e-05
1 48 100 4 0.203277
2 48 100 4 0.381111
3 48 100 4 0.315517
4 48 100 4 0.100095
1 49 100 4 0.563971
2 49 100 4 0.422791
3 49 100 4 0.0101293
4 49 100 4 0.00310826
2 50 100 4 0.0322603
3 50 100 4 0.966843
4 50 100 4 0.000896685
1 51 100 4 0.180036
2 51 100 4 0.000204549
3 51 100 4 0.000280774
4 51 100 4 0.819479
1 52 100 4 0.0276811
3 52 100 4 0.00915707
4 52 100 4 0.963162
1 53 100 4 0.995936
2 53 100 4 0.00013675
3 53 100 4 0.000168052
4 53 100 4 0.00375893
1 54 100 4 0.000199411
2 54 100 4 2.48771e-05
3 54 100 4 9.7525e-06
4 54 100 4 0.999766
1 55 100 4 0.260325
2 55 100 4 0.248656
3 55 100 4 0.134771
4 55 100 4 0.356249
1 56 100 4 0.000107796
2 56 100 4 2.05167e-05
3 56 100 4 3.12975e-05
4 56 100 4 0.99984
1 57 100 4 0.749096
2 57 100 4 0.0115641
3 57 100 4 0.235094
4 57 100 4 0.00424612
1 58 100 4 0.0572509
2 58 100 4 0.00340616
3 58 100 4 0.000714545
4 58 100 4 0.938628
1 59 100 4 0.980435
2 59 100 4 5.30646e-05
3 59 100 4 0.0108537
4 59 100 4 0.00865823
2 60 100 4 0.878
3 60 100 4 9.39125e-05
4 60 100 4 0.121907
2 61 100 4 0.0026749
3 61 100 4 0.997325
1 62 100 4 0.980208
2 62 100 4 0.0176789
3 62 100 4 0.00211346
2 63 100 4 0.138871
3 63 100 4 0.859796
4 63 100 4 0.00133341
1 64 100 4 0.398359
2 64 100 4 0.306289
3 64 100 4 0.00574815
4 64 100 4 0.289604
1 65 100 4 4.53447e-05
3 65 100 4 4.16053e-05
4 65 100 4 0.999913
1 66 100 4 0.00281154
4 66 100 4 0.997189
1 67 100 4 0.092789
2 67 100 4 0.656938
3 67 100 4 0.250273
1 68 100 4 0.000804363
2 68 100 4 1.14945e-05
3 68 100 4 4.6634e-05
4 68 100 4 0.999138
3 69 100 4 0.999859
4 69 100 4 0.000141428
1 70 100 4 0.0560588
2 70 100 4 0.0120511
3 70 100 4 0.000125569
4 70 100 4 0.931765
3 71 100 4 0.998422
4 71 100 4 0.00157757
1 72 100 4 0.0727155
2 72 100 4 0.755264
3 72 100 4 0.172021
1 73 100 4 0.00223885
2 73 100 4 0.839057
3 73 100 4 0.000363942
4 73 100 4 0.158341
4 74 100 4 1
1 75 100 4 0.890137
2 75 100 4 0.109671
3 75 100 4 0.000121307
4 75 100 4 7.01784e-05
1 76 100 4 0.0996596
2 76 100 4 0.379921
3 76 100 4 0.470396
4 76 100 4 0.0500239
1 77 100 4 0.999848
2 77 100 4 4.87385e-05
3 77 100 4 3.63735e-05
4 77 100 4 6.71905e-05
1 78 100 4 0.000861219
2 78 100 4 0.00220825
3 78 100 4 0.00405296
4 78 100 4 0.992878
1 79 100 4 0.994149
2 79 100 4 2.45612e-05
3 79 100 4 2.44257e-05
4 79 100 4 0.00580194
3 80 100 4 1
1 81 100 4 0.995873
2 81 100 4 0.00339181
3 81 100 4 4.03692e-05
4 81 100 4 0.000694919
1 82 100 4 0.993615
2 82 100 4 0.00467325
3 82 100 4 0.000879231
4 82 100 4 0.000832019
1 83 100 4 0.990013
2 83 100 4 0.00697057
3 83 100 4 0.00301605
4 84 100 4 1
1 85 100 4 0.0010185
2 85 100 4 0.0977922
3 85 100 4 0.3786
4 85 100 4 0.522589
1 86 100 4 0.654538
2 86 100 4 1.02878e-05
3 86 100 4 1.15555e-05
4 86 100 4 0.34544
1 87 100 4 0.983135
2 87 100 4 0.000226468
4 87 100 4 0.0166387
1 88 100 4 0.997667
2 88 100 4 0.00208478
3 88 100 4 9.65963e-05
4 88 100 4 0.000151533
1 89 100 4 0.999593
2 89 100 4 0.000159607
3 89 100 4 0.00016526
4 89 100 4 8.23258e-05
2 90 100 4 0.350181
3 90 100 4 0.553398
4 90 100 4 0.0964208
1 91 100 4 0.996587
2 91 100 4 0.000979907
4 91 100 4 0.00243302
1 92 100 4 0.954705
2 92 100 4 2.82245e-05
3 92 100 4 2.89047e-05
4 92 100 4 0.0452374
1 93 100 4 0.0737237
2 93 100 4 0.299242
3 93 100 4 0.308466
4 93 100 4 0.318568
1 94 100 4 0.999698
2 94 100 4 0.000253791
3 94 100 4 4.7821e-05
1 95 100 4 0.999965
2 95 100 4 1.58867e-05
3 95 100 4 9.08438e-06
4 95 100 4 1.00144e-05
3 96 100 4 0.0606104
4 96 100 4 0.93939
1 97 100 4 0.0970672
3 97 100 4 0.0072034
4 97 100 4 0.895729
1 98 100 4 0.0694231
2 98 100 4 0.3178
3 98 100 4 0.317095
4 98 100 4 0.295683
1 99 100 4 0.143257
2 99 100 4 0.00431073
3 99 100 4 0.00439471
4 99 100 4 0.848038
1 100 100 4 0.999364
2 100 100 4 1.22952e-05
3 100 100 4 5.73757e-06
4 100 100 4 0.000618352
1 0 100 5 0.0126296
2 0 100 5 0.16622
3 0 100 5 0.44484
4 0 100 5 0.317855
5 0 100 5 0.0584554
1 1 100 5 0.214191
2 1 100 5 0.242359
3 1 100 5 0.163653
4 1 100 5 0.206143
5 1 100 5 0.173654
1 2 100 5 0.279837
2 2 100 5 0.225151
3 2 100 5 0.181096
4 2 100 5 0.159798
5 2 100 5 0.154118
1 3 100 5 0.194553
2 3 100 5 0.191722
3 3 100 5 0.188788
4 3 100 5 0.13448
5 3 100 5 0.290456
1 4 100 5 0.220632
2 4 100 5 0.17775
3 4 100 5 0.204389
4 4 100 5 0.198313
5 4 100 5 0.198916
1 5 100 5 0.182055
2 5 100 5 0.212865
3 5 100 5 0.211222
4 5 100 5 0.191165
5 5 100 5 0.202693
1 6 100 5 0.248165
2 6 100 5 0.136886
3 6 100 5 0.149839
4 6 100 5 0.129586
5 6 100 5 0.335524
1 7 100 5 0.201071
2 7 100 5 0.155735
3 7 100 5 0.216275
4 7 100 5 0.21515
5 7 100 5 0.211769
1 8 100 5 0.210478
2 8 100 5 0.186002
3 8 100 5 0.204708
4 8 100 5 0.202522
5 8 100 5 0.19629
1 9 100 5 0.210663
2 9 100 5 0.199693
3 9 100 5 0.195013
4 9 100 5 0.19483
5 9 100 5 0.199801
1 10 100 5 0.98258
2 10 100 5 0.000394159
3 10 100 5 0.00271805
4 10 100 5 0.000532596
5 10 100 5 0.0137756
1 11 100 5 6.77223e-05
2 11 100 5 8.96108e-05
3 11 100 5 0.111729
4 11 100 5 0.00249416
5 11 100 5 0.885619
1 12 100 5 0.1616
2 12 100 5 0.245881
3 12 100 5 0.170723
4 12 100 5 0.237222
5 12 100 5 0.184575
1 13 100 5 0.166408
2 13 100 5 0.166138
3 13 100 5 0.161876
4 13 100 5 0.254695
5 13 100 5 0.250882
1 14 100 5 0.19622
2 14 100 5 0.222545
3 14 100 5 0.18898
4 14 100 5 0.198381
5 14 100 5 0.193874
1 15 100 5 0.19777
2 15 100 5 0.201764
3 15 100 5 0.0982523
4 15 100 5 0.298575
5 15 100 5 0.203638
1 16 100 5 0.242101
2 16 100 5 0.215966
3 16 100 5 0.0311702
4 16 100 5 0.22795
5 16 100 5 0.282813
1 17 100 5 0.231363
2 17 100 5 0.190507
3 17 100 5 0.193815
4 17 100 5 0.194913
5 17 100 5 0.189402
1 18 100 5 0.779776
2 18 100 5 0.0147605
3 18 100 5 0.203813
4 18 100 5 0.00159886
5 18 100 5 5.14666e-05
1 19 100 5 0.00407069
2 19 100 5 0.00678766
3 19 100 5 0.0485067
4 19 100 5 0.0069031
5 19 100 5 0.933732
1 20 100 5 0.104023
2 20 100 5 0.245616
3 20 100 5 0.259398
4 20 100 5 0.132955
5 20 100 5 0.258007
1 21 100 5 0.573205
2 21 100 5 0.0142472
3 21 100 5 0.0112213
4 21 100 5 0.00396868
5 21 100 5 0.397358
1 22 100 5 6.17691e-05
2 22 100 5 8.90482e-05
3 22 100 5 0.0192853
4 22 100 5 0.47734
5 22 100 5 0.503223
1 23 100 5 0.239813
2 23 100 5 0.246027
3 23 100 5 0.0275869
4 23 100 5 0.239096
5 23 100 5 0.247476
1 24 100 5 0.00151875
2 24 100 5 0.0036147
3 24 100 5 0.977026
4 24 100 5 0.0164819
5 24 100 5 0.00135827
1 25 100 5 0.295275
2 25 100 5 0.291552
3 25 100 5 0.0666291
4 25 100 5 0.141436
5 25 100 5 0.205108
1 26 100 5 0.211353
2 26 100 5 0.230468
3 26 100 5 0.215574
4 26 100 5 0.229472
5 26 100 5 0.113133
1 27 100 5 0.0766525
2 27 100 5 0.18174
3 27 100 5 0.2768
4 27 100 5 0.350297
5 27 100 5 0.114512
1 28 100 5 0.000232549
2 28 100 5 0.766441
3 28 100 5 0.232456
4 28 100 5 0.000870472
1 29 100 5 1.63382e-05
2 29 100 5 0.0028254
3 29 100 5 0.840758
4 29 100 5 0.000940021
5 29 100 5 0.15546
1 30 100 5 0.120515
2 30 100 5 0.194443
3 30 100 5 0.228204
4 30 100 5 0.22893
5 30 100 5 0.227908
1 31 100 5 0.000979923
2 31 100 5 0.00145498
3 31 100 5 4.64866e-05
4 31 100 5 1.61803e-05
5 31 100 5 0.997502
1 32 100 5 0.587643
2 32 100 5 0.291241
3 32 100 5 0.119134
4 32 100 5 0.00195146
5 32 100 5 3.13845e-05
1 33 100 5 0.0416725
2 33 100 5 0.949037
3 33 100 5 0.00797847
4 33 100 5 0.00130814
5 33 100 5 4.21958e-06
1 34 100 5 0.990668
2 34 100 5 0.00458496
3 34 100 5 5.52456e-05
4 34 100 5 2.30788e-05
5 34 100 5 0.004669
1 35 100 5 0.998192
2 35 100 5 0.000237095
3 35 100 5 3.07577e-05
4 35 100 5 2.18226e-05
5 35 100 5 0.00151868
1 36 100 5 0.190048
2 36 100 5 0.194025
3 36 100 5 0.20112
4 36 100 5 0.20257
5 36 100 5 0.212237
1 37 100 5 0.00573853
2 37 100 5 0.0480954
3 37 100 5 0.89475
5 37 100 5 0.0514162
2 38 100 5 0.00434403
3 38 100 5 0.930013
4 38 100 5 0.000448419
5 38 100 5 0.0651943
1 39 100 5 0.912501
2 39 100 5 0.00344128
3 39 100 5 0.000881418
4 39 100 5 0.000991928
5 39 100 5 0.0821847
2 40 100 5 0.981268
3 40 100 5 0.0141711
4 40 100 5 0.00435617
5 40 100 5 0.000204418
1 41 100 5 0.999443
2 41 100 5 3.57885e-05
3 41 100 5 2.80663e-05
4 41 100 5 1.71714e-05
5 41 100 5 0.000475548
1 42 100 5 0.998663
2 42 100 5 5.02208e-05
3 42 100 5 1.82536e-06
5 42 100 5 0.00128534
1 43 100 5 0.992057
2 43 100 5 0.00369961
3 43 100 5 0.00423077
4 43 100 5 1.28513e-05
1 44 100 5 0.00129328
2 44 100 5 0.0035679
3 44 100 5 0.0157913
4 44 100 5 0.977752
5 44 100 5 0.00159554
1 45 100 5 4.99679e-05
2 45 100 5 0.00210189
3 45 100 5 0.0381734
4 45 100 5 1.97022e-05
5 45 100 5 0.959655
2 46 100 5 0.0274551
3 46 100 5 0.0594365
4 46 100 5 0.000355758
5 46 100 5 0.912753
1 47 100 5 0.997476
2 47 100 5 3.90961e-05
3 47 100 5 0.00246153
5 47 100 5 2.3406e-05
1 48 100 5 0.0385955
2 48 100 5 5.11642e-05
3 48 100 5 2.03523e-06
4 48 100 5 2.09368e-05
5 48 100 5 0.96133
1 49 100 5 0.999378
2 49 100 5 8.32985e-05
3 49 100 5 7.71068e-05
4 49 100 5 0.000111628
5 49 100 5 0.000349825
1 50 100 5 3.06619e-06
2 50 100 5 0.00296537
3 50 100 5 0.995461
4 50 100 5 8.50387e-05
5 50 100 5 0.00148547
1 51 100 5 0.046705
2 51 100 5 0.117684
3 51 100 5 0.275725
4 51 100 5 0.276627
5 51 100 5 0.28326
1 52 100 5 0.240558
2 52 100 5 0.688505
3 52 100 5 0.0708231
4 52 100 5 0.000114258
1 53 100 5 5.76678e-05
2 53 100 5 0.00604298
3 53 100 5 0.305674
4 53 100 5 0.328236
5 53 100 5 0.359989
1 54 100 5 7.32997e-05
2 54 100 5 8.73682e-05
3 54 100 5 5.64915e-05
4 54 100 5 0.00173054
5 54 100 5 0.998052
1 55 100 5 0.497132
2 55 100 5 0.460516
3 55 100 5 0.00979503
4 55 100 5 0.000125712
5 55 100 5 0.0324312
1 56 100 5 1.92874e-05
2 56 100 5 0.00168341
3 56 100 5 0.812407
4 56 100 5 6.42459e-05
5 56 100 5 0.185826
2 57 100 5 0.00469482
3 57 100 5 0.988006
5 57 100 5 0.00729875
1 58 100 5 0.0272811
2 58 100 5 0.00426274
3 58 100 5 0.000843209
4 58 100 5 9.37723e-05
5 58 100 5 0.967519
4 59 100 5 1
2 60 100 5 0.011399
3 60 100 5 0.987196
5 60 100 5 0.0014054
3 61 100 5 0.0102952
5 61 100 5 0.989705
1 62 100 5 0.985589
5 62 100 5 0.0144115
1 63 100 5 0.965442
2 63 100 5 0.0149407
3 63 100 5 0.0180002
4 63 100 5 9.21084e-05
5 63 100 5 0.00152482
1 64 100 5 0.0106862
2 64 100 5 0.00185208
3 64 100 5 0.354031
4 64 100 5 0.000250376
5 64 100 5 0.63318
1 65 100 5 2.37486e-05
2 65 100 5 0.0890379
3 65 100 5 0.000249109
4 65 100 5 7.72875e-05
5 65 100 5 0.910612
1 66 100 5 0.0259085
3 66 100 5 0.024196
5 66 100 5 0.949896
1 67 100 5 0.0454129
2 67 100 5 0.00035352
3 67 100 5 9.6514e-05
4 67 100 5 4.41842e-05
5 67 100 5 0.954093
1 68 100 5 0.00568065
2 68 100 5 0.0149608
3 68 100 5 0.0106194
4 68 100 5 0.00511864
5 68 100 5 0.963621
2 69 100 5 0.00453537
3 69 100 5 0.995275
4 69 100 5 0.00018604
5 69 100 5 3.55389e-06
1 70 100 5 0.000877382
2 70 100 5 0.0268474
3 70 100 5 0.00493575
4 70 100 5 0.000240316
5 70 100 5 0.967099
3 71 100 5 0.995751
5 71 100 5 0.00424884
2 72 100 5 0.010311
3 72 100 5 0.989329
4 72 100 5 0.00036052
1 73 100 5 0.019802
2 73 100 5 0.000102008
3 73 100 5 9.85234e-05
4 73 100 5 0.000416987
5 73 100 5 0.97958
2 74 100 5 0.00374821
3 74 100 5 0.032268
5 74 100 5 0.963984
1 75 100 5 0.0624153
2 75 100 5 9.4666e-06
3 75 100 5 9.57589e-06
4 75 100 5 9.59309e-06
5 75 100 5 0.937556
1 76 100 5 0.476088
3 76 100 5 0.386055
5 76 100 5 0.137858
1 77 100 5 0.960883
3 77 100 5 0.0384805
5 77 100 5 0.000636264
1 78 100 5 0.000714151
2 78 100 5 0.313319
3 78 100 5 0.317
4 78 100 5 0.314013
5 78 100 5 0.0549542
1 79 100 5 0.0704706
2 79 100 5 0.00157986
3 79 100 5 0.0371092
4 79 100 5 0.45201
5 79 100 5 0.438831
2 80 100 5 1
1 82 100 5 0.266962
2 82 100 5 0.00758267
3 82 100 5 0.00120921
4 82 100 5 0.000811986
5 82 100 5 0.723435
2 83 100 5 1.31376e-05
3 83 100 5 0.00372587
4 83 100 5 0.000323724
5 83 100 5 0.995937
1 84 100 5 0.344129
2 84 100 5 0.587348
3 84 100 5 0.00141729
4 84 100 5 0.00099651
5 84 100 5 0.0661095
5 85 100 5 1
1 87 100 5 0.999725
3 87 100 5 1.1647e-05
5 87 100 5 0.000263874
1 88 100 5 0.185231
2 88 100 5 0.00310686
3 88 100 5 0.811378
4 88 100 5 3.23164e-05
5 88 100 5 0.000251664
1 89 100 5 0.354186
2 89 100 5 0.61484
3 89 100 5 0.0303864
4 89 100 5 5.49019e-06
5 89 100 5 0.000582674
1 91 100 5 0.726207
2 91 100 5 0.0844871
3 91 100 5 0.185867
4 91 100 5 0.000229894
5 91 100 5 0.00320939
1 92 100 5 0.0273901
3 92 100 5 9.75402e-06
5 92 100 5 0.9726
1 93 100 5 0.20077
2 93 100 5 0.0988215
3 93 100 5 0.252673
4 93 100 5 0.250925
5 93 100 5 0.19681
1 94 100 5 1
5 95 100 5 1
2 96 100 5 0.0287025
3 96 100 5 0.971298
1 97 100 5 0.880529
2 97 100 5 0.0054093
3 97 100 5 0.000201234
4 97 100 5 0.000193417
5 97 100 5 0.113667
1 98 100 5 0.971455
2 98 100 5 0.00292918
3 98 100 5 0.0051034
5 98 100 5 0.0205127
3 99 100 5 0.0358042
5 99 100 5 0.964196
1 0 100 6 0.0683626
2 0 100 6 0.262241
3 0 100 6 0.226915
4 0 100 6 0.111789
5 0 100 6 0.163975
6 0 100 6 0.166719
1 1 100 6 0.148399
2 1 100 6 0.146393
3 1 100 6 0.178289
4 1 100 6 0.179599
5 1 100 6 0.181287
6 1 100 6 0.166033
1 2 100 6 0.188444
2 2 100 6 0.137966
3 2 100 6 0.158599
4 2 100 6 0.181913
5 2 100 6 0.173393
6 2 100 6 0.159685
1 3 100 6 0.184307
2 3 100 6 0.15463
3 3 100 6 0.165621
4 3 100 6 0.16546
5 3 100 6 0.168954
6 3 100 6 0.161027
1 4 100 6 0.188801
2 4 100 6 0.1372
3 4 100 6 0.164767
4 4 100 6 0.16918
5 4 100 6 0.169541
6 4 100 6 0.17051
1 5 100 6 0.235026
2 5 100 6 0.188872
3 5 100 6 0.173522
4 5 100 6 0.162478
5 5 100 6 0.141181
6 5 100 6 0.0989198
1 6 100 6 0.200487
2 6 100 6 0.199363
3 6 100 6 0.111554
4 6 100 6 0.155068
5 6 100 6 0.155389
6 6 100 6 0.178138
1 7 100 6 0.0779453
2 7 100 6 0.120813
3 7 100 6 0.186377
4 7 100 6 0.190243
5 7 100 6 0.175449
6 7 100 6 0.249173
1 8 100 6 0.159439
2 8 100 6 0.0917363
3 8 100 6 0.187946
4 8 100 6 0.187717
5 8 100 6 0.188419
6 8 100 6 0.184742
1 9 100 6 0.348568
2 9 100 6 0.257583
3 9 100 6 0.090831
4 9 100 6 0.102978
5 9 100 6 0.103248
6 9 100 6 0.0967911
1 10 100 6 0.130732
2 10 100 6 0.161396
3 10 100 6 0.198739
4 10 100 6 0.188647
5 10 100 6 0.163868
6 10 100 6 0.156619
1 11 100 6 0.177677
2 11 100 6 0.178627
3 11 100 6 0.14259
4 11 100 6 0.17818
5 11 100 6 0.17798
6 11 100 6 0.144945
1 12 100 6 6.08135e-05
2 12 100 6 0.0104114
3 12 100 6 0.00250806
4 12 100 6 0.000566924
5 12 100 6 2.65959e-05
6 12 100 6 0.986426
1 13 100 6 0.916904
2 13 100 6 8.20259e-05
3 13 100 6 0.0314964
4 13 100 6 0.0380731
5 13 100 6 0.000204284
6 13 100 6 0.0132403
1 14 100 6 0.246673
2 14 100 6 0.158058
3 14 100 6 0.136826
4 14 100 6 0.15427
5 14 100 6 0.133514
6 14 100 6 0.170659
1 15 100 6 0.0229769
2 15 100 6 0.000172084
3 15 100 6 0.00747847
4 15 100 6 0.000297222
5 15 100 6 3.55168e-05
6 15 100 6 0.96904
1 16 100 6 0.0955077
2 16 100 6 0.10112
3 16 100 6 0.169943
4 16 100 6 0.199107
5 16 100 6 0.199261
6 16 100 6 0.235062
1 17 100 6 0.437034
2 17 100 6 4.31653e-05
3 17 100 6 0.0024316
4 17 100 6 0.00314648
5 17 100 6 0.000107261
6 17 100 6 0.557238
1 18 100 6 3.84089e-05
2 18 100 6 0.00313678
3 18 100 6 0.0947848
4 18 100 6 0.291786
5 18 100 6 0.323669
6 18 100 6 0.286585
1 19 100 6 0.070729
2 19 100 6 0.00364135
3 19 100 6 0.0916344
4 19 100 6 0.000369876
5 19 100 6 0.000702424
6 19 100 6 0.832923
1 20 100 6 0.00219855
2 20 100 6 2.82055e-05
3 20 100 6 0.00026095
4 20 100 6 0.000653
5 20 100 6 3.77196e-06
6 20 100 6 0.996855
1 21 100 6 0.053178
2 21 100 6 0.184822
3 21 100 6 0.163408
4 21 100 6 0.195683
5 21 100 6 0.18735
6 21 100 6 0.215559
1 22 100 6 0.943676
2 22 100 6 0.00106936
3 22 100 6 0.0495234
4 22 100 6 0.00523037
5 22 100 6 0.000500541
1 23 100 6 0.792277
2 23 100 6 0.0021973
3 23 100 6 0.0295092
5 23 100 6 0.00111531
6 23 100 6 0.174901
1 24 100 6 0.692505
2 24 100 6 0.0012506
3 24 100 6 0.124146
4 24 100 6 0.00253086
5 24 100 6 0.00477915
6 24 100 6 0.174789
1 25 100 6 0.984264
2 25 100 6 0.000200855
3 25 100 6 0.000730049
4 25 100 6 7.47018e-05
5 25 100 6 4.78153e-05
6 25 100 6 0.0146829
1 26 100 6 0.881728
2 26 100 6 1.84025e-05
3 26 100 6 0.0198723
4 26 100 6 2.61294e-05
5 26 100 6 2.34476e-05
6 26 100 6 0.098332
1 27 100 6 0.501313
2 27 100 6 0.494463
3 27 100 6 0.00418445
5 27 100 6 1.37879e-06
6 27 100 6 3.80536e-05
1 28 100 6 0.437498
2 28 100 6 0.457469
3 28 100 6 0.104768
4 28 100 6 1.3205e-05
5 28 100 6 8.02187e-05
6 28 100 6 0.000171706
1 29 100 6 0.147097
3 29 100 6 0.413033
5 29 100 6 0.43952
6 29 100 6 0.000350356
1 30 100 6 0.000185778
2 30 100 6 0.000740808
3 30 100 6 0.010818
4 30 100 6 0.917351
5 30 100 6 0.000772997
6 30 100 6 0.0701319
1 31 100 6 0.0784652
2 31 100 6 0.0124545
3 31 100 6 0.853625
4 31 100 6 0.0544615
5 31 100 6 2.39169e-05
6 31 100 6 0.000969711
1 32 100 6 0.00551257
2 32 100 6 0.758743
3 32 100 6 0.234009
4 32 100 6 6.85365e-05
5 32 100 6 0.00130654
6 32 100 6 0.000360322
1 33 100 6 0.118614
2 33 100 6 0.000203488
3 33 100 6 0.861687
4 33 100 6 0.0155595
5 33 100 6 0.00107922
6 33 100 6 0.00285626
1 34 100 6 0.00912283
2 34 100 6 0.000349334
3 34 100 6 3.02019e-05
4 34 100 6 1.92507e-05
5 34 100 6 7.45652e-05
6 34 100 6 0.990404
1 35 100 6 0.313729
2 35 100 6 0.00191318
3 35 100 6 0.67978
4 35 100 6 5.03103e-05
5 35 100 6 2.79371e-05
6 35 100 6 0.00449997
1 36 100 6 0.00630654
2 36 100 6 0.00520084
3 36 100 6 0.983101
4 36 100 6 0.000468557
5 36 100 6 0.000251307
6 36 100 6 0.00467177
5 37 100 6 1
1 38 100 6 0.000710101
2 38 100 6 0.000127256
3 38 100 6 0.00221372
5 38 100 6 0.0128096
6 38 100 6 0.984139
1 39 100 6 0.000150097
3 39 100 6 0.195548
4 39 100 6 4.29279e-05
5 39 100 6 3.90391e-05
6 39 100 6 0.80422
1 40 100 6 0.000520778
2 40 100 6 6.07849e-05
3 40 100 6 0.84914
4 40 100 6 0.000993148
5 40 100 6 0.124255
6 40 100 6 0.0250304
1 41 100 6 6.40724e-05
2 41 100 6 0.00703159
3 41 100 6 0.00546151
4 41 100 6 2.66339e-05
5 41 100 6 6.76442e-05
6 41 100 6 0.987349
3 42 100 6 0.618227
4 42 100 6 0.0346608
5 42 100 6 0.127735
6 42 100 6 0.219377
1 43 100 6 0.000798038
2 43 100 6 0.000759062
3 43 100 6 0.00453705
4 43 100 6 0.514178
5 43 100 6 0.476403
6 43 100 6 0.00332481
2 44 100 6 0.66191
3 44 100 6 0.320993
4 44 100 6 0.017097
1 45 100 6 1.52975e-05
2 45 100 6 3.84561e-06
3 45 100 6 0.0124162
4 45 100 6 0.32601
5 45 100 6 0.333065
6 45 100 6 0.328489
1 46 100 6 0.223291
2 46 100 6 0.348617
3 46 100 6 0.263105
4 46 100 6 0.0720274
5 46 100 6 0.0747528
6 46 100 6 0.0182065
1 47 100 6 0.213051
2 47 100 6 0.451406
3 47 100 6 0.319058
4 47 100 6 0.0164673
5 47 100 6 1.43749e-05
6 47 100 6 3.61107e-06
1 48 100 6 0.101007
2 48 100 6 0.172606
3 48 100 6 0.200638
4 48 100 6 0.241871
5 48 100 6 0.240473
6 48 100 6 0.0434049
3 49 100 6 0.069537
5 49 100 6 0.013018
6 49 100 6 0.917445
1 50 100 6 0.998905
2 50 100 6 2.57371e-05
3 50 100 6 4.49369e-06
4 50 100 6 2.2969e-06
5 50 100 6 4.19364e-05
6 50 100 6 0.00102037
3 51 100 6 0.00252294
6 51 100 6 0.997477
1 52 100 6 1.91783e-05
2 52 100 6 0.000117096
3 52 100 6 0.997883
4 52 100 6 0.000521245
5 52 100 6 0.00141784
6 52 100 6 4.13416e-05
2 53 100 6 0.995372
3 53 100 6 0.00108034
4 53 100 6 0.00287292
5 53 100 6 1.15248e-05
6 53 100 6 0.000663436
3 54 100 6 0.877964
6 54 100 6 0.122036
2 55 100 6 0.00658585
3 55 100 6 0.804469
4 55 100 6 0.0908408
5 55 100 6 0.0952801
6 55 100 6 0.00282429
1 56 100 6 0.000845964
2 56 100 6 1.14802e-05
3 56 100 6 0.0890648
4 56 100 6 0.0239813
5 56 100 6 2.21926e-05
6 56 100 6 0.886074
1 57 100 6 0.999672
2 57 100 6 3.70173e-05
4 57 100 6 0.000184961
6 57 100 6 0.00010566
1 58 100 6 0.714495
2 58 100 6 0.149178
3 58 100 6 0.00647629
4 58 100 6 0.00033196
5 58 100 6 0.000250216
6 58 100 6 0.129268
1 59 100 6 0.400317
2 59 100 6 0.000348797
3 59 100 6 0.598452
4 59 100 6 0.000870513
6 59 100 6 1.2305e-05
1 60 100 6 0.141172
2 60 100 6 0.208578
3 60 100 6 0.115031
4 60 100 6 0.158395
5 60 100 6 0.213391
6 60 100 6 0.163432
1 61 100 6 0.985105
2 61 100 6 9.42966e-05
6 61 100 6 0.014801
1 62 100 6 0.569934
2 62 100 6 0.400114
3 62 100 6 0.00607893
4 62 100 6 0.0233888
5 62 100 6 0.000484549
1 63 100 6 0.990677
2 63 100 6 0.00420411
3 63 100 6 1.06258e-05
4 63 100 6 6.9831e-06
5 63 100 6 6.29096e-06
6 63 100 6 0.00509477
1 64 100 6 0.510283
2 64 100 6 3.75844e-05
3 64 100 6 0.00627971
4 64 100 6 0.00016244
5 64 100 6 0.00128487
6 64 100 6 0.481952
1 65 100 6 0.278317
2 65 100 6 0.00013037
3 65 100 6 0.000286255
5 65 100 6 1.99989e-05
6 65 100 6 0.721247
1 66 100 6 0.233542
3 66 100 6 0.00897625
4 66 100 6 0.000162617
6 66 100 6 0.757319
1 68 100 6 0.437622
2 68 100 6 0.000886009
3 68 100 6 0.00200916
4 68 100 6 5.70389e-05
5 68 100 6 6.59228e-05
6 68 100 6 0.55936
5 69 100 6 0.0187773
6 69 100 6 0.981223
1 70 100 6 0.218043
2 70 100 6 0.00148198
3 70 100 6 0.611982
4 70 100 6 0.122092
5 70 100 6 2.36623e-05
6 70 100 6 0.0463774
1 71 100 6 0.945652
2 71 100 6 0.000392956
3 71 100 6 0.0531832
4 71 100 6 0.0007716
1 72 100 6 0.931956
2 72 100 6 0.00132984
3 72 100 6 0.000969908
4 72 100 6 0.00192634
5 72 100 6 0.051666
6 72 100 6 0.0121515
1 73 100 6 0.274382
2 73 100 6 0.00375923
3 73 100 6 0.00594389
4 73 100 6 0.00837976
5 73 100 6 0.00971285
6 73 100 6 0.697822
2 74 100 6 0.00266929
3 74 100 6 0.995628
4 74 100 6 0.00127502
5 74 100 6 0.000427921
1 75 100 6 0.0637541
2 75 100 6 0.225219
3 75 100 6 0.221874
4 75 100 6 0.224887
5 75 100 6 0.22108
6 75 100 6 0.0431861
1 76 100 6 0.000354875
2 76 100 6 0.00396156
3 76 100 6 0.0299579
4 76 100 6 0.323952
5 76 100 6 0.32378
6 76 100 6 0.317994
1 77 100 6 0.000686776
2 77 100 6 0.00546326
3 77 100 6 0.987757
4 77 100 6 0.000350284
5 77 100 6 0.000295208
6 77 100 6 0.00544703
2 78 100 6 0.00816614
3 78 100 6 0.865202
4 78 100 6 0.000112404
5 78 100 6 7.8377e-05
6 78 100 6 0.126441
3 79 100 6 0.0031599
6 79 100 6 0.99684
1 80 100 6 0.00112623
3 80 100 6 0.946341
4 80 100 6 0.0472857
6 80 100 6 0.00524705
1 81 100 6 0.972897
2 81 100 6 3.27344e-05
3 81 100 6 0.00814118
4 81 100 6 0.00649303
5 81 100 6 3.48e-05
6 81 100 6 0.0124008
1 82 100 6 0.662961
2 82 100 6 0.000993129
3 82 100 6 0.011451
4 82 100 6 0.000106812
5 82 100 6 0.000118253
6 82 100 6 0.32437
1 83 100 6 0.0972644
2 83 100 6 0.00035416
3 83 100 6 0.0344214
4 83 100 6 0.00127012
5 83 100 6 0.00173686
6 83 100 6 0.864953
1 84 100 6 0.919769
2 84 100 6 0.000368281
3 84 100 6 0.0131768
4 84 100 6 0.0120493
5 84 100 6 7.91598e-05
6 84 100 6 0.0545577
1 85 100 6 6.98858e-07
2 85 100 6 0.228627
3 85 100 6 0.23044
4 85 100 6 0.230441
5 85 100 6 0.230452
6 85 100 6 0.0800406
2 86 100 6 0.0119908
3 86 100 6 0.98788
4 86 100 6 0.000103441
5 86 100 6 2.55944e-05
1 87 100 6 0.981163
2 87 100 6 0.000547549
3 87 100 6 0.00645148
4 87 100 6 0.000220061
5 87 100 6 0.000184919
6 87 100 6 0.0114327
1 88 100 6 0.880029
2 88 100 6 0.0523664
3 88 100 6 0.0172155
4 88 100 6 0.000220684
5 88 100 6 0.000214312
6 88 100 6 0.0499542
1 89 100 6 0.0187264
2 89 100 6 0.0022515
3 89 100 6 0.975196
4 89 100 6 0.000513537
5 89 100 6 1.53763e-05
6 89 100 6 0.0032967
1 90 100 6 0.499699
2 90 100 6 0.491752
3 90 100 6 0.00840782
4 90 100 6 8.73248e-07
6 90 100 6 0.000140131
1 91 100 6 0.00635311
4 91 100 6 0.993647
1 92 100 6 0.974945
2 92 100 6 3.05505e-06
3 92 100 6 0.00116204
4 92 100 6 2.88552e-06
5 92 100 6 1.59562e-06
6 92 100 6 0.0238856
1 93 100 6 0.0312362
4 93 100 6 0.00787713
5 93 100 6 3.92945e-05
6 93 100 6 0.960847
1 94 100 6 0.994483
2 94 100 6 0.00548239
3 94 100 6 3.09934e-05
4 94 100 6 2.12318e-06
6 94 100 6 1.51283e-06
3 95 100 6 0.532663
4 95 100 6 0.467337
1 96 100 6 0.041798
2 96 100 6 0.235053
3 96 100 6 0.195327
4 96 100 6 0.235211
5 96 100 6 0.235219
6 96 100 6 0.057392
1 97 100 6 0.983712
2 97 100 6 0.00328542
3 97 100 6 0.00179757
6 97 100 6 0.0112054
1 98 100 6 0.114395
2 98 100 6 0.263289
3 98 100 6 0.275157
4 98 100 6 0.00244979
5 98 100 6 0.275599
6 98 100 6 0.0691116
1 99 100 6 0.578962
2 99 100 6 8.20818e-05
3 99 100 6 5.94481e-05
4 99 100 6 0.000105575
5 99 100 6 0.000186972
6 99 100 6 0.420603
1 100 100 6 0.985888
3 100 100 6 0.00602255
4 100 100 6 0.00761379
6 100 100 6 0.000475451
1 0 100 7 0.0289852
2 0 100 7 0.155181
3 0 100 7 0.201458
4 0 100 7 0.147262
5 0 100 7 0.143926
6 0 100 7 0.135841
7 0 100 7 0.187347
1 1 100 7 0.173476
2 1 100 7 0.132255
3 1 100 7 0.126326
4 1 100 7 0.121408
5 1 100 7 0.168108
6 1 100 7 0.171546
7 1 100 7 0.106882
1 2 100 7 0.139076
2 2 100 7 0.149159
3 2 100 7 0.129348
4 2 100 7 0.137229
5 2 100 7 0.164456
6 2 100 7 0.137213
7 2 100 7 0.14352
1 3 100 7 0.215822
2 3 100 7 0.178069
3 3 100 7 0.129053
4 3 100 7 0.0982771
5 3 100 7 0.128117
6 3 100 7 0.126919
7 3 100 7 0.123744
1 4 100 7 0.428434
2 4 100 7 0.00562361
3 4 100 7 0.140367
4 4 100 7 0.139693
5 4 100 7 0.139693
6 4 100 7 0.00534547
7 4 100 7 0.140845
1 5 100 7 0.143069
2 5 100 7 0.146589
3 5 100 7 0.13078
4 5 100 7 0.138061
5 5 100 7 0.135474
6 5 100 7 0.155898
7 5 100 7 0.150128
1 6 100 7 0.160588
2 6 100 7 0.143643
3 6 100 7 0.103396
4 6 100 7 0.157476
5 6 100 7 0.158295
6 6 100 7 0.154098
7 6 100 7 0.122504
1 7 100 7 0.121004
2 7 100 7 0.120992
3 7 100 7 0.140863
4 7 100 7 0.158187
5 7 100 7 0.140858
6 7 100 7 0.139783
7 7 100 7 0.178313
1 8 100 7 0.113577
2 8 100 7 0.164216
3 8 100 7 0.080242
4 8 100 7 0.160519
5 8 100 7 0.160493
6 8 100 7 0.16049
7 8 100 7 0.160463
1 9 100 7 0.0387944
2 9 100 7 0.182706
3 9 100 7 0.205606
4 9 100 7 0.0331809
5 9 100 7 0.180861
6 9 100 7 0.179155
7 9 100 7 0.179697
1 10 100 7 0.169565
2 10 100 7 0.000287442
3 10 100 7 0.00857303
4 10 100 7 0.820911
5 10 100 7 0.000243079
6 10 100 7 8.93603e-05
7 10 100 7 0.000331171
1 11 100 7 0.0745909
2 11 100 7 0.00188418
3 11 100 7 0.472694
4 11 100 7 0.445698
5 11 100 7 0.00160321
6 11 100 7 0.000407868
7 11 100 7 0.00312167
1 12 100 7 0.0555671
2 12 100 7 0.170848
3 12 100 7 0.134837
4 12 100 7 0.164629
5 12 100 7 0.166322
6 12 100 7 0.1473
7 12 100 7 0.160497
1 13 100 7 0.153988
2 13 100 7 0.206021
3 13 100 7 0.148099
4 13 100 7 0.152761
5 13 100 7 0.123824
6 13 100 7 0.151869
7 13 100 7 0.0634383
1 14 100 7 0.161029
2 14 100 7 0.101359
3 14 100 7 0.155929
4 14 100 7 0.158172
5 14 100 7 0.161929
6 14 100 7 0.109993
7 14 100 7 0.151589
1 15 100 7 0.00193912
2 15 100 7 0.348158
3 15 100 7 0.0254985
4 15 100 7 0.457903
5 15 100 7 0.000311946
6 15 100 7 0.144363
7 15 100 7 0.0218272
1 16 100 7 0.313742
2 16 100 7 0.355514
3 16 100 7 0.312342
4 16 100 7 0.0181049
5 16 100 7 7.82986e-05
6 16 100 7 7.62784e-06
7 16 100 7 0.000210525
1 17 100 7 0.197015
2 17 100 7 0.0317168
3 17 100 7 0.301869
4 17 100 7 0.254466
5 17 100 7 0.00355873
6 17 100 7 0.000168067
7 17 100 7 0.211207
1 18 100 7 0.141267
2 18 100 7 0.140503
3 18 100 7 0.140931
4 18 100 7 0.148289
5 18 100 7 0.139989
6 18 100 7 0.144166
7 18 100 7 0.144854
1 19 100 7 8.19668e-07
2 19 100 7 0.000364354
3 19 100 7 0.00853921
4 19 100 7 0.0796827
5 19 100 7 0.284603
6 19 100 7 0.285144
7 19 100 7 0.341665
1 20 100 7 0.0189691
2 20 100 7 0.000305133
3 20 100 7 0.048853
4 20 100 7 0.0021619
5 20 100 7 0.00129734
6 20 100 7 0.000199021
7 20 100 7 0.928214
1 21 100 7 0.661918
2 21 100 7 0.0211445
3 21 100 7 0.17594
4 21 100 7 0.00587201
5 21 100 7 0.00780181
6 21 100 7 0.0503624
7 21 100 7 0.076961
1 22 100 7 0.143752
2 22 100 7 0.145622
3 22 100 7 0.152532
4 22 100 7 0.126135
5 22 100 7 0.149269
6 22 100 7 0.14829
7 22 100 7 0.1344
2 23 100 7 0.00417709
3 23 100 7 0.262155
4 23 100 7 0.719302
5 23 100 7 0.000465503
6 23 100 7 5.8597e-05
7 23 100 7 0.0138412
2 24 100 7 3.30536e-05
3 24 100 7 0.00884293
4 24 100 7 0.298038
5 24 100 7 0.00195989
6 24 100 7 0.320795
7 24 100 7 0.370331
1 25 100 7 0.127304
2 25 100 7 0.186534
3 25 100 7 0.138551
4 25 100 7 0.179868
5 25 100 7 0.124871
6 25 100 7 0.132371
7 25 100 7 0.110502
1 26 100 7 1.22623e-05
2 26 100 7 0.240519
3 26 100 7 0.258715
4 26 100 7 0.1388
5 26 100 7 0.315251
6 26 100 7 0.000539772
7 26 100 7 0.0461628
1 27 100 7 0.841349
2 27 100 7 0.00102788
3 27 100 7 0.113642
4 27 100 7 0.00722499
5 27 100 7 0.00815254
6 27 100 7 0.000782712
7 27 100 7 0.0278209
2 28 100 7 7.97836e-05
3 28 100 7 0.885273
4 28 100 7 0.112756
5 28 100 7 0.000929195
7 28 100 7 0.000961445
1 29 100 7 0.331206
2 29 100 7 0.334542
3 29 100 7 0.318674
4 29 100 7 0.00211998
5 29 100 7 0.00105044
6 29 100 7 1.11526e-05
7 29 100 7 0.0123964
1 30 100 7 0.0198702
2 30 100 7 0.00151938
3 30 100 7 0.969452
4 30 100 7 0.00804409
5 30 100 7 5.20056e-05
6 30 100 7 0.000628081
7 30 100 7 0.00043445
1 31 100 7 0.000906518
2 31 100 7 0.419539
3 31 100 7 0.35833
4 31 100 7 0.216571
5 31 100 7 0.00167958
6 31 100 7 6.46681e-05
7 31 100 7 0.00290898
1 32 100 7 0.993845
2 32 100 7 6.2722e-06
3 32 100 7 0.00279457
4 32 100 7 0.00318761
5 32 100 7 1.66034e-05
6 32 100 7 0.000140472
7 32 100 7 9.42754e-06
1 33 100 7 0.000644895
2 33 100 7 0.975238
3 33 100 7 0.00980151
4 33 100 7 0.0106378
5 33 100 7 3.8545e-05
6 33 100 7 0.00320645
7 33 100 7 0.000432924
2 34 100 7 0.190314
3 34 100 7 0.182984
4 34 100 7 0.626363
5 34 100 7 0.0002539
6 34 100 7 1.55171e-05
7 34 100 7 7.00054e-05
1 35 100 7 0.00899032
2 35 100 7 0.00875984
3 35 100 7 0.0974997
4 35 100 7 0.884385
5 35 100 7 9.54188e-05
6 35 100 7 2.30057e-05
7 35 100 7 0.000246521
1 36 100 7 3.57916e-05
2 36 100 7 0.000262098
3 36 100 7 0.000211766
4 36 100 7 0.623978
5 36 100 7 0.375023
6 36 100 7 0.00026649
7 36 100 7 0.000223234
2 37 100 7 0.000182687
3 37 100 7 0.727027
4 37 100 7 0.272783
5 37 100 7 7.22411e-06
1 38 100 7 0.00199321
2 38 100 7 0.0015254
3 38 100 7 0.0122838
4 38 100 7 0.971918
5 38 100 7 0.0100152
7 38 100 7 0.00226388
3 39 100 7 0.0467439
4 39 100 7 0.882987
5 39 100 7 0.0227222
7 39 100 7 0.0475471
1 40 100 7 1.78465e-06
2 40 100 7 3.62895e-05
3 40 100 7 0.000218001
4 40 100 7 0.0166544
5 40 100 7 0.330772
6 40 100 7 0.346438
7 40 100 7 0.30588
1 41 100 7 1.99959e-06
2 41 100 7 9.03954e-06
3 41 100 7 0.768521
4 41 100 7 0.231386
5 41 100 7 2.35377e-05
6 41 100 7 3.33886e-06
7 41 100 7 5.47677e-05
1 42 100 7 6.64596e-05
2 42 100 7 0.00255066
3 42 100 7 0.714456
4 42 100 7 0.23504
5 42 100 7 0.0321214
6 42 100 7 0.00225215
7 42 100 7 0.0135137
2 43 100 7 0.0801912
3 43 100 7 0.453485
4 43 100 7 0.466162
5 43 100 7 2.67507e-05
6 43 100 7 0.000135487
1 44 100 7 0.785984
2 44 100 7 0.00849212
3 44 100 7 0.170372
4 44 100 7 0.033343
5 44 100 7 0.000217879
6 44 100 7 4.57348e-05
7 44 100 7 0.0015454
1 45 100 7 0.281068
2 45 100 7 0.25571
3 45 100 7 0.2575
4 45 100 7 0.202459
5 45 100 7 0.0031007
7 45 100 7 0.000161743
1 46 100 7 2.43926e-05
2 46 100 7 0.00586528
3 46 100 7 0.0453778
4 46 100 7 1.53586e-06
5 46 100 7 3.42231e-05
7 46 100 7 0.948697
1 47 100 7 0.252174
2 47 100 7 0.0165011
3 47 100 7 0.622332
4 47 100 7 0.103758
5 47 100 7 0.00414323
6 47 100 7 0.000802369
7 47 100 7 0.000289646
1 48 100 7 0.131876
2 48 100 7 0.160797
3 48 100 7 0.157744
4 48 100 7 0.159959
5 48 100 7 0.0492753
6 48 100 7 0.160968
7 48 100 7 0.179381
1 49 100 7 0.233443
2 49 100 7 0.390413
3 49 100 7 0.36434
4 49 100 7 0.0116966
5 49 100 7 7.83223e-07
6 49 100 7 2.56522e-06
7 49 100 7 0.000104208
2 50 100 7 0.000632262
3 50 100 7 0.913331
4 50 100 7 0.0371448
5 50 100 7 0.0488917
1 51 100 7 4.79222e-05
2 51 100 7 0.0111522
3 51 100 7 0.950257
4 51 100 7 0.0162946
5 51 100 7 0.0036844
6 51 100 7 0.000935004
7 51 100 7 0.0176293
2 52 100 7 0.000383498
3 52 100 7 0.0307887
4 52 100 7 0.927865
5 52 100 7 0.00159799
6 52 100 7 2.2731e-05
7 52 100 7 0.039342
2 53 100 7 0.000156587
3 53 100 7 0.0609353
4 53 100 7 0.172651
5 53 100 7 0.0022451
6 53 100 7 6.26368e-05
7 53 100 7 0.763949
1 54 100 7 1.74878e-05
2 54 100 7 0.0630921
3 54 100 7 0.698497
4 54 100 7 0.238303
5 54 100 7 4.33148e-05
6 54 100 7 5.45739e-06
7 54 100 7 4.16445e-05
1 55 100 7 0.189173
2 55 100 7 0.187763
3 55 100 7 0.50202
4 55 100 7 0.108325
5 55 100 7 0.0126052
6 55 100 7 6.0701e-07
7 55 100 7 0.000112709
1 56 100 7 0.109372
2 56 100 7 0.00698743
3 56 100 7 0.0071308
4 56 100 7 0.710723
5 56 100 7 0.122884
7 56 100 7 0.0429023
1 57 100 7 0.997818
2 57 100 7 8.78282e-05
3 57 100 7 6.78314e-05
4 57 100 7 0.000498051
5 57 100 7 0.00119587
6 57 100 7 5.34726e-05
7 57 100 7 0.000278825
2 58 100 7 0.00034829
3 58 100 7 0.846782
4 58 100 7 0.0328055
7 58 100 7 0.120064
1 59 100 7 0.00270337
2 59 100 7 0.00158606
3 59 100 7 0.0357333
7 59 100 7 0.959977
1 60 100 7 0.0356194
2 60 100 7 0.181783
3 60 100 7 0.17879
4 60 100 7 0.0524629
5 60 100 7 0.176301
6 60 100 7 0.186907
7 60 100 7 0.188136
2 61 100 7 0.00012313
3 61 100 7 0.000374331
5 61 100 7 0.000166728
7 61 100 7 0.999336
2 62 100 7 0.0243939
3 62 100 7 0.5971
4 62 100 7 0.377024
5 62 100 7 0.00132723
6 62 100 7 1.72212e-05
7 62 100 7 0.000137778
4 63 100 7 0.539227
5 63 100 7 0.460106
6 63 100 7 0.000145853
7 63 100 7 0.0005214
1 64 100 7 0.794153
2 64 100 7 0.00304144
3 64 100 7 4.24303e-05
4 64 100 7 7.21231e-05
5 64 100 7 0.000449056
7 64 100 7 0.202242
3 65 100 7 0.0222976
4 65 100 7 0.844972
7 65 100 7 0.13273
1 66 100 7 0.972283
2 66 100 7 0.00560197
3 66 100 7 0.00420956
4 66 100 7 0.0170388
5 66 100 7 0.000622941
6 66 100 7 0.000124089
7 66 100 7 0.000120207
1 67 100 7 0.000164905
2 67 100 7 0.00657342
3 67 100 7 8.25714e-05
4 67 100 7 0.292994
5 67 100 7 0.662751
6 67 100 7 0.000113988
7 67 100 7 0.0373207
7 68 100 7 1
2 69 100 7 0.217487
3 69 100 7 9.38059e-05
4 69 100 7 0.781691
5 69 100 7 4.70383e-05
6 69 100 7 0.000680818
3 70 100 7 1.25306e-05
4 70 100 7 0.00548077
5 70 100 7 0.39787
6 70 100 7 0.372063
7 70 100 7 0.224574
2 71 100 7 9.05461e-05
3 71 100 7 0.000276482
4 71 100 7 0.998635
5 71 100 7 0.000149822
6 71 100 7 1.93503e-05
7 71 100 7 0.000829255
4 72 100 7 0.00984563
5 72 100 7 0.984228
7 72 100 7 0.00592677
4 73 100 7 0.165558
5 73 100 7 0.827264
6 73 100 7 0.00105578
7 73 100 7 0.00612246
1 74 100 7 0.000221025
2 74 100 7 0.0743556
3 74 100 7 0.282015
4 74 100 7 0.013185
5 74 100 7 0.281302
6 74 100 7 0.282168
7 74 100 7 0.0667528
1 75 100 7 0.148974
2 75 100 7 0.156013
3 75 100 7 0.156132
4 75 100 7 0.135183
5 75 100 7 0.156175
6 75 100 7 0.156129
7 75 100 7 0.0913942
1 76 100 7 0.391934
2 76 100 7 0.414267
3 76 100 7 0.00359996
4 76 100 7 0.176147
5 76 100 7 0.00456264
6 76 100 7 0.000334571
7 76 100 7 0.00915409
1 77 100 7 8.48286e-05
4 77 100 7 0.995633
5 77 100 7 0.0042799
6 77 100 7 2.3728e-06
1 78 100 7 0.000639009
2 78 100 7 2.14011e-05
3 78 100 7 0.0377009
4 78 100 7 0.937476
5 78 100 7 0.0231468
7 78 100 7 0.00101632
1 79 100 7 5.49659e-06
3 79 100 7 0.00770287
4 79 100 7 0.0106228
5 79 100 7 0.278352
6 79 100 7 0.35243
7 79 100 7 0.350887
1 80 100 7 0.0733666
2 80 100 7 0.00026038
3 80 100 7 0.0137951
4 80 100 7 0.908391
5 80 100 7 0.0041241
6 80 100 7 2.69529e-05
7 80 100 7 3.59611e-05
4 81 100 7 1
1 82 100 7 0.942362
2 82 100 7 0.023791
4 82 100 7 0.000104308
7 82 100 7 0.0337427
2 83 100 7 4.85182e-05
3 83 100 7 0.209713
4 83 100 7 0.74508
5 83 100 7 0.0444991
7 83 100 7 0.000660057
1 84 100 7 0.0376692
2 84 100 7 0.0266063
3 84 100 7 5.10819e-05
4 84 100 7 0.865077
5 84 100 7 0.0699966
6 84 100 7 4.51811e-05
7 84 100 7 0.000554655
2 85 100 7 0.825334
4 85 100 7 0.11623
7 85 100 7 0.0584355
4 86 100 7 1
1 87 100 7 0.00632692
2 87 100 7 0.99366
3 87 100 7 1.29205e-05
1 88 100 7 0.902141
2 88 100 7 0.000133143
4 88 100 7 0.0977256
1 89 100 7 0.354673
2 89 100 7 0.353403
3 89 100 7 0.290826
4 89 100 7 0.000928387
5 89 100 7 0.000169518
4 90 100 7 0.843135
7 90 100 7 0.156865
1 91 100 7 0.0735632
2 91 100 7 0.926181
3 91 100 7 0.00011815
4 91 100 7 0.000117123
7 91 100 7 2.09296e-05
1 92 100 7 0.0257491
2 92 100 7 0.000554621
3 92 100 7 0.0111007
4 92 100 7 0.237123
5 92 100 7 0.00686419
7 92 100 7 0.718608
1 93 100 7 0.000101396
2 93 100 7 9.9366e-05
4 93 100 7 0.0147974
7 93 100 7 0.985002
1 94 100 7 0.999129
2 94 100 7 0.000729108
3 94 100 7 1.56911e-05
4 94 100 7 0.000116023
5 94 100 7 4.49261e-06
6 94 100 7 6.06711e-06
1 95 100 7 0.0147827
2 95 100 7 5.47355e-05
3 95 100 7 0.979276
4 95 100 7 0.00471011
5 95 100 7 0.000162923
7 95 100 7 0.00101399
7 96 100 7 1
4 97 100 7 0.111439
7 97 100 7 0.888561
1 98 100 7 0.00889747
4 98 100 7 0.991103
1 99 100 7 0.98316
2 99 100 7 0.0104247
7 99 100 7 0.00641536
1 0 100 8 0.0183639
2 0 100 8 0.0884635
3 0 100 8 0.121879
4 0 100 8 0.151315
5 0 100 8 0.13754
6 0 100 8 0.195695
7 0 100 8 0.142349
8 0 100 8 0.144395
1 1 100 8 0.223749
2 1 100 8 0.127334
3 1 100 8 0.146462
4 1 100 8 0.0851303
5 1 100 8 0.0791539
6 1 100 8 0.0831007
7 1 100 8 0.136102
8 1 100 8 0.118968
1 2 100 8 0.108189
2 2 100 8 0.102978
3 2 100 8 0.102229
4 2 100 8 0.171231
5 2 100 8 0.103095
6 2 100 8 0.136872
7 2 100 8 0.137293
8 2 100 8 0.138114
1 3 100 8 0.138226
2 3 100 8 0.143641
3 3 100 8 0.115233
4 3 100 8 0.0893095
5 3 100 8 0.126639
6 3 100 8 0.143098
7 3 100 8 0.143315
8 3 100 8 0.100538
1 4 100 8 0.1089
2 4 100 8 0.0785418
3 4 100 8 0.108295
4 4 100 8 0.135392
5 4 100 8 0.11628
6 4 100 8 0.182284
7 4 100 8 0.161682
8 4 100 8 0.108626
1 5 100 8 0.25447
2 5 100 8 0.118191
3 5 100 8 0.115626
4 5 100 8 0.114081
5 5 100 8 0.156921
6 5 100 8 0.115435
7 5 100 8 0.000226974
8 5 100 8 0.12505
1 6 100 8 0.177881
2 6 100 8 0.167425
3 6 100 8 0.167031
4 6 100 8 0.125487
5 6 100 8 0.124889
6 6 100 8 0.084142
7 6 100 8 0.0799552
8 6 100 8 0.0731907
1 7 100 8 0.119993
2 7 100 8 0.178524
3 7 100 8 0.175146
4 7 100 8 0.139118
5 7 100 8 0.142816
6 7 100 8 0.00172137
7 7 100 8 0.135513
8 7 100 8 0.107169
1 8 100 8 0.00285795
2 8 100 8 0.118083
3 8 100 8 0.118323
4 8 100 8 0.175623
5 8 100 8 0.177497
6 8 100 8 0.0517588
7 8 100 8 0.178335
8 8 100 8 0.177522
1 9 100 8 0.137453
2 9 100 8 0.143587
3 9 100 8 0.0957318
4 9 100 8 0.144089
5 9 100 8 0.143612
6 9 100 8 0.0958527
7 9 100 8 0.0961624
8 9 100 8 0.143512
1 10 100 8 0.0466563
2 10 100 8 0.121527
3 10 100 8 0.176146
4 10 100 8 0.175261
5 10 100 8 0.146735
6 10 100 8 0.162923
7 10 100 8 0.0847363
8 10 100 8 0.0860152
1 11 100 8 3.63709e-05
2 11 100 8 9.76841e-05
3 11 100 8 0.000159957
4 11 100 8 0.0156763
5 11 100 8 0.000834304
6 11 100 8 0.280376
7 11 100 8 0.417329
8 11 100 8 0.285489
1 12 100 8 0.161795
2 12 100 8 0.117463
3 12 100 8 0.128435
4 12 100 8 0.118176
5 12 100 8 0.116188
6 12 100 8 0.117564
7 12 100 8 0.116148
8 12 100 8 0.124232
1 13 100 8 1.18836e-06
2 13 100 8 0.00108657
3 13 100 8 0.107343
4 13 100 8 0.198191
5 13 100 8 0.197463
6 13 100 8 0.19797
7 13 100 8 0.104484
8 13 100 8 0.193462
1 14 100 8 0.157155
2 14 100 8 0.158869
3 14 100 8 0.119189
4 14 100 8 0.157853
5 14 100 8 0.107161
6 14 100 8 0.0961317
7 14 100 8 0.0964877
8 14 100 8 0.107153
1 15 100 8 0.00056023
2 15 100 8 2.66787e-05
3 15 100 8 0.00617176
4 15 100 8 0.611346
5 15 100 8 0.00201837
6 15 100 8 0.00522601
7 15 100 8 0.000309288
8 15 100 8 0.374341
1 16 100 8 0.0795294
2 16 100 8 0.0114357
3 16 100 8 0.219672
4 16 100 8 0.00503741
5 16 100 8 0.0259525
6 16 100 8 0.000632184
7 16 100 8 0.00309687
8 16 100 8 0.654644
1 17 100 8 0.00108926
2 17 100 8 0.000330106
3 17 100 8 7.78759e-05
4 17 100 8 0.141184
5 17 100 8 0.850129
6 17 100 8 0.00188208
7 17 100 8 0.0013908
8 17 100 8 0.00391663
1 18 100 8 0.000303358
2 18 100 8 1.42173e-05
3 18 100 8 0.00173004
4 18 100 8 0.00526079
5 18 100 8 0.255793
6 18 100 8 0.317155
7 18 100 8 0.0452001
8 18 100 8 0.374544
1 19 100 8 0.371831
2 19 100 8 0.613117
3 19 100 8 0.0136492
4 19 100 8 0.00025056
5 19 100 8 0.000462736
6 19 100 8 0.000108648
7 19 100 8 0.000474305
8 19 100 8 0.000106138
1 20 100 8 0.00134909
2 20 100 8 0.00299268
3 20 100 8 0.0108066
4 20 100 8 0.126897
5 20 100 8 0.842508
6 20 100 8 0.00233234
7 20 100 8 0.00175511
8 20 100 8 0.0113587
1 21 100 8 0.0915414
2 21 100 8 0.124436
3 21 100 8 0.11916
4 21 100 8 0.15184
5 21 100 8 0.117989
6 21 100 8 0.188386
7 21 100 8 0.124109
8 21 100 8 0.0825382
1 22 100 8 2.58335e-05
2 22 100 8 1.57194e-05
3 22 100 8 0.00198358
4 22 100 8 0.008273
5 22 100 8 0.983806
6 22 100 8 0.00555295
7 22 100 8 1.11368e-05
8 22 100 8 0.000331315
1 23 100 8 0.132233
2 23 100 8 0.192737
3 23 100 8 0.133968
4 23 100 8 0.0302586
5 23 100 8 0.107641
6 23 100 8 0.133873
7 23 100 8 0.134277
8 23 100 8 0.135012
1 24 100 8 0.398161
2 24 100 8 0.345456
3 24 100 8 0.249524
4 24 100 8 0.00620876
5 24 100 8 0.000542243
6 24 100 8 0.000100053
7 24 100 8 2.49932e-06
8 24 100 8 5.59594e-06
1 25 100 8 0.00880306
2 25 100 8 0.000143642
3 25 100 8 0.00531644
4 25 100 8 0.94121
5 25 100 8 0.0166614
6 25 100 8 0.00284009
7 25 100 8 3.45025e-05
8 25 100 8 0.024991
1 26 100 8 0.000220617
2 26 100 8 0.00257679
3 26 100 8 0.959434
4 26 100 8 5.06844e-05
5 26 100 8 0.0162753
6 26 100 8 3.61974e-05
7 26 100 8 1.30863e-05
8 26 100 8 0.0213935
1 27 100 8 0.000238109
2 27 100 8 0.00195968
3 27 100 8 0.00158966
4 27 100 8 0.00458621
5 27 100 8 0.984654
6 27 100 8 0.00148506
8 27 100 8 0.00548754
1 28 100 8 1.54108e-05
2 28 100 8 0.000740582
3 28 100 8 0.130714
4 28 100 8 0.34739
5 28 100 8 0.268535
6 28 100 8 0.245674
7 28 100 8 4.02696e-05
8 28 100 8 0.00689076
1 29 100 8 0.000646364
2 29 100 8 2.03268e-06
3 29 100 8 0.000228947
4 29 100 8 0.00566567
5 29 100 8 0.107412
6 29 100 8 0.290299
7 29 100 8 0.29073
8 29 100 8 0.305017
1 30 100 8 0.0139543
2 30 100 8 0.000157848
3 30 100 8 0.000206652
4 30 100 8 0.956216
5 30 100 8 0.0266266
6 30 100 8 0.00185862
7 30 100 8 0.000963668
8 30 100 8 1.66006e-05
1 31 100 8 0.184028
2 31 100 8 0.153818
3 31 100 8 0.14968
4 31 100 8 0.0689348
5 31 100 8 0.0582251
6 31 100 8 0.159105
7 31 100 8 0.159927
8 31 100 8 0.066281
1 32 100 8 0.00185939
2 32 100 8 0.000307403
3 32 100 8 0.00178816
4 32 100 8 0.965244
5 32 100 8 0.0236622
6 32 100 8 0.00712379
7 32 100 8 1.46938e-05
1 33 100 8 0.264156
2 33 100 8 0.23865
3 33 100 8 0.242701
4 33 100 8 0.237602
5 33 100 8 0.0167699
6 33 100 8 5.26881e-06
7 33 100 8 1.55343e-05
8 33 100 8 0.000100801
1 34 100 8 0.184
2 34 100 8 0.260269
3 34 100 8 0.25643
4 34 100 8 0.25969
5 34 100 8 0.0358263
6 34 100 8 0.00369556
7 34 100 8 8.0479e-05
8 34 100 8 8.74362e-06
1 35 100 8 0.792486
2 35 100 8 8.92465e-05
3 35 100 8 0.0105799
4 35 100 8 0.186874
5 35 100 8 0.00726413
6 35 100 8 0.00104979
7 35 100 8 7.24397e-05
8 35 100 8 0.00158399
1 36 100 8 0.388211
2 36 100 8 0.389341
3 36 100 8 0.20123
4 36 100 8 0.0200567
5 36 100 8 0.000142128
6 36 100 8 0.000983919
7 36 100 8 5.75326e-07
8 36 100 8 3.4602e-05
2 37 100 8 0.000335743
3 37 100 8 0.0095301
4 37 100 8 0.00219507
5 37 100 8 0.80535
6 37 100 8 0.179602
7 37 100 8 0.000164296
8 37 100 8 0.00282306
1 38 100 8 0.319612
2 38 100 8 0.323291
3 38 100 8 0.328061
4 38 100 8 0.0283728
5 38 100 8 0.000598982
6 38 100 8 2.68086e-05
7 38 100 8 9.00124e-06
8 38 100 8 2.90586e-05
1 39 100 8 0.000120803
2 39 100 8 0.000215844
3 39 100 8 0.00575451
4 39 100 8 0.991804
5 39 100 8 0.00184946
6 39 100 8 6.77427e-05
7 39 100 8 2.55625e-05
8 39 100 8 0.000162349
1 40 100 8 5.1739e-05
2 40 100 8 0.000253666
3 40 100 8 0.00332951
4 40 100 8 0.165863
5 40 100 8 0.33167
6 40 100 8 0.494359
7 40 100 8 0.00447007
8 40 100 8 2.3381e-06
1 41 100 8 5.15907e-06
2 41 100 8 0.115824
3 41 100 8 0.199215
4 41 100 8 0.00788795
5 41 100 8 0.144175
6 41 100 8 0.0962807
7 41 100 8 0.281242
8 41 100 8 0.15537
1 42 100 8 0.990586
2 42 100 8 0.00618125
3 42 100 8 0.000404323
4 42 100 8 0.000163647
5 42 100 8 0.00252795
6 42 100 8 7.75542e-06
7 42 100 8 1.49863e-06
8 42 100 8 0.000127642
1 43 100 8 0.00163591
2 43 100 8 0.00224366
3 43 100 8 0.00265089
4 43 100 8 7.90981e-05
5 43 100 8 0.993242
6 43 100 8 0.000148789
1 44 100 8 0.0011618
2 44 100 8 8.69749e-05
3 44 100 8 0.00943187
4 44 100 8 0.667256
5 44 100 8 0.28046
6 44 100 8 0.00666032
7 44 100 8 8.44944e-05
8 44 100 8 0.0348593
1 45 100 8 0.145426
2 45 100 8 0.148066
3 45 100 8 0.140366
4 45 100 8 0.0569571
5 45 100 8 0.0832434
6 45 100 8 0.130065
7 45 100 8 0.148331
8 45 100 8 0.147544
1 46 100 8 0.00129666
2 46 100 8 0.000183732
3 46 100 8 0.0152764
4 46 100 8 0.00369178
5 46 100 8 0.975791
6 46 100 8 0.00354325
7 46 100 8 0.000165679
8 46 100 8 5.1888e-05
1 47 100 8 0.40582
2 47 100 8 0.436383
3 47 100 8 0.157657
4 47 100 8 5.39065e-05
5 47 100 8 2.66392e-05
6 47 100 8 3.99868e-05
7 47 100 8 5.84808e-06
8 47 100 8 1.37066e-05
1 48 100 8 0.000502077
2 48 100 8 0.00569419
3 48 100 8 0.308713
4 48 100 8 0.374867
5 48 100 8 0.301499
6 48 100 8 0.00064167
7 48 100 8 8.02283e-05
8 48 100 8 0.00800293
1 49 100 8 3.54213e-05
2 49 100 8 7.97927e-06
3 49 100 8 5.66552e-06
4 49 100 8 1.84574e-05
5 49 100 8 0.0114841
6 49 100 8 0.288512
7 49 100 8 0.349856
8 49 100 8 0.35008
1 50 100 8 0.00415668
2 50 100 8 0.179439
3 50 100 8 0.699375
4 50 100 8 0.0686877
5 50 100 8 0.029262
6 50 100 8 0.0112138
7 50 100 8 0.00425638
8 50 100 8 0.00360911
1 51 100 8 0.062574
2 51 100 8 0.150746
3 51 100 8 0.142757
4 51 100 8 0.147091
5 51 100 8 0.166193
6 51 100 8 0.0251424
7 51 100 8 0.152375
8 51 100 8 0.153121
1 52 100 8 0.000303166
2 52 100 8 5.13934e-06
3 52 100 8 0.00732812
4 52 100 8 0.0483527
5 52 100 8 0.943916
6 52 100 8 1.93512e-05
7 52 100 8 6.97523e-05
8 52 100 8 6.10781e-06
1 53 100 8 2.54016e-05
2 53 100 8 0.00161341
3 53 100 8 0.00242102
4 53 100 8 0.000124496
5 53 100 8 1.79543e-05
6 53 100 8 0.000562785
7 53 100 8 0.00900787
8 53 100 8 0.986227
1 54 100 8 5.26613e-05
2 54 100 8 4.69574e-05
3 54 100 8 0.000208588
5 54 100 8 0.00134116
6 54 100 8 0.00472888
7 54 100 8 0.000343881
8 54 100 8 0.993278
1 55 100 8 1.6342e-05
2 55 100 8 1.74523e-05
3 55 100 8 0.00235777
4 55 100 8 0.00618365
5 55 100 8 0.98018
6 55 100 8 2.77199e-05
7 55 100 8 7.77744e-06
8 55 100 8 0.0112093
1 56 100 8 0.00130448
3 56 100 8 0.0199087
4 56 100 8 0.840276
6 56 100 8 0.00136071
7 56 100 8 0.000385453
8 56 100 8 0.136765
1 57 100 8 0.166467
2 57 100 8 0.00620093
3 57 100 8 0.784393
5 57 100 8 0.000307504
7 57 100 8 0.0426318
1 58 100 8 0.00927078
2 58 100 8 0.000372321
3 58 100 8 0.0228844
4 58 100 8 0.41246
5 58 100 8 0.000783664
6 58 100 8 0.000142841
8 58 100 8 0.554086
1 59 100 8 0.574994
2 59 100 8 0.000315673
3 59 100 8 0.0291228
4 59 100 8 0.213678
5 59 100 8 0.00270125
6 59 100 8 0.000302773
7 59 100 8 0.000667423
8 59 100 8 0.178217
2 60 100 8 0.00477051
3 60 100 8 0.00498955
4 60 100 8 0.258039
5 60 100 8 0.283561
6 60 100 8 0.373672
7 60 100 8 0.00537288
8 60 100 8 0.0695946
1 61 100 8 0.000235998
2 61 100 8 4.9545e-06
3 61 100 8 8.40696e-06
4 61 100 8 0.000625897
5 61 100 8 0.00603333
6 61 100 8 0.323441
7 61 100 8 0.322687
8 61 100 8 0.346963
1 62 100 8 0.956851
2 62 100 8 7.84395e-05
3 62 100 8 1.84001e-05
4 62 100 8 2.1428e-05
5 62 100 8 0.0429721
6 62 100 8 3.69948e-06
7 62 100 8 4.33119e-05
8 62 100 8 1.18521e-05
1 63 100 8 0.000168763
3 63 100 8 4.91899e-06
4 63 100 8 0.807881
5 63 100 8 0.171656
6 63 100 8 0.0202164
7 63 100 8 5.87619e-06
8 63 100 8 6.76129e-05
1 64 100 8 0.885051
2 64 100 8 2.2524e-06
3 64 100 8 0.00166724
4 64 100 8 1.58904e-05
5 64 100 8 0.0143934
6 64 100 8 0.00023458
7 64 100 8 3.38793e-05
8 64 100 8 0.0986021
1 65 100 8 0.00397475
2 65 100 8 5.45052e-05
3 65 100 8 6.38495e-05
4 65 100 8 0.112335
5 65 100 8 1.2568e-05
6 65 100 8 5.83948e-05
7 65 100 8 1.09314e-05
8 65 100 8 0.883491
1 66 100 8 1.6708e-05
2 66 100 8 1.02278e-06
3 66 100 8 0.00537326
4 66 100 8 0.000298528
5 66 100 8 0.130498
6 66 100 8 0.293697
7 66 100 8 0.289467
8 66 100 8 0.280649
1 67 100 8 0.0881307
2 67 100 8 0.00294597
3 67 100 8 0.663411
4 67 100 8 0.233453
5 67 100 8 2.17006e-05
7 67 100 8 0.00969307
8 67 100 8 0.00234512
1 68 100 8 0.0182025
2 68 100 8 0.000207159
3 68 100 8 0.00149988
4 68 100 8 0.000355647
5 68 100 8 0.00051728
6 68 100 8 7.47422e-05
7 68 100 8 0.000133234
8 68 100 8 0.97901
1 69 100 8 0.00197824
2 69 100 8 0.00125918
3 69 100 8 0.00619006
4 69 100 8 0.990197
5 69 100 8 0.000125933
6 69 100 8 7.21968e-05
8 69 100 8 0.000177313
1 70 100 8 0.0320443
2 70 100 8 6.43066e-06
3 70 100 8 0.000543805
4 70 100 8 0.00147671
5 70 100 8 0.00495399
6 70 100 8 8.25959e-05
7 70 100 8 6.519e-06
8 70 100 8 0.960886
1 71 100 8 5.51229e-05
2 71 100 8 4.57508e-05
3 71 100 8 0.000697967
4 71 100 8 0.987675
5 71 100 8 0.0113005
6 71 100 8 0.000109603
7 71 100 8 2.8099e-05
8 71 100 8 8.81472e-05
3 72 100 8 0.00086201
4 72 100 8 0.958747
5 72 100 8 0.0295798
7 72 100 8 0.010811
1 73 100 8 0.000236126
2 73 100 8 0.000133719
3 73 100 8 0.00795637
4 73 100 8 0.601857
5 73 100 8 0.387803
6 73 100 8 0.000103037
7 73 100 8 0.00128655
8 73 100 8 0.00062483
1 74 100 8 0.0350733
2 74 100 8 0.233168
3 74 100 8 0.0018319
4 74 100 8 0.0910837
5 74 100 8 0.097526
6 74 100 8 0.235286
7 74 100 8 0.225012
8 74 100 8 0.0810191
1 75 100 8 0.00441026
2 75 100 8 0.142636
3 75 100 8 0.144604
4 75 100 8 0.129868
5 75 100 8 0.146269
6 75 100 8 0.143839
7 75 100 8 0.143825
8 75 100 8 0.14455
1 76 100 8 0.0530494
2 76 100 8 0.0121412
3 76 100 8 0.103465
4 76 100 8 0.108145
5 76 100 8 0.166473
6 76 100 8 0.208359
7 76 100 8 0.213027
8 76 100 8 0.135341
1 77 100 8 0.275246
2 77 100 8 0.269074
3 77 100 8 0.382176
4 77 100 8 0.0708452
5 77 100 8 0.00263269
6 77 100 8 9.6382e-06
8 77 100 8 1.63823e-05
1 78 100 8 0.970708
2 78 100 8 0.0108729
3 78 100 8 0.00454269
4 78 100 8 0.00870583
5 78 100 8 0.000627045
6 78 100 8 0.00232972
7 78 100 8 6.27239e-06
8 78 100 8 0.00220771
1 79 100 8 0.167768
2 79 100 8 0.167915
3 79 100 8 0.0264075
4 79 100 8 0.168878
5 79 100 8 0.156591
6 79 100 8 0.164761
7 79 100 8 0.000790878
8 79 100 8 0.146888
1 80 100 8 6.66136e-05
2 80 100 8 0.00400076
3 80 100 8 0.000185237
4 80 100 8 0.86585
5 80 100 8 0.125806
6 80 100 8 6.31995e-05
7 80 100 8 0.00393361
8 80 100 8 9.36872e-05
1 81 100 8 0.000863532
2 81 100 8 0.00025325
3 81 100 8 0.000594583
4 81 100 8 0.29719
5 81 100 8 0.700731
6 81 100 8 0.000240479
7 81 100 8 3.06699e-05
8 81 100 8 9.72566e-05
1 82 100 8 4.85391e-06
3 82 100 8 1.24547e-05
4 82 100 8 0.00764274
5 82 100 8 0.000270373
8 82 100 8 0.99207
1 83 100 8 0.000197327
2 83 100 8 7.09185e-05
3 83 100 8 0.0047061
4 83 100 8 0.000237821
6 83 100 8 0.00168119
7 83 100 8 8.841e-05
8 83 100 8 0.993018
1 84 100 8 0.968342
2 84 100 8 0.00108166
3 84 100 8 0.00432435
4 84 100 8 1.44313e-05
5 84 100 8 8.8636e-06
6 84 100 8 0.000880308
7 84 100 8 0.000860305
8 84 100 8 0.0244882
2 85 100 8 0.000413218
3 85 100 8 0.00226245
4 85 100 8 4.29345e-05
5 85 100 8 0.0230147
6 85 100 8 2.94385e-06
7 85 100 8 7.81395e-05
8 85 100 8 0.974186
1 86 100 8 0.0516973
3 86 100 8 0.172751
4 86 100 8 0.388792
5 86 100 8 0.0578307
6 86 100 8 0.0316494
7 86 100 8 0.297279
1 87 100 8 0.0299051
2 87 100 8 0.207305
3 87 100 8 0.724099
4 87 100 8 0.000267881
7 87 100 8 0.0382019
8 87 100 8 0.000221033
1 88 100 8 0.0189594
2 88 100 8 3.4715e-05
6 88 100 8 4.4423e-05
8 88 100 8 0.980961
1 89 100 8 0.998233
2 89 100 8 0.000603535
3 89 100 8 5.50741e-06
4 89 100 8 6.71097e-06
5 89 100 8 3.57204e-06
6 89 100 8 0.00113289
8 89 100 8 1.44499e-05
1 90 100 8 0.000119064
2 90 100 8 0.000104456
3 90 100 8 0.000315679
4 90 100 8 0.00760997
5 90 100 8 0.981412
6 90 100 8 0.0103573
7 90 100 8 6.74793e-05
8 90 100 8 1.40571e-05
1 91 100 8 0.0689092
2 91 100 8 0.000690579
3 91 100 8 0.0330306
6 91 100 8 0.89737
1 92 100 8 0.916921
2 92 100 8 1.79764e-05
3 92 100 8 1.0978e-05
4 92 100 8 0.00197164
5 92 100 8 0.000140971
7 92 100 8 0.000496786
8 92 100 8 0.0804407
4 93 100 8 0.000497121
6 93 100 8 0.248623
8 93 100 8 0.75088
1 94 100 8 0.338892
2 94 100 8 0.390353
3 94 100 8 0.257172
4 94 100 8 0.000480382
5 94 100 8 0.0129337
6 94 100 8 1.26373e-05
8 94 100 8 0.000156299
1 95 100 8 0.996786
2 95 100 8 0.00170733
3 95 100 8 2.01124e-06
4 95 100 8 0.000883151
5 95 100 8 0.000516978
6 95 100 8 2.72972e-05
7 95 100 8 7.1598e-05
8 95 100 8 5.17566e-06
1 96 100 8 0.000127951
3 96 100 8 1.74689e-05
4 96 100 8 0.000331001
5 96 100 8 0.000214389
6 96 100 8 0.000870742
8 96 100 8 0.998438
4 97 100 8 0.279367
5 97 100 8 0.0289604
6 97 100 8 0.00549139
8 97 100 8 0.686181
1 98 100 8 0.00528178
2 98 100 8 0.675844
3 98 100 8 0.00587779
4 98 100 8 0.0979433
6 98 100 8 0.00121629
7 98 100 8 0.00271534
8 98 100 8 0.211121
2 99 100 8 0.00653583
3 99 100 8 0.29615
4 99 100 8 0.00515095
5 99 100 8 0.00440604
6 99 100 8 0.00156252
7 99 100 8 0.0103767
8 99 100 8 0.675818
1 100 100 8 0.980548
2 100 100 8 0.0165121
5 100 100 8 0.000801557
6 100 100 8 0.000939549
8 100 100 8 0.00119838
1 0 100 9 0.00908989
2 0 100 9 0.0883999
3 0 100 9 0.1023
4 0 100 9 0.188493
5 0 100 9 0.119047
6 0 100 9 0.285397
7 0 100 9 0.0540498
8 0 100 9 0.0989925
9 0 100 9 0.0542307
1 1 100 9 0.0729643
2 1 100 9 0.112922
3 1 100 9 0.117356
4 1 100 9 0.131389
5 1 100 9 0.127788
6 1 100 9 0.0909558
7 1 100 9 0.133582
8 1 100 9 0.113256
9 1 100 9 0.0997858
1 2 100 9 0.122495
2 2 100 9 0.121278
3 2 100 9 0.106952
4 2 100 9 0.135966
5 2 100 9 0.123494
6 2 100 9 0.117004
7 2 100 9 0.108868
8 2 100 9 0.0812703
9 2 100 9 0.0826731
1 3 100 9 0.177303
2 3 100 9 0.229812
3 3 100 9 0.194714
4 3 100 9 0.111054
5 3 100 9 0.0574805
6 3 100 9 6.44296e-06
7 3 100 9 0.0574575
8 3 100 9 0.0574697
9 3 100 9 0.114703
1 4 100 9 0.25747
2 4 100 9 0.195548
3 4 100 9 0.150796
4 4 100 9 0.126425
5 4 100 9 0.111837
6 4 100 9 0.0408573
7 4 100 9 0.0372351
8 4 100 9 0.0407617
9 4 100 9 0.0390703
1 5 100 9 0.0640968
2 5 100 9 0.0552295
3 5 100 9 0.0552305
4 5 100 9 0.0484824
5 5 100 9 0.0561593
6 5 100 9 0.110515
7 5 100 9 0.190954
8 5 100 9 0.165915
9 5 100 9 0.253417
1 6 100 9 0.0991365
2 6 100 9 0.0979279
3 6 100 9 0.0980421
4 6 100 9 0.100445
5 6 100 9 0.13775
6 6 100 9 0.0971994
7 6 100 9 0.117131
8 6 100 9 0.137767
9 6 100 9 0.114601
1 7 100 9 0.121531
2 7 100 9 0.141583
3 7 100 9 0.101934
4 7 100 9 0.101125
5 7 100 9 0.0850807
6 7 100 9 0.121575
7 7 100 9 0.12019
8 7 100 9 0.100458
9 7 100 9 0.106523
1 8 100 9 0.00269021
2 8 100 9 0.129361
3 8 100 9 0.133938
4 8 100 9 0.00237057
5 8 100 9 0.13613
6 8 100 9 0.195467
7 8 100 9 0.133797
8 8 100 9 0.132364
9 8 100 9 0.133881
1 9 100 9 0.161279
2 9 100 9 0.123335
3 9 100 9 0.123344
4 9 100 9 0.0820456
5 9 100 9 0.123335
6 9 100 9 0.126499
7 9 100 9 0.0957158
8 9 100 9 0.0822239
9 9 100 9 0.0822232
1 10 100 9 0.99547
3 10 100 9 0.000125654
6 10 100 9 0.0044048
1 11 100 9 0.486223
2 11 100 9 0.269697
3 11 100 9 0.240973
4 11 100 9 0.0020186
5 11 100 9 1.42918e-05
6 11 100 9 0.000235102
7 11 100 9 0.000184562
8 11 100 9 2.51422e-05
9 11 100 9 0.000628875
1 12 100 9 0.5758
2 12 100 9 0.388247
3 12 100 9 0.0291274
4 12 100 9 0.00261193
5 12 100 9 8.32692e-05
6 12 100 9 8.85115e-05
7 12 100 9 3.14617e-05
8 12 100 9 0.00262563
9 12 100 9 0.00138464
1 13 100 9 0.000443299
2 13 100 9 0.00445031
3 13 100 9 0.194871
4 13 100 9 0.197496
5 13 100 9 0.029885
6 13 100 9 0.126515
7 13 100 9 0.19601
8 13 100 9 0.250326
9 13 100 9 3.26649e-06
1 14 100 9 0.0269661
2 14 100 9 0.0030406
3 14 100 9 0.249914
4 14 100 9 0.265307
5 14 100 9 0.262909
6 14 100 9 0.0774482
7 14 100 9 0.00280991
8 14 100 9 0.000420152
9 14 100 9 0.111185
1 15 100 9 4.43268e-07
2 15 100 9 1.51662e-05
3 15 100 9 0.00718853
4 15 100 9 0.189165
5 15 100 9 0.209284
6 15 100 9 0.00287256
7 15 100 9 0.201052
8 15 100 9 0.199045
9 15 100 9 0.191378
1 16 100 9 0.111542
2 16 100 9 0.104262
3 16 100 9 0.109732
4 16 100 9 0.122112
5 16 100 9 0.110376
6 16 100 9 0.111645
7 16 100 9 0.109423
8 16 100 9 0.109967
9 16 100 9 0.110942
1 17 100 9 0.128478
2 17 100 9 0.0236359
3 17 100 9 0.126382
4 17 100 9 0.12877
5 17 100 9 0.158069
6 17 100 9 0.00429931
7 17 100 9 0.126636
8 17 100 9 0.127502
9 17 100 9 0.176227
1 18 100 9 0.00570415
2 18 100 9 0.000495011
3 18 100 9 0.104471
4 18 100 9 0.0106645
5 18 100 9 0.00321615
6 18 100 9 0.461781
7 18 100 9 0.40598
8 18 100 9 0.00130648
9 18 100 9 0.00638163
1 19 100 9 0.00907479
2 19 100 9 0.00396455
3 19 100 9 0.000766542
4 19 100 9 0.00251202
5 19 100 9 0.685828
6 19 100 9 0.0209913
7 19 100 9 0.0236302
8 19 100 9 0.0448092
9 19 100 9 0.208423
1 20 100 9 0.298037
2 20 100 9 0.0016942
3 20 100 9 0.00300532
4 20 100 9 0.0413509
5 20 100 9 0.0160289
6 20 100 9 0.359183
7 20 100 9 0.00357609
8 20 100 9 0.000378372
9 20 100 9 0.276746
1 21 100 9 0.0642031
2 21 100 9 0.000751807
3 21 100 9 0.00145124
4 21 100 9 0.000541744
5 21 100 9 0.000357166
6 21 100 9 0.658552
7 21 100 9 0.00221942
8 21 100 9 0.000391237
9 21 100 9 0.271532
1 22 100 9 0.464316
2 22 100 9 0.479826
3 22 100 9 0.000304575
4 22 100 9 0.00367925
5 22 100 9 0.045758
6 22 100 9 0.00608621
7 22 100 9 7.20439e-06
8 22 100 9 2.24387e-05
1 23 100 9 0.00193498
2 23 100 9 3.13897e-05
3 23 100 9 3.08782e-05
4 23 100 9 0.00479886
5 23 100 9 0.808736
6 23 100 9 0.181304
7 23 100 9 0.00143357
8 23 100 9 0.00133692
9 23 100 9 0.000393873
1 24 100 9 0.00842339
2 24 100 9 0.000203143
3 24 100 9 0.00018849
4 24 100 9 0.00269108
5 24 100 9 0.105422
6 24 100 9 0.87873
7 24 100 9 0.00300319
8 24 100 9 0.000198498
9 24 100 9 0.00114007
1 25 100 9 1.92525e-05
2 25 100 9 1.81481e-05
3 25 100 9 4.21963e-05
4 25 100 9 2.70617e-05
5 25 100 9 0.000957538
6 25 100 9 0.000148418
7 25 100 9 0.282306
8 25 100 9 0.421826
9 25 100 9 0.294655
1 26 100 9 0.119988
2 26 100 9 0.0796031
3 26 100 9 0.0787981
4 26 100 9 0.0824453
5 26 100 9 0.158383
6 26 100 9 0.160561
7 26 100 9 0.159266
8 26 100 9 0.0809695
9 26 100 9 0.0799859
1 27 100 9 0.244805
2 27 100 9 0.216682
3 27 100 9 0.233129
4 27 100 9 0.223917
5 27 100 9 0.00834413
6 27 100 9 6.954e-05
7 27 100 9 9.88673e-05
8 27 100 9 9.49739e-06
9 27 100 9 0.072945
1 28 100 9 0.0487108
2 28 100 9 0.0570363
3 28 100 9 0.0567449
4 28 100 9 0.0762354
5 28 100 9 0.0610758
6 28 100 9 0.0668242
7 28 100 9 0.120368
8 28 100 9 0.234497
9 28 100 9 0.278507
1 29 100 9 7.26272e-06
2 29 100 9 1.87333e-06
3 29 100 9 2.45064e-05
4 29 100 9 0.00703292
5 29 100 9 0.0722213
6 29 100 9 0.22233
7 29 100 9 0.234495
8 29 100 9 0.234348
9 29 100 9 0.229538
1 30 100 9 0.0972665
2 30 100 9 0.135087
3 30 100 9 0.134849
4 30 100 9 0.135796
5 30 100 9 0.110316
6 30 100 9 0.0931201
7 30 100 9 0.0972869
8 30 100 9 0.0971564
9 30 100 9 0.099122
1 31 100 9 0.83768
2 31 100 9 0.00198871
3 31 100 9 0.00109107
4 31 100 9 0.000724953
5 31 100 9 7.15309e-05
6 31 100 9 0.0502681
7 31 100 9 0.000472015
8 31 100 9 0.106912
9 31 100 9 0.000791211
2 32 100 9 8.01097e-06
3 32 100 9 1.00157e-05
4 32 100 9 0.00561073
5 32 100 9 0.00152612
6 32 100 9 0.139329
7 32 100 9 0.174273
8 32 100 9 0.337584
9 32 100 9 0.341659
1 33 100 9 0.247292
2 33 100 9 0.247033
3 33 100 9 0.249401
4 33 100 9 0.243036
5 33 100 9 0.00363269
6 33 100 9 0.00864768
7 33 100 9 0.000263602
8 33 100 9 1.82299e-05
9 33 100 9 0.000675196
1 34 100 9 0.0667081
2 34 100 9 0.0497506
3 34 100 9 0.0637547
4 34 100 9 0.103997
5 34 100 9 0.170004
6 34 100 9 0.182958
7 34 100 9 0.126164
8 34 100 9 0.124747
9 34 100 9 0.111916
1 35 100 9 0.0695396
2 35 100 9 0.0996763
3 35 100 9 0.0949985
4 35 100 9 0.0880623
5 35 100 9 0.101241
6 35 100 9 0.0500229
7 35 100 9 0.200868
8 35 100 9 0.199879
9 35 100 9 0.0957129
1 36 100 9 5.4792e-05
2 36 100 9 6.84923e-06
3 36 100 9 9.11578e-07
4 36 100 9 0.000195418
5 36 100 9 0.000327916
6 36 100 9 0.00755905
7 36 100 9 0.288743
8 36 100 9 0.293563
9 36 100 9 0.409549
1 37 100 9 0.0546322
2 37 100 9 3.14211e-05
3 37 100 9 4.98122e-07
4 37 100 9 4.74333e-05
5 37 100 9 0.018639
6 37 100 9 0.0032253
7 37 100 9 0.296086
8 37 100 9 0.308227
9 37 100 9 0.319112
1 38 100 9 1.59122e-05
3 38 100 9 0.00421851
4 38 100 9 0.00645713
5 38 100 9 1.58602e-05
6 38 100 9 0.00290035
7 38 100 9 0.00236122
8 38 100 9 0.000426806
9 38 100 9 0.983604
2 39 100 9 0.000212687
3 39 100 9 1.81186e-06
4 39 100 9 0.00017817
5 39 100 9 3.39115e-06
6 39 100 9 8.02414e-05
7 39 100 9 6.63145e-05
8 39 100 9 0.00115989
9 39 100 9 0.998298
1 40 100 9 0.00115128
2 40 100 9 0.142516
3 40 100 9 0.00010197
4 40 100 9 0.000103075
5 40 100 9 0.841088
6 40 100 9 0.0121126
7 40 100 9 0.00229751
8 40 100 9 0.000594697
9 40 100 9 3.57397e-05
1 41 100 9 0.535928
2 41 100 9 0.0362555
3 41 100 9 0.00507223
4 41 100 9 0.0124409
5 41 100 9 0.0026503
6 41 100 9 0.405566
7 41 100 9 0.00203982
8 41 100 9 4.67232e-05
1 42 100 9 3.43856e-05
2 42 100 9 0.155939
3 42 100 9 0.168215
4 42 100 9 0.18071
5 42 100 9 0.173837
6 42 100 9 0.168815
7 42 100 9 0.15244
8 42 100 9 1.54798e-06
9 42 100 9 8.16385e-06
1 43 100 9 0.0330649
2 43 100 9 0.000185311
3 43 100 9 1.29293e-05
4 43 100 9 0.00933093
5 43 100 9 0.932418
6 43 100 9 0.0247538
7 43 100 9 1.71747e-05
8 43 100 9 0.000211238
9 43 100 9 5.54967e-06
1 44 100 9 0.995689
2 44 100 9 0.00014624
4 44 100 9 1.35703e-05
5 44 100 9 0.00337712
6 44 100 9 0.000646313
7 44 100 9 0.0001216
8 44 100 9 6.13158e-06
1 45 100 9 0.0293637
2 45 100 9 2.48396e-05
3 45 100 9 0.000585613
4 45 100 9 0.00267266
5 45 100 9 0.000100248
6 45 100 9 0.000180055
7 45 100 9 0.0377499
8 45 100 9 0.0640258
9 45 100 9 0.865297
1 46 100 9 0.205623
2 46 100 9 0.195179
3 46 100 9 0.216494
4 46 100 9 0.369497
5 46 100 9 0.00958583
6 46 100 9 0.00357083
7 46 100 9 4.59706e-05
8 46 100 9 2.28216e-06
9 46 100 9 1.9472e-06
1 47 100 9 0.000766163
2 47 100 9 0.0461259
3 47 100 9 0.00304565
4 47 100 9 0.633626
5 47 100 9 0.224996
6 47 100 9 0.000560737
7 47 100 9 9.70286e-05
8 47 100 9 0.000199958
9 47 100 9 0.0905833
1 48 100 9 0.00106187
2 48 100 9 1.48785e-05
3 48 100 9 0.00202519
4 48 100 9 0.132051
5 48 100 9 0.86264
6 48 100 9 0.000683264
7 48 100 9 0.000129774
8 48 100 9 0.000211544
9 48 100 9 0.00118249
1 49 100 9 0.000129174
2 49 100 9 1.245e-06
4 49 100 9 0.00410456
5 49 100 9 0.0652231
6 49 100 9 0.234322
7 49 100 9 0.233924
8 49 100 9 0.233938
9 49 100 9 0.228358
1 50 100 9 0.735831
2 50 100 9 0.00075417
3 50 100 9 0.000484376
4 50 100 9 0.00210052
6 50 100 9 0.000188912
7 50 100 9 0.260641
1 51 100 9 5.03129e-05
2 51 100 9 0.000148251
3 51 100 9 0.000359729
4 51 100 9 0.0221775
5 51 100 9 0.855218
6 51 100 9 0.119308
7 51 100 9 0.00261019
8 51 100 9 0.000128561
1 52 100 9 0.331922
2 52 100 9 0.341737
3 52 100 9 0.323693
4 52 100 9 0.00188437
5 52 100 9 9.20518e-07
6 52 100 9 5.26728e-06
8 52 100 9 4.17231e-06
9 52 100 9 0.000752671
1 53 100 9 0.997898
2 53 100 9 2.62792e-05
3 53 100 9 1.62983e-05
4 53 100 9 0.000921524
6 53 100 9 0.00012182
7 53 100 9 0.000207591
9 53 100 9 0.00080826
2 54 100 9 0.00028794
3 54 100 9 0.000334957
4 54 100 9 0.131472
5 54 100 9 0.00123691
6 54 100 9 5.3514e-05
7 54 100 9 0.00540434
9 54 100 9 0.86121
1 55 100 9 0.138051
2 55 100 9 0.145038
3 55 100 9 0.145013
4 55 100 9 0.00103358
5 55 100 9 0.143649
6 55 100 9 0.122571
7 55 100 9 0.146098
8 55 100 9 0.140676
9 55 100 9 0.0178703
2 56 100 9 0.000245957
3 56 100 9 5.86978e-05
4 56 100 9 0.000874028
5 56 100 9 0.0159744
6 56 100 9 0.00119034
7 56 100 9 0.00486769
8 56 100 9 0.000148972
9 56 100 9 0.97664
1 57 100 9 0.265908
2 57 100 9 0.0681401
3 57 100 9 0.351901
4 57 100 9 0.310775
5 57 100 9 0.00326421
8 57 100 9 9.79199e-06
9 57 100 9 1.19545e-06
1 58 100 9 0.900135
2 58 100 9 0.00013773
3 58 100 9 0.000284715
4 58 100 9 0.004749
6 58 100 9 0.00100639
7 58 100 9 0.0834403
8 58 100 9 0.00130308
9 58 100 9 0.00894369
1 59 100 9 0.002871
2 59 100 9 0.000198568
3 59 100 9 0.000229292
4 59 100 9 0.0469475
5 59 100 9 0.0010333
6 59 100 9 0.822545
7 59 100 9 0.126092
8 59 100 9 8.36669e-05
1 60 100 9 0.144573
2 60 100 9 0.144878
3 60 100 9 0.143884
4 60 100 9 0.0104244
5 60 100 9 0.0503917
6 60 100 9 0.135588
7 60 100 9 0.131276
8 60 100 9 0.144456
9 60 100 9 0.0945292
1 61 100 9 3.38443e-05
3 61 100 9 5.2696e-07
4 61 100 9 6.69729e-05
5 61 100 9 5.41283e-05
6 61 100 9 0.00121568
7 61 100 9 0.00376136
8 61 100 9 0.452115
9 61 100 9 0.542753
1 62 100 9 0.416968
2 62 100 9 0.000311587
3 62 100 9 8.6589e-05
4 62 100 9 0.102379
5 62 100 9 0.442601
6 62 100 9 0.000357818
7 62 100 9 5.96002e-05
8 62 100 9 0.0372365
1 63 100 9 0.00166058
2 63 100 9 0.000776639
3 63 100 9 0.00203221
4 63 100 9 0.012014
5 63 100 9 0.478892
6 63 100 9 0.00105021
7 63 100 9 0.470194
8 63 100 9 0.0328223
9 63 100 9 0.000557992
1 64 100 9 0.222428
2 64 100 9 0.00029516
3 64 100 9 0.734192
4 64 100 9 0.0392098
5 64 100 9 7.62142e-05
6 64 100 9 0.000169608
7 64 100 9 0.00222985
8 64 100 9 0.000250552
9 64 100 9 0.00114912
1 65 100 9 0.239776
2 65 100 9 0.00411152
4 65 100 9 0.0796629
5 65 100 9 0.674603
6 65 100 9 0.000355022
8 65 100 9 0.00103109
9 65 100 9 0.0004599
1 66 100 9 0.0737487
2 66 100 9 3.74479e-05
3 66 100 9 0.000677184
4 66 100 9 0.0074854
6 66 100 9 0.00287595
7 66 100 9 0.895582
8 66 100 9 7.03594e-05
9 66 100 9 0.0195234
5 67 100 9 0.000868439
6 67 100 9 0.0280201
8 67 100 9 0.960519
9 67 100 9 0.0105929
1 68 100 9 0.000972554
2 68 100 9 0.00398902
3 68 100 9 0.0479788
4 68 100 9 0.30465
6 68 100 9 0.00648131
7 68 100 9 0.0897128
8 68 100 9 0.546216
2 69 100 9 0.0141164
3 69 100 9 0.000318
4 69 100 9 0.085756
5 69 100 9 0.348979
6 69 100 9 0.00143324
7 69 100 9 0.0942252
8 69 100 9 8.38536e-05
9 69 100 9 0.455089
1 70 100 9 1.85656e-05
2 70 100 9 0.000234916
3 70 100 9 7.019e-05
4 70 100 9 8.32453e-05
5 70 100 9 4.32285e-05
6 70 100 9 0.150604
7 70 100 9 0.0248188
8 70 100 9 0.00243494
9 70 100 9 0.821692
4 71 100 9 0.00321186
5 71 100 9 0.958507
6 71 100 9 0.0269512
9 71 100 9 0.0113301
1 72 100 9 3.96097e-05
5 72 100 9 0.971272
6 72 100 9 0.00345529
8 72 100 9 0.0244197
9 72 100 9 0.000813133
1 73 100 9 0.000710467
2 73 100 9 0.00638187
4 73 100 9 0.00034178
5 73 100 9 0.97138
6 73 100 9 0.000578215
7 73 100 9 0.00205601
8 73 100 9 0.0169034
9 73 100 9 0.0016479
1 74 100 9 0.946873
2 74 100 9 7.37551e-05
4 74 100 9 0.000224461
5 74 100 9 0.051593
6 74 100 9 0.000169784
8 74 100 9 0.000127513
9 74 100 9 0.000938812
2 75 100 9 0.894179
3 75 100 9 0.0701961
4 75 100 9 0.00494108
8 75 100 9 1.48718e-05
9 75 100 9 0.0306693
1 76 100 9 0.0171979
6 76 100 9 0.000112164
8 76 100 9 2.50129e-05
9 76 100 9 0.982665
2 77 100 9 0.997391
5 77 100 9 0.00260927
1 78 100 9 0.00104283
4 78 100 9 0.00195902
5 78 100 9 0.00142734
8 78 100 9 0.000149284
9 78 100 9 0.995422
1 79 100 9 0.99754
4 79 100 9 0.00131668
9 79 100 9 0.00114286
1 80 100 9 0.131335
2 80 100 9 0.000209105
5 80 100 9 1.45163e-05
8 80 100 9 0.868402
9 80 100 9 3.94746e-05
5 81 100 9 0.997923
8 81 100 9 0.000560875
9 81 100 9 0.0015161
1 82 100 9 0.9932
2 82 100 9 9.28547e-05
3 82 100 9 6.04187e-05
4 82 100 9 0.00521279
5 82 100 9 0.000295672
8 82 100 9 9.34016e-06
9 82 100 9 0.00112854
8 83 100 9 1
1 84 100 9 0.0697137
5 84 100 9 0.913265
8 84 100 9 0.0170214
3 85 100 9 0.00175932
4 85 100 9 0.00852128
6 85 100 9 0.000435486
7 85 100 9 0.295378
8 85 100 9 0.000264468
9 85 100 9 0.693641
1 86 100 9 0.0725249
2 86 100 9 0.28539
3 86 100 9 0.0135167
4 86 100 9 0.000577721
6 86 100 9 0.626563
8 86 100 9 7.60539e-05
9 86 100 9 0.00135192
1 87 100 9 0.997039
2 87 100 9 0.00105218
3 87 100 9 0.000355481
5 87 100 9 0.000434495
8 87 100 9 0.000994765
9 87 100 9 0.000124563
1 88 100 9 0.988365
5 88 100 9 0.00295948
8 88 100 9 8.7365e-05
9 88 100 9 0.00858773
1 89 100 9 0.3259
4 89 100 9 0.00138755
9 89 100 9 0.672713
1 90 100 9 0.863868
4 90 100 9 0.135262
8 90 100 9 0.000834546
9 90 100 9 3.52757e-05
1 91 100 9 0.322124
4 91 100 9 0.677876
1 92 100 9 0.979211
2 92 100 9 0.000103173
3 92 100 9 3.01211e-05
5 92 100 9 0.00238426
6 92 100 9 0.0154377
7 92 100 9 0.000113532
8 92 100 9 0.00259911
9 92 100 9 0.000121036
1 93 100 9 0.000146706
5 93 100 9 6.90552e-06
6 93 100 9 5.05597e-05
7 93 100 9 0.000141785
9 93 100 9 0.999654
1 94 100 9 0.449286
8 94 100 9 0.550714
1 95 100 9 0.955119
4 95 100 9 0.0445628
8 95 100 9 0.000318492
1 96 100 9 0.988616
3 96 100 9 0.00351851
4 96 100 9 9.4331e-05
8 96 100 9 0.000110681
9 96 100 9 0.00766045
1 97 100 9 0.961647
2 97 100 9 0.000977836
3 97 100 9 0.00166224
4 97 100 9 0.0173608
5 97 100 9 0.0033278
6 97 100 9 0.00345546
7 97 100 9 0.00942958
9 97 100 9 0.00213942
1 98 100 9 0.0751089
2 98 100 9 0.130677
3 98 100 9 0.152383
4 98 100 9 0.0790755
5 98 100 9 0.151253
6 98 100 9 0.152384
7 98 100 9 0.152374
8 98 100 9 0.0756135
9 98 100 9 0.0311306
1 99 100 9 0.986318
2 99 100 9 0.00670073
3 99 100 9 0.0015653
4 99 100 9 0.00247562
5 99 100 9 0.00123209
6 99 100 9 0.000858698
7 99 100 9 0.0004694
9 99 100 9 0.000380576
2 100 100 9 0.0593117
5 100 100 9 0.0565396
8 100 100 9 0.625997
9 100 100 9 0.258151
1 0 100 10 0.00230555
2 0 100 10 0.108479
3 0 100 10 0.0969118
4 0 100 10 0.258091
5 0 100 10 0.113136
6 0 100 10 0.161974
7 0 100 10 0.113518
8 0 100 10 0.0116709
9 0 100 10 0.0769661
10 0 100 10 0.0569474
1 1 100 10 0.0952567
2 1 100 10 0.0314581
3 1 100 10 0.0314347
4 1 100 10 0.062826
5 1 100 10 0.0628709
6 1 100 10 0.062783
7 1 100 10 0.125417
8 1 100 10 0.185343
9 1 100 10 0.157085
10 1 100 10 0.185525
1 2 100 10 0.117768
2 2 100 10 0.0794791
3 2 100 10 0.0815933
4 2 100 10 0.0794791
5 2 100 10 0.0883304
6 2 100 10 0.0794827
7 2 100 10 0.117119
8 2 100 10 0.119203
9 2 100 10 0.119201
10 2 100 10 0.118344
1 3 100 10 0.144525
2 3 100 10 0.145054
3 3 100 10 0.0870383
4 3 100 10 0.0573183
5 3 100 10 0.0883506
6 3 100 10 0.0907947
7 3 100 10 0.0874008
8 3 100 10 0.0870376
9 3 100 10 0.0964297
10 3 100 10 0.116051
1 4 100 10 0.170184
2 4 100 10 0.0429528
3 4 100 10 0.0858801
4 4 100 10 0.0859025
5 4 100 10 0.118595
6 4 100 10 0.125992
7 4 100 10 0.101796
8 4 100 10 0.0855628
9 4 100 10 0.0847354
10 4 100 10 0.0983994
1 5 100 10 0.124632
2 5 100 10 0.124651
3 5 100 10 0.187239
4 5 100 10 0.187856
5 5 100 10 0.124636
6 5 100 10 0.0623153
7 5 100 10 0.0636138
8 5 100 10 0.0623047
9 5 100 10 0.0623138
10 5 100 10 0.000438401
1 6 100 10 0.172416
2 6 100 10 0.19152
3 6 100 10 0.199456
4 6 100 10 0.119174
5 6 100 10 0.126932
6 6 100 10 0.0424204
7 6 100 10 0.0595134
8 6 100 10 0.0285617
9 6 100 10 0.0295601
10 6 100 10 0.0304464
1 7 100 10 0.0687194
2 7 100 10 0.137467
3 7 100 10 0.136805
4 7 100 10 0.137733
5 7 100 10 0.10377
6 7 100 10 0.0688641
7 7 100 10 0.0688539
8 7 100 10 0.103296
9 7 100 10 0.103296
10 7 100 10 0.0711965
1 8 100 10 0.0750017
2 8 100 10 0.0316564
3 8 100 10 0.0747343
4 8 100 10 0.0735231
5 8 100 10 0.0747377
6 8 100 10 0.139568
7 8 100 10 0.164838
8 8 100 10 0.141962
9 8 100 10 0.149463
10 8 100 10 0.0745156
1 9 100 10 0.125019
2 9 100 10 0.000866802
3 9 100 10 0.186446
4 9 100 10 0.187529
5 9 100 10 0.187616
6 9 100 10 0.125014
7 9 100 10 2.49234e-05
8 9 100 10 0.0625173
9 9 100 10 0.0625197
10 9 100 10 0.0624468
1 10 100 10 0.0697132
2 10 100 10 0.207818
3 10 100 10 6.84447e-06
4 10 100 10 3.9894e-06
6 10 100 10 0.13943
7 10 100 10 0.136185
8 10 100 10 0.139427
9 10 100 10 0.139426
10 10 100 10 0.16799
3 11 100 10 0.982198
4 11 100 10 0.0136297
5 11 100 10 0.00130512
7 11 100 10 0.00286672
1 12 100 10 0.468317
2 12 100 10 0.522232
3 12 100 10 0.00313446
4 12 100 10 0.00230011
5 12 100 10 0.000384914
6 12 100 10 0.00221668
7 12 100 10 0.000878121
8 12 100 10 0.000238675
9 12 100 10 0.000155543
10 12 100 10 0.000142293
2 13 100 10 0.000379385
3 13 100 10 0.662948
4 13 100 10 0.00264653
5 13 100 10 0.00322734
6 13 100 10 0.325924
7 13 100 10 0.00461974
8 13 100 10 0.000187912
9 13 100 10 1.89101e-05
10 13 100 10 4.85105e-05
1 14 100 10 4.00661e-06
2 14 100 10 5.5939e-05
3 14 100 10 0.000113083
4 14 100 10 0.0900675
5 14 100 10 0.0917978
6 14 100 10 0.0939255
7 14 100 10 0.170235
8 14 100 10 0.184423
9 14 100 10 0.18566
10 14 100 10 0.183718
1 15 100 10 0.140713
2 15 100 10 0.139144
3 15 100 10 0.139343
4 15 100 10 0.00104871
5 15 100 10 0.139915
6 15 100 10 0.000733793
7 15 100 10 0.139764
8 15 100 10 0.139061
9 15 100 10 1.62548e-05
10 15 100 10 0.16026
1 16 100 10 1.52578e-05
2 16 100 10 0.000787551
3 16 100 10 0.0323809
4 16 100 10 0.153107
5 16 100 10 0.15556
6 16 100 10 0.159733
7 16 100 10 0.0469268
8 16 100 10 0.14172
9 16 100 10 0.154825
10 16 100 10 0.154945
1 17 100 10 0.10744
2 17 100 10 0.106743
3 17 100 10 0.107072
4 17 100 10 0.00420686
5 17 100 10 0.12596
6 17 100 10 0.107413
7 17 100 10 0.110931
8 17 100 10 0.110162
9 17 100 10 0.110012
10 17 100 10 0.110061
1 18 100 10 0.131123
2 18 100 10 0.131876
3 18 100 10 0.133089
4 18 100 10 0.121942
5 18 100 10 0.1397
6 18 100 10 0.134384
7 18 100 10 0.0686422
8 18 100 10 0.0666555
9 18 100 10 0.0659511
10 18 100 10 0.00663657
1 19 100 10 4.74637e-06
2 19 100 10 2.04066e-05
3 19 100 10 0.000924762
4 19 100 10 0.00293485
5 19 100 10 0.179401
6 19 100 10 0.279604
7 19 100 10 0.176545
8 19 100 10 0.00626798
9 19 100 10 0.175752
10 19 100 10 0.178545
1 20 100 10 0.114341
2 20 100 10 0.124043
3 20 100 10 0.00355827
4 20 100 10 0.0170574
5 20 100 10 0.00082162
6 20 100 10 0.00252736
7 20 100 10 0.0235896
8 20 100 10 0.214116
9 20 100 10 0.250829
10 20 100 10 0.249117
1 21 100 10 0.00103429
2 21 100 10 0.000324516
3 21 100 10 0.0446658
4 21 100 10 0.00707941
5 21 100 10 0.268498
6 21 100 10 0.0193352
7 21 100 10 0.26872
8 21 100 10 0.388324
9 21 100 10 0.000903282
10 21 100 10 0.00111612
1 22 100 10 0.000583537
2 22 100 10 6.56568e-05
3 22 100 10 0.000214753
4 22 100 10 0.00340304
5 22 100 10 0.115826
6 22 100 10 0.000211568
7 22 100 10 0.704597
8 22 100 10 0.171188
9 22 100 10 2.68879e-05
10 22 100 10 0.00388388
1 23 100 10 0.000435344
3 23 100 10 0.00162495
4 23 100 10 0.00139875
5 23 100 10 8.32038e-06
6 23 100 10 0.00936059
7 23 100 10 0.970401
8 23 100 10 0.000185247
9 23 100 10 3.12345e-05
10 23 100 10 0.016555
1 24 100 10 0.00928541
2 24 100 10 6.72856e-05
3 24 100 10 0.00718246
4 24 100 10 0.00975632
5 24 100 10 0.659262
6 24 100 10 0.294501
7 24 100 10 0.015446
8 24 100 10 0.00297138
9 24 100 10 0.0015278
1 25 100 10 0.00206791
2 25 100 10 0.00562307
4 25 100 10 0.00320617
5 25 100 10 0.281323
6 25 100 10 0.00171916
7 25 100 10 0.0899574
8 25 100 10 0.138487
9 25 100 10 0.271531
10 25 100 10 0.206085
1 26 100 10 3.71612e-06
2 26 100 10 4.24717e-07
3 26 100 10 2.79048e-05
4 26 100 10 2.61005e-05
5 26 100 10 0.00038596
6 26 100 10 0.0123716
7 26 100 10 0.189159
8 26 100 10 0.267712
9 26 100 10 0.265089
10 26 100 10 0.265225
1 27 100 10 2.10015e-07
2 27 100 10 5.39749e-06
3 27 100 10 1.27827e-06
4 27 100 10 0.00427348
5 27 100 10 0.159127
6 27 100 10 0.165416
7 27 100 10 0.183017
8 27 100 10 0.164776
9 27 100 10 0.15845
10 27 100 10 0.164935
2 28 100 10 0.00095889
3 28 100 10 0.00092864
4 28 100 10 0.0113353
5 28 100 10 0.43434
6 28 100 10 0.00054801
7 28 100 10 0.00156093
8 28 100 10 0.549313
9 28 100 10 0.000816876
10 28 100 10 0.000198008
1 29 100 10 2.26889e-05
2 29 100 10 2.92011e-05
3 29 100 10 0.000264226
4 29 100 10 0.00887701
5 29 100 10 0.786481
6 29 100 10 0.000602702
7 29 100 10 0.0112828
8 29 100 10 0.192424
9 29 100 10 1.66542e-05
1 30 100 10 0.00033746
2 30 100 10 0.0624357
3 30 100 10 0.284645
4 30 100 10 0.000445272
5 30 100 10 0.000497269
6 30 100 10 0.000444723
7 30 100 10 0.649413
8 30 100 10 0.00163066
9 30 100 10 0.000151296
1 31 100 10 0.110604
2 31 100 10 0.111373
3 31 100 10 0.11113
4 31 100 10 0.000470977
5 31 100 10 0.112109
6 31 100 10 0.111384
7 31 100 10 0.111681
8 31 100 10 0.106319
9 31 100 10 0.113592
10 31 100 10 0.111336
1 32 100 10 1.73669e-05
2 32 100 10 3.75062e-05
3 32 100 10 3.29373e-05
4 32 100 10 0.963063
5 32 100 10 0.033837
6 32 100 10 0.000511683
7 32 100 10 0.00148207
8 32 100 10 0.000814584
10 32 100 10 0.000204258
1 33 100 10 0.000607956
2 33 100 10 0.000107621
3 33 100 10 0.163373
4 33 100 10 0.801967
5 33 100 10 0.0130841
6 33 100 10 0.0110887
7 33 100 10 0.00908166
8 33 100 10 0.000191725
9 33 100 10 1.35902e-05
10 33 100 10 0.000484796
1 34 100 10 4.44982e-05
2 34 100 10 0.00375019
3 34 100 10 0.869036
4 34 100 10 0.0221677
5 34 100 10 0.0745443
6 34 100 10 2.30732e-05
7 34 100 10 0.0290512
8 34 100 10 0.000998683
9 34 100 10 0.000325386
10 34 100 10 5.91293e-05
1 35 100 10 0.319602
2 35 100 10 0.289169
3 35 100 10 0.323388
4 35 100 10 0.00345819
5 35 100 10 0.0606665
6 35 100 10 0.00326263
7 35 100 10 0.000449816
8 35 100 10 2.25702e-06
9 35 100 10 1.15548e-06
10 35 100 10 8.04133e-07
2 36 100 10 0.00263621
3 36 100 10 0.328906
4 36 100 10 0.299906
5 36 100 10 0.297685
6 36 100 10 0.04861
7 36 100 10 0.0221941
8 36 100 10 4.51078e-05
9 36 100 10 1.68324e-05
1 37 100 10 1.67508e-06
2 37 100 10 2.44766e-05
3 37 100 10 5.22743e-05
4 37 100 10 5.38792e-06
5 37 100 10 0.00762421
6 37 100 10 0.197152
7 37 100 10 0.203998
8 37 100 10 0.200119
9 37 100 10 0.188765
10 37 100 10 0.202258
1 38 100 10 2.26295e-05
2 38 100 10 0.00950866
3 38 100 10 0.0145062
4 38 100 10 0.948667
5 38 100 10 0.0107166
6 38 100 10 0.00713705
7 38 100 10 0.00631739
8 38 100 10 0.000143862
9 38 100 10 0.000146616
10 38 100 10 0.00283365
2 39 100 10 0.00051337
3 39 100 10 0.0128154
4 39 100 10 0.00683649
5 39 100 10 0.920987
6 39 100 10 5.03345e-05
7 39 100 10 0.0322185
8 39 100 10 0.0220086
9 39 100 10 0.00455039
10 39 100 10 1.96022e-05
2 40 100 10 0.00781993
3 40 100 10 0.863011
4 40 100 10 0.0014814
5 40 100 10 0.000292524
6 40 100 10 1.06039e-05
7 40 100 10 0.122394
8 40 100 10 0.00496761
9 40 100 10 2.2711e-05
2 41 100 10 0.000183894
3 41 100 10 0.0278395
4 41 100 10 0.000766466
5 41 100 10 0.000551033
6 41 100 10 0.00160241
7 41 100 10 0.967052
8 41 100 10 0.00182116
9 41 100 10 0.000181126
10 41 100 10 2.52969e-06
1 42 100 10 0.180114
2 42 100 10 0.14481
3 42 100 10 0.166302
4 42 100 10 0.157167
5 42 100 10 0.00162554
7 42 100 10 0.000323728
8 42 100 10 0.00270689
9 42 100 10 0.170034
10 42 100 10 0.176916
1 43 100 10 0.0979851
2 43 100 10 0.0957533
3 43 100 10 0.0474752
4 43 100 10 0.00322541
5 43 100 10 0.03664
6 43 100 10 0.165289
7 43 100 10 0.187543
8 43 100 10 0.180658
9 43 100 10 0.0956989
10 43 100 10 0.0897324
2 44 100 10 0.00127077
3 44 100 10 0.00346041
4 44 100 10 0.00658597
5 44 100 10 0.235569
6 44 100 10 0.0174245
7 44 100 10 0.695527
9 44 100 10 0.0401625
1 45 100 10 0.00215659
2 45 100 10 0.000457472
3 45 100 10 8.71984e-05
4 45 100 10 0.610838
5 45 100 10 0.353792
6 45 100 10 7.45281e-06
7 45 100 10 0.0302658
8 45 100 10 2.51277e-05
9 45 100 10 4.98791e-06
10 45 100 10 0.00236489
1 46 100 10 0.0114293
2 46 100 10 0.000619356
3 46 100 10 0.00201496
4 46 100 10 0.51636
5 46 100 10 0.373916
6 46 100 10 0.045489
7 46 100 10 0.0499921
9 46 100 10 1.11994e-05
10 46 100 10 0.000167543
1 47 100 10 0.0148312
2 47 100 10 0.00118881
3 47 100 10 0.00464777
4 47 100 10 0.622494
5 47 100 10 0.345423
6 47 100 10 0.00391992
7 47 100 10 0.00747575
10 47 100 10 1.93649e-05
1 48 100 10 0.388259
2 48 100 10 0.386627
3 48 100 10 0.180664
4 48 100 10 0.0419942
5 48 100 10 0.00218358
8 48 100 10 5.34858e-07
9 48 100 10 2.32311e-07
10 48 100 10 0.000271393
1 49 100 10 0.00337594
3 49 100 10 0.00587425
4 49 100 10 0.148067
5 49 100 10 0.781565
6 49 100 10 0.00150414
7 49 100 10 0.0596139
1 50 100 10 0.246293
2 50 100 10 0.250311
3 50 100 10 0.250361
4 50 100 10 0.246902
5 50 100 10 0.0052456
6 50 100 10 6.23681e-05
7 50 100 10 3.54075e-05
8 50 100 10 2.99281e-07
9 50 100 10 2.99281e-07
10 50 100 10 0.000788486
1 51 100 10 0.000398215
2 51 100 10 5.71871e-05
3 51 100 10 0.000130724
4 51 100 10 0.0508864
5 51 100 10 0.0244848
6 51 100 10 0.00465821
7 51 100 10 0.912302
8 51 100 10 0.00707762
9 51 100 10 4.86541e-06
1 52 100 10 6.59523e-06
2 52 100 10 5.02568e-07
3 52 100 10 4.92693e-07
4 52 100 10 0.0114634
5 52 100 10 0.256062
6 52 100 10 0.24179
7 52 100 10 0.25173
8 52 100 10 0.238611
9 52 100 10 9.17649e-05
10 52 100 10 0.00024368
1 53 100 10 1.94737e-05
2 53 100 10 0.000154009
3 53 100 10 0.00046139
4 53 100 10 1.03219e-05
5 53 100 10 0.816415
6 53 100 10 0.180491
7 53 100 10 0.00244885
3 54 100 10 1.57613e-05
4 54 100 10 0.00181551
5 54 100 10 0.0624519
6 54 100 10 0.187608
7 54 100 10 0.187201
8 54 100 10 0.18718
9 54 100 10 0.187136
10 54 100 10 0.186591
2 55 100 10 0.000159489
3 55 100 10 0.00602339
4 55 100 10 0.0169943
5 55 100 10 0.559214
6 55 100 10 0.400418
7 55 100 10 0.0170939
8 55 100 10 9.71037e-05
2 56 100 10 3.80749e-06
3 56 100 10 2.6815e-05
5 56 100 10 0.000132126
6 56 100 10 0.0725874
7 56 100 10 0.056888
9 56 100 10 6.02335e-06
10 56 100 10 0.870356
1 57 100 10 1.86497e-05
2 57 100 10 1.19036e-05
3 57 100 10 3.15279e-05
4 57 100 10 3.7264e-05
5 57 100 10 1.10159e-05
6 57 100 10 0.000606207
7 57 100 10 0.00648415
8 57 100 10 0.0131244
9 57 100 10 0.584221
10 57 100 10 0.395454
2 58 100 10 0.000130862
3 58 100 10 7.25092e-05
5 58 100 10 0.0030382
6 58 100 10 0.0108423
7 58 100 10 0.985179
10 58 100 10 0.000737524
4 59 100 10 0.999085
7 59 100 10 0.000914684
5 60 100 10 0.974156
6 60 100 10 0.0247763
7 60 100 10 0.00106739
5 61 100 10 1
1 62 100 10 3.03091e-05
4 62 100 10 0.000146188
5 62 100 10 0.966469
6 62 100 10 0.0328568
7 62 100 10 0.000497535
1 63 100 10 0.00142034
2 63 100 10 8.38589e-05
3 63 100 10 3.80455e-05
4 63 100 10 0.114896
5 63 100 10 0.883562
1 64 100 10 0.0375973
2 64 100 10 7.76645e-05
3 64 100 10 0.000243487
4 64 100 10 0.377555
5 64 100 10 0.0818576
6 64 100 10 0.0147409
7 64 100 10 0.484051
8 64 100 10 3.96206e-05
10 64 100 10 0.00383729
3 65 100 10 1.81718e-06
4 65 100 10 6.83671e-05
6 65 100 10 2.00426e-05
7 65 100 10 0.999907
8 65 100 10 3.07146e-06
1 66 100 10 0.190211
2 66 100 10 0.190234
3 66 100 10 0.191673
4 66 100 10 0.189005
5 66 100 10 0.193576
6 66 100 10 0.0425929
7 66 100 10 0.0024882
8 66 100 10 5.86181e-07
9 66 100 10 3.76989e-07
10 66 100 10 0.000217855
1 67 100 10 0.000144402
2 67 100 10 5.53935e-05
3 67 100 10 8.22835e-05
4 67 100 10 0.000105301
5 67 100 10 0.000478324
6 67 100 10 0.995892
7 67 100 10 0.00324278
7 68 100 10 1
2 69 100 10 0.000527681
3 69 100 10 0.0973278
4 69 100 10 0.137607
5 69 100 10 0.763928
6 69 100 10 1.38541e-05
7 69 100 10 0.000571316
8 69 100 10 2.43548e-05
7 70 100 10 1
4 71 100 10 0.554843
5 71 100 10 0.445157
2 72 100 10 0.00266803
3 72 100 10 0.817128
4 72 100 10 4.53481e-05
5 72 100 10 0.180009
6 72 100 10 3.73286e-05
7 72 100 10 0.00011216
2 73 100 10 7.76649e-05
3 73 100 10 0.000196074
4 73 100 10 0.0490407
5 73 100 10 0.701139
6 73 100 10 0.248059
7 73 100 10 0.000888591
8 73 100 10 9.10256e-05
10 73 100 10 0.000507446
1 74 100 10 0.00249523
2 74 100 10 0.0133732
3 74 100 10 0.983746
5 74 100 10 5.70245e-06
10 74 100 10 0.000379783
1 75 100 10 0.378417
2 75 100 10 0.375058
3 75 100 10 0.212135
4 75 100 10 0.0301676
5 75 100 10 0.00409963
7 75 100 10 3.64205e-05
9 75 100 10 2.53438e-07
10 75 100 10 8.6394e-05
5 76 100 10 0.00050226
6 76 100 10 0.192477
7 76 100 10 0.200798
8 76 100 10 0.202073
9 76 100 10 0.202075
10 76 100 10 0.202075
1 77 100 10 3.87099e-05
2 77 100 10 8.44257e-06
3 77 100 10 1.45476e-05
4 77 100 10 0.307262
5 77 100 10 0.69259
6 77 100 10 2.34926e-06
7 77 100 10 5.11266e-05
10 77 100 10 3.29714e-05
2 78 100 10 0.00254809
3 78 100 10 0.0496151
4 78 100 10 0.170817
5 78 100 10 0.170756
6 78 100 10 0.172928
7 78 100 10 0.147701
8 78 100 10 0.171026
9 78 100 10 0.0826102
10 78 100 10 0.0319994
5 79 100 10 0.9342
7 79 100 10 0.0655301
9 79 100 10 0.000270119
5 80 100 10 0.999508
7 80 100 10 0.000491505
7 81 100 10 1
1 82 100 10 0.000479678
2 82 100 10 0.00766624
3 82 100 10 0.0622668
4 82 100 10 3.24885e-06
5 82 100 10 0.918025
6 82 100 10 0.0114692
7 82 100 10 6.15204e-05
8 82 100 10 7.5006e-06
10 82 100 10 2.0332e-05
4 83 100 10 1.27773e-05
6 83 100 10 0.0575471
7 83 100 10 0.942087
8 83 100 10 0.000317068
9 83 100 10 3.59482e-05
4 84 100 10 3.07918e-05
6 84 100 10 0.000288572
7 84 100 10 0.997015
8 84 100 10 0.00254088
9 84 100 10 0.000124952
6 85 100 10 0.00244424
7 85 100 10 0.0522002
8 85 100 10 0.370093
9 85 100 10 0.205185
10 85 100 10 0.370078
6 86 100 10 0.195824
7 86 100 10 0.804146
8 86 100 10 2.95423e-05
1 87 100 10 2.39783e-05
3 87 100 10 2.71171e-06
4 87 100 10 0.386076
5 87 100 10 0.613891
7 87 100 10 5.89087e-06
1 88 100 10 3.12427e-05
2 88 100 10 5.00093e-07
3 88 100 10 7.42356e-07
4 88 100 10 0.000902364
5 88 100 10 0.000134225
6 88 100 10 5.51485e-07
7 88 100 10 0.0208809
8 88 100 10 0.483914
9 88 100 10 0.483964
10 88 100 10 0.0101714
7 89 100 10 0.996521
9 89 100 10 0.00347903
7 90 100 10 0.000429385
8 90 100 10 0.000222976
9 90 100 10 0.000458449
10 90 100 10 0.998889
7 91 100 10 1
6 92 100 10 0.000257763
7 92 100 10 0.996994
8 92 100 10 0.0019363
9 92 100 10 0.000811418
7 93 100 10 1
6 94 100 10 0.112275
7 94 100 10 0.887725
7 95 100 10 1
10 96 100 10 1
1 97 100 10 5.09216e-05
3 97 100 10 0.783058
4 97 100 10 0.00573702
6 97 100 10 6.97724e-05
7 97 100 10 0.211085
9 98 100 10 1
1 99 100 10 5.01985e-07
3 99 100 10 0.000213414
4 99 100 10 0.328125
5 99 100 10 0.328766
6 99 100 10 0.328648
7 99 100 10 0.0142432
8 99 100 10 3.52812e-07
10 99 100 10 3.35074e-06
1 100 100 10 0.0062159
2 100 100 10 2.61916e-05
3 100 100 10 2.31445e-05
4 100 100 10 0.984572
5 100 100 10 0.00826636
7 100 100 10 0.00089681
1 0 100 11 0.0284264
2 0 100 11 0.121044
3 0 100 11 0.142072
4 0 100 11 0.0673657
5 0 100 11 0.173835
6 0 100 11 0.121337
7 0 100 11 0.103711
8 0 100 11 0.118552
9 0 100 11 0.0573216
10 0 100 11 0.00842665
11 0 100 11 0.0579096
1 1 100 11 0.132533
2 1 100 11 0.106405
3 1 100 11 0.106408
4 1 100 11 0.0974205
5 1 100 11 0.0266017
6 1 100 11 0.106404
7 1 100 11 0.0532028
8 1 100 11 0.106413
9 1 100 11 0.104798
10 1 100 11 0.0798013
11 1 100 11 0.0800127
1 2 100 11 0.166474
2 2 100 11 4.13131e-05
3 2 100 11 0.118638
4 2 100 11 0.118591
5 2 100 11 0.00806224
6 2 100 11 0.118605
7 2 100 11 0.113864
8 2 100 11 0.118577
9 2 100 11 6.33732e-06
10 2 100 11 0.118566
11 2 100 11 0.118574
1 3 100 11 0.212468
2 3 100 11 0.157476
3 3 100 11 0.0790339
5 3 100 11 1.29385e-05
7 3 100 11 7.0903e-06
9 3 100 11 0.0787382
10 3 100 11 0.236024
11 3 100 11 0.236239
1 4 100 11 0.0689349
2 4 100 11 0.000306819
3 4 100 11 2.04884e-06
4 4 100 11 0.00421802
5 4 100 11 0.071251
6 4 100 11 0.106875
7 4 100 11 0.178309
8 4 100 11 0.175938
9 4 100 11 0.182846
10 4 100 11 0.106792
11 4 100 11 0.104527
1 5 100 11 0.140329
2 5 100 11 0.312747
3 5 100 11 0.17395
4 5 100 11 0.186491
5 5 100 11 0.124267
6 5 100 11 0.0621333
7 5 100 11 2.79809e-06
8 5 100 11 2.81144e-05
9 5 100 11 5.46273e-06
10 5 100 11 3.95039e-06
11 5 100 11 4.20467e-05
1 6 100 11 0.092282
2 6 100 11 0.17552
3 6 100 11 0.108048
4 6 100 11 0.0905834
5 6 100 11 0.0905834
6 6 100 11 0.170996
7 6 100 11 0.0905834
9 6 100 11 0.0905562
10 6 100 11 0.0908059
11 6 100 11 4.16504e-05
1 7 100 11 0.311711
2 7 100 11 0.313921
3 7 100 11 1.14464e-05
4 7 100 11 0.000100954
7 7 100 11 9.03029e-06
8 7 100 11 1.11599e-05
11 7 100 11 0.374235
1 8 100 11 0.100122
2 8 100 11 0.100234
3 8 100 11 0.150857
4 8 100 11 0.150432
5 8 100 11 0.147884
6 8 100 11 0.100135
7 8 100 11 0.0500644
8 8 100 11 0.0500643
9 8 100 11 0.050074
10 8 100 11 0.050068
11 8 100 11 0.0500644
1 9 100 11 0.0594089
3 9 100 11 1.16692e-06
4 9 100 11 0.0866738
5 9 100 11 0.0984621
7 9 100 11 0.190963
8 9 100 11 0.196772
9 9 100 11 0.196285
10 9 100 11 0.171434
1 10 100 11 0.282268
2 10 100 11 0.283313
3 10 100 11 0.141481
4 10 100 11 0.141201
5 10 100 11 0.151701
9 10 100 11 2.62499e-05
10 10 100 11 2.04724e-06
11 10 100 11 8.45698e-06
1 11 100 11 0.00320056
3 11 100 11 0.0978252
4 11 100 11 0.0978053
5 11 100 11 0.190347
6 11 100 11 0.146727
7 11 100 11 0.123163
8 11 100 11 0.145307
9 11 100 11 0.0977964
10 11 100 11 0.0489103
11 11 100 11 0.0489186
1 12 100 11 0.0676587
2 12 100 11 9.6788e-05
3 12 100 11 0.0668713
4 12 100 11 0.13399
5 12 100 11 0.067074
7 12 100 11 0.134091
8 12 100 11 0.134097
9 12 100 11 0.128004
10 12 100 11 0.134092
11 12 100 11 0.134025
1 13 100 11 0.000112396
2 13 100 11 0.000268635
3 13 100 11 0.000604545
4 13 100 11 0.000691488
5 13 100 11 0.00214795
6 13 100 11 0.00010339
7 13 100 11 0.000120086
8 13 100 11 0.0140276
9 13 100 11 0.390182
10 13 100 11 0.204633
11 13 100 11 0.38711
1 14 100 11 0.221267
2 14 100 11 0.192239
3 14 100 11 0.0604214
4 14 100 11 0.139395
5 14 100 11 0.000976902
6 14 100 11 0.000211284
7 14 100 11 0.000453176
8 14 100 11 0.00241581
9 14 100 11 0.10457
