0 3 0.0353637
0 10 0.0060198
0 12 0.0130318
0 14 0.0999218
0 15 0.0516701
0 17 0.00757511
0 23 0.106597
0 25 0.031904
0 29 0.0546838
0 32 0.128407
12372 421 0.055502
0 39 0.0580568
0 48 0.0103017
0 50 0.000156237
16639 1592 0.249581
0 51 0.00051041
0 55 0.142573
0 68 0.0610313
0 72 0.000234954
0 90 0.107712
0 94 0.0331688
0 104 0.00865755
0 117 0.0329149
0 136 0.000171039
12372 549 0.055502
10822 18949 0.109388
7217 410 0.241919
8391 1522 0.10355
0 267 0.00369459
17527 843 0.111004
17527 849 0.111004
17527 877 0.111004
0 358 0.000155018
20477 17 0.125433
20477 39 0.244739
1174 1493 0.142719
20477 63 0.125773
4523 10900 0.249759
4523 10901 0.249759
6758 4914 0.111004
19446 206 0.180338
19446 207 0.818697
286 2742 0.999035
21049 4414 0.999035
0 739 0.000155944
1889 6974 0.0905753
0 798 0.000155994
12372 1194 0.111004
21508 465 0.999035
8105 51 0.999035
3093 929 0.33305
16353 321 0.124879
1031 887 0.199807
0 872 0.000156013
9422 2208 0.111004
1031 933 0.199807
1031 934 0.199807
1031 935 0.199807
1031 936 0.199807
3981 10 0.121679
1174 1985 0.142719
17610 16865 0.142719
16037 5550 0.0716479
20477 568 0.125773
7932 6335 0.333012
1919 47 0.14196
1919 48 0.147142
888 32 0.235688
888 55 0.234074
3093 1153 0.110998
888 94 0.352494
16496 1619 0.499518
12372 1493 0.166506
3093 1205 0.110998
16353 637 0.124879
13057 13858 0.249759
3093 1317 0.110998
1919 289 0.141987
11025 6737 0.166506
10882 5725 0.289038
7074 525 0.333012
888 348 0.0589287
8075 7756 0.111004
8075 7757 0.111004
8075 7758 0.111004
16353 849 0.249759
12372 1792 0.055502
2920 7706 0.302849
1919 568 0.141987
13260 924 0.166506
7217 1778 0.241919
888 643 0.058926
13117 15 0.150322
20477 1270 0.125773
20477 1277 0.125773
0 1684 0.000156317
7217 1911 0.241919
13117 55 0.0423653
18242 7403 0.919241
16353 1199 0.124879
13117 94 0.160915
13117 97 0.322717
8993 5 0.999035
0 1826 0.000156329
8391 3116 0.10355
16639 3418 0.249581
20989 20160 0.999035
16293 15943 0.10142
16293 15944 0.10142
16293 15945 0.101421
16293 15946 0.101421
10739 5534 0.181
0 2156 0.000156279
13117 527 0.161358
3838 262 0.199807
3838 281 0.199807
7932 7588 0.333012
6758 6535 0.111004
6758 6536 0.111004
1174 3306 0.142719
3981 1371 0.125337
16323 8993 0.20491
14690 12034 0.12488
6329 3597 0.999035
10739 5873 0.181
14434 2954 0.249759
10739 5936 0.181
18099 7190 0.111004
18099 7235 0.111004
4124 2742 0.858682
20191 190 0.999035
3981 1818 0.125337
10250 17383 0.999035
0 2742 3.66215e-06
0 2758 0.000155845
14088 15531 0.999035
13802 13499 0.201133
3981 1944 0.125337
7819 46 0.12488
3093 3022 0.110998
14434 3397 0.249759
20846 20012 0.999035
16150 15770 0.999035
3695 17 0.166486
19589 3597 0.999035
22253 622 0.999035
3981 2135 0.125337
8963 8505 0.249759
8963 8506 0.499518
3695 152 0.16651
7789 7465 0.333012
7789 7466 0.333012
7789 7467 0.333012
5155 3376 0.999035
12372 3650 0.0555019
16639 4841 0.249526
3695 378 0.16651
21651 4021 0.999035
7819 520 0.124879
3695 407 0.16651
14434 3854 0.249759
16353 2922 0.124879
22110 55 0.999035
3093 3610 0.110998
14690 13306 0.12488
13659 13291 0.999035
16955 90 2.2153e-05
0 3679 0.000155944
17986 181 0.111004
19017 413 0.12488
11168 10420 0.999035
17986 407 0.111004
17986 422 0.111004
19017 461 0.12488
0 4021 0.000155984
1490 10 0.999035
11943 1371 0.999035
1889 10304 0.0905753
459 71 0.999035
16955 599 0.166502
2461 14503 0.111004
14893 561 0.199807
3981 3328 0.125337
1889 10486 0.0905752
1889 10492 0.0905753
3695 1331 0.16651
19017 827 0.124879
7819 1522 0.12488
0 4504 1.77978e-07
14690 14205 0.12488
14690 14206 0.12488
14690 14207 0.12488
19017 1057 0.12488
19017 1068 0.12488
18212 17517 0.499518
3981 3832 0.125337
11657 3 0.164089
7819 1954 0.12488
11657 29 0.139837
3981 3895 0.125337
10769 1051 0.981963
11657 71 0.17449
13260 4220 0.166506
8564 10 0.999035
16955 1430 0.166502
21734 21046 0.332773
21734 21047 0.166614
11657 267 0.171641
16955 1468 0.166502
6502 133 0.111004
3838 3138 0.199807
16782 7655 0.999035
7819 2262 0.124879
14750 461 0.499518
316 25 0.0526059
316 29 0.104736
316 37 0.052606
11055 3451 0.999035
316 47 0.105212
5471 338 0.333012
6502 383 0.111004
316 217 0.0526059
888 4339 0.058925
17843 788 0.999035
14893 1726 0.199807
13373 12995 0.333012
14893 1808 0.199807
19905 1026 0.999035
316 429 0.052606
3838 3628 0.199807
19017 2124 0.12488
3838 3721 0.199807
17986 2154 0.111004
0 5701 0.000155944
7217 5972 0.241854
7819 2943 0.124879
12545 47 0.111004
10483 12 0.163198
2205 6933 0.0999039
316 755 0.0526059
8421 10 0.332804
0 5974 0.000155996
10882 10415 0.145308
13260 5463 0.166506
3266 51 0.999035
316 994 0.0526058
1204 29 0.999035
13260 5587 0.166506
173 72 0.199767
12545 524 0.111004
17986 2756 0.111004
0 6300 0.000156135
9392 14868 0.499506
12545 639 0.111004
13719 1710 0.999035
2235 336 0.333012
10483 599 0.167092
10912 3689 0.999035
173 309 0.199853
1347 1380 0.499518
1347 1381 0.499518
3695 3531 0.16651
6502 1624 0.111004
19017 3131 0.124879
0 6673 0.000155944
173 599 0.199726
10483 976 0.167207
316 1702 0.052606
2235 755 0.333012
11371 15 0.999035
10739 10248 0.0940382
10739 10249 0.181
1460 9969 0.142719
9422 8176 0.111004
7247 3 0.999035
7819 4139 0.12488
9309 136 0.111004
4154 3 0.122021
12545 1312 0.111004
173 929 0.199837
4154 29 0.116232
3123 10 0.199728
3123 18 0.399656
5471 2166 0.333012
1061 3 0.0667141
4154 104 0.253589
9392 15650 0.499529
9309 296 0.111004
5584 10452 0.172243
1061 68 0.198202
5584 10460 0.209471
4154 217 0.126844
1061 138 0.133333
3123 225 0.199826
4154 267 0.126662
1061 225 0.199999
1061 277 0.0666663
5411 16820 0.33301
173 1327 0.199853
20131 19385 0.333013
1061 407 0.0666741
10596 9928 0.499518
10596 9929 0.499518
3093 7711 0.110998
7074 6816 0.333012
7074 6831 0.333012
0 7655 3.05013e-07
316 2545 0.0526058
14321 14 0.999035
12545 2039 0.111004
2205 8906 0.0999039
16383 138 0.12488
10197 37 0.15424
1174 9061 0.142719
16383 361 0.12488
10340 1211 0.499518
316 2993 0.0526059
2980 25 0.00366793
1949 29 0.999035
2980 94 0.281961
12545 2517 0.111004
918 147 0.111004
9309 1446 0.111004
0 8339 0.000155944
19988 19205 0.333012
10197 492 0.0735913
4011 321 0.199807
21162 20384 0.499518
22336 21452 0.298502
22336 21453 0.103528
0 8491 0.000155947
17986 4959 0.111004
918 351 0.111004
9309 1642 0.111004
12944 13095 0.499518
12944 13096 0.499518
3123 1631 0.199826
11025 14208 0.166506
0 8766 0.000155944
8391 10160 0.10355
20793 3395 0.999035
9166 1017 0.333012
6502 4038 0.111004
9023 18 0.999035
14178 190 0.395332
2461 19373 0.111004
8391 10359 0.10355
8421 3205 0.333116
918 962 0.111004
20447 15950 0.999035
9136 8591 0.999035
16323 16001 0.209014
7992 407 0.111004
256 18614 0.110969
3868 341 0.12488
2837 318 0.261463
10197 1589 0.308479
17271 795 0.999035
6502 4593 0.111004
2837 407 0.245858
9309 2664 0.111004
3492 19935 0.11103
2837 464 0.491714
5930 568 0.666024
20221 14 1.20799e-05
7992 697 0.111004
20221 94 0.249679
8421 3916 0.333116
6442 19256 0.333015
6502 4914 0.111004
11657 5082 0.17449
3868 773 0.12488
3868 774 0.12488
18159 210 0.249759
13004 81 0.499518
14893 6303 0.199807
14178 1203 0.301852
20477 9604 0.125773
16097 267 0.000135977
10483 4220 0.167207
0 10102 0.000155944
0 10103 0.000155944
0 10107 0.000155944
0 10108 0.000156002
4756 17 0.166266
10942 209 0.166516
4756 47 0.166637
6818 127 0.111004
7849 184 0.249759
0 10189 4.87866e-07
632 37 0.16668
1919 9351 0.141987
632 104 0.748905
0 10335 0.000150372
0 10338 0.000155934
7819 7518 0.12488
16383 2742 0.124877
16383 2763 0.12488
7849 492 0.249759
5411 19917 0.33301
9309 3682 0.111004
3868 1493 0.12488
7992 1637 0.111004
918 2517 0.111004
4297 4703 0.999035
2205 11834 0.0999039
3868 1649 0.12488
16097 1035 0.332756
15149 16377 0.999035
14923 12 0.111004
14923 28 0.111004
14923 39 0.111004
14923 72 0.111004
18016 208 0.285439
3868 1857 0.12488
7533 6099 0.499526
16752 20744 0.202008
10799 72 0.999035
0 11011 0.000155944
6818 994 0.111004
4756 940 0.166533
1460 14207 0.285439
19017 7605 0.12488
1919 10178 0.141987
1919 10193 0.141987
316 6143 0.052606
7849 1259 0.249759
489 39 0.999035
6818 1337 0.111004
7849 1370 0.249759
14923 625 0.111004
9166 3527 0.333012
4011 3469 0.399614
3868 2455 0.12488
10769 7844 0.0170725
918 3515 0.111004
9422 13010 0.111004
16955 8128 0.166502
14720 14220 0.499518
6818 1707 0.111004
14923 998 0.111004
17873 90 0.999035
2807 9915 0.499518
918 3710 0.111004
2807 9922 0.499518
918 3729 0.111004
16842 134 0.111004
10656 15 0.998911
4011 3912 0.199807
4011 3917 0.199807
9625 6 0.111004
6818 1985 0.111004
9625 124 0.111004
16842 348 0.111004
7533 7292 0.499509
9625 206 0.222008
10656 281 0.000124588
316 7143 0.052606
1377 29 0.999035
7563 240 0.111004
256 21536 0.110969
18016 1619 0.142719
1174 13397 0.142719
16842 579 0.111004
918 4189 0.111004
18159 2751 0.499518
3439 325 0.999035
7563 464 0.111004
632 2405 0.00011017
7992 3704 0.111004
9625 691 0.111004
18099 17358 0.111004
18099 17359 0.111004
10942 2818 0.166516
21854 89 0.999035
7563 705 0.111004
14923 2012 0.111004
9309 5946 0.111004
15811 1094 0.166506
15668 90 0.947081
632 2844 0.0833406
16842 1321 0.111004
12545 7370 0.111004
203 10 0.181658
203 23 0.396525
3296 127 0.999035
13260 12731 0.166506
13260 12732 0.166506
2980 5287 0.142681
16097 3704 0.333072
10483 7655 0.167134
12372 13869 0.111004
203 225 0.210429
18016 2885 0.142719
203 306 0.105212
4613 2737 0.999035
0 13947 0.000155947
11401 14 0.999035
17587 219 0.0246885
16955 10527 0.166502
3868 4998 0.12488
20680 431 0.999035
9625 2144 0.111004
13117 12597 0.161358
6931 12438 0.999035
2122 77 0.167428
1091 53 0.166506
2122 87 0.167428
16383 6700 0.12488
2122 117 0.161895
1061 7318 0.0666663
9482 1453 0.333012
6246 336 0.499518
0 14510 0.000155944
2122 242 0.167428
2122 378 0.167428
15811 2879 0.166506
1091 431 0.166506
9482 1723 0.333012
21568 71 5.83672e-05
7277 713 0.111004
203 1523 0.105212
14923 4066 0.111004
10197 6995 0.154246
2122 599 0.167428
14351 37 0.249759
13320 47 0.999035
1091 790 0.166506
1091 791 0.166506
21568 403 0.191755
21568 433 0.201806
3153 995 0.142719
12372 15636 0.055502
12372 15637 0.055502
3153 1035 0.142719
1091 976 0.166506
1091 977 0.166506
7277 1209 0.111004
16383 7655 0.24976
9309 8533 0.111004
7563 3397 0.111004
9309 8577 0.111004
17587 1679 0.974347
18761 2865 0.999035
15668 2800 0.0519544
3153 1509 0.142719
20394 32 0.904522
20394 90 0.0945138
21568 1203 0.201805
14208 2 0.999035
7134 827 0.285439
0 16032 0.000155944
16270 211 0.111004
16270 263 0.111004
3153 1911 0.142719
5870 21482 0.000233719
5870 21483 0.249956
5870 21484 0.249956
948 851 0.999035
4041 952 0.333012
8022 72 0.333007
7992 7291 0.111004
9625 4273 0.111004
16270 383 0.111004
17527 16822 0.111004
17527 16823 0.111004
17527 16824 0.111004
17527 16825 0.111004
572 20399 0.251708
3898 37 0.111004
1836 63 0.222008
3898 181 0.111004
1836 137 0.111004
3153 2298 0.142719
9166 8634 0.333012
16353 16031 0.124879
16353 16033 0.124879
7563 4618 0.111004
21568 1985 0.201806
3898 445 0.111004
1836 383 0.222008
1460 19851 0.142719
3898 616 0.111004
1836 643 0.111004
1836 699 0.111004
316 11923 0.052606
10972 2 0.199807
17444 2286 0.999035
18189 262 0.166506
0 17164 0.000155944
9625 5199 0.222008
8910 61 0.111004
10972 184 0.199807
1061 10123 0.0666659
12003 219 0.999035
15811 5469 0.166506
8910 133 0.111004
8910 136 0.111004
18189 463 0.166506
0 17347 0.000155936
3898 1102 0.111004
13034 398 0.333012
662 37 0.499517
1061 10326 0.0666663
2724 138 0.166592
1061 10332 0.0666663
20537 2742 0.999035
1061 10335 0.000783716
10972 463 0.199807
10197 9663 0.15424
10197 9664 0.15424
6502 12631 0.111004
6502 12632 0.111004
6502 12633 0.111004
9422 18923 0.111004
3898 1371 0.111004
21824 12185 0.999035
12545 11914 0.111004
21711 4021 0.999035
8880 7753 0.999035
12545 11983 0.111004
6848 552 0.999035
7992 8814 0.111004
10483 11974 0.167198
4756 7706 0.166533
1693 444 0.499518
9482 4799 0.333012
1663 7655 0.999035
16842 6080 0.111004
1836 1552 0.111004
4124 18055 0.140354
17015 68 0.999035
21139 267 0.999035
14893 14476 0.199807
18189 1263 0.166506
8910 1019 0.111004
8767 29 0.249889
9941 1131 0.999035
8767 124 0.249716
6216 11330 0.999035
2724 976 0.166927
3612 12 0.230971
2235 12371 0.333012
10829 377 0.124879
13034 1499 0.333012
0 18514 5.78794e-06
519 97 0.999035
7736 354 0.333012
10942 8663 0.166516
2581 211 0.333012
22140 8055 0.999035
2581 336 0.333012
10829 697 0.12488
1693 1444 0.499518
3612 512 0.254827
10340 11996 0.499518
14750 14215 0.499518
19965 48 0.499502
14178 10120 0.301852
5674 662 0.999035
16872 3 0.111007
2724 1619 0.166636
8022 2817 0.333019
18016 8275 0.285438
10513 6002 0.333012
3612 682 0.256619
13779 3 0.160213
13779 14 0.00713526
16872 117 0.110976
11717 25 0.283331
16872 193 0.111008
9053 3086 0.198518
7992 10232 0.222008
8624 26 0.12488
7593 3 0.999035
8534 21571 0.249759
8534 21572 0.249759
8534 21573 0.249759
3612 930 0.256619
7992 10305 0.111004
8910 2138 0.111004
13779 241 0.334247
3898 3011 0.111004
11717 219 0.143141
7563 7297 0.111004
7563 7298 0.111004
7563 7299 0.111004
7563 7300 0.111004
21794 21069 0.992553
3469 39 0.00300674
3469 48 0.14922
10829 1331 0.12488
13177 3481 0.999035
376 23 0.488767
13779 473 0.167125
16872 590 0.222015
1407 127 0.111004
16842 7832 0.111004
3153 5374 0.142719
10686 526 0.166506
1407 284 0.111004
11717 634 0.143141
1407 423 0.111004
21884 71 0.999035
4154 12843 0.126844
4154 12844 0.126844
1407 566 0.111004
16729 20 0.111004
16729 39 0.111004
10942 10108 0.166455
10513 7054 0.333012
2724 2742 0.165545
10942 10191 0.166516
16955 16543 0.166502
16729 147 0.111004
13636 51 0.222008
13636 63 0.111004
3153 5922 0.142719
10686 1068 0.166506
7360 21458 0.00474286
3469 849 0.150124
7277 6118 0.111004
13636 196 0.111004
1407 877 0.111004
3469 952 0.0960729
13636 251 0.222008
10942 10493 0.166516
16729 590 0.111004
233 94 0.874166
233 124 0.124869
7277 6516 0.111004
18046 2769 0.999035
16872 1725 0.111008
15984 2737 0.999035
8624 1494 0.12488
19965 1848 0.499534
16729 847 0.111004
1407 1398 0.111004
17986 17288 0.222008
17986 17289 0.111004
1407 1417 0.111004
1407 1418 0.111004
1407 1419 0.111004
8624 1672 0.12488
11717 1787 0.143141
10829 2799 0.12488
8624 1755 0.12488
6562 1723 0.999035
16270 5105 0.111004
16383 13381 0.12488
20710 293 0.111004
2980 13083 0.142681
2980 13084 0.142681
2980 13085 0.142681
2980 13086 0.142681
10686 2059 0.166506
11431 51 0.999035
19822 1403 0.111004
7277 7179 0.111004
6276 12 0.239798
7736 3147 0.333012
5245 14 0.121256
16872 2432 0.111008
20710 504 0.111004
0 21411 0.000155944
19822 1560 0.111004
316 16332 0.0526059
316 16333 0.052606
316 16334 0.052606
20710 613 0.111004
1121 18 0.249759
12605 1409 0.249759
20710 653 0.111004
90 25 0.16319
90 48 0.251106
10686 2432 0.166506
16586 599 0.999035
90 104 0.428625
21741 780 0.999035
90 117 0.156115
376 2197 0.255134
4041 6533 0.333012
16872 2845 0.111008
6276 503 0.253079
20567 15 0.117213
5245 599 0.175926
10400 772 0.142719
18505 10 0.108035
7134 6891 0.285439
7134 6899 0.142719
7134 6900 0.142719
7134 6901 0.142719
17474 71 0.986846
18505 117 0.11303
20221 12568 0.249781
6276 866 0.253079
18505 225 0.111139
11288 9 0.999035
13004 12360 0.499518
17474 225 0.011768
12319 97 0.111004
10400 1065 0.285439
5245 929 0.350927
12605 2194 0.249759
15811 10497 0.166506
12319 144 0.111004
12605 2203 0.249759
4756 12210 0.166533
12319 219 0.111004
20710 1505 0.111004
12319 251 0.111004
18505 461 0.111139
8767 4261 0.249716
4071 23 0.16557
10257 216 0.999035
19822 2574 0.111004
1121 1044 0.249759
1121 1045 0.249759
1121 1046 0.249759
4071 117 0.166693
10400 1373 0.142719
12319 466 0.111004
19679 1778 0.999035
8165 7655 0.999035
12319 622 0.111004
12319 653 0.111004
13636 2780 0.111004
10513 9881 0.333012
20221 13306 0.249781
5102 543 0.499518
16729 2974 0.111004
20567 1074 0.125979
19822 3103 0.111004
19822 3105 0.111004
4071 568 0.166693
16270 7095 0.111004
18505 1094 0.111139
14381 1026 0.124879
14238 90 0.998901
11145 12 0.999035
6818 13248 0.111004
6818 13367 0.111004
4959 3 0.999035
6818 13384 0.111004
6818 13385 0.111004
19393 487 0.999035
13636 3396 0.111004
3928 32 0.000506255
20710 2669 0.111004
3928 318 0.199706
8022 7708 0.33301
18505 2079 0.111139
5471 19101 0.333012
18219 39 0.165159
5930 15030 0.333012
376 4618 0.255134
18219 51 0.167222
6246 9953 0.249759
11657 19349 0.17449
10972 7054 0.199807
16729 4220 0.111004
20567 2332 0.125948
18219 225 0.164885
3928 929 0.199706
9971 133 0.19983
3928 971 0.199706
9226 2171 0.499518
19762 18909 0.999035
7879 7273 0.999035
11717 5345 0.143141
3785 89 0.166427
9053 8513 0.199355
9053 8514 0.199355
9053 8515 0.199355
9053 8516 0.199355
9053 8517 0.00309795
12176 1485 0.249762
9971 572 0.199801
13034 7841 0.333012
12176 1720 0.499516
9971 643 0.199801
12575 12056 0.999035
2724 7655 0.333335
692 435 0.499518
18505 3055 0.111139
17474 3036 0.000421806
3785 599 0.166887
18076 72 0.199995
15239 9251 0.999035
16270 9303 0.111004
21169 350 0.399614
16270 9422 0.111004
18076 267 0.199029
14923 14516 0.111004
18076 348 0.200004
22343 1509 0.999035
3785 981 0.499294
5847 1068 0.479625
16097 15731 0.333072
9971 1265 0.199801
13779 6549 0.163192
7736 7413 0.333012
17331 2701 0.999035
4041 10519 0.333012
692 1219 0.499518
549 267 0.999035
14238 2754 0.00013489
9083 2652 0.999035
14780 14193 0.99806
14780 14225 0.000975622
18076 1067 0.200004
16902 10 0.999035
22057 219 0.999035
3785 1722 0.166427
12319 4151 0.111004
7277 12199 0.111004
20650 19847 0.999035
18505 4551 0.111139
5847 2115 0.51941
5561 71 0.12488
10716 242 0.999035
4756 16503 0.166533
406 3 0.399614
19995 705 0.166506
406 104 0.199807
406 117 0.199807
22200 1828 0.499516
20710 5946 0.111004
18016 16153 0.142719
2468 348 0.367772
406 318 0.199807
3469 7598 0.150194
10859 1721 0.334001
5561 543 0.12488
5561 569 0.12488
18159 17388 0.249759
11890 1826 0.999035
15811 15334 0.166506
15811 15335 0.166506
19995 1133 0.166506
16759 12 0.984086
14697 14 0.999035
3898 10969 0.111004
16985 16551 0.999035
19822 7424 0.111004
19822 7464 0.111004
20567 5448 0.125979
16729 7655 0.111004
1294 17 0.356777
1294 19 0.0714111
1437 1075 0.999035
10400 6541 0.142719
16729 7763 0.111004
10972 10723 0.199807
16842 16034 0.111004
5561 1344 0.12488
263 184 0.111004
7277 13947 0.111004
16842 16303 0.111004
21169 3138 0.399614
5561 1649 0.12488
1294 503 0.285422
12319 6020 0.111004
16842 16430 0.111004
662 10812 0.499519
8624 9077 0.12488
10829 10186 0.12488
10829 10190 0.12488
263 653 0.111004
11461 32 0.999035
10829 10318 0.12488
10829 10321 0.12488
9399 32 0.999035
10400 7235 0.142719
263 827 0.111004
1294 1068 0.142714
3213 137 0.333012
18648 7789 0.999035
12492 465 0.999035
14351 13866 0.249759
14351 13867 0.249759
14351 13868 0.249759
16616 625 0.333012
918 20752 0.111004
5245 7623 0.175463
15525 15172 0.999035
16759 1897 0.0149492
1151 404 0.142719
20221 19456 0.249781
3642 3597 0.999035
6449 1636 0.999035
6246 14983 0.249759
20567 7273 0.125979
4071 6763 0.166693
4071 6764 0.166693
4071 6765 0.166693
17504 61 0.199558
10686 10126 0.166506
10686 10165 0.166506
13380 12 0.0283974
1151 849 0.285439
19709 1444 0.999035
14381 7429 0.12488
8225 90 0.000558496
4101 55 0.333162
5132 107 0.999035
7194 215 0.110991
1151 1101 0.142719
1151 1154 0.142719
7194 350 0.221982
1836 13518 0.111004
9256 429 0.999035
17504 755 0.199869
1151 1285 0.142719
1151 1286 0.142719
1008 267 0.343316
14381 7911 0.12488
7277 15901 0.111004
7194 534 0.110991
7277 15908 0.111004
263 2537 0.111004
12349 1104 0.499991
9113 3 0.999035
1008 789 0.345855
17361 293 0.999035
7194 1068 0.221982
18189 13706 0.166506
6020 38 0.499517
1008 909 0.309865
19423 487 0.999035
3958 29 0.110978
3958 57 0.110982
6878 6329 0.999035
3958 127 0.221963
865 136 0.249759
19935 19183 0.999035
9226 8648 0.499518
3958 407 0.110982
263 3445 0.111004
7194 1674 0.111105
7194 1721 0.110994
1896 625 0.499518
865 614 0.249759
3213 2817 0.333012
6592 4998 0.499518
13094 90 0.324907
8970 37 0.249759
8052 8211 0.999035
11032 109 0.111004
6276 10221 0.253079
5245 10223 0.175463
11032 181 0.111004
19792 18916 0.999035
2784 15 0.167152
2784 83 0.0924315
2784 84 0.0924315
11032 351 0.111004
16270 15906 0.111004
16270 15907 0.111004
1234 18575 0.999035
2784 184 0.277295
1896 1205 0.499518
3469 12720 0.150209
12605 12073 0.249759
20168 15 0.999035
11032 774 0.111004
17504 3059 0.199869
8970 755 0.249759
2784 627 0.184863
1753 643 0.520342
15013 94 0.0138623
3958 1828 0.111188
13094 1096 0.168532
13094 1144 0.168532
10889 55 0.921646
13779 13470 0.167125
19995 6501 0.166506
14953 14551 0.999035
18505 10572 0.111139
7796 47 0.249759
21199 465 0.999035
12951 210 0.111004
6592 6263 0.499518
19566 3597 0.999035
3672 55 0.999035
2611 7201 0.999035
3898 16476 0.111004
7796 219 0.249759
263 5115 0.111004
1610 37 0.319778
22230 679 0.999035
18219 8765 0.167256
8940 8493 0.999035
2784 1259 0.184863
14381 10932 0.12488
7307 11769 0.499518
7307 11770 0.499518
11318 3705 0.499518
8624 13995 0.12488
8624 13996 0.12488
22087 72 0.999035
8624 14001 0.12488
8082 2742 0.999035
20025 96 0.166506
6765 714 0.333004
16932 12 0.00540927
16044 1009 0.166506
13636 13242 0.111004
6765 755 0.333027
8970 1911 0.249759
13839 53 0.222008
13839 59 0.111004
1610 755 0.266426
9971 9221 0.199801
10746 25 0.999035
13839 187 0.111004
6765 994 0.333004
3928 10199 0.199706
3928 10200 0.199706
13839 277 0.111004
4560 10 0.367205
4560 32 0.264351
7796 1162 0.249759
16932 503 9.28026e-05
7653 218 0.111004
13839 439 0.111004
1467 63 0.154258
3469 14524 0.15021
16932 599 0.993533
3469 14525 0.149999
18994 701 0.249759
2498 217 0.999035
8767 15958 0.249716
16044 1918 0.166506
19882 10 0.111003
1467 466 0.140696
1467 512 0.281979
13493 13189 0.999035
14983 9170 0.999035
18189 17473 0.166506
18189 17474 0.166506
15758 10 0.999035
10603 55 0.00446291
6479 10 0.999035
5448 10 0.36294
20025 1522 0.166506
2468 8215 0.315632
8910 17654 0.111004
3386 72 0.341201
19995 8812 0.166506
2468 8278 0.315632
19882 683 0.111004
11032 3550 0.111004
7653 1409 0.111004
19995 9029 0.166506
16044 2759 0.166506
5448 479 0.000651759
5448 503 0.3177
16044 2892 0.166506
8225 5880 0.521744
16646 17 0.477716
16872 16501 0.111008
16646 117 0.521319
15615 104 0.206509
15615 112 0.206878
21568 20839 0.201806
18994 2432 0.249759
10859 10387 0.331034
10859 10398 0.334001
20770 494 0.999035
15585 7517 0.999035
15615 358 0.206876
5448 1074 0.317744
2581 17384 0.333012
10460 217 0.124912
3386 1067 0.328917
20025 2637 0.166506
1181 17 0.388043
10460 378 0.124875
13553 487 0.999035
13094 4571 0.168532
14381 13835 0.12488
12522 503 0.999035
9429 431 0.999035
1324 1209 0.111004
1181 216 0.610993
14381 13956 0.12488
14381 13957 0.12488
14381 13958 0.12488
1324 1272 0.111004
1324 1273 0.111004
13839 2692 0.111004
17903 17179 0.999035
10603 1592 0.994573
1324 1305 0.111004
1324 1306 0.111004
1324 1307 0.111004
1324 1308 0.111004
1324 1309 0.111004
1324 1310 0.111004
19882 1985 0.111004
20251 19517 0.999035
263 8673 0.111004
10460 847 0.124875
5102 14046 0.499518
14870 3103 0.999035
20627 252 0.499518
12176 13399 0.249758
21801 1493 0.000480318
10460 1151 0.124875
6193 12 0.335705
15615 1335 0.171894
3100 3 0.999035
5561 10420 0.12488
7 10 0.157686
10460 1370 0.124875
7224 281 0.166506
8910 19839 0.111004
8910 19840 0.111004
8910 19841 0.111004
7 117 0.157751
19882 2797 0.111004
5561 10576 0.12488
5561 10577 0.12488
3958 6464 0.110982
7 284 0.0525846
7194 7685 0.110991
7 331 0.0525846
7 338 0.105169
7224 568 0.333012
20484 17 0.999035
6193 599 0.340391
19882 3089 0.111004
19882 3396 0.111004
13267 135 0.111004
12951 5253 0.111004
1038 800 0.12488
13267 190 0.111004
17391 336 0.999035
13267 225 0.111004
7081 39 0.233456
7224 1068 0.166506
7 849 0.0525846
7081 55 0.00301414
7081 102 0.254189
17504 8673 0.199869
1926 17 0.307961
895 55 4.76512e-06
17504 8768 0.199869
1038 1108 0.12488
895 136 0.249677
1926 206 0.276183
10430 9722 0.980835
1467 4355 0.140696
10430 9801 0.0182006
4131 1409 0.999035
13267 705 0.111004
865 7517 0.249759
6908 6692 0.999035
20567 16341 0.125979
11348 1721 0.499517
22313 21589 0.999035
1038 1662 0.12488
12951 6162 0.111004
1038 1727 0.12488
1467 4841 0.14071
16217 234 0.076849
16217 297 0.076849
16217 315 0.076849
1753 7087 0.239347
19822 18920 0.111004
19822 18921 0.111004
1926 952 0.138732
4876 23 0.332801
19310 487 0.999035
16217 410 0.076849
3845 55 0.000477835
7969 195 0.111004
13267 1397 0.111004
16044 6618 0.166506
6938 205 0.142719
16217 539 0.076849
13124 503 0.142719
18994 5907 0.249759
4876 373 0.166559
13094 7821 0.168532
16360 1788 0.999035
4876 407 0.166559
7 2325 0.0525846
21229 12 0.111004
9000 662 0.999035
22260 72 0.820272
12635 12181 0.999035
13267 1983 0.111004
10460 3962 0.124875
7969 849 0.111004
150 3710 0.999035
14155 1104 0.666024
21229 358 0.111004
16616 11497 0.333012
13839 6301 0.111004
10919 63 0.20037
21229 422 0.111004
13809 13514 0.999035
19882 5550 0.111004
16074 312 0.222008
8857 137 0.222008
7969 1154 0.111004
20853 20012 0.999035
11717 20755 0.143141
3958 9274 0.110982
8857 216 0.111004
8857 225 0.111004
8857 245 0.111004
7826 219 0.166506
1640 38 0.363935
8970 8503 0.249759
1640 89 0.0909931
1640 104 0.271157
10919 399 0.20037
21229 755 0.111004
1640 181 0.0909837
11318 10763 0.499518
7826 418 0.166506
16074 747 0.111004
7969 1552 0.111004
13124 1728 0.142719
11062 1702 0.999035
11032 8924 0.111004
22117 55 0.999035
7826 710 0.166506
3845 1623 0.499279
21229 1144 0.111004
19024 186 0.166506
15931 136 0.999035
3213 12056 0.333012
6938 1929 0.142719
7 3765 0.0525846
7 3766 0.0525846
10919 1094 0.197779
10776 117 0.327397
13124 2262 0.142719
1926 2956 0.13808
20710 19968 0.111004
20710 19969 0.111004
1497 12 0.0683809
19024 568 0.166506
1497 32 0.127208
1497 48 0.190153
466 37 0.111004
1497 77 0.0511082
466 47 0.111004
10776 377 0.335817
466 63 0.111004
10400 19843 0.142719
13124 2525 0.142719
16074 1610 0.111004
21229 1774 0.222008
12349 11752 0.499044
13124 2589 0.142719
1640 1219 0.0909837
13267 3679 0.111004
3386 6575 0.328918
1497 433 0.0511082
18994 8152 0.249759
19882 7238 0.111004
6795 1728 0.166506
7796 8954 0.249759
1640 1628 0.0909837
7826 1828 0.166506
18219 17522 0.167256
18219 17523 0.167256
14900 1036 0.333013
14757 15 0.232258
3988 3793 0.333012
20567 19699 0.125979
20567 19700 0.125979
8857 1954 0.111004
13124 3121 0.142719
3845 2842 0.499279
3988 3908 0.333012
3988 3909 0.333012
6020 11150 0.499518
466 803 0.111004
6509 3 0.500728
16819 351 0.948596
15615 6541 0.206878
1038 5088 0.12488
263 14460 0.111004
16962 1661 0.999035
7826 2449 0.166506
10633 566 0.666024
466 1342 0.111004
13380 13020 0.970638
14757 790 0.127802
19024 1954 0.166506
13839 8965 0.111004
18076 17353 0.200004
21831 55 0.110999
14757 884 0.25557
14757 891 0.127802
20800 68 0.239443
6795 2778 0.166506
7 5702 0.0525846
16217 4233 0.076849
14900 2166 0.333013
3416 786 0.999035
16217 4273 0.076849
10776 2197 0.335821
10889 10424 0.0773894
16074 3441 0.111004
9459 255 0.0908215
14900 2505 0.33301
180 3 0.0367218
9459 293 0.0908215
180 14 0.169721
180 15 0.0781483
13124 4517 0.142719
180 29 0.000717883
180 32 0.0182758
6938 4356 0.142719
180 55 0.120133
180 63 0.0377822
180 90 0.125365
180 94 0.20717
180 104 0.0370115
2242 184 0.166506
1294 15537 0.0713555
466 2210 0.111004
19912 1939 0.499518
9459 590 0.0908215
16074 3963 0.111004
7224 6845 0.166506
7224 6846 0.166506
21455 20626 0.999035
1783 4695 0.999035
1211 625 0.999035
2242 755 0.499518
11378 15 0.999035
7653 10172 0.111004
9459 1035 0.0908215
1497 2844 0.0511081
10347 196 0.111004
7653 10360 0.111004
7653 10361 0.111004
7653 10362 0.111004
7653 10363 0.111004
7653 10364 0.111004
7653 10365 0.111004
4161 12 0.0999814
7540 2177 0.333012
7540 2179 0.333012
37 3 0.0790575
4161 136 0.099895
37 14 0.190787
1068 51 0.171649
2099 89 0.999035
37 29 0.294552
37 32 0.0591533
180 1067 0.0186656
37 48 0.0406141
37 51 0.098503
4161 217 0.19979
4161 219 0.099895
1068 184 0.0827388
1610 11490 0.319779
18964 18183 0.999035
4161 336 0.39958
37 267 0.0197586
37 332 0.0196919
20138 19405 0.999035
37 410 0.0196919
10347 731 0.111004
16616 16317 0.333012
21831 2181 0.111005
17421 3 1.08798e-05
7081 6854 0.254189
7081 6855 0.254189
20657 1166 0.499518
10347 849 0.111004
8285 786 0.999035
6938 5886 0.142719
18452 110 0.333012
37 568 0.0196925
15359 37 0.999035
20514 206 0.999035
12951 12277 0.111004
14328 63 0.222008
37 665 0.0196919
12951 12351 0.111004
14328 104 0.111004
12951 12356 0.111004
12951 12357 0.111004
12951 12358 0.111004
12951 12359 0.111004
17421 206 0.999025
12266 57 0.142719
1753 13092 0.239347
10204 48 0.999035
18452 348 0.333012
21545 461 0.333004
8142 94 0.198406
12266 225 0.142719
1294 17314 0.0713555
7969 6277 0.111004
7969 6320 0.111004
16074 5550 0.111004
21831 2669 0.111005
8857 5366 0.111004
1497 4220 0.0511082
13297 515 0.333012
180 2175 0.0186657
21545 792 0.333016
14757 3676 0.255604
6938 6542 0.142719
19995 19250 0.166506
21169 20387 0.199807
263 17762 0.111004
13297 755 0.333012
6938 6736 0.142719
6938 6737 0.142719
10347 1766 0.111004
20371 37 0.111004
20371 91 0.111004
16247 47 0.222945
16247 72 0.222948
9173 883 0.999035
20371 216 0.111004
13154 23 0.000229862
12266 1028 0.142719
1068 1709 0.0827388
1038 8894 0.12488
9030 17 0.997177
9030 18 0.00185851
20371 395 0.111004
7540 4117 0.333012
20371 422 0.111004
20371 429 0.111004
7 9018 0.0525846
925 855 0.999035
1068 1954 0.165478
13154 281 0.199762
3875 39 0.999035
19483 1572 0.333012
12266 1357 0.142719
2844 43 0.112855
2844 47 0.112859
20371 714 0.111004
14441 9768 0.999035
3815 14594 0.999035
6795 6555 0.166506
6795 6563 0.166506
6795 6577 0.166506
6795 6578 0.166506
7969 7669 0.111004
20371 883 0.111004
8142 1528 0.200157
7969 7671 0.111004
7969 7672 0.111004
5937 452 0.199807
22290 5 0.333012
3958 15829 0.110982
22200 21523 0.499519
20228 3 0.202896
20228 29 0.16775
20228 32 0.000195488
12266 1939 0.142719
6509 4898 0.498307
21402 1286 0.0308368
1068 2818 0.165478
18166 296 0.249759
4560 13199 0.36748
20228 398 0.209398
16217 8500 0.076849
2844 929 0.112855
19024 6621 0.166506
4763 104 0.142719
7826 7378 0.166506
4763 135 0.285439
7 10310 0.0525846
7 10314 0.0525846
18166 691 0.249759
21229 7959 0.111004
4763 284 0.142719
14185 1604 0.111004
11348 10779 0.499518
5937 1397 0.199807
4763 347 0.142719
3732 318 0.124879
3732 450 0.124879
5621 6665 0.999035
3732 464 0.249759
2844 1528 0.209403
13267 10058 0.111004
5937 1649 0.199807
18166 1050 0.249759
14328 2992 0.111004
18166 1085 0.249759
3732 637 0.124879
7856 790 0.249759
14185 2140 0.111004
13154 2112 0.199762
9459 5101 0.0908215
16217 9428 0.0768489
16044 15583 0.166506
14328 3270 0.111004
7856 1104 0.249759
19739 12774 0.999035
12266 3486 0.142719
865 17512 0.249759
4161 4305 0.099895
20800 5852 0.759592
14930 607 0.199807
8857 8635 0.111004
8857 8636 0.111004
10347 4611 0.111004
7856 1468 0.249759
16247 2817 0.222957
11032 17016 0.111004
15013 16178 0.985173
2212 12720 0.999035
14930 849 0.199807
11032 17166 0.111004
11032 17167 0.111004
19942 55 0.874685
19882 14428 0.111004
6193 11974 0.32294
19024 8370 0.166506
2844 2765 0.112855
14787 68 0.0106674
15818 117 0.222008
13756 63 0.999035
4018 3930 0.999035
16849 355 0.199807
6682 1068 0.333012
6539 90 0.150924
6539 107 0.848112
37 5038 0.0196919
2558 1036 0.560319
1384 38 0.999035
16992 1556 0.999035
353 17 0.416085
16676 6688 0.999035
353 50 0.083217
353 52 0.166434
353 63 0.250082
10663 426 0.249761
15818 827 0.222008
20371 4051 0.111004
21861 32 0.999035
8225 20160 0.476733
18768 28 0.999035
19799 68 0.999035
180 6660 0.0186657
21831 7360 0.111005
16706 48 0.123877
180 6727 0.0186657
16706 137 0.124966
16706 140 0.125033
10663 981 0.249761
17880 1446 0.249759
10919 10457 0.20037
10919 10458 0.200147
3303 37 0.999035
2272 13 0.166361
2272 57 0.166361
20025 17002 0.166506
2844 4220 0.225354
210 47 0.118014
15073 3628 0.999035
210 104 0.763018
16706 625 0.125033
10520 526 0.333012
16706 755 0.125029
16706 775 0.125033
1610 17752 0.0930526
210 350 0.0393351
210 373 0.0393343
11551 731 0.333012
2272 599 0.167232
14185 5091 0.111004
7254 6998 0.999035
6682 2899 0.333012
4477 1826 0.999035
7 13994 0.0525846
8315 3 0.249648
10377 68 0.284138
2272 849 0.332722
17594 309 0.999035
17880 2395 0.249759
4101 21461 0.333285
4101 21463 0.332589
4191 47 0.262575
12439 320 0.111004
3160 39 0.499775
2129 17 0.123571
3732 4177 0.124879
15818 2517 0.111004
3160 89 0.49926
2129 63 0.125054
67 3 0.416408
13154 5536 0.199762
1098 51 0.124879
67 29 0.530585
67 39 0.0520429
10663 2432 0.249761
15818 2646 0.111004
20687 755 0.249607
1098 210 0.124879
1098 225 0.124879
20025 18255 0.166506
2129 301 0.125069
15818 2882 0.111004
1098 383 0.124879
10520 1712 0.333012
12439 755 0.111004
10520 1744 0.166506
20544 28 0.999035
1068 7677 0.0827388
895 13839 0.249785
895 13840 0.249785
895 13841 0.249785
10633 10047 0.333012
14930 4066 0.199807
14358 43 0.142719
18023 4305 0.999035
4191 849 0.21362
13327 136 0.111004
21545 7654 0.333016
1098 1017 0.249759
14155 13744 0.333012
955 15 0.999035
2129 1104 0.125069
8315 1306 0.249796
8315 1319 0.249796
14358 578 0.142719
14358 590 0.142719
14328 7780 0.111004
20025 19255 0.166506
12439 1707 0.111004
2814 13779 0.999035
4876 13872 0.166559
4876 13873 0.166559
12439 1858 0.111004
1038 16002 0.12488
16277 137 0.999035
4763 5946 0.142719
4763 5947 0.142719
10377 2101 0.14298
11122 127 0.142719
8029 68 0.136744
13470 2301 0.999035
14185 7466 0.111004
13327 1301 0.111004
13184 281 0.249762
3905 77 0.111004
8029 217 0.0615922
16247 7655 0.218706
3905 107 0.111004
812 48 0.999035
8029 281 0.0615922
11122 406 0.142719
8029 334 0.0615922
180 10349 0.0186657
180 10350 0.0186655
14185 7780 0.111004
13726 11868 0.999035
8029 433 0.184776
13327 1627 0.111004
1467 19834 0.140696
6998 569 0.499518
180 10703 0.0186657
2874 568 0.111004
18196 43 0.249759
2844 7774 0.112855
18196 61 0.249759
3905 643 0.111004
1843 599 0.999035
2874 679 0.111004
19483 9399 0.333012
10460 18352 0.24975
13041 34 0.111028
13041 39 0.110809
1497 13041 0.0511082
1497 13051 0.0511082
1497 13071 0.0511082
1497 13072 0.0511082
1497 13073 0.0511081
13041 122 0.111028
7886 18 0.333012
21432 1493 0.333012
8887 7274 0.999035
14072 267 0.999035
1497 13199 0.153322
2129 2992 0.125068
18196 429 0.249759
2874 994 0.111004
6998 1144 0.499518
13267 16718 0.111004
4793 71 0.199807
2129 3065 0.125069
2874 1042 0.111005
8029 1235 0.0615921
14584 18860 0.999035
16217 15872 0.076849
16217 15873 0.153698
16217 15895 0.076849
8029 1371 0.0615922
3732 7385 0.124879
7856 7520 0.249759
21831 12154 0.111005
5937 8595 0.199807
1098 3328 0.124879
21718 4021 0.999035
13041 755 0.111028
1098 3466 0.124879
12552 12048 0.000175613
12552 12049 0.00188626
12552 12051 0.996974
2242 11745 0.166506
8172 2742 0.336942
20258 1110 0.249759
14185 9129 0.111004
14960 23 0.999035
11867 3 0.999035
6855 883 0.999035
10377 4066 0.14298
12898 55 0.195777
22320 1446 0.111004
9459 12319 0.0908215
16819 13573 0.0504399
16074 15641 0.111004
16074 15642 0.111004
19596 18858 0.999035
3905 1985 0.111004
6712 39 0.993136
17880 6537 0.249759
20258 1500 0.249759
22260 15950 0.178763
210 5032 0.0393343
7886 1259 0.333012
1557 48 0.191429
14358 3604 0.142719
1557 191 0.201908
20258 1858 0.249759
1557 372 0.201905
2588 404 0.124879
2588 406 0.374638
2588 439 0.124879
3732 8676 0.124879
2874 2517 0.111004
12898 814 0.267753
3905 2618 0.111004
19972 187 0.142719
4048 3843 0.999035
1038 19128 0.12488
19972 259 0.142719
4793 1841 0.199807
17022 1220 0.999035
20627 19781 0.499518
20687 5455 0.249607
16879 215 0.111004
19972 315 0.142721
6712 1068 0.00589903
10693 193 0.333012
19972 509 0.142719
21801 21070 0.998555
7570 7309 0.999035
7743 1193 0.999035
16706 6596 0.125033
293 21516 0.333126
293 21521 0.332955
293 21522 0.332955
21432 3776 0.333012
10836 1474 0.666024
12898 1563 0.267753
21831 14147 0.111005
22320 2906 0.111004
20401 4168 0.999035
20860 104 0.237308
13327 5060 0.111004
12439 6104 0.111004
15705 114 0.111004
16879 1235 0.111004
13041 3169 0.111028
8488 12 0.999035
15705 242 0.111004
20258 3487 0.249759
16879 1371 0.111004
15705 354 0.111004
8142 12418 0.200157
10550 210 0.166506
1414 978 0.166506
16736 444 0.247623
21891 639 0.999035
20860 607 0.25391
14328 12743 0.111004
1271 87 0.142791
13643 503 0.166506
10550 418 0.166506
8142 12659 0.200157
8142 12660 0.200157
1068 13476 0.0827386
2874 4314 0.111004
5395 348 0.333012
1271 336 0.142791
12898 2755 0.267753
1414 1422 0.166506
1414 1449 0.166506
1414 1450 0.166506
1414 1451 0.166506
1414 1452 0.166506
21748 68 0.0301447
16736 937 0.250478
21748 90 0.968891
37 13775 0.0196919
16593 10 0.31883
15562 18 0.999035
12612 981 0.999035
20860 1242 0.507818
16593 137 0.170051
4793 3939 0.199807
4364 873 0.142719
9376 12 0.142153
10836 3151 0.333012
12469 217 0.333012
5252 29 0.999035
15705 1401 0.111004
19912 16918 0.499518
13154 12624 0.199758
13154 12625 0.199762
3190 26 0.110996
3190 72 0.111067
3190 89 0.110996
13643 1444 0.166506
13297 13734 0.333012
3190 127 0.110996
37 14415 0.0196919
17850 17023 0.999035
14328 13848 0.111004
14328 13849 0.111004
11438 452 0.333012
13643 1589 0.166506
37 14490 0.0196919
3190 293 0.110996
2302 1453 0.333012
20198 19427 0.999035
19024 18403 0.166506
9376 701 0.143087
8315 7859 0.249796
5395 1624 0.333012
12469 873 0.333012
18512 68 0.142157
2129 7762 0.125069
2129 7763 0.125068
10663 10126 0.249752
20574 216 0.111004
3190 701 0.110996
11295 8 0.999035
9376 978 0.143087
12469 1082 0.333012
3190 814 0.110996
9376 1076 0.141449
20574 402 0.222008
21831 16835 0.111005
12326 159 0.111004
16879 3418 0.111004
12266 14601 0.142719
16879 3477 0.111004
6140 107 0.999035
18512 527 0.142813
4078 94 0.325685
14185 13774 0.111004
14185 13775 0.111004
14185 13776 0.111004
20574 668 0.111004
3047 136 0.499526
1926 21618 0.13808
20574 779 0.111004
8172 7655 0.662093
21229 20456 0.111004
20687 9179 0.249606
13786 3845 0.499518
10520 9900 0.166506
16307 18 0.222008
2558 11974 0.438717
1271 2742 0.142791
752 21177 0.999035
11152 3 0.222008
9203 8189 0.999035
11152 124 0.111004
985 872 0.4995
16736 3418 0.250453
985 884 0.499535
11152 237 0.111004
16879 4520 0.222008
13327 8508 0.111004
16307 428 0.111004
1271 3057 0.142791
3935 68 0.999035
1068 16423 0.0827388
1068 16424 0.0827388
10347 16717 0.111004
1873 71 0.111004
11122 7549 0.142719
10347 16791 0.111004
10347 16792 0.111004
10347 16793 0.111004
20228 14118 0.209398
13214 643 0.999035
1271 3355 0.142288
11551 10857 0.333012
11551 10858 0.333012
10377 9798 0.14298
10377 9799 0.14298
8029 7706 0.0615942
4364 3524 0.285439
10377 9858 0.14298
1873 404 0.111004
16593 2939 0.170051
466 19876 0.111004
466 19877 0.111004
466 19878 0.111004
16879 5082 0.111004
12439 10120 0.111004
17481 2091 0.999035
18512 2149 0.142813
12326 2249 0.111004
12326 2286 0.111004
16736 4520 0.250482
20687 10932 0.249607
20657 18151 0.499518
8059 1403 0.0995182
7886 7552 0.333012
4793 7457 0.199807
4793 7458 0.199807
12439 10877 0.111004
8059 1619 0.0995182
12582 12056 0.999035
11152 1864 0.222008
17052 53 0.199793
21176 190 0.111004
16247 16523 0.111481
17195 1187 0.999035
10866 10 0.999035
12326 3138 0.111004
14930 14522 0.199807
14930 14523 0.199807
18452 17748 0.333012
37 18236 0.0196919
19626 18857 0.999035
17052 410 0.199811
180 19375 0.0186657
180 19376 0.0186657
6885 1211 0.999035
4078 3240 0.336675
3649 225 0.111004
12928 599 0.999035
5937 16795 0.199807
12326 3697 0.111004
3649 398 0.111004
22064 2 0.333012
22064 7 0.333012
13643 5922 0.166506
8059 2687 0.0995182
1271 5550 0.142791
7773 643 0.166228
2588 7675 0.124879
8059 2742 0.700481
4078 3654 0.336675
14787 14234 0.988368
15705 6122 0.111004
18971 89 0.125756
22207 1221 0.999035
18971 104 0.118966
15878 10 0.110965
15878 28 0.11101
18971 134 0.125756
16909 72 0.332966
13327 11239 0.111004
16909 117 0.333034
13816 59 0.0666025
11152 3055 0.111004
18971 267 0.125532
13816 108 0.0666025
18971 320 0.125756
1873 2865 0.222008
15878 251 0.11101
15705 6429 0.111004
19483 18847 0.333012
16307 3396 0.111004
3190 5038 0.110996
9948 9415 0.999035
10723 249 0.142719
3649 1057 0.333012
19400 3597 0.999035
18971 536 0.125756
3649 1101 0.222008
13816 396 0.133205
17052 1528 0.199806
11122 10566 0.142719
11122 10567 0.142719
11122 10568 0.142719
11122 10569 0.142719
1444 25 0.66673
21831 21170 0.111005
21831 21171 0.111005
10723 348 0.142719
20574 4841 0.222008
1444 187 0.166153
13816 576 0.0666025
6599 402 0.111004
13816 653 0.0666025
10723 569 0.142719
15878 745 0.11101
9459 21133 0.0908215
9459 21136 0.0908215
9459 21137 0.0908215
9459 21140 0.0908215
9459 21141 0.0908215
13816 852 0.066602
2242 21000 0.166506
6599 644 0.111004
21176 2158 0.111004
13816 1039 0.0666025
10580 25 0.999035
21176 2432 0.111004
8518 3 0.193178
1557 9032 0.201908
6599 999 0.111004
11152 4228 0.111004
11152 4249 0.111004
7773 2132 0.332456
6456 48 0.362438
20574 5630 0.111004
4394 39 0.245084
4394 48 0.250427
1271 7143 0.142791
3363 39 0.999035
15878 1472 0.11101
12439 13684 0.111004
12439 13767 0.111004
8518 338 0.201431
6456 284 0.0909426
15878 1619 0.11101
1444 1187 0.166153
13327 12857 0.111004
13327 12858 0.111004
13327 12859 0.111004
6456 383 0.0909426
21402 19357 0.968199
2475 1364 0.999035
7630 1592 0.999035
21778 49 0.111004
8029 12017 0.0615922
20747 137 0.166506
8029 12053 0.0615922
8029 12054 0.0615922
8029 12055 0.0615922
4537 1739 0.499517
16849 16484 0.199807
16849 16485 0.199807
16849 16486 0.199807
16849 16487 0.199807
2874 11992 0.111004
353 16030 0.083217
16706 15517 0.125033
37 21148 0.0196919
11468 23 0.111003
13041 11354 0.111028
13816 2179 0.0666025
2874 12187 0.111004
2874 12188 0.111004
8375 68 0.476757
6313 15 0.111004
22064 2554 0.333012
6313 37 0.222008
15878 2403 0.11101
12499 267 0.999035
5282 55 0.999035
3220 10 0.111004
1158 39 0.0210769
18655 7789 0.999035
21176 3772 0.111004
6313 281 0.111004
127 90 0.229191
37 21617 0.0196919
6456 1335 0.0909426
14358 13907 0.142719
14358 13908 0.142719
14358 13909 0.142719
13816 2637 0.0666025
1301 1239 0.999035
17880 17142 0.249759
12326 6792 0.111004
21778 952 0.111004
2588 10615 0.124879
2588 10616 0.124879
16307 5991 0.111004
20228 19467 0.209398
20747 1057 0.166506
18512 7161 0.285626
6682 18080 0.333012
10693 10175 0.333012
10693 10176 0.333012
2189 714 0.333012
3220 790 0.111004
20604 318 0.999035
4394 1876 0.252343
17511 293 0.164348
13041 12495 0.111028
13041 12496 0.111028
13041 12497 0.111028
3220 929 0.111004
19716 1444 0.999035
19573 487 0.546463
3905 13347 0.111004
3905 13348 0.111004
3905 13351 0.111004
3905 13352 0.111004
20574 7733 0.111004
1015 15 0.15304
3506 3169 0.999035
11468 1367 0.111004
3047 7259 0.49951
20747 1720 0.166506
1158 1116 0.977959
3190 8395 0.110996
17511 653 0.0217476
9263 404 0.999035
21176 4876 0.111004
10550 9867 0.499518
15878 3928 0.11101
10550 9912 0.166506
13643 10023 0.166506
13184 14120 0.249758
13184 14187 0.249758
13184 14188 0.249758
10437 1871 0.221455
17368 71 0.499518
17511 1157 0.155547
17511 1158 0.164348
19430 206 0.999035
8518 3055 0.201476
6313 1975 0.111004
10723 4189 0.142719
4191 16325 0.260216
1015 916 0.140999
1015 917 0.140999
1015 918 0.140999
7058 81 0.166506
1015 919 0.140999
1015 920 0.140999
1015 921 0.140999
22320 14089 0.111004
19942 19185 0.12435
6456 3402 0.0909426
127 2194 0.256623
4394 3379 0.251183
4364 10578 0.285439
4364 10579 0.285439
127 2298 0.256623
872 275 0.199807
15878 4841 0.111004
6456 3652 0.0909426
22290 21586 0.333012
22290 21587 0.333012
17511 1998 0.164348
872 487 0.199807
7058 755 0.166506
7058 798 0.166506
1873 7821 0.111004
3965 827 0.249759
13387 2168 0.999035
13101 181 0.111004
7773 6237 0.167896
13101 338 0.111004
16623 3530 0.999035
4191 17497 0.262624
14132 422 0.111004
872 1036 0.199807
3822 135 0.140782
3649 6313 0.222008
872 1133 0.199807
9120 1446 0.249759
9120 1466 0.249759
11438 10807 0.333012
11438 10808 0.333012
3822 426 0.143042
2189 3451 0.333012
20318 978 0.999035
7058 1608 0.166506
16593 11228 0.170051
127 3597 0.256598
22320 15560 0.111004
16051 37 0.166506
6456 4973 0.0909426
10896 7 0.111004
10896 52 0.111004
15818 20719 0.111004
15818 20720 0.111004
13786 13493 0.499518
18482 17752 0.999035
9865 89 0.111004
9865 96 0.111004
2302 12194 0.333012
2302 12196 0.333012
20175 465 0.00698119
6772 49 0.561147
3822 994 0.143042
9865 196 0.111004
11927 267 0.0488442
19573 3597 0.452573
6599 6293 0.111004
7058 2210 0.166506
11927 321 0.237548
9865 272 0.111004
10896 306 0.111004
6599 6329 0.111004
6599 6330 0.111004
17511 3599 0.164348
3965 2171 0.249759
8947 8490 0.999035
7773 7436 0.166228
7773 7453 0.166228
13101 1523 0.111004
17368 2689 0.499518
16051 710 0.333012
6772 464 0.437888
11927 637 0.118774
6599 6658 0.111004
11927 716 0.118774
14132 1838 0.111004
2272 19931 0.166361
22094 72 0.486843
6915 1662 0.333012
10896 814 0.111004
13643 13238 0.166506
6599 6916 0.111004
6599 6917 0.111004
7058 2842 0.166506
22094 267 0.512192
14132 2154 0.111004
10753 14 0.205183
10753 25 0.158972
1557 15157 0.201886
11927 1138 0.118774
21778 5549 0.111004
17052 8483 0.199813
4108 3996 0.999035
13101 2262 0.111004
20687 19961 0.000609588
3220 5091 0.111004
10896 1231 0.111004
10753 309 0.2148
1474 41 0.241196
1474 47 0.275449
14877 480 0.24997
12326 11709 0.111004
12326 11710 0.111004
12326 11711 0.111004
9865 1457 0.111004
14877 599 0.249176
10896 1572 0.111004
18053 16153 0.999035
10753 639 0.214984
13816 7907 0.0666025
11927 1721 0.118774
1474 433 0.241196
14674 14191 0.999035
11468 5898 0.111004
3822 2603 0.143042
18196 17499 0.249759
13816 8191 0.0666025
16796 138 0.999035
5395 14184 0.333012
10610 51 0.999035
7916 10217 0.499518
7916 10218 0.499518
5079 19357 0.999035
8548 32 0.0208033
13703 211 0.111004
6456 7169 0.0909426
13703 258 0.111004
13703 378 0.111004
5455 127 0.24999
13703 392 0.111004
4424 136 0.499517
13703 504 0.111004
6313 6477 0.111004
699 10411 0.999035
11927 2576 0.118774
300 267 0.798139
14388 13044 0.999035
9865 2707 0.111004
3220 6638 0.111004
20777 25 0.235104
1331 457 0.111004
3220 6743 0.111004
4424 643 0.499519
11468 7028 0.111004
18715 89 0.203136
19746 159 0.111004
13703 1017 0.111004
15622 53 0.499512
16879 16517 0.111004
13101 4110 0.111004
15622 99 0.499523
16653 139 0.111004
8029 19370 0.0615922
18715 267 0.406903
16653 219 0.111004
19746 347 0.111004
13846 2247 0.999035
7374 3 0.999035
20777 431 0.254644
13101 4296 0.111004
19746 410 0.111004
11498 268 0.999035
20747 7749 0.166506
1188 3 0.437902
1331 1068 0.111004
1188 48 0.121919
1331 1100 0.111004
13560 487 0.999035
157 81 0.166506
16909 9901 0.333036
4281 315 0.333012
157 216 0.166506
157 217 0.166506
1331 1287 0.111004
1331 1288 0.111004
1331 1289 0.111004
1331 1290 0.111004
1331 1291 0.111004
1331 1298 0.111004
157 267 0.33301
12672 1723 0.999035
20634 3 0.145666
20634 15 0.168096
300 1493 0.200896
1188 503 0.439214
18572 25 0.137853
8375 7948 0.522278
7201 6940 0.999035
21432 20749 0.333012
14448 71 0.249759
20777 1319 0.254644
20634 291 0.171319
5455 1964 0.249682
6027 6089 0.333012
10896 4220 0.111004
5455 2035 0.249682
7231 51 0.124879
6200 26 0.111004
9293 163 0.249759
9376 15566 0.143087
3250 1076 0.399614
6200 144 0.111004
3107 72 0.199865
1045 14 0.374963
7231 225 0.249759
14448 450 0.249759
12386 426 0.249759
7231 278 0.124879
1045 90 0.624072
4281 1223 0.333012
20634 853 0.171319
14 251 0.111006
6200 455 0.111004
14 267 0.110602
9376 15958 0.143087
9376 15991 0.143087
6200 526 0.111004
6027 6682 0.333012
6027 6683 0.333012
18715 1961 0.184386
13703 2832 0.111004
7231 599 0.124879
14 410 0.111274
16593 16301 0.170051
20634 1076 0.171319
19746 2182 0.111004
19746 2185 0.111004
14448 1036 0.249759
18429 137 0.999035
8518 10126 0.201476
21522 309 0.142736
3822 5921 0.143042
8518 10177 0.201476
14 731 0.111274
3822 5976 0.143042
14 745 0.111274
21522 461 0.142736
7088 55 0.888448
9865 5284 0.111004
3995 23 0.999035
16653 2545 0.111004
902 23 0.999035
18572 1728 0.143531
19972 19198 0.142719
19972 19199 0.142719
19972 19200 0.142719
6915 6676 0.333012
6915 6677 0.333012
10437 9866 0.77758
15765 3916 0.499518
20634 2034 0.171319
10723 11989 0.142719
21522 1085 0.142736
22320 21602 0.111004
22320 21603 0.111004
22320 21604 0.111004
22320 21605 0.111004
22320 21606 0.111004
6313 9896 0.111004
6313 9897 0.222008
10723 12173 0.142719
10723 12174 0.142719
1474 4777 0.241196
13131 23 0.249861
14132 7227 0.222008
872 7913 0.199807
13131 113 0.124862
7088 955 0.110587
14 1765 0.111274
14448 2262 0.249759
13131 242 0.124862
7976 113 0.1009
1873 15305 0.111004
16307 15962 0.111004
16307 15963 0.111004
16307 15964 0.111004
16051 6735 0.166506
16307 15965 0.111004
9120 8570 0.249759
9120 8571 0.249759
7976 351 0.1009
9293 2470 0.249759
15705 19088 0.111004
15705 19089 0.111004
15705 19090 0.111004
17255 705 0.249759
11468 10823 0.111004
11468 10824 0.111004
11468 10825 0.111004
11468 10826 0.111004
11468 10827 0.111004
9865 6749 0.111004
7976 561 0.100984
22267 32 0.00338352
21778 11311 0.111004
2189 10709 0.333012
20205 12 0.998957
21176 14433 0.111004
759 515 0.249755
3107 2742 0.699238
7976 929 0.1009
13274 2176 0.999035
21236 421 0.166506
13816 13519 0.0666025
13816 13521 0.0666025
13816 13522 0.0666025
6200 3052 0.111004
17255 1373 0.749277
18512 17807 0.142813
18512 17808 0.142813
12988 318 0.166506
7976 1187 0.1009
6802 127 0.16653
6802 185 0.16653
21236 779 0.166506
14132 8822 0.111004
1873 16687 0.111004
16367 2817 0.501506
21236 1076 0.333012
6802 637 0.16653
3107 3604 0.0999325
759 1493 0.24977
12988 878 0.166506
18143 1055 0.999035
14877 7125 0.24997
18000 71 0.111004
22124 281 0.999035
5771 819 0.666024
1873 17093 0.111004
1873 17094 0.111004
14907 94 0.999035
16969 206 0.999035
7976 2059 0.1009
4138 4002 0.166506
4138 4003 0.166506
4138 4004 0.166506
4138 4005 0.166506
4138 4006 0.166506
4138 4007 0.166506
12988 1231 0.166506
10926 1179 0.199807
1790 1956 0.142719
1790 1982 0.142719
3566 2 0.111004
18000 485 0.111004
3566 38 0.111004
1790 2037 0.142719
3566 63 0.111004
21778 12947 0.111004
3566 109 0.111004
16367 3604 0.497529
12356 11752 0.999035
10783 501 0.333012
1790 2359 0.142719
21778 13242 0.111004
1504 350 0.111004
21522 4073 0.142736
12386 4841 0.249759
5771 1583 0.333012
1504 504 0.111004
7976 2776 0.1009
16826 37 0.166507
18226 17525 0.999035
7231 4914 0.124879
17052 16563 0.199812
18572 5560 0.143531
3566 1050 0.111004
20491 4695 0.999035
18572 5670 0.143531
7547 218 0.333012
330 12 0.174492
330 39 0.0582104
330 51 0.138624
1790 3194 0.142719
1361 109 0.333012
7976 3403 0.0908539
21778 14118 0.111004
330 206 0.104687
12988 2743 0.166506
18000 1911 0.111004
16051 10127 0.166506
18745 3 0.362898
16826 978 0.166507
20807 81 0.166525
7547 705 0.333012
18745 29 0.271241
1504 1554 0.222008
3566 1624 0.111004
1504 1561 0.111004
14 5614 0.111274
20807 117 0.166424
10896 10106 0.111004
3852 3777 0.999035
330 599 0.523022
16683 138 0.16686
12559 19 0.111004
21838 332 0.166506
21838 337 0.166506
13590 90 0.927269
21838 402 0.166506
21838 406 0.166506
17511 13642 0.164348
16081 3355 0.999035
3566 1954 0.111004
10896 10433 0.111004
12559 241 0.111004
7231 6237 0.124879
3280 7 0.499516
6200 6265 0.111004
20777 7771 0.254644
16653 7663 0.111004
1218 51 0.110987
3220 14484 0.111004
18745 779 0.364897
20807 855 0.166525
18000 2827 0.111004
1361 1317 0.333012
1218 336 0.111005
16826 1854 0.166502
1361 1375 0.333012
20807 958 0.166525
12559 779 0.111004
1504 2505 0.111004
13703 9032 0.111004
19776 1035 0.999035
13131 4950 0.124862
16826 2037 0.166507
21462 20626 0.999035
21838 1178 0.166506
21778 15537 0.111004
11927 11169 0.118774
1218 599 0.111014
759 4694 0.249755
21176 18659 0.111004
7547 1848 0.333012
7231 6975 0.124879
12559 998 0.111004
16826 2158 0.166507
4537 17159 0.249759
4537 17160 0.249759
10753 10263 0.205097
16826 2284 0.166507
1218 779 0.111005
6170 14254 0.999035
9323 17 0.999035
20807 1493 0.166511
13101 12563 0.111004
13101 12574 0.111004
13101 12575 0.111004
21522 6734 0.142736
16683 1528 0.16686
3250 8291 0.399614
44 10 0.328026
44 23 0.163984
8548 9528 0.978232
18000 3682 0.111004
16683 1619 0.16686
11385 433 0.999035
12559 1584 0.111004
18971 18201 0.125756
18971 18202 0.125756
44 318 0.343109
13733 2797 0.166506
3965 13821 0.249759
44 431 0.163917
6200 7809 0.111004
3965 13892 0.249759
8292 787 0.999035
1504 3698 0.111004
16397 71 0.999035
17428 291 0.499518
13733 3309 0.166506
18459 399 0.999035
3220 16326 0.111004
3220 16327 0.111004
1075 956 0.999035
14132 13694 0.111004
14132 13695 0.111004
14132 13696 0.111004
2994 39 0.199619
2994 104 0.199653
2994 144 0.199801
3822 13516 0.143042
8149 355 0.199807
1790 6347 0.142719
16683 2742 0.331608
18572 8971 0.143531
18000 4884 0.111004
9293 8752 0.249759
9293 8753 0.249759
21176 20394 0.111004
21176 20396 0.111004
12988 5806 0.166506
10467 9867 0.999035
12559 2776 0.111004
6087 536 0.499517
1790 6575 0.142719
21409 15 0.127549
21409 41 0.145892
21409 48 0.142029
4025 607 0.110982
9865 13093 0.111004
4025 643 0.111007
20378 176 0.999035
14192 23 0.188302
17428 1151 0.499518
14192 39 0.189738
13161 17 0.454176
13161 32 0.0906885
14192 114 0.192504
2994 849 0.199801
932 789 0.999035
14192 219 0.0435017
2994 937 0.000360662
13161 240 0.0908342
6087 1065 0.499518
20807 3639 0.166525
8149 1203 0.199807
6802 6300 0.166387
13161 429 0.181668
789 48 0.249756
19919 4797 0.999035
14192 587 0.192487
789 191 0.249756
6802 6579 0.16653
6802 6580 0.16653
789 267 0.249769
7976 7690 0.1009
7976 7691 0.1009
12416 2737 0.423188
12416 2738 0.575847
3882 498 0.999035
21838 4131 0.166506
4025 1590 0.111007
20235 94 0.268896
22297 159 0.142719
22297 242 0.142719
15509 3122 0.999035
20205 7396 7.81893e-05
16683 4220 0.166849
9925 18 0.222008
20235 433 0.36509
7863 94 0.124879
789 930 0.249756
12559 4371 0.111004
9925 219 0.111004
7863 176 0.124879
3566 6198 0.111004
18000 6662 0.111004
9925 267 0.111004
9925 273 0.111004
3280 4220 0.499519
6343 11539 0.124879
9925 398 0.111004
13590 4652 0.0717664
10783 6644 0.333012
7863 407 0.249762
11355 10773 0.999035
21808 12185 0.999035
12559 4841 0.111004
22154 23 0.999035
20235 1051 0.36505
21123 184 0.199807
7863 827 0.124879
13703 13360 0.111004
21123 272 0.199807
21123 282 0.199807
14877 14434 0.249919
18030 206 0.499511
4025 2881 0.111007
16051 15575 0.166506
4168 4020 0.999035
9150 10416 0.999035
6832 1128 0.333012
12559 5460 0.111004
18000 7709 0.111004
2851 2144 0.333012
1534 72 0.332965
2565 137 0.24976
2565 141 0.24976
503 90 0.999035
1534 159 0.166518
2565 234 0.249755
18173 1834 0.999035
21123 929 0.199807
12386 12056 0.249759
21236 9262 0.166506
19949 13 0.999035
20980 90 0.999035
13763 5 0.199923
20747 20830 0.166506
20747 20832 0.166506
4025 3938 0.111007
4025 3944 0.111007
4025 3945 0.111007
4025 3946 0.111007
4025 3947 0.111007
1534 883 0.166518
13763 293 0.199923
7577 104 0.199196
21778 21060 0.111004
2422 48 0.999035
22297 2781 0.142719
1391 137 0.999035
13763 601 0.199923
21409 3918 0.145892
7577 461 0.19996
14 12534 0.111274
14 12535 0.109787
16939 16286 0.999035
15765 15304 0.499518
16713 12 0.999035
1504 8774 0.111004
1504 8775 0.111004
10926 10095 0.199807
12589 17 0.999035
10670 1004 0.199807
7577 1095 0.19996
18775 431 0.111004
13620 289 0.00593102
18775 450 0.111004
10926 10474 0.399614
10926 10476 0.199807
4341 29 0.190582
10527 234 0.12488
21409 4779 0.145892
10527 358 0.124879
217 51 0.874147
4341 187 0.202113
18775 653 0.111004
3310 301 0.12488
9752 9867 0.999035
4341 512 0.202113
10527 714 0.12488
12386 14111 0.249759
19663 29 0.213662
7863 3843 0.124879
15539 30 0.499518
19663 206 0.261791
10783 10221 0.333012
13477 94 0.000665395
11987 4168 0.999035
16653 15689 0.111004
13477 225 0.332791
10527 1187 0.12488
8322 117 0.999035
13131 12562 0.124862
759 12293 0.249755
74 3 0.133361
74 14 0.214531
74 55 0.43666
3167 348 0.999035
3310 1404 0.124879
74 348 0.214484
20175 19417 0.992054
10670 2733 0.199807
13131 13118 0.124862
10670 2799 0.199807
13131 13128 0.124862
16653 16328 0.111004
16653 16329 0.111004
16653 16330 0.111004
16653 16335 0.111004
20551 89 0.333012
1105 543 0.333012
18489 136 0.999035
21409 6387 0.145892
11182 21453 0.999035
13334 55 1.48484e-05
13334 63 0.20718
2136 755 0.999035
13334 90 0.170299
11272 48 0.198522
11272 89 0.200128
12988 12451 0.166506
3250 16291 0.199807
1105 996 0.333012
8149 7363 0.199807
21409 6752 0.145891
1105 1007 0.333012
962 3 0.999035
11272 336 0.200128
13334 418 0.207181
21236 12986 0.166506
18775 2687 0.111004
20551 755 0.333012
6343 16731 0.374638
2791 20816 0.999035
6343 16838 0.124879
11272 599 0.200128
6343 16839 0.124879
6343 16840 0.124879
6343 16841 0.124879
3310 2444 0.12488
8149 7770 0.199807
8149 7771 0.199807
6832 5883 0.333012
6832 5884 0.333012
4281 17151 0.333012
10211 8114 0.499518
13191 25 0.999035
20694 2332 0.999035
14222 90 0.205399
217 2759 0.124889
10098 25 0.262951
8036 17 0.222007
10098 89 0.147217
7005 13 0.00451869
1218 10126 0.111005
13733 11574 0.166506
1218 10191 0.111005
1218 10213 0.111005
1218 10214 0.111005
1218 10215 0.111005
20408 599 0.999035
4943 127 0.111004
11129 365 0.166506
819 56 0.78115
20551 1702 0.333012
8036 309 0.111004
18715 18059 0.20461
7005 278 0.497258
19889 19131 0.199807
19889 19132 0.199807
19889 19133 0.199807
19889 19134 0.199807
19889 19135 0.199807
11129 431 0.166506
9180 8644 0.999035
4943 410 0.111004
8036 536 0.111006
12446 2763 0.999035
819 361 9.72537e-05
22327 48 0.199425
9067 671 0.499518
22297 7317 0.142719
1850 574 0.111004
3310 3710 0.12488
21123 6313 0.199807
22327 206 0.199903
16141 39 0.166506
15110 19 0.142697
16141 52 0.166506
16284 1114 0.999035
157 18079 0.166506
4341 3897 0.202113
8924 18 0.249759
3310 3985 0.12488
3310 3986 0.12488
9955 99 0.111004
819 857 0.217789
8894 7274 0.999035
20265 465 0.999035
19746 18894 0.111004
19746 18895 0.111004
19746 18896 0.111004
19746 18897 0.111004
6862 68 0.166494
7893 136 0.111002
9955 225 0.111004
2738 38 0.999035
16224 15864 0.999035
7893 275 0.111004
10211 9691 0.499518
16141 731 0.166506
1850 1354 0.111004
11272 2679 0.200128
15110 800 0.142723
5455 19974 0.249682
8924 643 0.249759
16141 929 0.166506
6546 5880 0.999035
4055 2744 0.333052
22184 272 0.16652
14967 48 0.999035
13733 13358 0.166506
11129 2015 0.166506
13733 13376 0.166506
13733 13377 0.166506
11874 3 0.999035
10813 7181 0.999035
6862 929 0.166508
9955 1030 0.111004
8924 1035 0.499518
2994 10126 0.199801
15110 1284 0.142723
19603 18857 0.999035
10843 216 0.140546
10843 217 0.143082
16141 1416 0.166506
4657 90 0.498799
3423 13376 0.999035
2595 136 0.249754
2595 137 0.499524
7893 1360 0.111004
6862 1391 0.166508
14222 2754 0.793636
3769 1431 0.499518
14365 3813 0.333086
1534 7532 0.166518
22041 9 0.999035
3310 5667 0.12488
14764 14225 0.999035
676 1511 0.499518
16886 12 0.417573
21153 1187 0.249759
22184 1221 0.16652
15855 49 0.999035
4943 2819 0.111004
18948 184 0.166506
7863 9085 0.124879
19979 251 0.999035
7893 1954 0.111004
5628 15216 0.999035
1850 2819 0.222008
1850 2820 0.111004
8638 12 0.0768496
4055 3970 0.333052
4055 3971 0.332931
4943 3010 0.111004
8638 94 0.15369
7607 104 0.199131
7607 133 0.199976
8638 190 0.0768497
4514 63 0.999035
13763 7532 0.199345
13447 12719 0.00786509
13447 12720 0.99117
7607 258 0.199976
22327 2778 0.199903
16886 599 0.581463
11731 444 0.199807
8638 348 0.0768497
8638 404 0.0768497
18000 16118 0.111004
8638 476 0.0768497
8638 515 0.0768497
2851 10586 0.333012
2851 10587 0.333012
9925 9821 0.111004
6200 20014 0.111004
6200 20015 0.111004
9955 2742 0.111003
7607 653 0.199976
4943 3687 0.111004
16743 3 0.110442
7893 2813 0.111004
8638 881 0.0768497
13650 18 0.333012
3912 3831 0.999035
7863 10114 0.124879
14937 9316 0.999035
16743 165 0.110729
12619 109 0.499518
10700 1104 0.249759
10527 7246 0.12488
16141 3323 0.166506
16743 338 0.110729
5402 17 0.503134
5402 37 0.297497
10557 267 0.248631
6433 206 0.142719
9526 338 0.199807
247 55 0.0731837
247 63 0.419163
8495 396 0.166506
4341 7545 0.202113
13334 5874 0.207181
8638 1684 0.0768497
6433 625 0.142719
18572 21514 0.143531
18572 21515 0.143531
12619 849 0.249759
8495 750 0.166506
13793 1985 0.999035
10843 2941 0.143082
16600 72 0.19917
247 599 0.506689
8495 873 0.166506
15110 4175 0.142723
6433 855 0.142719
12619 1050 0.249759
20122 3343 0.999035
21522 20817 0.142736
21522 20818 0.14262
16743 1207 0.113504
4943 4950 0.111004
12476 68 0.332994
12476 89 0.111007
15569 245 0.166742
15569 309 0.166742
6433 1060 0.142719
5402 1057 0.0991656
12476 255 0.111007
17029 3479 0.999035
13161 12646 0.0908342
8495 1265 0.166506
104 10 0.045307
104 12 0.0890235
7750 3328 0.499518
104 23 0.0444105
104 25 0.0451666
104 26 0.0444294
104 29 0.0448621
15569 515 0.166742
104 39 2.31112e-06
104 53 0.0444278
104 68 0.208628
104 90 0.209484
5402 1335 0.0992395
3769 4381 0.499518
104 187 0.133283
4943 5475 0.111004
15569 714 0.165389
16600 779 0.199689
104 267 0.045585
13650 1784 0.333012
3197 536 0.199807
18948 3090 0.166506
17488 25 0.984459
10670 10140 0.199807
10670 10151 0.199807
14681 2130 0.999035
12476 1067 0.111007
11302 8 0.999035
5259 874 0.999035
10098 6156 0.147217
7577 10187 0.19996
18519 301 0.333012
10271 71 0.644373
15539 8472 0.499518
18948 3547 0.166506
10843 4425 0.143082
14192 13783 0.192503
18888 18090 0.999035
10700 3494 0.249759
7577 10570 0.19996
10843 4562 0.143082
992 240 0.999035
16743 2817 0.221457
8495 2641 0.166506
10527 9907 0.12488
10527 9908 0.12488
10527 9909 0.12488
11731 3807 0.199807
16600 1922 0.199698
21469 90 0.179229
16743 3030 0.110729
1135 1554 0.999035
17345 34 0.499518
20581 1187 0.999035
9955 5991 0.111004
6433 2817 0.142719
3566 19202 0.111004
10384 9208 0.999035
17774 3342 0.999035
18519 1373 0.333012
8066 26 0.249759
8066 52 0.249759
11159 206 0.111004
7893 6294 0.111004
11129 7567 0.166506
15110 6838 0.142723
7178 1477 0.199807
3942 365 0.111004
16314 779 0.249759
22267 21567 0.995652
12476 2884 0.111007
15110 7083 0.142723
11159 814 0.111004
22184 6294 0.16652
4657 5879 0.500052
4657 5880 0.000184786
1880 671 0.399614
13078 48 0.328185
21469 1444 0.654428
6892 17 0.199586
8954 127 0.199808
6892 63 0.200675
8954 133 0.199808
21469 1637 0.03824
6892 196 0.199592
9955 7553 0.111004
7893 7574 0.111004
7893 7575 0.111004
7893 7576 0.111004
3942 1335 0.111004
14109 630 0.999035
12476 3682 0.111007
1850 8505 0.111004
3799 392 0.999035
3942 1466 0.111004
22214 14 0.186393
13221 1954 0.999035
8066 1857 0.249759
16600 4220 0.199698
10873 39 0.00253806
13763 13467 0.199923
14252 2235 0.333012
10873 84 0.143231
10873 104 0.141716
11159 2195 0.111004
10873 219 0.143231
8638 6311 0.0768497
6433 5235 0.142719
21153 7774 0.249759
11904 336 0.166506
1594 32 0.499517
563 17 0.100159
7750 7414 0.499518
8638 6419 0.0768497
15825 13815 0.999035
563 39 0.0999046
8066 2332 0.249759
21469 2755 0.127138
5718 218 0.249759
4687 218 0.166506
4687 262 0.333012
16314 2759 0.249759
16314 2763 0.249759
10700 6700 0.249759
563 240 0.199743
3310 12660 0.124879
15253 9999 0.999035
2595 7568 0.249758
563 336 0.0998716
10098 9855 0.147217
8954 1684 0.199804
563 404 0.299615
11159 2835 0.222008
4687 627 0.166506
13620 13203 0.496552
13620 13204 0.496552
11904 875 0.166506
9067 10029 0.249759
9067 10045 0.249759
8954 1918 0.199808
13823 29 0.999035
22214 1365 0.203161
10873 1036 0.143231
3054 3867 0.999035
14854 152 0.333012
22327 9627 0.199903
16916 251 0.999035
10557 6208 0.250135
12792 133 0.111004
10730 71 0.168677
1880 2906 0.199807
18948 7572 0.166506
6606 18 0.111004
4687 994 0.166506
12792 251 0.111004
5718 1068 0.249759
11159 3295 0.111004
10873 1240 0.143231
11904 1276 0.166506
10730 242 0.207541
7607 7327 0.199976
19407 3597 0.999035
8954 2290 0.199808
11129 10594 0.166506
11129 10595 0.166506
563 1057 0.0998716
11159 3441 0.111004
13477 12826 0.332791
13477 12827 0.332789
10730 461 0.207609
10873 1572 0.000141814
10730 599 0.207599
18948 8076 0.166506
6606 569 0.111004
420 438 0.999035
5718 1727 0.249759
1850 10856 0.111004
8036 11067 0.111004
20521 19660 0.999035
17059 2195 0.999035
22184 9529 0.16652
13680 53 0.000322619
3942 3857 0.111004
3942 3858 0.111004
3942 3860 0.111004
9925 17366 0.111004
3942 3861 0.111004
3942 3862 0.111004
3942 3863 0.111004
9925 17369 0.111004
12649 104 0.0271987
19663 13670 0.261791
11904 2195 0.166506
16743 7655 0.110718
8036 11651 0.111004
13364 5715 0.999035
13334 12898 0.207181
6433 7655 0.142719
13161 19172 0.0908342
5515 15870 0.999035
16743 8056 0.110729
11904 2807 0.166506
18030 17349 0.499524
1451 1528 0.333012
14252 5080 0.333012
9526 8032 0.199807
16630 138 0.199807
20152 3381 0.99634
6606 1956 0.111004
12792 2220 0.111004
10843 10375 0.143082
10843 10376 0.143082
12792 2262 0.222008
11475 318 0.499518
16600 7655 0.200779
1165 15 0.581109
2196 53 0.499518
134 7 0.0525809
1165 51 0.0835978
4943 12481 0.111004
4943 12482 0.111004
1165 94 0.250749
14365 13928 0.499406
14365 13929 0.166543
12792 2628 0.111004
18775 16163 0.111004
1165 421 0.0835805
21785 1068 0.499518
134 431 0.157743
10700 10126 0.249758
13078 5082 0.335425
7005 13094 0.497258
13394 12 0.33137
13537 1110 0.999035
134 697 0.0525809
22297 19839 0.142719
10730 3105 0.207609
20754 1465 0.998942
19723 1444 0.999035
19580 487 0.999035
18692 1552 0.249759
16630 1528 0.199807
9270 350 0.333012
16630 1619 0.199807
6892 5486 0.199592
13394 599 0.333832
4544 3403 0.999035
8239 461 0.999035
2196 1523 0.499518
6862 12956 0.166508
7035 6824 0.999035
6606 3746 0.111004
10444 1871 0.647549
9526 10100 0.199807
11475 1975 0.499518
9526 10214 0.199807
12792 4220 0.111004
13680 3240 0.998713
5658 19428 0.999035
17375 349 0.499518
7065 47 0.499518
9526 10411 0.199807
1022 928 0.999035
2941 12 0.142149
2941 13 0.276883
2941 48 0.154247
16344 485 0.249759
18775 18085 0.111004
18775 18086 0.111004
18775 18087 0.111004
18775 18088 0.111004
8495 10693 0.166506
16344 800 0.249759
3227 2444 0.999035
12792 4799 0.111004
22297 21580 0.142719
22297 21581 0.142719
1534 19954 0.166518
3197 9867 0.399614
6749 5881 0.528913
6749 5882 0.470123
3197 9883 0.199807
3197 9884 0.199807
879 622 0.111004
17375 1151 0.499518
134 2769 0.105162
11046 71 0.428158
8984 10 0.142466
11046 89 0.142719
20325 426 0.142719
13108 225 0.999035
7953 77 0.333012
104 10198 0.0444269
11046 336 0.142719
1707 14429 0.999035
134 3131 0.0525809
736 94 0.999035
1850 15571 0.111004
8036 15808 0.111004
1880 8491 0.199807
134 3314 0.0525809
9270 2618 0.333012
20325 937 0.142719
7953 566 0.333012
2941 1444 0.141919
21213 20 0.199807
6892 7774 0.199592
16344 2072 0.249759
1850 15984 0.111004
1910 1666 0.111004
16630 4220 0.199807
8984 937 0.142762
3829 800 0.499513
1880 8965 0.199807
7637 6076 0.999035
10903 63 0.216877
10015 1076 0.333012
2941 1904 0.141919
19663 18861 0.261791
2768 8095 0.999035
8096 2168 0.999035
2565 21473 0.24976
6779 94 0.333012
5718 7254 0.249759
4717 87 0.111004
1624 17 0.49863
593 3 0.508083
6922 1231 0.111004
593 29 7.36095e-05
7810 278 0.499518
593 94 0.113098
10903 436 0.131529
6922 1345 0.111004
11934 485 0.249758
134 4220 0.0525808
12476 11789 0.111007
6922 1400 0.111004
4717 332 0.111004
8841 464 0.999035
12649 5723 0.485751
4717 399 0.111004
1624 378 0.500405
6779 556 0.111004
18692 5082 0.249759
22101 72 0.999035
134 4517 0.0525809
13650 13270 0.333012
21153 15557 0.249759
10903 952 0.216877
8984 1934 0.142762
13078 9244 0.335425
10760 10 0.319668
6779 929 0.222008
13394 4220 0.333833
7178 11201 0.199807
4115 3998 0.999035
4717 994 0.111004
1481 3 0.298151
450 13 0.124878
10760 336 0.339684
450 17 0.249785
7667 281 0.999035
17518 4733 0.999035
11159 10696 0.111004
11159 10697 0.111004
450 190 0.124875
18692 5988 0.249759
20325 3022 0.142719
11046 2743 0.142719
1481 404 0.116811
450 429 0.124875
3972 3661 0.248955
17834 20 0.999035
3972 3729 0.248955
16344 4175 0.249759
3972 3792 0.00318439
3972 3794 0.248955
3972 3893 3.23041e-05
3972 3894 0.248955
20611 5448 0.999035
6606 8156 0.111004
450 827 0.124875
6493 12 0.106867
3084 5032 0.199808
18865 464 0.999035
20325 3599 0.285439
6862 17554 0.166508
6493 127 0.111521
6862 17556 0.166508
8984 3328 0.285523
879 4166 0.111004
6493 281 0.111521
12649 7655 0.486086
3829 3312 0.499523
6493 338 0.111521
879 4296 0.111004
1451 8476 0.333012
1451 8477 0.333012
9955 17976 0.111004
21213 2966 0.199807
11934 2689 0.249758
9955 18060 0.111004
9955 18061 0.111004
6606 8786 0.111004
8984 3782 0.142762
15712 15288 0.333012
15712 15289 0.333012
15712 15290 0.333012
1594 9736 0.499518
7178 12988 0.199807
7178 12989 0.199807
7178 12990 0.199807
1481 1552 0.116811
6779 2742 0.111004
19753 139 0.999035
18722 117 0.110157
18722 137 0.11111
18722 217 0.11111
6779 2925 0.111004
10873 10227 0.138486
593 2742 0.377781
11505 39 0.999035
22184 17862 0.16652
18722 338 0.11111
16803 1327 0.999035
1338 852 0.999035
10873 10410 0.143231
9443 195 0.999035
3257 51 0.1998
3257 87 0.199809
3257 135 0.199809
164 46 0.0666019
13567 487 0.999035
164 90 0.0666049
16660 625 0.999035
8036 19853 0.111004
8036 19854 0.111004
13853 2666 0.331469
1195 225 0.999035
164 206 0.0666019
10903 3689 0.216877
11731 17036 0.199807
11731 17037 0.199807
11731 17038 0.199807
3257 407 0.199809
879 5457 0.111004
6493 1542 0.111521
15569 15183 0.166742
15569 15184 0.166679
8638 17020 0.0768497
164 410 0.0666019
12536 803 0.166506
20784 1068 0.999035
6922 4760 0.111004
164 479 0.0666019
164 498 0.0666019
11904 11115 0.166506
17548 135 0.111004
1481 2742 0.116832
12536 1048 0.166506
17548 182 0.111004
164 721 0.0666019
15110 19660 0.142723
9300 14 0.00133028
9300 29 0.193825
4717 4012 0.111004
20641 464 0.999035
11362 209 0.111004
11362 210 0.111004
18722 1485 0.111109
6207 72 0.199715
17548 426 0.111004
134 8094 0.0525809
1910 6160 0.111004
4145 90 0.185882
1481 3105 0.233618
20039 3689 0.00582627
17548 546 0.111004
11362 358 0.111004
13853 3533 0.331469
1052 89 0.111004
6207 284 0.19983
2226 1249 0.316896
18948 18174 0.166506
2226 1311 0.34107
1052 407 0.222008
6606 10850 0.111004
6606 10851 0.111004
6606 10852 0.111004
134 8629 0.0525809
7065 6829 0.499518
21213 5227 0.199807
6493 2804 0.111521
9300 929 0.200976
12935 12312 0.499518
12935 12313 0.499518
13281 41 0.111004
10098 21498 0.147217
10098 21499 0.147217
19896 3367 0.249759
13281 112 0.111004
134 8928 0.0525809
16374 267 0.999035
17548 1409 0.222008
5033 26 0.142719
1052 937 0.111004
4145 1035 0.203289
6207 1110 0.19983
6493 3169 0.111247
13281 319 0.111003
11362 1322 0.111004
909 49 0.321908
19896 3725 0.249759
5033 242 0.142719
1052 1144 0.111004
5033 293 0.142719
17548 1707 0.111004
9270 8707 0.333012
909 267 0.0333111
5033 395 0.142719
13281 657 0.111004
11362 1624 0.111004
21153 20395 0.249759
10444 9866 0.351487
12536 2762 0.166506
6922 6716 0.222008
6922 6717 0.111004
6922 6718 0.111004
6922 6719 0.111004
164 2432 0.0666019
22327 21628 0.199903
6493 3724 0.111521
18722 3131 0.11111
16231 38 0.405778
13281 994 0.111004
10271 16286 0.354663
15772 4168 0.999035
13138 29 0.194947
676 21174 0.499518
13138 81 0.201022
7095 955 0.999035
9014 18 0.999035
7983 89 0.111004
7953 7273 0.333012
12792 12560 0.111004
13138 278 0.201022
17488 16817 0.0145759
7983 136 0.110707
134 10160 0.0525809
134 10161 0.0525809
134 10162 0.0525809
3257 3105 0.199809
134 10190 0.0525809
134 10191 0.0525809
766 28 0.222194
6952 309 0.333012
16314 15992 0.249759
7983 365 0.111004
766 225 0.111126
1797 336 0.199889
766 336 0.222194
22184 21516 0.166435
22274 48 0.999035
14169 830 0.499518
11934 6918 0.24976
18150 48 0.192765
14854 13293 0.333012
1797 599 0.199903
16231 1057 0.202899
13281 1998 0.111004
16231 1068 0.2029
17262 1151 0.999035
10474 4021 0.999035
5289 11084 0.999035
7983 927 0.111004
909 1745 0.321908
16231 1254 0.187459
7983 1035 0.111004
18519 17828 0.333012
17345 16772 0.499518
909 1918 0.321908
5778 72 0.11097
7983 1208 0.111004
1797 1026 0.199889
766 1028 0.111097
18150 551 0.201568
17548 3624 0.111004
766 1072 0.110232
1052 3131 0.111004
9300 3396 0.200976
7810 7498 0.499518
12536 4652 0.166506
7983 1493 0.111004
16088 737 0.249759
1052 3355 0.111004
22214 15324 0.203161
1654 350 0.167157
22131 51 0.365087
5778 599 0.111008
22131 133 0.182545
879 9724 0.111004
5778 697 0.111008
18722 5253 0.11111
18007 113 0.329171
766 1631 0.111097
1654 643 0.330409
19896 6350 0.249759
22131 281 0.0863133
14854 14402 0.333012
14914 104 0.0118336
164 4780 0.0666019
16976 206 0.0285697
16028 15557 0.999035
9759 14 0.000413396
9759 25 0.00570498
1654 823 0.167157
5635 15 0.000219516
18233 16806 0.872981
164 5003 0.0666019
10790 217 0.199807
18007 444 0.332979
10790 278 0.199807
14914 407 0.000429468
14252 17824 0.333012
10790 338 0.199807
9759 309 0.0181312
5635 217 0.249704
16976 599 0.970466
450 7268 0.124875
12995 1528 0.999035
480 117 0.556378
14914 590 0.246693
5033 3395 0.142719
480 187 0.442658
6666 407 0.499518
5635 431 0.249704
5778 1522 0.111008
10557 21172 0.250135
10557 21173 0.250135
5778 1610 0.111008
7983 2742 0.111004
7983 2758 0.111301
5033 3700 0.142719
18233 17530 0.126054
4002 3912 0.999035
14914 1200 0.246693
22131 1586 0.182545
18722 6641 0.11111
11046 10525 0.142719
13740 373 0.333012
1368 13 0.124817
1368 49 0.125242
1368 51 0.249706
2542 1138 0.249759
17864 625 0.166506
22131 1815 0.182545
6952 3400 0.333012
3430 225 0.249759
10617 7621 0.999035
8585 412 0.166219
4717 9587 0.111004
3430 365 0.249759
8585 590 0.166563
21845 53 0.142693
1368 444 0.249635
16833 929 0.144964
19783 13 0.999035
16833 981 0.144964
18752 43 0.999035
1910 11855 0.111004
8585 834 0.166563
3859 3775 0.999035
16690 127 0.111004
21845 301 0.142693
2399 766 0.111004
10760 9237 0.339684
17548 6401 0.111004
21213 10647 0.199807
1481 9034 0.116811
11535 137 0.999035
10790 2179 0.199807
16690 348 0.111004
10903 10459 0.216877
563 17313 0.0998716
16833 1425 0.144964
2542 2034 0.249759
8585 1201 0.166563
16946 9719 0.995005
16946 9720 0.00403047
15802 1493 0.111004
1225 23 0.0325083
879 12322 0.111004
2399 1100 0.222008
879 12323 0.111004
879 12324 0.111004
879 12325 0.111004
13251 12739 0.499518
13251 12740 0.499518
1225 90 0.214695
1225 94 0.117509
16690 599 0.111004
13138 4605 0.201022
16690 625 0.111004
12536 7677 0.166506
2542 2262 0.249759
13597 599 0.999035
17864 1841 0.166506
17864 1847 0.166506
3084 13685 0.199808
1368 1363 0.124817
1368 1364 0.124817
1225 436 0.127951
2685 3679 0.499518
164 7706 4.67338e-06
16690 1067 0.111004
11934 11165 0.24976
2399 1689 0.111004
12536 8191 0.166506
11392 37 0.333012
15802 2247 0.111004
20671 412 0.499518
17578 412 0.999035
4175 104 0.199806
51 3 0.19452
16088 4622 0.249759
1225 1099 0.127951
16690 1586 0.111004
51 56 0.173283
16833 2742 0.14435
4175 313 0.199807
9300 7753 0.200953
20152 19406 0.0026958
5861 20003 0.999035
51 361 0.214111
21559 14 0.999035
1082 407 0.111006
16690 1954 0.111004
16833 3000 0.144964
16630 16319 0.199807
17435 17 0.498114
8585 2845 0.166563
8299 787 0.999035
1082 568 0.222007
16088 5175 0.499518
15802 3355 0.111004
8156 51 0.124781
51 857 0.203007
5063 99 0.249759
5063 115 0.249759
1082 1017 0.111004
14342 407 0.333012
6237 1211 0.999035
7125 217 0.111004
939 77 0.199807
15373 599 0.499545
21845 2882 0.142693
20325 14111 0.285439
18466 755 0.999035
20009 19260 0.999035
18722 10020 0.11111
9300 8789 0.200976
5635 4592 0.249704
8156 590 0.124874
6952 6753 0.333012
51 1482 0.214115
14199 2 0.999035
7125 823 0.333012
939 766 0.199807
4145 9077 0.203289
17435 1361 0.500922
939 867 0.199807
939 868 0.199807
939 869 0.199807
8156 1107 0.124874
8156 1126 0.249748
21845 3683 0.285386
164 10192 0.0666019
2226 10265 0.34107
4717 13423 0.111004
5063 1157 0.249759
4175 2218 0.199807
20039 12960 0.993209
1082 2139 0.111004
18692 18057 0.249759
17864 4725 0.166506
5063 1271 0.249759
21416 800 0.999035
9157 8616 0.999035
14771 4733 0.999035
4687 20833 0.166506
6809 6585 0.999035
20671 2958 0.499518
1654 6545 0.167157
22214 21529 0.203161
22214 21530 0.203161
1654 6601 0.167157
7125 1649 0.222008
21845 4166 0.142878
12679 12193 0.999035
2399 4703 0.111004
8156 1929 0.124874
4032 1831 0.499518
1082 2785 0.111004
1082 2786 0.111004
3889 879 0.684905
13853 13528 0.331468
13853 13534 0.00462996
9932 104 0.1982
6839 14 0.219384
6839 17 0.111355
2715 3 0.186724
2715 32 3.10351e-05
9932 267 0.194773
2715 68 0.198902
4175 3224 0.199807
2715 138 0.202807
14056 547 0.199807
2715 225 0.205232
653 206 0.749286
11362 10798 0.111004
11362 10799 0.111004
11362 10800 0.111004
11362 10801 0.111004
21815 12185 0.999035
18180 878 0.333012
22161 23 0.999035
15802 5974 0.111004
19068 3 0.329962
6839 731 0.111383
18037 104 0.249547
14944 17 0.114045
653 599 0.249749
13710 13366 0.999035
14944 90 0.88499
18037 219 0.249829
10820 63 0.999035
18180 1373 0.333012
3144 4022 0.999035
6207 11307 0.19983
7125 3150 0.111004
4634 12 0.333298
4634 15 0.33244
20754 19985 9.30265e-05
2941 17403 0.141919
4717 15643 0.111004
4717 15644 0.111004
10647 6652 0.999035
14056 1829 0.199807
5033 10815 0.142719
18037 978 0.24983
10015 17140 0.333012
10015 17141 0.333012
16690 6080 0.222008
510 463 0.499518
18037 1053 0.24983
17894 72 0.166506
13770 2 0.333012
17089 16577 0.999035
6839 1947 0.111383
6779 16299 0.111004
10677 32 0.999035
4032 3948 0.499518
510 779 0.249759
9932 2097 0.202021
19437 18852 0.999035
18150 9631 0.201568
7125 4168 0.111004
1797 10160 0.199465
5522 38 0.199807
13770 297 0.333012
21785 21065 0.499518
12137 3355 0.999035
4634 1101 0.166649
16833 7655 0.274831
3460 68 0.999035
14801 444 0.166506
1398 37 0.12488
1398 43 0.12488
1398 48 0.124876
1398 81 0.12488
1797 10407 0.199889
16863 695 0.333012
2399 7444 0.111004
18180 2832 0.333012
2399 7534 0.111004
2399 7535 0.111004
2399 7536 0.111004
21875 68 0.999035
450 15808 0.124875
19813 68 0.999035
20844 104 0.142719
1398 536 0.12488
7584 783 0.111004
3889 3794 0.314131
16863 1185 0.333012
13770 1094 0.333012
19956 1287 0.999035
5778 10099 0.111008
5778 10117 0.111008
5778 10204 0.111008
3084 20368 0.599419
14056 3295 0.199807
13740 8413 0.333012
10534 133 0.499518
5778 10235 0.111008
20844 463 0.142721
6839 3102 0.111383
5522 1057 0.199807
19068 2504 0.327184
1398 940 0.12488
10933 10484 0.00845532
10933 10485 0.99058
20844 625 0.142721
224 17 0.249815
224 18 0.249769
5522 1271 0.199807
9932 3570 0.202021
15975 2737 0.0449257
15975 2738 0.95411
224 219 0.499452
2715 3402 0.205339
1910 19819 0.111004
1910 19820 0.111004
1910 19821 0.111004
1910 19822 0.111004
1910 19823 0.111004
1910 19824 0.111004
1398 1420 0.12488
1398 1421 0.12488
3430 8663 0.249759
3430 8664 0.249759
14801 1925 0.166506
14914 10129 0.246693
17608 3 0.110595
17608 38 0.111113
1052 13893 0.111004
1052 13894 0.111004
17608 68 0.110641
15546 49 0.999035
20844 1240 0.142721
17608 137 0.111115
7584 1961 0.111004
17608 238 0.111115
9759 10263 0.974786
17608 278 0.111115
14342 6362 0.333012
18150 11717 0.201568
13138 12619 0.201022
1112 15 0.199839
81 17 0.111004
7584 2311 0.111004
1112 81 0.0665989
1082 7276 0.111004
1082 7277 0.111004
13484 553 0.111004
14801 2660 0.166506
10534 1526 0.499518
1112 240 0.0665989
1112 242 0.0665989
13281 13943 0.111004
13281 13944 0.111004
13281 13945 0.111004
1112 348 0.199797
1112 350 0.0665989
20182 19422 0.499455
20182 19423 0.49958
6839 4693 0.111383
1112 444 0.0666091
16577 941 0.199873
12453 823 0.999035
20558 89 0.199807
17465 12 0.00143071
17608 1068 0.111114
13484 1042 0.111004
13341 14 0.17026
20701 1290 0.999035
13341 90 0.236537
12310 113 0.111004
81 780 0.111004
13484 1283 0.111004
12310 259 0.111004
6207 15449 0.19983
2000 3 0.0113652
13341 374 0.296119
2000 25 0.0193177
81 998 0.111004
969 13 0.432129
14169 13745 0.499518
16577 1528 0.19955
969 26 0.566907
2000 94 0.0920297
7584 3347 0.111004
1225 9316 0.12252
4747 12517 0.999035
164 16499 0.0666019
10790 11801 0.199807
8156 7655 0.125012
19670 1876 0.249017
2000 361 0.0988997
21213 20444 0.199807
6666 11798 0.499518
2000 431 0.0851062
17322 29 0.999035
16291 41 0.142719
12310 955 0.111004
16291 84 0.142719
16577 2175 0.199873
13198 48 0.999035
19670 2372 0.24994
8984 21545 0.142762
2000 857 0.0988982
20558 1472 0.199808
9074 114 0.333012
5093 1036 0.199807
8043 137 0.666024
14372 1444 0.999035
9074 267 0.333012
81 2098 0.111004
19896 19138 0.249759
2542 12452 0.249759
8043 421 0.333012
6839 6613 0.111383
6839 6616 0.111383
20415 929 0.999035
14801 4908 0.166506
5635 12866 0.249704
7125 8875 0.111004
13055 46 0.16652
14056 7256 0.199807
1112 2796 0.0665989
16148 190 0.249762
11136 1085 0.333012
16148 309 0.249762
14801 5455 0.166506
81 2959 0.111004
2000 2004 0.0988982
2745 3 0.144368
21732 3697 0.333012
12310 2389 0.111004
2745 48 0.142329
2745 49 0.142465
1112 3102 0.0665989
2745 127 0.28493
5093 2332 0.199807
20558 2817 0.199806
11392 10803 0.333012
11392 10804 0.333012
16148 754 0.249762
3776 392 0.999035
4205 3481 0.0226417
11136 1707 0.333012
12566 12070 0.999035
17465 3036 0.530401
7584 5828 0.111004
13740 13199 0.333012
18067 94 0.999035
16291 2091 0.142719
14974 26 0.172648
14974 39 0.133159
13055 1030 0.16652
16577 4220 0.199867
17608 4273 0.111115
4145 18203 0.203289
4145 18204 0.203288
2000 2769 0.197796
10850 15 0.0197033
2745 803 0.142479
14914 14507 0.246693
14974 181 0.173335
21160 412 0.249761
7757 176 0.999035
1714 1036 0.499518
9932 8538 0.202021
1571 90 0.999035
16148 1624 0.249749
13484 4620 0.111004
21160 779 0.249753
13055 1592 0.166434
22191 883 0.999035
13055 1642 0.16652
14229 2754 0.999035
7584 6680 0.111004
21160 1114 0.249761
15862 17 0.198667
15862 77 0.200092
13800 17 0.166506
15862 87 0.200092
13800 68 0.166506
19384 3343 0.999035
8931 2035 0.166506
10707 68 0.0145103
13055 2194 0.16652
7614 37 0.199807
10707 138 0.984525
6493 21550 0.111795
20129 1488 0.111004
8931 2170 0.166506
4521 3 0.999035
1112 5053 0.0665989
766 17340 0.111097
7584 7311 0.111004
7584 7312 0.111004
7584 7313 0.111004
20129 1584 0.111004
13800 404 0.166506
13800 407 0.166506
13454 12717 0.999035
13484 5549 0.111004
2000 4220 0.0988982
164 20558 0.0666019
164 20579 0.0666019
15862 640 0.200092
164 20732 0.0666019
2685 16759 0.499518
7614 536 0.199807
18150 17382 0.201568
11881 1826 0.999035
15802 15269 0.111004
8156 11974 0.124874
15802 15326 0.111004
15802 15327 0.111004
15802 15328 0.111004
15802 15329 0.111004
8585 15169 0.166563
3919 3792 0.999035
1428 750 0.199802
15862 1219 0.200092
1428 877 0.199809
13657 354 0.111004
13657 392 0.111004
254 12 0.250803
20129 2778 0.111004
1225 14530 0.127951
1225 14531 0.127951
254 190 0.249395
10218 12845 0.499518
10218 12846 0.499518
254 309 0.249391
1428 1419 0.199808
7614 1624 0.199807
1428 1442 0.199809
1428 1443 0.199808
18007 17328 0.336886
10963 10963 0.999035
20129 3121 0.111004
20731 94 0.142715
13800 1947 0.166506
16607 12 0.379698
12626 952 0.142719
13657 994 0.111004
14974 3086 0.173222
254 599 0.249447
11452 32 0.999035
1285 800 0.999035
2000 5972 0.0989287
20731 466 0.14272
14974 3368 0.173335
16863 9577 0.333012
7328 94 0.031638
3347 1030 0.999035
3204 12 0.182172
3204 26 0.181381
2602 3103 0.999035
3204 104 0.0913195
20731 660 0.14272
14342 13860 0.333012
81 7273 0.111004
3204 206 0.090708
17864 17079 0.166506
17864 17080 0.166506
13800 2641 0.166506
13657 1620 0.111004
4235 306 0.249759
3204 306 0.181381
16607 779 0.206446
13657 1745 0.111004
5522 9768 0.199807
81 7610 0.111004
3204 536 0.0906906
81 7611 0.111004
81 7612 0.111004
8329 7869 0.999035
5522 9862 0.199807
7328 814 0.322466
17495 225 0.999035
15719 2249 0.111004
12310 7447 0.222008
2030 25 0.396623
12340 348 0.249759
999 25 0.199951
999 37 0.0998862
999 48 0.0998818
6154 216 0.499518
13657 2527 0.111004
999 137 0.0998862
12626 2628 0.142719
999 225 0.0998862
2030 278 0.200804
6154 503 0.166506
2030 410 0.200804
18496 8104 0.999035
3204 1528 0.090693
6154 599 0.166506
16607 1983 0.206446
21160 5208 0.249761
17352 10 0.142937
17352 29 0.139831
10421 1871 8.49403e-05
20731 2210 0.14272
11309 1039 0.333012
17352 238 0.142989
9104 12 0.248811
8073 38 0.222008
6011 37 0.199806
3949 15 0.258409
14056 13652 0.199807
6011 113 0.199808
3949 68 0.238283
13657 3451 0.111004
8073 215 0.111004
7042 217 0.333012
6011 217 0.199806
3949 206 0.502344
6154 1335 0.166506
19926 19182 0.999035
17352 755 0.143318
8073 561 0.111004
9104 599 0.25007
9074 7776 0.333012
7042 590 0.333012
999 1493 0.0998862
9104 779 0.250077
2000 8814 0.0988982
15719 4119 0.111004
999 1631 0.199772
16178 109 0.12488
4175 17158 0.199807
999 1706 0.0998862
6583 4961 0.249759
8073 929 0.333012
13484 10321 0.111004
6011 873 0.199808
18240 315 0.199807
8073 1035 0.111004
8961 48 0.199807
6899 12 0.332714
11166 1169 0.111004
14116 259 0.249759
8961 124 0.199807
4837 26 0.111004
3806 23 0.445567
4837 63 0.111004
4235 3126 0.249759
6583 5253 0.249759
16261 15870 0.999035
8961 348 0.199807
4837 225 0.111004
18240 693 0.199807
11166 1662 0.111004
22221 14 0.999035
4837 643 0.111004
4837 676 0.111004
16178 1050 0.124879
796 15950 0.999035
6011 1788 0.199808
3806 710 0.110688
12626 5094 0.142719
11166 1983 0.111004
11911 13 0.125078
11911 29 0.248569
4235 3904 0.249759
13085 1192 0.999035
16178 1332 0.12488
16178 1344 0.12488
4837 1017 0.111004
12310 10521 0.111004
19128 544 0.111004
11911 338 0.250155
8931 8468 0.166506
8931 8469 0.166506
8931 8470 0.166506
8931 8471 0.166506
2632 90 0.999035
16178 1608 0.12488
17066 619 0.999035
15373 18079 0.499491
6583 6674 0.249759
6583 6675 0.249759
11166 2762 0.111004
22078 68 0.0331533
14861 48 0.999035
16923 206 0.333012
12340 4177 0.249759
17352 3323 0.14332
22078 404 0.137983
20016 348 0.111004
16923 281 0.333012
4092 3996 0.999035
20016 398 0.111004
6613 17 0.999035
21732 12811 0.333012
22078 622 0.137983
2489 18 0.250031
11136 10538 0.333012
21845 21175 0.142693
12310 11705 0.111004
12310 11706 0.111004
4551 210 0.111004
6756 1335 0.499525
427 141 0.285439
2489 206 0.250031
20558 12056 0.199808
16923 701 0.333012
4837 2389 0.111004
427 206 0.142719
8818 1554 0.999035
13484 12997 0.111004
13484 12998 0.111004
13371 4799 0.999035
13484 12999 0.111004
427 351 0.142719
4551 479 0.111004
22078 1025 0.137983
12340 4927 0.249759
21047 1162 0.499518
16035 2035 0.399614
17608 13381 0.111115
4837 2762 0.111004
20528 19660 0.999035
18240 3234 0.199807
21047 1331 0.499518
3520 787 0.999035
13341 12397 0.296119
3806 2881 0.221375
4205 13163 0.976394
12656 187 0.199808
10594 262 0.111004
4551 1102 0.111004
12656 383 0.199808
1315 32 0.999035
427 1072 0.285439
1458 1150 0.499518
12656 503 0.199805
284 127 0.142719
16035 2666 0.199807
10594 464 0.111004
16035 2689 0.199807
1714 10502 0.499518
284 410 0.142721
5582 1636 0.999035
4235 6828 0.249759
19843 8370 0.999035
16637 94 0.221888
3806 3843 0.110719
15719 8328 0.111004
7328 7043 0.322466
3377 803 0.499518
510 17143 0.249759
3806 3990 0.110688
10850 10391 0.163222
10850 10392 0.163222
10850 10393 0.326444
10850 10394 0.163222
10850 10395 0.163222
16780 1373 0.999035
4551 2037 0.111004
20761 494 0.999035
19128 3531 0.111004
10594 1264 0.111004
16637 463 0.111021
16607 7655 0.206445
1172 17 0.999035
15606 472 0.166506
17894 17014 0.499518
12656 1505 0.199808
16035 3665 0.199807
4551 2284 0.111004
20016 2820 0.111004
2203 267 0.999035
17894 17161 0.166506
17894 17162 0.166506
6899 4565 0.666322
22078 3000 0.137983
10594 1674 0.111004
20242 19512 0.999035
20016 3121 0.111004
17525 37 0.111004
19068 18531 0.341889
17525 48 0.111004
7787 3864 0.999035
2030 6776 0.200804
12370 3 0.175921
13544 1110 0.999035
12370 104 0.184799
17352 6419 0.14332
12656 2214 0.199808
11166 6277 0.111004
9277 87 0.949443
13055 12516 0.16652
17525 365 0.111004
12370 206 0.185826
12370 225 0.185842
17525 402 0.111004
19587 487 0.999035
4122 43 0.999035
1029 17 0.534777
1458 3109 0.499518
18699 1841 0.999035
1029 404 0.232129
16637 1922 0.111021
10594 2762 0.111004
16577 16289 0.199873
10594 2836 0.111004
7042 6826 0.333012
10451 1871 0.690996
17382 43 0.333012
19444 206 0.999035
15606 2140 0.166506
20475 321 0.166506
19128 5428 0.111004
20475 402 0.166506
22078 4560 0.137983
21506 465 0.999035
284 2902 0.142719
7072 48 0.999035
1029 1017 0.232129
2948 63 0.749278
886 55 0.197127
1112 16471 0.0665989
2948 136 0.249758
20129 13049 0.111004
15606 2750 0.166506
7614 11762 0.199807
7614 11763 0.199807
9277 1572 0.0495927
10880 5725 0.999035
8103 568 0.333012
10421 9865 0.99895
8073 7761 0.111004
4634 19984 0.166649
17525 2008 0.111004
16637 3036 0.111021
19128 6261 0.111004
8103 879 0.166506
8103 962 0.333012
8961 7169 0.199807
886 784 0.796498
886 785 0.00541055
10022 47 0.333012
5093 16339 0.199807
5093 16340 0.199807
5093 16341 0.199807
11053 143 0.333012
14801 19751 0.166506
10022 184 0.333012
17465 16812 0.467204
743 3 0.999035
3836 112 0.0999036
16291 15868 0.142719
1774 63 0.333012
16291 15933 0.142719
16291 15934 0.142719
16291 15949 0.142719
3836 262 0.0999036
15606 3738 0.166506
6756 6545 0.499511
12626 11865 0.142719
16637 3805 0.111021
17525 2810 0.111004
4265 3479 0.999035
11166 8876 0.111004
14432 2865 0.333012
8991 662 0.999035
3836 526 0.0999036
1774 568 0.333012
12626 12175 0.285439
12626 12176 0.142719
3836 710 0.0999036
13258 2034 0.999035
16637 4220 0.111021
4551 5974 0.111003
12972 90 0.999035
10910 32 0.999035
14974 14570 0.173335
8848 68 0.222008
3836 940 0.199807
8848 72 0.111004
19670 18863 0.250041
19670 18864 0.250038
20844 20010 0.285432
20844 20011 0.142721
2745 15360 0.142465
8848 194 0.111004
19128 7784 0.111004
1631 117 0.0001036
20475 2777 0.166506
12483 11802 0.999035
11309 10771 0.333012
11309 10772 0.333012
10022 1702 0.333012
17525 4030 0.111004
427 6591 0.142719
1631 503 0.199786
1631 547 0.199786
3836 1674 0.0999036
17984 110 0.999035
13657 13297 0.111004
14891 17 0.11084
13657 13298 0.111004
7817 884 0.499518
12829 37 0.249759
12829 43 0.249759
3979 2882 0.249759
10767 23 0.236609
8848 1039 0.111004
14891 245 0.111026
8103 3121 0.166506
7674 37 0.166531
19128 8595 0.111004
7674 51 0.166379
14891 318 0.111021
600 929 0.142636
14891 351 0.111026
2489 7143 0.248942
7674 176 0.166531
12829 351 0.249759
2519 68 0.999035
457 17 0.199699
14891 480 0.111026
1631 1150 0.199786
12340 11731 0.249759
11166 10716 0.111004
10767 458 0.247114
11166 10718 0.111004
11166 10719 0.111004
14891 599 0.111016
10767 501 0.247114
14116 9849 0.249759
2662 1528 0.666024
14688 14204 0.999035
7960 2737 0.999035
15606 6099 0.166506
16810 15 0.999035
12829 952 0.249759
18210 17520 0.999035
20475 4311 0.166506
20558 19696 0.199808
3979 3839 0.249759
7674 937 0.166531
3979 3896 0.249759
10767 1036 0.0210839
3979 3902 0.249759
2662 1826 0.333012
11911 9369 0.250156
21732 20999 0.333012
3836 3052 0.0999036
4837 10311 0.111004
3204 13369 0.0906906
314 17 0.110997
1345 55 0.249112
2376 104 0.11088
1631 2148 0.199786
314 59 0.111005
314 71 0.111005
10594 7645 0.111004
284 7339 0.142719
1345 284 0.249112
2376 410 0.222039
20791 39 0.0053333
15719 15273 0.111004
15719 15274 0.111004
15719 15275 0.111004
15719 15276 0.111004
15719 15277 0.111004
15719 15278 0.111004
19760 38 0.111105
314 479 0.111005
19760 104 0.1102
18729 104 0.999035
17525 6224 0.111004
19760 190 0.111105
16667 97 0.124882
14605 53 0.249759
600 2742 0.713764
14605 127 0.249759
10481 17 0.14275
16667 217 0.124882
10481 51 0.428143
16667 281 0.12486
19760 407 0.111104
19903 1528 0.249759
4295 32 0.999035
14891 2421 0.111026
7328 14493 0.322466
14605 383 0.249759
2376 1030 0.11102
3264 51 0.482185
16637 7655 0.111021
17525 6682 0.111004
1202 29 0.00878634
171 32 0.0473712
3264 135 0.172191
171 90 0.237979
21822 849 0.999035
3264 281 0.34466
7388 450 0.333012
171 242 0.0473124
10481 568 0.142714
13717 1710 0.34589
171 272 0.0473124
1345 1378 0.249112
1345 1379 0.251701
3377 8632 0.249759
3377 8633 0.249759
7817 3676 0.499518
171 407 0.047313
171 410 0.0946249
2376 1507 0.11102
314 1453 0.111005
171 431 0.0473136
171 536 0.0508827
16667 1072 0.124882
20475 6327 0.166506
171 643 0.0477413
10737 10248 0.999035
12400 136 0.142719
2376 1911 0.11102
2489 10120 0.250031
19760 1444 0.111105
9307 169 0.333012
7674 3206 0.166531
11369 255 0.166506
7531 2203 0.999035
171 998 0.0473124
9307 272 0.333012
1059 23 0.111002
11369 350 0.166506
19128 11868 0.111004
19903 2681 0.249759
19760 1662 0.111105
171 1057 0.0473124
2376 2179 0.11102
4152 187 0.12488
1202 1121 0.495093
1202 1122 0.495157
19760 1706 0.111105
12543 1493 0.333012
10624 2539 0.249759
20016 11034 0.111004
8848 4597 0.111004
20129 19368 0.111004
20129 19370 0.111004
20129 19371 0.111004
20129 19372 0.111004
8848 4679 0.111004
1059 348 0.111004
4152 464 0.12488
10481 1707 0.142714
10594 9934 0.111004
10594 9935 0.111004
9420 8925 0.999035
4152 569 0.124879
17382 7190 0.333012
15350 23 0.999035
14319 14 0.999035
7388 1887 0.333012
12942 12351 0.999035
4152 883 0.12488
18443 336 0.999035
19760 2517 0.111105
4152 1030 0.12488
4009 15 0.111005
7102 113 0.999035
14116 13692 0.249759
14116 13693 0.249759
17352 14846 0.14332
4009 206 0.221994
19474 731 0.999035
314 3328 0.22201
10451 9866 0.30804
20505 978 0.131687
4551 11803 0.111004
4551 11804 0.111004
4551 11805 0.111004
11369 1808 0.166506
22334 21630 0.999035
1059 1527 0.111004
4009 705 0.111006
13228 15349 0.999035
14176 77 0.111004
14176 84 0.111004
20791 3395 0.993702
16667 3328 0.124882
9021 18 0.999035
7990 12 0.999035
14176 225 0.111004
19903 4577 0.249759
3866 37 0.111004
4009 1100 0.222012
1804 13 0.199742
1804 37 0.200118
1804 115 0.199725
3866 190 0.111004
3866 217 0.111004
3866 218 0.111004
22078 13152 0.137983
773 225 0.199807
16238 715 0.999035
773 277 0.399614
1059 2432 0.222008
20219 17 0.110992
20219 37 0.111012
20219 72 0.110963
22108 6321 0.999035
13574 4021 0.999035
18157 97 0.199807
171 3648 0.0473124
11369 2977 0.166506
16095 51 0.999035
14176 1085 0.111004
3866 790 0.111004
20219 284 0.111012
10940 15 0.173063
18157 277 0.199807
600 6905 0.142636
1804 798 0.199725
773 773 0.199807
14432 10485 0.333012
1059 2903 0.111004
20219 433 0.111011
18157 413 0.199807
8961 15557 0.199807
171 4021 0.047312
6816 202 0.499518
18157 691 0.199807
1661 211 0.125846
14176 1664 0.111004
1661 267 0.118122
14176 1810 0.111004
22138 68 0.999035
20219 1068 0.111012
18014 32 0.997847
2376 5725 0.11102
19760 5253 0.111105
20219 1270 0.111012
14921 81 0.166506
20016 14693 0.111004
20731 19978 0.14272
20731 19979 0.14272
20731 19980 0.14272
18014 476 0.0011881
12370 11772 0.185843
12370 11773 0.0808044
7501 13842 0.999035
12859 695 0.142719
8848 8821 0.111004
8848 8822 0.111004
15779 7023 0.999035
3580 512 0.166506
7847 1684 0.249734
17871 37 0.1999
12859 952 0.142719
18240 17552 0.199807
18240 17553 0.199807
17871 137 0.199433
13747 68 0.129042
13747 71 0.144999
4009 3913 0.111006
4009 3914 0.111006
4009 3915 0.111006
11911 16488 0.125078
14921 1223 0.166506
7561 10 0.245864
7561 15 0.500299
16840 306 0.111004
3866 2977 0.111004
16840 317 0.111004
12543 6419 0.333012
17871 439 0.199901
11053 10529 0.333012
13401 12661 0.999035
11053 10546 0.333012
7847 2290 0.249767
16983 1556 0.999035
12400 5550 0.428158
10654 412 0.499649
1661 2210 0.125846
284 14503 0.142719
16840 705 0.111004
16953 8928 0.999035
10654 568 0.249803
21852 3 0.195676
3580 1511 0.166506
17871 978 0.199901
10940 2821 0.275321
3866 3738 0.111004
3866 3782 0.111004
3866 3789 0.111004
15666 90 0.751315
1661 2742 0.251682
314 7846 0.22201
21852 365 0.20084
13604 184 0.111004
13604 190 0.111004
1661 2928 0.125846
8449 104 0.197155
10511 196 0.499518
14432 13647 0.333012
11542 242 0.999035
3407 8189 0.999035
16840 1466 0.111004
8449 267 0.199409
13604 431 0.111004
13604 463 0.222008
1232 97 0.111002
7561 1335 0.252873
1232 206 0.444007
1232 281 0.111021
1059 6504 0.111004
10654 1684 0.249583
8449 599 0.200798
15606 15206 0.166506
20678 25 0.134652
20678 29 0.125649
17585 3 0.124697
3437 1627 0.999035
17585 20 0.124865
2263 569 0.333012
19128 18522 0.111004
19128 18523 0.111004
17585 38 0.125148
17585 47 0.124865
9104 20374 0.250077
7245 6998 0.999035
10767 10186 0.247114
20678 278 0.147742
20678 281 0.147766
8449 929 0.20084
14921 3191 0.166506
8306 20 0.199807
2263 883 0.333012
6244 17 0.110389
13747 2318 0.144999
15666 1354 0.247721
5213 32 0.0549026
457 10184 0.199834
457 10200 0.199834
457 10202 0.199834
457 10204 0.199834
8306 206 0.199807
16178 19936 0.12488
3151 66 0.166506
10481 8495 0.142714
16178 19942 0.12488
16178 19943 0.12488
2120 63 0.199807
2120 77 0.0999036
20678 755 0.147742
2120 184 0.0999036
12573 1552 0.333012
8306 466 0.199807
20678 937 0.147742
2120 383 0.0999036
13604 1778 0.111004
20159 19406 0.999035
21566 14 0.999035
1089 404 0.124879
16637 16261 0.111021
17585 968 0.124865
8449 1722 0.200833
20678 1094 0.147742
10624 10017 0.249759
10624 10018 0.249759
10624 10019 0.249759
16840 3065 0.111004
1089 527 0.249759
6244 703 0.111081
13604 1985 0.111004
6244 754 0.111081
1375 2742 0.665055
13318 47 0.999035
12400 8267 0.142719
8306 981 0.199807
6244 1087 0.111081
1089 931 0.12488
1089 953 0.12488
1089 964 0.12488
1089 965 0.12488
1089 966 0.124879
3151 1057 0.166506
4039 90 0.999035
14605 9700 0.249759
284 17514 0.142719
284 17515 0.142719
9307 8635 0.333012
2263 2271 0.333012
2120 1335 0.0999036
5213 1453 0.314711
14176 6868 0.111004
5213 1505 0.314711
20016 19447 0.111004
20016 19448 0.111004
20016 19449 0.111004
20392 90 0.999035
3836 13950 0.0999036
3836 13951 0.0999036
2549 4697 0.999035
14206 2 0.999035
946 789 0.999035
16268 252 0.111004
8020 17 0.248663
11369 9384 0.166506
4152 9217 0.12488
8020 187 0.250123
1834 25 0.366887
16268 494 0.111004
3896 127 0.333011
17585 2660 0.124865
171 10337 0.0473124
14778 4733 0.999035
16667 10951 0.124882
6816 6586 0.499518
5958 444 0.249727
3896 410 0.333012
19015 13200 0.941356
19015 13201 0.0576797
22311 3 0.00019661
20249 3 0.231621
20249 68 0.0515918
1601 21070 0.999035
2120 2652 0.0999036
16268 1069 0.111004
12227 16315 0.499518
15094 12 0.166392
12227 16316 0.499518
14063 32 0.999035
11113 1042 0.499518
1631 14113 0.199786
8908 18 0.12488
8908 38 0.12488
7877 17 0.999035
19730 18871 0.499518
19730 18872 0.499518
12543 11524 0.333012
17382 16798 0.333012
18157 7605 0.199807
15094 426 0.166546
660 39 0.110695
7847 7435 0.249767
15094 503 0.166533
660 71 0.111043
20535 2742 0.999035
12859 6613 0.142719
7847 7532 0.249767
15094 599 0.166498
11369 10794 0.166506
22078 21436 0.137983
660 318 0.111043
12573 4841 0.333012
660 430 0.111043
15094 911 0.166533
660 464 0.111043
3896 1592 0.111004
6470 20160 0.999035
1059 10792 0.111004
1059 10793 0.111004
21137 219 0.999035
14951 39 0.242784
14951 48 0.249837
7674 14198 0.166531
13717 13365 0.653146
14891 14464 0.111026
14891 14465 0.111026
16268 2244 0.111004
6846 1036 0.666024
8908 1107 0.12488
17871 6553 0.199901
22168 543 0.111004
2722 968 0.521353
1548 10 0.13704
1548 37 0.143682
1774 16522 0.333012
1548 136 0.143588
15094 1619 0.166533
13604 5716 0.111004
1548 242 0.143682
16268 2759 0.111004
12400 11901 0.142719
22168 977 0.111004
2579 372 0.333012
20249 1985 0.238608
2579 450 0.333012
1548 429 0.143682
8020 2817 0.250123
14921 8176 0.166504
13777 3 0.434448
20618 19779 0.999035
10684 39 0.231998
9051 3086 0.999035
18044 1335 0.999035
7591 3 0.490502
13777 241 0.000671881
171 13216 0.0473124
21792 21070 0.999035
6560 136 0.999035
7591 237 0.254266
22168 1839 0.111004
16840 7839 0.111004
2120 5347 0.199807
4152 12595 0.12488
4152 12596 0.124879
10684 568 0.255667
1375 7655 0.33398
3151 5703 0.166506
20249 3206 0.238608
20475 19638 0.166506
10940 10129 0.275326
16870 1122 0.18736
2722 2736 0.477683
1405 716 0.999035
5529 995 0.499518
5386 15 0.271356
10940 10488 0.275326
5386 71 0.103948
3580 9244 0.166506
4355 51 0.249758
5386 90 4.63547e-05
5958 4275 0.24977
2293 71 0.111004
8306 6410 0.199807
1262 51 0.199802
12603 426 0.999035
7734 2328 0.999035
16727 599 0.399614
10684 1438 0.255685
20851 755 0.499522
4355 273 0.249759
171 14511 0.0473124
2293 259 0.111004
15982 2737 0.999035
16870 1769 0.18736
1548 2432 0.143682
12859 10025 0.142719
2120 6638 0.0999036
20708 52 0.666024
5386 643 0.103948
374 1528 0.333021
3151 6738 0.166506
1262 561 0.199809
14665 1017 0.333012
12001 4020 0.999035
1661 10959 0.125846
10797 10221 0.999035
16727 1194 0.199807
11429 29 0.999035
4355 854 0.249759
2293 827 0.111004
7388 15350 0.333012
8908 4273 0.12488
3181 3 0.0831576
2293 1017 0.111004
3181 26 0.166567
3181 72 0.0830454
1119 25 0.109725
21852 8892 0.20084
3896 5276 0.111004
1119 139 0.111164
21739 800 0.999035
3181 225 0.083283
5386 1373 0.103948
15839 2742 0.621292
16840 10017 0.111004
1119 338 0.111164
20189 19421 0.999035
1119 398 0.111164
3181 536 0.083283
16584 962 0.999035
3181 546 0.083283
5958 5759 0.24977
1119 534 0.111164
374 2598 0.333007
17472 71 0.998837
8336 937 0.333012
2376 17183 0.111019
8336 981 0.333012
12317 152 0.333012
13747 10457 0.144999
22168 4588 0.111004
12400 15558 0.142719
8336 1094 0.333012
11226 14522 0.999035
13348 293 0.111004
4069 38 0.249759
6131 107 0.999035
