है NULL 0.0257392
इस NULL 0.00665691
ने NULL 0.019201
और NULL 0.118928
को NULL 0.144218
हो NULL 0.015809
से NULL 0.168398
पर NULL 0.0521945
कि NULL 0.037454
में NULL 0.19217
अपना لاہور 0.0337293
तो NULL 0.106747
भी NULL 0.0121907
नज़र NULL 0.0118783
वह تھیں۔" 0.0113006
ही NULL 0.00112116
के NULL 0.270756
का NULL 0.112789
क्या NULL 0.00146363
की NULL 0.169473
एक NULL 0.0464484
नहीं NULL 0.0137655
कर NULL 0.0661759
लिए NULL 0.00137853
सड़क لاہور 0.178842
कहीए کرسکتے۔ 1
करते دیجئے۔ 0.00174087
साहिब حیران 0.0833647
ये NULL 0.00422492
हैं।मैं ہوجائے—! 0.0990461
मेरी ہوجائے—! 0.0010011
काग़ज़ ہوجائے—! 0.00756276
इसलिए NULL 0.0385705
हो تیوریاں 0.000181284
तो تیوریاں 0.000311629
उन فاطمہ 0.00302884
हैं تیوریاں 0.000217663
छट्टे پالا 1
नागहानी پالا 1
बुज़ुर्ग دیا—‘‘جی 0.00918434
आप طرفدارنہیں۔ 0.000598872
मजनूँ طرفدارنہیں۔ 0.0994664
। ہوگا 0.0233966
जतन گی۔مگر 1
वाहियात NULL 1
दीजिए। بول 1
ख़बर NULL 0.0389821
ताकि لاہور 0.144098
है।” HOME(خیراب 0.0158687
ही تاریکی 0.00303944
हूँ آنکھیں 0.0384229
आँसू کھولنے 0.0623818
रोटी نےیہ 0.5
बी NULL 0.127521
क्यूँकि انڈیا 0.0530386
टुकड़ा نےیہ 0.41158
तोड़कर نےیہ 1
खाने نےیہ 0.0529317
लगी। نےیہ 0.0938712
इस ہوں—ادارہ) 9.31837e-05
नाम فاطمہ 0.0041691
असर-व-रसूख़ سےتوہروقت 1
लाहौर نائی 0.0330625
हम تیوریاں 0.000611742
लहलहाते گمنام 1
फिर سمجھے 0.00521825
भी سمجھے 0.000602922
में کہا 0.0146561
के کہا 0.0184705
बनाता آنکھیں 0.571415
एक کہا 0.0205105
लगे "ہم 0.0274569
उन لاہور 0.0282692
रहता آنکھیں 0.0880146
आँखों کھولنے 0.0244483
बिल-उमूम فتوحات 1
पहुँचता آنکھیں 0.799991
ज़रूर سمجھے 0.032981
इत्मिनान سنتا 0.161538
फ़ोन نبھایا 0.0972403
दरिया چھوڑدیں......... 0.498833
हुआ کہا 0.0203072
क़त्ल-ए-इंसानी تھا۔" 1
संगीन تھا۔" 0.5
जुर्म تھا۔" 1
मेरी کھولنے 0.00450493
दुकानों لاہور 1
।" قبولیت 0.0203158
हम سمجھے 0.00345302
सुनकर سُجھا 0.0355384
लिखा دیجئے۔ 0.0153185
तरह کہا 0.0231902
को کرلوں 0.000581118
जानते تیوریاں 0.0123204
सवेरे تیوریاں 0.0949504
उनको NULL 0.0291427
थे। دیجئے۔ 0.00982796
के کرلوں 0.000111433
सोने بریں 0.0530842
बद-क़िस्मती کھولنے 0.0434921
एक کرلوں 0.000312104
भर کرلوں 0.0247025
पे اورچُرانے 0.247861
कौन NULL 0.0101685
चाहते حیران 0.204464
रुपये تھیں۔" 0.0182777
शयातीन چلنےوالےیہ 0.0949968
गई।बअज़ سراہیں 1
खिड़कियाँ سراہیں 1
रोशन-दान سراہیں 1
आए,उन्हें سراہیں 1
मानिंद ترا 0.107685
वर्ना NULL 0.0254075
दम کرلوں 0.121791
करके ‘‘بہو 0.0128926
अपने ‘‘بہو 0.00154552
झीलें گمنام 1
रिक्शा,टम-टम دیا—‘‘جی 1
फटन دیا—‘‘جی 1
ड्राइंगरूम فاطمہ 0.478723
दस ہوں—ادارہ) 0.00812099
किताबों مسحور 0.0311598
ईमान ہنگم 0.0825688
नहीं।” تضیع 0.0277469
चमक ترا 1
छुपा اےمتوکل 0.333329
उठती ترا 1
क़यामत رائے، 0.117091
टूट رائے، 0.0395312
। مچھلی 0.0100548
बाद سکینڈل 0.00916662
मर्ज़ ہوں—ادارہ) 0.0824141
क्या,बस کوکیوں 1
। NULL 5.62927e-06
देता NULL 0.00813071
महल-ए-वक़ू سازی 0.333333
खासतौर ہے- 0.547094
मूज़ी ہوں—ادارہ) 0.101456
देते چلااوراس 0.00934857
ख़्याल آنکھیں 0.277601
बैठा اےمتوکل 0.310345
आईं?” پرسنل 0.125
मैडम بولیں‘‘بہت 0.377249
हो تصویرکشی 0.000240618
नहीं।” لکچرہے 0.0277469
शहर پرلےکرآموں 0.0692826
अर्से ہوں—ادارہ) 0.288421
सहल میراخیال 0.199367
मुम्तना میراخیال 1
महफ़िल تصویرکشی 0.0583732
फ़िराक़ یکہ 1
विसाल, یکہ 0.857143
बीमारी-व-तंदरुस्ती,तसनीफ़-व-तालीफ़,सुरक़ा یکہ 1
थी।” دعویٰ 0.241548
इबरत لاہور 0.8
“ تھیں۔" 0.00491263
सकता تصویرکشی 0.00428036
अहमद اِقلیم 0.0213097
चौड़े چلااوراس 1
है। تصویرکشی 0.00054269
जिल्द اےمتوکل 0.692307
जारी کھولنے 0.0833334
के کےہونہار 0.00131388
तस्वीरें آنکھیں 0.727261
जड़ ہنگم 0.333313
सिफ़र ارتقا’’کے 1
की ‘‘بھائی 2.41381e-08
दुआ NULL 0.0414819
रही ملاقاتیوں 0.00419471
उनका حادثے 0.0117046
कंपनी پرانی، 0.171538
है। ملاقاتیوں 0.000361783
सा ملاقاتیوں 0.00836941
वक़्त حادثے 0.000908046
अहमद NULL 0.00480447
इस ہوجائیں 0.0061206
दस نکلتا 0.0647309
साहिब। بول 0.695587
उस پیدائشی 0.0309922
मैं ‘‘بھائی 0.000139446
गोला صاحب۔ 0.2271
कह بتادیتا۔’’ 0.00455805
साल ہوں—ادارہ) 0.00412568
कायं-कायं بول 0.489138
पण्डित بول 1
कितना تصویرکشی 0.0380918
उनके حادثے 0.00326955
साहिब چلااوراس 0.0143623
दाम-ए-शुनीदन NULL 0.00231232
धर्म ہنگم 0.333333
काटते ہنگم 1
खेती ہنگم 0.0588235
ऐसा حادثے 0.00168462
जब حادثے 0.00156401
ख़ुदा,तुम پٹری 1
“मेरी ہوں—ادارہ) 0.254784
है کاٹا 0.000578961
जैसे چلااوراس 0.0061736
कि کاٹا 0.000464293
वालिदा ہوں—ادارہ) 0.143305
उसने فولادی 0.168557
उस کاٹا 0.00947282
मिर्ज़ा سُجھا 0.001907
इस پاپوش 0.000765075
गोश्त ‘‘بھائی 0.0930019
अक़्द ناں، 0.215757
मश्ग़ला-ए-दिल ناں، 0.612588
ये کاٹا 0.000951486
छोटे ‘‘بھائی 0.0722877
ख़ुद بوائے 0.00438083
हासिल ‘‘بہو 0.0207013
" ذراتیز 0.00398279
मरहूम چلااوراس 0.00520174
वक़्त بھی۔اس 0.00363218
पर قیمت 0.0010132
कि قیمت 0.000844535
न قیمت 0.00155877
ग़ज़ल نظریہ 0.0745233
फिर قیمت 0.0131493
किया ممبری 0.00265762
होते بوائے 0.00316921
तक قیمت 0.00954956
ज़र्द کہا 1
निज़ामी "کتنے 0.135885
बोल بتادیتا۔’’ 0.0206211
हुए। لیا‘‘جمعہ 1
इसका بتادیتا۔’’ 0.0339185
मशहूर گھبراگیا 0.123266
गया قیمت 0.00805966
कामियाबी ‘‘بہو 0.0672031
वतन حادثے 0.428571
महान ‘‘بہو 1
थोड़ा ملاقاتیوں 0.100118
गवाह NULL 0.669784
गीत دیجئے۔ 0.0444801
लंबे چلااوراس 0.384615
फिर "بس 0.00408036
ने ہلکے 0.000999119
मश्वरा فوراً 0.443663
मुझे قیمت 0.00811596
इस بلایا 0.000254866
हमको NULL 0.0564677
दिल-ए-ज़ार! نبھایا 1
ख़बर سُجھا 0.130429
ही پڑا 0.0075986
अपनी قیمت 0.0123803
कि اوکڑوں 0.000473864
ताज़ा سُجھا 1
क्या ہوش 0.00258539
गईं "بس 0.129151
दरवाज़ा ملاقاتیوں 0.0150944
मियाँ NULL 0.0189834
छोटा تو۔ 0.33324
गुज़र "بس 0.0311498
आसमान دوحصوں 0.417791
अब مخاطب 0.00323549
मैं ہلکے 0.000839638
प्यारी عورتیں،بھانڈ 0.253932
जाने ہوش 0.0214233
बावर مسودہ 1
कराने مسودہ 0.8
तअल्लुक़ تصویرکشی 0.0990598
मालूम بوائے 0.00256976
कलाम حادثے 0.0119603
मुंतख़ब NULL 0.669816
मैं ہوش 0.000501812
मुफ़्त ہلکے 0.166231
यक़ीन قیمت 0.0936148
मुझे مخاطب 0.0060443
को بکھرے 0.00193104
किर्म ترا 0.0304218
शब-ताब ترا 1
अज़ाब آکر 1
भैंस انڈیا 0.0375885
है پرسررکھ 0.000503561
हकीम چلااوراس 1
लिए پرمحن 0.000619575
है مفلسی 0.000307521
नाकाम "بس 1
हूँ ہوش 0.00576365
कि مفلسی 0.000275655
इस اتنی 0.00428272
या اتنی 0.0901384
ज़िक्र ممبری 0.0236419
है گے۔ 0.00121057
नहीं مفلسی 0.00139615
इमारत تو۔ 1
देने پرمحن 0.0261526
बैंगन صنف 0.183456
का گے۔ 0.00913186
भून صنف 0.999886
तक مفلسی 0.00677236
कहने گے۔ 0.107298
जो اتنی 0.0192855
ये مفلسی 0.000501535
जो گے۔ 0.0248171
ज़िंदगी گے۔ 0.169814
सुनाए سگریٹ 0.854068
बकता ہوش 0.375054
गीदड़------” ۔۔۔۔۔’’ 1
है। گے۔ 0.00782296
कोहस्तानी پرس 1
क़याम-गाह پرس 1
दौलत-ख़ाने آنکھیں 1
सितारा-ए-आसमानी چھوڑدیں......... 1
फ़साहत-व-बलाग़त چھوڑدیں......... 1
" NULL 1.75587e-06
मौक़े قیمت 0.553463
और ہلایا 0.000823451
कोशिशों "بس 1
हवाले فوراً 0.833334
कहने گزرا 0.00279156
न کردن 0.000537679
तस्वीरों فاطمہ 0.204545
लगी گزرا 0.016374
दे درکار 0.0553036
यक-लख़्त قیمت 0.225248
पर روشنی 2.49336e-05
कि اضافہ 0.00236932
एक روشنی 0.00164064
हमने "بس 0.0233079
इतने دھو 0.0809244
कपड़े پرمحن 0.00169846
हराम NULL 0.529272
हमसाया کرتےرہتےہیں۔ 1
चला کردن 0.0173444
आँसू عالیہ 0.0499055
“सो نمبر‘چار 1
लता کوحتی 1
मंगेशकर کوحتی 0.0573097
कपड़ा NULL 0.102706
खुला ملاقاتیوں 0.163266
क्यूँ دھو 0.017297
सफ़ेद پرمحن 0.399979
पूछना ہے۔’’مرزا 0.206888
बद-अख़लाक़ी ہے۔’’مرزا 1
थीं اتنی 0.365244
गिरानी।सारी سنتا 1
फ़लाँ NULL 1
मीम-नू-अरशद:- حیران 0.076192
रेडियो کرلیں۔‘‘بس 0.13903
पैदा سرکار 0.0282105
सूरत بوائے 0.0312914
या سرجوڑکراورایک 0.00804722
बाद رہنمائی 0.00725471
गीदड़ صاحب۔ 0.8
ख़ूगर حیران 1
क़ौम بلایا 0.109405
आख़िर دھو 0.0466189
बताऊँ الشان 0.155843
हुकूमतों پرماتما 1
फ़रमाता مسحور 0.294996
है। آدم 0.00108535
सर-ए-फ़हरिस्त خاص 1
रसीद دانت 0.384616
रहा دوسرا 0.0370028
मज़मून کردن 0.0997785
लड़ाई پرہیروئن 0.0915276
रहे।एक بوائے 1
है। دوسرا 0.0112182
धोका پرمحن 0.0615426
पाती।अगर ریڈیو 1
जा دوسرا 0.0855785
हम روایت 0.0064789
और سےکتنا 9.95683e-09
डाक्टर آدم 0.0273889
एक سےکتنا 0.000242134
मुसीबत بلایا 0.0346365
दाग़-ए-मुफ़ारिक़त بکواس 1
बुज़ुर्ग بوائے 0.00918434
सही کاٹا 0.299209
तंग دانت 0.219085
आकर دانت 0.233398
होने پارہ 0.0204072
हुई پھوک 0.018267
बे-साख़्ता بتادیتا۔’’ 1
मेरा رہنمائی 0.0126708
उठना تیوریاں 0.229685
ये قایم 2.15367e-07
मिर्ज़ा ہلکے 0.0114902
ख़ूगर, NULL 1
अ’ह्द NULL 1
ग़ैज़, NULL 1
बिक्रमा NULL 0.57507
हो بخش 0.000720896
बंद اساجن 0.0253386
फिर بخش 0.0036752
हुए دیکھوں 0.00196568
साथ شکستہ 0.00867062
सादा NULL 4.69542e-05
न طرح 0.0342818
ख़त سمجھے 0.040356
नहीं طرح 0.0973059
कश्मकश NULL 0.364804
तअ’क्क़ुल NULL 0.995937
ना-बीना چلااوراس 1
। گزرا 0.000132932
: گزرا 0.0101935
चला شکستہ 0.0588646
मुसव्वदा سگریٹ 1
मालिक پرمحن 0.142855
उन دانت 0.00662559
उर्दू آدم 0.174067
हमने دھو 0.0186463
ख़त्म معائنہ 0.197377
नज़र-अंदाज़ فوراً 1
कमरे دانت 0.0838302
सिर्फ़ قایم 0.0138872
ममनून لوٹا 0.259259
ने پہنے.....’’ 0.000113263
दी پہنے.....’’ 0.00340039
तो پہنے.....’’ 0.000141343
क्या پہنے.....’’ 0.000478873
भाई تصورکوذہن 0.0212233
बैठ دانت 0.129259
पर। دیو 0.782424
“मंजूम خودبخود 1
क्या نکتے 0.0086197
बे-तकल्लुफ़ी NULL 1
अपनी دیکھوں 0.00307339
देर بخش 0.0306374
खेती آکر 0.941176
आएगा حادثے 0.0979823
लिखेंगे سمجھے 0.360221
तुमको سمجھے 1
आएं قیمت 0.654494
उसके شکستہ 0.0422742
तो کانا 0.00381625
दोस्तों دیکھوں 0.0231297
पाँच شکستہ 0.105752
तुम پہنے.....’’ 0.0013032
आर्टिस्ट سرکار 0.6
आठ عالیہ 0.0203738
आखिर دانت 1
यूं فولادی 0.00703393
अशआर دھو 0.134408
भैंसें انڈیا 0.666667
मार्केट ‘‘بھائی 1
डुबो پینےلگا 1
दोनों دیکھوں 0.00935296
उसको پہنے.....’’ 0.00441223
की "اے 0.00108856
क़िमार-ख़ाने فرشتوں 1
साहिबा دھو 0.0218085
नुमाइंदों فرشتوں 1
बेगम دھو 0.06304
साबित "جناب 0.0183748
को اقبالؔ 0.0019308
सिरसी عالیہ 0.0384616
रोयी।आप عالیہ 1
रोना ‘‘کچھ 0.223378
नाम دیکھوں 0.00324263
करता ‘‘کچھ 0.0146526
हुआ "جناب 0.000637545
ग़ुल-ग़ुपाड़े دیو 1
आप ‘‘کچھ 0.00368626
अपने اقبالؔ 9.63695e-07
चुनांचे قیمت 0.0451051
कि گھریلوغیرپالتوجانورجس 0.000473864
था। کوگالی 0.00475134
इस्म-ए-ग्रामी خاص 1
लगे تصورکوذہن 0.00784483
आवेज़ां فاطمہ 1
जाना "جناب 0.0363191
हैरत دھو 0.278607
पसीना پارہ 0.0665344
फ़न کوجوچالاک 0.166492
जा کوگالی 0.00137995
हो, طرح 0.0158268
अहम آدم 0.126346
मशवरा ‘‘کچھ 0.497512
बोले:" رائے، 1
भाईयों! رائے، 1
पहला اساجن 0.0179382
बात کِھل 0.00769313
तमाम کوگالی 0.00506173
थी, پہنے.....’’ 0.0616391
ज़हमत پرمحن 0.078125
याद چاہیے) 0.00401302
की جانکرعرض 0.00103195
करो طرح 0.490627
दोबारा "جناب 0.186139
चौखट "بس 0.689655
इस دینے 0.00389525
से دینے 0.0121466
हुए ہوگی 0.07961
तख़्लिए سُجھا 1
गए।दरअसल سُجھا 1
कार روشنی 0.15948
अहम قایم 0.252738
" ہلکے 0.00399782
घोड़ा لاہور 0.413995
जो دینے 0.0203088
बजने تصورکوذہن 0.0789474
तरफ़ دینے 0.0723055
पतरस نصب 0.0323017
शौक़ीन NULL 0.224691
और رومان 0.000823451
कोई پیرٹھنڈے 7.66205e-05
दुकान ‘‘بھائی 0.0591761
मिलती دانت 0.197076
मेरे وادبی 0.00975922
तआरुफ़ ‘‘کچھ 0.196077
बादल کرلوں 1
ग़ौल ازکم 1
सब مرے 0.0100515
हैं। ظلم 0.004871
काम مرے 0.00657635
हाँ, گزرا 0.22945
कर مرے 0.00045082
आज़ादी گے۔ 0.885343
तारीख़ رہنا 0.176036
अब تصور 0.0145597
“उफ़, NULL 1
था مرے 0.00143289
सकता مرے 0.00860794
क़बूल چاہیے) 1
मेरे ظلم 0.00650615
फ़ारसी رہنا 0.134729
उस عزیزوں 4.52669e-07
तौर تھا: 0.0189501
दूसरी دینے 0.355272
दवा پہنے.....’’ 0.145179
जूता کردن 0.310949
मैं مرے 0.000280443
न لداہوا 0.00043533
फिर بھینسیں 0.0146893
बच्चे ظلم 0.102107
कोसने ظلم 0.392052
पड़ عزیزوں 0.0482838
दिन عزیزوں 0.00486255
जेब نشانی 0.287425
फिसलने لاہور 1
क़स्साबों لاہور 1
सिर्फ़ نشانی 0.0119125
मुफ़्त ظلم 0.110356
खाते ظلم 0.150943
वग़ैरा تھا: 0.0416303
" گزرا 0.000995702
धुलाई پرمحن 1
बैठा کوگالی 0.137931
बचने پرمحن 0.0738556
तय پیرٹھنڈے 0.161211
तू وندی 0.159203
ख़ुदा جانکرعرض 0.00224769
हुकूमत نشانی 0.0431621
में سرکالیا۔ 0.000937452
की سرکالیا۔ 0.000102983
मेरा عزیزوں 0.00423556
आए فوراًمشتاق 0.0285199
उनके مدنظر 0.00747325
ख़फ़ीफ़ NULL 1
ज़रा ڈرامے 0.0064554
सीधे ڈرامے 0.027027
थे। نشانی 0.0231919
रौज़न فگن 0.000234153
आह-ए-दोम فگن 1
भरी----!! فگن 1
अहद چولھےمیں 0.227021
गई خرید 0.0450786
क्या "اچھا 0.00574638
क़ाफ़िया آدم 0.299914
हमेशा ‘‘کچھ 0.100526
होते ڈرامے 0.00316921
लो।”वो ہوجائے—! 1
पुलिन्दा ہوجائے—! 1
बढ़ाती ہوجائے—! 1
उलट-पलट ہوجائے—! 1
सिपाहियों کہہ 1
न چھوڑے 0.00077392
हैं الفاظ 0.00268945
रही چھوڑے 0.0167788
कुछ الفاظ 0.00565429
इजाज़त نشانی 0.0841457
किये سرکار 1
इनही کھولنے 1
इनफ़्लोइंज़ा کھولنے 1
मुंह کوگالی 0.0101109
नाम عزیزوں 0.00294756
क़दम چھوڑے 0.131842
होते الفاظ 0.0443689
बे-फ़ैज़ آکر 1
चलने چھوڑے 0.0350075
तरह الفاظ 0.00509663
पता الفاظ 0.11617
अस्ली قیمت 1
आए غزلوں 0.0228159
मुकम्मल چوکتیں۔ 0.608696
करके غیرمولوی 0.0107438
वाह।तुम NULL 1
रहेगा ‘‘کچھ 0.886076
कैसे کردیتے 0.0459319
साथ غزلوں 0.013873
दौर-ए-जदीद گے۔ 0.662502
कोई چرچا 0.006201
मै چاہیے) 0.17461
ख़ुद کردیتے 0.0175233
लिए کردیتے 0.0024783
ले غیرمولوی 0.00318579
घूरे NULL 0.999596
वजह چھوڑے 0.0313156
ख़याल ویگانگت 0.026939
न کےلیے 0.00261197
ततब्बो’ گے۔ 1
कहने پرانی 0.0297919
जूया گے۔ 1
। خواہشوں 0.00106348
कश्मकश گے۔ 0.0474008
ले غزلوں 0.0152918
बनाया।मैंने کردن 1
लिखा।मेरा کردن 1
ने,कि بوائے 1
पाबा بوائے 1
रुकाब بوائے 1
हंसेंगी। انڈیا 1
दस چھوڑے 0.0287693
बाक़ी گزرا،انہیں 0.0701867
मामूँ "بس 0.833333
अहमद سُخن 0.0213097
धोबी فغان 0.0253544
तातीलात "بس 0.816326
लगाए اللہ! 0.857143
आपने آدم 0.160793
कहा, ہلکے 0.0403177
।" بخش 0.0335143
बाहर خوب 0.265689
मुताबिक़ رہنا 0.374332
" زمین 0.0278796
सवार "جناب 0.0223474
गोया الفاظ 0.137955
रहेगी مچھلی 1
का اورخاص 0.00127859
ये کتراتے 0.000791162
पड़ा।अरे بتادیتا۔’’ 1
वापस غیرمولوی 0.0135249
हैरान کردیتے 0.118959
कि ہنستے 0.000592638
रही, ہار 0.952381
करता ہنستے 0.0329627
बरात جذبہ 0.5
मुफ़्त پرانی 0.22127
ने ‘‘بہت 0.000471344
इंशोरेंस مخاطب 0.249496
रो حسیں 0.0461061
मिलते ویگانگت 0.10824
बालिग़ NULL 0.000857917
भर ساری 0.344122
हैसियत سرقہ 0.266667
सुनिए اساجن 0.400015
ज़रा نبض 0.0387324
मिस्रा کےمعیارکو 0.28418
अब نبض 0.00323549
डाक्टर حسیں 0.0102708
किताब خوب 0.263659
पहले ‘‘بہت 0.00592236
मिसालें درکار 0.72973
गए।तब بھی۔اس 1
भी کوگرما 0.000409346
जन्नत رہنمائی 0.0772011
आह اندیشہ 0.276927
है چلائے 5.59528e-05
लगे پرانی 0.0732754
? "اچھا 0.0399761
वाहिद تصورکوذہن 0.043984
तजुर्बा جرائم 0.249439
शिकायत ‘‘بہت 0.278278
है بدوچشم 8.07547e-05
और بدوچشم 5.88121e-06
कर چلائے 0.000154514
पर کئے۔ 0.000321002
बाक़ी چلائے 0.00820256
गा یعنی۔ 0.022509
शाइ’री آدم 0.104828
वो نڈھال 0.000529703
है میوالمعروف 0.000503561
रसन(ब-अलफ़ाज़-ए-दीगर صحرا 1
ब-लिहाज़ صحرا 1
मरहला-ए-गंदुम-व-शकर—!)से صحرا 1
की। ‘‘بہت 0.11818
ख़ुसूसियत آدم 1
पज़ीर کردیتے 1
कहता بدوچشم 0.012128
पाया چھوڑے 0.21263
कोई کئے۔ 0.000444237
ख़म کوگالی 0.5
मोड़कर کوگالی 1
देव کوگالی 1
जॉन्स کوگالی 1
महफ़िल-व-ताज پرپہنچتے 0.331888
तो ‘‘ہاں 7.65703e-06
भी ‘‘ہاں 0.000244574
कितना حسیں 0.0285682
“क्या ہرفقرے 0.198772
से سایہ 0.00106944
बुलंद بدوچشم 0.0370517
दो چلائے 0.00393009
हुए الایذا 0.00098284
नीचा "جناب 0.00895405
बीस نشانی 0.413269
सामने مطلب؟ 0.00801319
उसे الایذا 0.00545917
लगाता کئے۔ 1
लेकर الایذا 0.0370718
उस inhabitations 0.00774805
निकाला।हद مفلسی 1
पास्पोर्ट مفلسی 0.380881
बैठे الایذا 0.00422657
मगर بائیسکل؟" 0.00662254
तो بائیسکل؟" 0.000141343
बिक्रमा اساجن 0.42493
जिसे جرائم 0.116153
। پرانی 0.00140979
है; اساجن 0.0343451
टॉलिंटन ‘‘بھائی 1
इतने بائیسکل؟" 0.0202311
ही کتاب‘‘دوسرے 0.000337716
हैं کتاب‘‘دوسرے 0.000192104
अगरचे نشانی 0.209032
जब مطلب؟ 0.00208535
देखिए----- مستحق 0.0112084
मेरी ‘‘ہاں 0.0027078
शर्म-व-हया تھا: 0.727272
जाती کتاب‘‘دوسرے 0.00244766
काग़ज़ الایذا 0.00756276
गई ‘‘ہاں 0.00433502
यूँ کتاب‘‘دوسرے 0.00775184
जीत:- اساجن 1
दो بائیسکل؟" 0.00196498
एक بلکہ 0.03391
करता بلکہ 0.131863
पहनने تھا: 0.241551
ख़्याल گئے۔اتفاق 0.175558
दख़ल چلائے 0.250039
पतरस مژدہ" 0.0323017
हिस्सा نڈھال 0.0344541
हिंदोस्तानी کوگرما 0.0918047
सौ بائیسکل؟" 0.0123668
लिखने الایذا 0.0195122
स्टोर ملاقاتیوں 1
उभर ملاقاتیوں 0.5
बैठी الایذا 0.0302323
है।अभी الایذا 1
क़लम الایذا 0.0412127
क़ुरआन نڈھال 1
इबारत کئے۔ 0.417381
कर) حسیں 0.0296418
हज़रत نڈھال 0.107784
फ़ारसी طاری 0.0808376
सुइटर ڈرامے 1
प्लाट گزرا 0.0292668
हर ہواکتابیں 0.001137
बे-सब्री روشنی 1
बम्पर روشنی 1
तक़्रीबन روشنی 1
उक्ड़ूँ روشنی 1
भई مطلب؟ 0.0131002
ही تقدیرکہ 0.00151972
औक़ात انڈیاریڈیومیں 0.0576322
टके تھا: 0.571428
ने اٹھتی 0.000489358
कभी-कभी سرقہ 0.128964
और آدمی 0.00129928
हमारे چلائے 0.00375185
बड़ी ہواکتابیں 0.00417502
दाम-ए-फ़हमीदन-व-सनजीदन NULL 1
है।अगर انڈیاریڈیومیں 0.128479
बाछें قیمت 1
घंटो قیمت 1
जग्ह قیمت 1
होना ہواکتابیں 0.0114071
या پروا 0.010059
वाले سرٹیفکیٹ 0.011586
बल्कि ہواکتابیں 0.00445172
पर بات 0.0181189
भी بات 0.0201668
हमारे مطلب؟ 0.00562759
मैं "کون 0.000836694
नहीं بات 0.0462524
जाएगा। اطاعت 0.112415
कर بات 0.0213015
कहा। سایہ 0.161728
फंस خرید 0.941176
मत چلائے 0.0571429
लेकिन اٹھتی 0.00190153
को فرمائیے۔’’ 0.000226562
मैं آدمی 0.0019154
बनने حکومت، 0.261819
इस شیروشکر 8.27344e-05
ज़ईफ़ी مدنظر 1
शबाब।मगर مدنظر 1
भाइयो مدنظر 1
करतूत مدنظر 0.222222
उस اورچورکیا 0.00765351
कर شیروشکر 0.000157375
पत्तों سےکتنا 0.514308
तुम्हारे اٹھتی 0.0314971
जो شیروشکر 0.000383077
फ़रहत پسندانہ 0.102428
क़ब्र پھوک 0.666667
जो اورچورکیا 4.05623e-05
भर انکشاف 0.00849685
ख़्वाहिश حکومت، 0.0754717
हूँ آدمی 0.0438591
रहने سرٹیفکیٹ 0.0677582
तुझको چاہیے) 0.399758
समझ انکشاف 0.0121857
तालिब-ए-इल्म سرٹیفکیٹ 0.0314183
जाएँगे بخش 0.263152
कोई انکشاف 0.000689001
फ़ेल ہواکتابیں 0.01484
यूँ انکشاف 0.00775184
वक़्त شیروشکر 0.000808131
अंदाज़ ہنستے 0.862048
से الٹا 0.000724547
आज اف 0.0271139
सुनाना انڈیاریڈیومیں 0.333225
ज़रकोब پروا 1
रोज़गार پروا 1
ख़ानदान پروا 0.625001
कर الٹا 0.000928361
रात حکومت، 0.0223354
लीजिए انکشاف 0.0249554
लिखा کےدلائل 0.12652
" طرے 0.00398279
शहर انکشاف 0.0153961
बल्कि انکشاف 0.00890344
किताबें کتاب‘‘دوسرے 0.00799986
अक़्ल-मंद جرائم 1
जड़ سےکتنا 0.666687
अंदर عینک 0.0576503
रुपय بائیسکل؟" 0.5
लिया, فرمائیے۔’’ 0.165443
लतीफ़ा انڈیاریڈیومیں 0.00509618
आदमी انڈیاریڈیومیں 0.0102896
हम الٹا 0.00324309
हैं।हाँ ڈرامے 1
याद شیروشکر 0.0026786
मशहूर بچھوکا 0.0154083
की پاؤروزانہ 0.00108841
ने ہوگی۔ہم 0.00101937
मानून دیکھوں 0.126582
शिनाख़्त دیکھوں 0.666667
है کرجو 0.000503561
“निज़ाद-ए-संग” دیکھوں 1
बिछड़े دیکھوں 0.177778
“जी ہے۔یہی 0.0129301
अक्सर کتاب‘‘دوسرے 0.0168478
में جدید 6.82092e-06
बाइस ہواکتابیں 0.0638249
रहा جدید 0.026244
बोलूँ "اچھا 1
दाँ شیروشکر 1
“जिंदाल” ممبری 1
तो ہوکراپنے 0.000210299
लड़ते روایت 1
मुंह سایہ 0.0464781
ही ہوکراپنے 0.000254376
भारी تصور 1
जज़ीरे کاٹا 1
जिसे غزلوں 0.139383
मिर्ज़ा بائیسکل؟" 0.00127133
कुर्सी فرمائیے۔’’ 0.0191253
जो ہوکراپنے 0.000568332
हूँ جدید 0.0249594
ख़ुद میرؔ 0.0157728
क्या-क्या جدید 0.827514
बारे درپے 0.0328228
बर्गसाँ ‘‘مبالغہ 0.466852
चारपाई کوشگفتہ 0.029701
पढ़ता کئے۔ 0.0745836
बात دس 0.0512633
फुग़ाँ یعنی۔ 1
कीन یعنی۔ 1
ज़रान یعنی۔ 1
शोख़-व-क़ाबिल-ए-दार یعنی۔ 1
शहर-ए-आशोब یعنی۔ 0.00154807
यहाँ معاملے 0.0500483
बच میرؔ 0.761895
झुक ویگانگت 0.363544
शख़्स معاملے 0.413504
तरह میرؔ 0.00262104
” "کچھ" 0.0301076
" پرانی 0.0106311
दफ़्तर پورا 0.521004
अर्ज़ شیروشکر 0.0114287
तुम्हें اورچورکیا 0.000211878
मैं دس 0.00559072
क्या چ 0.000862782
बताना پہر 0.5
डालते ڈرامے 0.115944
थी تھیں۔‘‘فیرسیکس’’نام 0.0118373
पट्टे ڈرامے 0.27964
ये چ 0.000157616
थी?” پہنے.....’’ 1
हुआ چ 0.00114871
हुकूमत کرکےوہ 0.0755336
हाँ دس 0.626259
जब تلی 0.00600691
अस्हाब قایم 1
साफ़ میرؔ 0.287266
क़यास بدوچشم 0.0750366
ब-यक-वक़्त سرقہ 1
कहिए ہوئےکہتی 0.326962
चंगुल خرید 1
ठीक پورا 0.209056
ये حالت 0.00712045
जंत्री پاؤروزانہ 2.33014e-05
मिले افسانے 0.331189
अर्ज़ां ہو۔ثواب 0.165935
है।जिसकी ہو۔ثواب 0.000314854
है, چ 0.0106068
इस چکھاؤں 0.000765075
कोई منظورہوئی 0.0031005
जानता دس 0.621917
सानी انکشاف 1
तरीक़ों تھا: 1
ज़िम्मेदारियों کھلانا 0.0909091
करलिया شیروشکر 0.100109
हफ़्ते تلی 0.12807
उस تیس 0.000968506
था امام 0.0213749
ढीले بخش 0.172437
है فی 0.00161139
तमाम زیارت 0.0075926
नहीं فی 0.00176008
कर فی 0.00222557
आपके ہوش، 0.0615052
ज़हमत ہواکتابیں 0.078125
हैं।" تصورکوذہن 0.0612513
हुआ وغیرہ۔ 0.00844911
रहा فی 0.0161583
किसान ‘‘ہاں 0.0734454
हमारी نوازیں۔ 0.00816396
अंदर تیس 0.0144126
हमें تیس 0.00345281
लौ پارہ 1
कौन نروس 0.0450019
क्यूकर چاہیے) 0.428571
भुलू چاہیے) 1
परवर زیارت 0.136986
ने چوں 0.00502058
और ہونےلگتی 0.0016469
आटा چھوڑے 1
भाई!” طرح...... 0.14718
बे-वक़ूफ़ انڈیاریڈیومیں 0.0484505
छिलके انڈیاریڈیومیں 0.357143
क़रीब فرمائیے۔’’ 0.0270635
" بائیسکل؟" 0.000442533
हो عام 0.00876587
ना عام 0.0361908
पहली *** 0.369827
ग़ालिबन حکومت، 0.173384
पौने بائیسکل؟" 0.185988
मिन-व-अन غزلوں 0.782608
तकलीफ़-देह "جناب 0.121981
दाख़िल تیس 0.0110852
साथ حیثیت 0.0154144
शौक़ीन تھا: 0.443037
अज़-हद "جناب 0.499993
हासिल تھیں۔‘‘فیرسیکس’’نام 0.0414026
कमरे تیس 0.016766
लेकिन عام 0.0182286
नहीं।बल्कि انکشاف 1
गद्दी "جناب 0.023818
हुआ!” کےلیے 1
इंसानों نڈھال 0.155299
आ’शिक़ حسیں 0.010881
ख़ालिस:- حسیں 0.0637832
बल्कि حیثیت 0.0356137
में روپےمانگے۔ 0.00103541
(चिड़ حسیں 1
गहरा حسیں 0.529412
में پہنچی 0.00103541
टूट حکومت، 0.101652
उनके حیثیت 0.0232501
जब عام 0.0303854
कुछ گز 0.00484653
!" گویائی 0.0763023
है।” فضول 0.12695
कर्दम لداہوا 1
शूमाहज़्र لداہوا 1
बकीनद। لداہوا 1
तुम بےادبی 0.0039096
पूछा:“तुम्हारी دھو 1
गिरता آدمی 1
गढ़हे ۔جسم 0.25
उन्हों چوں 0.0204292
जाता گلہری 0.0164694
पौदा سےکتنا 1
नहीं।” چوٹ 0.0277469
ग़लत ہوچکی 0.63634
दादा تصور 0.913043
चारपाई فرمائیے۔’’ 0.00374532
दब الٹا 0.666916
रहें।” الٹا 1
(तालियाँ) الٹا 1
कैसे فضاعشق 0.0206436
ग़ालिब:- مطلب؟ 0.00549835
शम्मा مطلب؟ 0.145467
ने (جولائی 2.89754e-05
मेरी گلہری 0.0283167
किताब فرماتے۔‘‘یہ 0.0292955
मच्छर بچھوکا 0.0526368
की اوروقت 6.08542e-07
के نمک 0.00131447
बिन گرلز 0.123602
यही مرعوب 0.00913998
बीवी گلہری 0.0620707
हूँ, گلہری 0.195017
थी مرعوب 0.0197265
चस्पाँ الفاظ 1
गया اورعاشقانہ 0.00900355
मुझे فضاعشق 0.00181386
अलार्म گلہری 0.391304
सो گلہری 0.445259
ये اری 0.000271881
बूट بچھوکا 1
क़मीज़,लैस تھا: 1
हालत مرعوب 0.0365152
हैं।ग़र्ज़ تھا: 1
तवील حیثیت 0.448302
बड़े غیرجانبدار 0.0402066
है دھوتے 0.00201424
क़ैसरा اری 0.0435165
हर ہوں۔’’اوراس 0.010233
जब مرعوب 0.00834041
पंखा غیرمولوی 0.599996
होता مقصود 0.00841266
तमाशा اری 0.114445
“जी اورخودچلتی 0.0129301
कि بہ 0.00100014
ज़माने بہ 0.160831
बूढ़े درماں’’ 0.0592082
हुए بہ 0.0373403
लिए چکر 0.00557617
“आवाज़ الجھ 0.19056
जुनून درپے 0.210526
है। بہ 0.00687251
सब्र حیثیت 0.220472
सकते مرعوب 0.0265371
हमारी مرعوب 0.00813906
तुम گفتگو 0.0527796
ज़रूरी چکر 0.237555
? گز 0.0199876
मिलती کرسیٔ 0.157661
की بحق 0.000354021
न سادھو 0.000870659
किया? بدتمیز 0.714309
घर پوچھا: 0.00185881
इ’श्क़ اٹھتی 0.0639726
उठता آدمی 1
रही پوچھا: 0.00419471
बंदर نےچھ 0.0821727
को حضرات 0.00516944
काइनात حضرات 1
चीज़ حضرات 0.0914007
क्यूँ پوچھا: 0.00432426
सादे ڈرامے 1
लॉकेट ڈرامے 1
खुलने ہےاوران 1
साथ حضرات 0.0770123
रहता گفتگو 0.297066
बोला। ‘‘ہاں 0.0398143
नमाज़-रोज़े سرٹیفکیٹ 1
को نےکیا 0.00193104
आकर پوچھا: 0.0414929
समझूँ فضاعشق 1
मुझे سادھو 0.00453323
सारी حضرات 0.484375
तरह طلب 0.0170649
एक افادی 1.34434e-05
आपके بہ 0.26012
मर्द بحق 0.147141
आँख بحق 0.0216848
के صفت 0.0024242
ब-आवाज़ بدوچشم 1
रेडीयो زیارت 1
“सुनिए: جائداد 0.5
लिखवा شیروشکر 0.470889
फिर پڑتے۔ 0.00183616
है।” گھڑیوں 0.0158687
होने منشی 0.00604658
है।फिर کرسیٔ 0.208211
नहीं।” عزیزشاگردپروفیسرآر۔ایل 0.0277469
के تازہ 0.010511
फ़िक़रा دخل 1
गूँध چھوڑے 1
कोई پڑتے۔ 0.000775126
नाविल حیثیت 0.816327
न چھپتی 0.000557373
तहय्या جائےآموں 0.75
पूछ ہوکراپنے 0.539579
जिज़-बीज़ اوردھوبی 1
उसके حضرات 0.250319
मारने بچھوکا 0.333469
फ़तह-व-शिकस्त گردونواح 1
फ़ैसले گردونواح 1
क़र्ज़ رعونت 0.473684
इब्न-ए-अरबी نڈھال 1
फ़ुतूहात-ए-किमीय نڈھال 1
क्या ہےاورجوعلی 0.00430985
है।बोला نڈھال 1
। ٹھہرجاتاہوں۔ 0.00106348
उम्र گئےایک 0.0261959
कहीं اسلامیہ 0.079594
ने ‘‘اورمیری 1.10387e-05
बरामद جلال 0.0731707
छप کتاب‘‘دوسرے 0.263158
मुझे اسلامیہ 0.00906686
थे। سادھو 0.0202929
हैं। بنیاد 0.00649467
गए بنیاد 0.0125172
मुझे چھپتی 0.00241787
बी-जमालू میرؔ 1
पर خیز 0.00452745
रहे بنیاد 0.00296144
अपनी اسلامیہ 0.01383
बक جدید 0.838641
जुनूँ جدید 0.266466
ज़िंदगी بنیاد 0.0314169
इस دوزخ 0.00028121
में دوزخ 0.000273975
मुश्किल پڑتے۔ 0.0581944
लेकिन ‘‘اورمیری 6.9728e-07
दुनिया راجہ 0.0165124
बन بنیاد 0.018659
हैं رہی 0.0117462
“मर ‘‘ہاں 1
मैं ‘‘اورمیری 0.00166417
थी।”दूसरा ‘‘ہاں 0.986321
पूछा ڈاکٹری 0.0179256
तक ہمارا 0.160019
मेबल ہنستے 0.223628
होंगे جلال 0.0180497
इस بےتہذیبی 8.5008e-05
लीजिए رہی 0.695876
पहले رہی 0.144175
“उसके ہے)اردو 0.8
“और بھاگیں، 0.170688
“ऊषा” غیرمولوی 1
आएँ। غیرمولوی 0.599998
इस لیجیئے 0.00153015
के دارد 5.86937e-06
इस ناشائستہ 0.000765075
इस احتیاط 0.000555889
साहिब گئےایک 0.0191497
हाज़िर وغیرہ۔ 0.863364
हूँ।ये کردیتے 1
क्या دوڑا 0.00147194
शागिर्द زیارت 0.0495884
मुल्ज़िम وغیرہ۔ 1
बेहतरीन بےتہذیبی 0.199944
बनाया پوچھا: 0.056338
वाले راجہ 0.0205973
इंडिया زیارت 0.0810811
निहायत جلال 0.00744917
पास احتیاط 3.27867e-05
लेकिन احتیاط 0.00238707
बख़्श جلال 0.4
कॉन्फ़्रैंस اوروقت 0.0313936
हो لونڈے 0.000690429
मामलात چلائے 1
कर لونڈے 0.000725845
नहीं کولازم 0.00022739
महबूब کولازم 0.0151255
“रुस्तम-ए-वक़्त” عزیزوں 1
हमारे ڈاکٹری 0.00844139
उफ़ نوازیں۔ 0.0657914
लग़्ज़िशें نوازیں۔ 1
अल्लाह بہنوئی 0.0646396
सेहत عیسائیوں 0.175316
इसलिए کولازم 0.0356465
लिया, احتیاط 0.834557
रेफ्रीजरेटर نبض 0.208832
तक خفیہ 0.00400153
है, دوڑا 0.0174435
बरस گئےایک 0.161256
हो گپھےدار 0.000560827
सकता خفیہ 0.00963023
“जी شاعراپنی 0.0129301
ज़बान بحق 0.602899
करने, بچھوکا 0.36
लेकिन دانا 0.00375317
मेरे کلچر 0.00975922
वग़ैरा کےعلم 0.0104076
आज گپھےدار 0.0165824
पालिश بچھوکا 1
बनाने, بچھوکا 1
खटमल بچھوکا 1
इफ़ादी کےعلم 1
पहलू کےعلم 0.28
बिलकुल بنیاد 0.107072
मोबाइलया ہوگا۔" 0.285714
वह دارد 0.0450327
हूँ।गर्मा کےعلم 1
गर्म کےعلم 0.101258
पराठों,अंडों کےعلم 1
हलवे کےعلم 1
इशतिहा-अंगेज़ کےعلم 1
ख़ुशबू کےعلم 1
नाम بےتہذیبی 0.00162132
“जापान بچےکی 0.191859
अफ़साने حیثیت 0.090183
सौ خفیہ 0.0417365
सूराख़ عینک 1
लतीफ़ा بندرہنے 0.0458656
सर جنگی 0.0197257
‘इज़हार’किसी معاملے 1
उन خاطرِنازک 5.09673e-06
हूँ। خفیہ 0.065037
ने بےنیاز 0.000342538
दूसरे کولازم 0.00376523
है ہرگز 0.0025178
कंपनी تیس 0.0214423
इस پہ 0.000966063
पाँच خفیہ 0.079311
अपने الٰہی 0.00257587
मोजिज़ा کردیتے 0.756757
ज़हूर کردیتے 1
हुआ,इसके کردیتے 1
कर پہ 0.00175712
है) بےتہذیبی 0.0826454
गए।एक تیس 1
प्रोप्राइटर تیس 1
जैसा بہ 0.256202
उसे پہ 0.0206889
दोस्ती مرعوب 0.301148
लगा پہ 0.022065
किया پہ 0.00671448
हम الٰہی 0.00323945
हो اے۔۔۔ 0.00144388
मैं بےنیاز 0.000285078
कमज़ोरी بےتہذیبی 0.0387222
अक्सर بےتہذیبی 0.0168479
करने ‘‘اب 0.00372998
महसूस منشی 0.104429
दिया بےچاری 0.00367826
बाद ‘‘اب 0.00203703
अब کےمظاہرے 0.00485323
जो ‘‘اب 0.000765225
तो شباب 0.000297262
जब الٰہی 0.0041707
मेरी پہ 0.0037939
के شباب 3.96403e-06
तहत شباب 0.157491
अफ़साने فضاعشق 0.0202975
हो جاتے 0.0182486
के خواجہ 6.26682e-08
तुमने فضاعشق 0.102853
झट بےچاری 0.175551
लिए خواجہ 0.0139359
आप جاتے 0.0376034
भाई” سفیرسےکم 1
क़द्र رہی 0.861046
यरक़ान سفیرسےکم 0.0143652
वाले انڈا 0.0926879
तमाम ‘‘اب 0.0101235
सेहत چکر 0.175317
मरोड़ کھانستے 1
सरका فرمائیے۔’’ 0.239689
हमारी ساڑھی 0.036629
हरीफ़ اوردیگرتمام 0.101249
उन्होंने بےچاری 0.0201217
ख़तरा منشی 0.222222
इधर بےچاری 0.175
“ رہی 0.121892
ज़्यादा میبل 0.0127964
वाली میبل 0.254312
बातें میبل 0.119772
आज-कल طلب 0.323939
तज़ी انڈیاریڈیومیں 1
केले انڈیاریڈیومیں 0.181818
गई جاتے 0.128328
से خاک 0.00145636
“जी لاہورمیں 0.0129301
करते میبل 0.00608312
के ام 6.28422e-07
रह کھسیانا 0.0177199
पढ़ने ‘‘اب 0.0304743
तसल्ली جلال 0.0571799
पूरे اشد 0.0344366
नज़रें میبل 0.871287
लेकिन ‘‘اپنے 0.000536167
पसंदीदा ڈاکٹری 0.692305
देखने خاک 0.0413497
औरत بحق 0.032617
पढ़ा مہنگائی 0.215288
है। خاک 0.00217139
शब پہ 0.238769
ने افوہ۔ 0.000113263
आह تربیت 0.138463
क्या کہ‘‘اک 0.00353866
यकसूई کھینچتی 0.25
सुना ‘‘اب 0.0302087
ख़रीद خفیہ 0.263665
मेरी کھسیانا 0.00200219
साहिबा حلیہ 0.0981382
बड़े کےعواقب 0.0535581
इसलिए افوہ۔ 0.0191269
बढ़ता بےادبی 1
इस्म-ए-बा-मुसम्मा بنیاد 1
हैं اڑجا 0.000346761
सा افوہ۔ 0.00836941
नाम। نقطے 0.456541
लाहौर بےتہذیبی 0.00853729
बनास्पती کیوں؟ 1
कुछ کپڑا 0.00484653
हूँ, کھسیانا 0.0275782
आईं?” دی،کہ 0.125
है,कपड़े کئے۔ 1
रुख़स्त بہ 1
आज کپڑا 0.00903798
जो کپڑا 0.00114784
कल کپڑا 0.0124597
कोई بدتمیزی 0.0010335
होता مجھ 0.125649
मुतमईन سادھو 0.555572
बात مجھ 0.0287286
नहीं مجھ 0.0122415
आते اڑجا 0.0094455
मुझे افوہ۔ 0.00100738
रही مجھ 0.140965
मय رعونت 1
सिवा بدتمیزی 0.22268
तारे کیوں؟ 1
गोया کھسیانا 0.0394157
हाल ‘‘اپنے 0.0245957
यक़ीन اورابھی 0.104578
अमीर پوچھا: 0.135596
के خواردوست 0.00131388
इस्तेमाल بدتمیزی 0.042998
इंतिहाई ام 0.599885
आँख افوہ۔ 0.0142828
निकल جوبلی 0.0285255
लिए بازاروں 0.00557617
” گز 0.0200718
डाल اشد 0.0294656
दार-ए-फ़ानी پہ 0.321399
कूच پہ 0.321399
याद اڑجا 0.00476675
कर خصوصیات 0.000455843
मरहूम ‘‘اپنے 0.00594484
नफ़रत جاتے 0.952121
बाइस-ए-इज़्ज़त-व-फ़ख़्र ہواکتابیں 1
है।बजट ہواکتابیں 1
ने نام 0.00607023
हम جوبلی 0.000809863
में نام 0.01147
भी نام 0.0135574
न اللہ 0.0029022
सब نام 0.13347
फिर اللہ 0.0122411
रो خصوصیات 0.123985
हैं اللہ 0.00288156
थी।क़ुदरत حکومت، 1
पतला ‘‘اپنے 1
ख़ालिस کیوں؟ 0.0771079
दुकानदार افوہ۔ 0.266667
चीज़। غیرجانبدار 0.333123
दोस्त ‘‘اپنے 0.0118009
ठीक مجھ 0.312241
दुआ ‘‘اب 0.040897
मज़ाक़ دوڑا 0.169006
दिन نام 0.107137
शायरों ڈاکٹری 0.36
यूरोप بےتہذیبی 0.0909092
हाल گرجے:‘‘اندھے 0.028695
दूँ پڑتے۔ 0.386965
बिल्कुल مجھ 0.786044
आपके بدتمیزی 0.0410036
फड़की,तो ہوکراپنے 1
बैठे। ہوکراپنے 1
मैंने معززخاتون 0.00897934
को تومسلمان 0.000448934
बानो سرسی 0.38385
दीं, فرمائیے۔’’ 1
ओवर-कोट فرمائیے۔’’ 1
जैसे کپڑا 0.0164629
सबसे ‘‘اپنے 0.0232498
मसर्रत ام 0.199839
क़ुदरत سرسی 0.201554
सुबहान سرسی 0.347826
डिनर مقصود 1
ऐसे اللہ 0.0733539
है چاہئے۔ 0.00277629
क्यूँ لوہے 0.0739068
ग़ालिबन کولازم 0.125663
क़ौल بےچاری 0.692452
बोर حیثیت 0.119675
थीं। ہے‘‘یہ 0.143198
वाक़िफ़ بدتمیزی 0.5
बैठे آرزو 0.0507188
बॉस اللہ 0.789474
“मरहूम (جولائی 0.99985
बच्चे تومسلمان 0.0195931
जैसे جوبلی 0.00823146
गुज़ार بنیاد 0.240964
जंगलियों چ 1
के یاد” 0.00014598
माँ تومسلمان 0.0227827
बच्चों تومسلمان 0.0372582
का پرریور 0.000306444
चंद گرجے:‘‘اندھے 0.00673811
मुराद پہ 0.0874241
गले میبل 0.406362
ज़िक्र معززخاتون 0.023642
ख़्वाजा کال 0.0832505
हमेशा میبل 0.153109
कहा। خصوصیات 0.106437
दामन-ए-अफ़्सुर्दा صفت 0.279906
मिलता کیوں؟ 0.166667
जिस سارا 0.0122461
दफ़ा معززخاتون 0.0320123
है ہے۔ 0.00825525
हर سارا 0.00465138
और ہے۔ 0.0623917
को ہے۔ 0.0673698
ज़्यादा ‘‘اپنے 0.0300388
कि ہے۔ 0.000151866
में ہے۔ 0.00844776
निगाह اشد 0.201342
के ہے۔ 0.0704645
हैं ہے۔ 0.0291621
की ہے۔ 0.0609232
एक ہے۔ 0.0896056
नहीं ہے۔ 0.0181762
साथ تاج 0.0231216
पंजाब عام 0.732046
सुन اللہ 0.0778223
नीचे بجےکاہے 0.128145
दो سارا 0.00803856
असली کیوں؟ 0.137583
हुक़ूक़ الٰہی 0.303817
मनवाने الٰہی 0.4
पटख़ते دھوبی! 0.285714
खींच سیاہ 0.0665184
तुम ہے۔تھرکتی 0.0117288
मुझे تاج 0.0362658
को پہنچنےلگے۔ 0.00193104
शाइ’र راجہ 0.150407
सिर्फ़ سارا 0.00947585
करो نام 0.221831
जाती ہوگئیں۔ 0.0122383
रडियो راجہ 1
हवाई راجہ 0.8
जहाज़ راجہ 1
धमाके راجہ 1
फटने راجہ 1
बमों راجہ 1
ने عمل 0.000816132
उतना وحدت 0.375
जितना وحدت 0.187779
है کی 0.0438734
लिए عمل 0.00446055
और کی 0.173139
ही دیر 0.00626663
बात رہے۔ 0.0846245
कि کی 0.153823
में کی 0.0674988
है, ہے۔ 0.441491
भी کی 0.0366452
ही کی 0.164976
तक عمل 0.0170672
कोई عمل 0.00248019
साथ دیر 0.0344683
जीने چھپتی 1
है।शुरफ़ा کےعیوب 1
अब عمل 0.015529
ये کی 0.0172277
लेता کی 0.805012
“जानते بےرحمانہ 0.721679
करते کی 0.156016
उनकी ہوگئیں۔ 0.0207594
जलते بےادبی 1
ताज یاد” 0.120682
है کوپالٹکس 5.48395e-09
अब,आमदम شباب 1
बरसर-ए-मतलब شباب 1
टाई کاپی 0.529412
मेरी ہوگئیں۔ 0.00500548
ख़्वाजा سےکیاغرض۔ 0.0832505
पिंडाल اشد 0.0967743
बना ببانگ 0.0155032
हम کی 0.105455
न نکلیں 0.00348264
आप سامعہ 0.00331763
उन्हे منشی 1
हैं کہنا۔ 0.000768416
आपको کی 0.955954
वल्दियत منشی 0.0898877
नहीं کہنا۔ 0.000244455
लगा।लिहाज़ा منشی 1
मुसतक़्बिल منشی 1
मुस्कुराता منشی 1
छोंड़ منشی 1
आप کوپالٹکس 0.00331759
ज़माने نہیں—! 0.0108855
हो।जिस طلب 1
भी رہے۔گوگھرمیں 0.000818717
हुआ ببانگ 0.00191263
वक़्त رجسٹر 0.0024214
एक کھیلا 0.00019241
जो نہیں—! 0.00049193
जाते, عام 1
चुका کھسیانا 0.128729
बुज़ुर्गों کھسیانا 0.051197
लाहौर کیوں؟ 0.00853729
बाइस یاد” 0.0638253
सतर کپڑا 0.059356
मिर्ज़ा نام 0.0509249
ख़ुदा پھڑک 0.0621838
मुख़ातब ہے۔ 0.81432
मार رجسٹر 0.0550479
बाप تومسلمان 0.0816803
साहिबान اشد 0.123677
हूँ।ऑल زیارت 1
ज़र-ए-मुबादला تھیں۔‘‘فیرسیکس’’نام 1
सुनूँ حیثیت 0.780488
मुझे پھڑک 0.00906645
ताइराना اشد 1
इत्मिनान اشد 0.138462
दर्जन ہوگئیں۔ 0.454545
न بجیں۔۔۔" 0.00019348
फ़िक्र بجیں۔۔۔" 0.0306594
फिर کیجیے 0.00491709
क्या کیجیے 0.0028854
आई علیحدہ 0.0723859
आज بجیں۔۔۔" 0.00301266
से خاتمئہ 2.51473e-07
इसके نہیں—! 0.00981256
ज़मीन دیر 0.606638
हवाला بےچاری 0.277063
हो وملک 0.00144119
या وملک 1.49703e-05
लग بجیں۔۔۔" 0.0389546
एतिमाद وحدت 1
सा بجیں۔۔۔" 0.00836941
गया بجیں۔۔۔" 0.00100039
आज़ाद پہ 0.0147413
बोला ہوگئیں۔بےشماربچےیتیم 0.334147
जैसे دیر 0.196335
अपने خاتمئہ 0.00154517
तो چھوڑدیں، 0.00127208
प्रोफ़ेसर پڑھاتا 0.0412492
करवट نہیں—! 0.3
आ لائے 0.00683103
फिर لائے 0.00414856
कहीं بجیں۔۔۔" 0.00884398
गदहे اوراپنےبازو 0.638298
“अजीब-अजीब!” کامیابی 0.857143
फाटक گرجے:‘‘اندھے 0.107143
अंजुमन-ए-इस्लामीया گرجے:‘‘اندھے 1
गति گرجے:‘‘اندھے 0.25
बनी।” گرجے:‘‘اندھے 1
मौरिद-ए-इताब کھسیانا 1
आई بجیں۔۔۔" 0.00402144
साहब کھیلا 0.00206605
तुफ़ैल کھسیانا 1
दुखती کھسیانا 1
अंदाज़ سہیلی 0.0734641
पे اورقوی 0.0826203
ज़ोर-शोर بہ 1
जवाहर-ए-अंदेशा ہوش، 1
है کارہیں۔’’ 0.000102269
कि کارہیں۔’’ 7.95675e-05
में کارہیں۔’’ 2.02605e-07
नीचे نہیں—! 0.0366128
नाक چاہئے۔ 0.915874
सो پڑاہے۔ 0.00874592
पहला دیر 0.427831
देने ع:‘‘موت 0.0588434
इंतिसाब دوزخ 0.00351786
ख़याल کارہیں۔’’ 0.0169393
पर्दा میبل 0.392522
हूँ لائے 0.00542488
हाथों جوبلی 0.0359199
नहीं بھاری 0.00110005
होता। بدتمیزی 0.571428
करने بھاری 0.0335698
जिहाद پہ 1
रिफ़अ’त-ए-तख़य्युल, پہ 0.746353
मशवरा ع:‘‘موت 0.223881
मारकर افوہ۔ 1
उसे بھاری 0.0491325
यह تعویزات 0.00933952
वरग़ला ساڑھی 1
पढ़ने سہیلی 0.0274269
अदा بھاری 0.232284
रहा توآپ 0.00378711
देखा توآپ 0.0270687
शेअर ستر 0.889038
जा توآپ 0.00931464
साहब لائے 0.0108074
इबादत ‘‘اب 1
कमरे سہیلی 0.0268257
वालों ع:‘‘موت 0.039619
बज کہنا۔ 0.277961
इन ع:‘‘موت 0.0103213
आँखों توآپ 0.0366725
बच्चे کےدلدادہ 0.0382901
मोहब्बत تعویزات 0.0557772
तेरी خاتمئہ 0.0665426
तरफ سارا 0.275651
दुपट्टा میبل 1
नतायज جلال 1
खुले کہنا۔ 1
बड़े کےدلدادہ 0.0200843
कश کرخت 0.142857
ली نہیں—! 0.0614805
इक़बाल-ए-जुर्म چکر 1
जितने عمل 0.141483
ख़र्च پرریور 0.193604
अच्छी ہوا؟’’ 0.0584982
जाएंगे کپڑا 0.333333
दिखाएंगे کپڑا 0.250316
सवा ہوگئیں۔ 1
छोटे کےدلدادہ 0.108434
? کیجیے 0.020073
कोठी پوچھا: 0.0181818
है?" افادی 0.30956
बोला। اندازے 0.264804
मेरी ہوا؟’’ 0.00360394
थीं।गाँव پوچھا: 1
छप्पर پوچھا: 1
के نشینی 0.00115034
थे।उनमें بےتہذیبی 0.121951
कहा, بےنیاز 0.0129788
सुख़न جوبلی 0.0729167
अन्दर لائے 0.144073
का چیزکی 1.36523e-05
कर گا؟ 0.00154553
हैं سردار 0.00345787
बढ़ाने بوتل 0.105026
इख़्तियार پٹھوں 0.2
जब ہیں۔اور 0.00834139
की ہواہے۔ 0.000164448
बिन ہواہے۔ 0.104929
है,लेकिन کی 0.903813
मैंने قیمہ 0.0302168
होता ڈالتا 0.0168253
“ज़रा احتجاج 0.121868
हो سمجھ 0.0126285
गुस्ताख़ी سمجھنا۔۔۔ 0.163271
नज़र سمجھ 0.0920099
जाते سمجھ 0.0648483
हैं سمجھ 0.00908867
जी م۔ن 0.0175677
उनके گا؟ 0.0290626
नज़र بجیں۔۔۔" 0.0784218
में سہار، 0.00103541
शयातीन اوروقت 0.0453318
दी (82)کے 0.0306034
का سےملےفرمانے 0.00127859
नज़्म ہے۔ 0.398523
देगा। یاد” 0.248827
भी کسنے 0.000101518
बोले: ہے۔ 0.789469
कुछ کسنے 0.000909353
ख़ैर کسنے 0.0223725
हाँ م۔ن 0.0156636
कपड़े ہڑبڑا 0.00382153
कृष्ण اڑجا 0.0605841
मुरारी اڑجا 0.0928758
न گی، 0.0104479
किसी تھے، 0.0118507
ज़माने تھے، 0.19033
साठ گئےایک 0.097932
मिर्ज़ा لائے 0.012905
फिर کوئی 0.131009
कामियाबी چھوا 0.336015
नहीं کوئی 0.126865
तुम کسنے 0.0014679
सामने ملّا 0.0160264
मुझे کسنے 0.00113467
सचमुच کسنے 0.0428519
ग़म-ए-हिज्र چھپتی 0.0444988
थी کوئی 0.175942
देखने کوئی 0.368632
उनकी کرایہ، 0.0124557
मैं تھے، 0.00210085
जवानी تعویزات 0.0346727
बिकाऊ جائے؟ 0.100427
बढ़ती ہیں۔اور 0.129899
कौन بولے، 0.0450019
चमकाऊँगा। پہ 1
है اورتن 0.000125834
का علقمندوں 0.000363645
मेरी تھے، 0.04501
जाने پرتی 0.0356973
लाकर ہڑبڑا 0.181818
सौवीं نمک 1
शताब्दी نمک 0.499682
फिर اونچا 0.0135127
बहरहाल معلومات 0.163055
तो سو 0.0140001
हो دگنی 0.000178593
हो। توآپ 0.0376707
हमने گا؟ 0.0233079
बात سو 0.0845808
हैं دگنی 0.000216419
है کہ 0.15112
बदन خاتمئہ 1
ही کہتی 0.00113979
कि کہ 0.181201
तो کہ 0.0477121
हमारे م۔ن 0.0168829
माफ़ी گا؟ 0.689655
मुझे آئیں؟’’ 0.00226523
होने کہتی 0.0204072
जो کہتی 0.00258263
बुख़ारी گئےایک 0.0528023
चुके دگنی 0.0236204
पा گا؟ 0.343986
होते کہتی 0.0213921
अहमक़ ملّا 1
मुझे معلومات 0.00100738
ज़ाहिर ملّا 0.117698
दी سرشاری 0.0306034
वाक़यात دیر 0.630136
जुमेरात: خواجہ 1
हजामत خواجہ 1
बनाने,दावत-ए-अहबाब خواجہ 1
जलाने آرزو 0.204144
दवा ہوا؟’’ 0.522643
आ ہے۔جوکتابیں 0.00172774
जितने کرنےپرآمادہ 0.176869
मेरी اونچا 0.0134858
लिए مکالمہ 0.000619575
मुबतला رجسٹر 1
पैदा کہتی 0.0634736
काँधों کےعواقب 1
को ہیں۔میں 0.00193104
बड़े دگنی 0.0100573
गर्म اورتن 0.227864
चाय اورتن 0.0501842
ज़द ہے۔جوکتابیں 1
दो ہے۔جوکتابیں 0.0025264
ग़र्ज़ کہنا۔ 0.186234
इकसठ گئےایک 1
दोनों معلومات 0.00467648
करे। برگزیدہ 0.32138
घड़े خاک 1
ख़च्चर خاک 1
सैर معلومات 0.00647145
नक़्क़ाद بےچاری 0.332746
कुछ نامعلوم 0.00726979
ज़हमत بھاری 0.703125
गवारा بھاری 0.204663
गदहों علقمندوں 0.500455
हुए لگے:‘‘ہیلو! 0.00126365
का "وہ 0.000875041
(3) پٹختے 0.189457
विसाल, تعویزات 0.142857
रहती مکالمہ 0.00934559
अपने مسلمان 0.0115916
सब جمیل 0.00999618
तक "وہ 0.00328848
" کیجیے 0.0026157
बिन جمیل 0.0412006
भी تمام 0.0352049
अपने "وہ 0.0023821
शायर لگے:‘‘ہیلو! 0.0106711
इज़हार "وہ 0.112996
ज़मीन-ओ-आसमान ہے۔ 1
बक़ौल ہے۔ 0.949364
ग़र्ज़ تعویزات 0.0931172
रौशनी کیے۔ 0.103443
दिन "وہ 0.0222611
बनाने مکالمہ 0.0538219
ठुमरियाँ رہی 1
हमें حمیت 0.0276225
“देखिए, ہے۔ 1
हम محروم 0.00161972
आ واہ!’’— 0.00302355
ग़ायब لائے 0.281107
कैसे واہ!’’— 0.0258367
तरह جمیل 0.00218427
मैं سمجھا 0.00836694
तहय्या محروم 0.25
गोपाल پڑھاتا 1
डालर خفیہ 1
इतना توکہیے،بڑی 0.00560711
तो توکہیے،بڑی 0.000141095
मंझ्ली نام 1
“अगर نام 1
अच्छाई نام 1
साथ।मौत نام 1
भूलो نام 1
दावा توکہیے،بڑی 0.400053
या آبی 0.00268241
उन پھکنی 0.00353364
रशीद قومیات 0.129239
ये خریدلواوردنیا 0.000791162
इंतिसाब نام 0.127693
बज دگنی 0.15659
गया واہ!’’— 0.00225089
अपनी محروم 0.00461008
आँख حمیت 0.128545
शब-ए-मेराज ‘‘اب 0.526316
उस پائے 0.00619844
छः دگنی 0.0403441
लिया محروم 0.0219983
पंद्रह "وہ 0.137688
सर्टिफ़िकेट دھرم 0.209525
वहाँ।मर्द میبل 1
झुका میبل 0.521104
पतलूनें,बंद میبل 1
दस "وہ 0.0199538
कानों توآپ 0.248682
उतनी کےدلدادہ 0.100291
क़रार یاد” 0.222222
बनाए سہیلی 0.268706
साल کہتی 0.0246638
अहमद ہیں۔تاج 0.0213097
मुझे توکہیے،بڑی 0.0010076
मतला کہتی 0.428572
आँ روزے 0.000371001
चुनाँ روزے 0.00199824
रसांद روزے 0.867602
नामे تاج 0.714278
। مائی 0.000717355
“तो ‘‘جس 0.0308336
हिजर تعویزات 1
से کرسکتی۔’’ 0.00109296
है مشتعل 0.000503561
आई پناہ! 0.0361929
दवा علقمندوں 0.186999
के نکالنے 0.00051495
कपड़े (12) 0.00169846
था।चारों سارا 1
मैली لوہے 0.332137
शक्ल-व-सूरत کیوں؟ 1
दुम-दार کیوں؟ 1
मिलिए।वो کوانگریزی 0.143249
नाम جمیل 0.00486395
तो سسرال 0.00126457
बिरंग ہڑبڑا 0.692308
ख़ूब ‘‘جس 0.0394347
बताऊँ کہ‘‘اک 0.0278859
दिखाने کوئی 0.822147
उसके آبی 0.0281828
भी وخوض 0.000156877
दें ہے۔جوکتابیں 0.0186253
भला وخوض 0.013061
सैर ‘‘جس 0.0145608
होगा وخوض 0.0142142
जाता ہوگی۔ 0.00655031
शायर ہوگی۔ 0.140058
बन ہوگی۔ 0.0262393
सुनाया توآپ 0.321161
हमने محروم 0.0139847
बार نکالنے 0.0149076
सलाम جمیل 0.101273
रहे بےفکری 0.000951891
नुस्ख़ा بالکوٹ 0.203911
फपती بےچاری 1
बजाए بےفکری 0.0217461
ऐसी پائے 0.0348053
“बस دوبکرے 0.874986
तसकीनी جنگی 1
इरादा آئیں؟’’ 0.107726
यही ترساتے 0.00304702
बातें بےفکری 0.0202214
जब سسرال 7.38804e-05
बाक़ी ہے؂ 0.0492138
कानाफूसी بےفکری 1
तिलाई خاطرِنازک 0.125448
जुदा کےدرمیان 0.857226
तह کشادہ 1
इसकी کسنے 0.0398636
बयासी گی—! 0.289743
चारसौ گی—! 1
नाम—अगर گی—! 1
ख़ातून پھکنی 0.206823
माहौल گے'، 0.115941
महीने نکالنے 0.218134
कैरेट یاد” 1
शुक्र (12) 0.0447433
आवाज़ ٹٹولا۔ 0.0778258
नहीं دود 0.000261302
(जिसे مکالمہ 1
ख़याली معلومات 0.4
वहाँ پرکیا 0.0159592
पंद्रह ترساتے 0.0496295
लाल توکہیے،بڑی 0.0119126
ने شاعروں 0.00305811
था پرکیا 0.000474998
की।” ‘‘جس 1
दस ترساتے 0.00719233
हैसियत پرکیا 0.088889
मुब्तिला کھیلا 0.412189
होने سناؤ۔ 0.00453493
जवाब تیرانام 0.00724128
बाहर ہاں"۔ 0.00731715
गुज़र اورجرأت 0.0560696
अच्छी دود 0.037169
ढोलक کہنا۔ 0.666667
काम ہوتے۔ 0.00841297
लेकिन بسرا 0.000625528
सिवा سناؤ۔ 0.11134
मर्ज़-उल-मौत کھیلا 1
थे” کھیلا 0.286073
हिस्सों دیر 1
जहाँ محروم 0.0219306
हुआ اخبار 0.00956317
अब ہوتے۔ 0.002081
आख़िरी نکالنے 0.138531
“बीबी تیرانام 0.6
जल تیرانام 1
देती।“चूल्हे تیرانام 1
भाड़ تیرانام 1
गया।” تیرانام 1
का پاتال 0.000115739
आया ہاں"۔ 0.0120395
की پاتال 0.00316714
सहरा کی 0.994906
इस بائسیکل 0.000244164
या کےذریعےکوئی 0.00804722
हाँ بےمعنی 0.0313269
चप्पल دود 0.50412
कुछ بائسیکل 0.00123743
प्याज़ پائے 0.229995
अभी پانچ 0.196094
ने ورق 0.000290093
सके گے'، 0.089511
तक تعطیلات 0.0142239
कि تیسری 0.00189545
मौजूद پرکیا 0.00774879
क्लास بجےکاہے 1
मुद्दतों خاتمئہ 0.166633
ख़ुश्बू خاتمئہ 1
वो مشکل 0.00282488
क्या مشکل 0.00574974
बात مشکل 0.0102568
किताब بسرا 0.00488258
न-ख़्वासता پھڑک 1
हुए مشکل 0.0117932
उगलने کی 1
खपड़ैल پھسلتی 1
छोलदारियाँ کہنا۔ 1
तनी کہنا۔ 1
अंदाज़ لالی 0.12244
मज़मून بسرا 0.0269284
हँस کی 1
हर مشکل 0.0136431
तारीख़ دی۔ 0.281658
दीजिए।बुज़ुर्गों کیا۔کہ 0.333216
फ़हमों جوبلی 1
पूछा ورق 0.0205392
पीजिए।अँगीठी اورتن 1
मालूम اخبار 0.0385464
अभी تعطیلات 0.130729
का النہار 0.000181935
बदतमीज़ دگنی 0.529788
पौने دگنی 0.209553
ग़ालिब:- م۔ن 0.0164946
आज واس—— 0.00301266
पूछा مشکل 0.0955967
शफ़ीक़ा او 0.0702394
जवाब ورق 0.0124456
लड़का تعطیلات 0.666667
बार مشکل 0.0370795
मुझ ورق 0.0216406
दिल واس—— 0.0112799
इकलौता یاد” 0.250001
बगै़र نسلوں 0.0395354
रुपये ترساتے 0.0081292
भरकम نہیں—! 1
बेहतर ترساتے 0.0386569
बिन ہے۔لباس 0.123602
दम النہار 0.0538968
एक آزمائیے۔ 0.000315844
बुढ़ापा, تعویزات 1
सहरा تعویزات 0.00509386
गुलिस्ताँ تعویزات 1
फ़ौरन واس—— 0.0319623
लिए آکر 0.0111525
है—!)भी جاتے 1
कहा واس—— 0.00159855
" مائی 0.00527906
चर्चा افوہ۔ 1
का?” آئیں؟’’ 1
गुल پر‘‘عطیہ 0.187285
अहमक़-तर ملّا 1
या "پلاٹ 0.00178827
कहा, قیمہ 0.0352637
। ہوتے۔ 0.000456006
साहिबो بیسویں 1
है متعلقہ 0.000223805
मजनूं وپود 0.142857
करता متعلقہ 0.00586105
बी کرکھانا 0.282742
रुपये ہاں"۔ 0.0183415
माँ کرکھانا 0.0445308
उसका متعلقہ 0.00923443
चालीस ترساتے 0.380467
बसा مکالمہ 0.109886
जाया "پلاٹ 0.5
लें ہوتے۔ 0.0934532
का ترکیبوں 0.00127859
तारकोल دیر 1
बहता دیر 1
रुम-मेट ہوگئیں۔ 0.225588
उस بخت 0.00258268
बढ़ा لگے:‘‘ہیلو! 0.282046
ठिठक ہوگئیں۔ 1
हूँ।कमरे ہوگئیں۔ 1
सहेलियाँ ہوگئیں۔ 1
अख़बारों کارہیں۔’’ 0.342424
तरह پاسپوڑٹ 0.0065528
आम ہوتے۔ 0.0885714
आड़े کرایہ، 0.5
वक़्तों کرایہ، 1
आतिश علقمندوں 0.30144
फ़िशां علقمندوں 0.463735
।" "وہ 0.0206594
मिस्टर پانچ 0.821905
करो...... علقمندوں 1
जाता بخت 0.0034935
दौरान بائسیکل 0.0605261
वास اللہ 1
ऐसी—ग़ज़ल اللہ 1
सकोगे।” اللہ 1
सही ترساتے 0.0271922
जन्नत معلومات 0.0141951
“अरे ڈرافٹ 0.0975239
लफ़्ज़ النہار 0.0620496
व نسلوں 0.0729262
मुकम्मल نسلوں 0.135266
चालीस ہاں"۔ 0.429263
मारने آئیں؟’’ 0.666531
कांटे کاپی 1
औक़ात آخر 0.723365
आस-पास آبی 1
हटाकर پائے 1
ख़ाकसार پائے 1
ख़ासा معلومات 0.25
लगे آخر 0.0765828
” کمپارٹمنٹ 0.0602153
यानी متعلقہ 0.0123876
हैं। روسٹ 0.0043836
बाद کہا‘‘خبردار! 0.00101851
चलाएगा کیجیے 1
रखता آجاتے 0.0954175
इस سرد 0.000765075
हासिल نسلوں 0.0230015
“तुमने ہوا؟’’ 0.223938
बताई, ہوا؟’’ 1
इंजन। ببانگ 1
हैं।ग़नीमत کی 1
“ज़रूर آوازنہیں 0.0666667
करते روسٹ 0.00431357
सुनाता ہے۔ 1
हूँ।गीदड़ ہے۔ 1
दे بارگراں 0.0368691
मोटी آزمائیے۔ 0.0309704
जो ہےاس 0.00229567
मैं پڑوسیوں 0.00251008
मर्सिया سہیلی 1
तक़रीब نسلوں 0.0368335
ख़याल ہےاس 0.053878
आए جلووں 0.00950662
ग़ालिब جلووں 0.0158939
अगरचे بسرا 0.0609675
बाज़ آخر 0.174158
लाहौर ہوتے۔ 0.0329461
तरह گھروندے 0.00109031
पाता ہوگی۔ 0.225808
। آخر 0.0104393
बहन آزمائیے۔ 0.0731594
कब्र-व-नुख़ूत چیزکی 1
ज़ेर-ए-बहस پرکیا 0.217391
बात ہرضرورت 0.000968394
तैय्यार کےجذبات 0.191197
नहीं ہرضرورت 0.000130995
इस سکتا، 8.49787e-05
दी سکتا، 0.00340056
साबित ہرضرورت 0.0208168
क्या "اندر 0.00143642
क़द-ए-आदम مکالمہ 1
कर "اندر 0.00046369
गए تکرار 0.00563275
अर्ज़ متعلقہ 0.0228297
ये ہرضرورت 9.94119e-05
कहे تکرار 1
बहरहाल ہرضرورت 0.184725
तू بخت 0.106136
यूँ سکتا، 0.00387612
साहिब-ए-सद्र پرکیا 1
मदन پڑھاتا 1
अक्सर "پلاٹ 0.0168478
है,लेकिन مشکل 0.0555257
जाइए।” ہانے 0.251604
सच کسر 0.112873
ऐसा ہےاس 0.0269539
नहीं।” گرپڑےتوباقی 0.0277469
होती ہرضرورت 0.00137067
बीवी ہےاس 0.0526661
जाए تکرار 0.024668
साहब روسٹ 0.00618725
बढ़े لگے:‘‘ہیلو! 0.222222
थे,आगे لگے:‘‘ہیلو! 1
बोला:“जनाब-ए-वाला! لگے:‘‘ہیلو! 1
माडर्न لگے:‘‘ہیلو! 1
पर ہوا۔ 0.012086
गोल्ड یاد” 1
हक़-दार یاد” 1
हुआ کسر 0.0024591
“ واس—— 0.00437086
रहे ہوا۔ 0.017731
गुज़रने تکرار 1
दिल فرمائیں۔ 0.00563994
बल्कि تکرار 0.0080131
हमें کسر 0.0118382
दाद سکتا، 0.0140995
तक़रीब-ए-इज्रा سارا 1
वजहें سارا 1
अव्वल, سارا 1
ताज-ए-शही سارا 1
कुनुन्दगान سارا 1
आता تکرار 0.0065615
मुत्तला تاج 1
ख़िलाफ़ فرمائیں۔ 0.0740741
शायद کہا‘‘خبردار! 0.0165561
रंग تکرار 0.0171637
पर آدم 0.00226373
हमारे کہا‘‘خبردار! 0.00375173
है چھٹی 0.000292112
मुसन्निफ़ وخوض 0.0622134
खोल فرمائیں۔ 0.0257163
असल متعلقہ 0.12844
रोता متعلقہ 1
पेंशन گھروندے 0.726941
भी متعلق 0.00415829
उठे واس—— 0.11765
तो گلے 0.000936204
भी گلے 0.00061568
चुनांचे ہوتے۔ 0.0216055
तो ہنسنا 0.00127208
पूछने سکتا، 0.0316469
दोज़ख़ معلومات 0.4
कनफ़्यूज़ معلومات 1
किया چھٹی 0.00482261
उसे متعلق 0.0626157
लगे سکتا، 0.00610184
रखता ہوا۔ 0.253907
सुलग्ती مکالمہ 1
कांसी مکالمہ 1
मुजस्समा مکالمہ 0.307692
होते متعلق 0.0363502
रोते پڑاہے۔ 0.191633
यार وہیں 0.124335
वह پلنگڑی۔ 0.0452348
लोग شمشاد 0.00252613
ख़्यालात "وہ 0.340432
कुछ تقریبات 0.0036349
इनहसार’ "وہ 1
मज़मूनों "وہ 0.235625
वक़्तन-फ़ौक़्तन "وہ 1
आदमियों لیا۔ 0.9
उठक پٹھوں 1
बैठक پٹھوں 1
मुक़र्रररा پٹھوں 1
बाक़ायदगी پٹھوں 1
क़वायद محروم 0.3
सेहत-याब سمجھ 1
सही, کسنے 1
मलम्मा کی 1
से زمانےتو 0.000121439
भभूका توکہیے،بڑی 1
जितना تکرار 0.0563339
बे-माना محروم 1
मर्ज़ी محروم 1
का دوسرامصرع 0.000610164
को رہتا۔ 0.000429121
मैदान جلووں 0.32919
न رہتا۔ 0.00077392
बयानी سکتا، 1
ये پنپنے 0.000791162
के اندھیرے 0.00131388
इस لینا 0.000595058
तो ستانے 2.68374e-05
!" پرندوں، 0.0763023
सके। کہا‘‘خبردار! 0.142857
अपने رہتا۔ 0.00171725
की کشی 0.000998912
बांधते-बांधते کی 1
दूसरे متعلق 0.0278886
फ़ह्हाशी ہے۔جوکتابیں 1
जाएं। ہے۔جوکتابیں 1
उमूर ہے۔جوکتابیں 1
बरस تکرار 0.193508
जल्दी گیری 0.323235
दो।चिड़े ہڑبڑا 1
है।उनके نسلوں 0.1
गई شمشاد 0.00250437
“साहिब-ए-दीवान” ہوگی۔ 1
है।मौरूसी ہوگی۔ 1
इकट्ठे "پلاٹ 0.125001
“उनका کارہیں۔’’ 1
ऐसा تقریبات 0.00673847
मौलवी النہار 0.348986
बौछाड़ ہیں۔اور 1
शोअ’रा:- ہے؂ 1
इरशाद। ہے؂ 1
कहीं عرصہ 0.159192
बच्चे لینا 0.119125
रहा راتیں 0.0100989
कहते گلے 0.0391885
हर اورہیروئن 0.0016834
गए।बोले“हज़्रत! توکہیے،بڑی 1
ख़ुदाई توکہیے،بڑی 0.205153
नहीं।ता-हम توکہیے،بڑی 1
हूँ لینا 0.00747028
किताब کےچہروں 0.0292955
“जी Man 0.00707266
मजमूआ-ए-कलाम جمیل 0.351423
था।इसी جمیل 1
रज़्ज़ाक़ جمیل 1
किताब‘ऐन’के جمیل 1
जाग واس—— 0.0294141
को ڈری۔ 0.000295812
लाल ‘‘بڑے 0.107189
प्रोग्राम زمانےتو 0.0584794
भेजने آکر 1
शख़्स تقریبات 0.103376
बताओ ستانے 0.0784601
हँसते مشکل 0.272167
बल्कि اورہیروئن 0.000872168
जाता ترکرنا 0.0104805
नंबर کہا‘‘خبردار! 0.104573
घाग سناؤ۔ 0.0148957
जादू سکتا، 0.233089
होता।मसलन سناؤ۔ 1
इख़्तियारी بسرا 0.571428
जाएगा।और مسلمان 1
मसनूई مسلمان 1
लिबासों مسلمان 1
“ख़ुदा کرتالیوں 0.0185283
उस نجمہ، 0.00387402
खड़े اورہیروئن 0.0136309
होकर اورہیروئن 0.0513106
आप چیزالمیہ 0.00331763
अर्ज़ چھٹی 0.062155
समझता رہتا۔ 0.135136
हैरत کسر 0.268657
बाइस्किल اونچا 0.0453904
चमारी ڈری۔ 1
बुला ڈری۔ 0.0769046
चुके।दो ڈری۔ 1
हुई برسرمطلب 0.006089
निवाले ڈری۔ 1
चलकर ڈری۔ 0.559514
खिलाओ।बच्चों ڈری۔ 1
कारख़ाने (12) 0.24476
“टेनीसन نشینی 0.0785189
शौक़ متعلق 0.510787
रहने کشی 0.278482
“आप گلے 0.0274716
अबदुर्रहीम پانچ 0.888887
वफ़ा پانچ 0.847057
इजाज़त کشی 0.151302
ग़रीब فلسفی 0.147584
“ سکتا، 0.00218543
शरीक متعلق 0.348436
लिप اورقوی 1
मुकर्रर-मुकर्रर اورقوی 1
जगह اورہیروئن 0.0150595
“जी فلسفی 0.0103441
मुझे برسرمطلب 0.00151108
ख़बर برسرمطلب 0.0288151
औरत بخت 0.0644496
उनके مثال 0.0784691
उठते تھی۔چنانچہ 0.5
रही تھے’’ایک 0.00419471
क़रीब گھروندے 0.0284661
किया تھے’’ایک 0.000885875
स्कूल سمجھتارہا 0.464512
मिला,तो اونچا 1
सा آنا۔جو 0.00836941
मैंने فلسفی 0.0215504
करने خریدار 0.00473059
चाहता ہےاس 0.0687957
परवर فلسفی 0.657534
कपड़े دور۔ 0.00382153
अलावा دور۔ 0.0306037
राहिबाना لالی 1
पोज़ لالی 1
जी خریدار 0.0100613
ग़ज़ल عرصہ 0.149047
जवाब تو۔۔۔ 0.0434476
क़दर برسرمطلب 0.0177672
तक़रीर بائسیکل 0.150534
नहीं।” کشی 0.0285067
सूबे (12) 0.5
न اواگون 0.00029022
डाले متعلق 0.75237
ग़ालिब کرشن 0.0211919
जाते کرشن 0.00823826
गु़स्से گا؟ 1
ताड़ گا؟ 1
पोशी। پر‘‘عطیہ 1
ग़म-ए-हिज्र وقتاً 0.477751
बात سہی 0.000854793
उम्र سہی 0.017464
अंग्रेज़ी- دی۔ 0.468318
2- دی۔ 1
है।” رکوئی 0.00011089
लोग ‘‘الٰہی 0.0127701
अपनी خریدار 0.00396045
जाती سہی 0.00244766
ये راجپوتوں 3.86809e-05
नहीं।” Man 0.0125696
मुक़र्रिरों فرمائیں۔ 1
सुन برسرمطلب 0.00778222
आँसू راجپوتوں 0.0593319
करना سہی 0.00237302
तरफ़ کرشن 0.010898
बूढ़े فرمائیں۔ 0.0065787
नौजवानों فرمائیں۔ 0.0182529
चलते اورہیروئن 0.0810696
बारे مثال 0.196937
देखा। دوکاندار 0.9
सूखने گھروندے 1
पहुंची گھروندے 1
दूसरी تھے’’ایک 0.0133868
रोज़ نجمہ، 0.158285
इस्तेमाल اواگون 0.042998
जा ‘‘الٰہی 0.00544361
आँखों راجپوتوں 0.0116265
की।इसके فرمائیں۔ 1
ख़ुशी راجپوتوں 0.0172734
किनारे آنا۔جو 1
बीवी,और تھے، 1
क्या جوخود 0.00210025
उन्होंने تھوک 0.0536579
बार کرشن 0.0123607
बे-इंतिसाब بسرا 1
ज़हर فرمائیں۔ 0.333333
अफ़शानी فرمائیں۔ 1
मसर्रत برسرمطلب 0.0666448
ये جوخود 0.000405618
थोड़ा آنا۔جو 0.100117
और پایاب 0.000169121
पर پایاب 0.000180108
समझेगा وخوض 0.16811
वाक़ई راجپوتوں 0.0123961
कराची شمشاد 0.333333
दरयाफ़त روسٹ 1
इलाज: ......پانچویں 0.0384615
मरहूम تھے’’ایک 0.00462377
“कैसा آئیں؟’’ 0.000203351
जवानी لینا 0.242709
बार-बार کرشن 0.0930286
जाने پایاب 0.00767518
उसकी کردی۔ 0.0838345
फिर کردی۔ 0.0141752
हूँ।” —اکثر 0.0259811
अहमीयत نسلوں 1
अंदरून-ए-शहर نسلوں 1
बैरून-ए-शहर نسلوں 1
तनख़्वाह سہی 0.26505
मैं —اکثر 0.000208686
प्रोफ़ेसर کرشن 0.0549989
हैं।" پشتوں 0.428759
गुज़र پایاب 0.0120657
ग़रज़ تکرار 0.166667
हमारी راجپوتوں 0.00290318
दिन کردی۔ 0.0406816
देगा।ये لےتےتھےکیو 0.2
रंगी زمانےتو 1
तबीयत خریدار 0.0617435
बुख़ार? واہ!’’— 1
हा تکرار 0.545455
कहने جاتو 0.0223324
फ़ितरती اخبار 1
ही ارشدؔ 0.00151972
अबदुलहई گرتا 0.355555
निगाह:- گرتا 0.355555
रोते کھولے 0.197736
में عید 6.46819e-05
ज़रा والی—طیّبہ 0.0064554
था, متعلق 0.332871
करे والی—طیّبہ 0.0257138
सकता والی—طیّبہ 0.00285351
हुए انجمن 0.0243478
सी والی—طیّبہ 0.00405403
लिए منٹ 0.0501854
बड़ी والی—طیّبہ 0.00417502
मक़सद رہتا۔ 0.0490652
जी:- چکا 0.864088
थे।लेकिन راجپوتوں 1
ये ہوتے 0.0334996
ख़्वाबों شریرچونچ 0.727571
बुरी سہی 0.0408163
हंसी لینا 0.222181
पर رسمیں 0.000266362
आवाज़ ستا 0.0138179
मासूम لینا 0.42591
तरह منٹ 0.0589753
पंच زمانےتو 1
बात نمکین 0.00312853
बगै़र گویاکاناپھوسی 0.0197677
पैदा والی—طیّبہ 0.00470175
हैं। کریگی۔ 0.00365321
ख़सारा ترساتے 1
तरफ़ تھے’’ایک 0.0407332
रहते کریگی۔ 0.0378963
सुनने لیکن۔۔۔" 0.0240947
गिने "وہ 0.735052
ये نمکین 0.000644474
कोई لیکن۔۔۔" 0.0003445
अदा گویاکاناپھوسی 0.0258094
अज़ ادیباؤں 0.0739103
है نیل 0.000503561
मेरे رسمیں 0.00248753
बड़े تھے’’ایک 0.0943291
करते گویاکاناپھوسی 0.000798793
आलम اٹھتےہی 0.204244
सोच تقریبات 0.0604044
है دونوں 0.00816676
जब ستا 0.00278046
भी دونوں 0.0036968
शौहर ستا 0.0201766
“जी توجائز 0.0129301
हुई آج 0.133958
करेगा "اندر 1
बातें نیند 0.235914
आज آج 0.099418
तक آج 0.0391159
करख़त ستا 0.181818
मुसलसल ستا 0.0928224
घबराकर ستا 1
उठ ستا 0.0267901
बैठती ستا 1
उठता, ستا 1
ये آج 0.00580182
फ़ारसी ہوسکتی۔ 0.0808376
है ماری؟’’ 7.34225e-05
को ماری؟’’ 0.000324913
उन ہوتے 0.112982
लेकिन دونوں 0.0610514
पर جلوس 0.000156181
मुशायरा دوسرامصرع 0.204165
मरऊब ریزرویشن 1
तह-ए-दिल پھکنی 1
उस مگرہم 0.00193701
चाय رسمیں 0.0511582
देती ماری؟’’ 0.0399349
यकसाँ انجمن 1
ज़ात فارغ 0.201681
मिर्ज़ा کرشن 0.00508533
वाक़े انجمن 0.261339
ही ہرطرف 0.00037993
वो جاؤ 0.000235424
गुम ٹوٹکے 0.529164
मुताल्लिक़ ورق 0.0259265
मुझ ہوگئے، 0.0917069
समझ جاؤ 0.00609284
क्या ! 0.00689776
और ارے 0.000618124
जो ہرطرف 0.00172176
देखा مگرہم 0.0180458
जी طبعیت 0.0263513
इसी ہرطرف 0.00873437
की ارے 0.00135999
तुम्हारी نیند 0.439565
दिखाई ماری؟’’ 0.0997749
यूँ ایام 0.007752
बावा جاؤ 0.307631
ये ایام 0.000175177
मेबल ورق 0.0512555
नावल ورق 0.533232
सामने جاؤ 0.00534213
शिकनी فارغ 0.12
हो।लिहाज़ा فارغ 1
दरअस्ल نمکین 0.142446
मेहनत والی—طیّبہ 0.0597001
मैं ہرطرف 0.000209174
करते ایام 0.00160146
बे-परवाई بائسیکل 0.605045
मुझ ماری؟’’ 0.0131052
महल گویاکاناپھوسی 0.2
मौक़ा گویاکاناپھوسی 0.0513759
मैंने مگرہم 0.00673449
कुछ روپوش 0.00726979
ग़ालिब:- چھٹی 0.0199593
जाने ‘‘بھوکے 0.00510021
कारवाई خریدار 1
; چھٹی 1
उनकी ایام 0.00832393
हाँ,ये خریدار 1
दाद ایام 0.0282661
वक़्त ‘‘بھوکے 0.00103789
के مارےصدمہ 0.00116844
दर्याफ़्त سہی 1
से یادکرکے 0.00109296
मौक़े لیکن۔۔۔" 0.068698
से ماراس 0.00109296
हाल جلوس 0.0247355
हों।हम بےفکری 1
हिंदोस्तानी“म्द्ध्म بےفکری 1
पंजुम بےفکری 1
“भाइयो!मुझ تھوک 1
ज़र्रा-ए-नाचीज़ تھوک 1
हाफ़िज़” کرتالیوں 0.0680427
मुसीबत بلیات 0.0519385
मौत ماری؟’’ 0.0184066
अज़-हद کسر 0.40678
इन ‘‘بھوکے 0.00589855
के।चार (12) 1
कारख़ानों (12) 1
के।तीन (12) 1
के।छः (12) 1
खिलौनों (12) 1
हुसूल رہتا۔ 1
जाहिल رہتا۔ 0.64
मोजिब کسر 1
पूछिये کسر 1
फ़सल کردی۔ 1
से گلاب 0.000820059
शहद آنا۔جو 1
होगा।लेकिन فلسفی 1
उन्हें گلاب 0.0195786
कहना مارےصدمہ 0.00528302
तलब ایام 0.093281
मरहूम مگرہم 0.0104035
था گلاب 0.0016029
उन्हें دیتا۔ 0.0580111
ख़सलत بخت 0.25
हमा-दानी "پلاٹ 1
दावेदार "پلاٹ 1
गैलरीयों "پلاٹ 1
पेश-ए-नज़र اواگون 0.166667
कॉन्सर्टों "پلاٹ 1
मसरफ़ دور۔ 1
फाड़ने دور۔ 0.692308
क्यूँ دیتا۔ 0.0432371
आध ٹوٹکے 0.147541
थे।मौज़ू پرکیا 1
Frailty پرکیا 1
the پرکیا 1
तमाम لینےکوجی 0.0113889
विभाग زمانےتو 1
फ़िल्म“प्रेम زمانےتو 1
बुलबुल”की زمانےتو 1
कहानी,आकाशवाणी زمانےتو 1
विविध زمانےتو 1
समझी سہی 0.101818
कह دیتا۔ 0.0253404
में باراوراعلی 3.5067e-06
कहेंगे شمشاد 1
के,जब عرصہ 1
ने رہنےلگا۔ 0.00101929
आएगा।” کہا‘‘خبردار! 0.0129032
ख़ुदा لمبی 0.124366
। ! 0.00595475
हूँ دیتا۔ 0.0106705
हालाँकि گوکہ 1
अपना اردوادب 0.00632424
हों।बरस تکرار 1
खिलता تکرار 1
उड़ता تکرار 1
इतनी جاؤ 0.0100081
रात لینےکوجی 0.0586305
दक़ियानूसी النہار 1
छल्ला النہار 1
रहा ہے۔درحقیقت 0.00168316
रखता دیتا۔ 0.106006
हुए ‘‘اندھے 0.00147447
शोले ‘‘اندھے 1
कहा اردوادب 0.00239783
होगा, آنا۔جو 0.25
गोरी بخت 1
? بجے۔ 0.0451512
मुझ اردوادب 0.0254742
आँखों ‘‘اندھے 0.0163012
दें ! 0.104332
उन لمبی 0.0212028
पढ़ ہے۔درحقیقت 0.0183699
जमाल پلانا 0.176926
बताता —اکثر 1
उस مستفیض 0.000860895
अपने ہاؤ 0.0077276
जिन انعام 0.12364
था।क्या بخت 1
सीखती بخت 1
एक شمیم 0.000968846
आप چانپ 0.00331763
भई دیتا۔ 0.0873237
(आलू, ذمہ—’’ 1
चीनी, ذمہ—’’ 1
चावल, ذمہ—’’ 1
रोटी, ذمہ—’’ 1
गोश्त, ذمہ—’’ 1
मछली ذمہ—’’ 0.148913
बार-बार ہے۔درحقیقت 0.0348857
बाक़ायदा پردیس 0.642857
उल्टा ‘‘میں 0.287617
दरकिनार ‘‘میں 0.339622
आए کرتےہیں۔ 0.00316888
सुबह مستفیض 0.00995851
होता کرتےہیں۔ 0.000934742
देना ‘‘میں 0.0151781
हैं کرتےہیں۔ 0.000192104
हज़्रात شمشاد 0.333333
घर کرتےہیں۔ 0.00185881
दें بجے۔ 0.194787
चीज़। تقریروں 0.666877
इक پوچھا، 0.324705
हमारा ‘‘میں 0.0766414
छप شمشاد 0.263158
थी حاضر 0.00986441
बग़ैर ‘‘بھوکے 0.0290176
“ طبعیت 0.0147516
मज़ामीन انعام 0.75
बड़ी حاضر 0.0125251
! دیتا۔ 0.0579172
न "بڑے 0.000290221
का!” ناراضگی 0.215366
बुज़ुर्ग ہرطرف 0.0206648
जाएगा।”एक روسٹ 1
बैरे جلوس 1
वालों کرتےہیں۔ 0.0176084
खींच بالش 0.0665184
सबने جلوس 1
दुनिया ہندستان 0.0247685
ने کبھی 0.0158458
तो کبھی 0.00659667
ही کبھی 0.0187677
ध्यान ‘‘میں 0.461538
घर کوہدایت 0.00557643
सिनेमा دیتا۔ 0.146996
अख़बारों شمشاد 0.181523
आप کبھی 0.0309407
नौजवान ہے۔درحقیقت 0.0363089
थे। مستفیض 0.00450953
बेजा اواگون 0.156269
है (یہی 0.000182918
जवाब "بڑے 0.00724131
हुई ہوچکیں،لیکن 0.00608969
तमाम ہندستان 0.0303704
कि (یہی 0.000128655
कॉलेज حاضر 0.0454084
मालूम کرتےہیں۔ 0.00256976
क्रिकेट حاضر 0.625
ज़ाती ایام 1
कर ہوچکیں،لیکن 0.000231716
ग़ैज़ کرشن 0.0234718
झांकी خالوکی 0.750643
मैं کبھی 0.0389849
कहने "ذرا 0.00372997
ना گاتا 0.00661839
लेता چھوڑدیتا 0.00618242
तस्लीम چھوڑدیتا 0.6
की قسموں 0.00101036
दिल چھوڑدیتا 0.00845991
शायर چھوڑدیتا 0.0124496
बैठकर اورہیروئن 0.164863
आम نئو 0.207293
जैसे کرتےہیں۔ 0.00548764
पढ़वाऐ کرشن 1
कहता گاتا 0.00805549
क़रीब ہرطرف 0.0423456
ग़ालिब پینے 0.119204
मुअज़्ज़ज़ جاؤ 0.264151
पान رسمیں 0.246696
मौसीक़ी لیکن۔۔۔" 0.0400522
ही چل 0.00354548
हँसता لینا 0.537478
कहा (یہی 0.00525483
बोला ہوچکیں،لیکن 0.0556976
ए مستفیض 1
पहुँचता کوہدایت 0.200009
अब چل 0.0113243
समझा "بڑے 0.0334055
माँदा کوہدایت 1
फाड़ ہوچکیں،لیکن 0.400028
कहा گاتا 0.00319711
दफ़ा حاضر 0.0320126
मुसन्निफ़ والی—طیّبہ 0.0342034
सिर्फ़ اورخستہ 0.0208468
साफ़ گلاب 0.0568715
देना "بڑے 0.0059026
पटख़ते کچیل 0.142857
ऊपरी چھوڑدیتا 0.6
पंजाब شمشاد 0.0669885
थे! راجپوتوں 1
मैं چل 0.00195246
बंदों لمبی 1
समा کہا‘‘خبردار! 1
हिंदोस्तानी ہندستان 0.122402
डाइस ہرطرف 1
उसको گاتا 0.00882445
शायद "بڑے 0.0248342
लेगी।कि لیا۔ 1
चिड़ियों لیا۔ 1
शब-ए-ऐश پایاب 0.173828
मुनासिब "بڑے 0.10145
कहा چل 0.0335699
जेहादी ازراہ 0.358946
हो پائے۔ 0.00288775
उन ہوچکیں،لیکن 0.00176688
थीं,लेकिन تھے’’ایک 1
हज़्रत تھے’’ایک 1
इज़राईल تھے’’ایک 1
अहमियत ‘‘بھوکے 0.222242
साहब "ذرا 0.00172234
हैवानों ہوگئے، 0.876377
इस لوگ 0.01457
से لوگ 0.0104053
ख़ैर, عید 0.888985
मालिक مستفیض 0.142855
लगे "ذرا 0.00917173
दिन نےپھرایک 0.024072
मसलन گاتا 0.0483752
आया।इस ہرضرورت 1
नुकते ہرضرورت 1
रहा لوگ 0.201167
है) قیصرالجعفری 0.123968
फड़कने مثال 0.923077
मेरे لوگ 0.0928723
ख़वातीन جاؤ 0.0883677
अवाक़िब مثال 1
हसन دہیلہ 0.0626607
धूम حاضر 0.186854
उस دھلی 0.00774805
देती کےمیدان 0.116439
कई قیصرالجعفری 0.0323575
आते بھیجتا 0.0470949
मसर्रत, لینا 1
ख़ुश-दिली, لینا 1
ज़ुल्म میراتوتمہارے 1
वैसा آنا۔جو 0.25
नहर آنا۔جو 0.25
टोस آنا۔جو 1
तो سائے 0.000254177
नहीं سائے 0.00021984
समझ سائے 0.0109668
मौज़ूँ خریدار 0.4621
इख़्तियार نچلا 0.2
उड़ाते ‘‘میں 1
। "ذرا 0.000352999
होटल جلوس 0.143552
आदी مستفیض 0.5
हेरा-फेरी ٹوٹکے 1
हड़गम ٹوٹکے 1
अकाउंट کہا‘‘خبردار! 0.2
समाने کہا‘‘خبردار! 1
लाहौल ہے۔درحقیقت 0.6
घाग اٹھانے 0.0595828
! گاتا 0.0115849
होती خرچ 0.0544443
मज़ाक़ ‘‘میں 0.219999
को کمائے 0.000246541
उसकी کمائے 0.00724412
भी کمائے 0.000116394
अच्छी (۲)مینڈک 0.0162463
है,इसी سہی 1
तरह (۲)مینڈک 0.000728107
हाथ سچے 0.0480186
से ‘‘محبت 0.000206006
हूँ। کےمیدان 0.0867193
तो ‘‘محبت 0.000241596
हो بولا۔ 0.00787689
में بولا۔ 0.00112788
वहाँ ‘‘محبت 0.0276766
मेरी سائے 0.00180192
क़ैसरा ایسےمردودے 0.125702
कोई ‘‘محبت 0.000135007
आया سائے 1.73356e-05
था। بولا۔ 0.0466561
ख़्वाहिश خرچ 0.660378
फटी ہوچکیں،لیکن 1
मेरा نچلا 0.00419364
मियाँ ‘‘اندھے 0.0140096
गया بولا۔ 0.0196469
भी اظہار 0.00204677
ताल سےادب 0.121705
लौट ‘‘محبت 0.133553
भला اظہار 0.161561
बरसाते ‘‘اندھے 1
गरजे:“अंधे ‘‘اندھے 1
ये اظہار 0.00197799
अगली دیتا۔ 0.630885
जुमेरात دیتا۔ 0.0817684
पतरस سوچی 0.0136829
बुख़ारी سوچی 0.0317315
छोड़ بکھیر 0.212134
ग़ालिब چھوڑدیتا 0.128427
(1) (۲)مینڈک 0.357137
एक ہوتے۔’’ 0.00052154
बगै़र پد 0.0254156
था پد 0.000610711
रखिए سےرہائی 1
सुनी رہنےلگا۔ 6.50178e-06
मिर्ज़ा "ذرا 0.00191093
या ‘‘غضب 0.00357655
दिन ہوتے۔’’ 0.0175938
एक فراغت 0.000242211
की। اظہار 0.575097
शख़्सियत گاتا 0.33308
कोई ‘‘غضب 0.000689001
हाथ فراغت 0.0120046
सामईन کرتےہیں۔ 0.181818
मकरूह مستفیض 1
ये ‘‘غضب 0.000175814
पड़ता ‘‘غضب 0.0353757
मिर्ज़ा پینے 0.0286051
बर्तन چاند 1
ख़याल ‘‘غضب 0.0179593
हज़ार قسموں 0.0463541
सैलाब پوچھا، 0.699986
है। فراغت 0.00162805
चोखा سوروپےبچانےکے 1
बाक़ी ہے۔سفراورہجرت 0.0701867
“ گاتا 0.00437086
से گتےکے۔!! 0.00109296
उसने ہوتے۔’’ 0.125324
साथ رازداری 0.00346825
उनके فراغت 0.00653907
नज़ाकतें والی—طیّبہ 1
करना رازداری 0.00427144
एलान رازداری 0.140078
“आगे —اکثر 0.802748
आप کےمہربان 0.00165879
बढ़ (۲)مینڈک 0.0192587
अहल-ए-शहर اواگون 1
मुशताक़ اسےدُھتکار 0.0369224
ढल ہیرا 0.965977
अजीब اورلطف 0.0670512
देखिए گاتا 0.181819
मकान مستفیض 0.0630933
तआरुफ़ معاوضہ 0.470585
क्या شریف 0.0143641
कुछ کہتے۔ 0.00181746
ज़रूरत کہتے۔ 0.0288085
की برے 0.00108856
बगै़र شریف 0.296536
ज़्यादा کہتے۔ 0.0037807
गए। غورکرتے، 0.0694737
हूँ رازداری 0.00192093
” طبعیت 0.0225807
छुपाते اردوادب 1
किसी آجائےاور 0.0047444
की قدرحاوی 0.00108856
पे ماند 0.0992016
फ़ुतूर تقریبات 1
सहीहुद्दिमाग़ تقریبات 1
पाओ (۲)مینڈک 0.280005
मालिश (۲)مینڈک 1
करें,बाल (۲)مینڈک 1
बे-तहाशा (۲)مینڈک 0.470594
जाएँगे। (۲)مینڈک 0.437506
आई شریف 0.0603258
हर ماند 0.00409558
नहीं گھنٹی 0.000438673
अहल-ए-ज़बान شمشاد 1
भी شارٹ 0.000818717
इंतिख़ाब پد 0.196721
कुछ پرجو 0.00726979
बल ماند 1
तकिया کمائے 0.0490137
वक़्त گھنٹی 0.00290796
छोटों ایام 1
हैं,गोया ایام 0.250077
इल्म-ए-कीमिया کیسےکاٹوں! 0.584781
फ़ितरी بلیات 1
ने ،بائیسکل 0.00101937
बैरर حاضر 1
खेलेंगे। حاضر 1
शोअ’रा پردیس 0.077988
हो رضامند 0.00288775
तीसरा جائیگی 0.130407
करते, گھنٹی 1
मेरे سرظفراللہ 0.00108436
ज़रूर آمد’’کے 0.000275534
देखा سرظفراللہ 0.00802037
सिन्फ़ پردیس 1
क़ाबिल-ए-इज़्ज़त پردیس 1
कि پورے 0.000994368
ज़्यादा دفعتاًحاجی 0.00189038
गाव کمائے 0.422007
इसलिए دفعتاًحاجی 0.0215178
ही طرف 0.0691466
रहे پورے 0.0148284
बल्कि سرظفراللہ 0.00445172
चुके موٹی 0.094339
घाग نقصان 0.0297914
पहले پورے 0.0258349
कहीं دفعتاًحاجی 0.00994948
लाला طبعیت 0.126639
कि سیرکر 0.000101345
नुस्ख़ा فراغت 0.0509776
अगर مکش 0.0158132
आप سیرکر 0.000869364
इ’श्क़ پوچھا، 0.210444
एक بنا! 6.45287e-07
आवाज़ دستانے 0.0778258
नग़मा لیکن۔۔۔" 0.181818
जो بنا! 0.00114707
रखता دفعتاًحاجی 0.0119272
कर سےآتا 0.00139098
बैन گلاب 0.771404
हाज़िर-व-नाज़िर لمبی 1
है سب 0.00618425
और سب 0.016268
के سب 0.0528329
हुआ ہوئے) 0.0057379
लिख موٹی 0.0281262
हुआ سب 0.113333
“काना رکوئی 0.38277
काट جائیگی 0.0789474
दैरीना گلاب 1
कर) جائیگی 0.0474269
टपकता گلاب 1
उबलते لیکن۔۔۔" 1
फव्वारों لیکن۔۔۔" 1
बुलबुलों لیکن۔۔۔" 1
ख़ुशख़बरी لیکن۔۔۔" 1
बात چھکے 0.00256438
अंदर اوتقدیر 0.0384336
लिए فراموش 0.00557617
तवालत کمائے 1
मंगेशकर اورابدی 0.553031
के ‘‘مگردوسرا 1.95278e-08
हैं ‘‘مگردوسرا 0.000358547
मुझे اورہم 0.0181329
की ‘‘مگردوسرا 0.000185559
भी منی 0.000325381
बात منی 0.0030822
था।दूसरे ہے۔درحقیقت 0.25
में....कम-अज़-कम ہوگئے، 1
बक्स اوتقدیر 0.183051
रौ نچلا 0.333333
बर्दाश्त کمائے 0.0828035
जुज़दानों اوتقدیر 1
है سوبرس۔ 0.000503561
अब منی 0.00194441
सिवा ‘‘مگردوسرا 0.138539
“साहब! اردوادب 0.6
बाज़ سرظفراللہ 0.0138755
मुझे چھکے 0.00302215
हीरोइन چاند 0.90001
डाले।” نعمت 0.462836
चंद-ए-आफ़्ताब چاند 1
मैं منی 0.000335216
चंद-ए-महताब چاند 1
बेटी।हीरो چاند 1
मांझते,झाड़ू چاند 1
चाहिए موٹی 0.0291302
क़ानून نچلا 1
पान نچلا 0.193571
नौइयत اورلطف 0.181818
कान्फ़्रैंस اورلطف 0.0561224
निकालीं।एककी نیند 1
जूतों ‘‘یرقان 0.711582
पर طینت 0.00113186
कुर्सी کےجلسے 0.151705
की کشٹ 0.000223805
निहायत طرف 0.290539
पर دیکھئے۔ 0.000595824
हो سوچ 0.0016043
बात دیکھئے۔ 0.00226731
किसी پوپلے 2.14592e-05
ग़ालिब:- چل 0.0769776
दल قیصرالجعفری 1
है; چل 0.480807
मक़ता’ چل 1
अ’र्ज़ چل 0.573439
करूँगा। چل 1
मैं سراہا 0.000836694
हुए منحوس 0.00098284
बहुत وفا 0.0027874
हाय جارہی 0.660726
यक़ीन چھکے 0.0348594
जाने سوچ 0.0198318
"हाँ نمکین 1
इसी پوپلے 0.0173897
ए.सी. تھے۔رات 1
ब्रैडले(A.C. تھے۔رات 1
Bradley) تھے۔رات 1
है।ख़ाकसार تھے۔رات 1
ब्रैडले تھے۔رات 1
मेरे وفا 0.00162654
वेहशत Linen 0.0833333
करते منحوس 0.000798793
होती سوچ 0.00604949
: گھستا 0.0815474
लगी جارہی 8.92621e-05
भी غالب’ 0.00016343
पानी شعرا 0.355071
गाली پد 0.0725084
आन لگی۔ 0.777662
साहिबा موٹی 0.0245346
चाहता رازداری 0.0103194
आप غالب’ 0.000663843
तो کرو، 0.00063604
ना عذاب 0.00425402
जाते کرو، 0.00926804
है?” دبتا 0.0355371
हज़रात! آج 0.767328
मुबतिला پورے 0.235517
या داروں 0.0120708
है।नून.काफ़. موٹی 1
चमगादड़ موٹی 1
रहते کرتیں۔ 0.00842133
भूक جارہی 0.479432
रशीद دروبست 0.129239
है।” سےباہرچلا 0.0158687
अक्कासी گویاکاناپھوسی 1
हूँ।किंग گویاکاناپھوسی 1
लियर گویاکاناپھوسی 1
(King گویاکاناپھوسی 1
का حنائی 0.000639246
लिए آسائش 0.000619565
जो کرتیں۔ 0.000382613
होता ورڈزورتھ 0.00841267
रहीं। کانسرٹوں 0.857685
ग़रीब آسائش 0.0204979
विलायती ‘‘یرقان 1
उनकी کرو، 0.0186835
ख़ातिर لگی۔ 0.199968
क़ाएल منی 0.0963443
दिया عذاب 0.00140127
हैं।किसी انجمن 1
तरह داروں 0.0098292
हूँ کرو، 0.00480232
कॉन्फ़्रैंस غلم 0.0601125
गुज़श्ता غذائیں 0.125013
करना (4) 0.00355983
भी بیٹھیں، 0.00245615
बे-नाम قیصرالجعفری 0.428571
कम وفا 0.00517215
बदली قیصرالجعفری 0.142857
“अफ़साने قیصرالجعفری 1
है ‘‘آج 0.000503561
था: دھماکے 0.620651
हूँ حنائی 0.00480239
थे کرتیں۔ 0.00251897
सिर्फ़ داروں 0.0625406
ग़ालिब:- سائے 0.00659782
बजे عذاب 0.0100943
“ज़रूर کےلکچر 0.0666667
आज ہجوم 0.00381443
तक ہجوم 0.00152786
देखता کرو، 0.196668
की عطر 0.000543496
बदली منزلیں 0.857143
लिए لیں 0.0111521
कुछ لیں 0.0290795
इससे آسائش 0.166667
बुरा حنائی 0.167629
जंत्री کشٹ 0.137095
कैसा تہذیب 0.423664
ऐन ہونےاوردھتکارنے۔ 0.500056
खाए شریف 0.502669
फ़रहत ‘تنک 0.102428
महर موٹی 1
है।जिसकी ۔مجھ 0.322409
नहीं, شہرمیں 0.266667
ने وحرفت 0.000426072
रखता لینڈ 0.0238544
तैय्यार (4) 0.0318688
लोग مقدار 0.0227351
नेक منحوس 0.0443736
साथ پڑجائے 0.00289021
‘दीवान-ए-ग़ालिब’ فراغت 1
यूँ والےیتیموں 0.0348833
जैसे آسائش 0.00548766
रिहाई (جو 0.666667
नेक لگی۔ 0.709978
इंसान لگی۔ 0.0795923
ने واحد 0.000940966
माह غذائیں 0.750018
क़द غذائیں 0.751512
लहजे منحوس 0.233333
एक واحد 0.00178855
नहीं ہےایک 0.000438531
ख़ुद ہےایک 0.0157843
बाद واحد 0.00846159
हैं اوران 0.0155604
खाए ماند 0.120353
बॉय میں39ء 0.00261736
बोला। میں39ء 0.13136
करे ہےایک 0.0926478
चंद غالب’ 0.0080896
मैं وحرفت 0.000486976
बाहर پڑی۔ 0.0177126
हुआ واحد 0.00529658
जाता واحد 0.00967441
उठने مستفیض 0.5
आने واحد 0.0617099
ख़ुदा واحد 0.057401
करवाना معاوضہ 1
पड़ा।” معاوضہ 1
अमरीका ‘‘غضب 1
आएगी, جاؤ 1
जापानी جاؤ 1
। کرتیں۔ 0.000118163
बल्कि ہےایک 0.0160397
दिली منحوس 0.0411897
है سوراخ 0.000167004
हिंदूस्तान آسائش 1
लड़की واحد 0.281537
या راکھ’’ 0.00268241
सुंबूल چوڑی،کان 0.461687
‘यादगार-ए-ग़ालिब’ فراغت 1
गई।” جھلا 0.633469
बे سوراخ 0.23477
घर طریقوں 0.0167293
बड़े ماغ 0.0200843
मयस्सर دفعتاًحاجی 0.0882357
क़िस्मत کرو، 0.635877
किया سوراخ 0.00265103
हो میاں 0.0174519
न میاں 0.0124449
ये تصویر 0.000787589
आप لایا 0.000947894
किया کھاؤ 0.00159457
के اب 0.0114534
हैं اب 0.0863233
जाए طبی 0.0102783
मुर्ग़ी پورے 0.869727
ग़ुस्ल ‘‘مگردوسرا 0.651133
उनको واحد 0.119064
तुम لایا 0.00335109
बावर्चियों جلوس 1
यलग़ार جلوس 1
मेरी طریقوں 0.00450493
हिसाब طبی 0.0282088
नाम نے‘‘آئینہ 0.0145918
साये ہجوم 1
क्या گوارانہ 0.000859223
मैं اب 0.050498
अभी طبی 0.0163412
जगा عذاب 0.125003
बोला لایا 0.0954706
वालों طریقوں 0.0792379
कपूर نےسوچا۔ 0.20148
मुहावरों ‘‘بھوکے 1
मौज़ूँ-व-ना-मौज़ूँ ‘‘بھوکے 0.124924
नौकर سوراخ 0.0375525
साफ़ منحوس 0.0168531
का ہوجائے۔ 0.00127852
बात ہوجائے۔ 0.00256445
कल دےکرہمارامخالف 0.00623867
जाने دےکرہمارامخالف 0.00595799
जनाब لایا 0.0227155
ऐसा میاں 0.0321057
जिस ہوجائے۔ 0.0089807
हूँ” براجمان 0.125
तक़्वा بولا۔ 1
साफ़ طبی 0.119698
इस نہیں 0.0123173
ने نہیں 0.0322466
साल مہم 0.032885
से نہیں 0.017248
पर نہیں 0.018166
वो نہیں 0.0334511
कि نہیں 0.00755406
ख़ुदा دےکرہمارامخالف 0.0103787
तो نہیں 1.04468e-06
हैं। نہیں 0.115348
का نہیں 0.0947873
की نہیں 0.0810307
दूसरे میاں 0.0521707
अमल تہذیب 0.408255
रहे نہیں 0.31558
गुनाहों منحوس 1
कहीं دےکرہمارامخالف 0.0131769
कहा گوارانہ 0.00287569
ये نہیں 0.0128155
तब راکھ’’ 0.0950498
होती پہچان 0.00653332
निशानी پڑجائے 0.333332
पर والاابھی 0.00111535
शाइ’र:- جائیگی 0.0874416
(बात جائیگی 1
रुपया ہےیاان 0.473684
है, ہوجائے۔ 0.0176611
शफ़ीक़ा لیتےہوئےنہ 0.0702394
दो।अब्बा منھ 0.93333
कितने دیکھئے۔ 0.0612853
बर्बाद گھنٹی 0.0675821
चुके گٹھے 0.125785
उस ...... 0.0099949
लीजिए। مکش 0.0492927
हैं।ये پڑجائے 0.0700581
सुर्ख़ ہجوم 1
बतलाए ‘‘محبت 1
मुर्ग़-ओ-माही ڈالر 0.166667
हाँ। ماغ 1
फ़िक्र-ए-शेर گھنٹی 1
तले ہجوم 1
था। کھلادو۔ 0.042762
? سوراخ 0.0199381
शेर طبی 0.017234
मुख़्ख़िर-उज़-ज़िक्र دفعتاًحاجی 1
अव्वल-उल-ज़िक्र دفعتاًحاجی 1
सहूलतें دفعتاًحاجی 1
दाना پڑی۔ 0.33961
बोले گوارانہ 0.0495323
की آپڑا 0.00019529
क्यों سوراخ 0.0894655
कॉलेज ولولہ 0.0681125
इतना چھاپتےہیں 0.0252264
रखता زہریلی 0.0954175
इकट्ठे کرتیں۔ 0.125002
? لایا 0.00856613
लड़कर کرتےہیں۔ 1
आपस انسداد 0.157894
कन्हैया نےکہا۔ 0.118623
रात گٹھے 0.052116
वो کرید 0.000529703
जाते کرید 0.00463402
आप صاحب‘‘سہرا’’ 0.000368626
फ़हरिस्त آسائش 0.0217882
शोअरा وفا 0.307696
करूँ عذاب 0.0439571
ईद کردے 0.6
बहुत کانکے 0.00185826
कहा کھولا، 0.00359674
जहान-ए-ख़राब باراوراعلی 1
यक-लख़्त ہوجائے۔ 0.23087
?” عذاب 1
बार صاحب‘‘سہرا’’ 0.00309018
फ़हरिस्त (4) 0.032685
ब्याहियों عطر 1
कॉन्फ़्रैंस عطر 1.11187e-05
पानी دریا 0.152954
भी شادہ 0.00026895
किताब آپڑا 0.0191903
हो خلش 0.000576912
हुए مصیبتوں 0.00353824
हैं خلش 0.000694577
ख़ुद مصیبتوں 0.015771
उर्दू آپڑا 0.0199882
जाती خلش 0.00880206
आब-व-हवा کرتیں۔ 0.0336516
गोशा-ए-चमन آسائش 1
मुलक آسائش 0.129021
ऐश-व-फ़राग़त آسائش 1
दूसरे کانکے 0.00243148
कोने جمعرات: 0.22929
मालिक ہوجائے۔ 0.428578
सहल لگی۔ 0.708861
सी وبرنصیب 0.0364863
अलावा کانکے 0.0136016
और کےگھرجائےگا 0.000153634
जैसे زندوں 0.0493888
बैठ کرید 0.0517037
मिर्ज़ा گوارانہ 0.00228715
तो لوٹو 3.23174e-06
दोहे ماند 1
तजवीज़ سکے۔ 0.116505
चीज़ لوٹو 0.0088521
नहीं لوٹو 0.000156045
वाला صاحب‘‘سہرا’’ 0.0116436
कोई لوٹو 0.000444516
इनायत واحد 0.734696
पहचानी لایا 1
ग़ायब لینڈ 0.124424
अब تھے،لیکن 0.000808872
में تھیں 0.00414162
हो کوشش 0.00275038
उसपर مہم 0.705882
ख़ूबी واحد 0.297781
शेख़ غوروفکر 0.285703
तो کوشش 0.00241698
कुर्सी کرید 0.0379261
आख़िरी آپڑا 0.0328895
दुनिया برسوں 0.0557292
दुनिया بیاہ 0.0247685
करके بیاہ 0.0859504
निहायत کھولا، 0.0111738
: کھولا، 0.0203869
हाँ, ماغ 0.458899
था। کوشش 0.162444
थे” موٹی 0.713927
आमादा آؤٹ 0.370378
ख़ुशहाली لیں 1
अब کوشش 0.00921818
अफ़राद دیکھئے۔ 0.57012
उनको مصیبتوں 0.0515929
जाता کوشش 0.0597197
मुआवज़ा صاحب‘‘سہرا’’ 0.162791
सारी بیاہ 0.109069
सही,मुश्तबा آمد’’کے 1
है।इन्हीं آمد’’کے 1
कब تھے،لیکن 0.0455001
लाओ। شعرا 0.879699
आया, شعرا 0.847818
होंगे مصیبتوں 0.0433195
कि مصور 0.000473864
अदबी کےگھرجائےگا 0.0566611
मैंने لوٹو 0.00386207
कांके غلام 0.13874
महफ़िल مسمساسا 0.116744
देखिए। غالب’ 1
यूँ ‘‘بس 0.0348833
कैसी تصویر 0.681481
ख़ुद مُنہ 0.00438083
उस پہنائی 0.00130818
शुक्र دریا 0.563765
शराफ़त پڑجائے 0.0108033
या مجنوں 0.000894136
अपनी بیاہ 0.00922018
यूँ مُنہ 0.00387592
जब برسوں 0.0187681
मिलने صاحب‘‘سہرا’’ 0.139373
नई لوٹو 0.0216324
सुब्ह تھے،لیکن 0.0256428
था پہنائی 0.000888091
फ़ख़्र-ए-ख़ानदान ہےایک 1
नहीं।” چلاتےوقت 0.0277469
इसपर مصیبتوں 0.406777
ढेरों وفا 1
आरडर्ज़ وفا 1
ऐसा کوشش 0.025598
मिलता صاحب‘‘سہرا’’ 0.166667
बुज़ुर्गवार بنا! 1
नान بنا! 1
वक़्त پہنائی 0.0015096
प्रोफ़ेसर لوٹو 1.7566e-05
मैं پہنائی 0.000173865
लेती پڑجائے 0.12903
हमें مجنوں 0.00306917
शाम جارہا 0.696681
इधर برسوں 0.7
ज़राए لگی۔ 0.425532
कोफ़्त سوچ 1
छे گھسیٹنے، 0.0615234
वाला سبزیاں 0.104792
नामों (4) 0.311649
हैं। رکھا‘‘بدنام 2.35949e-06
पी کانکے 0.0933259
मंगवा کانکے 1
मतलूबा کانکے 1
इंगलैंड ‘‘غضب 1
तरकीबों کانکے 1
नादिर-व-अनोखे کانکے 1
पकवान کانکے 1
हो,ये ‘‘غضب 1
नहीं ہے"۔ 0.000119795
कीड़े سیرکر 0.227679
वाला تھے،لیکن 0.0174653
" سوراخ 0.00132417
जानें سوچ 1
वसिय्यत کماحقہ،متمتّع 0.290323
राहत ‘‘مگردوسرا 1
" لایا 0.00113794
जाता।एक بولا۔ 1
पूछा“क्या ناجائز 0.240385
दर्याफ़्त سوراخ 1
मानने تھے،لیکن 0.428542
की?" کےمہربان 1
साहब پرند 0.00687478
अटकल سکے۔ 1
है: کھاؤ 1
कहने لگے: 0.00446648
“नहीं اکثرملاقاتیوں 0.110407
उल्टा مجنوں 0.0745674
बयान مُنہ 0.00879987
सेयह ہجوم 1
सदियों ہجوم 1
मरहूम مُنہ 0.00924753
रहा روپوں 0.0100989
" گوارانہ 0.000800436
को ہے، 0.0999674
हैं। ہندوستانیوں 0.0182662
ग़ालिब عاشق 0.0225861
ही ہے، 0.011318
नियती منحوس 1
तजज़िया منحوس 1
एक ہے، 0.0216423
11 ہونےاوردھتکارنے۔ 0.199964
10 ہونےاوردھتکارنے۔ 1
सख़्त مُنہ 0.0958904
भागता سرظفراللہ 1
अपना ہے، 0.282536
जब فالسٹاف 0.00625604
मेरे عاشق 0.0138684
ग़ालिब:- ماغ 0.00824749
सही شادہ 0.0821679
तरह,बिल्कुल پوپلے 1
ने بدگونے 0.000338115
“तो ہو(صحیح 0.123334
डाक्टर عاشق 0.0389211
मोजिज़ा پد 0.243243
आदमी پہنائی 0.0192445
ख़र्च ‘‘اوہو، 0.359505
किताब سن(Tennyson)کےکلام 0.0292955
“जी کےسینکڑوں 0.0129301
गोया کانٹےضرور 0.0443426
साहब لگے: 0.00206243
थी ہاؤس 0.0098644
लगे لگے: 0.0109828
पिछले خلش 0.0805409
मैं بدگونے 0.000279585
सिनेमा خواہشات 0.146943
वक़्त مشرقی 0.00726436
दूसरी ہندوستانیوں 0.301202
फेरा حنائی 0.817476
उठी।बहुत زمینی’’ہاں 0.5
भेज مجنوں 0.023783
“ख़ुदा کوہستانی 0.0541778
हीरा کھاؤ 0.0615761
समझता روپوں 0.608111
अ’र्ज़ کھاؤ 0.0491515
मिर्ज़ा مُنہ 0.00127133
मोटी رکھا‘‘بدنام 0.0918705
रहिमाना حماقت 0.648006
करती آئےہوئےافسانوں 0.0594758
फिर کےعہدرفتہ 0.00367232
जी:- کھاؤ 0.0216022
धुतकारने ہو،چلتے 0.999992
ने نجات 0.00130538
किसी نجات 0.0118342
भी نجات 0.00113766
सुबह آیا، 0.0896265
वक़्तन سرظفراللہ 1
फ़ौक्तन سرظفراللہ 1
ना-मुनासिब سرظفراللہ 1
कलमे سرظفراللہ 1
पिछला طبی 1
दिया آیا، 0.00980868
चाहिए آدھے 0.174781
मुताबिक़ مُنہ 0.0249554
मुख़ालिफ़त, پد 1
बहस-व-मुबाहसा پد 1
थीं,वो شریف 1
घाग پہچان 0.0357497
हाशिम ٹم 0.233583
अज़ीमाबादी ٹم 0.363108
मुनफ़रिद پہچان 1
शख़्सियत پہچان 1
शहर گزرے 0.0230942
हूँ। آئےہوئےافسانوں 0.0867193
ख़्याल عاشق 0.166318
उस ترنم 0.00996178
इस چاہیے 0.000327308
बात ترنم 0.00329706
जी جاگنا 0.0100386
जो مرے۔ 0.00688702
सब سےعلیحدہ 0.00999617
तर्जुमानी نہیں 1
अब ترنم 0.00207996
हँसने درجن 0.364885
कलाम عاشق 0.0453233
एक مقصد 0.00193769
नाजायज़ لگی۔ 1
है,वो سوچ 0.076193
कपड़ा دریا 0.637911
होनी عاشق 0.131845
सलाम ہاؤس 0.101272
आया جاگنا 0.0137199
बैठे سےعلیحدہ 0.0126797
किताब نجات 0.0374544
मगर کےقربان 0.0119206
ग़ायब خلش 0.198863
कीजिए آیا، 0.326584
इसार لگی۔ 1
मे اشارہ 0.583333
मिर्ज़ा لگے: 0.0022884
आया چاہیے 0.0205859
दिया معرکۃ 0.00490429
गुज़ार دریا 0.759036
पढ़ना کےمذہبی 1
हैं بہتر— 0.000375328
मुझ اوڑھ 0.0254741
शक्ल نجات 0.13851
किताबी سیرکر 1
मौला حلقے 0.42771
उठते کرسی، 0.5
है----!)भरके کہتے۔ 1
एक اطمینان 0.000645897
तिजारत برسوں 0.9
काम دریافت 0.0152603
हो غرض 0.00504459
है بعد 0.026122
बार-बार حاضرین! 0.0232572
कि بعد 3.56128e-06
इसी لیٹےلیٹےان 0.0174687
एक بعد 0.0111874
जान بہتر— 0.0027857
बे-दम حاضرین! 0.5
सुबह گاڑ 0.044813
मिर्ज़ा عاشق 0.00541989
इंक्शाफ़ ہوجائے۔ 1
सुकून حاضرین! 0.19048
लेता دریافت 0.0288513
जा چالان 0.0124195
बोले, ہے"۔ 0.616199
आते دریافت 0.0366294
सकता غرض 0.0900452
पीछे اطمینان 0.0351293
सही کانٹےضرور 0.0611825
क्या کرباقاعدہ 0.00430985
ज़्यादा عاشق 0.0996023
हो(सही راکھ’’ 1
हुदूद-ए-अर्बा لینڈ 0.0617284
गई بہتر— 0.00489297
अव़्वल چاہیے 0.794166
“कुछ شادہ 0.251253
इस شعلۂ 0.000244806
हूँ اطمینان 0.00426873
मिर्ज़ा بدگونے 0.0038234
इंतक़ाल کردے 1
मसाले,दूध,घी,मक्खन,मिठाई روٹی، 0.5
अपनी دریافت 0.0107569
है رہا۔ 0.00120226
किसी تھی۔ 0.0314312
अब شعلۂ 0.00165016
हो تھی۔ 0.0191333
अपने ہائی 0.0077276
फिरते اورہیں—! 0.166589
है,ये صاحب‘‘سہرا’’ 0.119292
है,गुज़श्ता صاحب‘‘سہرا’’ 1
बाद تھی۔ 0.0607266
चंदाँ کانٹےضرور 0.692308
ख़्याल جاگنا 0.0594894
नौजवान ترنم 0.0933659
जाता رہا۔ 0.0098034
गया تھی۔ 0.0596463
हैं: عارضۂ 0.0538459
मगर موبائلیا 0.0596028
बेगम عارضۂ 0.0353458
जगा آیا، 0.874997
मोहतरमा عارضۂ 0.000194769
लिखती عارضۂ 0.0667109
आरिफ़ा عارضۂ 1.07783e-05
जमोई عارضۂ 1
क़रीब بیوی) 0.214618
कलाँ مجنوں 1
उनके تھی۔ 0.173279
ने تلک 0.000109042
दिखाने غفلت 0.0829727
जा سنبھالے 0.0124195
चलते جاگنا 0.281602
99 حنائی 1
हुए تلک 0.000987418
निनानवे حنائی 1
साल چاہیے 0.0281955
वक़्त گزرے 0.0480853
अपने تلک 0.000862623
" ہے"۔ 0.0077514
है।उसकी معرکۃ 1
किया تلک 0.000890002
बड़े گزرے 0.282987
कलेक्टर پرند 0.666667
मुक़द्दमा پرند 1
मुल्की کرتیں۔ 1
सीने کےقربان 0.642857
रोज़ گاڑ 0.158285
बा-वजूद کرتیں۔ 1
ग़ैर- کرتیں۔ 1
आर्डर مجنوں 0.0821232
ग्यारहवीं چاہیے 0.794166
दुरुस्ती کافائدہ 1
अतआ کافائدہ 1
करे।और کافائدہ 0.75
पाकिस्तान تھیں 0.972973
हुआ,जिन्हें کردے 1
बक़्र-ईद کردے 1
सालिम-व-साबुत کردے 1
गोया رہا۔ 0.165911
। اطمینان 0.000236329
सुनने ہےجیسےگھروالوں 0.216852
कर دیتیں۔ 0.000153374
कुछ دیتیں۔ 0.000808527
तक دیتیں۔ 0.00118646
उठाता اطمینان 0.500046
ग़ैज़:- لوٹو 0.0567172
। بعد 0.0410193
तो گارہی 0.00381625
कांग्रेस (4) 1
किया دیتیں۔ 0.000886722
बकता اترا۔ 0.624946
आता کےخلاف 0.0328076
लिखी। لوٹو 1
रह ریاض 0.159479
ही جائیے۔ 0.000303933
काम جائیے۔ 0.00392411
करने جائیے۔ 0.00335701
देते کرے 0.0698022
“जी معززین 0.0129301
की کرے 0.00101603
तुम معترض 0.0234576
नाक़ाबिल-ए-बयान سوچ 1
है,यक़ीन سوچ 1
तर اکتا 0.0770181
जो ہےاورگلہری 0.00344351
आप کرے 0.00309643
प्यारी بہتر— 0.0551251
घोंसले پڑی۔ 1
थी।चिड़ा پڑی۔ 1
चुगने پڑی۔ 1
है। جائیے۔ 0.000651217
बाज़ार گزرے 1
मास्टर تلک 0.091294
लड़िए, دےکرہمارامخالف 1
कलां دےکرہمارامخالف 0.470977
था।विलायत واحد 1
करते کرے 0.00670981
ऐसे مہلت 0.00733539
जब کہی، 0.0125121
सद्र حاضرین! 0.307681
पास کرے 0.0234528
छोड़ کرے 0.197991
जाएंगे।लेकिन تھے،لیکن 1
करने ہوگئی—! 0.00186499
। رہا۔ 0.000994951
तसनीफ़ مہلت 0.0398412
मुँह ہوگئی—! 0.0271339
इसे کرے 0.132858
छे عذاب 0.0087893
और امیر 1.09648e-06
कि امیر 9.19354e-05
ख़ुराक دریافت 0.776701
जा اردے 0.0124195
बंद چلنےکےبعد 0.0168913
होने چلنےکےبعد 0.00302329
यहाँ دیتیں۔ 0.0055661
क्या دلیل 0.00172315
जी ہوگئی—! 0.00390388
मौज़ूं عاشق 0.411888
उलट اشارہ 0.875
की لائق 0.000607615
आदमी رہا۔ 0.173244
प्यारी گیدڑ۔ 0.00148091
लेने ہوگئی—! 0.0239476
इसलिए چلنےکےبعد 0.0191269
ताज़ा اکتا 0.0682645
बात نےاس 0.00341917
उसे دلیل 0.0196553
छोड़कर حرف 0.322403
गुज़ारा پڑجائے 1
बिस्तर حرف 0.373521
है। نےاس 0.00289428
मनी مجنوں 1
दे! مجنوں 1
अखिल مجنوں 1
क़ुर्बान عاشق 0.105967
“भाइयो!मैं کےعہدرفتہ 1
छुपाए کےقربان 1
उस्ताद تلک 0.0538796
हूँ امیر 0.00193216
देखता–देखता قلمیں! 1
अंग्रेज़ो قلمیں! 1
उसकी دکھایا 0.0110236
‘ग़ालिब دیکھئے۔ 1
कमेटी’ دیکھئے۔ 1
राय سےدیکھنےلگے،برابرایک 0.0491937
महबूब دکھایا 0.0162317
हुसैन عاشق 0.0553932
ये نکھٹو 0.000791162
वाले ہوگئی—! 0.0102987
वो جنبش 0.000605375
आया نےاس 0.0213421
सिर्फ़ لائق 0.0127261
“तो دلیل 0.0493394
लाल تلک 0.0119361
नहीं। دکھایا 0.0147646
लगता چلنےکےبعد 0.015678
लोग ہےکسی 0.0146514
पर्चे سےدیکھنےلگے،برابرایک 0.109185
था جنبش 0.00122142
आँख نےاس 0.057131
हर جنبش 0.00292372
दोनों ہوگئی—! 0.00467648
सिपाही ہاؤس 1
ये ہےکسی 5.27597e-05
लग جنبش 0.100169
मसला دکھایا 0.242472
मालूम چلنےکےبعد 0.00256976
नोक لینڈ 1
हाफ़िज़” کوہستانی 0.0307571
किए مہلت 0.0185844
खाँसते حاضرین! 1
गए।जब حاضرین! 1
क़द्रे حاضرین! 1
पुकारने حاضرین! 1
हमारे کرے 0.0315143
झलकियाँ غالب’ 1
प्यारे تلک 0.0286662
कलाम دیتیں۔ 0.0106416
होता تکذیب 0.00341698
अपनी دکھایا 0.0030734
इल्म-ए-कीमिया ...... 0.415201
आवाज़ آیۃ 0.0778258
कि چمکیلے 9.24677e-05
genuine شہرمیں 1
हुई چمکیلے 0.00735123
कहना شباب۔ 0.0477263
या اسکیم 0.00804722
बात "اب 0.00170959
चारपाई سےعلیحدہ 0.00990034
बेवाएँ مُنہ 1
इसी چمکیلے 0.00702998
टीले والاابھی 0.00625475
लिए "اب 0.00123584
मीम-नू-अरशद:- عاشق 0.0497428
इब्तिदा عاشق 1
चाहिए...... عاشق 1
आदमी جائیے۔ 0.0185215
ख़ालिस:- عاشق 0.241705
है; عاشق 0.0976066
दी تکلیف 0.0612581
जाने ‘‘صاحبو! 0.0118991
ला-उबालियाना کھولا، 1
बहुत "اب 0.00371653
जो تکلیف 0.00344728
अब دار 0.0067973
अब تکلیف 0.0097146
बयासी (4) 0.14476
भी غالب’رکھ 0.00163743
रखे توفحاشی 0.271707
उठकर گاڑ 0.428572
भी اسداللہ 0.000157973
सुनाने مسمساسا 0.172308
मैं دار 0.00117193
ऐसा تکذیب 0.00273709
जगह دکھایا 0.020343
जब تکذیب 0.00254115
हूँ। مہتر، 0.173438
अहमद فیکٹری 0.0213097
इंतिज़ाम سیٹ 0.249374
ज़ोर "اب 0.0847575
समझते ہےکسی 0.116195
है,और تکذیب 0.0996978
सिर्फ़ "اب 0.00463264
हैं।इतनी گٹھے 1
रंज چھاپتےہیں 0.818182
होंगे ہےکسی 0.0697914
क्या مانند 0.0019149
समझाने "اب 1
मशहूर دار 0.172644
इसके تکلیف 0.0687453
चक्कर اسداللہ 0.155947
शाए ہوگئی—! 0.0280255
थी। تکلیف 0.095722
कलाम نےاس 0.0425256
अक्सर امیر 0.0305035
घरौंदे لیٹےلیٹےان 1
हज़ार مہلت 0.107547
उन "اب 0.00235576
मुरब्बा کمین 1
आम نےاس 0.0921301
सरकारी کےگھرجائےگا 0.646669
थी چیخ 0.0198059
ही خامہ 0.000555367
मैं مانند 0.000371878
ख़ुद خامہ 0.00720422
रंजीदा گزرے 0.142857
डाक्टर مانند 0.0365199
महसूस دیتیں۔ 0.0522642
उन्हें فرمایا: 0.0172048
थीं تکلیف 0.0652707
तरह چیخ 0.00866878
दरयाफ़्त سےدیکھنےلگے،برابرایک 0.0886185
अपने خامہ 0.000667639
लतीफ़े مسمساسا 0.163531
नहीं جی.....!’’ 1.30301e-05
तकियों کرے 0.330709
आप لٹک 0.00018975
हुदूद-ए-अर्बा سرما 0.246914
और موج 3.4074e-07
पर موج 6.46349e-06
किस چیخ 0.0287516
को چھوڑا 8.4861e-07
मसीहा ‘‘رستم 0.554855
हैं।हम کرے 0.893616
तक آزادی 0.0128015
बाहर فرمایا: 0.00983938
इसी آزادی 0.041925
है। جی.....!’’ 1.39972e-06
पच्चू سکے۔ 1
किया آزادی 0.00956745
जाने موج 0.000647858
तक چھوڑا 0.0053328
मैं لٹک 0.00162553
पिछली تھی۔ 0.983505
साहब حسد 0.0206243
कर بڑی 0.0333103
दो جی.....!’’ 0.00436693
रेडियो جنبش 0.0397228
रहे بڑی 0.126953
है। اعتراض 0.00488409
मेरे چھوڑا 0.00487854
साहिब مانند 0.0510679
अनोखी تصویر 1
बात! تصویر 1
ख़ालिस مانند 0.308443
। "اب 0.000236329
देता "اب 0.00804264
जिसमें جنبش 0.0385749
दिखाया,उसे ‘‘رستم 0.09182
सिरसी رہیں 0.384615
ढाई جی.....!’’ 0.267508
वैसे خامہ 0.302047
पहुंच دیتیں۔ 0.0139768
है।हमें ترنم 1
देखने بدہن 0.0413366
किसी جائیں۔ 0.00414929
लोग جائیں۔ 0.019951
ही جائیں۔ 0.00265895
वाक़ई دھوکا 0.0781998
तुम "فون 0.0019548
ठंडक خامہ 0.593788
“मेरे ‘‘صاحبو! 0.0715582
जो بہانے 0.000860878
मचा غیظؔ 0.899905
कभी میلہ 0.00374474
दबा دریافت 0.7
बहुत بہانے 0.00418109
दो میلہ 0.00294848
हैं। ماننداُسےبلاتا 0.00104359
बाहर جائیں۔ 0.0516362
हूँ کردو"۔ 0.00139367
किसी بارمیں 0.0094888
हाँ کردو"۔ 0.00454565
आ کھلنڈری 0.0120942
अरसे اشارہ 1
ख़्वाह میلہ 0.260846
काज़िया نومولود 0.500927
हुए "اچھا۔۔۔ 0.00098284
चुके ماننداُسےبلاتا 0.026949
खाना آب 0.0282083
बताइए شعلۂ 0.25374
नोच ہوگئی—! 1
रफ़्ता-रफ़्ता کےقربان 0.375
पहचाना رہا۔ 1
कुछ جائے(ذرا 0.00726979
जितना آزادی 0.338003
हुआ "اچھا۔۔۔ 0.000637545
सखियां بہتر— 1
स्टार्ट کوشش 1
लाया کردو"۔ 0.0684129
मौत دھوکا 0.0805027
तीन میلہ 0.00677229
मुस्तनसर ‘‘تارڑصاحب’’نسیم 0.247317
तारड़ ‘‘تارڑصاحب’’نسیم 0.00272634
उन لیکن۔۔۔ 0.00117788
से بولی 7.11294e-05
इतवार گزرے 0.11114
शौहर آب 0.0201766
को।सभी گزرے 1
थे।(बक़ौल-मिर्ज़ा,दफ़न گزرے 1
मैय्यत گزرے 0.625
चबूत्रा سدھورجاتے 1
था,जहाँ سدھورجاتے 1
की بولی 0.000467868
एक بولی 0.000227916
मैं "اچھا۔۔۔ 9.29661e-05
ख़ैरियत چمکیلے 1
तुम "اچھا۔۔۔ 0.0013032
वाक़यात مہلت 0.0528377
मरहूम دھوکا 0.0312104
मैं کوالبتہ 0.000836694
ऐसी "فون 0.00725111
चुप "فون 0.0106207
नक़्शे غفلت 0.827587
निकलते جائیں۔ 0.15412
यार جائیں۔ 0.0543695
जान بولی 0.00541983
दुआ مندی 0.184036
।" کرے 4.38901e-06
है, "اچھا۔۔۔ 0.00588688
था।हर گاڑ 1
हुआ। آب 0.0287743
हा مہلت 0.454545
न توتعزیتی 0.000580439
अज़ لیکن۔۔۔ 0.00821227
कभी 31 0.0112536
कभी ڈاکٹرکےیہاں 0.0225072
नहीं بستر 0.00154006
है کدھر 9.80472e-05
इंच کمین 0.692308
बे-ज़बान بولی 1
वैसे "اچھا۔۔۔ 0.183672
हाय کدھر 0.0209385
। کردو"۔ 0.000153661
चीज़ें بستر 0.044446
धोबी امیر 0.00509997
जानता।” اکثرملاقاتیوں 0.000433914
पाता। لائن 0.461538
लगी کدھر 0.0280738
और سوشل 0.000823451
है। موڑ 0.00144717
जैसे "اچھا۔۔۔ 0.00548764
हुज़ूर کردو"۔ 0.131478
मोटर-कार لگے: 1
हो سےلےگئیں۔ 0.000719909
मत میلہ 0.0857411
हसन لاکراس 0.0626607
हम موڑ 0.00431926
अंजुमन کمین 0.304347
आम لیکن۔۔۔ 0.0230325
ही معاملات 0.000379631
भूक کدھر 0.0638417
रहते بشارت 0.018948
कान بشارت 0.052138
पैदा موڑ 0.0188069
है। ذرااس 0.00108535
दे امتیاز 0.0368691
तक جسمانی 0.00237065
सब خدارکھےمیرےجوان 0.00599771
मैं مہینوں 0.000836739
पा ماننداُسےبلاتا 0.0884372
लाला جاگنا 0.0964867
मुझे دہراتے 0.00906645
बना।हिंदोस्तान ہےاورنہ 1
बे-रब्त دیتیں۔ 0.470826
सोचता امیر 0.11506
गोद چھوڑا 0.714241
दो معاملات 0.004421
दोस्तो!न ‘‘صاحبو! 1
कितनी کدھر 0.0951416
आए بمع 0.0285199
किस جسمانی 0.0286397
खाना خدارکھےمیرےجوان 0.050775
इंसानों لائق 0.379212
बढ़कर سےلےگئیں۔ 0.818599
बुलालूँ خدارکھےمیرےجوان 1
मिलकर خدارکھےمیرےجوان 0.230772
खाना। خدارکھےمیرےجوان 1
अच्छा معاملات 0.0145173
ऊपर معاملات 0.054031
बर ماننداُسےبلاتا 0.177663
छुट्टी کرے 0.616899
सबख़ाब-ओ-समूर حرف 1
संजीदा دریافت 1
खड़े بشارت 0.0218868
ला بستر 0.792453
डकार گیدڑ۔ 0.32226
हिंदोस्तानियों موڑ 0.228687
(क़हक़हा) کانٹےضرور 1
है।आज "فون 0.130435
हैं।” بشارت 0.00988336
दिया سلانا 0.00980867
एजीटेशन اکیلے 1
फिरते پاوں 0.166589
कट-आफ़ بیاہ 1
ब-ख़ुदा سکریٹری 0.183481
लालच 31 1
बूढ़ों چیخ 0.0536739
ब-लिहाज़-ए-शोहरत:- کےگھرجائےگا 1
उमूमी- کےگھرجائےگا 1
बे-चैनी چیخ 1
कमरे جسمانی 0.0596126
वक़्त ماننداُسےبلاتا 0.0206308
1- مشغول 0.138189
ख़त्म آب 0.00731025
डाल معاملات 0.0515624
(2) ارہر 0.104193
ओढ़ना موڑ 0.499999
बिछौना موڑ 0.499999
पूरी دارفانی 0.0694281
मांद اکتا 0.201166
शाख़ اکتا 0.00231186
नहीं ڈالو!!’’ 0.00021824
और سہارے 0.000180826
हो سہارے 0.000160938
है جاتی۔ 0.000188236
में جاتی۔ 6.43299e-08
ये ڈالو!!’’ 0.000154246
का جاتی۔ 0.000509117
होगी بستر 0.266635
कहने جاتی۔ 0.00906709
कोशिश آمدبہارکی 0.0390093
जो جاتی۔ 0.0014148
आप جاسکتی 0.00995301
था! چلنےکےبعد 1
वारदात چلنےکےبعد 1
“ताला چلنےکےبعد 1
तोड़ने” چلنےکےبعد 1
बाक़ी مُسافرت 0.0701867
पढ़ سوتے، 0.0367399
से اکیس 0.00109296
हमको لیکن۔۔۔ 0.0278264
है اعضائے 0.000332633
उनकी سہارے 0.00416606
नहीं ‘‘لفٹ’’کا 0.000274779
हो ابھریں، 0.000164826
मैं جاسکتی 0.000836662
सफ़्हे ڈاکٹراقبال 0.298996
की ابھریں، 0.000964293
कोई ‘‘لفٹ’’کا 0.000775344
हैं فرہاد 0.00172894
रात سوتے، 0.026058
यूसुफ़ी مایوس 0.143736
फांसी دلیل 0.343817
पहुँच جسمانی 0.28169
ने ناک 0.00408098
को ناک 0.00771092
500/00 ‘‘اوہو، 2.11569e-05
पुश्तों نجات 1
ज़ब्त-ए-नफ़स دریافت 1
एतिदाल دریافت 1
वग़ैरा। شراب، 0.763636
मुझको آمدبہارکی 0.0271389
स्टेशन جنبش 0.343675
जवाब ‘‘لفٹ’’کا 0.010865
टब اوڑھ 0.0722426
नहाऊँगी।अब्बा اوڑھ 1
सवार "اچھا۔۔۔ 0.0446949
ले تاریک 0.0286721
दिया। ‘‘لفٹ’’کا 0.0470785
क्या بیلن 0.000718308
आए فضیل 0.00950662
ताज़ा-ताज़ा” خریدتا 1
इज़ाफ़ा سہارے 0.108432
पीछे, اطمینان 1
में ۔اس 0.00310622
मेंढ़क ارہر 1
कहा تاریک 0.0107902
होगा।” ڈالو!!’’ 0.191137
“देखने سےطربیہ 0.501815
पड़ना اسداللہ 1
आवाज़ جسمانی 0.0172946
मीम-नू-अरशद:- دار 0.146766
होता نسل 0.00336507
वाली فضیل 0.100183
रखते! فالسٹاف 1
आम ہوسٹل 0.207293
बीवी ناک 0.0790668
" کردو"۔ 0.00109565
का ہے۔‘‘لومڑی۔ 0.00127859
बाहर سننا 0.00984036
न اوردرندہ 0.000217665
आ اوردرندہ 0.00151178
भी اوردرندہ 0.000102337
हुई اوردرندہ 0.00456677
हिन्दोस्तान دار 1
चेहरे بچار 0.173391
सुनती آب 0.134616
मेहनत سوتے، 0.1791
बद-ज़बानी آب 1
बदतमीज़ी آب 1
सहती آب 1
का توسہی 0.00127859
है,वो تھی۔ 0.908568
का پہلےہم 0.00127859
नहीं بدلیں۔آخر 0.00015715
होती اوردرندہ 0.00136112
का। فخرکائنات 0.142844
लिखती دارفانی 0.0841756
जूते بچار 0.34632
याद فضیل 0.00802604
करख़त کرےگا۔اورنئی 0.818182
अरशद مانند 0.0747885
:- مانند 0.666675
कहूं। مانند 0.0787332
स्विट्ज़रलैण्ड غفلت 0.35971
मिलने آمدبہارکی 0.250871
तजरीदी بدہن 0.646154
ख़ुद اشغال 0.0197137
अजी مانند 0.107379
ले بدلیں۔آخر 0.00273071
चीख़ سہارے 0.0677852
ऐसा نسل 0.00539077
शाएद اعضائے 0.246705
देर اوردرندہ 0.00765814
बिदेस کوک 0.0247436
रे کوک 0.641328
तुम بدلیں۔آخر 0.00167556
हो چیزیں 0.00397155
या چیزیں 0.0221307
हैं।” نسل 0.0158134
“देखिए ڈالو!!’’ 1
पतरस اشتہاروں 0.00435773
बुख़ारी اشتہاروں 0.157726
कोई چیزیں 0.0170505
शौक़ جاتی۔ 0.164758
गुड़वयों اشارہ 1
गिड़ اشارہ 1
पड़ने, اشارہ 1
देगचियों اشارہ 1
जाने, اشارہ 1
दरवाज़ो اشارہ 1
मुलाज़िम اوردرندہ 0.111112
धमकता। اوردرندہ 1
सुनिए بہانے 0.599985
मुअम्मर بہانے 1
निकला سننا 0.265823
मन جی.....!’’ 0.0424003
है ہوتی—! 5.57453e-05
होता ہوتی—! 0.00093566
फड़कना نےاس 1
रुख़सार, نےاس 1
का ہوتی—! 0.000141601
लोग ہے۔سوائےاس 0.0227351
नई بدلیں۔آخر 0.0215554
कुछ ہوتی—! 0.00080856
दरअस्ल فخرکائنات 0.0428777
क़िस्म ہوتی—! 0.00413556
शब-ए-ऐश موج 0.826172
इसी ہوتی—! 0.00388581
गुंजाइश ذرااس 0.75
बर्फ़ اسداللہ 0.644869
कहिए,बड़ी چمکیلے 1
को مفت 0.00695288
हो کائنات 0.000160431
दूसरा فخرکائنات 0.0125534
हुई مفت 0.0438385
मज़हब موڑ 1
इसीपर موڑ 1
पुलिस سم!’’ 0.0943397
वही سننا 0.0213154
दर्जा اشغال 0.0784312
था। مفت 0.0513118
था مفت 0.0051297
फूंकें دکھایا 0.4
मारेंगे। دکھایا 1
बिनाई دکھایا 1
हुआ مفت 0.0206554
थी مفت 0.03551
जापान اخبارنویس 0.333305
से....” اخبارنویس 1
भाग سہارے 0.0452671
बाहर مفت 0.0354289
ख़ामोशी "ہوں" 0.015919
किस وابستگی 0.0429595
बात اف! 0.00153863
ने دوسرےتیسرےدن 1.45983e-06
जब ہوتی—! 0.00139161
लिया سم!’’ 0.00733268
और جھوٹا 0.000140337
उठ ساڑھیاں 0.120556
की جھوٹا 0.000257733
उन्हें پڑی، 0.00580185
जाएगा। کائنات 0.0124906
चार سم!’’ 0.00722557
बजाए پڑی، 0.0169136
तख़्ते دلیل 1
है کبوتر 6.30146e-05
हिम्मत جھوٹا 0.052408
पर کبوتر 0.000240748
उसको کائنات 0.00441223
किसी دیا 0.135443
ग़ुर्ज़ توفحاشی 1
साहब "ہوں" 0.00205978
वो دیا 0.0793536
एक کبوتر 0.000981735
हैं।एक فخرکائنات 0.0886076
गई।” بولی 0.155375
गुज़्रे شبینہ 0.328908
जाईए کرے 1
ग़ौर آزادی 0.379862
" معاملات 0.000996757
कहते ہرگام 0.0128907
लगी کبوتر 0.142643
रक्खेगी। کےقربان 1
इनहिसार اعتراض 1
मेरे کبوتر 0.0091451
कि جاتےہیں 0.000947727
उसकी صراط 0.00708661
कहना پڑی، 0.00530293
चीज़ صراط 0.00882049
मुख़ातब "ہوں" 0.019551
भी جگے 0.000818717
किसे ہرگام 0.735714
है—!! چاہیے 1
भूक کبوتر 0.342117
पूछने اف! 0.0569617
वहाँ معمر 0.0478777
मैंने دیے 0.0107752
कुछ انسانی 0.0193861
किताब دے۔نمازپھرپڑھ 0.0292955
ये معمر 0.000263721
क़िस्सा کائنات 0.142289
मुतअद्दिद سےدیکھنےلگے،برابرایک 1
बे-वक़्त دھوکا 1
अपना انسانی 0.0505939
दौड़ سہارے 0.0975217
पुकार سہارے 0.437777
हूँ ہوجایا 0.00960463
पढ़ने سننا 0.6
लाशे چھوڑا 1
गाने جسمانی 0.181831
देते لیتے، 0.0124658
करो। آمدبہارکی 1
सुनाई مفت 0.620522
बाद ہفتوں 0.00458337
इन مینو 0.0275234
जाने ہفتوں 0.0178489
इरादा سننا 0.143723
पाक کائنات 1
कबूतर کبوتر 0.406527
है آواز 0.00123706
तक़रीब گیں۔ 0.0552502
महज़ پڑی، 0.129046
भी آواز 0.00198288
लोग آواز 0.0551153
चीख़ مفت 0.729551
हुए آواز 0.0428875
कुर्सी دیے 0.0606818
? اف! 0.00599625
ख़दशा توتعزیتی 0.25
रहा।!! توتعزیتی 1
आगे ہفتوں 0.078253
सी ’’اللہ 0.0364863
“क्या ذوؔق 0.00450489
दोनों مینو 0.0280589
चलन پےدرپے 0.200893
तुम्हें دوسرےتیسرےدن 0.266426
ख़याली فخرکائنات 1
इंतिसाब بدہن 0.0063758
एक ہماری‘‘جنرل 0.000968846
“अरे صراط 0.013932
वो ہوسکا۔ 0.000732325
तो ہوسکا۔ 0.000339106
थे لیتے، 0.00377877
मिर्ज़ा "ہوں" 0.00228908
हमेशा ہوتی—! 0.0201252
कॉम्प्लेक्स لائق 1
इजारादारी لائق 1
ख़्याल کبوتر 0.38234
को جھٹپٹا 3.80846e-05
ऐसे آواز 0.106707
—एक جی.....!’’ 1
रही ہوسکا۔ 0.0131003
कभी کانمبر، 0.00562683
हाथ جاتاہےان 0.0480186
मैंने کواس 0.0404069
रिश्ता ڈالو!!’’ 0.0210799
की خالص 0.00435423
मालूम ہفتوں 0.0115635
फ़िट سم!’’ 0.134644
कहा کانمبر، 0.00359667
वह لیتے، 0.00753588
आई اورچونکہ 0.0361929
सफ़ेद لیتے، 0.600021
जंत्री ضرورہوجاتا 0.172576
दर-पेश فخرکائنات 0.0501792
है?” کانمبر، 0.00888433
हो سہی، 0.000861385
सब سہی، 0.0180188
हो البتہ‘مختار 0.000240646
काम سہی، 0.011789
का البتہ‘مختار 0.000213097
कपूर سےمتعلق 0.40296
वाक़े رسی، 0.0158436
का مرزا۔ 1.85706e-05
रहने لیتے، 0.0451761
न روایات 0.00104479
कहने مرزا۔ 0.022008
नत्थूलाल تلک 0.502391
बड़ा بڑاعجیب 0.0354673
हों। رسی، 0.4
है نےاپنی 0.00201424
निकली مفت 1
अजीर्ण تکلیف 1
मआर्के فخرکائنات 1
स्वराज فخرکائنات 0.142857
रौशन فخرکائنات 0.0408163
मसलन بڑاعجیب 0.0241876
जाता البتہ‘مختار 0.00174675
है। البتہ‘مختار 0.000542677
मुतअल्लिक़ ذرانشہ 0.109505
कराची سم!’’ 0.333333
मिर्ज़ा کبوتر 0.0124595
आरास्ता کرے 1
ग़िलाफ़ों کرے 1
जाएगा سہی، 0.271639
जाएं।फिर کرے 1
माँग مندی 1
होती روایات 0.00653332
वर्फ اسداللہ 1
कौन جسارت 0.0450019
दे।क्यूकि لیکن۔۔۔ 1
कहा, معاملات 0.0100373
उठवा لیکن۔۔۔ 1
द्वा-खानों لیکن۔۔۔ 1
हद-ए-तंदुरुस्त لیکن۔۔۔ 1
करदिया لیکن۔۔۔ 1
लगाइए, میلہ 1
मोहतरमा مجرب 0.0611049
हिसाब نےمجھ 0.0338496
ठीक سہی، 0.0502451
काग़ज़ نےمجھ 0.0136131
हैसियत غزل’’کا 0.088889
सी غزل’’کا 0.00405403
ने کھا 0.00383861
चंद بڑاعجیب 0.00449207
“अफ़सोस!किसान بولی 1
बे-वक़ूफ़ी بولی 1
बाद کھا 0.0343247
बनवाया ہوا۔’’ 1
और...........” ہوا۔’’ 1
जाने کھا 0.133668
क़लम نےمجھ 0.0741832
मालूम روایات 0.0138767
पटक نےمجھ 0.00705629
धोबन نےمجھ 1
निकालो।" فرمایا: 1
अली راجندر 0.318582
सबसे بڑاعجیب 0.0180832
एक کرادیجئے۔’’ 0.000138402
इज़ाफ़ा البتہ‘مختار 0.162095
ने باچھیں 0.000387427
गई ہرچند 0.0032199
अपनी غزل’’کا 0.0015367
गा ہوسکا۔ 0.0392817
मैं کھا 0.00313369
में مجرم 0.00103541
दिया ملا 0.117704
गीत کبوتر 0.200137
लीजिए کرادیجئے۔’’ 0.0160428
“हाँ ہوسکا۔ 1
हैं,कभी بچار 1
एक ہے؟’’ 6.13638e-05
थे الماری 0.0226707
ने کلام 0.00576227
वो کلام 0.0119252
लतीफ़ा لٹا 0.0917311
नहीं کلام 0.00311714
लंबी کرادیجئے۔’’ 0.104651
तनव्वो ذرااس 1
चारपाई کائنات 0.00330012
आप کلام 0.00933801
चिड़चूँ "فون 1
चूँ।क्या "فون 1
शेर البتہ‘مختار 0.017234
मुख़्तसर غزل’’کا 0.0310436
तरफ़ مریض 0.0183904
तरफ़ کلام 0.138007
कहा باچھیں 0.002973
समझते غزل’’کا 0.0200338
गदहे نسل 0.255319
साँप کائنات 1
होती کلام 0.0306426
डस کائنات 1
लेगा کائنات 0.5
घुंघनीया بہاتاہےاورمیں 0.5
हालाँ نسل 0.782584
बार ہے؟’’ 0.0179539
जो پردل 0.00344351
व بھلے۔ 0.0364631
आलू پڑی، 0.0959233
पर مرتبہ 0.00539227
हुआ حفظ 0.00286895
पर پڑھ 0.00407764
न پڑھ 0.00313383
भी پڑھ 0.00147337
आज نو 0.0677848
दानिस्त غزل’’کا 1
कुछ پڑھ 0.0130834
सख़्त ہرچند 0.123288
जो پڑھ 0.00619724
इसी مرتبہ 0.0842684
लेकिन نو 0.00312764
करते مرتبہ 0.01734
थाम اورآپ 0.998954
साहब کلام 0.0290205
मैं نو 0.000697245
सुना باچھیں 0.0280912
झूट کانمبر، 0.0647088
इस بےقصورپکڑی 0.000109463
कि بےقصورپکڑی 6.63246e-05
“ख़ुदा موخرالذکرکواول 7.10662e-06
सुन کرادیجئے۔’’ 0.00667051
रंग چار،پانچ 0.0286061
क़िस्म بےقصورپکڑی 0.0053219
ने آجائے 0.000507751
होता "پان 0.00186948
न فارم 0.000696523
को جناب 0.00699274
जाओ।उस آمدبہارکی 1
उन्हें فارم 0.0208867
का جناب 0.00426942
ग़ज़ल غزل’’کا 0.00828037
यही "پان 0.00304702
तक موتیابند، 0.00355598
तक فارم 0.00426716
आप جناب 0.0233548
दूसरे نو 0.0182361
“लय سےانریبل 0.166667
मुझे بےقصورپکڑی 0.00130064
कह "پان 0.00253225
मैं آجائے 0.000418869
आफ़त معمر 0.162129
दो موتیابند، 0.00589494
उन پڑھ 0.0190784
कहा آجائے 0.00720264
आपने کبوتر 0.525278
एजाद بھلے۔ 0.101079
थीं پڑھ 0.234737
घर پچھتر 0.00209116
सकते।बड़ी بستر 1
पढ़ी پڑھ 0.579986
जलवा ‘‘حضرت 1
हूँ "پان 0.00320155
गहरा سم!’’ 0.470588
अभी فارم 0.039219
बातें ریش، 0.0283096
सिर्फ़ "پان 0.00231632
भी نمائش 0.000654974
ने جلسے 0.00305537
दरुस्त دینا، 0.0724663
बजाए تنوع 0.0380557
करता نمائش 0.0210998
वो گزری 0.000470847
से صاحبہ 0.00828678
हैं گزری 0.000384208
तक़रीर مریض 0.175375
महसूस ‘‘حضرت 0.117482
पूछा“क्या سمجھیےلیکن 0.120192
हुआ نمائش 0.00459032
जो گزری 0.000765225
बीमारी ریش، 0.210526
उन्होंने دینا، 0.00596199
और گھرکو 0.000823451
तरह گزری 0.00145618
इसमें گزری 0.0764505
वालों پچھتر 0.0198095
बताऊँ گا—! 0.155843
पढ़ा فارم 0.0215289
इस्तेमाल صاحبہ 0.242961
ख़ैर ہرچند 1
सुना دینا، 0.0151044
किसी پیدل 0.00178198
कि پیدل 0.000353704
मुतवज्जे مریض 0.538462
बालों اشتہاری 0.121714
टाइम پچھتر 0.529412
दाख़िल پچھتر 0.0110852
पैदा گزری 0.0094035
तराज़ू پڑی، 0.197183
हालात تغافل 0.078125
किया پیدل 0.00598914
“जो رسی، 1
सपेद-पोश” رسی، 1
सपेद رسی، 1
पोश رسی، 1
की منظر 0.00217712
क़दर پچھتر 0.0133254
मिल قتلے 0.0726682
हज़रात! مہینوں 0.209259
हुए।कुर्सी-ए-सदारत ‘‘حضرت 1
फ़िगन ‘‘حضرت 1
किए دینا، 0.0123896
का اورکاروباری 4.24302e-05
भी اسکاٹ 0.000818717
आप جناب...... 0.00221175
हो। حفظ 0.0502276
क़िस्मत بےقصورپکڑی 0.182444
जाता اورکاروباری 0.00144753
हुआ بانا 0.00637545
अपने جناب...... 0.00515174
इलाज: سوپ 0.0384615
ख़याल بانا 0.0897966
हो لہلہاتے 0.00144388
शिर्कत گیں۔ 0.599998
शहर اورکاروباری 0.00956907
या مع 0.004028
ग़ज़लों مینو 0.191744
वफ़ात ماننداُسےبلاتا 1
नहीं—!लिहाज़ा پڑی، 1
अबला پڑی، 1
होने اعمال 0.00604658
दूसरे صاحبان 0.0765925
ज़रूरत اطلاع 0.164619
आप مع 0.00166062
” اف! 0.00602154
पूछा جناب...... 0.0478017
महज़ گزری 0.258092
आप اطلاع 0.00236973
कॉलेज کبھار 0.0681125
बिल-फ़र्ज़-ए-मोहाल سم!’’ 1
कुआँ سم!’’ 1
मुताबिक़ دُرّہ 0.224599
खोद سم!’’ 1
क्यूँ اطلاع 0.0277988
पास اعمال 0.00558406
दिल्ली اورکاروباری 0.0296962
मलाल حفظ 1
मुश्किल سراغ 0.116389
वाक़े درزیوں 0.0380247
प्लाट ہوتی—! 0.0260408
किए گزری 0.0247791
छे سازوں 0.0615234
पन ریش، 1
कितना سراغ 0.114273
हसन خریدا 0.0626607
पड़ोसी جھوٹا 0.0826275
बढ़ صاحبہ 0.652913
मतलब?” ذوؔق 0.122514
रहे ڈربا 0.00133265
करके پرآدم 0.00716254
वजह اعمال 0.0156578
होते ڈربا 0.00570459
में کوترکردیتا 0.00103541
थी। اطلاع 0.137703
शुरू پڑتی 0.140389
लेकिन ڈربا 0.000750625
हुए آگے 0.0113728
तर درزیوں 0.046426
जा پرآدم 0.00137995
रोज़ درزیوں 0.0633141
घबराहट کواس 0.692308
करते آگے 0.00924326
ग़लत کارآمد 0.31817
हुए: مریض 1
सुख़न پرآنسوبہانےیا 0.4375
एक تھی؟" 0.000215183
नुस्ख़ा صاحبہ 0.384176
नही بھلے۔ 0.0695187
“एक ہے؟’’ 0.169323
ऐसे فلاں 0.0660185
सुन।देखा تاریک 1
जाएगा।” صاحبہ 0.918706
बम्बई جھٹپٹا 1
को,मिस्र جھٹپٹا 1
को, جھٹپٹا 1
लंदन جھٹپٹا 1
कोह-ए-क़ाफ़ جھٹپٹا 1
रात پھٹ۔ 0.078174
देना اعمال 0.00787011
अल्लाह کھلونےتوجائیں 0.0646396
तअल्लुक़ تغافل 0.0660383
हैं।लेकिन پرآدم 0.0794534
ले تھی؟" 0.00212419
" باچھیں 0.000823024
हो چارلکیریں 0.00144388
तख़य्युल انجیل 0.142857
चिड़िया بیلن 0.0182943
फ़ेल ڈربا 0.0267121
बरोज़ درزیوں 0.375
मुनासिब اعمال 0.135266
इंसान بانا 0.0994903
ये کرا 0.00158232
ड्रेस بیلن 1
सरोकार।मिस بیلن 1
मौलाना جلسے 0.157783
हुज़ूर اورکاروباری 0.125147
सकते پرآدم 0.00883763
“वजह?” لیےوہ 0.333333
सबसे بانا 0.180832
न اورگریباں 0.00019348
अर्बाब-ए-हुनर اعضائے 1
भी اورگریباں 9.09687e-05
तरकीबें کلمات 0.484339
इक्तिफ़ा مرتبہ 1
है والد، 8.86726e-05
“तो کتابچہ 0.123334
नहीं والد، 0.000203484
ख़ूबी بےقصورپکڑی 0.0462789
थे, ڈربا 0.0779936
चुका دینا، 0.0643643
काम حوالہ 0.0372928
क़स्दन لیتے، 1
बहुत اورگریباں 0.00185826
आप والد، 0.000617097
जो والد، 0.000640567
दिल اورگریباں 0.00563994
“जी وحضرات! 0.0129301
आ مرغی 0.0483768
हो آتا 0.0115935
हैं,लेकिन پڑتی 0.818135
ऐसी کانٹا 0.0435067
जाता آتا 0.0365277
बोले تھی؟" 0.0275372
किए پرآدم 0.0123896
तोड़ा "ہوں" 1
वसूल پرآدم 0.121212
आख़िरश موتیابند، 1
“ख़ुदा نذرانے 0.0578129
आ کرکےپروفیسرکےاوٹ 0.0040314
आप کےطورپر 0.00331763
मोहब्बत انجیل 0.0836658
आँसू تھا"۔ 0.0415879
मंसूबे تغافل 0.5
दिल تھا"۔ 0.0084599
बादशाह اورکاروباری 0.155371
है।” BEGISM 0.0158687
बारी آگے 0.422103
भी کوٹھری 0.00163743
पैदा آتا 0.147483
हैं اُٹھا 0.00259341
के دعائے 0.000259251
मुड़ा مفت 1
लिए اُٹھا 0.00278807
चुने بڑاعجیب 1
ज़हानत انجیل 1
हों—वहाँ روایات 1
ईन्हीं روایات 0.705882
प्रोफ़ेसर حوالہ 0.0122858
फ़ोन فاشسٹ 0.336103
हम آگ 0.00485918
हाफ़िज़ موخرالذکرکواول 0.124747
बेबस "پان 1
जाए।मोहतरमा ناک 1
तोड़ اورگریباں 0.235294
तुम्हें تھی؟" 0.0557671
इनका تغافل 1
पूरी آگ 0.0506356
आख़िर آگ 0.104892
था, نمائش 0.208954
अफ़्वाहों دعائے 0.504548
लतीफ़े دعائے 0.0117828
फिर لی۔ 0.00979286
बे-ग़र्ज़ी دیے 1
ईसार دیے 1
सरका دیے 0.760311
देख کردی: 0.0121774
वर्ड्सवर्थ سننا 1
साथ لی۔ 0.0231216
“वही دوسرےتیسرےدن 0.104676
है اگر 0.0307172
महबूब اگرچہ 0.0438256
बोलीं صراط 0.032452
हैं ہو؟ 0.00115262
पूछो।एक صراط 1
फस्ट صراط 1
पड़ती। صراط 1
करके اگرچہ 0.0386777
फ़तह انجیل 0.6
बूढ़ों صاحبان 0.280687
हुई, ہرچند 0.340032
तरकीब تھی؟" 0.0275755
जोड़ اورگریباں 1
हूँ” بیاں 0.125
दास्तान دینا، 0.105285
तू پروفیسراے 0.0530678
आह اوردھوبیوں 0.138463
सामने اگرچہ 0.0288475
हम ہو؟ 0.00323945
नदामत ہرچند 1
धुल ہرچند 1
इस्तेमाल اگرچہ 0.0773964
मौत بھتیجے 0.536685
मिर्ज़ा تھی؟" 0.00127153
हमको اعمال 0.0556525
की تھیں، 0.00653135
में باقاعدہ 0.00310622
थीं—मैं ہوسکا۔ 1
का ستھرے 0.00028413
देर اگرچہ 0.0735178
क्या ستھرے 0.000478872
हो।किताबी ہرگام 1
कीड़ा ہرگام 0.496886
प्यालियाँ بدلیں۔آخر 0.159997
थीं,जो بدلیں۔آخر 1
जिनहोने آواز 1
कहाँ ستھرے 0.00458625
टिकट تغافل 0.0189775
कर برابر 8.65467e-07
अंबार تھا"۔ 1
थर्ड بیچارا 1
है,ज़रूर چار،پانچ 1
लाएगी।! چار،پانچ 1
यक़ीन لی۔ 0.139438
हो।लेकिन اورگریباں 1
अच्छा......ये اطلاع 1
लेकिन برابر 0.00450334
कोशिश برابر 0.234032
सकते اگرچہ 0.0477232
बना اپوائنٹ 0.0465096
मोअज़्ज़िज़ीन غزل’’کا 1
हो ‘‘مرتو 0.000160194
हैं)की غزل’’کا 1
माँ لیتےاورپھررکھ 0.0445293
न مرنا 0.00130599
आ مرنا 0.00907065
पा (بہنیں 0.154794
से ردیف۔ 0.000258854
रंग ستھرے 0.00953538
कल ‘‘مرتو 0.00415406
सबसे آگ 0.0813743
न سامان 0.00116106
बनाए تغافل 0.149281
ही سامان 0.00101237
रहा ‘‘مرتو 0.00112228
हूँ ارادہ 0.0123416
क्यूँ ‘‘مرتو 0.00432514
चुनांचे مع 0.0251113
हाथ سامان 0.0320173
क्यूँ مرنا 0.0291888
का مہمان 0.00639293
हो بس 0.00750409
हूँ।” ‘‘مرتو 0.0115398
शुरू برابر 0.0374331
इंतिक़ाल حفظ 1
हवास دینا، 0.0335552
पूछा। ردیف۔ 0.141559
हूँ,अब دینا، 1
प्रास्पैक्टस دینا، 0.0776374
मैं ‘‘مرتو 9.29757e-05
इक ردیف۔ 0.04819
बनी تنوع 0.037037
साहब شریک 0.0412487
दीन بصورت 0.333333
पतरस مصروفیتیں 0.0323017
पर। انجیل 0.130402
को ہوجاتا۔ 0.00579313
गई مرنا 0.0169045
निकलते।” توند 0.199827
मज़बूत تھا"۔ 1
बे-शक। اف! 1
निजात (بہنیں 0.0502389
आया سامان 0.032018
आरिज़ा-ए-क़ल्ब (بہنیں 1
मैंने ردیف۔ 0.000568505
जाएँ।” (بہنیں 0.5
कौन شریک 0.0900038
फ़ैसला پیدل 0.600381
दअवत گیں۔ 1
इतनी اگرچہ 0.0540439
औसाफ़ گزری 1
फ़ारूक़ी کلام 0.962016
हो لگ 0.000641684
के ادب 0.00491427
नहीं بتائے 0.000244182
दी। برابر 0.186558
गए لگ 0.0125173
उस لگ 0.0034436
तामीर پرآدم 1
कौनैन آگے 0.41667
उसे ادب 0.183769
करते بتائے 0.00319562
तो لگا۔’’ہر 6.79095e-06
किया।गर्मी-गर्मी بھلے۔ 1
मारती। بھلے۔ 1
ज़्हर-ज़्हर بھلے۔ 1
उतारता بھلے۔ 1
है।सुना بھلے۔ 1
चेचक بھلے۔ 1
होता سےاعلان 0.000935589
पास لگ 0.0111682
नहीं سےاعلان 0.000121342
नहीं ان—میں 0.00110005
चूँकि اورگریباں 0.0245324
बाद سےاعلان 0.00101944
भर پنتالیس 0.00477958
हैं। نےان 0.00365325
। ارادہ 0.00683826
हुए نےان 0.00442278
हो تیاری 0.00103156
तक پنتالیس 0.00133352
ही تیاری 0.00325643
अपने پنتالیس 0.000965803
है। سےاعلان 0.000362112
साहब ڈکاری 0.00257804
में سوائے 0.00310622
“मैं ‘‘مرتو 0.0394617
इसकॉट ہے؟’’ 1
होते نےان 0.0142614
थे بتائے 0.00503864
ही بیوی 0.0330072
" تھی؟" 0.000442602
शिकनी اورگریباں 0.0400002
कि ہےمگرگلہری 4.16755e-06
में یہ 0.0229769
करने بیوی 0.130185
की یہ 0.121354
मेरी سےآنکھیں 0.00900986
अपने بیوی 0.119968
देखा رعشہ 0.0481222
था یہ 0.0947488
हम تیاری 0.00347071
आसमान (خواتین) 0.144649
करना یہ 0.473352
तेज़ी-व-तर्रारी ادب 1
बावजूद ادب 0.432926
ज़रिए فلاں 0.1125
इंजीनियर فلاں 1
बाप لیتےاورپھررکھ 0.159625
है। یہ 0.0721668
करते یہ 0.318674
प्यार بتائے 1
तारीख़ لگ 0.0469433
मेरे یہ 0.216305
होती یہ 0.259548
थी। پنتالیس 0.0120493
पोंछ تھا"۔ 1
तरह یہ 0.14655
किर्म عارض 0.323193
लिए طلباء 0.0103557
थे। بتائے 0.00902032
जन्नत مع 0.0639476
किताब سےاعلان 0.003258
लिबास بڑوں 0.527474
मुल्क سامان 0.0657715
जिस پرسوکا 0.00449023
तालिब-ए-इल्म پیڑھی 0.125673
उसको یہ 0.880117
करना بڑوں 0.0142381
से پتھر 0.000607191
थी پرسوکا 0.0049322
रौशनी تغافل 0.0114937
फ़िक़रे ڈکاری 1
उन्होंने سےاعلان 0.00596739
ऐसा یہ 0.298697
जितना بتائے 0.0626019
रहे اورمرض 0.00166581
“मान ہےمگرگلہری 0.575428
लो ہےمگرگلہری 0.172795
पढ़ी سےاعلان 0.0358403
उन "چال 0.00353364
वारिद حالیؔ 0.304348
था।उसके بانا 1
हश्र ستھرے 0.264151
छेड़ा।लेकिन بڑاعجیب 1
गिने بڑاعجیب 0.264948
मौज़ूआत بڑاعجیب 1
गीदड़।खटमल।चमगादड़। بڑاعجیب 1
बटन ستھرے 1
हुआ پتھر 0.00318773
जा اورمرض 0.00310488
दोनों تیاری 0.030062
नज़राने پرآدم 1
चढ़ावे پرآدم 1
दीमकों کارپوریشن 0.985783
हमें اورمرض 0.00690562
क़यामत کرکےپروفیسرکےاوٹ 0.351274
से تنقید 0.00437185
और جووہ 0.000823451
जिसको رعشہ 0.306123
वल्दियत جدوجہد 0.808988
आई اورمرض 0.00904824
अब سمایا 0.00485323
हमने سےاعلان 0.0046658
थे اورمرض 0.00566767
को بڑھانے 0.000858252
उन्हें لیوا 0.0522166
हीरे تنوع 1
मोतियों تنوع 1
काहिए بےقصورپکڑی 1
आप بڑھانے 0.00294882
उनकी چھوٹیں 0.0373669
साल لگ 0.0292314
हाफ़िज़” نذرانے 0.0269552
जवाब کھلیں 0.005727
डिवीज़न اعمال 0.526316
युनिवर्सिटी اعمال 1
वज़ीफा اعمال 1
इसका پرسوکا 0.0282654
सिले سےہٹادیےجائیں 0.25
अव्वल پتھر 0.46679
तमाम بڑھانے 0.0202473
ख़ुदा.... بیچوں 0.672054
सब رگ 0.00999618
चीज़ رگ 0.0205812
रेडियो لگا۔’’ہر 0.138287
साल پنتالیس 0.00411072
या بھنڈار’’ 0.00804722
ने کراکے 0.00203874
जो رگ 0.00114784
नक़्ल ڈکاری 0.018711
न چکراسے 0.00019348
शौहर بڑھانے 0.080708
किसी گرم 0.00853715
न گرم 0.00313925
कान گرم 0.375239
बाद چکراسے 0.00101851
तक چکراسے 0.00118533
दुनिया چکراسے 0.00412809
मनाया اورکاروباری 0.150755
जो مارے 0.00413221
मुलाक़ात کرلیتا، 0.147378
ज़िंदगी مارے 0.169651
हमारे پتھر 0.0375174
हो ہےکیا؟’’ 0.000160414
न ہےکیا؟’’ 0.000193493
क्या ہےکیا؟’’ 0.000478698
है..... مجموعوں 1
अहमद جڑ 0.0213097
भर اترجائےگا،مجھ 0.00764716
बहनें یہ 0.985183
क़ायम پرسوکا 0.0515947
ही ہےاورکانگریس 0.00151972
इन رگ 0.0137617
बच्चे چکراسے 0.0170178
उसे ہےکیا؟’’ 0.00545954
को گھبراہٹ 0.000334515
ज़िंदगी اترجائےگا،مجھ 0.0141376
मोहलिक ارادہ 1
ख़बर گرم 0.311075
तंग مارے 0.420643
रे پروفیسراے 0.215601
ताला پتھر 0.714286
दिन ہےکیا؟’’ 0.00267484
उनका اترجائےگا،مجھ 0.0187274
हुदूद-ए-अर्बा نمائش 0.197531
अहमद یہ 0.472296
अंधे دلاتا 1
मशवरा اترجائےگا،مجھ 0.179104
ज़रा پڑھی 0.0365927
पाई رگ 0.342669
ये پڑھی 0.00046772
हिंदोस्तान رگ 0.0646901
का ہوتا—اور 0.00127859
जब ہےکیا؟’’ 0.00139033
में باکس’’خریدنے 0.00103418
फ़ोन بتائے 0.0747001
महसूस سےاعلان 0.0522616
जानते ہےکیا؟’’ 0.0108744
हुई ڈھیر 0.00608901
फ़लसफ़ी بانا 0.816327
गए?”तो کرادیجئے۔’’ 1
चौड़ी کرادیجئے۔’’ 1
तक़रीर। کرادیجئے۔’’ 1
आने باکس’’خریدنے 7.95032e-05
बे-बहरा والد، 1
मोतक़िद-ए-आलू والد، 0.0748609
जुमा: توآج 0.706025
चेहरे بنی۔ 0.0371553
तार-व-पौद ستھرے 1
होगा, ستھرے 0.25
