1 1 1 100 1
0 2 1 100 0.0493858
1 2 1 100 0.950614
0 3 1 100 0.00622807
1 3 1 100 0.993772
1 4 1 100 1
1 5 1 100 1
0 6 1 100 0.0384628
1 6 1 100 0.961537
1 7 1 100 1
1 8 1 100 1
0 1 2 100 5.09087e-06
1 1 2 100 0.337066
2 1 2 100 0.662929
0 2 2 100 0.0226553
1 2 2 100 0.231875
2 2 2 100 0.74547
0 3 2 100 0.0115992
1 3 2 100 0.348863
2 3 2 100 0.639538
0 4 2 100 0.0687078
1 4 2 100 0.331918
2 4 2 100 0.599374
0 5 2 100 0.0870687
1 5 2 100 0.412994
2 5 2 100 0.499937
0 6 2 100 3.59235e-06
1 6 2 100 0.545451
2 6 2 100 0.454546
0 7 2 100 0.199763
1 7 2 100 0.400425
2 7 2 100 0.399812
1 8 2 100 0.571429
2 8 2 100 0.428571
0 9 2 100 0.0165216
1 9 2 100 0.650145
2 9 2 100 0.333333
0 10 2 100 3.42603e-06
1 10 2 100 0.5
2 10 2 100 0.499997
0 11 2 100 0.00658279
1 11 2 100 0.500001
2 11 2 100 0.493417
1 12 2 100 0.333332
2 12 2 100 0.666668
0 13 2 100 0.333333
2 13 2 100 0.666667
0 14 2 100 1.74848e-05
2 14 2 100 0.999983
2 15 2 100 1
0 1 3 100 0.0266577
1 1 3 100 0.208409
2 1 3 100 0.0710072
3 1 3 100 0.693926
0 2 3 100 0.0561461
1 2 3 100 0.185914
2 2 3 100 0.0550389
3 2 3 100 0.702901
0 3 3 100 0.0728273
1 3 3 100 0.154242
2 3 3 100 0.0717645
3 3 3 100 0.701166
0 4 3 100 0.150771
1 4 3 100 0.110916
2 4 3 100 0.22241
3 4 3 100 0.515904
0 5 3 100 0.150283
1 5 3 100 0.170744
2 5 3 100 0.200653
3 5 3 100 0.47832
0 6 3 100 0.180771
1 6 3 100 0.155335
2 6 3 100 0.2044
3 6 3 100 0.459494
0 7 3 100 0.0461106
1 7 3 100 0.166673
2 7 3 100 0.414312
3 7 3 100 0.372905
0 8 3 100 0.183325
1 8 3 100 0.125058
2 8 3 100 0.277683
3 8 3 100 0.413934
0 9 3 100 0.0557927
1 9 3 100 0.00775911
2 9 3 100 0.466337
3 9 3 100 0.470112
0 10 3 100 0.0071982
1 10 3 100 0.235029
2 10 3 100 0.411964
3 10 3 100 0.345809
0 11 3 100 0.0688486
1 11 3 100 0.331238
2 11 3 100 0.399913
3 11 3 100 0.2
0 12 3 100 0.0713116
1 12 3 100 0.333198
2 12 3 100 0.395358
3 12 3 100 0.200133
0 13 3 100 0.155203
1 13 3 100 0.229352
2 13 3 100 0.433642
3 13 3 100 0.181802
0 14 3 100 0.0910588
1 14 3 100 0.272727
2 14 3 100 0.272578
3 14 3 100 0.363636
0 15 3 100 0.0958509
1 15 3 100 0.0291408
2 15 3 100 0.375006
3 15 3 100 0.500002
0 16 3 100 0.114335
1 16 3 100 0.125
2 16 3 100 0.142615
3 16 3 100 0.61805
0 17 3 100 0.000140247
1 17 3 100 0.125
2 17 3 100 0.25
3 17 3 100 0.62486
0 18 3 100 0.0048671
1 18 3 100 0.166667
2 18 3 100 0.166663
3 18 3 100 0.661803
1 19 3 100 0.2
2 19 3 100 0.2
3 19 3 100 0.6
3 20 3 100 1
0 21 3 100 0.333832
3 21 3 100 0.666167
1 22 3 100 0.5
2 22 3 100 0.5
0 23 3 100 0.5
1 23 3 100 0.5
1 24 3 100 1
1 25 3 100 1
0 1 4 100 0.0292061
1 1 4 100 0.345417
2 1 4 100 0.0982025
3 1 4 100 0.142142
4 1 4 100 0.385032
0 2 4 100 0.0478467
1 2 4 100 0.332531
2 2 4 100 0.106119
3 2 4 100 0.109569
4 2 4 100 0.403934
0 3 4 100 0.0840258
1 3 4 100 0.315496
2 3 4 100 0.099347
3 3 4 100 0.124913
4 3 4 100 0.376219
0 4 4 100 0.0674899
1 4 4 100 0.282515
2 4 4 100 0.137301
3 4 4 100 0.116366
4 4 4 100 0.396328
0 5 4 100 0.166854
1 5 4 100 0.256037
2 5 4 100 0.189347
3 5 4 100 0.0434783
4 5 4 100 0.344284
0 6 4 100 0.0491148
1 6 4 100 0.237666
2 6 4 100 0.189911
3 6 4 100 0.0476377
4 6 4 100 0.47567
0 7 4 100 0.12284
1 7 4 100 0.18773
2 7 4 100 0.165158
3 7 4 100 0.117594
4 7 4 100 0.406678
0 8 4 100 0.156133
1 8 4 100 0.285714
2 8 4 100 0.0718063
3 8 4 100 0.142479
4 8 4 100 0.343867
0 9 4 100 0.313659
1 9 4 100 0.272375
2 9 4 100 0.00421129
3 9 4 100 0.0503085
4 9 4 100 0.359447
0 10 4 100 0.0737266
1 10 4 100 0.333333
2 10 4 100 1.76092e-05
3 10 4 100 0.222222
4 10 4 100 0.370701
0 11 4 100 0.262414
1 11 4 100 0.375
2 11 4 100 0.122375
3 11 4 100 0.123511
4 11 4 100 0.1167
0 12 4 100 0.125017
1 12 4 100 0.5
2 12 4 100 0.249695
3 12 4 100 0.125288
1 13 4 100 0.5
2 13 4 100 0.125
3 13 4 100 0.25
4 13 4 100 0.124999
0 14 4 100 0.0769644
1 14 4 100 0.333333
2 14 4 100 0.333299
3 14 4 100 0.166667
4 14 4 100 0.0897367
0 15 4 100 0.166667
1 15 4 100 0.166667
2 15 4 100 0.5
3 15 4 100 0.166667
0 16 4 100 0.337988
1 16 4 100 0.166663
2 16 4 100 0.166667
3 16 4 100 0.328678
4 16 4 100 3.876e-06
0 17 4 100 0.333333
2 17 4 100 0.333333
3 17 4 100 0.333333
0 18 4 100 0.171759
1 18 4 100 0.157207
2 18 4 100 0.333333
3 18 4 100 0.333333
4 18 4 100 0.00436697
0 19 4 100 0.27679
2 19 4 100 0.5
3 19 4 100 0.171489
4 19 4 100 0.0517217
0 20 4 100 0.324227
2 20 4 100 0.175773
3 20 4 100 0.333333
4 20 4 100 0.166667
1 21 4 100 0.333333
2 21 4 100 0.166667
3 21 4 100 0.5
0 22 4 100 0.00271287
1 22 4 100 0.597287
3 22 4 100 0.4
1 23 4 100 0.5
3 23 4 100 0.5
1 24 4 100 0.5
2 24 4 100 0.25
3 24 4 100 0.25
1 25 4 100 0.5
2 25 4 100 0.25
3 25 4 100 0.25
0 26 4 100 0.50031
1 26 4 100 0.49969
0 27 4 100 0.25
1 27 4 100 0.5
2 27 4 100 0.249994
4 27 4 100 5.81111e-06
0 28 4 100 0.00193251
1 28 4 100 0.498067
2 28 4 100 0.25
3 28 4 100 0.25
0 29 4 100 0.249901
1 29 4 100 0.5
2 29 4 100 0.25
3 29 4 100 9.88413e-05
0 30 4 100 1.03289e-05
1 30 4 100 0.25
2 30 4 100 0.49999
3 30 4 100 0.25
0 31 4 100 0.347077
2 31 4 100 0.650258
4 31 4 100 0.00266458
1 32 4 100 0.333333
2 32 4 100 0.333333
3 32 4 100 0.333333
1 33 4 100 0.5
3 33 4 100 0.5
1 34 4 100 1
3 35 4 100 1
0 1 5 100 0.0166468
1 1 5 100 0.167226
2 1 5 100 0.230298
3 1 5 100 0.115318
4 1 5 100 0.0953171
5 1 5 100 0.375194
0 2 5 100 0.0513337
1 2 5 100 0.125899
2 2 5 100 0.170468
3 2 5 100 0.108751
4 2 5 100 0.12424
5 2 5 100 0.419308
0 3 5 100 0.198291
1 3 5 100 0.153763
2 3 5 100 0.137209
3 3 5 100 0.0756203
4 3 5 100 0.123708
5 3 5 100 0.311408
0 4 5 100 0.103127
1 4 5 100 0.131446
2 4 5 100 0.163186
3 4 5 100 0.130734
4 4 5 100 0.0817394
5 4 5 100 0.389768
0 5 5 100 0.0527225
1 5 5 100 0.172117
2 5 5 100 0.155311
3 5 5 100 0.154506
4 5 5 100 0.103461
5 5 5 100 0.361884
0 6 5 100 0.0760706
1 6 5 100 0.24038
2 6 5 100 0.159048
3 6 5 100 0.159133
4 6 5 100 0.0909044
5 6 5 100 0.274464
0 7 5 100 0.179446
1 7 5 100 0.155716
2 7 5 100 0.105695
3 7 5 100 0.0943227
4 7 5 100 0.152321
5 7 5 100 0.3125
0 8 5 100 0.143363
1 8 5 100 0.142058
2 8 5 100 0.179023
3 8 5 100 0.142857
4 8 5 100 0.214128
5 8 5 100 0.178571
0 9 5 100 0.199754
1 9 5 100 0.24025
2 9 5 100 0.119998
3 9 5 100 0.0800022
4 9 5 100 0.199996
5 9 5 100 0.16
0 10 5 100 0.137559
1 10 5 100 0.173692
2 10 5 100 0.130442
3 10 5 100 0.173913
4 10 5 100 0.130433
5 10 5 100 0.253961
0 11 5 100 0.365011
1 11 5 100 0.22313
2 11 5 100 0.0909105
3 11 5 100 0.13909
4 11 5 100 0.0454945
5 11 5 100 0.136364
0 12 5 100 0.19022
1 12 5 100 0.101116
2 12 5 100 0.238569
3 12 5 100 0.148381
4 12 5 100 0.15
5 12 5 100 0.171715
0 13 5 100 0.192559
1 13 5 100 0.105263
2 13 5 100 0.333736
3 13 5 100 0.0526573
4 13 5 100 0.15789
5 13 5 100 0.157895
0 14 5 100 0.0996372
1 14 5 100 0.364132
2 14 5 100 0.121096
3 14 5 100 0.157895
4 14 5 100 0.157892
5 14 5 100 0.0993472
0 15 5 100 0.0526217
1 15 5 100 0.47361
2 15 5 100 0.105263
3 15 5 100 0.157958
4 15 5 100 0.105263
5 15 5 100 0.105284
0 16 5 100 0.348857
1 16 5 100 0.294051
2 16 5 100 0.0626297
4 16 5 100 0.176471
5 16 5 100 0.117992
0 17 5 100 0.0139958
1 17 5 100 0.319337
2 17 5 100 0.0666667
3 17 5 100 0.2
4 17 5 100 0.266667
5 17 5 100 0.133333
0 18 5 100 0.214242
1 18 5 100 0.285714
2 18 5 100 0.0714286
3 18 5 100 0.214286
4 18 5 100 0.21433
0 19 5 100 0.0826177
1 19 5 100 0.455814
2 19 5 100 1.96372e-05
3 19 5 100 0.153856
4 19 5 100 0.230769
5 19 5 100 0.0769231
0 20 5 100 0.249983
1 20 5 100 0.16668
2 20 5 100 9.07129e-06
3 20 5 100 0.000719534
4 20 5 100 0.333334
5 20 5 100 0.249275
0 21 5 100 0.166668
1 21 5 100 0.5
4 21 5 100 0.166667
5 21 5 100 0.166665
0 22 5 100 0.181825
1 22 5 100 0.545448
4 22 5 100 0.181818
5 22 5 100 0.0909091
0 23 5 100 0.111111
1 23 5 100 0.333333
3 23 5 100 0.111111
4 23 5 100 0.222222
5 23 5 100 0.222222
0 24 5 100 0.142857
1 24 5 100 0.285714
3 24 5 100 0.142857
4 24 5 100 0.285714
5 24 5 100 0.142857
0 25 5 100 0.571021
4 25 5 100 0.143265
5 25 5 100 0.285714
1 26 5 100 0.333333
3 26 5 100 0.166667
4 26 5 100 0.333333
5 26 5 100 0.166666
0 27 5 100 0.20055
1 27 5 100 0.2
2 27 5 100 2.05568e-05
3 27 5 100 0.2
4 27 5 100 0.399429
1 28 5 100 0.2
3 28 5 100 0.2
4 28 5 100 0.4
5 28 5 100 0.2
0 29 5 100 3.50285e-06
1 29 5 100 0.666664
5 29 5 100 0.333332
0 30 5 100 0.666667
1 30 5 100 0.333332
1 31 5 100 0.5
2 31 5 100 0.5
1 32 5 100 0.5
2 32 5 100 0.5
1 33 5 100 0.5
3 33 5 100 0.5
2 34 5 100 1
2 35 5 100 1
2 36 5 100 1
0 37 5 100 0.500013
1 37 5 100 0.000550279
5 37 5 100 0.499437
0 38 5 100 0.319712
3 38 5 100 0.18042
5 38 5 100 0.499868
0 39 5 100 0.5
5 39 5 100 0.5
5 40 5 100 1
5 41 5 100 1
0 42 5 100 1
0 43 5 100 8.73848e-06
5 43 5 100 0.999991
0 1 6 100 0.000415604
1 1 6 100 0.015791
2 1 6 100 0.126313
3 1 6 100 0.150948
4 1 6 100 0.214157
5 1 6 100 0.113511
6 1 6 100 0.378865
0 2 6 100 0.0732162
1 2 6 100 0.012691
2 2 6 100 0.094893
3 2 6 100 0.125322
4 2 6 100 0.179639
5 2 6 100 0.115024
6 2 6 100 0.399214
0 3 6 100 0.102269
1 3 6 100 0.0128218
2 3 6 100 0.119258
3 3 6 100 0.151186
4 3 6 100 0.178769
5 3 6 100 0.111536
6 3 6 100 0.32416
0 4 6 100 0.166531
1 4 6 100 0.0139068
2 4 6 100 0.151605
3 4 6 100 0.163662
4 4 6 100 0.0972545
5 4 6 100 0.0975531
6 4 6 100 0.309487
0 5 6 100 0.11198
1 5 6 100 0.0148652
2 5 6 100 0.13636
3 5 6 100 0.195663
4 5 6 100 0.10623
5 5 6 100 0.0908978
6 5 6 100 0.344003
0 6 6 100 0.100192
1 6 6 100 0.0158834
2 6 6 100 0.127198
3 6 6 100 0.202299
4 6 6 100 0.0952911
5 6 6 100 0.120035
6 6 6 100 0.339102
0 7 6 100 0.143811
1 7 6 100 0.0998702
2 7 6 100 0.079939
3 7 6 100 0.125802
4 7 6 100 0.119671
5 7 6 100 0.0801471
6 7 6 100 0.35076
0 8 6 100 0.148524
1 8 6 100 0.0223329
2 8 6 100 0.131036
3 8 6 100 0.13333
4 8 6 100 0.15441
5 8 6 100 0.111113
6 8 6 100 0.299255
0 9 6 100 0.082848
1 9 6 100 0.0512949
2 9 6 100 0.153822
3 9 6 100 0.0506229
4 9 6 100 0.256182
5 9 6 100 0.128205
6 9 6 100 0.277025
0 10 6 100 0.142127
1 10 6 100 0.0299566
2 10 6 100 0.19935
3 10 6 100 0.114217
4 10 6 100 0.228572
5 10 6 100 0.171416
6 10 6 100 0.114362
0 11 6 100 0.130199
1 11 6 100 0.0645532
2 11 6 100 0.129032
3 11 6 100 0.0645161
4 11 6 100 0.224487
5 11 6 100 0.257803
6 11 6 100 0.12941
0 12 6 100 0.0685279
1 12 6 100 0.0689655
2 12 6 100 0.103448
3 12 6 100 0.0689671
4 12 6 100 0.275862
5 12 6 100 0.275505
6 12 6 100 0.138724
0 13 6 100 0.206961
1 13 6 100 0.0342815
2 13 6 100 0.137931
3 13 6 100 0.103448
4 13 6 100 0.172416
5 13 6 100 0.172414
6 13 6 100 0.172548
0 14 6 100 0.138599
1 14 6 100 0.0689674
2 14 6 100 0.241354
3 14 6 100 0.13728
4 14 6 100 0.206898
5 14 6 100 0.137936
6 14 6 100 0.0689655
0 15 6 100 0.275861
1 15 6 100 0.103431
2 15 6 100 0.206896
3 15 6 100 0.137931
4 15 6 100 0.103448
5 15 6 100 0.103448
6 15 6 100 0.0689848
0 16 6 100 0.14277
1 16 6 100 0.0357322
2 16 6 100 0.142857
3 16 6 100 0.321422
4 16 6 100 0.142858
5 16 6 100 0.142857
6 16 6 100 0.0715033
0 17 6 100 0.115661
1 17 6 100 0.153834
2 17 6 100 0.115386
3 17 6 100 0.269231
4 17 6 100 0.153579
5 17 6 100 0.115385
6 17 6 100 0.0769231
0 18 6 100 0.249681
1 18 6 100 0.16657
2 18 6 100 0.0416667
3 18 6 100 0.291642
4 18 6 100 0.0416719
5 18 6 100 0.166656
6 18 6 100 0.0421124
0 19 6 100 0.190897
1 19 6 100 0.0952381
2 19 6 100 0.0476166
3 19 6 100 0.285303
4 19 6 100 0.047619
5 19 6 100 0.238089
6 19 6 100 0.0952375
0 20 6 100 0.294974
1 20 6 100 0.0380551
2 20 6 100 0.0499999
3 20 6 100 0.350001
4 20 6 100 0.1
5 20 6 100 0.1
6 20 6 100 0.0669699
0 21 6 100 0.200249
1 21 6 100 0.149751
2 21 6 100 0.1
3 21 6 100 0.2
4 21 6 100 0.05
5 21 6 100 0.2
6 21 6 100 0.1
0 22 6 100 0.303014
1 22 6 100 0.0526325
2 22 6 100 0.0526316
3 22 6 100 0.275932
4 22 6 100 0.157895
5 22 6 100 0.105263
6 22 6 100 0.0526316
0 23 6 100 0.166667
1 23 6 100 0.166667
2 23 6 100 0.0555556
3 23 6 100 0.166667
4 23 6 100 0.166667
5 23 6 100 0.111111
6 23 6 100 0.166667
0 24 6 100 0.293907
1 24 6 100 0.117668
2 24 6 100 0.0588249
3 24 6 100 0.176475
4 24 6 100 0.0588236
5 24 6 100 0.176323
6 24 6 100 0.117978
0 25 6 100 0.233561
1 25 6 100 0.0588424
2 25 6 100 0.117655
3 25 6 100 0.0588898
4 25 6 100 0.235314
5 25 6 100 0.117647
6 25 6 100 0.178091
0 26 6 100 0.175865
1 26 6 100 0.177083
3 26 6 100 0.0588236
4 26 6 100 0.235294
5 26 6 100 0.0588172
6 26 6 100 0.294118
0 27 6 100 0.332864
1 27 6 100 0.259777
2 27 6 100 0.00735835
3 27 6 100 0.133333
4 27 6 100 0.0666667
5 27 6 100 0.133333
6 27 6 100 0.0666667
0 28 6 100 0.134786
1 28 6 100 0.133333
2 28 6 100 0.0666667
3 28 6 100 0.131852
4 28 6 100 0.133966
5 28 6 100 0.0666667
6 28 6 100 0.332728
0 29 6 100 0.266629
1 29 6 100 0.2
2 29 6 100 0.133333
3 29 6 100 0.199991
4 29 6 100 0.133333
5 29 6 100 3.94424e-05
6 29 6 100 0.0666734
0 30 6 100 0.0714348
1 30 6 100 0.285708
2 30 6 100 0.142857
4 30 6 100 0.0714286
5 30 6 100 0.214286
6 30 6 100 0.214286
0 31 6 100 0.150585
1 31 6 100 0.307692
3 31 6 100 0.0769231
4 31 6 100 0.0770278
5 31 6 100 0.234321
6 31 6 100 0.153451
0 32 6 100 0.230706
1 32 6 100 0.153846
3 32 6 100 6.39896e-05
4 32 6 100 0.230769
5 32 6 100 0.230769
6 32 6 100 0.153845
0 33 6 100 0.166667
1 33 6 100 0.25
3 33 6 100 0.25
4 33 6 100 0.25
6 33 6 100 0.0833333
0 34 6 100 0.137056
1 34 6 100 0.248739
3 34 6 100 0.0833344
4 34 6 100 0.33327
6 34 6 100 0.197601
0 35 6 100 0.181825
1 35 6 100 0.181811
3 35 6 100 0.272727
4 35 6 100 0.181818
6 35 6 100 0.181818
0 36 6 100 0.111111
1 36 6 100 0.333333
4 36 6 100 0.444445
5 36 6 100 0.111111
0 37 6 100 0.689786
2 37 6 100 0.00650391
3 37 6 100 9.55693e-05
4 37 6 100 0.178351
6 37 6 100 0.125263
0 38 6 100 0.000112597
1 38 6 100 0.25
4 38 6 100 0.375
6 38 6 100 0.374887
0 39 6 100 0.250004
1 39 6 100 0.249996
2 39 6 100 0.125
4 39 6 100 0.125
6 39 6 100 0.25
0 40 6 100 0.211773
1 40 6 100 0.125
2 40 6 100 0.125
4 40 6 100 0.288135
5 40 6 100 0.125092
6 40 6 100 0.125
0 41 6 100 7.50293e-05
1 41 6 100 0.375
2 41 6 100 0.249925
4 41 6 100 0.125
5 41 6 100 0.125
6 41 6 100 0.125
0 42 6 100 0.142857
1 42 6 100 0.142857
2 42 6 100 0.428571
3 42 6 100 0.142857
5 42 6 100 0.142857
0 43 6 100 0.166678
1 43 6 100 0.166667
2 43 6 100 0.166667
4 43 6 100 0.166667
6 43 6 100 0.333322
0 44 6 100 0.00169796
2 44 6 100 0.333324
3 44 6 100 0.164975
4 44 6 100 0.333333
6 44 6 100 0.166669
0 45 6 100 0.449284
2 45 6 100 0.2
3 45 6 100 0.150715
4 45 6 100 0.2
2 46 6 100 0.2
3 46 6 100 0.2
4 46 6 100 0.4
6 46 6 100 0.2
0 47 6 100 0.000862518
2 47 6 100 0.499887
3 47 6 100 0.249251
6 47 6 100 0.25
0 48 6 100 0.189937
2 48 6 100 0.250033
3 48 6 100 0.499967
6 48 6 100 0.0600635
0 49 6 100 0.333333
3 49 6 100 0.333333
6 49 6 100 0.333333
0 50 6 100 0.333348
3 50 6 100 0.333319
6 50 6 100 0.333333
3 51 6 100 0.66664
6 51 6 100 0.33336
1 52 6 100 0.333333
3 52 6 100 0.333333
4 52 6 100 0.333333
1 53 6 100 0.5
3 53 6 100 0.5
0 1 7 100 0.0314984
1 1 7 100 0.164923
2 1 7 100 0.0781501
3 1 7 100 0.0307848
4 1 7 100 0.0893989
5 1 7 100 0.218864
6 1 7 100 0.123043
7 1 7 100 0.263338
0 2 7 100 0.103864
1 2 7 100 0.111028
2 2 7 100 0.0632018
3 2 7 100 0.0182845
4 2 7 100 0.0261465
5 2 7 100 0.224921
6 2 7 100 0.076038
7 2 7 100 0.376516
0 3 7 100 0.0647017
1 3 7 100 0.11095
2 3 7 100 0.0652949
3 3 7 100 0.0667874
4 3 7 100 0.0833879
5 3 7 100 0.208902
6 3 7 100 0.0333389
7 3 7 100 0.366637
0 4 7 100 0.14184
1 4 7 100 0.0748184
2 4 7 100 0.086031
3 4 7 100 0.0172222
4 4 7 100 0.0689655
5 4 7 100 0.20214
6 4 7 100 0.034487
7 4 7 100 0.374496
0 5 7 100 0.1036
1 5 7 100 0.100023
2 5 7 100 0.0689665
3 5 7 100 0.0523756
4 5 7 100 0.0685683
5 5 7 100 0.186154
6 5 7 100 0.0549035
7 5 7 100 0.365408
0 6 7 100 0.188892
1 6 7 100 0.111664
2 6 7 100 0.0566048
3 6 7 100 0.0588168
4 6 7 100 0.0174841
5 6 7 100 0.169819
6 6 7 100 0.0564692
7 6 7 100 0.340251
0 7 7 100 0.132761
1 7 7 100 0.10865
2 7 7 100 0.072863
3 7 7 100 0.0643948
4 7 7 100 0.0639239
5 7 7 100 0.181859
6 7 7 100 0.0010132
7 7 7 100 0.374535
0 8 7 100 0.0721651
1 8 7 100 0.102574
2 8 7 100 0.103448
3 8 7 100 0.103457
4 8 7 100 0.137932
5 8 7 100 0.0689655
7 8 7 100 0.411458
0 9 7 100 0.0981682
1 9 7 100 0.0682154
2 9 7 100 0.153787
3 9 7 100 0.0769232
4 9 7 100 0.11539
5 9 7 100 0.115385
6 9 7 100 0.0384616
7 9 7 100 0.333669
0 10 7 100 0.142861
2 10 7 100 0.190476
3 10 7 100 0.0952382
4 10 7 100 0.238112
6 10 7 100 0.0476191
7 10 7 100 0.285693
0 11 7 100 0.277726
2 11 7 100 0.166667
3 11 7 100 0.0555556
4 11 7 100 0.0555556
5 11 7 100 0.111162
6 11 7 100 0.222222
7 11 7 100 0.111111
0 12 7 100 0.166936
1 12 7 100 0.0555556
2 12 7 100 0.0556566
3 12 7 100 0.0555556
4 12 7 100 0.111082
5 12 7 100 0.0555556
6 12 7 100 0.38854
7 12 7 100 0.111119
0 13 7 100 0.120947
2 13 7 100 0.294117
3 13 7 100 0.0588235
4 13 7 100 0.17515
5 13 7 100 0.117648
6 13 7 100 0.174491
7 13 7 100 0.0588236
0 14 7 100 0.175144
1 14 7 100 0.0588235
2 14 7 100 0.294175
3 14 7 100 0.117648
4 14 7 100 0.0588235
6 14 7 100 0.235185
7 14 7 100 0.0602004
0 15 7 100 0.117643
1 15 7 100 0.0588235
2 15 7 100 0.235294
3 15 7 100 4.52676e-06
4 15 7 100 0.235294
5 15 7 100 0.0588235
6 15 7 100 0.117647
7 15 7 100 0.176471
0 16 7 100 0.294033
1 16 7 100 0.0588236
2 16 7 100 0.0589079
4 16 7 100 0.352941
5 16 7 100 0.0588236
6 16 7 100 0.117647
7 16 7 100 0.0588236
0 17 7 100 0.177655
1 17 7 100 0.0588235
3 17 7 100 0.11765
4 17 7 100 0.292927
5 17 7 100 0.0588234
6 17 7 100 0.235297
7 17 7 100 0.0588235
0 18 7 100 0.235102
2 18 7 100 0.0588235
3 18 7 100 0.0588235
4 18 7 100 0.294138
5 18 7 100 0.117647
6 18 7 100 0.176642
7 18 7 100 0.0588235
0 19 7 100 0.0588264
1 19 7 100 0.117647
2 19 7 100 0.0588236
3 19 7 100 0.0588236
4 19 7 100 0.470588
5 19 7 100 0.0588236
6 19 7 100 0.117644
7 19 7 100 0.0588236
0 20 7 100 0.411759
1 20 7 100 0.0588236
2 20 7 100 0.0588236
3 20 7 100 0.0588236
4 20 7 100 0.294118
6 20 7 100 0.0588236
7 20 7 100 0.0588294
0 21 7 100 0.117647
1 21 7 100 0.117647
3 21 7 100 0.176471
4 21 7 100 0.294118
6 21 7 100 0.235294
7 21 7 100 0.0588235
0 22 7 100 0.126538
3 22 7 100 0.25
4 22 7 100 0.250013
5 22 7 100 8.52404e-07
6 22 7 100 0.248448
7 22 7 100 0.125
0 23 7 100 0.25014
1 23 7 100 0.187499
2 23 7 100 0.0625
3 23 7 100 0.0625
4 23 7 100 0.187417
5 23 7 100 0.12494
6 23 7 100 0.0625
7 23 7 100 0.0625039
0 24 7 100 0.186116
1 24 7 100 0.1875
2 24 7 100 0.0625007
3 24 7 100 0.3125
4 24 7 100 0.062502
5 24 7 100 0.1875
7 24 7 100 0.00138105
0 25 7 100 0.189103
1 25 7 100 0.0623259
2 25 7 100 0.125
3 25 7 100 0.125
4 25 7 100 0.187424
5 25 7 100 0.248473
7 25 7 100 0.0626742
0 26 7 100 0.0623893
1 26 7 100 0.1875
2 26 7 100 0.125
3 26 7 100 0.125
4 26 7 100 0.1875
5 26 7 100 0.18764
6 26 7 100 0.062471
7 26 7 100 0.0625
0 27 7 100 0.126583
1 27 7 100 0.125
2 27 7 100 0.0625
3 27 7 100 0.125
4 27 7 100 0.248519
5 27 7 100 0.1875
6 27 7 100 0.0623977
7 27 7 100 0.0625
0 28 7 100 0.200459
1 28 7 100 0.133333
2 28 7 100 0.132875
3 28 7 100 0.0666667
4 28 7 100 0.2
5 28 7 100 0.2
7 28 7 100 0.0666667
0 29 7 100 0.133445
1 29 7 100 0.2
2 29 7 100 0.199841
3 29 7 100 0.0666667
4 29 7 100 0.2
5 29 7 100 0.133358
7 29 7 100 0.0666892
0 30 7 100 0.047311
1 30 7 100 0.0716751
2 30 7 100 0.1668
3 30 7 100 0.0714286
4 30 7 100 0.357143
5 30 7 100 0.285643
0 31 7 100 0.214253
1 31 7 100 0.0714286
2 31 7 100 0.142857
3 31 7 100 0.0714293
4 31 7 100 0.285714
5 31 7 100 0.214286
7 31 7 100 3.17777e-05
0 32 7 100 0.453471
2 32 7 100 0.0714286
3 32 7 100 0.0714286
4 32 7 100 0.142858
5 32 7 100 0.214285
6 32 7 100 0.0465287
0 33 7 100 0.142861
1 33 7 100 0.142857
2 33 7 100 0.0714286
3 33 7 100 0.0714285
4 33 7 100 0.357143
5 33 7 100 0.214282
0 34 7 100 0.143399
1 34 7 100 0.0714286
3 34 7 100 0.0714286
4 34 7 100 0.428571
5 34 7 100 0.213744
7 34 7 100 0.0714286
0 35 7 100 0.249995
1 35 7 100 0.25
4 35 7 100 0.166667
5 35 7 100 0.25
6 35 7 100 4.93934e-06
7 35 7 100 0.0833333
0 36 7 100 0.16666
1 36 7 100 0.166667
2 36 7 100 0.0833333
4 36 7 100 0.166667
5 36 7 100 0.416673
0 37 7 100 0.0927438
1 37 7 100 0.179995
4 37 7 100 0.0909091
5 37 7 100 0.363625
6 37 7 100 0.0909091
7 37 7 100 0.181818
0 38 7 100 0.117377
1 38 7 100 0.24626
2 38 7 100 0.0909091
4 38 7 100 0.0909091
5 38 7 100 0.272727
7 38 7 100 0.181818
0 39 7 100 0.181818
1 39 7 100 0.0909092
2 39 7 100 0.0909091
4 39 7 100 0.0909092
5 39 7 100 0.363637
6 39 7 100 0.0909087
7 39 7 100 0.0909092
0 40 7 100 0.272728
1 40 7 100 0.363637
3 40 7 100 0.090909
5 40 7 100 0.0909101
7 40 7 100 0.181817
0 41 7 100 0.364485
2 41 7 100 0.272727
5 41 7 100 4.27965e-06
6 41 7 100 0.0909078
7 41 7 100 0.271876
0 42 7 100 0.200001
2 42 7 100 0.2
5 42 7 100 0.2
7 42 7 100 0.399999
0 43 7 100 0.111266
5 43 7 100 0.110956
6 43 7 100 0.111111
7 43 7 100 0.666667
0 44 7 100 0.012474
2 44 7 100 0.444444
7 44 7 100 0.543082
0 45 7 100 0.277757
2 45 7 100 0.250004
5 45 7 100 0.125
7 45 7 100 0.347239
0 46 7 100 0.374992
1 46 7 100 0.125008
2 46 7 100 0.125
5 46 7 100 0.125
6 46 7 100 0.125
7 46 7 100 0.125
2 47 7 100 0.375
5 47 7 100 0.125
6 47 7 100 0.25
7 47 7 100 0.25
0 48 7 100 0.333333
2 48 7 100 0.5
6 48 7 100 0.166667
0 49 7 100 0.166971
2 49 7 100 0.333034
6 49 7 100 0.166667
7 49 7 100 0.333328
0 50 7 100 0.199911
1 50 7 100 0.4
6 50 7 100 0.2
7 50 7 100 0.200089
0 51 7 100 0.4
1 51 7 100 0.4
2 51 7 100 0.2
1 52 7 100 0.4
2 52 7 100 0.2
6 52 7 100 0.4
0 53 7 100 0.199916
1 53 7 100 0.4
2 53 7 100 8.35662e-05
6 53 7 100 0.4
0 54 7 100 0.2
1 54 7 100 0.2
2 54 7 100 0.2
6 54 7 100 0.4
0 55 7 100 0.2001
2 55 7 100 0.199923
3 55 7 100 0.2
6 55 7 100 0.2
7 55 7 100 0.199978
3 56 7 100 0.5
5 56 7 100 0.25
6 56 7 100 0.25
0 57 7 100 0.249609
2 57 7 100 0.25
3 57 7 100 0.000390702
5 57 7 100 0.5
2 58 7 100 0.25
3 58 7 100 0.25
5 58 7 100 0.5
0 59 7 100 0.333303
1 59 7 100 3.02664e-05
2 59 7 100 0.333333
3 59 7 100 0.333333
1 60 7 100 0.333334
2 60 7 100 0.333334
7 60 7 100 0.333333
1 61 7 100 0.333333
2 61 7 100 0.333333
7 61 7 100 0.333333
5 62 7 100 1
5 63 7 100 1
0 1 8 100 6.52578e-06
1 1 8 100 0.108885
2 1 8 100 0.0751162
3 1 8 100 0.138144
4 1 8 100 0.0957273
5 1 8 100 0.037795
6 1 8 100 0.112987
7 1 8 100 0.24265
8 1 8 100 0.188689
0 2 8 100 0.063006
1 2 8 100 0.0882969
2 2 8 100 0.0441384
3 2 8 100 0.145528
4 2 8 100 0.118157
5 2 8 100 0.0293302
6 2 8 100 0.0556913
7 2 8 100 0.262912
8 2 8 100 0.19294
0 3 8 100 0.162572
1 3 8 100 0.0717833
2 3 8 100 0.0454771
3 3 8 100 0.105441
4 3 8 100 0.065305
5 3 8 100 0.0549509
6 3 8 100 0.0603949
7 3 8 100 0.221972
8 3 8 100 0.212103
0 4 8 100 0.114811
1 4 8 100 0.121225
2 4 8 100 0.0623239
3 4 8 100 0.0545871
4 4 8 100 0.079098
5 4 8 100 0.0635177
6 4 8 100 0.047859
7 4 8 100 0.218975
8 4 8 100 0.237604
0 5 8 100 0.139173
1 5 8 100 0.0877642
2 5 8 100 0.0889951
3 5 8 100 0.105266
4 5 8 100 0.0191144
5 5 8 100 0.0523072
6 5 8 100 0.0688852
7 5 8 100 0.210852
8 5 8 100 0.227642
0 6 8 100 0.127543
1 6 8 100 0.156863
2 6 8 100 0.0699022
3 6 8 100 0.118446
4 6 8 100 0.0588922
5 6 8 100 0.0587797
6 6 8 100 0.0394262
7 6 8 100 0.176511
8 6 8 100 0.193636
0 7 8 100 0.108825
1 7 8 100 0.136318
2 7 8 100 0.123802
3 7 8 100 0.133489
4 7 8 100 0.0682798
5 7 8 100 0.0429171
6 7 8 100 0.0454557
7 7 8 100 0.136466
8 7 8 100 0.204449
0 8 8 100 0.180033
1 8 8 100 0.204634
2 8 8 100 0.12818
3 8 8 100 0.0769482
4 8 8 100 0.0257479
5 8 8 100 0.0769194
6 8 8 100 0.025641
7 8 8 100 0.128246
8 8 8 100 0.15365
0 9 8 100 0.242142
1 9 8 100 0.172355
2 9 8 100 0.0682377
5 9 8 100 0.172399
6 9 8 100 0.0344828
7 9 8 100 0.137961
8 9 8 100 0.172422
0 10 8 100 0.190278
1 10 8 100 0.192307
2 10 8 100 0.115385
3 10 8 100 0.0769231
4 10 8 100 0.000111778
5 10 8 100 0.153952
6 10 8 100 0.00192451
7 10 8 100 0.0769231
8 10 8 100 0.192197
0 11 8 100 0.177035
1 11 8 100 0.281296
2 11 8 100 0.0416667
3 11 8 100 0.0833333
4 11 8 100 0.0416667
5 11 8 100 0.0833334
6 11 8 100 0.0416667
7 11 8 100 0.0833334
8 11 8 100 0.166669
0 12 8 100 0.0917975
1 12 8 100 0.272713
2 12 8 100 0.13621
4 12 8 100 0.0909091
5 12 8 100 0.0454551
6 12 8 100 0.136364
7 12 8 100 0.0901752
8 12 8 100 0.136376
0 13 8 100 0.0934699
1 13 8 100 0.136356
2 13 8 100 0.0456145
3 13 8 100 0.0454546
4 13 8 100 0.227267
5 13 8 100 0.0908957
6 13 8 100 0.135545
8 13 8 100 0.225397
0 14 8 100 0.100857
1 14 8 100 0.150102
2 14 8 100 0.046668
3 14 8 100 0.101429
4 14 8 100 0.19846
5 14 8 100 0.0500838
6 14 8 100 0.1
8 14 8 100 0.2524
0 15 8 100 0.105263
1 15 8 100 0.105263
3 15 8 100 0.105263
4 15 8 100 0.157895
5 15 8 100 0.0526316
6 15 8 100 0.105263
7 15 8 100 0.0526316
8 15 8 100 0.315789
0 16 8 100 0.117649
1 16 8 100 0.235294
3 16 8 100 0.117647
4 16 8 100 0.117647
6 16 8 100 0.117645
7 16 8 100 0.0588236
8 16 8 100 0.235294
0 17 8 100 0.118979
1 17 8 100 0.117647
3 17 8 100 0.206509
4 17 8 100 0.0587211
5 17 8 100 0.0274515
6 17 8 100 0.0588236
7 17 8 100 0.0588236
8 17 8 100 0.353046
0 18 8 100 0.0708838
1 18 8 100 0.0714286
3 18 8 100 0.142855
4 18 8 100 0.0714286
5 18 8 100 0.142857
6 18 8 100 0.0714286
7 18 8 100 0.0719755
8 18 8 100 0.357143
0 19 8 100 0.00182224
1 19 8 100 0.0769231
3 19 8 100 0.0769231
4 19 8 100 0.0769247
5 19 8 100 0.153846
6 19 8 100 0.0751003
7 19 8 100 0.153845
8 19 8 100 0.384615
0 20 8 100 0.250014
3 20 8 100 0.0833327
4 20 8 100 0.0833334
5 20 8 100 0.166667
6 20 8 100 0.0833297
7 20 8 100 0.0833371
8 20 8 100 0.249986
0 21 8 100 0.000192593
3 21 8 100 0.0997931
5 21 8 100 0.4
6 21 8 100 1.24341e-06
7 21 8 100 0.100014
8 21 8 100 0.399999
0 22 8 100 0.0820723
1 22 8 100 0.0987135
3 22 8 100 0.102182
5 22 8 100 0.517032
7 22 8 100 0.1
8 22 8 100 0.1
0 23 8 100 0.0289154
1 23 8 100 0.100133
3 23 8 100 0.2
4 23 8 100 0.1
5 23 8 100 0.171085
7 23 8 100 0.2
8 23 8 100 0.199867
0 24 8 100 0.299712
1 24 8 100 0.1
3 24 8 100 1.49367e-05
4 24 8 100 0.1
5 24 8 100 0.300274
7 24 8 100 0.199998
0 25 8 100 2.2645e-05
1 25 8 100 0.2
3 25 8 100 0.2
5 25 8 100 0.199977
7 25 8 100 0.2
8 25 8 100 0.2
1 26 8 100 0.222223
3 26 8 100 0.333334
5 26 8 100 0.111111
7 26 8 100 0.111111
8 26 8 100 0.222222
0 27 8 100 0.125
1 27 8 100 0.125
3 27 8 100 0.37499
5 27 8 100 0.125009
8 27 8 100 0.25
0 28 8 100 0.144415
1 28 8 100 0.285714
3 28 8 100 0.28414
5 28 8 100 0.284747
8 28 8 100 0.000983211
1 29 8 100 0.571432
3 29 8 100 0.142857
8 29 8 100 0.285711
0 30 8 100 0.142851
1 30 8 100 0.428572
2 30 8 100 0.142857
5 30 8 100 5.84662e-06
8 30 8 100 0.285714
0 31 8 100 0.286324
1 31 8 100 0.142857
2 31 8 100 0.142857
6 31 8 100 0.285104
8 31 8 100 0.142857
0 32 8 100 0.00711584
1 32 8 100 0.428571
2 32 8 100 0.142857
4 32 8 100 6.05798e-06
8 32 8 100 0.421449
0 33 8 100 0.166628
1 33 8 100 0.5
6 33 8 100 0.333331
8 33 8 100 4.13947e-05
0 34 8 100 0.166667
1 34 8 100 0.166667
5 34 8 100 0.166667
6 34 8 100 0.5
0 35 8 100 0.16687
1 35 8 100 0.333333
6 35 8 100 0.499797
0 36 8 100 0.333333
6 36 8 100 0.5
7 36 8 100 0.166667
0 37 8 100 0.2
1 37 8 100 0.2
5 37 8 100 0.199507
6 37 8 100 0.4
8 37 8 100 0.000492787
1 38 8 100 0.2
2 38 8 100 0.2
6 38 8 100 0.6
0 39 8 100 0.4
1 39 8 100 0.2
5 39 8 100 0.00186744
6 39 8 100 0.2
8 39 8 100 0.198133
0 40 8 100 0.199523
1 40 8 100 0.199465
2 40 8 100 0.4
5 40 8 100 0.00103181
6 40 8 100 0.19998
0 41 8 100 0.2
1 41 8 100 0.2
2 41 8 100 0.4
3 41 8 100 0.2
0 42 8 100 0.115354
2 42 8 100 0.2
3 42 8 100 0.0846489
6 42 8 100 0.2
8 42 8 100 0.399997
0 43 8 100 0.598041
1 43 8 100 0.00195848
2 43 8 100 0.4
0 44 8 100 0.199967
2 44 8 100 0.2
3 44 8 100 3.25322e-05
5 44 8 100 0.2
6 44 8 100 0.2
8 44 8 100 0.2
0 45 8 100 0.2
2 45 8 100 0.2
5 45 8 100 0.4
8 45 8 100 0.2
0 46 8 100 0.25
2 46 8 100 0.499992
5 46 8 100 0.250008
2 47 8 100 0.333333
5 47 8 100 0.333333
6 47 8 100 0.333333
0 48 8 100 0.666667
5 48 8 100 0.333333
2 49 8 100 1.14359e-05
3 49 8 100 0.333333
5 49 8 100 0.666655
0 50 8 100 0.5
2 50 8 100 0.5
0 51 8 100 0.176503
3 51 8 100 0.823497
2 52 8 100 0.499999
3 52 8 100 0.500001
0 53 8 100 0.5
5 53 8 100 0.5
3 54 8 100 0.5
5 54 8 100 0.5
3 55 8 100 0.5
7 55 8 100 0.5
0 56 8 100 0.5
7 56 8 100 0.5
0 57 8 100 0.5
5 57 8 100 0.5
3 58 8 100 0.5
5 58 8 100 0.5
0 59 8 100 0.499999
3 59 8 100 0.500001
3 60 8 100 0.5
8 60 8 100 0.5
0 61 8 100 1.40907e-05
6 61 8 100 0.999986
6 62 8 100 1
3 63 8 100 1
0 1 9 100 0.00499538
1 1 9 100 0.184475
2 1 9 100 0.194021
3 1 9 100 0.00512062
4 1 9 100 0.0710603
5 1 9 100 0.0168742
6 1 9 100 0.110876
7 1 9 100 0.117647
8 1 9 100 4.32052e-05
9 1 9 100 0.294887
0 2 9 100 0.0968491
1 2 9 100 0.124905
2 2 9 100 0.163635
3 2 9 100 5.68252e-07
4 2 9 100 0.0735636
5 2 9 100 0.0727273
6 2 9 100 0.0866479
7 2 9 100 0.0870382
8 2 9 100 0.00372798
9 2 9 100 0.290905
0 3 9 100 0.09423
1 3 9 100 0.166667
2 3 9 100 0.165993
4 3 9 100 0.0736757
5 3 9 100 0.0740725
6 3 9 100 0.0940821
7 3 9 100 0.073542
8 3 9 100 1.83744e-06
9 3 9 100 0.257736
0 4 9 100 0.183578
1 4 9 100 0.129614
2 4 9 100 0.163422
3 4 9 100 0.000260512
4 4 9 100 0.0740378
5 4 9 100 0.0740741
6 4 9 100 0.110239
7 4 9 100 0.0743424
8 4 9 100 3.72569e-06
9 4 9 100 0.190428
0 5 9 100 0.109763
1 5 9 100 0.127079
2 5 9 100 0.153874
3 5 9 100 0.0196193
4 5 9 100 0.0914966
5 5 9 100 0.0495077
6 5 9 100 0.156846
7 5 9 100 0.0392165
9 5 9 100 0.252597
0 6 9 100 0.223183
1 6 9 100 0.173914
2 6 9 100 0.13171
3 6 9 100 0.0228891
4 6 9 100 0.0816788
5 6 9 100 0.0217391
6 6 9 100 0.129074
7 6 9 100 0.0434914
9 6 9 100 0.172321
0 7 9 100 0.115042
1 7 9 100 0.0930119
2 7 9 100 0.209302
3 7 9 100 0.0234339
4 7 9 100 0.0925727
5 7 9 100 0.116271
6 7 9 100 0.0944759
7 7 9 100 0.0465222
8 7 9 100 0.0232558
9 7 9 100 0.186113
0 8 9 100 0.124032
1 8 9 100 0.144714
2 8 9 100 0.19473
3 8 9 100 0.0731707
4 8 9 100 0.0487811
5 8 9 100 0.0487805
6 8 9 100 0.0975648
7 8 9 100 0.0243903
8 8 9 100 0.0243902
9 8 9 100 0.219446
0 9 9 100 0.222877
1 9 9 100 0.0845747
2 9 9 100 0.202302
3 9 9 100 0.0769189
4 9 9 100 0.0513168
5 9 9 100 0.0647683
6 9 9 100 0.051282
7 9 9 100 0.0503979
9 9 9 100 0.195562
0 10 9 100 0.0677277
1 10 9 100 0.133361
2 10 9 100 0.233338
3 10 9 100 0.133287
4 10 9 100 0.133333
5 10 9 100 0.0666667
6 10 9 100 0.0666693
7 10 9 100 0.098983
9 10 9 100 0.0666342
0 11 9 100 0.111129
1 11 9 100 0.111111
2 11 9 100 0.223188
3 11 9 100 0.222191
4 11 9 100 0.111111
5 11 9 100 0.037037
6 11 9 100 0.0360693
7 11 9 100 0.0740892
9 11 9 100 0.0740741
0 12 9 100 0.111108
1 12 9 100 0.148148
2 12 9 100 0.148151
3 12 9 100 0.296293
4 12 9 100 0.0740741
5 12 9 100 0.0740741
6 12 9 100 0.037037
7 12 9 100 2.97417e-06
8 12 9 100 0.0740741
9 12 9 100 0.037037
0 13 9 100 0.223396
1 13 9 100 0.111281
2 13 9 100 0.000665298
3 13 9 100 0.222223
4 13 9 100 0.185193
5 13 9 100 0.0994684
6 13 9 100 0.0106295
7 13 9 100 0.0370374
9 13 9 100 0.110106
0 14 9 100 0.0835859
1 14 9 100 0.239667
2 14 9 100 0.08
3 14 9 100 0.159637
4 14 9 100 0.080283
5 14 9 100 0.15654
6 14 9 100 0.0798761
7 14 9 100 0.000363471
8 14 9 100 0.04
9 14 9 100 0.0800483
0 15 9 100 0.138441
1 15 9 100 0.227273
2 15 9 100 0.0454546
3 15 9 100 0.271699
4 15 9 100 0.134301
6 15 9 100 2.58693e-06
7 15 9 100 0.00102797
8 15 9 100 0.0454546
9 15 9 100 0.136346
0 16 9 100 0.142861
1 16 9 100 0.238092
3 16 9 100 0.049031
4 16 9 100 0.238095
5 16 9 100 0.0476191
6 16 9 100 2.16627e-05
7 16 9 100 0.0462071
8 16 9 100 0.0476191
9 16 9 100 0.190454
0 17 9 100 0.147011
1 17 9 100 0.149947
2 17 9 100 0.050844
3 17 9 100 0.25
4 17 9 100 0.1
5 17 9 100 0.0518622
7 17 9 100 0.0999872
8 17 9 100 0.05
9 17 9 100 0.10035
0 18 9 100 0.110516
1 18 9 100 0.0972402
3 18 9 100 0.347777
4 18 9 100 0.0999943
5 18 9 100 0.144472
7 18 9 100 0.05
8 18 9 100 0.05
9 18 9 100 0.1
0 19 9 100 0.368927
1 19 9 100 0.105263
3 19 9 100 0.254072
5 19 9 100 0.0526316
7 19 9 100 0.113843
9 19 9 100 0.105263
0 20 9 100 0.392731
1 20 9 100 0.0526315
3 20 9 100 0.39672
6 20 9 100 5.08236e-06
7 20 9 100 0.157895
9 20 9 100 1.73205e-05
0 21 9 100 0.0555556
1 21 9 100 0.222222
2 21 9 100 0.11111
3 21 9 100 0.325461
5 21 9 100 0.0555556
7 21 9 100 0.118983
9 21 9 100 0.111111
0 22 9 100 0.274652
1 22 9 100 0.222222
2 22 9 100 0.111111
3 22 9 100 0.0690083
5 22 9 100 0.0555556
7 22 9 100 0.15634
9 22 9 100 0.111111
0 23 9 100 0.082541
1 23 9 100 0.166667
2 23 9 100 0.155118
3 23 9 100 0.277778
6 23 9 100 4.87444e-06
7 23 9 100 0.15909
8 23 9 100 0.0555556
9 23 9 100 0.103246
0 24 9 100 0.168269
1 24 9 100 0.166667
2 24 9 100 0.0555556
3 24 9 100 0.338501
5 24 9 100 0.0555556
7 24 9 100 0.10434
8 24 9 100 0.0555556
9 24 9 100 0.0555556
0 25 9 100 0.223422
1 25 9 100 0.329539
2 25 9 100 0.055294
3 25 9 100 0.111111
5 25 9 100 0.111111
7 25 9 100 0.113736
8 25 9 100 0.055787
0 26 9 100 0.33978
1 26 9 100 0.0561428
2 26 9 100 0.0555377
4 26 9 100 1.11985e-06
5 26 9 100 0.222222
6 26 9 100 0.0555556
7 26 9 100 0.111111
9 26 9 100 0.15965
0 27 9 100 0.11108
1 27 9 100 0.277778
2 27 9 100 0.111109
5 27 9 100 0.222222
7 27 9 100 0.111111
8 27 9 100 1.68997e-06
9 27 9 100 0.166697
0 28 9 100 0.0139225
1 28 9 100 0.31937
2 28 9 100 0.111111
3 28 9 100 0.111111
4 28 9 100 0.0555556
5 28 9 100 0.166708
6 28 9 100 0.0555556
9 28 9 100 0.166667
0 29 9 100 0.3296
1 29 9 100 0.166666
2 29 9 100 0.170401
3 29 9 100 0.0555556
4 29 9 100 0.0555556
5 29 9 100 0.0555556
7 29 9 100 0.0555551
8 29 9 100 0.0555556
9 29 9 100 0.0555556
0 30 9 100 0.124963
1 30 9 100 0.4375
4 30 9 100 0.124996
5 30 9 100 0.125
6 30 9 100 0.125
7 30 9 100 4.13947e-05
9 30 9 100 0.0625
0 31 9 100 0.133226
1 31 9 100 0.4
3 31 9 100 0.0667745
5 31 9 100 0.133333
6 31 9 100 0.0666667
8 31 9 100 0.133333
9 31 9 100 0.0666667
0 32 9 100 0.214288
1 32 9 100 0.285714
2 32 9 100 0.0714286
5 32 9 100 0.142857
7 32 9 100 0.142855
8 32 9 100 0.0714286
9 32 9 100 0.0714286
0 33 9 100 0.064521
1 33 9 100 0.149777
5 33 9 100 0.214286
6 33 9 100 0.142857
7 33 9 100 0.0714286
8 33 9 100 0.285714
9 33 9 100 0.0714161
0 34 9 100 0.0771978
1 34 9 100 0.230769
5 34 9 100 0.0766493
6 34 9 100 0.0769231
7 34 9 100 0.153846
8 34 9 100 0.230769
9 34 9 100 0.153845
0 35 9 100 0.306088
5 35 9 100 0.307692
6 35 9 100 0.0769231
8 35 9 100 0.230769
9 35 9 100 0.0785273
0 36 9 100 0.153846
1 36 9 100 0.307692
5 36 9 100 0.0769231
6 36 9 100 0.0769231
7 36 9 100 0.0769231
8 36 9 100 0.307692
0 37 9 100 0.181818
1 37 9 100 0.0909091
5 37 9 100 0.0909091
6 37 9 100 0.272727
7 37 9 100 0.181818
8 37 9 100 0.181818
0 38 9 100 0.182203
1 38 9 100 0.0909091
5 38 9 100 0.0909018
6 38 9 100 0.272727
7 38 9 100 0.0909091
8 38 9 100 0.18144
9 38 9 100 0.0909091
0 39 9 100 0.106908
3 39 9 100 0.0909091
4 39 9 100 0.0909091
5 39 9 100 0.0926767
6 39 9 100 0.164052
7 39 9 100 0.272727
8 39 9 100 0.181818
0 40 9 100 0.092562
3 40 9 100 0.0909091
4 40 9 100 0.0907928
5 40 9 100 0.0909091
6 40 9 100 0.272727
7 40 9 100 0.0909091
8 40 9 100 0.271191
0 41 9 100 0.360876
3 41 9 100 0.0909091
4 41 9 100 0.181818
6 41 9 100 0.262718
8 41 9 100 0.0909091
9 41 9 100 0.0127696
0 42 9 100 0.181814
2 42 9 100 0.0909091
3 42 9 100 0.181818
5 42 9 100 0.181818
6 42 9 100 0.0909091
7 42 9 100 4.27868e-06
8 42 9 100 0.272727
0 43 9 100 0.000160554
1 43 9 100 0.1
2 43 9 100 0.0999908
3 43 9 100 0.1
4 43 9 100 0.299849
8 43 9 100 0.4
0 44 9 100 0.100013
1 44 9 100 0.1
4 44 9 100 0.199987
6 44 9 100 0.2
8 44 9 100 0.4
0 45 9 100 0.107949
1 45 9 100 0.111111
3 45 9 100 0.111111
5 45 9 100 0.111111
6 45 9 100 0.111111
7 45 9 100 0.111111
8 45 9 100 0.333333
9 45 9 100 0.00316172
0 46 9 100 0.111148
1 46 9 100 0.111111
3 46 9 100 0.111111
6 46 9 100 0.111111
7 46 9 100 0.222222
8 46 9 100 0.333296
0 47 9 100 0.00363522
3 47 9 100 0.222222
6 47 9 100 0.333333
7 47 9 100 0.107476
8 47 9 100 0.333333
0 48 9 100 0.0023749
1 48 9 100 0.222222
3 48 9 100 0.333333
6 48 9 100 0.219847
7 48 9 100 0.111111
8 48 9 100 0.111111
0 49 9 100 0.114393
1 49 9 100 0.111111
3 49 9 100 0.222222
6 49 9 100 0.111111
7 49 9 100 0.22016
9 49 9 100 0.221002
0 50 9 100 0.222221
1 50 9 100 0.111111
2 50 9 100 0.222222
3 50 9 100 0.111111
6 50 9 100 0.111111
7 50 9 100 0.111113
9 50 9 100 0.111111
0 51 9 100 0.25
3 51 9 100 0.375
6 51 9 100 0.25
9 51 9 100 0.125
1 52 9 100 0.142857
3 52 9 100 0.714286
7 52 9 100 0.142857
0 53 9 100 0.445712
1 53 9 100 0.142857
3 53 9 100 0.142857
4 53 9 100 0.0479254
9 53 9 100 0.220648
0 54 9 100 0.0106282
1 54 9 100 0.142857
2 54 9 100 0.142857
3 54 9 100 0.428571
7 54 9 100 0.142857
9 54 9 100 0.132229
0 55 9 100 3.74331e-06
3 55 9 100 0.285714
6 55 9 100 0.285714
7 55 9 100 0.142857
9 55 9 100 0.285711
0 56 9 100 0.142857
2 56 9 100 0.142857
3 56 9 100 0.285714
5 56 9 100 0.142857
6 56 9 100 0.142857
7 56 9 100 0.142857
0 57 9 100 0.142628
1 57 9 100 0.143086
3 57 9 100 0.142857
6 57 9 100 0.428571
7 57 9 100 0.142857
0 58 9 100 0.166667
2 58 9 100 0.166667
5 58 9 100 0.166667
7 58 9 100 0.333333
9 58 9 100 0.166667
0 59 9 100 0.166667
6 59 9 100 0.166667
7 59 9 100 0.5
9 59 9 100 0.166667
0 60 9 100 0.498128
2 60 9 100 0.166667
4 60 9 100 0.000924129
6 60 9 100 0.166667
7 60 9 100 0.000947955
9 60 9 100 0.166667
2 61 9 100 0.4
6 61 9 100 0.2
7 61 9 100 0.4
2 62 9 100 0.666667
7 62 9 100 0.333333
2 63 9 100 0.333333
7 63 9 100 0.333333
8 63 9 100 0.333333
0 64 9 100 0.654897
4 64 9 100 5.9472e-06
8 64 9 100 9.1851e-05
9 64 9 100 0.345005
2 65 9 100 0.5
8 65 9 100 0.5
2 66 9 100 0.5
8 66 9 100 0.5
0 67 9 100 9.84232e-05
5 67 9 100 0.5
8 67 9 100 0.499902
2 68 9 100 0.5
8 68 9 100 0.5
0 69 9 100 0.500091
4 69 9 100 0.499909
0 70 9 100 6.8612e-06
4 70 9 100 0.499993
8 70 9 100 0.5
2 71 9 100 0.5
8 71 9 100 0.5
0 72 9 100 0.50002
4 72 9 100 0.49998
5 73 9 100 0.5
8 73 9 100 0.5
0 74 9 100 0.00576419
5 74 9 100 0.5
9 74 9 100 0.494236
9 75 9 100 1
5 76 9 100 1
5 77 9 100 1
9 78 9 100 1
5 79 9 100 1
0 1 10 100 0.035391
1 1 10 100 0.345204
2 1 10 100 0.0689732
3 1 10 100 0.0710844
5 1 10 100 0.0537216
6 1 10 100 0.0434382
8 1 10 100 0.10861
9 1 10 100 0.149891
10 1 10 100 0.123686
0 2 10 100 0.0906691
1 2 10 100 0.293429
2 2 10 100 0.0689902
3 2 10 100 0.0350337
4 2 10 100 0.0110446
5 2 10 100 0.0345139
6 2 10 100 0.0316561
7 2 10 100 0.0403692
8 2 10 100 0.0834492
9 2 10 100 0.0695105
10 2 10 100 0.241334
0 3 10 100 0.000680843
1 3 10 100 0.285685
2 3 10 100 0.0714286
3 3 10 100 0.0357178
5 3 10 100 0.0714286
6 3 10 100 0.0357143
7 3 10 100 0.0356572
8 3 10 100 0.107143
9 3 10 100 0.177953
10 3 10 100 0.178592
0 4 10 100 0.108461
1 4 10 100 0.18493
2 4 10 100 0.0740784
3 4 10 100 0.0370453
5 4 10 100 0.0740755
6 4 10 100 0.000229668
7 4 10 100 0.0370357
8 4 10 100 0.113795
9 4 10 100 0.185185
10 4 10 100 0.185163
0 5 10 100 0.155681
1 5 10 100 0.208832
2 5 10 100 0.0814649
3 5 10 100 0.0370432
4 5 10 100 0.0282075
5 5 10 100 0.0852441
6 5 10 100 1.49132e-05
7 5 10 100 0.0370688
8 5 10 100 0.0750587
9 5 10 100 0.1482
10 5 10 100 0.143185
0 6 10 100 0.0277498
1 6 10 100 0.192463
2 6 10 100 0.0548117
3 6 10 100 0.0385019
4 6 10 100 0.115383
5 6 10 100 0.076977
6 6 10 100 9.55434e-06
7 6 10 100 0.0769231
8 6 10 100 0.0718076
9 6 10 100 0.0770622
10 6 10 100 0.268311
0 7 10 100 0.147872
1 7 10 100 0.142854
2 7 10 100 0.0952381
3 7 10 100 0.0952298
4 7 10 100 0.142625
5 7 10 100 0.0952527
7 7 10 100 0.0476125
8 7 10 100 0.0952392
9 7 10 100 0.000439964
10 7 10 100 0.137636
0 8 10 100 0.0534389
1 8 10 100 0.0952376
2 8 10 100 0.190475
3 8 10 100 0.0476191
4 8 10 100 0.142489
5 8 10 100 0.0476205
6 8 10 100 0.0476191
7 8 10 100 0.0476191
8 8 10 100 0.0428388
9 8 10 100 0.0476234
10 8 10 100 0.237419
0 9 10 100 0.11262
2 9 10 100 0.0555556
3 9 10 100 0.111111
4 9 10 100 0.165201
5 9 10 100 0.111111
7 9 10 100 0.111111
8 9 10 100 0.0555555
10 9 10 100 0.277735
0 10 10 100 0.16726
1 10 10 100 0.160123
2 10 10 100 0.0555885
3 10 10 100 0.111112
4 10 10 100 0.11071
6 10 10 100 0.114029
7 10 10 100 0.00378849
9 10 10 100 0.000146324
10 10 10 100 0.277242
0 11 10 100 0.231657
1 11 10 100 0.0758596
2 11 10 100 0.0769232
3 11 10 100 1.07096e-06
5 11 10 100 0.0769232
6 11 10 100 0.153846
7 11 10 100 0.0770987
10 11 10 100 0.307691
0 12 10 100 0.0862659
3 12 10 100 0.0769231
4 12 10 100 0.230769
5 12 10 100 0.0769231
6 12 10 100 0.0769231
7 12 10 100 0.221426
10 12 10 100 0.230769
0 13 10 100 0.0757475
2 13 10 100 0.0769231
3 13 10 100 0.0769231
4 13 10 100 0.230769
5 13 10 100 0.0769231
6 13 10 100 0.076923
7 13 10 100 0.230747
10 13 10 100 0.155044
0 14 10 100 0.208417
2 14 10 100 0.166667
3 14 10 100 0.0833333
4 14 10 100 0.0833333
7 14 10 100 0.205807
10 14 10 100 0.252442
0 15 10 100 0.333351
1 15 10 100 0.0833163
2 15 10 100 0.0833334
5 15 10 100 0.0833334
7 15 10 100 0.0833334
8 15 10 100 0.166667
10 15 10 100 0.166666
0 16 10 100 0.272877
2 16 10 100 0.0909091
5 16 10 100 0.0909091
7 16 10 100 0.272713
8 16 10 100 0.0909111
10 16 10 100 0.181681
0 17 10 100 0.273433
1 17 10 100 0.00147255
2 17 10 100 0.0909091
4 17 10 100 9.43036e-07
7 17 10 100 0.272727
9 17 10 100 0.270548
10 17 10 100 0.0909091
0 18 10 100 0.272648
1 18 10 100 0.0908887
2 18 10 100 0.090909
7 18 10 100 0.181839
8 18 10 100 0.0909409
9 18 10 100 0.0909571
10 18 10 100 0.181818
0 19 10 100 0.0909505
1 19 10 100 0.0909091
2 19 10 100 0.181818
3 19 10 100 0.0909091
7 19 10 100 0.181818
8 19 10 100 0.0909091
9 19 10 100 0.0909091
10 19 10 100 0.181777
0 20 10 100 0.363632
1 20 10 100 0.0909091
3 20 10 100 0.0909091
4 20 10 100 0.0909091
7 20 10 100 0.0909091
8 20 10 100 0.0909135
9 20 10 100 0.0909091
10 20 10 100 0.0909091
1 21 10 100 0.0909091
3 21 10 100 0.272727
5 21 10 100 0.0909091
6 21 10 100 0.0909091
7 21 10 100 0.181818
8 21 10 100 0.0909091
9 21 10 100 0.0909091
10 21 10 100 0.0909091
0 22 10 100 0.3
1 22 10 100 0.1
3 22 10 100 0.2
5 22 10 100 0.1
6 22 10 100 0.1
7 22 10 100 0.1
8 22 10 100 0.1
0 23 10 100 0.00164785
1 23 10 100 0.220575
2 23 10 100 2.10044e-05
3 23 10 100 0.333313
7 23 10 100 0.111111
8 23 10 100 0.111111
9 23 10 100 0.222221
0 24 10 100 0.000384919
1 24 10 100 0.111111
2 24 10 100 0.111108
3 24 10 100 0.332951
5 24 10 100 0.111111
7 24 10 100 0.111111
9 24 10 100 0.111111
10 24 10 100 0.111111
0 25 10 100 3.61685e-05
5 25 10 100 0.285714
7 25 10 100 0.142857
9 25 10 100 0.285714
10 25 10 100 0.285678
0 26 10 100 0.285652
1 26 10 100 6.25475e-05
7 26 10 100 0.142857
9 26 10 100 0.285704
10 26 10 100 0.285725
0 27 10 100 0.142857
3 27 10 100 0.142857
4 27 10 100 0.142857
9 27 10 100 0.428572
10 27 10 100 0.142857
3 28 10 100 0.142857
4 28 10 100 0.142857
6 28 10 100 0.142857
9 28 10 100 0.285714
10 28 10 100 0.285715
0 29 10 100 0.43804
1 29 10 100 0.142857
9 29 10 100 0.142857
10 29 10 100 0.276246
0 30 10 100 0.142951
1 30 10 100 0.142857
9 30 10 100 0.142857
10 30 10 100 0.571334
0 31 10 100 0.143824
1 31 10 100 0.142859
4 31 10 100 1.51784e-05
9 31 10 100 0.142857
10 31 10 100 0.570445
0 32 10 100 0.143274
2 32 10 100 0.000316288
6 32 10 100 8.65601e-06
8 32 10 100 0.142857
9 32 10 100 0.285714
10 32 10 100 0.427829
0 33 10 100 0.116289
2 33 10 100 0.142857
4 33 10 100 0.142857
8 33 10 100 0.0272686
9 33 10 100 0.285714
10 33 10 100 0.285014
0 34 10 100 0.571339
5 34 10 100 8.94484e-05
10 34 10 100 0.428571
0 35 10 100 0.20667
1 35 10 100 9.60797e-06
2 35 10 100 0.142787
5 35 10 100 7.02167e-05
7 35 10 100 0.0790349
9 35 10 100 0.285714
10 35 10 100 0.285714
0 36 10 100 0.428493
1 36 10 100 0.142857
4 36 10 100 0.285702
9 36 10 100 0.142947
0 37 10 100 0.00646924
1 37 10 100 0.279245
4 37 10 100 0.142857
8 37 10 100 0.142857
9 37 10 100 0.285714
10 37 10 100 0.142857
0 38 10 100 0.423467
1 38 10 100 0.142857
2 38 10 100 0.142857
4 38 10 100 0.142944
9 38 10 100 0.0033378
10 38 10 100 0.144537
0 39 10 100 0.142857
2 39 10 100 0.142857
4 39 10 100 0.142857
5 39 10 100 0.285714
9 39 10 100 0.142857
10 39 10 100 0.142857
0 40 10 100 0.141195
1 40 10 100 0.285715
5 40 10 100 0.285478
7 40 10 100 0.00189818
8 40 10 100 0.142857
10 40 10 100 0.142856
0 41 10 100 0.428588
5 41 10 100 0.142857
6 41 10 100 0.142857
8 41 10 100 0.142831
9 41 10 100 8.80773e-06
10 41 10 100 0.142857
0 42 10 100 0.142857
1 42 10 100 0.142857
2 42 10 100 0.142857
3 42 10 100 0.142857
4 42 10 100 0.285714
10 42 10 100 0.142857
0 43 10 100 0.142906
2 43 10 100 0.142857
3 43 10 100 0.142851
4 43 10 100 0.428538
10 43 10 100 0.142848
0 44 10 100 0.142854
1 44 10 100 0.142857
2 44 10 100 0.142861
4 44 10 100 0.285714
10 44 10 100 0.285714
0 45 10 100 0.144306
1 45 10 100 0.284264
4 45 10 100 0.142857
9 45 10 100 0.142857
10 45 10 100 0.285715
0 46 10 100 0.166667
4 46 10 100 0.166624
5 46 10 100 0.166708
8 46 10 100 0.166667
9 46 10 100 0.166667
10 46 10 100 0.166667
1 47 10 100 0.166667
4 47 10 100 0.333333
5 47 10 100 0.166667
7 47 10 100 0.166667
9 47 10 100 0.166667
0 48 10 100 0.282048
1 48 10 100 0.166667
5 48 10 100 0.333215
7 48 10 100 0.000237566
8 48 10 100 0.0511655
9 48 10 100 0.166667
1 49 10 100 0.2
4 49 10 100 0.2
5 49 10 100 0.2
7 49 10 100 0.2
9 49 10 100 0.2
5 50 10 100 0.599999
7 50 10 100 0.2
9 50 10 100 0.2
5 51 10 100 0.333333
9 51 10 100 0.333333
10 51 10 100 0.333333
0 52 10 100 0.333333
5 52 10 100 0.333333
9 52 10 100 0.333333
5 53 10 100 0.666667
10 53 10 100 0.333333
0 54 10 100 0.66504
4 54 10 100 0.333333
7 54 10 100 0.00162692
1 55 10 100 0.333333
5 55 10 100 0.333333
10 55 10 100 0.333333
0 56 10 100 0.666667
10 56 10 100 0.333333
0 57 10 100 0.66364
2 57 10 100 3.85505e-06
5 57 10 100 0.333334
7 57 10 100 0.00302295
0 58 10 100 0.500073
5 58 10 100 0.499927
4 59 10 100 1
0 60 10 100 0.5
4 60 10 100 0.5
3 61 10 100 0.500001
8 61 10 100 0.499999
3 62 10 100 1
1 63 10 100 0.5
4 63 10 100 0.5
1 64 10 100 0.5
3 64 10 100 0.5
0 65 10 100 1.46251e-05
1 65 10 100 0.5
2 65 10 100 0.499985
1 66 10 100 0.5
2 66 10 100 0.5
8 67 10 100 0.5
10 67 10 100 0.5
0 68 10 100 0.5
8 68 10 100 0.5
10 69 10 100 1
6 70 10 100 1
0 71 10 100 0.999446
5 71 10 100 1.39906e-05
7 71 10 100 0.000540251
6 72 10 100 1
0 73 10 100 0.00112693
5 73 10 100 0.998848
7 73 10 100 2.45477e-05
6 74 10 100 1
6 75 10 100 1
0 1 11 100 0.0416667
1 1 11 100 0.357449
3 1 11 100 0.179632
4 1 11 100 0.181524
6 1 11 100 0.0555072
7 1 11 100 0.00793189
8 1 11 100 0.00671958
10 1 11 100 0.16957
0 2 11 100 0.142838
1 2 11 100 0.238067
2 2 11 100 3.54352e-05
3 2 11 100 0.123881
4 2 11 100 0.190472
5 2 11 100 2.89421e-06
6 2 11 100 0.0476191
8 2 11 100 0.0189735
9 2 11 100 0.0476271
10 2 11 100 0.190483
0 3 11 100 0.0526931
1 3 11 100 0.157884
2 3 11 100 0.0526451
3 3 11 100 0.105132
4 3 11 100 0.210514
5 3 11 100 1.0891e-06
6 3 11 100 0.157881
9 3 11 100 1.14146e-05
10 3 11 100 0.210606
11 3 11 100 0.0526316
0 4 11 100 0.00232756
1 4 11 100 0.166667
2 4 11 100 0.0555556
3 4 11 100 0.111111
4 4 11 100 0.175567
5 4 11 100 0.0257459
6 4 11 100 0.11034
7 4 11 100 1.58645e-06
8 4 11 100 0.0555554
9 4 11 100 0.0749066
10 4 11 100 0.111111
11 4 11 100 0.111111
0 5 11 100 0.0624999
1 5 11 100 0.1875
4 5 11 100 0.124997
6 5 11 100 0.249999
7 5 11 100 9.76941e-07
9 5 11 100 0.0625033
10 5 11 100 0.187499
11 5 11 100 0.125
0 6 11 100 0.071439
1 6 11 100 0.213518
3 6 11 100 0.0725812
4 6 11 100 0.0714286
5 6 11 100 0.0721792
6 6 11 100 0.214286
9 6 11 100 9.67867e-06
10 6 11 100 0.141702
11 6 11 100 0.142857
0 7 11 100 0.0498541
1 7 11 100 0.166664
3 7 11 100 0.083057
5 7 11 100 0.0833334
6 7 11 100 0.230101
7 7 11 100 0.0104438
8 7 11 100 1.15086e-05
9 7 11 100 0.166667
10 7 11 100 0.0833333
11 7 11 100 0.126535
1 8 11 100 0.272727
3 8 11 100 0.0909091
4 8 11 100 1.58016e-05
5 8 11 100 0.0909249
6 8 11 100 0.181787
9 8 11 100 0.0909091
10 8 11 100 0.0909091
11 8 11 100 0.181818
0 9 11 100 0.0996923
1 9 11 100 0.2
3 9 11 100 0.000896052
4 9 11 100 5.59154e-05
5 9 11 100 0.1
6 9 11 100 0.299996
9 9 11 100 0.0994049
11 9 11 100 0.199954
0 10 11 100 0.222477
1 10 11 100 0.111111
4 10 11 100 0.110856
6 10 11 100 0.222222
9 10 11 100 0.222222
10 10 11 100 0.111111
0 11 11 100 0.222172
1 11 11 100 0.111111
4 11 11 100 0.111111
5 11 11 100 0.114368
6 11 11 100 0.111161
7 11 11 100 0.107854
8 11 11 100 0.111111
10 11 11 100 0.111111
0 12 11 100 0.142849
4 12 11 100 4.52291e-05
5 12 11 100 4.52291e-05
6 12 11 100 0.142767
8 12 11 100 0.285714
10 12 11 100 0.428571
11 12 11 100 8.43332e-06
0 13 11 100 0.333333
1 13 11 100 0.166667
5 13 11 100 0.333334
10 13 11 100 0.166667
0 14 11 100 0.166665
1 14 11 100 0.166667
8 14 11 100 0.166667
9 14 11 100 0.166667
11 14 11 100 0.333335
0 15 11 100 2.06907e-06
3 15 11 100 0.2
5 15 11 100 0.2
8 15 11 100 0.2
9 15 11 100 0.199998
11 15 11 100 0.2
0 16 11 100 6.33247e-06
3 16 11 100 0.2
5 16 11 100 0.2
8 16 11 100 0.2
9 16 11 100 0.199994
11 16 11 100 0.2
0 17 11 100 3.18759e-06
5 17 11 100 0.2
6 17 11 100 0.399997
8 17 11 100 0.2
11 17 11 100 0.2
5 18 11 100 0.2
7 18 11 100 0.2
8 18 11 100 0.2
9 18 11 100 0.2
11 18 11 100 0.2
2 19 11 100 0.2
5 19 11 100 0.2
7 19 11 100 0.2
8 19 11 100 0.2
11 19 11 100 0.2
1 20 11 100 0.2
2 20 11 100 0.2
7 20 11 100 0.2
8 20 11 100 0.2
11 20 11 100 0.2
0 21 11 100 0.399973
4 21 11 100 0.2
6 21 11 100 0.199999
7 21 11 100 0.2
9 21 11 100 3.69456e-06
11 21 11 100 2.33295e-05
0 22 11 100 0.399979
1 22 11 100 3.48395e-06
2 22 11 100 0.2
5 22 11 100 1.72639e-05
7 22 11 100 0.2
11 22 11 100 0.2
0 23 11 100 0.399988
1 23 11 100 0.2
2 23 11 100 0.2
11 23 11 100 0.200012
2 24 11 100 0.4
4 24 11 100 0.2
7 24 11 100 0.2
11 24 11 100 0.2
0 25 11 100 0.4
1 25 11 100 0.2
6 25 11 100 0.2
11 25 11 100 0.2
2 26 11 100 0.2
6 26 11 100 0.19999
9 26 11 100 0.20001
10 26 11 100 0.2
11 26 11 100 0.2
0 27 11 100 0.399999
2 27 11 100 0.2
6 27 11 100 0.2
10 27 11 100 0.2
0 28 11 100 0.199989
4 28 11 100 1.02787e-05
9 28 11 100 0.2
10 28 11 100 0.2
11 28 11 100 0.4
0 29 11 100 0.199998
6 29 11 100 0.199999
9 29 11 100 0.200003
10 29 11 100 0.2
11 29 11 100 0.2
6 30 11 100 0.2
9 30 11 100 0.2
10 30 11 100 0.4
11 30 11 100 0.2
0 31 11 100 0.5
8 31 11 100 0.25
10 31 11 100 0.25
0 32 11 100 0.249698
5 32 11 100 0.25
7 32 11 100 0.25
8 32 11 100 0.25
10 32 11 100 0.00030148
0 33 11 100 0.25
5 33 11 100 0.25
6 33 11 100 0.25
8 33 11 100 0.25
0 34 11 100 0.499977
5 34 11 100 0.250001
8 34 11 100 0.250001
11 34 11 100 2.2055e-05
5 35 11 100 0.5
6 35 11 100 0.25
8 35 11 100 0.25
0 36 11 100 0.25
5 36 11 100 0.5
6 36 11 100 0.25
0 37 11 100 0.000597515
5 37 11 100 0.25
6 37 11 100 0.249402
8 37 11 100 0.5
0 38 11 100 0.25
3 38 11 100 0.25
5 38 11 100 0.25
6 38 11 100 0.25
4 39 11 100 0.333333
5 39 11 100 0.333333
8 39 11 100 0.333333
5 40 11 100 0.333333
7 40 11 100 0.333333
8 40 11 100 0.333333
7 41 11 100 0.333333
8 41 11 100 0.666667
0 42 11 100 0.333438
5 42 11 100 0.333229
7 42 11 100 0.333333
0 43 11 100 0.333333
6 43 11 100 0.333333
7 43 11 100 0.333333
6 44 11 100 0.666667
8 44 11 100 0.333333
2 45 11 100 0.333333
6 45 11 100 0.666667
0 46 11 100 0.5
2 46 11 100 0.5
6 47 11 100 1
3 48 11 100 0.5
6 48 11 100 0.5
0 49 11 100 0.499684
2 49 11 100 0.000316086
6 49 11 100 0.5
3 50 11 100 0.5
6 50 11 100 0.5
0 51 11 100 0.276538
8 51 11 100 0.5
9 51 11 100 0.223462
5 52 11 100 1
0 53 11 100 0.5
5 53 11 100 0.5
0 54 11 100 0.5
5 54 11 100 0.5
0 55 11 100 0.5
5 55 11 100 0.5
0 56 11 100 0.49994
6 56 11 100 0.499982
9 56 11 100 7.84984e-05
4 57 11 100 0.5
5 57 11 100 0.5
4 58 11 100 0.5
5 58 11 100 0.5
5 59 11 100 0.5
8 59 11 100 0.5
5 60 11 100 0.5
8 60 11 100 0.5
6 61 11 100 0.5
8 61 11 100 0.5
5 62 11 100 0.5
10 62 11 100 0.5
7 63 11 100 0.5
10 63 11 100 0.5
0 64 11 100 0.49613
7 64 11 100 0.50004
9 64 11 100 0.00383039
7 65 11 100 0.5
10 65 11 100 0.5
10 66 11 100 0.5
11 66 11 100 0.5
0 67 11 100 6.6784e-05
7 67 11 100 0.499933
10 67 11 100 0.5
3 68 11 100 0.5
10 68 11 100 0.5
3 69 11 100 1
0 70 11 100 0.00506042
9 70 11 100 0.99494
3 71 11 100 0.5
4 71 11 100 0.5
2 72 11 100 0.5
3 72 11 100 0.5
3 73 11 100 0.5
6 73 11 100 0.5
3 74 11 100 0.5
4 74 11 100 0.5
3 75 11 100 0.5
8 75 11 100 0.5
1 76 11 100 0.5
9 76 11 100 0.5
3 77 11 100 1
0 78 11 100 0.693973
7 78 11 100 0.306027
3 79 11 100 0.5
6 79 11 100 0.5
6 80 11 100 0.5
9 80 11 100 0.5
0 81 11 100 0.0108027
7 81 11 100 0.989197
0 82 11 100 0.00191024
6 82 11 100 0.5
7 82 11 100 0.49809
7 83 11 100 1
7 84 11 100 0.500001
8 84 11 100 0.499999
7 85 11 100 1
6 86 11 100 0.500002
7 86 11 100 0.499998
6 87 11 100 0.5
7 87 11 100 0.5
1 88 11 100 0.5
4 88 11 100 0.5
9 89 11 100 1
1 90 11 100 0.5
4 90 11 100 0.5
5 91 11 100 0.5
9 91 11 100 0.5
3 92 11 100 0.5
4 92 11 100 0.5
1 93 11 100 1
1 94 11 100 1
0 1 12 100 0.0911533
1 1 12 100 0.240829
2 1 12 100 0.0479302
4 1 12 100 0.0385592
5 1 12 100 0.0547457
6 1 12 100 0.0476191
8 1 12 100 0.000468762
9 1 12 100 0.0371248
10 1 12 100 0.253443
11 1 12 100 0.000681963
12 1 12 100 0.187445
0 2 12 100 0.0483827
1 2 12 100 0.28495
2 2 12 100 0.0515305
3 2 12 100 0.000300517
5 2 12 100 0.047619
6 2 12 100 0.0476211
10 2 12 100 0.238095
11 2 12 100 0.0476191
12 2 12 100 0.233882
0 3 12 100 0.158665
1 3 12 100 0.328968
2 3 12 100 0.0747821
3 3 12 100 0.000163961
4 3 12 100 0.0107605
5 3 12 100 0.0952382
6 3 12 100 0.0476191
7 3 12 100 0.000462639
8 3 12 100 3.32332e-06
10 3 12 100 0.0952417
12 3 12 100 0.188096
0 4 12 100 0.193067
1 4 12 100 0.237726
2 4 12 100 0.0492234
3 4 12 100 0.000238864
5 4 12 100 0.0951669
7 4 12 100 2.68678e-05
8 4 12 100 0.000103697
10 4 12 100 0.140674
11 4 12 100 0.0461242
12 4 12 100 0.237648
0 5 12 100 0.1645
1 5 12 100 0.111111
2 5 12 100 0.110373
4 5 12 100 5.65769e-07
5 5 12 100 0.0555556
9 5 12 100 4.30386e-05
10 5 12 100 0.113989
11 5 12 100 0.0555556
12 5 12 100 0.388871
0 6 12 100 0.213008
1 6 12 100 0.195082
2 6 12 100 0.0666667
5 6 12 100 0.127095
6 6 12 100 1.51424e-05
10 6 12 100 0.0666659
11 6 12 100 0.0666667
12 6 12 100 0.264801
0 7 12 100 0.0666667
1 7 12 100 0.0666667
2 7 12 100 0.06668
3 7 12 100 0.089797
4 7 12 100 0.0435335
5 7 12 100 0.133336
6 7 12 100 0.0666667
7 7 12 100 0.0666667
11 7 12 100 0.0666667
12 7 12 100 0.33332
0 8 12 100 0.0735104
1 8 12 100 0.214286
2 8 12 100 0.0714286
3 8 12 100 0.0714286
4 8 12 100 0.0714286
5 8 12 100 0.0714286
6 8 12 100 7.79622e-07
7 8 12 100 0.0714286
9 8 12 100 0.0714309
11 8 12 100 0.0693428
12 8 12 100 0.214286
0 9 12 100 0.148123
1 9 12 100 0.209002
2 9 12 100 0.0714286
3 9 12 100 0.0714286
4 9 12 100 0.0714286
6 9 12 100 0.0714284
7 9 12 100 0.0714274
11 9 12 100 0.0714286
12 9 12 100 0.214304
0 10 12 100 0.23075
1 10 12 100 0.076919
2 10 12 100 0.0769315
3 10 12 100 0.0769231
4 10 12 100 0.0769231
5 10 12 100 2.815e-06
6 10 12 100 6.93373e-06
7 10 12 100 0.0769231
8 10 12 100 0.0769231
10 10 12 100 3.64362e-06
11 10 12 100 0.153846
12 10 12 100 0.153848
0 11 12 100 0.153846
1 11 12 100 0.153846
2 11 12 100 0.153846
3 11 12 100 0.0769231
4 11 12 100 0.0769231
7 11 12 100 0.0769231
8 11 12 100 0.0769231
11 11 12 100 0.153846
12 11 12 100 0.0769231
0 12 12 100 0.0909092
1 12 12 100 0.0909079
2 12 12 100 0.181818
3 12 12 100 0.181818
4 12 12 100 0.0909092
5 12 12 100 0.0909092
12 12 12 100 0.272728
0 13 12 100 0.197501
2 13 12 100 0.181832
3 13 12 100 0.181818
4 13 12 100 0.0909091
5 13 12 100 0.0752046
8 13 12 100 0.0909156
12 13 12 100 0.181819
0 14 12 100 0.18173
2 14 12 100 0.181819
3 14 12 100 0.181818
4 14 12 100 0.0909092
8 14 12 100 0.0908985
10 14 12 100 9.79985e-05
12 14 12 100 0.272728
2 15 12 100 0.2
3 15 12 100 0.3
4 15 12 100 0.1
7 15 12 100 0.1
8 15 12 100 0.1
9 15 12 100 0.1
10 15 12 100 0.1
0 16 12 100 0.499988
2 16 12 100 0.1
3 16 12 100 0.2
4 16 12 100 5.30461e-06
6 16 12 100 5.80422e-06
7 16 12 100 0.1
11 16 12 100 2.77077e-06
12 16 12 100 0.0999973
0 17 12 100 0.205971
2 17 12 100 0.100002
3 17 12 100 0.3
4 17 12 100 0.1
5 17 12 100 0.1
6 17 12 100 0.1
12 17 12 100 0.0940268
1 18 12 100 0.1
3 18 12 100 0.2
4 18 12 100 0.2
5 18 12 100 0.1
7 18 12 100 0.2
9 18 12 100 0.1
12 18 12 100 0.1
0 19 12 100 0.100004
3 19 12 100 0.2
4 19 12 100 0.299996
5 19 12 100 0.1
7 19 12 100 0.2
9 19 12 100 0.1
0 20 12 100 0.201294
2 20 12 100 4.70385e-05
3 20 12 100 0.298706
5 20 12 100 0.1
7 20 12 100 0.2
12 20 12 100 0.199953
0 21 12 100 0.2028
2 21 12 100 3.2878e-05
3 21 12 100 0.198234
4 21 12 100 0.2
7 21 12 100 0.2
10 21 12 100 5.51699e-06
12 21 12 100 0.198928
0 22 12 100 0.000313323
3 22 12 100 0.2
4 22 12 100 0.2
7 22 12 100 0.299687
11 22 12 100 0.2
12 22 12 100 0.1
0 23 12 100 1.8736e-06
3 23 12 100 0.4
5 23 12 100 0.1
6 23 12 100 0.1
7 23 12 100 0.2
12 23 12 100 0.199998
0 24 12 100 0.399924
1 24 12 100 0.0999998
3 24 12 100 0.200057
4 24 12 100 1.71239e-06
6 24 12 100 0.1
8 24 12 100 0.0999577
12 24 12 100 0.100059
0 25 12 100 0.199951
1 25 12 100 0.100049
2 25 12 100 0.0999994
4 25 12 100 0.1
5 25 12 100 0.100162
6 25 12 100 0.1
7 25 12 100 0.199838
12 25 12 100 0.1
0 26 12 100 0.100005
1 26 12 100 0.0999947
3 26 12 100 0.1
4 26 12 100 0.2
5 26 12 100 0.3
6 26 12 100 0.099998
7 26 12 100 0.100002
0 27 12 100 0.100023
1 27 12 100 0.1
3 27 12 100 0.2
4 27 12 100 0.3
5 27 12 100 0.1
6 27 12 100 0.0999712
10 27 12 100 0.100006
0 28 12 100 0.300004
1 28 12 100 0.1
5 28 12 100 0.0999953
6 28 12 100 0.1
8 28 12 100 0.1
9 28 12 100 0.2
10 28 12 100 0.1
0 29 12 100 0.199583
4 29 12 100 0.2
6 29 12 100 0.1
7 29 12 100 0.1
8 29 12 100 0.2
10 29 12 100 0.1
12 29 12 100 0.100416
0 30 12 100 0.200052
2 30 12 100 0.1
4 30 12 100 0.199931
7 30 12 100 0.1
8 30 12 100 0.2
10 30 12 100 0.2
11 30 12 100 1.63881e-05
2 31 12 100 0.111111
3 31 12 100 0.111111
4 31 12 100 0.111111
6 31 12 100 0.111111
7 31 12 100 0.111111
8 31 12 100 0.111111
9 31 12 100 0.222222
10 31 12 100 0.111111
0 32 12 100 0.222222
5 32 12 100 0.222222
6 32 12 100 0.111111
7 32 12 100 0.111111
9 32 12 100 0.111111
10 32 12 100 0.111111
11 32 12 100 0.111111
0 33 12 100 0.0782261
2 33 12 100 0.222212
4 33 12 100 0.144006
5 33 12 100 0.111111
7 33 12 100 0.111111
8 33 12 100 0.111111
9 33 12 100 0.222222
0 34 12 100 0.111067
1 34 12 100 0.111111
2 34 12 100 0.111111
3 34 12 100 0.222222
4 34 12 100 0.111111
7 34 12 100 0.222208
9 34 12 100 0.111111
12 34 12 100 5.78448e-05
0 35 12 100 0.250008
1 35 12 100 0.125
2 35 12 100 0.125
3 35 12 100 0.125
6 35 12 100 3.68081e-06
7 35 12 100 0.125
9 35 12 100 0.125
10 35 12 100 0.124989
0 36 12 100 0.624985
3 36 12 100 0.125
10 36 12 100 6.93029e-06
11 36 12 100 0.250008
0 37 12 100 0.249999
2 37 12 100 0.125
3 37 12 100 0.125
4 37 12 100 0.125
7 37 12 100 0.125
9 37 12 100 0.125
12 37 12 100 0.125
0 38 12 100 0.00221956
1 38 12 100 0.142857
2 38 12 100 0.142857
3 38 12 100 0.142751
4 38 12 100 0.142857
7 38 12 100 0.142857
9 38 12 100 0.142857
12 38 12 100 0.140744
0 39 12 100 0.142839
1 39 12 100 0.142857
3 39 12 100 0.142853
4 39 12 100 2.29695e-05
6 39 12 100 0.142857
9 39 12 100 0.285714
12 39 12 100 0.142857
0 40 12 100 0.286891
2 40 12 100 0.142857
6 40 12 100 0.142857
8 40 12 100 2.90934e-05
9 40 12 100 0.427366
1 41 12 100 0.142857
2 41 12 100 0.285703
4 41 12 100 1.12495e-05
6 41 12 100 0.142857
9 41 12 100 0.285714
12 41 12 100 0.142857
0 42 12 100 0.00177787
1 42 12 100 0.285714
2 42 12 100 0.141119
9 42 12 100 0.428531
12 42 12 100 0.142857
0 43 12 100 0.333122
1 43 12 100 0.166667
2 43 12 100 0.166662
4 43 12 100 4.40371e-06
9 43 12 100 0.333333
11 43 12 100 0.000102465
12 43 12 100 0.000108688
0 44 12 100 0.17523
2 44 12 100 0.166822
4 44 12 100 2.89275e-06
5 44 12 100 4.86489e-05
6 44 12 100 0.166667
9 44 12 100 0.491222
10 44 12 100 3.32551e-06
12 44 12 100 3.86769e-06
0 45 12 100 0.166675
1 45 12 100 0.33333
2 45 12 100 0.166667
3 45 12 100 0.166658
8 45 12 100 3.42378e-06
9 45 12 100 0.166667
0 46 12 100 0.517179
2 46 12 100 0.149244
5 46 12 100 0.166793
12 46 12 100 0.166783
0 47 12 100 0.166666
1 47 12 100 0.166667
2 47 12 100 0.499986
12 47 12 100 0.166681
0 48 12 100 0.166675
2 48 12 100 0.333326
5 48 12 100 0.166667
8 48 12 100 0.166666
12 48 12 100 0.166667
0 49 12 100 0.664804
9 49 12 100 0.333336
12 49 12 100 0.0018597
0 50 12 100 3.7804e-06
2 50 12 100 0.333333
5 50 12 100 0.166667
7 50 12 100 0.166663
8 50 12 100 0.333333
0 51 12 100 0.166702
2 51 12 100 0.333297
8 51 12 100 0.166667
11 51 12 100 0.166667
12 51 12 100 0.166667
5 52 12 100 0.2
7 52 12 100 0.2
8 52 12 100 0.4
12 52 12 100 0.2
0 53 12 100 0.143369
1 53 12 100 3.07648e-06
2 53 12 100 0.00180124
5 53 12 100 0.2
8 53 12 100 0.454827
12 53 12 100 0.2
0 54 12 100 0.200187
1 54 12 100 0.2
3 54 12 100 0.199813
5 54 12 100 0.2
8 54 12 100 0.2
5 55 12 100 0.4
8 55 12 100 0.2
11 55 12 100 0.2
12 55 12 100 0.2
0 56 12 100 0.199999
1 56 12 100 0.199971
5 56 12 100 0.4
8 56 12 100 2.861e-05
12 56 12 100 0.2
1 57 12 100 0.400003
5 57 12 100 0.2
11 57 12 100 0.2
12 57 12 100 0.199998
0 58 12 100 0.399976
1 58 12 100 0.4
8 58 12 100 2.42444e-05
9 58 12 100 0.2
0 59 12 100 0.2
1 59 12 100 0.399983
2 59 12 100 3.0745e-06
8 59 12 100 1.37236e-05
9 59 12 100 0.2
10 59 12 100 0.2
0 60 12 100 0.206526
1 60 12 100 0.2
2 60 12 100 0.192509
6 60 12 100 0.198713
10 60 12 100 0.2
12 60 12 100 0.00225165
0 61 12 100 0.00010043
1 61 12 100 0.2
3 61 12 100 0.5999
11 61 12 100 0.199999
0 62 12 100 2.69742e-05
3 62 12 100 0.5
4 62 12 100 0.249973
9 62 12 100 0.25
1 63 12 100 0.750034
8 63 12 100 0.249963
12 63 12 100 3.16989e-06
0 64 12 100 0.333325
2 64 12 100 7.95738e-06
5 64 12 100 0.333333
11 64 12 100 0.333333
0 65 12 100 0.333328
1 65 12 100 1.31727e-05
2 65 12 100 4.96231e-06
8 65 12 100 0.33332
11 65 12 100 0.333333
0 66 12 100 0.335777
1 66 12 100 0.333334
2 66 12 100 2.97155e-05
12 66 12 100 0.33086
0 67 12 100 0.333315
2 67 12 100 3.56079e-05
8 67 12 100 0.333334
9 67 12 100 1.74891e-05
12 67 12 100 0.333298
0 68 12 100 7.50028e-05
1 68 12 100 0.333333
6 68 12 100 0.333255
8 68 12 100 0.333333
12 68 12 100 3.51922e-06
4 69 12 100 1.69614e-05
5 69 12 100 0.333327
8 69 12 100 0.666649
10 69 12 100 6.27362e-06
0 70 12 100 0.288375
2 70 12 100 0.00145838
4 70 12 100 0.333322
6 70 12 100 4.06309e-06
8 70 12 100 0.0469093
12 70 12 100 0.329931
1 71 12 100 0.333333
4 71 12 100 0.33333
8 71 12 100 3.37129e-06
9 71 12 100 0.333333
0 72 12 100 0.333218
1 72 12 100 0.333334
2 72 12 100 8.99122e-05
4 72 12 100 0.333332
12 72 12 100 2.55986e-05
2 73 12 100 0.666667
11 73 12 100 0.333333
0 74 12 100 0.000334322
5 74 12 100 9.4653e-06
10 74 12 100 0.999656
0 75 12 100 0.208517
4 75 12 100 0.5
7 75 12 100 0.291483
9 76 12 100 0.5
11 76 12 100 0.5
0 77 12 100 0.262473
7 77 12 100 0.237527
9 77 12 100 0.5
0 78 12 100 0.000795267
4 78 12 100 0.500083
6 78 12 100 0.499122
4 79 12 100 0.999917
6 79 12 100 8.28907e-05
3 80 12 100 0.5
4 80 12 100 0.5
2 81 12 100 0.499905
11 81 12 100 0.5
12 81 12 100 9.49998e-05
10 82 12 100 0.5
11 82 12 100 0.5
0 83 12 100 0.0145304
2 83 12 100 0.499974
4 83 12 100 0.48547
12 83 12 100 2.59215e-05
0 84 12 100 0.000364105
3 84 12 100 0.5
7 84 12 100 0.499636
3 85 12 100 0.5
11 85 12 100 0.5
0 86 12 100 0.00129537
2 86 12 100 0.498468
3 86 12 100 0.5
12 86 12 100 0.000236744
3 87 12 100 0.500001
4 87 12 100 0.499999
0 88 12 100 0.0169722
2 88 12 100 0.000381925
5 88 12 100 0.483881
7 88 12 100 0.498765
3 89 12 100 0.5
4 89 12 100 0.5
2 90 12 100 0.49998
8 90 12 100 0.5
12 90 12 100 2.02642e-05
0 91 12 100 0.00985388
2 91 12 100 0.494989
7 91 12 100 0.495126
12 91 12 100 3.11063e-05
0 92 12 100 0.0185578
1 92 12 100 6.4803e-05
2 92 12 100 0.476537
4 92 12 100 5.61134e-06
8 92 12 100 0.504758
12 92 12 100 7.72926e-05
3 93 12 100 0.5
4 93 12 100 1.5151e-05
8 93 12 100 0.499985
4 94 12 100 1.55165e-05
8 94 12 100 0.499987
10 94 12 100 0.499998
10 95 12 100 0.5
11 95 12 100 0.5
10 96 12 100 1
4 97 12 100 0.5
10 97 12 100 0.5
4 98 12 100 0.999964
8 98 12 100 3.62806e-05
10 99 12 100 1
1 100 12 100 1.56541e-05
2 100 12 100 0.500256
8 100 12 100 0.499728
0 1 13 100 9.25989e-06
1 1 13 100 0.0715138
2 1 13 100 0.0654561
3 1 13 100 0.0253128
5 1 13 100 0.0280366
6 1 13 100 0.00235432
8 1 13 100 0.0137256
9 1 13 100 0.210526
10 1 13 100 0.201122
13 1 13 100 0.381943
0 2 13 100 0.102808
2 2 13 100 0.0526316
3 2 13 100 1.17435e-05
4 2 13 100 0.0011138
5 2 13 100 1.11695e-06
6 2 13 100 0.0526338
9 2 13 100 0.160317
10 2 13 100 0.207045
11 2 13 100 5.27547e-05
12 2 13 100 0.00233771
13 2 13 100 0.421047
0 3 13 100 0.149211
1 3 13 100 0.0556299
2 3 13 100 0.0169894
6 3 13 100 0.0555615
9 3 13 100 0.111111
10 3 13 100 0.165321
11 3 13 100 0.0568386
13 3 13 100 0.389337
0 4 13 100 0.113632
1 4 13 100 0.00507588
5 4 13 100 0.0577636
6 4 13 100 0.0588374
7 4 13 100 0.0588236
9 4 13 100 0.17647
10 4 13 100 0.0588235
11 4 13 100 0.0588236
13 4 13 100 0.411751
0 5 13 100 0.12809
1 5 13 100 0.0625053
4 5 13 100 0.000322679
5 5 13 100 0.0626848
7 5 13 100 0.0625001
9 5 13 100 0.1875
10 5 13 100 0.0625001
12 5 13 100 0.064356
13 5 13 100 0.369541
0 6 13 100 0.142532
1 6 13 100 0.0717539
6 6 13 100 0.0714286
7 6 13 100 0.143783
9 6 13 100 0.213357
10 6 13 100 0.0714286
11 6 13 100 2.12831e-06
12 6 13 100 0.0714286
13 6 13 100 0.214286
0 7 13 100 0.293816
1 7 13 100 0.00126291
7 7 13 100 0.142857
8 7 13 100 0.00127375
9 7 13 100 0.14012
10 7 13 100 0.0717406
11 7 13 100 1.83824e-06
12 7 13 100 0.142857
13 7 13 100 0.20607
0 8 13 100 0.00122237
1 8 13 100 0.229547
2 8 13 100 0.076923
7 8 13 100 0.076923
9 8 13 100 0.384615
10 8 13 100 0.0769231
12 8 13 100 0.153846
0 9 13 100 0.0775261
1 9 13 100 0.153846
3 9 13 100 0.00710972
4 9 13 100 0.0769231
5 9 13 100 0.000274416
6 9 13 100 0.145864
7 9 13 100 1.97574e-05
9 9 13 100 0.307692
10 9 13 100 0.0769042
12 9 13 100 0.0769177
13 9 13 100 0.0769231
0 10 13 100 0.0779165
1 10 13 100 0.0769231
4 10 13 100 0.230769
6 10 13 100 0.0769231
8 10 13 100 0.0769252
9 10 13 100 0.306696
12 10 13 100 0.0769231
13 10 13 100 0.0769231
0 11 13 100 0.238877
1 11 13 100 0.222686
3 11 13 100 1.73676e-06
4 11 13 100 0.0768967
8 11 13 100 0.153846
10 11 13 100 0.0769231
11 11 13 100 0.076923
12 11 13 100 0.153846
0 12 13 100 0.0769231
1 12 13 100 0.153846
4 12 13 100 0.0769231
6 12 13 100 0.153846
7 12 13 100 0.0769231
8 12 13 100 0.153846
9 12 13 100 0.153846
10 12 13 100 0.0769231
12 12 13 100 1.45383e-05
13 12 13 100 0.0769086
0 13 13 100 0.25
1 13 13 100 0.25
4 13 13 100 0.0833334
8 13 13 100 0.0833334
9 13 13 100 0.0833334
10 13 13 100 0.0833334
12 13 13 100 0.166666
0 14 13 100 0.499944
1 14 13 100 0.0833333
2 14 13 100 0.0833333
6 14 13 100 0.0833333
7 14 13 100 0.0833333
8 14 13 100 2.3006e-06
10 14 13 100 5.36579e-05
12 14 13 100 0.0833333
13 14 13 100 0.0833333
0 15 13 100 0.0910643
1 15 13 100 0.0909091
2 15 13 100 0.0909091
6 15 13 100 0.181818
8 15 13 100 0.0909091
9 15 13 100 0.0909091
12 15 13 100 0.181799
13 15 13 100 0.181682
0 16 13 100 0.0909096
2 16 13 100 0.181816
3 16 13 100 1.93284e-06
5 16 13 100 0.0909091
7 16 13 100 0.0909091
8 16 13 100 0.0909091
9 16 13 100 0.181818
12 16 13 100 0.0909091
13 16 13 100 0.181818
0 17 13 100 0.2
1 17 13 100 0.1
2 17 13 100 0.1
5 17 13 100 0.1
6 17 13 100 0.1
7 17 13 100 0.1
8 17 13 100 0.1
9 17 13 100 0.1
13 17 13 100 0.0999999
0 18 13 100 0.222222
1 18 13 100 0.222222
2 18 13 100 0.111111
6 18 13 100 0.111111
7 18 13 100 0.111111
9 18 13 100 0.111111
12 18 13 100 0.111111
0 19 13 100 0.333333
1 19 13 100 0.111111
6 19 13 100 0.111111
7 19 13 100 0.222222
8 19 13 100 0.111111
12 19 13 100 0.111111
0 20 13 100 0.333324
6 20 13 100 0.111111
7 20 13 100 0.333333
10 20 13 100 9.36148e-06
11 20 13 100 0.111111
12 20 13 100 0.111111
0 21 13 100 0.111099
1 21 13 100 0.222223
5 21 13 100 0.333333
7 21 13 100 0.222223
8 21 13 100 0.111111
10 21 13 100 1.09064e-05
0 22 13 100 0.333331
1 22 13 100 0.222225
2 22 13 100 0.111111
5 22 13 100 0.111111
7 22 13 100 0.111111
9 22 13 100 0.111111
0 23 13 100 0.290252
2 23 13 100 0.111111
5 23 13 100 0.376169
7 23 13 100 0.111111
8 23 13 100 0.111111
11 23 13 100 0.000242612
12 23 13 100 3.33793e-06
0 24 13 100 0.223134
1 24 13 100 0.333333
5 24 13 100 0.222222
7 24 13 100 0.110199
10 24 13 100 0.111111
0 25 13 100 5.73124e-05
1 25 13 100 0.111111
2 25 13 100 0.111111
5 25 13 100 0.333276
7 25 13 100 0.111111
10 25 13 100 0.111111
11 25 13 100 0.111111
12 25 13 100 0.111111
2 26 13 100 0.125
5 26 13 100 0.375
10 26 13 100 0.25
11 26 13 100 0.125
12 26 13 100 0.125
0 27 13 100 0.374998
1 27 13 100 0.125002
5 27 13 100 0.125
11 27 13 100 0.125
12 27 13 100 0.25
0 28 13 100 0.125163
1 28 13 100 0.125
5 28 13 100 0.125
6 28 13 100 0.125
10 28 13 100 0.125
11 28 13 100 0.00024567
12 28 13 100 0.125
13 28 13 100 0.249591
1 29 13 100 0.125
5 29 13 100 0.25
9 29 13 100 0.125
10 29 13 100 0.125
11 29 13 100 0.125
12 29 13 100 0.125
13 29 13 100 0.125
0 30 13 100 0.499854
1 30 13 100 4.59106e-05
3 30 13 100 1.81619e-06
9 30 13 100 0.250095
10 30 13 100 0.125
12 30 13 100 2.71685e-06
13 30 13 100 0.125
0 31 13 100 0.125
1 31 13 100 0.125
5 31 13 100 0.125
9 31 13 100 0.125
10 31 13 100 0.125
11 31 13 100 0.25
12 31 13 100 0.125
0 32 13 100 0.123549
1 32 13 100 0.125013
3 32 13 100 1.81656e-06
5 32 13 100 0.25
9 32 13 100 0.126434
11 32 13 100 0.25
12 32 13 100 0.125002
0 33 13 100 0.125087
1 33 13 100 0.249913
5 33 13 100 0.249988
11 33 13 100 0.250012
12 33 13 100 0.125
0 34 13 100 0.166478
5 34 13 100 0.166667
7 34 13 100 0.166855
11 34 13 100 0.333333
12 34 13 100 0.166667
0 35 13 100 0.166667
11 35 13 100 0.833333
2 36 13 100 0.166667
8 36 13 100 0.166667
11 36 13 100 0.666667
0 37 13 100 0.333333
3 37 13 100 0.166667
5 37 13 100 0.166667
8 37 13 100 0.166667
13 37 13 100 0.166667
0 38 13 100 0.314613
1 38 13 100 0.0181621
3 38 13 100 0.166667
6 38 13 100 0.000557022
11 38 13 100 0.500001
0 39 13 100 0.332732
1 39 13 100 0.000536183
5 39 13 100 0.166667
7 39 13 100 6.47087e-05
8 39 13 100 0.166667
11 39 13 100 0.333334
0 40 13 100 0.16666
1 40 13 100 5.20188e-06
3 40 13 100 0.166667
8 40 13 100 0.166667
11 40 13 100 0.500002
0 41 13 100 0.165982
1 41 13 100 0.000684856
5 41 13 100 1.65364e-05
7 41 13 100 0.166667
8 41 13 100 0.166667
11 41 13 100 0.499984
0 42 13 100 0.166725
3 42 13 100 0.166667
6 42 13 100 4.62835e-05
7 42 13 100 0.333228
9 42 13 100 0.166667
11 42 13 100 0.166667
0 43 13 100 0.186886
1 43 13 100 0.166667
5 43 13 100 0.166667
8 43 13 100 0.166667
9 43 13 100 0.166667
13 43 13 100 0.146447
0 44 13 100 3.14049e-05
6 44 13 100 0.333302
8 44 13 100 0.166667
9 44 13 100 0.333333
13 44 13 100 0.166667
0 45 13 100 6.64912e-06
6 45 13 100 0.333327
8 45 13 100 0.166667
13 45 13 100 0.5
4 46 13 100 0.166667
6 46 13 100 0.166667
9 46 13 100 0.166667
13 46 13 100 0.5
0 47 13 100 0.171202
6 47 13 100 0.166667
10 47 13 100 0.166667
13 47 13 100 0.495465
0 48 13 100 0.166667
1 48 13 100 0.166667
4 48 13 100 0.166667
6 48 13 100 0.166667
13 48 13 100 0.333333
4 49 13 100 0.166667
10 49 13 100 0.166667
13 49 13 100 0.666666
0 50 13 100 0.399995
6 50 13 100 5.10144e-06
10 50 13 100 0.6
0 51 13 100 0.2
1 51 13 100 0.2
4 51 13 100 0.2
10 51 13 100 0.4
0 52 13 100 0.399653
1 52 13 100 0.2
7 52 13 100 0.000346702
10 52 13 100 0.4
4 53 13 100 0.2
5 53 13 100 0.2
9 53 13 100 0.2
10 53 13 100 0.2
11 53 13 100 0.2
0 54 13 100 0.00437848
4 54 13 100 0.2
9 54 13 100 0.2
10 54 13 100 0.4
11 54 13 100 0.195621
0 55 13 100 7.79436e-05
6 55 13 100 0.499922
10 55 13 100 0.25
13 55 13 100 0.25
6 56 13 100 0.25
10 56 13 100 0.25
12 56 13 100 0.25
13 56 13 100 0.25
0 57 13 100 0.00087092
9 57 13 100 0.25
10 57 13 100 0.25
11 57 13 100 0.249129
13 57 13 100 0.25
4 58 13 100 0.25
6 58 13 100 0.25
9 58 13 100 0.25
13 58 13 100 0.25
6 59 13 100 0.333333
9 59 13 100 0.666667
6 60 13 100 0.333334
9 60 13 100 0.333334
13 60 13 100 0.333333
4 61 13 100 0.333333
10 61 13 100 0.333333
11 61 13 100 0.333333
0 62 13 100 0.333318
11 62 13 100 0.333348
12 62 13 100 0.333334
0 63 13 100 0.000148168
4 63 13 100 0.333333
7 63 13 100 0.333333
11 63 13 100 0.333185
4 64 13 100 0.333333
11 64 13 100 0.333333
12 64 13 100 0.333333
7 65 13 100 0.333333
8 65 13 100 0.333333
11 65 13 100 0.333333
0 66 13 100 0.333168
6 66 13 100 4.00116e-06
8 66 13 100 0.333333
11 66 13 100 0.000147852
12 66 13 100 0.333333
13 66 13 100 1.35057e-05
11 67 13 100 0.333333
12 67 13 100 0.666667
8 68 13 100 0.333333
9 68 13 100 0.666667
4 69 13 100 0.333333
9 69 13 100 0.666667
4 70 13 100 0.666667
9 70 13 100 0.333333
0 71 13 100 0.000561277
4 71 13 100 0.333333
8 71 13 100 0.333333
13 71 13 100 0.332772
0 72 13 100 0.333106
4 72 13 100 0.333334
11 72 13 100 0.000226033
13 72 13 100 0.333334
0 73 13 100 0.333334
12 73 13 100 0.333333
13 73 13 100 0.333333
11 74 13 100 0.333333
12 74 13 100 0.333333
13 74 13 100 0.333333
4 75 13 100 0.333333
12 75 13 100 0.333333
13 75 13 100 0.333333
4 76 13 100 0.5
12 76 13 100 0.5
4 77 13 100 0.5
5 77 13 100 0.5
0 78 13 100 0.00548383
7 78 13 100 0.5
11 78 13 100 0.494516
7 79 13 100 1
7 80 13 100 1
0 81 13 100 0.5
7 81 13 100 0.5
4 82 13 100 0.5
7 82 13 100 0.5
0 83 13 100 0.5
8 83 13 100 0.5
4 84 13 100 0.5
12 84 13 100 0.5
4 85 13 100 0.5
12 85 13 100 0.5
2 86 13 100 0.5
6 86 13 100 0.5
6 87 13 100 0.5
8 87 13 100 0.5
4 88 13 100 0.5
7 88 13 100 0.5
2 89 13 100 0.5
3 89 13 100 0.5
3 90 13 100 0.5
7 90 13 100 0.5
5 91 13 100 0.5
8 91 13 100 0.5
8 92 13 100 1
0 93 13 100 0.500001
12 93 13 100 0.499999
0 94 13 100 0.0246423
5 94 13 100 0.500001
11 94 13 100 0.475357
5 95 13 100 0.5
10 95 13 100 0.5
8 96 13 100 0.5
10 96 13 100 0.5
5 97 13 100 0.5
10 97 13 100 0.5
7 98 13 100 0.5
10 98 13 100 0.5
5 99 13 100 0.5
10 99 13 100 0.5
0 100 13 100 0.5
12 100 13 100 0.5
0 1 14 100 0.000915527
1 1 14 100 4.15163e-05
2 1 14 100 0.0586194
3 1 14 100 0.000611322
4 1 14 100 0.0734511
5 1 14 100 0.00115132
6 1 14 100 0.0594607
7 1 14 100 0.344412
9 1 14 100 0.0589862
11 1 14 100 0.0588235
12 1 14 100 0.110022
14 1 14 100 0.233506
0 2 14 100 0.058825
2 2 14 100 1.7609e-05
4 2 14 100 0.0588691
6 2 14 100 0.0588235
7 2 14 100 0.292338
8 2 14 100 0.000301691
9 2 14 100 0.117647
12 2 14 100 0.119078
14 2 14 100 0.2941
0 3 14 100 0.112946
1 3 14 100 0.00120369
2 3 14 100 6.56409e-07
3 3 14 100 7.69701e-07
4 3 14 100 0.0623666
6 3 14 100 0.0624858
7 3 14 100 0.186293
10 3 14 100 0.125
11 3 14 100 0.000146474
13 3 14 100 0.125027
14 3 14 100 0.324531
0 4 14 100 0.0499249
1 4 14 100 0.000311678
5 4 14 100 0.0167419
6 4 14 100 0.0666665
8 4 14 100 0.0666667
9 4 14 100 0.0666667
10 4 14 100 0.133022
13 4 14 100 0.2
14 4 14 100 0.4
0 5 14 100 0.197862
1 5 14 100 0.00868598
2 5 14 100 1.3179e-06
4 5 14 100 9.371e-07
5 5 14 100 9.65491e-07
6 5 14 100 0.124566
7 5 14 100 0.0666694
8 5 14 100 0.0666694
9 5 14 100 0.0666667
10 5 14 100 0.0668269
13 5 14 100 0.0688372
14 5 14 100 0.333214
0 6 14 100 0.210068
1 6 14 100 8.59205e-07
6 6 14 100 0.0714801
8 6 14 100 0.0714287
9 6 14 100 0.142857
10 6 14 100 0.0714702
13 6 14 100 0.161155
14 6 14 100 0.27154
0 7 14 100 0.156572
1 7 14 100 3.73867e-06
4 7 14 100 0.0769232
6 7 14 100 0.076923
8 7 14 100 0.0769232
9 7 14 100 0.0769232
13 7 14 100 0.153842
14 7 14 100 0.381889
0 8 14 100 0.230793
4 8 14 100 2.25489e-06
6 8 14 100 0.0769205
8 8 14 100 0.0768185
9 8 14 100 0.153846
10 8 14 100 0.000119927
13 8 14 100 0.0769231
14 8 14 100 0.384577
0 9 14 100 0.000824294
1 9 14 100 0.0904294
4 9 14 100 0.0909093
6 9 14 100 0.0908467
8 9 14 100 0.0909092
9 9 14 100 0.180994
10 9 14 100 0.0909093
14 9 14 100 0.364178
0 10 14 100 0.444444
3 10 14 100 1.66718e-06
4 10 14 100 0.111111
10 10 14 100 0.111111
14 10 14 100 0.333332
0 11 14 100 0.125
1 11 14 100 0.125
7 11 14 100 0.125
9 11 14 100 0.25
11 11 14 100 0.125
12 11 14 100 0.125
14 11 14 100 0.125
0 12 14 100 0.125041
7 12 14 100 0.125
9 12 14 100 0.374977
10 12 14 100 0.125
13 12 14 100 0.124982
14 12 14 100 0.124999
0 13 14 100 0.285714
1 13 14 100 0.142857
7 13 14 100 0.142857
9 13 14 100 0.428571
0 14 14 100 0.142884
6 14 14 100 8.73076e-06
7 14 14 100 0.142857
9 14 14 100 0.428571
11 14 14 100 0.28566
13 14 14 100 1.84866e-05
0 15 14 100 0.427476
1 15 14 100 0.142857
8 15 14 100 0.285714
9 15 14 100 0.142857
14 15 14 100 0.00109518
0 16 14 100 3.51573e-06
1 16 14 100 0.142857
6 16 14 100 0.142854
8 16 14 100 0.285714
9 16 14 100 0.142857
11 16 14 100 0.285714
0 17 14 100 0.142857
1 17 14 100 0.285714
8 17 14 100 0.285714
9 17 14 100 0.142857
14 17 14 100 0.142857
0 18 14 100 0.714273
6 18 14 100 1.24884e-05
11 18 14 100 0.285714
0 19 14 100 0.00104873
1 19 14 100 0.142857
2 19 14 100 0.142863
5 19 14 100 0.142849
6 19 14 100 0.14181
9 19 14 100 0.142857
11 19 14 100 0.142857
12 19 14 100 0.142857
0 20 14 100 0.0041543
1 20 14 100 0.281555
2 20 14 100 0.142857
8 20 14 100 5.24952e-06
11 20 14 100 0.428571
12 20 14 100 0.142857
0 21 14 100 0.142857
1 21 14 100 0.285714
8 21 14 100 0.142857
9 21 14 100 0.142857
11 21 14 100 0.142857
12 21 14 100 0.142857
0 22 14 100 0.142859
1 22 14 100 0.266623
4 22 14 100 0.142857
5 22 14 100 0.0190911
7 22 14 100 0.142856
8 22 14 100 0.285713
1 23 14 100 0.142857
2 23 14 100 0.142859
3 23 14 100 0.285715
5 23 14 100 0.142857
7 23 14 100 0.142855
10 23 14 100 0.142857
0 24 14 100 0.715109
2 24 14 100 9.43479e-05
5 24 14 100 0.142857
12 24 14 100 0.141939
2 25 14 100 0.142857
3 25 14 100 0.428571
7 25 14 100 0.142857
11 25 14 100 0.285714
0 26 14 100 0.194676
2 26 14 100 0.142857
3 26 14 100 0.142857
4 26 14 100 0.0910383
7 26 14 100 0.142857
11 26 14 100 0.285714
0 27 14 100 0.145819
3 27 14 100 0.285714
4 27 14 100 0.142857
7 27 14 100 0.142857
8 27 14 100 0.139895
11 27 14 100 0.142857
0 28 14 100 0.142857
2 28 14 100 0.142857
3 28 14 100 0.285714
7 28 14 100 0.142857
11 28 14 100 0.285714
0 29 14 100 0.142857
2 29 14 100 0.142857
3 29 14 100 0.285714
8 29 14 100 1.55082e-06
9 29 14 100 0.285714
10 29 14 100 0.142856
0 30 14 100 0.000160419
3 30 14 100 0.142857
5 30 14 100 0.142857
8 30 14 100 0.142664
9 30 14 100 0.285714
10 30 14 100 3.30357e-05
11 30 14 100 0.142857
13 30 14 100 0.142857
0 31 14 100 0.142888
5 31 14 100 0.000229333
6 31 14 100 0.142628
9 31 14 100 0.285684
10 31 14 100 0.142857
13 31 14 100 0.142857
14 31 14 100 0.142857
0 32 14 100 0.142857
2 32 14 100 0.142857
11 32 14 100 0.142857
13 32 14 100 0.428572
14 32 14 100 0.142857
0 33 14 100 0.14291
2 33 14 100 0.142847
4 33 14 100 0.142857
5 33 14 100 0.142816
9 33 14 100 0.142857
11 33 14 100 1.59562e-05
13 33 14 100 0.285697
1 34 14 100 0.000214231
4 34 14 100 0.142857
9 34 14 100 0.142857
11 34 14 100 0.142857
13 34 14 100 0.428571
14 34 14 100 0.142643
0 35 14 100 9.26716e-05
1 35 14 100 2.02477e-05
4 35 14 100 0.285622
9 35 14 100 0.142857
12 35 14 100 0.142857
13 35 14 100 0.285714
14 35 14 100 0.142837
0 36 14 100 0.142857
4 36 14 100 0.142857
6 36 14 100 0.142857
7 36 14 100 0.285714
9 36 14 100 0.142857
14 36 14 100 0.142857
0 37 14 100 0.333333
2 37 14 100 0.166667
13 37 14 100 0.5
2 38 14 100 0.166667
4 38 14 100 0.166667
6 38 14 100 0.166667
13 38 14 100 0.333333
14 38 14 100 0.166667
0 39 14 100 0.166595
4 39 14 100 0.166738
6 39 14 100 0.166667
12 39 14 100 0.166667
13 39 14 100 0.166667
14 39 14 100 0.166667
0 40 14 100 0.000274095
3 40 14 100 0.166667
6 40 14 100 0.166399
11 40 14 100 0.16666
12 40 14 100 0.166667
13 40 14 100 0.166667
14 40 14 100 0.166667
0 41 14 100 0.166666
1 41 14 100 0.166667
4 41 14 100 0.166667
6 41 14 100 0.333334
9 41 14 100 0.166667
0 42 14 100 0.166678
3 42 14 100 0.166667
6 42 14 100 0.166667
10 42 14 100 0.166655
11 42 14 100 0.333333
0 43 14 100 0.199975
3 43 14 100 0.2
7 43 14 100 0.200043
11 43 14 100 0.399981
0 44 14 100 2.2372e-05
1 44 14 100 0.199999
4 44 14 100 0.2
8 44 14 100 0.199978
11 44 14 100 0.4
0 45 14 100 0.4
3 45 14 100 0.2
4 45 14 100 0.2
7 45 14 100 0.2
0 46 14 100 0.0260545
3 46 14 100 0.399993
4 46 14 100 0.200007
5 46 14 100 0.173952
13 46 14 100 0.199994
0 47 14 100 0.0104513
2 47 14 100 0.189549
3 47 14 100 0.2
7 47 14 100 0.6
3 48 14 100 0.2
7 48 14 100 0.4
8 48 14 100 0.2
14 48 14 100 0.2
0 49 14 100 0.382254
3 49 14 100 0.2
5 49 14 100 0.0177455
8 49 14 100 0.2
14 49 14 100 0.2
3 50 14 100 0.2
7 50 14 100 0.399957
8 50 14 100 0.4
11 50 14 100 4.32204e-05
0 51 14 100 0.400312
2 51 14 100 7.95265e-06
8 51 14 100 0.400042
10 51 14 100 0.199636
13 51 14 100 2.38884e-06
2 52 14 100 0.000554144
7 52 14 100 0.2
8 52 14 100 0.2
9 52 14 100 0.199446
13 52 14 100 0.4
0 53 14 100 0.0178056
2 53 14 100 0.182188
3 53 14 100 0.2
7 53 14 100 0.200003
13 53 14 100 0.4
14 53 14 100 3.94448e-06
0 54 14 100 3.46978e-06
3 54 14 100 0.2
7 54 14 100 0.599997
14 54 14 100 0.2
0 55 14 100 0.253288
5 55 14 100 0.143832
6 55 14 100 0.202823
7 55 14 100 0.400058
0 56 14 100 1.41948e-05
2 56 14 100 0.2
3 56 14 100 0.2
7 56 14 100 0.2
13 56 14 100 0.199986
14 56 14 100 0.2
0 57 14 100 0.0140073
3 57 14 100 0.2
6 57 14 100 0.185992
7 57 14 100 0.2
14 57 14 100 0.4
3 58 14 100 0.25
11 58 14 100 0.25
14 58 14 100 0.5
11 59 14 100 0.5
14 59 14 100 0.5
0 60 14 100 0.264089
5 60 14 100 0.23591
11 60 14 100 0.250001
14 60 14 100 0.250001
0 61 14 100 0.25
11 61 14 100 0.5
12 61 14 100 0.25
0 62 14 100 0.25
11 62 14 100 0.25
14 62 14 100 0.5
0 63 14 100 0.00140961
5 63 14 100 0.24859
11 63 14 100 0.25
12 63 14 100 0.25
14 63 14 100 0.25
10 64 14 100 0.25
11 64 14 100 0.25
12 64 14 100 0.25
14 64 14 100 0.25
10 65 14 100 0.333332
11 65 14 100 0.333335
12 65 14 100 0.333333
0 66 14 100 0.159967
4 66 14 100 0.173367
10 66 14 100 0.333333
12 66 14 100 0.333333
6 67 14 100 0.332477
11 67 14 100 0.000857071
12 67 14 100 0.333332
14 67 14 100 0.333334
11 68 14 100 0.333333
14 68 14 100 0.666667
0 69 14 100 1.61974e-05
4 69 14 100 0.333333
6 69 14 100 0.333317
14 69 14 100 0.333333
0 70 14 100 0.00139538
4 70 14 100 0.998605
0 71 14 100 0.00087507
8 71 14 100 0.499125
11 71 14 100 0.5
0 72 14 100 0.5
6 72 14 100 0.5
4 73 14 100 0.5
6 73 14 100 0.5
4 74 14 100 0.5
6 74 14 100 0.5
0 75 14 100 2.24839e-05
6 75 14 100 0.5
12 75 14 100 0.499978
0 76 14 100 3.80439e-05
6 76 14 100 0.00014382
7 76 14 100 0.499845
12 76 14 100 0.499973
0 77 14 100 0.00024127
4 77 14 100 0.5
6 77 14 100 0.499759
0 78 14 100 6.56234e-06
4 78 14 100 0.999993
0 79 14 100 0.148985
5 79 14 100 0.351015
12 79 14 100 0.5
2 80 14 100 0.5
12 80 14 100 0.5
2 81 14 100 0.5
12 81 14 100 0.5
0 82 14 100 0.462187
4 82 14 100 0.484099
5 82 14 100 0.0536386
6 82 14 100 7.53369e-05
0 83 14 100 0.00663158
8 83 14 100 0.993368
4 84 14 100 0.500001
13 84 14 100 0.499999
4 85 14 100 0.5
6 85 14 100 0.0012856
11 85 14 100 0.498714
6 86 14 100 0.5
13 86 14 100 0.5
12 87 14 100 1
0 88 14 100 1.19214e-05
12 88 14 100 0.999988
1 89 14 100 0.5
12 89 14 100 0.5
0 90 14 100 0.233331
1 90 14 100 0.5
4 90 14 100 0.266669
0 91 14 100 2.07352e-05
6 91 14 100 0.00252055
12 91 14 100 0.997459
6 92 14 100 0.5
12 92 14 100 0.5
9 93 14 100 0.5
12 93 14 100 0.5
0 94 14 100 0.5
4 94 14 100 6.61833e-06
13 94 14 100 0.499993
0 95 14 100 0.000218762
6 95 14 100 0.0010858
7 95 14 100 0.5
12 95 14 100 0.498695
6 96 14 100 0.5
13 96 14 100 0.5
0 97 14 100 0.000153314
6 97 14 100 0.496241
7 97 14 100 0.5
12 97 14 100 0.00360581
6 98 14 100 0.5
7 98 14 100 0.5
0 99 14 100 0.499995
5 99 14 100 0.500005
1 100 14 100 0.5
6 100 14 100 0.5
1 1 15 100 0.348637
2 1 15 100 0.166647
11 1 15 100 0.117403
12 1 15 100 0.166667
15 1 15 100 0.200646
0 2 15 100 0.32957
1 2 15 100 0.117644
2 2 15 100 0.0588203
3 2 15 100 0.0588236
6 2 15 100 2.41692e-05
7 2 15 100 0.0588174
10 2 15 100 1.16068e-05
11 2 15 100 0.0588298
12 2 15 100 0.199811
15 2 15 100 0.117647
0 3 15 100 0.117641
1 3 15 100 0.294118
3 3 15 100 0.0588236
5 3 15 100 0.0588236
6 3 15 100 0.117652
11 3 15 100 0.0588236
12 3 15 100 0.176471
15 3 15 100 0.117647
0 4 15 100 0.125361
1 4 15 100 0.3125
2 4 15 100 0.0625
3 4 15 100 0.125
5 4 15 100 0.0625
6 4 15 100 0.0625
8 4 15 100 6.37629e-06
10 4 15 100 4.83184e-06
11 4 15 100 0.125
12 4 15 100 0.124628
0 5 15 100 0.251286
1 5 15 100 0.141605
2 5 15 100 0.12502
3 5 15 100 0.012428
4 5 15 100 3.99959e-06
5 5 15 100 0.0624935
6 5 15 100 0.0334646
7 5 15 100 9.4032e-07
9 5 15 100 0.0620706
10 5 15 100 0.00042952
11 5 15 100 0.123637
12 5 15 100 0.187498
13 5 15 100 1.30521e-06
14 5 15 100 6.2557e-05
0 6 15 100 4.94545e-05
1 6 15 100 0.13333
2 6 15 100 0.133347
3 6 15 100 0.0665953
4 6 15 100 0.03692
5 6 15 100 0.163015
6 6 15 100 1.77736e-05
8 6 15 100 7.42827e-05
9 6 15 100 0.0666667
10 6 15 100 0.0666667
11 6 15 100 0.199984
12 6 15 100 0.0666667
14 6 15 100 0.0666667
0 7 15 100 0.280435
1 7 15 100 0.0666855
2 7 15 100 0.133377
5 7 15 100 0.0666668
6 7 15 100 0.0666668
9 7 15 100 0.0572341
10 7 15 100 0.0618299
11 7 15 100 0.0671049
12 7 15 100 0.0666668
13 7 15 100 0.0666668
14 7 15 100 0.0666668
1 8 15 100 0.0666674
2 8 15 100 0.122256
5 8 15 100 0.0666696
6 8 15 100 0.0777323
9 8 15 100 0.0666679
10 8 15 100 0.0666655
11 8 15 100 0.266673
12 8 15 100 0.0666666
13 8 15 100 0.0666667
14 8 15 100 0.133333
15 8 15 100 7.35627e-07
0 9 15 100 0.215824
1 9 15 100 0.0714286
2 9 15 100 0.0714286
3 9 15 100 0.141577
5 9 15 100 0.0925394
6 9 15 100 0.0711721
9 9 15 100 0.0714286
10 9 15 100 0.0714779
11 9 15 100 0.193122
13 9 15 100 7.90519e-07
0 10 15 100 0.0714286
1 10 15 100 0.0714286
2 10 15 100 0.0714286
3 10 15 100 0.214286
6 10 15 100 0.0714286
9 10 15 100 0.0714286
11 10 15 100 0.214286
12 10 15 100 0.0714286
13 10 15 100 0.0714285
14 10 15 100 0.0714286
0 11 15 100 0.230509
2 11 15 100 0.0769231
3 11 15 100 0.153846
4 11 15 100 0.0769231
5 11 15 100 0.0769231
9 11 15 100 0.076923
10 11 15 100 0.0769219
11 11 15 100 0.153847
15 11 15 100 0.0771835
0 12 15 100 0.0598979
1 12 15 100 0.0769229
2 12 15 100 0.0769084
3 12 15 100 0.170782
4 12 15 100 0.0769231
5 12 15 100 0.0769231
6 12 15 100 2.06249e-05
7 12 15 100 3.69162e-05
8 12 15 100 1.58848e-05
9 12 15 100 0.076923
10 12 15 100 0.0769541
11 12 15 100 0.230769
14 12 15 100 0.0769231
0 13 15 100 0.137659
2 13 15 100 0.0768999
3 13 15 100 0.298522
4 13 15 100 0.0769232
6 13 15 100 0.0769241
9 13 15 100 0.0174525
11 13 15 100 0.153846
12 13 15 100 2.12071e-06
14 13 15 100 0.0848506
15 13 15 100 0.0769209
0 14 15 100 0.162067
1 14 15 100 0.0769231
3 14 15 100 0.222546
4 14 15 100 0.0769231
7 14 15 100 0.0769231
9 14 15 100 0.0769231
12 14 15 100 1.60357e-06
13 14 15 100 0.154132
14 14 15 100 0.0769231
15 14 15 100 0.0766373
0 15 15 100 0.166722
1 15 15 100 0.0278592
2 15 15 100 4.85774e-05
3 15 15 100 0.166667
4 15 15 100 0.0833333
5 15 15 100 0.0551618
7 15 15 100 0.0833333
9 15 15 100 0.0833333
11 15 15 100 0.000208682
13 15 15 100 0.166667
14 15 15 100 0.0833333
15 15 15 100 0.0833333
1 16 15 100 0.0833333
3 16 15 100 0.166658
4 16 15 100 0.0833333
7 16 15 100 0.0833333
9 16 15 100 0.0833333
13 16 15 100 0.333333
14 16 15 100 0.0833333
15 16 15 100 0.0833416
0 17 15 100 0.1
1 17 15 100 0.1
4 17 15 100 0.2
9 17 15 100 0.0999487
13 17 15 100 0.3
14 17 15 100 0.2
15 17 15 100 5.1311e-05
0 18 15 100 0.169578
1 18 15 100 0.1
2 18 15 100 1.42901e-06
4 18 15 100 0.1
10 18 15 100 0.1
11 18 15 100 1.68586e-05
13 18 15 100 0.231901
14 18 15 100 0.198503
15 18 15 100 0.1
0 19 15 100 0.1
1 19 15 100 0.2
4 19 15 100 0.1
5 19 15 100 0.1
9 19 15 100 0.1
13 19 15 100 0.2
15 19 15 100 0.2
0 20 15 100 0.3
1 20 15 100 0.1
9 20 15 100 0.1
13 20 15 100 0.2
14 20 15 100 0.1
15 20 15 100 0.2
0 21 15 100 0.1
1 21 15 100 0.1
5 21 15 100 0.1
8 21 15 100 0.1
9 21 15 100 0.2
13 21 15 100 0.1
14 21 15 100 0.1
15 21 15 100 0.2
0 22 15 100 0.124999
2 22 15 100 0.125
3 22 15 100 0.12499
5 22 15 100 0.125
13 22 15 100 8.77111e-06
14 22 15 100 0.125002
15 22 15 100 0.375
0 23 15 100 0.142857
2 23 15 100 0.142857
5 23 15 100 0.142857
9 23 15 100 0.142857
15 23 15 100 0.428571
6 24 15 100 0.142857
8 24 15 100 0.285714
9 24 15 100 0.140347
15 24 15 100 0.431082
0 25 15 100 1.79235e-06
1 25 15 100 0.142857
6 25 15 100 0.142857
8 25 15 100 0.142857
15 25 15 100 0.571427
6 26 15 100 0.166667
13 26 15 100 0.166667
15 26 15 100 0.666667
6 27 15 100 0.333333
13 27 15 100 0.166667
15 27 15 100 0.5
6 28 15 100 0.166667
9 28 15 100 0.333333
14 28 15 100 0.166667
15 28 15 100 0.333333
0 29 15 100 0.16667
6 29 15 100 0.166667
14 29 15 100 0.166667
15 29 15 100 0.499997
0 30 15 100 0.2
10 30 15 100 0.2
14 30 15 100 0.2
15 30 15 100 0.4
9 31 15 100 0.2
10 31 15 100 0.2
14 31 15 100 0.2
15 31 15 100 0.4
9 32 15 100 0.2
10 32 15 100 0.2
14 32 15 100 0.2
15 32 15 100 0.4
6 33 15 100 0.2
9 33 15 100 0.2
10 33 15 100 0.2
15 33 15 100 0.4
0 34 15 100 0.199761
8 34 15 100 0.2
9 34 15 100 0.000230925
10 34 15 100 0.200008
15 34 15 100 0.4
0 35 15 100 0.199999
8 35 15 100 0.2
9 35 15 100 0.2
10 35 15 100 0.2
15 35 15 100 0.2
0 36 15 100 0.233831
8 36 15 100 0.200001
9 36 15 100 0.16612
11 36 15 100 0.200001
13 36 15 100 4.68567e-05
15 36 15 100 0.200001
6 37 15 100 0.2
9 37 15 100 0.4
10 37 15 100 0.2
15 37 15 100 0.2
0 38 15 100 0.25
9 38 15 100 0.5
10 38 15 100 0.25
0 39 15 100 0.5
7 39 15 100 0.5
6 40 15 100 0.25
7 40 15 100 0.25
9 40 15 100 0.25
10 40 15 100 0.25
2 41 15 100 0.25
9 41 15 100 0.5
12 41 15 100 0.25
3 42 15 100 0.5
7 42 15 100 0.25
12 42 15 100 0.25
0 43 15 100 0.500163
3 43 15 100 0.25
4 43 15 100 0.249822
8 43 15 100 1.4945e-05
0 44 15 100 0.25
3 44 15 100 0.25
12 44 15 100 0.5
0 45 15 100 0.25
2 45 15 100 0.25
12 45 15 100 0.5
0 46 15 100 0.499754
3 46 15 100 0.25
9 46 15 100 3.26475e-05
12 46 15 100 0.250213
2 47 15 100 0.25
3 47 15 100 0.5
12 47 15 100 0.25
0 48 15 100 0.500036
3 48 15 100 0.426392
12 48 15 100 0.0735719
2 49 15 100 0.333333
11 49 15 100 0.333333
15 49 15 100 0.333333
0 50 15 100 0.333533
1 50 15 100 0.333134
11 50 15 100 0.333333
0 51 15 100 0.331745
2 51 15 100 0.666667
9 51 15 100 0.00158834
0 52 15 100 0.00462892
7 52 15 100 0.662037
10 52 15 100 0.333334
2 53 15 100 0.333333
7 53 15 100 0.666667
0 54 15 100 0.333333
2 54 15 100 0.666667
0 55 15 100 0.333333
2 55 15 100 0.333333
7 55 15 100 0.333333
0 56 15 100 0.333333
7 56 15 100 0.666667
0 57 15 100 2.34115e-05
5 57 15 100 0.333333
12 57 15 100 0.33331
13 57 15 100 0.333333
0 58 15 100 0.333333
4 58 15 100 0.333333
13 58 15 100 0.333333
0 59 15 100 0.00488104
4 59 15 100 0.328448
9 59 15 100 0.333333
12 59 15 100 0.333333
13 59 15 100 3.77006e-06
9 60 15 100 0.666667
11 60 15 100 0.333333
0 61 15 100 0.333333
9 61 15 100 0.333333
11 61 15 100 0.333333
9 62 15 100 0.666667
11 62 15 100 0.333333
12 63 15 100 0.5
13 63 15 100 0.5
8 64 15 100 0.5
12 64 15 100 0.5
8 65 15 100 0.5
9 65 15 100 0.5
0 66 15 100 0.499985
8 66 15 100 0.5
14 66 15 100 1.52475e-05
0 67 15 100 0.5
3 67 15 100 0.5
3 68 15 100 0.5
8 68 15 100 0.5
9 69 15 100 1
0 70 15 100 1
7 71 15 100 1
7 72 15 100 1
7 73 15 100 1
6 74 15 100 1
9 75 15 100 1
7 76 15 100 1
9 77 15 100 1
9 78 15 100 1
0 79 15 100 1
0 80 15 100 1
1 81 15 100 1
1 82 15 100 1
13 83 15 100 1
1 84 15 100 1
1 85 15 100 1
6 86 15 100 1
1 87 15 100 1
1 88 15 100 1
1 89 15 100 1
0 1 16 100 0.0817069
1 1 16 100 6.16243e-05
9 1 16 100 0.166667
11 1 16 100 0.000110409
12 1 16 100 5.32458e-05
14 1 16 100 0.333902
15 1 16 100 0.00437493
16 1 16 100 0.413124
0 2 16 100 0.0957764
2 2 16 100 1.63918e-06
4 2 16 100 0.000960208
5 2 16 100 0.0830039
6 2 16 100 0.000956245
8 2 16 100 0.00112909
9 2 16 100 0.166667
10 2 16 100 0.0833331
12 2 16 100 0.00896648
14 2 16 100 0.248629
15 2 16 100 0.00101131
16 2 16 100 0.309566
0 3 16 100 0.0992989
3 3 16 100 0.000453991
4 3 16 100 5.22831e-06
5 3 16 100 0.0748726
6 3 16 100 0.0221563
7 3 16 100 1.24463e-05
8 3 16 100 0.000406122
9 3 16 100 0.0909102
10 3 16 100 0.091414
12 3 16 100 0.0908924
14 3 16 100 0.259521
15 3 16 100 0.0909092
16 3 16 100 0.179147
0 4 16 100 4.93401e-05
1 4 16 100 3.47467e-05
2 4 16 100 1.2627e-06
3 4 16 100 1.65143e-05
6 4 16 100 4.07958e-05
9 4 16 100 0.00374044
10 4 16 100 0.296184
11 4 16 100 0.1
12 4 16 100 0.2
14 4 16 100 0.2
15 4 16 100 0.1
16 4 16 100 0.0999313
0 5 16 100 0.114841
2 5 16 100 0.000539947
6 5 16 100 1.01099e-06
9 5 16 100 3.20701e-06
10 5 16 100 0.188945
12 5 16 100 0.196125
13 5 16 100 6.07621e-06
14 5 16 100 0.28093
15 5 16 100 0.118608
16 5 16 100 0.1
0 6 16 100 0.222086
3 6 16 100 5.09239e-05
8 6 16 100 1.33482e-05
10 6 16 100 0.444432
11 6 16 100 8.43267e-05
13 6 16 100 0.111111
15 6 16 100 0.111111
16 6 16 100 0.111111
0 7 16 100 0.11111
1 7 16 100 1.11893e-06
5 7 16 100 5.00373e-06
9 7 16 100 4.37893e-06
10 7 16 100 0.222218
11 7 16 100 0.111111
12 7 16 100 0.111111
13 7 16 100 0.111111
14 7 16 100 0.111111
15 7 16 100 0.111111
16 7 16 100 0.111105
9 8 16 100 1.23714e-05
10 8 16 100 0.333321
11 8 16 100 0.111111
12 8 16 100 0.111111
13 8 16 100 5.8054e-05
14 8 16 100 0.111111
15 8 16 100 0.111111
16 8 16 100 0.222163
0 9 16 100 0.121776
6 9 16 100 1.25483e-05
7 9 16 100 0.111111
10 9 16 100 0.222223
11 9 16 100 0.111111
12 9 16 100 0.111111
15 9 16 100 0.100434
16 9 16 100 0.222221
0 10 16 100 0.222119
5 10 16 100 2.99826e-06
6 10 16 100 0.111111
7 10 16 100 0.111111
12 10 16 100 0.111111
14 10 16 100 0.111111
15 10 16 100 0.110929
16 10 16 100 0.222504
0 11 16 100 0.333564
1 11 16 100 0.000148497
2 11 16 100 5.32672e-05
3 11 16 100 1.29726e-06
4 11 16 100 8.61485e-05
5 11 16 100 5.0862e-05
6 11 16 100 0.111111
9 11 16 100 5.15098e-05
10 11 16 100 0.222222
12 11 16 100 0.111111
14 11 16 100 7.09903e-06
15 11 16 100 0.110709
16 11 16 100 0.110883
6 12 16 100 0.142857
7 12 16 100 0.142857
10 12 16 100 0.285714
11 12 16 100 0.142857
15 12 16 100 0.142857
16 12 16 100 0.142857
0 13 16 100 1.15797e-05
3 13 16 100 6.23094e-06
6 13 16 100 0.142857
7 13 16 100 0.142857
10 13 16 100 0.142856
11 13 16 100 0.142857
12 13 16 100 0.142857
15 13 16 100 0.141485
16 13 16 100 0.144211
0 14 16 100 0.799934
3 14 16 100 6.21897e-05
4 14 16 100 0.2
16 14 16 100 3.5226e-06
4 15 16 100 0.2
6 15 16 100 0.2
7 15 16 100 0.2
10 15 16 100 0.2
12 15 16 100 0.2
0 16 16 100 0.199999
4 16 16 100 0.2
7 16 16 100 0.4
10 16 16 100 0.2
4 17 16 100 0.2
6 17 16 100 0.2
10 17 16 100 0.4
12 17 16 100 0.2
0 18 16 100 0.4
6 18 16 100 0.2
10 18 16 100 0.2
12 18 16 100 0.2
1 19 16 100 0.2
4 19 16 100 0.2
6 19 16 100 0.2
10 19 16 100 0.4
0 20 16 100 0.0175831
4 20 16 100 0.182415
6 20 16 100 0.2
10 20 16 100 0.400001
12 20 16 100 0.2
0 21 16 100 0.2
9 21 16 100 0.2
10 21 16 100 0.4
12 21 16 100 0.2
1 22 16 100 0.2
9 22 16 100 0.4
10 22 16 100 0.4
0 23 16 100 0.0176895
1 23 16 100 0.2
9 23 16 100 0.382511
10 23 16 100 0.399799
1 24 16 100 0.2
9 24 16 100 0.6
10 24 16 100 0.2
0 25 16 100 0.60006
9 25 16 100 0.399934
15 25 16 100 5.61734e-06
1 26 16 100 0.2
7 26 16 100 0.2
9 26 16 100 0.6
0 27 16 100 0.0226147
1 27 16 100 0.25
3 27 16 100 3.15223e-06
5 27 16 100 0.477382
7 27 16 100 0.25
0 28 16 100 0.0028556
1 28 16 100 0.25
5 28 16 100 0.247118
7 28 16 100 0.25
13 28 16 100 0.25
16 28 16 100 2.6021e-05
0 29 16 100 0.00177977
1 29 16 100 0.25
5 29 16 100 0.5
7 29 16 100 0.24822
2 30 16 100 0.25
5 30 16 100 0.5
7 30 16 100 0.25
2 31 16 100 0.250038
3 31 16 100 0.24991
5 31 16 100 0.500001
16 31 16 100 5.11153e-05
0 32 16 100 0.249939
3 32 16 100 0.499999
5 32 16 100 0.250001
13 32 16 100 4.02892e-06
15 32 16 100 5.71926e-05
3 33 16 100 0.5
5 33 16 100 0.5
1 34 16 100 0.5
3 34 16 100 0.5
0 35 16 100 0.499983
3 35 16 100 0.500001
15 35 16 100 1.65624e-05
0 36 16 100 0.5
1 36 16 100 0.5
1 37 16 100 0.5
14 37 16 100 0.5
1 38 16 100 0.5
15 38 16 100 0.5
1 39 16 100 0.5
14 39 16 100 0.5
1 40 16 100 1
1 41 16 100 0.5
2 41 16 100 0.5
2 42 16 100 1
0 43 16 100 0.999961
16 43 16 100 3.89578e-05
2 44 16 100 1
0 45 16 100 0.5
7 45 16 100 0.5
2 46 16 100 1
2 47 16 100 1
2 48 16 100 1
2 49 16 100 1
0 50 16 100 0.5
2 50 16 100 0.5
2 51 16 100 0.5
12 51 16 100 0.5
0 52 16 100 2.138e-05
2 52 16 100 0.5
13 52 16 100 0.499979
1 53 16 100 0.5
12 53 16 100 0.5
6 54 16 100 0.5
12 54 16 100 0.5
6 55 16 100 0.5
12 55 16 100 0.5
12 56 16 100 1
0 57 16 100 0.5
12 57 16 100 0.5
6 58 16 100 0.5
12 58 16 100 0.5
0 59 16 100 0.5
12 59 16 100 0.5
6 60 16 100 0.5
12 60 16 100 0.5
1 61 16 100 0.5
6 61 16 100 0.5
6 62 16 100 0.5
9 62 16 100 0.5
10 63 16 100 0.5
12 63 16 100 0.5
0 64 16 100 0.500012
6 64 16 100 0.499988
5 65 16 100 0.5
6 65 16 100 0.5
9 66 16 100 0.5
10 66 16 100 0.5
10 67 16 100 1
5 68 16 100 0.5
12 68 16 100 0.5
9 69 16 100 1
9 70 16 100 1
0 71 16 100 1.55276e-05
13 71 16 100 0.999984
8 72 16 100 1
8 73 16 100 1
3 74 16 100 1
3 75 16 100 1
3 76 16 100 1
5 77 16 100 1
5 78 16 100 1
5 79 16 100 1
5 80 16 100 1
13 81 16 100 1
9 82 16 100 1
0 83 16 100 5.61249e-05
7 83 16 100 0.999944
9 84 16 100 1
9 85 16 100 1
14 86 16 100 1
14 87 16 100 1
0 88 16 100 4.68625e-05
13 88 16 100 0.999953
10 89 16 100 1
14 90 16 100 1
8 91 16 100 1
3 92 16 100 1
0 1 17 100 0.0624807
1 1 17 100 0.250768
3 1 17 100 8.74863e-06
8 1 17 100 0.18824
9 1 17 100 0.0624496
14 1 17 100 0.0297303
15 1 17 100 0.0530008
16 1 17 100 0.0721027
17 1 17 100 0.28122
0 2 17 100 0.133633
1 2 17 100 0.1874
2 2 17 100 0.00363536
3 2 17 100 1.15687e-06
4 2 17 100 0.00255393
5 2 17 100 0.000137131
6 2 17 100 0.0182688
8 2 17 100 0.249918
9 2 17 100 0.0571235
10 2 17 100 9.29338e-07
11 2 17 100 0.000479904
12 2 17 100 1.45075e-05
13 2 17 100 0.022
14 2 17 100 0.0625015
16 2 17 100 0.0624868
17 2 17 100 0.199847
1 3 17 100 0.266667
7 3 17 100 0.0666654
8 3 17 100 0.266658
9 3 17 100 1.26951e-06
11 3 17 100 2.44831e-05
14 3 17 100 0.0666667
16 3 17 100 0.0666553
17 3 17 100 0.266662
0 4 17 100 0.232728
1 4 17 100 0.142713
2 4 17 100 3.76009e-06
3 4 17 100 3.24994e-06
6 4 17 100 0.0714286
7 4 17 100 0.0717934
8 4 17 100 0.214056
10 4 17 100 0.0593348
14 4 17 100 0.0649785
16 4 17 100 8.01729e-05
17 4 17 100 0.14288
0 5 17 100 0.107056
1 5 17 100 0.306213
4 5 17 100 0.0768195
5 5 17 100 1.88233e-05
7 5 17 100 0.125275
8 5 17 100 0.153846
9 5 17 100 1.34637e-06
17 5 17 100 0.230769
0 6 17 100 0.0886546
1 6 17 100 0.333334
4 6 17 100 0.0833335
6 6 17 100 0.166667
7 6 17 100 0.162178
8 6 17 100 0.0833335
17 6 17 100 0.0825
1 7 17 100 0.272721
4 7 17 100 0.0909092
6 7 17 100 0.0909092
7 7 17 100 0.181818
9 7 17 100 5.78084e-06
12 7 17 100 0.0909092
17 7 17 100 0.272727
0 8 17 100 0.21801
1 8 17 100 0.111111
4 8 17 100 0.111111
6 8 17 100 0.111111
11 8 17 100 7.71325e-06
12 8 17 100 0.111113
17 8 17 100 0.337536
0 9 17 100 0.121272
1 9 17 100 0.111111
2 9 17 100 0.111111
4 9 17 100 4.57387e-05
5 9 17 100 0.0208814
6 9 17 100 0.224148
9 9 17 100 0.0775738
16 9 17 100 0.000522742
17 9 17 100 0.333334
0 10 17 100 0.355855
1 10 17 100 0.125
4 10 17 100 2.82512e-06
6 10 17 100 0.125
12 10 17 100 0.125002
13 10 17 100 0.125
16 10 17 100 9.74093e-06
17 10 17 100 0.14413
0 11 17 100 6.24721e-06
1 11 17 100 0.286474
2 11 17 100 0.142857
4 11 17 100 0.133607
7 11 17 100 0.00846624
10 11 17 100 0.142857
12 11 17 100 0.142857
17 11 17 100 0.142876
1 12 17 100 0.166667
2 12 17 100 0.166667
5 12 17 100 0.166667
15 12 17 100 0.166667
17 12 17 100 0.333333
0 13 17 100 0.166317
1 13 17 100 0.166667
5 13 17 100 0.166667
10 13 17 100 0.166667
12 13 17 100 0.166667
14 13 17 100 0.166667
16 13 17 100 6.73111e-06
17 13 17 100 0.000342976
0 14 17 100 0.00897995
1 14 17 100 0.166667
2 14 17 100 0.166667
5 14 17 100 0.166667
12 14 17 100 0.333333
14 14 17 100 0.157687
2 15 17 100 0.2
10 15 17 100 0.4
14 15 17 100 0.2
17 15 17 100 0.2
0 16 17 100 0.0084128
1 16 17 100 5.8076e-06
8 16 17 100 0.197831
10 16 17 100 0.4
14 16 17 100 0.19375
17 16 17 100 0.2
1 17 17 100 0.2
9 17 17 100 0.2
10 17 17 100 0.2
14 17 17 100 0.2
17 17 17 100 0.2
0 18 17 100 0.250178
1 18 17 100 0.25
10 18 17 100 0.25
12 18 17 100 3.18919e-06
14 18 17 100 0.249799
16 18 17 100 1.94819e-05
0 19 17 100 0.460177
1 19 17 100 0.250001
9 19 17 100 0.250001
17 19 17 100 0.0398218
0 20 17 100 0.497585
9 20 17 100 0.25
17 20 17 100 0.252414
1 21 17 100 0.333333
9 21 17 100 0.333333
11 21 17 100 0.333333
0 22 17 100 0.666634
10 22 17 100 0.333334
12 22 17 100 4.58045e-06
16 22 17 100 2.79806e-05
1 23 17 100 0.333333
9 23 17 100 0.333333
10 23 17 100 0.333333
1 24 17 100 0.666667
9 24 17 100 0.333333
1 25 17 100 0.666667
9 25 17 100 0.333333
0 26 17 100 0.344344
1 26 17 100 0.333333
9 26 17 100 0.320148
10 26 17 100 4.39435e-06
12 26 17 100 3.715e-05
14 26 17 100 8.80734e-06
17 26 17 100 0.00212475
1 27 17 100 0.666667
9 27 17 100 0.333333
0 28 17 100 4.08537e-05
3 28 17 100 0.333333
5 28 17 100 0.333333
11 28 17 100 0.333292
0 29 17 100 4.21015e-06
1 29 17 100 0.333333
3 29 17 100 0.333329
11 29 17 100 0.333333
0 30 17 100 0.00257375
1 30 17 100 0.333334
4 30 17 100 0.664093
1 31 17 100 0.333333
4 31 17 100 0.666667
1 32 17 100 0.333333
4 32 17 100 0.666667
0 33 17 100 0.32971
5 33 17 100 0.333333
7 33 17 100 0.333333
17 33 17 100 0.00362377
4 34 17 100 0.333333
5 34 17 100 0.333333
9 34 17 100 0.333333
0 35 17 100 0.331761
2 35 17 100 0.333333
5 35 17 100 0.333333
17 35 17 100 0.00157244
3 36 17 100 0.333333
5 36 17 100 0.333333
12 36 17 100 0.333333
0 37 17 100 0.333322
3 37 17 100 0.333333
12 37 17 100 0.333338
14 37 17 100 7.05238e-06
0 38 17 100 0.33334
3 38 17 100 0.333327
7 38 17 100 0.333333
0 39 17 100 0.333333
2 39 17 100 0.333333
9 39 17 100 0.333333
0 40 17 100 0.333043
2 40 17 100 0.333333
7 40 17 100 0.333333
17 40 17 100 0.000289969
0 41 17 100 0.333332
2 41 17 100 0.333334
9 41 17 100 0.333334
2 42 17 100 0.333333
7 42 17 100 0.333333
9 42 17 100 0.333333
1 43 17 100 0.333333
2 43 17 100 0.333333
7 43 17 100 0.333333
7 44 17 100 0.333333
8 44 17 100 0.666667
8 45 17 100 0.5
9 45 17 100 0.5
4 46 17 100 0.5
9 46 17 100 0.5
0 47 17 100 0.5
4 47 17 100 0.5
4 48 17 100 1
4 49 17 100 0.5
13 49 17 100 0.5
0 50 17 100 0.498904
2 50 17 100 0.5
17 50 17 100 0.00109619
0 51 17 100 0.5
4 51 17 100 0.5
0 52 17 100 0.499814
2 52 17 100 0.5
17 52 17 100 0.000185587
